0.021253807470202,-0.099208772182465,0.015779752284288,-0.066276788711548,1.0949498414993,-0.01088872179389,0.36912852525711,0.064245276153088,1.2347702980042,-0.16482672095299,0.54931449890137,0.90954911708832,0.038874056190252,0.30182531476021,0.0083034792914987,-0.025288628414273,-0.13949066400528,-0.40915456414223,-0.045253574848175,0.0055315955542028,-0.12183414399624,-0.016729803755879,0.0025540655478835,3.3913595676422,-0.11934321373701,0.03394653275609,0.27565956115723,-0.17321689426899,0.16288323700428,-0.074382483959198,-0.1092854142189,-0.51962530612946,0.063272081315517,-2.2019860744476,0.10778945684433,0.36432731151581,-3.3063595294952,0.3823467195034,0.044238809496164,0.27821728587151,0.042822573333979,-0.012201864272356,0.03479865193367,0.21598270535469,-0.05029496178031,-0.027153700590134,-0.015365378931165,-1.3492023944855,-0.24190154671669,1.6880975961685,0.057620029896498,0.010367271490395,-1.1088980436325,0.12224420160055,0.19732856750488,0.65560293197632,0.26351526379585,-0.019992623478174,-0.015237119980156,1.2538288831711,-0.26572674512863,0.57346069812775,0.12215301394463,-0.15336368978024,-0.50394636392593,-0.26116427779198,-0.32313260436058,-0.4554298222065,-0.05939543992281,-0.13438481092453,0.16603191196918,-0.066560052335262,0.58511930704117,-0.01139844302088,0.4191455245018,0.78584814071655,-0.071037955582142,0.24459527432919,-0.0083932438865304,-0.85344290733337,0.36290654540062,0.33316335082054,-0.52579641342163,-0.0054630106315017,0.24190850555897,-0.26782646775246,0.74210143089294,-0.017742428928614,-0.032461896538734,0.86251336336136,0.080088816583157,-0.078955665230751,0.16183386743069,-0.10247175395489,-0.13930436968803,0.40961340069771,0.19033473730087,0.057564340531826,4.5138359069824,-0.051814209669828,0.0013311840593815,-0.0023611367214471,0.54296153783798,0.22122465074062,-0.087796911597252,-0.77295613288879,-0.26844018697739,0.11814775317907,-0.23727977275848,0.23547706007957,-1.1071251630783,-0.79946845769882,0.35413762927055,0.078221254050732,-0.0038054403848946,-0.31695261597633,-0.14295835793018,0.19120644032955,-0.016703240573406,-0.16699683666229,0.50607568025589,2.5062832832336,0.0028979701455683,0.38201969861984,-0.046302273869514,-0.10032803565264,1.6886290311813,0.93258422613144
-0.14009276032448,-0.2687726020813,0.29695320129395,-0.099084690213203,0.043968364596367,-0.004663061350584,0.34435680508614,-0.020987076684833,0.2078909277916,-0.068094089627266,-0.22788669168949,0.050828043371439,-0.58862209320068,0.46860805153847,0.071532286703587,-0.038429129868746,-0.28626853227615,-0.44712162017822,0.010656530037522,0.55771642923355,-0.14395166933537,-0.015431659296155,0.081568606197834,1.6403313875198,-0.073923267424107,0.053526729345322,-0.12113047391176,-0.13335272669792,0.28743281960487,-0.039113156497478,0.023046802729368,-0.014691486023366,-0.062238089740276,-1.8048113584518,-0.29599764943123,0.19539628922939,-2.0811262130737,0.43132752180099,-0.088364392518997,0.27595391869545,0.04857524484396,0.0089726652950048,0.025616137310863,0.20039990544319,-0.39114266633987,0.0078632878139615,-0.0042974608950317,-1.5141824483871,-0.20528762042522,0.3319893181324,0.076934851706028,0.019370466470718,-0.090324230492115,0.065070182085037,0.1430009752512,0.61685115098953,0.23604829609394,-0.16373535990715,-0.023690784350038,2.45294713974,0.079185709357262,0.83478766679764,0.074559383094311,-0.096673190593719,0.24037905037403,-0.027057250961661,0.083471313118935,-0.42073720693588,-0.060716297477484,0.0011093548964709,0.41969022154808,-0.068834356963634,0.67335313558578,0.10125038027763,0.016565280035138,-0.061729244887829,-0.055550143122673,-0.62845760583878,-0.022401232272387,-1.8633545637131,-0.012938674539328,0.30676859617233,0.095020301640034,-0.38207599520683,0.10036492347717,-0.057010967284441,-0.17412337660789,-0.0073614800348878,-0.038942079991102,0.35664370656013,-0.57196551561356,0.16389966011047,-0.0075006503611803,-0.0051710507832468,-0.10394210368395,0.0052752490155399,-0.11015588790178,0.065541222691536,3.0490007400513,0.096530929207802,-0.55854505300522,0.2363196015358,0.5029958486557,0.18020176887512,-0.025465983897448,-0.71250224113464,-0.16659305989742,0.11431565135717,-0.12168777734041,0.20160268247128,0.010486180894077,-2.0678527355194,-0.044472951442003,-0.0015671561704949,-0.0058344807475805,-0.31603291630745,-0.041611291468143,0.14542306959629,-0.02103684656322,-0.16496205329895,-0.12881830334663,3.2378294467926,-0.010795871727169,-0.057378452271223,0.18922038376331,-0.2079416513443,0.36620205640793,0.54287534952164
-0.12269058823586,0.46604487299919,0.31560066342354,-0.39303404092789,1.7157242298126,-0.015690740197897,0.40446722507477,-0.015744803473353,1.5229932069778,-0.045396212488413,0.17901772260666,1.2031534910202,-1.1852614879608,0.49963927268982,0.011078610084951,0.0069173872470856,-0.025275664404035,-0.46001729369164,1.1894745826721,0.61067593097687,-0.034163262695074,0.39987745881081,0.098024442791939,2.5405428409576,-0.077991954982281,-0.81354969739914,-0.33609443902969,0.2083253711462,0.28247615695,0.022491717711091,0.16093765199184,-0.10326819866896,-0.82009309530258,-2.3320589065552,-0.55972290039062,0.026736218482256,-2.9046697616577,0.28864452242851,-0.75437092781067,0.22848574817181,0.042307268828154,-0.025351757183671,0.0014809962594882,0.18226745724678,0.034897726029158,-0.0024905251339078,0.01142687164247,-0.72821986675262,-0.079364374279976,1.4125472307205,0.15483233332634,0.039983417838812,-1.0822312831879,-0.01220163051039,0.10355149954557,0.18304522335529,0.045635618269444,0.57688844203949,-0.3432380259037,1.7632068395615,-0.0086960950866342,0.51119446754456,0.090643465518951,-0.030630590394139,0.24989230930805,-0.1007104665041,0.0024079687427729,0.16669280827045,-0.066966503858566,-0.18689984083176,0.098845444619656,-0.087302885949612,0.32881057262421,-0.010134844109416,0.15815399587154,0.68758344650269,-0.08067974448204,0.22757285833359,0.013622676022351,-1.00446164608,0.26817548274994,0.36462354660034,-0.65209126472473,-0.42097410559654,1.1060580015182,-0.29755625128746,0.12776198983192,0.042295146733522,-0.12045260518789,0.66994208097458,-0.45765709877014,0.26197868585587,0.48202314972878,-0.0088805472478271,-0.44064450263977,0.8357640504837,0.37934654951096,0.11791872233152,2.9414825439453,0.66169708967209,-0.48024332523346,-0.13015025854111,0.48933839797974,0.01665473729372,0.18377271294594,-0.68647289276123,-0.3669438958168,0.29966244101524,-0.32882639765739,-0.46798712015152,-0.11807696521282,-0.88091659545898,0.41803067922592,-0.0048900288529694,0.015797609463334,-0.29618635773659,-0.063691884279251,0.24942085146904,-0.00063281517941505,-0.19735863804817,0.45635235309601,1.1641515493393,0.037234865128994,0.060824617743492,0.048825599253178,-0.26418954133987,1.0178096294403,0.29178845882416
-0.77390813827515,0.41821646690369,1.047358751297,-0.75217497348785,1.9146274328232,-3.8994176387787,-1.005202293396,3.003894329071,2.3799540996552,-3.2423288822174,0.2947650551796,3.4468510150909,-1.2430908679962,1.6123776435852,-1.3320181369781,2.2650279998779,-3.0484929084778,-0.57382428646088,1.0416967868805,1.3317201137543,-6.1405200958252,2.6680307388306,1.8636876344681,3.2155132293701,-2.3711395263672,-1.9046748876572,0.21705865859985,0.58293259143829,0.37820068001747,0.35591039061546,1.7318904399872,-0.81274324655533,-1.2163134813309,-3.5721426010132,-1.0985954999924,0.24442026019096,-3.5703864097595,0.74805653095245,-1.4187444448471,-0.072451256215572,6.6286821365356,3.2999811172485,-4.4836754798889,0.12469305098057,-0.55494701862335,-1.7865332365036,2.9516844749451,-2.1142926216125,0.54586809873581,3.3403725624084,-1.9534702301025,-0.5946506857872,-1.5247478485107,-1.1432474851608,-1.687384724617,0.77842611074448,-0.41065177321434,0.32614806294441,-3.4417984485626,2.6850883960724,-0.93463569879532,2.9281673431396,-3.6850605010986,0.82149142026901,-0.2847600877285,-0.010381699539721,-1.5285795927048,-0.29988756775856,4.3592348098755,-2.2872502803802,2.1183733940125,-1.903480052948,2.2677772045135,3.5050990581512,1.6793180704117,1.1564610004425,0.92737191915512,-0.3083969950676,-3.1329915523529,-1.7570796012878,0.79792267084122,0.50924915075302,-0.77878153324127,-1.6708912849426,2.0669202804565,-4.3263311386108,0.4120267033577,2.7172055244446,-2.7699947357178,3.4523229598999,-0.66595268249512,2.4004719257355,2.3196685314178,1.5975751876831,-1.2478865385056,0.5412346124649,0.52850860357285,0.91733545064926,4.2353730201721,1.0280406475067,-1.1352586746216,-1.2872494459152,0.76674205064774,-0.59845334291458,1.6533411741257,-1.8866857290268,0.2430622279644,2.7781138420105,0.3017341196537,-2.0658905506134,-1.7626287937164,-2.0541169643402,0.89765334129333,3.7612307071686,-3.3718376159668,-0.8023487329483,-1.4025287628174,0.15562191605568,3.3931005001068,1.0311558246613,2.1873867511749,3.2664654254913,-4.4641833305359,0.97698456048965,-0.61343413591385,-0.98826336860657,3.7422182559967,1.1516295671463
-0.79769116640091,0.4026894569397,0.92206913232803,-0.556536257267,1.7023199796677,-4.2478609085083,-1.1374168395996,3.5675032138824,2.8488183021545,-3.274078130722,0.28023800253868,2.9886047840118,-1.305647611618,1.4292423725128,-1.3140124082565,2.0224945545197,-3.5393917560577,-0.67425531148911,0.86185657978058,1.2629752159119,-5.2482504844666,2.9790909290314,1.3666396141052,3.6744112968445,-2.9116024971008,-1.9043877124786,0.32195261120796,0.79728019237518,0.53155726194382,0.17109389603138,1.727565407753,-0.890161216259,-1.0705051422119,-4.1172800064087,-1.0465286970139,0.16544160246849,-4.345606803894,1.0473747253418,-1.4674421548843,-0.20879147946835,7.561749458313,3.8530805110931,-5.0697393417358,0.097272403538227,-0.47230669856071,-1.8795748949051,3.1227838993073,-1.6975418329239,0.63442236185074,2.2139554023743,-1.7206456661224,-0.75312668085098,-1.7159522771835,-1.1376111507416,-1.7109357118607,0.91718578338623,-0.18107418715954,0.17441706359386,-4.2082538604736,1.9814522266388,-1.1750359535217,2.291606426239,-4.0416903495789,0.76239734888077,-0.090669073164463,0.057908084243536,-1.6742534637451,-0.20832352340221,5.3295521736145,-2.5875027179718,2.2540600299835,-1.3368717432022,2.8852405548096,4.2721376419067,2.0888478755951,1.4776182174683,0.94896161556244,-0.50292491912842,-3.1159057617188,-1.726710319519,0.65556365251541,0.49865752458572,-0.85993248224258,-1.5036540031433,1.9330679178238,-6.1317791938782,0.48131000995636,2.9897210597992,-3.2936220169067,4.1154236793518,-0.5524725317955,2.4330239295959,2.3520705699921,1.3412132263184,-1.2951887845993,0.54903388023376,0.52329528331757,0.88985985517502,2.7929067611694,0.99405771493912,-1.076592206955,-1.4460090398788,0.87033891677856,-0.55554485321045,1.8530163764954,-1.5314157009125,0.3183508515358,3.098228931427,0.024489318951964,-2.0585598945618,-2.0163414478302,-1.5815626382828,1.2628738880157,5.2194848060608,-5.9267201423645,-0.88591349124908,-1.5289487838745,0.024776350706816,2.3933205604553,0.95061504840851,2.2907464504242,2.2083282470703,-4.4067521095276,1.040719628334,-0.50944286584854,-0.96049612760544,3.490437746048,1.0074706077576
-0.021939313039184,-0.05639785528183,0.0012777305673808,-0.51331895589828,0.16875739395618,-0.031199727207422,0.19086903333664,-0.024016754701734,0.097849063575268,-0.17277628183365,0.050388120114803,1.3997408151627,-0.34624961018562,0.51609992980957,-0.0083432151004672,-0.050784505903721,-0.20457977056503,-0.24635390937328,-0.051766563206911,-0.046264976263046,0.040317963808775,0.054314475506544,-0.051582612097263,0.99911761283875,0.012875504791737,-0.51970827579498,0.067323364317417,0.3875484764576,0.17034040391445,-0.004794713575393,0.061476722359657,-0.055169481784105,0.12169354408979,-1.7874418497086,-0.70379912853241,0.22728787362576,-2.66277384758,0.33217591047287,0.026875207200646,0.18539407849312,0.034395318478346,0.028750313445926,0.035157687962055,0.23638409376144,-0.35965624451637,0.046562165021896,0.017326079308987,-0.046838451176882,-0.096509821712971,0.26695159077644,0.20734490454197,0.0040467940270901,-0.16204155981541,-0.057965558022261,0.089656077325344,0.64480352401733,0.13644424080849,-0.11261460930109,0.13795232772827,1.7758164405823,0.12398397177458,0.77157407999039,0.095824778079987,0.015289302915335,-0.034505609422922,-0.095804646611214,0.065859109163284,-0.2425395399332,-0.09742034226656,-0.34851488471031,0.56547617912292,-0.025996025651693,0.25905558466911,0.3326623737812,0.10491091758013,0.13980986177921,-0.043265290558338,-0.57419979572296,0.26499199867249,-0.31205901503563,-0.08372688293457,0.090827584266663,-0.55850827693939,-0.17125752568245,0.79310768842697,-0.91521173715591,-0.099140726029873,0.012528550811112,-0.87703889608383,0.62232238054276,0.1174406632781,-0.056565519422293,0.46935603022575,-0.13035057485104,-0.047690186649561,0.050752561539412,-0.040125105530024,0.05722738802433,0.34818544983864,-0.065773539245129,-0.21742257475853,0.36691179871559,0.50780475139618,-0.18140780925751,0.06319060921669,-0.3499291241169,-0.51851522922516,0.18190571665764,-0.21406657993793,0.098466269671917,-0.017163801938295,-0.65845727920532,0.7148864865303,-0.17358365654945,-0.0027818491216749,-0.25444772839546,-0.51230674982071,0.10164043307304,0.0010899074841291,0.24272833764553,-0.28405866026878,0.065535575151443,-0.096205770969391,0.019142603501678,-0.096061788499355,0.11144261062145,0.0049437750130892,-0.16557696461678
-0.21179540455341,0.38388285040855,0.22519692778587,-0.3526064157486,0.91305404901505,0.0033969478681684,0.3666510283947,-0.020526202395558,0.51667976379395,-0.041205298155546,-0.030655605718493,1.442305803299,-0.50733560323715,0.45773088932037,0.04156356304884,0.032945685088634,0.033980242908001,-0.47167345881462,0.43838405609131,0.7601609826088,-0.13478748500347,0.21063765883446,0.089755766093731,1.8664741516113,-0.081084944307804,-0.99836122989655,-0.27396586537361,0.10520777851343,0.36656475067139,-0.038436103612185,0.33721369504929,-0.094816222786903,-0.91035169363022,-1.5800621509552,-0.67885714769363,-0.09505058079958,-1.6704046726227,0.36731413006783,-0.54734599590302,0.28888240456581,0.053026676177979,-0.026164077222347,0.017443034797907,0.20479974150658,0.36991611123085,0.021128460764885,0.017363907769322,-1.2891758680344,-0.18740600347519,1.6906598806381,0.151128038764,0.0048473551869392,-1.0777022838593,0.068199642002583,0.058144949376583,0.4131672680378,0.1547364294529,0.032572437077761,-0.10775224864483,1.250914812088,-0.14938747882843,0.39504045248032,0.078538239002228,-0.052196849137545,0.21483686566353,-0.044345233589411,0.057250797748566,-0.137302339077,-0.06728059053421,-0.19989259541035,-0.12483955174685,-0.025296235457063,0.43727916479111,0.015310262329876,0.091526836156845,0.9610635638237,-0.063389152288437,0.036662247031927,0.05256561934948,-0.77100145816803,0.088028654456139,0.28591001033783,-0.69913059473038,-0.40408471226692,0.86591172218323,-0.12019752711058,-0.089701518416405,-0.01869180239737,-0.04073329269886,0.59000277519226,-0.85789561271667,0.15970697999001,0.28955790400505,-0.080864034593105,-0.40877604484558,0.30255028605461,-0.055089376866817,0.08186761289835,2.2387020587921,0.84149515628815,-0.55614393949509,0.04383871331811,0.51103067398071,0.16117663681507,0.11705205589533,-0.70046347379684,-0.31310483813286,0.23730799555779,-0.25260198116302,-0.41086515784264,-0.042074609547853,-0.95660549402237,0.47441723942757,-0.040491625666618,0.0083936294540763,-0.30435076355934,-0.1342763453722,0.17176167666912,-0.037193764001131,-0.065338060259819,0.46253183484077,2.1272900104523,0.020544957369566,-0.015524514019489,-0.035829119384289,-0.79533886909485,0.60712772607803,0.14976589381695
-0.69995659589767,-0.24950113892555,-0.16410107910633,-0.12206956744194,0.80443173646927,-0.0068318219855428,0.23473684489727,0.072327792644501,1.4700144529343,-0.10846749693155,-0.0060044610872865,1.3492567539215,-1.5227690935135,0.40915820002556,0.018762145191431,-0.0024678066838533,-0.59137666225433,-0.30728930234909,-0.27058500051498,1.0821764469147,-0.36959534883499,0.128113463521,-0.034484107047319,2.4086496829987,-0.15457053482533,0.1560994386673,0.44295060634613,0.20478677749634,-0.30028760433197,-0.056900426745415,0.74840611219406,-0.034241419285536,0.24701148271561,-2.727588891983,-0.35250037908554,-1.1811351776123,-2.8027052879333,0.40558338165283,-0.26742351055145,0.26309505105019,-0.085020214319229,0.038048349320889,-0.068841673433781,0.17583851516247,-0.2756285071373,-0.078692533075809,0.092445209622383,-0.0062591326422989,-0.14723713696003,0.98958241939545,0.07422412186861,-0.10092395544052,-0.48729735612869,0.095699936151505,0.024824822321534,0.29260700941086,0.19403812289238,-0.0050924029201269,-0.46400389075279,2.0427341461182,-0.46856269240379,0.79681473970413,-0.11816305667162,-0.018483718857169,0.31481900811195,-0.070352181792259,-0.048925001174212,-0.6234844326973,-0.03399882465601,-0.52352154254913,0.839619576931,-0.013784358277917,0.50237166881561,0.3258561193943,0.15047307312489,0.33192771673203,-0.036887139081955,0.090250715613365,-0.24922156333923,-1.5815428495407,0.27739605307579,0.21831241250038,-0.5446657538414,0.11230116337538,0.74289619922638,-0.043560996651649,-0.16625632345676,0.064812883734703,-0.082155339419842,1.0944375991821,0.27963918447495,0.32527059316635,0.25646674633026,-0.040037881582975,-0.34755823016167,-0.072919920086861,0.23615933954716,-0.038222964853048,1.9850399494171,0.057615917176008,-0.31004399061203,-0.087875731289387,0.40408781170845,0.060675173997879,0.19721342623234,-0.73439824581146,0.33902078866959,0.25904932618141,-0.015682665631175,-0.08430752903223,-0.081428408622742,-1.6851967573166,0.1431475430727,0.1661681085825,-0.090387761592865,-0.22538079321384,-0.54164117574692,0.087784759700298,-0.10496529191732,-0.14387048780918,0.14129044115543,0.72415804862976,-0.088218733668327,-0.0042028133757412,-0.026287715882063,-0.68216007947922,0.28373411297798,0.24448610842228
-0.13327249884605,0.34765467047691,0.18125396966934,-0.26015082001686,1.3652303218842,-0.0047054002061486,0.31162744760513,-0.020213674753904,0.92811810970306,-0.045575145632029,-0.20304538309574,1.7283339500427,-0.71985894441605,0.47053763270378,0.091930888593197,-0.05183445289731,0.041032996028662,-0.42488181591034,0.91595858335495,0.51424837112427,-0.053399231284857,0.23054954409599,0.14566469192505,2.1409912109375,-0.061932198703289,-0.85561287403107,-0.25836518406868,0.034917488694191,0.29789143800735,-0.058596689254045,0.25815460085869,-0.20718866586685,-0.73452717065811,-1.8237198591232,-0.55640262365341,-0.16744373738766,-1.9825296401978,0.38601166009903,-0.39313608407974,0.30557066202164,0.012545245699584,-0.023444229736924,0.03230132907629,0.23273988068104,0.33548438549042,0.039892569184303,-0.0053732288070023,-1.2062547206879,-0.2336367815733,2.0082049369812,0.098846092820168,0.036476511508226,-1.0872824192047,0.031946163624525,0.083197191357613,0.087444774806499,0.16717028617859,0.42174679040909,-0.25774294137955,1.2854285240173,-0.36660620570183,0.37960532307625,-0.014907494187355,-0.038271814584732,0.12064439058304,-0.19562447071075,-0.14219899475574,0.072188675403595,-0.090385876595974,-0.14145559072495,0.09852247685194,-0.05314564704895,0.52738749980927,-0.040565278381109,0.21915969252586,0.56309545040131,-0.044245146214962,-0.021712452173233,-0.06988076120615,-0.89136308431625,0.98648297786713,0.29592353105545,-0.67419070005417,-0.29615342617035,0.94367873668671,-0.044089253991842,0.25188991427422,-0.0036091515794396,-0.0036038139369339,0.65816950798035,-0.36807012557983,0.23382921516895,0.18804113566875,-0.094299770891666,-0.47922921180725,0.020448641851544,0.0051230108365417,0.076010443270206,2.8856720924377,1.0099573135376,-0.48780354857445,0.1793349981308,0.52412217855453,0.17695479094982,0.26253971457481,-0.75107288360596,-0.21592779457569,0.22252966463566,-0.17929308116436,-0.5228431224823,-0.11622359603643,-0.98553538322449,0.34686064720154,0.053937759250402,-0.015192783437669,-0.30538836121559,-0.037856135517359,0.22330501675606,-0.059778045862913,-0.1483601629734,0.61533743143082,2.4317474365234,0.0075760325416923,0.092429101467133,0.13825844228268,-0.67305338382721,0.62494957447052,0.4338281750679
-0.37096339464188,0.99625420570374,0.48169466853142,-0.44724977016449,1.8488187789917,-4.5521478652954,-0.61420625448227,3.3281407356262,2.7026529312134,-3.740082025528,0.21898676455021,5.5471534729004,-0.21394897997379,1.0517301559448,-0.88502407073975,1.6983141899109,-4.3295059204102,0.1869585365057,0.16686253249645,0.35349571704865,-3.6227917671204,2.397435426712,0.35505598783493,8.3618154525757,-3.1099481582642,-1.7647936344147,0.090006098151207,0.24644492566586,-0.3711271584034,-0.025796215981245,0.36907082796097,-0.84145474433899,-0.25753355026245,-9.4944705963135,-0.25364744663239,0.095821842551231,-8.9374141693115,0.32248541712761,-0.14001622796059,0.078588791191578,10.82951259613,2.2246625423431,-3.8373470306396,0.043572559952736,-0.73314946889877,-1.7908117771149,2.4173214435577,-1.4465070962906,1.2318259477615,2.1378710269928,-3.7017757892609,-1.3357999324799,-1.8685134649277,-0.1346622556448,0.0098316334187984,-0.0016515747411177,0.061998024582863,-0.66554564237595,-5.1039319038391,2.7063217163086,-1.2989562749863,4.8960270881653,-1.5942673683167,0.36931249499321,-0.12781210243702,-0.11751186847687,-1.3756062984467,-0.37740305066109,5.2252840995789,-3.4910686016083,3.1120920181274,-1.7628844976425,3.9907369613647,6.2024364471436,1.7992497682571,1.059471487999,0.73729383945465,0.0010277576511726,-2.9241600036621,-1.9501093626022,1.1311738491058,0.33139741420746,-1.3766397237778,-0.46396094560623,2.1526782512665,-4.5157380104065,0.39926379919052,2.4544284343719,-3.1333575248718,5.4129886627197,-0.089701756834984,0.17865371704102,2.7916588783264,0.16320636868477,-1.2320529222488,0.20824049413204,0.56599235534668,0.48485833406448,6.8119044303894,0.085664346814156,-0.35052490234375,-1.4902542829514,0.22988763451576,-0.55796563625336,0.23510733246803,-0.95026379823685,-0.052680432796478,2.5678269863129,-0.15802246332169,-0.074519000947475,-2.0270261764526,-2.3267691135406,1.0662652254105,3.4703259468079,-5.2047052383423,-0.66266107559204,-0.99540495872498,1.1256475448608,3.2950229644775,1.2163369655609,1.2027477025986,3.8303380012512,-3.1580004692078,0.44218510389328,-1.195778131485,-0.62612599134445,6.1150331497192,1.6465121507645
-0.10780716687441,0.50053322315216,0.0024512019008398,-0.14467304944992,0.9790313243866,-0.013593692332506,0.34977048635483,-0.025584880262613,1.1773324012756,-0.027550308033824,-0.30598843097687,-0.045511245727539,-0.70147216320038,0.26992201805115,0.042360458523035,-0.025741189718246,0.14025041460991,-0.48934265971184,0.71341288089752,0.14247313141823,-0.10324607044458,0.42406806349754,0.33724665641785,0.11985786259174,-0.15826472640038,-1.0076110363007,0.016506947577,-0.062190342694521,0.28190994262695,-0.067244097590446,0.081118166446686,-0.20384706556797,-0.95326316356659,-0.29882165789604,-0.137709826231,-0.0055587515234947,-0.16036874055862,0.41525211930275,-0.2061238437891,0.27705085277557,0.044734351336956,0.014514870010316,0.0080924164503813,0.28244787454605,0.093794800341129,0.04360007122159,0.028167502954602,-1.0764451026917,-0.21054643392563,1.3833583593369,0.091986767947674,0.04946106672287,-1.1070246696472,0.075147047638893,0.097393073141575,-0.063672848045826,0.25764510035515,0.52386063337326,-0.23644967377186,-0.0033943611197174,-0.60362064838409,0.086568936705589,0.086925409734249,0.12510703504086,0.10536808520555,-0.066227957606316,0.01763472519815,0.010096736252308,-0.069000385701656,-0.069652780890465,-0.1352998316288,-0.013572695665061,0.66351902484894,-0.065996453166008,0.17569921910763,0.16701902449131,0.11011461168528,-0.53207445144653,-0.034346956759691,-1.1038480997086,0.91625595092773,0.29731264710426,-0.46094787120819,-0.18028755486012,1.1321487426758,-0.0238714274019,0.32667765021324,-0.0070288265123963,-0.00087585527217016,1.2633192539215,-0.39349147677422,-0.01335821300745,0.2757360637188,-0.14787942171097,-0.61979961395264,0.21179807186127,0.21961814165115,0.089050389826298,1.9180074930191,0.81537169218063,-0.45296850800514,0.30467340350151,0.5972962975502,-0.0045471489429474,0.42474815249443,-0.76390671730042,-0.24851644039154,0.21137604117393,-0.25337913632393,-0.027236681431532,-0.061285842210054,-2.1937108039856,0.80528748035431,0.012314546853304,-0.038163766264915,-0.27402457594872,-0.21814931929111,0.19304102659225,-0.057564131915569,-0.11176391690969,0.57112103700638,1.3730417490005,0.016632536426187,-0.02246393635869,-0.1326746493578,-0.51476138830185,0.13494347035885,-0.15011225640774
-0.097110942006111,0.34961068630219,0.15753725171089,-0.24517287313938,1.2607506513596,-0.017698986455798,0.33218312263489,-0.015593560412526,1.1732366085052,-0.042127229273319,-0.13525193929672,1.9907767772675,-0.76515024900436,0.41610109806061,0.086841583251953,0.031129768118262,0.068905957043171,-0.43197351694107,1.0129293203354,0.53161418437958,-0.11581210047007,0.22348155081272,0.15635900199413,2.4074783325195,-0.087210044264793,-0.81944268941879,-0.2514660358429,0.051536966115236,0.37336280941963,-0.053700793534517,0.32715412974358,-0.16451892256737,-0.82786601781845,-1.6756136417389,-0.57823061943054,-0.04706871882081,-2.3868365287781,0.39046549797058,-0.46260637044907,0.23130744695663,0.039975453168154,-0.0070874150842428,0.029739432036877,0.21930924057961,0.36652180552483,0.033524941653013,0.01899971626699,-1.1676610708237,-0.18349328637123,2.1260800361633,0.13176377117634,0.0022717379033566,-1.0767986774445,0.059158071875572,0.039238672703505,0.17768310010433,0.14631623029709,0.41832220554352,-0.34129157662392,1.7150877714157,-0.37218460440636,0.34730279445648,0.057636752724648,-0.038302898406982,0.19637525081635,-0.11677683889866,-0.060267206281424,0.00679204845801,-0.071867018938065,-0.24579843878746,0.0070671825669706,-0.0065962551161647,0.4675056040287,-0.016466185450554,0.14472419023514,0.6731059551239,-0.049230322241783,0.16012051701546,-0.014051673002541,-0.89875739812851,0.87754076719284,0.25765785574913,-0.61709386110306,-0.38013723492622,0.9348196387291,-0.067851655185223,0.13320703804493,0.0041169356554747,-0.062729984521866,0.56288355588913,-0.53976827859879,0.19649022817612,0.22861842811108,-0.064329013228416,-0.33654409646988,0.18375961482525,0.0024259858764708,0.10055661201477,3.2167344093323,0.87681609392166,-0.53171557188034,0.050639804452658,0.51644134521484,0.18141058087349,0.27067551016808,-0.74516189098358,-0.20044822990894,0.24394734203815,-0.1939564794302,-0.4589601457119,-0.086541347205639,-0.85220378637314,0.39525938034058,0.081532895565033,-0.042194440960884,-0.30723184347153,-0.12888729572296,0.21074651181698,-0.037960380315781,-0.13091561198235,0.63010883331299,2.582439661026,0.025123013183475,0.062051456421614,0.076542809605598,-0.7278653383255,0.61453837156296,0.45247825980186
-0.0012368869502097,0.25959846377373,0.35320454835892,-0.38327392935753,1.8044717311859,-0.057499200105667,0.3031958937645,-0.028407264500856,1.5369725227356,-0.065096601843834,-0.0080324010923505,2.0162696838379,-1.0551986694336,0.49191322922707,0.051792778074741,0.05192069336772,0.058351289480925,-0.40942296385765,1.1046440601349,0.48464038968086,-0.24662221968174,0.03279897198081,0.15354365110397,3.2769832611084,-0.060268152505159,-0.92344284057617,-0.26979076862335,0.047720052301884,0.21979831159115,-0.053982473909855,0.49942538142204,-0.16220018267632,-0.80227327346802,-2.099175453186,-0.60939812660217,-0.066994860768318,-3.0443050861359,0.37992975115776,-0.34626775979996,0.25523874163628,0.037493083626032,-0.015883706510067,-0.013693436980247,0.19709549844265,0.1214499771595,0.031543798744678,0.0013956379843876,-1.015257358551,-0.15696059167385,1.8755258321762,0.15527406334877,0.076653897762299,-1.0588157176971,0.077435187995434,0.036257535219193,0.30565965175629,0.13594888150692,0.39624401926994,-0.22879210114479,2.003347158432,-0.32616311311722,0.51046818494797,0.11445185542107,-0.10187678784132,0.16570572555065,-0.13179913163185,-0.11978345364332,0.19449138641357,-0.055233091115952,-0.26798474788666,-0.02113313600421,-0.052585110068321,0.5613329410553,-0.031608548015356,0.16274560987949,0.40125671029091,-0.030421439558268,0.24852657318115,-0.028319753706455,-0.99548029899597,0.59273517131805,0.29071286320686,-0.66399753093719,-0.3874873816967,0.99660819768906,-0.12311483174562,0.12412083894014,0.034070048481226,-0.14385071396828,0.58039551973343,-0.50279760360718,0.27825996279716,0.37353643774986,-0.082434833049774,-0.24537160992622,0.54384928941727,0.045837417244911,0.11312843114138,3.1747756004333,0.51626378297806,-0.50390315055847,0.063967369496822,0.55804127454758,0.066919296979904,0.16266760230064,-0.68813091516495,-0.30083256959915,0.21848997473717,-0.19909396767616,-0.32424533367157,-0.065463580191135,-0.84682315587997,0.43487811088562,0.060123343020678,0.044837556779385,-0.2752445936203,0.033533878624439,0.20329101383686,0.043873067945242,-0.11297184228897,0.42461574077606,2.6258246898651,0.049046862870455,0.15613095462322,0.194944486022,-0.83370095491409,0.94003659486771,0.39864751696587
-0.034210536628962,0.18724249303341,-0.2599706351757,-0.38897183537483,0.44134655594826,-0.31179451942444,-0.75500327348709,0.41287234425545,0.27606147527695,-1.1067368984222,0.50359046459198,0.15453386306763,-0.29477202892303,-0.019932301715016,-0.89027810096741,-0.35013568401337,-2.871166229248,-0.2539333999157,0.091340526938438,0.0070855976082385,-0.39927598834038,1.5688730478287,0.029341934248805,-0.066492028534412,-0.1027550548315,0.18079578876495,0.33570936322212,0.57805323600769,0.67929136753082,-0.11820233613253,-0.13433304429054,-0.46665650606155,0.042518720030785,-0.053530119359493,0.036140378564596,0.16751754283905,-0.0253098718822,0.28192731738091,0.086884088814259,0.25251200795174,2.7858097553253,0.13510030508041,-0.50282782316208,0.24853555858135,0.075207702815533,-0.74508386850357,0.19858373701572,-0.040191028267145,0.99793469905853,0.1633602976799,0.37845113873482,0.21331837773323,-0.10407137870789,0.23128499090672,0.20536303520203,-0.033886030316353,0.15141724050045,0.37020972371101,-0.027504485100508,-0.035391468554735,-0.61314326524734,-0.083662673830986,-1.9017082452774,0.33548852801323,-0.54089975357056,-0.095944136381149,-1.0094645023346,0.29877415299416,0.77802616357803,-2.7840046882629,3.6410980224609,0.2775242626667,2.7716693878174,3.8684031963348,1.6688368320465,0.89092183113098,0.45512911677361,0.060588285326958,0.01546950917691,-0.64056247472763,0.41440910100937,0.19328162074089,-0.0088063776493073,-0.053944159299135,-0.12791101634502,-0.8885350227356,0.51771104335785,0.0024669193662703,-1.3000854253769,0.10767920315266,-0.085377164185047,-0.058649010956287,1.6502532958984,-0.1327535957098,-0.89667654037476,0.001634038053453,0.31301930546761,-0.012738211080432,0.67411637306213,-0.020364120602608,-0.53484207391739,0.018521551042795,-0.0062381657771766,-0.16479627788067,0.40029832720757,0.07664181292057,-0.092918664216995,0.61295986175537,-0.18231332302094,0.068410225212574,-1.8492656946182,0.046668868511915,0.81701475381851,0.33091601729393,-2.2353937625885,0.51413077116013,0.069520853459835,-0.26694452762604,0.034733902662992,-0.30768856406212,0.002538742730394,0.20086807012558,-2.2686879634857,1.034783244133,0.1254598647356,0.17468795180321,-0.034934654831886,0.64744943380356
-0.072866208851337,0.95356345176697,-0.20675691962242,0.24490903317928,0.38038310408592,-1.2959350347519,-0.53314125537872,0.50867992639542,0.13975842297077,-1.0343750715256,0.38418588042259,-0.10552497953176,-0.21863485872746,-0.035674493759871,0.10227490216494,1.7839125394821,-1.1076085567474,0.54639410972595,0.186553388834,0.063842304050922,-1.2586599588394,1.5218790769577,0.048166312277317,0.89635819196701,-1.8287699222565,-1.1274516582489,0.2993551492691,0.18164166808128,-0.31849148869514,-0.028395840898156,-0.096082605421543,-0.31809765100479,-0.0117127597332,-2.0389919281006,0.1260586977005,0.016514677554369,-0.83659887313843,-0.38204285502434,0.080971278250217,0.75874704122543,2.8622541427612,0.45207741856575,-2.244330406189,0.25056397914886,-0.17836637794971,-1.4170836210251,1.8151478767395,-0.072019882500172,0.65957349538803,0.28561314940453,-0.10798231512308,-0.39254504442215,-1.5074506998062,0.099897898733616,0.17239221930504,-0.13046611845493,0.21086551249027,0.48420920968056,-3.271148443222,0.15784603357315,-0.6186997294426,1.0488958358765,-2.5956075191498,0.39410951733589,-0.50242835283279,-0.0646897777915,0.53589588403702,0.24491156637669,3.2636213302612,-0.23481091856956,0.7532097697258,0.61721259355545,1.8540388345718,3.2795250415802,0.36233147978783,1.3601857423782,0.5631936788559,-0.0002882297267206,-0.9663959145546,-0.62215530872345,0.31836286187172,0.12375725060701,-1.0147055387497,-0.074606038630009,-0.17001831531525,-2.2236301898956,0.55011528730392,1.2939643859863,-1.2333155870438,1.6635483503342,-0.12375653535128,-0.050888050347567,1.8791128396988,-0.095348045229912,-1.1906250715256,0.026797952130437,0.75786411762238,0.0070447442121804,0.33221986889839,-0.0014378703199327,-0.35734674334526,0.30182123184204,-0.28019151091576,-0.24411980807781,0.36396652460098,0.027315283194184,1.0777975320816,0.96422499418259,-0.17791554331779,0.12029469013214,-0.48828136920929,-1.7295203208923,1.2342492341995,2.7125246524811,-2.0498931407928,0.33714237809181,-0.23890237510204,-0.18499433994293,1.2648968696594,-0.52460604906082,1.9669188261032,0.23231211304665,-1.9109851121902,-0.56755113601685,0.05022107809782,0.18122224509716,0.4621210694313,0.16259801387787
0.0040267948061228,-0.68000710010529,-0.15104104578495,0.25619053840637,0.17624734342098,-3.9883365631104,-0.037543747574091,2.0248200893402,0.12151179462671,-0.17246843874454,0.41825944185257,1.6695202589035,-0.16493643820286,-0.13579358160496,-0.89214777946472,1.6569650173187,-2.8152253627777,-0.64964872598648,0.34946164488792,0.1090095192194,-0.28027945756912,0.92463260889053,0.061491083353758,1.8459154367447,-0.61534291505814,-1.3225115537643,0.29753822088242,-0.047833301126957,0.8130915760994,-0.047475971281528,-0.0032048479188234,-0.15434750914574,0.0050963098183274,-1.4816553592682,0.12371266633272,-0.20691421627998,-0.5711921453476,-0.34874704480171,0.090124659240246,-0.84518766403198,1.4752327203751,2.0407378673553,-0.71466916799545,0.21136230230331,-0.11121336370707,-1.1273629665375,0.070229299366474,-0.072440966963768,-0.19650685787201,0.29603835940361,-0.58826327323914,0.60843819379807,-1.6515685319901,0.13183690607548,0.12670974433422,-0.21996116638184,0.21693195402622,0.5221494436264,-2.7201902866364,0.59664499759674,-0.49300441145897,3.8453793525696,-1.3289045095444,0.39950436353683,-0.49422565102577,0.11043571680784,-0.95883405208588,0.22421325743198,3.8154218196869,-2.7106065750122,2.8354125022888,0.2054864615202,1.1142642498016,2.8248119354248,0.87262094020844,-0.12434027343988,0.56236976385117,0.072338774800301,0.35295739769936,-0.50114279985428,0.39411479234695,0.062239587306976,0.10098818689585,-0.072259843349457,1.3865928649902,-0.35188099741936,0.52795678377151,1.518125295639,-0.62877005338669,1.0474797487259,-0.15145924687386,-0.063435018062592,1.8718385696411,-0.0084331212565303,-0.11719482392073,0.27248829603195,0.52552020549774,0.13525304198265,0.14859586954117,-0.0027115421835333,-0.047664597630501,0.18557481467724,-0.3794606924057,0.35731518268585,0.24630205333233,0.0031977156177163,0.85790801048279,0.099517472088337,-0.040444381535053,0.17314967513084,-3.2782957553864,-1.4374428987503,1.0661888122559,2.7313652038574,-3.5310022830963,0.12636296451092,-0.38331201672554,-0.47333320975304,1.7909114360809,-0.26049870252609,0.75673812627792,0.26544132828712,-1.7943786382675,1.0957291126251,0.6731019616127,0.46732932329178,0.50646162033081,-0.1277322024107
-0.065058536827564,0.7256760597229,-0.17490087449551,0.068515099585056,0.53034591674805,-3.9584302902222,0.16888944804668,2.3899321556091,0.15062713623047,-0.95672643184662,0.29825583100319,2.4115080833435,-0.19294832646847,-0.076399207115173,-0.97223794460297,0.56706124544144,-1.8792172670364,-0.5747612118721,0.24856850504875,0.14367997646332,-0.23057869076729,-0.033112812787294,0.05746066570282,1.0799300670624,-1.2522501945496,-1.5116472244263,0.28896167874336,0.051998902112246,-0.78586959838867,0.14578947424889,0.050834137946367,-0.4380307495594,-0.0074905538931489,-2.375070810318,0.14238041639328,-0.16123908758163,-1.7793300151825,-0.59195131063461,0.10839968919754,0.40836983919144,2.2397089004517,2.4407942295074,-2.8503398895264,0.20282824337482,-0.11862954497337,-1.7381066083908,0.030726047232747,-0.047680657356977,0.26647058129311,0.32436770200729,-2.3305296897888,-1.248242855072,-0.043551467359066,0.029459154233336,0.092562295496464,-0.18849544227123,0.2181942909956,0.48401489853859,-3.5579583644867,0.28087955713272,-0.46785092353821,2.1194169521332,-0.11741724610329,0.35969343781471,-0.50990271568298,0.0054996912367642,-0.49478700757027,0.24160894751549,4.4824461936951,-0.56319737434387,-0.11944682896137,-1.1640642881393,2.7969734668732,4.220561504364,0.1251602768898,0.94286543130875,0.46572968363762,-0.081498868763447,-0.02167572081089,-0.80591225624084,0.37299695611,0.18022547662258,-0.70927155017853,-0.064273372292519,0.86069440841675,-1.6297008991241,0.51326030492783,0.92361932992935,-2.9431135654449,2.0449645519257,-0.22220304608345,-0.10689571499825,0.24353688955307,-0.027349635958672,-0.25684264302254,0.067237265408039,0.45915460586548,0.132134526968,0.30961385369301,0.0039337854832411,-0.23289453983307,0.27835208177567,-0.39365917444229,0.33655518293381,0.10065279901028,-0.065817572176456,0.8479779958725,-0.0044564246200025,-0.030523486435413,0.12341455370188,-2.0959734916687,-0.53702712059021,1.2217630147934,2.7977111339569,-0.87718415260315,0.15776082873344,-0.31937232613564,0.10164424031973,3.4205074310303,1.5042036771774,1.9147577285767,0.32039326429367,-0.6031898856163,1.1337143182755,-0.53413206338882,0.37894582748413,1.6377831697464,-0.32303300499916
0.0090189734473825,0.87831127643585,-0.22944493591785,-0.17492005228996,0.66068130731583,-0.31855589151382,-1.052956700325,1.7209916114807,0.28720042109489,-0.56283187866211,-0.0521583519876,-0.019601935520768,-0.24923774600029,-0.13260380923748,-0.021528230980039,-0.45532968640327,-1.7640023231506,0.39315915107727,0.29331281781197,0.15726619958878,-0.19463092088699,1.7270609140396,0.098821401596069,-0.089595913887024,-0.22253446280956,0.24694891273975,0.32176202535629,0.75453370809555,-0.40341743826866,0.05405680090189,-0.042720355093479,-0.26246520876884,-0.20941397547722,0.0015480862930417,0.033548824489117,-0.22497586905956,-0.031129660084844,-0.23809342086315,0.03320125490427,-0.076481677591801,0.86529952287674,1.5335636138916,-2.3144862651825,0.23231250047684,-0.080517023801804,-1.4645525217056,1.5211381912231,0.0034115654416382,0.66741418838501,0.21001324057579,0.59042859077454,0.19129808247089,-0.020558498799801,0.035391833633184,0.12908644974232,-0.13242606818676,0.1924140304327,0.37692561745644,-0.18761084973812,-0.067231141030788,-0.57015770673752,-0.13292561471462,-0.62896758317947,0.31811356544495,-0.28778904676437,-0.014925237745047,-0.9925125837326,0.21712550520897,1.0416834354401,0.08684466779232,0.059436608105898,0.074209496378899,1.0037574768066,1.226997256279,0.8133892416954,-0.20903223752975,0.47425079345703,-0.24370767176151,0.36256322264671,-0.8155266046524,0.35272911190987,0.051955930888653,0.087389588356018,-0.15341819822788,-0.054295931011438,-2.0388224124908,0.49416837096214,0.99592477083206,-2.7842230796814,0.073359049856663,-0.14717824757099,-0.018259981647134,0.4670085310936,-0.13607978820801,-0.27036747336388,0.059133738279343,0.43499985337257,0.057651817798615,0.12629176676273,0.049957916140556,-0.30108258128166,0.24171896278858,-0.33183866739273,-0.37878575921059,0.27264568209648,-0.010724517516792,1.0186767578125,1.3703501224518,0.14545655250549,0.086561754345894,-0.72266346216202,0.035871364176273,-0.03308579325676,-0.055005941540003,-3.3771257400513,0.39640355110168,-0.4623441696167,-0.011305147781968,0.1057140827179,0.33955559134483,0.087446190416813,0.2266878336668,-1.288910150528,0.23257420957088,-0.36670112609863,-0.75332814455032,-0.11882658302784,-0.054523374885321
-0.048048675060272,0.055952858179808,-0.22672475874424,0.1064080670476,0.67139661312103,-3.6167628765106,-0.0028527197428048,2.0131561756134,0.04289597645402,-0.25282981991768,0.39869910478592,0.40741243958473,-0.21265706419945,0.0074042957276106,0.078002899885178,0.32839900255203,-0.59518110752106,-0.38643649220467,0.23384110629559,0.059035085141659,-1.7190563678741,-0.37949275970459,0.065950788557529,1.3688951730728,-2.4186320304871,0.34963682293892,0.32004129886627,0.16853152215481,-0.21028377115726,-0.03497090190649,-0.098343044519424,-0.58883321285248,-0.0088466666638851,-2.642213344574,0.054740272462368,-0.0041251718066633,-2.2052640914917,-0.16366669535637,0.10521893948317,-0.94324797391891,2.9390962123871,1.1924947500229,-3.0971829891205,0.24976019561291,-0.09662002325058,-1.3362332582474,1.3565013408661,-0.083410978317261,-0.33063369989395,0.25092980265617,-1.7777527570724,-0.75306379795074,-2.0875537395477,0.064873114228249,0.15353229641914,-0.22759602963924,0.18417245149612,0.38964632153511,0.67640841007233,-0.14672075212002,-0.52653980255127,2.9754123687744,-0.82633072137833,0.41397288441658,-0.51536667346954,-0.063658095896244,-1.2322667837143,0.25345030426979,0.7709139585495,-1.9512012004852,2.5543575286865,-1.0011185407639,1.0723092556,0.57852822542191,2.1155529022217,1.4047793149948,0.42796194553375,-0.11129274964333,-1.5599751472473,-0.82295799255371,0.51440334320068,0.15377330780029,-1.3781661987305,-0.062655068933964,1.5154656171799,-1.1251564025879,0.57495051622391,1.6060827970505,-3.6175541877747,1.9444962739944,-0.12419825792313,-0.044654786586761,-0.12993922829628,-0.11522777378559,-0.58985090255737,0.063387751579285,0.52496534585953,0.043159686028957,0.40917086601257,0.0050697876140475,-0.37264841794968,-0.016641192138195,-0.066177628934383,-0.15228959918022,0.36036378145218,0.013041982427239,0.015157783403993,0.38287395238876,-0.14707905054092,0.1596312224865,-1.275973200798,-1.7949115037918,0.19015057384968,3.5180909633636,-2.84557056427,0.38497042655945,-0.17885978519917,-0.77157586812973,2.0716915130615,0.69130122661591,0.20707161724567,0.22705012559891,-0.43430042266846,0.64327996969223,-0.10891209542751,-0.4065708220005,2.8370597362518,-0.28796154260635
-0.031443499028683,0.38385373353958,-0.2173975110054,-0.11140965670347,0.48020526766777,-0.022952545434237,-1.0624325275421,0.47420164942741,0.079750038683414,-0.23230504989624,0.44883224368095,0.21355970203876,-0.26989620923996,-0.13527092337608,-0.76574873924255,0.6698739528656,-1.2794015407562,-0.64955723285675,0.28642722964287,0.015576748177409,-0.28289371728897,0.52192813158035,0.14259712398052,2.60529088974,-1.7520788908005,-0.57000559568405,0.29348549246788,-0.20292641222477,0.22907292842865,0.099844239652157,-0.10777256637812,-0.23239561915398,-0.0038781866896898,-2.3178074359894,0.094253040850163,-0.12128546088934,-2.5527489185333,-0.54187077283859,0.11040455102921,-0.52954560518265,2.6395733356476,2.7064406871796,-1.4646825790405,0.19856306910515,0.0040928400121629,-1.649095416069,2.1756896972656,-0.056453801691532,-0.2129185795784,0.19080092012882,0.45918613672256,0.18952225148678,-0.83472710847855,0.082508988678455,0.19042286276817,-0.13431952893734,0.20020094513893,0.33808276057243,-2.5355544090271,2.8787372112274,-0.40158155560493,1.9689593315125,-1.8677810430527,0.44102102518082,-0.48883384466171,0.14413401484489,-0.90029454231262,0.20512767136097,2.996244430542,-2.1921091079712,1.6932911872864,-1.0740375518799,1.5770958662033,3.4136402606964,0.80489665269852,1.2249056100845,0.5895516872406,-0.11617409437895,0.37244045734406,-0.36177667975426,0.42511969804764,2.7445335945231e-05,-0.41537502408028,-0.080218136310577,0.85986918210983,-0.41747331619263,0.60002464056015,0.032122045755386,-2.8744912147522,1.6558738946915,-0.1207659766078,-0.065151683986187,0.44750332832336,-0.078391641378403,-1.0445238351822,0.24792195856571,0.44746127724648,0.17803570628166,0.25249382853508,0.034605078399181,0.035449709743261,0.36955142021179,-0.32292035222054,-0.13789236545563,0.32360354065895,-0.3421902358532,0.12776553630829,1.3432103395462,-0.025902645662427,0.15388186275959,-1.6166410446167,-0.024900676682591,-0.38214448094368,1.493483543396,-3.715735912323,-0.00036962528247386,-0.59074759483337,0.71835380792618,-0.18755431473255,-0.13857899606228,1.6447442770004,0.27904140949249,-2.4754154682159,1.0859234333038,0.47944921255112,0.39343711733818,0.46011391282082,0.15081788599491
-0.015113821253181,-0.22186757624149,-0.24124087393284,-0.25204581022263,0.58466160297394,-2.498336315155,-1.1292358636856,0.69913756847382,0.22820220887661,-0.70322567224503,0.46281841397285,0.00031541494536214,-0.30982047319412,-0.086639612913132,0.46814334392548,1.2011570930481,-1.5085898637772,-0.15110450983047,0.15382997691631,0.016106134280562,-1.5213580131531,0.93873018026352,0.0313272587955,-0.05083841457963,-0.29662358760834,-1.5742807388306,0.30667504668236,0.32675060629845,0.04708993807435,-0.014779952354729,-0.084883451461792,-0.3156675696373,-0.0059176594950259,-0.20199984312057,0.080410540103912,0.056980561465025,-0.019254827871919,-0.33295914530754,0.054742757230997,-0.74094700813293,2.7236456871033,0.97844249010086,-0.69612658023834,0.25099882483482,-0.15111167728901,-1.0526158809662,1.1774073839188,-0.07696807384491,0.86964648962021,0.28601583838463,0.53431862592697,-0.10970295220613,-1.2713484764099,0.17859537899494,0.21083652973175,-0.0084516722708941,0.19347834587097,0.43289497494698,-1.6580737829208,-0.073602110147476,-0.53185904026031,0.083675853908062,-0.072875082492828,0.30478769540787,-0.50689834356308,0.011348270811141,-0.90347999334335,0.22506020963192,2.3642749786377,-1.9961305856705,2.3818140029907,-1.7382587194443,1.1572705507278,0.57414674758911,1.8883675336838,0.17314007878304,-0.36747005581856,0.0068822652101517,0.1818465590477,-0.6579977273941,0.28510674834251,0.06088749691844,0.086288072168827,-0.050600312650204,0.96592634916306,-1.8293627500534,0.56741154193878,0.4896779358387,-3.4619948863983,0.12077664583921,-0.097467012703419,-0.063010923564434,1.5562418699265,-0.14875204861164,-0.63827532529831,0.13743747770786,0.50209647417068,0.0055980547331274,0.31052851676941,0.00044537938083522,-0.33791607618332,0.35867890715599,-0.32494729757309,-0.30236569046974,0.075365796685219,-0.03229221701622,0.79621601104736,1.477710723877,-0.1700834184885,0.13508683443069,-2.4279854297638,-1.4336178302765,-0.31368032097816,3.3214550018311,-4.3439083099365,0.26439672708511,-0.55486714839935,0.46104887127876,5.8711626479635e-05,-0.287039488554,1.7006849050522,0.19499339163303,-1.3998920917511,-0.62637615203857,0.45408210158348,-0.37257608771324,-0.028842886909842,-0.17668966948986
-0.031530555337667,-0.20584221184254,-0.16072116792202,0.24991035461426,-0.12105681747198,-3.0562365055084,-0.37338522076607,2.2171225547791,0.36142858862877,-2.1661224365234,0.44145026803017,0.027907129377127,-0.38425180315971,0.13004280626774,-1.1914782524109,1.5858591794968,-2.9036386013031,-0.37734946608543,0.031980477273464,-0.031901281327009,-0.13568119704723,0.0080638416111469,0.074704378843307,-0.023147292435169,-0.32329854369164,0.20816692709923,0.29019570350647,0.5141054391861,0.3652902841568,-0.065549343824387,-0.076271094381809,-0.0077116573229432,0.027848104014993,-0.0050479285418987,0.013886770233512,0.1936512440443,-0.034175809472799,0.81556349992752,0.030950307846069,0.030254907906055,1.6484721899033,2.0979833602905,-0.45629382133484,0.23414014279842,-0.24338096380234,-1.1395825147629,0.37937390804291,0.017441472038627,0.24646937847137,-0.0072996923699975,0.63550275564194,0.33207321166992,0.015227740630507,0.15532377362251,0.18678496778011,0.0084697809070349,0.16885852813721,0.43307957053185,0.028510915115476,-0.040247723460197,0.3587546646595,0.04487394541502,0.053177390247583,0.33294972777367,-0.37943080067635,-0.03064083121717,-0.92159843444824,0.2104494869709,1.2563380002975,-0.95391297340393,2.4181816577911,0.30035442113876,0.90378654003143,1.3946825265884,1.6167155504227,1.0595779418945,0.51352369785309,0.051388714462519,0.38901853561401,0.058400519192219,-0.23359873890877,-0.024678876623511,-0.11277727037668,-0.044789329171181,0.62320327758789,-2.4289147853851,0.32164862751961,0.75314688682556,-3.0022344589233,0.028300113976002,-0.0066959788091481,-0.069070711731911,0.16864386200905,-0.089115984737873,-0.80965971946716,0.1917170137167,0.23390270769596,0.022403286769986,0.11021338403225,0.0064742504619062,0.038576863706112,0.090081878006458,0.17321130633354,-0.51394164562225,-0.02303933724761,-0.031391728669405,0.73825412988663,1.5308184623718,-0.1194905936718,0.040249563753605,-2.2329962253571,0.12347942590714,-0.35836571455002,0.39088118076324,-3.2307715415955,0.20581483840942,-0.42892223596573,-0.25845858454704,-0.0049526835791767,0.62093412876129,1.2923024892807,0.15610973536968,-1.9055120944977,0.89564764499664,-0.53251439332962,-0.36876857280731,0.045646712183952,-0.14781950414181
-0.062452144920826,1.3580586910248,-0.12872591614723,-0.35566791892052,0.51616698503494,-6.599748134613,-0.39134809374809,2.0750117301941,0.15633125603199,-1.3057284355164,0.26094841957092,1.5546795129776,-0.24583855271339,-0.04526324570179,-0.82341653108597,1.3217500448227,-2.7966268062592,-0.84217196702957,0.35488495230675,0.25115311145782,-2.4635655879974,1.9560037851334,0.35052546858788,2.9700899124146,-1.9875062704086,-1.7763401269913,0.25426042079926,0.30109706521034,-0.45729675889015,0.32794508337975,0.23056806623936,-0.31094413995743,-0.062245983630419,-3.2375237941742,0.083890929818153,-0.10893841832876,-2.5205631256104,-0.17061701416969,0.085510089993477,0.65302276611328,2.3005080223083,2.6168487071991,-4.094334602356,0.16947615146637,-0.22394028306007,-1.5984441041946,1.8328601121902,-0.10184699296951,0.68082845211029,0.27656415104866,-1.5642516613007,-1.1179863214493,-1.2979341745377,-0.42776456475258,-0.95313555002213,-0.067970119416714,0.15046602487564,0.44546890258789,-3.5786263942719,1.7794822454453,-0.76909339427948,2.6438040733337,-3.8436965942383,0.34056574106216,-0.43925729393959,0.079597905278206,-0.70214146375656,0.20929065346718,3.5977556705475,-1.9626553058624,2.3890089988708,-1.4757354259491,3.0066211223602,3.1207764148712,2.5309014320374,1.3425238132477,0.20425751805305,-0.057143460959196,-2.2540326118469,-0.54332548379898,0.4044354557991,0.12687034904957,-1.4250472784042,-0.075543187558651,1.5504106283188,-4.5383319854736,0.39096447825432,2.5254940986633,-4.347752571106,2.2325832843781,-0.261320322752,-0.0044455109164119,2.0393316745758,0.56438273191452,-1.3765971660614,0.10010384768248,0.41771122813225,0.26093208789825,0.43319550156593,0.74715006351471,-0.15706066787243,-0.25952881574631,-0.086312122642994,-1.3603174686432,1.403742313385,-0.41944953799248,-0.29268300533295,2.0505127906799,0.25746181607246,0.025139393284917,-3.1999144554138,-1.7977895736694,1.4084352254868,7.1002058982849,-6.0553131103516,-1.0754618644714,-0.8105440735817,1.4764932394028,3.4413561820984,0.62946563959122,1.9407044649124,0.34096762537956,-4.1566348075867,0.35727280378342,0.011042065918446,-0.31514286994934,2.8050696849823,0.59019470214844
-0.0097634727135301,-0.65639144182205,-0.24865958094597,0.12921613454819,0.73013758659363,-5.2276873588562,-0.15912362933159,2.3944942951202,0.046881917864084,-0.72722154855728,0.31950834393501,0.27603286504745,-0.26347368955612,-0.067633002996445,-0.78635394573212,-0.46489363908768,-2.5766496658325,-0.4986318051815,0.39750641584396,0.13466434180737,-2.7360014915466,-0.38047423958778,0.1369646191597,0.86118298768997,-0.36671432852745,-2.674388885498,0.30313837528229,0.065269112586975,0.75611382722855,0.34393894672394,0.27660104632378,-0.28830236196518,0.017526734620333,-0.69886547327042,0.14879509806633,-0.16732585430145,-0.12145306915045,-0.57392179965973,0.11097240447998,-0.95964992046356,2.1255843639374,0.67860192060471,-3.5880978107452,0.15578278899193,-0.14007413387299,-0.2985092997551,0.44429394602776,-0.081873781979084,0.51095598936081,0.19410321116447,-1.2285513877869,0.33075997233391,-1.6528369188309,-0.63042432069778,-0.15853530168533,-0.21179892122746,0.24952767789364,0.59372907876968,-3.0453214645386,-0.16495968401432,-0.25965696573257,1.5760089159012,-0.18234159052372,0.47085815668106,-0.52232420444489,0.17786777019501,0.13602773845196,0.25944617390633,3.239447593689,-2.1607420444489,2.3290574550629,-1.4445234537125,2.5320284366608,-0.10903267562389,1.7631453275681,-0.27914822101593,0.57190549373627,-0.013479716144502,0.2453336417675,-0.1377412378788,0.32539054751396,0.07434955984354,-1.1500210762024,-0.097773760557175,1.6665863990784,-3.0209736824036,0.54930752515793,1.4926387071609,-3.3350582122803,0.5255526304245,-0.2587705552578,-0.1109429821372,1.7416788339615,-0.017066597938538,-0.1598221808672,-0.16216635704041,0.18151679635048,0.23380124568939,0.17074520885944,0.088971734046936,-0.086246132850647,0.39241510629654,-0.41809067130089,0.32140338420868,1.150780916214,-0.093008577823639,1.0511920452118,1.5323085784912,-0.11046966165304,0.17034959793091,-2.6526298522949,-1.6333146095276,1.1240212917328,5.2768268585205,-1.7417373657227,-0.79199320077896,-0.59277141094208,0.99019867181778,2.4488437175751,-0.39722973108292,2.7405459880829,0.36225309967995,-1.5267863273621,0.6358614563942,0.6715367436409,0.53093659877777,2.3736927509308,1.305800318718
-0.06379222124815,-0.077008500695229,-0.22563590109348,0.051180612295866,0.3117498755455,-2.7188799381256,0.40439113974571,0.4742411673069,0.1131094545126,-0.17288491129875,0.49247232079506,0.18168878555298,-0.1769347935915,0.035729676485062,-1.1214629411697,1.4674929380417,-0.49867010116577,0.54103934764862,0.34965151548386,0.12917670607567,-0.95724505186081,0.9232451915741,0.10307327657938,-0.037528462707996,-0.20460765063763,-1.7577749490738,0.33909964561462,0.047042325139046,-0.58827221393585,0.10291659832001,-0.00038699968717992,-0.35315823554993,0.00098535662982613,-0.37575098872185,0.16105544567108,-0.14155481755733,-0.050475977361202,-0.52691584825516,0.11376588046551,0.33741310238838,0.98391932249069,2.0975842475891,-3.4463105201721,0.2341669946909,-0.12200243026018,-1.5439749956131,2.1719608306885,-0.041812289506197,0.6353058218956,0.18111684918404,-0.07204083353281,-0.95630329847336,-0.030014729127288,0.065521985292435,0.087533913552761,-0.22237448394299,0.24357505142689,0.47160756587982,-2.5944240093231,-0.10175689309835,-0.42669659852982,-0.11809109151363,-3.6451025009155,0.39527058601379,-0.53255224227905,0.033991832286119,0.36267724633217,0.25194865465164,3.024564743042,-1.2264835834503,1.619936466217,-1.498406291008,0.47989037632942,2.4506030082703,0.60624784231186,-0.44724729657173,0.55850714445114,-0.067261733114719,-0.76831275224686,-0.24481345713139,0.52229940891266,0.12207677215338,-2.5433042049408,-0.061411906033754,0.025168718770146,-2.564647436142,0.53409785032272,0.66581779718399,-1.8820247650146,0.10240465402603,-0.16093775629997,-0.09529584646225,0.61947137117386,-0.0019759486895055,-0.55569124221802,0.16199696063995,0.23327001929283,0.069256991147995,0.2023144364357,0.068133503198624,-0.10789334774017,0.22573567926884,-0.39380684494972,-0.14810611307621,0.24465025961399,0.031568337231874,0.0017330223927274,0.33656343817711,-0.22530660033226,0.15616658329964,-2.0832629203796,-0.032558225095272,0.72999542951584,4.312228679657,-4.0610818862915,0.26892897486687,-0.49848154187202,-0.54271006584167,1.605815410614,0.88785076141357,0.095872402191162,0.25524953007698,-2.6368441581726,-0.12605552375317,0.35019379854202,-1.1235877275467,0.040822673588991,0.11288542300463
-0.058417368680239,-0.34725525975227,-0.21420894563198,0.11715103685856,0.31826576590538,-0.91975313425064,0.30979070067406,0.22716468572617,0.091114789247513,-0.27416050434113,0.44597211480141,2.0064043998718,-0.19332483410835,-0.1610511392355,-0.95900654792786,-0.48376786708832,-0.063037559390068,-0.48219436407089,0.14909981191158,0.0064716078341007,-1.8784190416336,1.0387709140778,0.099258206784725,3.3342151641846,-0.58307844400406,0.049621753394604,0.31568896770477,0.055560879409313,-0.45598393678665,-0.063655816018581,-0.15968665480614,-0.249487221241,0.030895037576556,-2.5653700828552,0.13314184546471,-0.097104340791702,-3.142826795578,-0.27511543035507,0.069757007062435,-0.55415290594101,1.0141421556473,1.7536979913712,-2.8095836639404,0.2281506061554,-0.1258751899004,-0.36967128515244,1.8056855201721,-0.063868246972561,-0.29155138134956,0.35081043839455,-1.2254374027252,-0.29759922623634,-0.57845199108124,0.12771041691303,0.20212532579899,-0.18350683152676,0.19886434078217,0.4240630865097,-3.0664439201355,0.55785834789276,-0.52796649932861,2.3081679344177,-3.0307683944702,0.40695255994797,-0.53115653991699,0.012752313166857,-0.87380737066269,0.25369569659233,3.0574362277985,-0.60962420701981,0.70803540945053,-0.86763745546341,-0.035178139805794,1.5522946119308,1.0705788135529,-0.28116255998611,0.53575336933136,-0.041106984019279,-1.2745050191879,-0.58823138475418,0.5723602771759,0.032500918954611,-2.1256039142609,-0.038518778979778,-0.14314761757851,-2.4359920024872,0.59016436338425,1.3670754432678,-0.32743313908577,1.5796097517014,-0.12737381458282,-0.11347123980522,1.1870490312576,-0.12607105076313,-0.5156632065773,0.27532309293747,0.71684962511063,0.05389991030097,0.21446330845356,0.075846783816814,-0.25362625718117,0.18354547023773,-0.39778426289558,0.10730697214603,0.23556484282017,0.011418548412621,0.80993497371674,1.5205314159393,-0.030497772619128,0.11560674756765,-2.3594563007355,-1.037693977356,-0.082039758563042,3.4661343097687,-5.1146745681763,0.34778344631195,-0.60463243722916,0.20043662190437,0.12568344175816,-0.36150446534157,0.62209522724152,0.15582001209259,-1.0765283107758,0.84340983629227,0.45668137073517,-0.10426886379719,1.6916694641113,0.006337751634419
-0.097503624856472,1.0300343036652,-0.24272891879082,-0.23168072104454,0.72652542591095,0.2128791809082,0.20568732917309,0.31777772307396,0.13782708346844,-2.3264060020447,0.40911984443665,-0.063440062105656,-0.53423374891281,-0.12832042574883,-1.0113896131516,1.5741293430328,-0.22374230623245,-0.64729201793671,0.13586468994617,-0.0057847355492413,-0.96111243963242,1.7562434673309,0.10223782062531,2.8146018981934,-1.7128999233246,0.38686060905457,0.33674901723862,-0.050738915801048,-0.27774345874786,-0.062792539596558,-0.14682927727699,-0.30993267893791,-0.0068593863397837,-3.3856267929077,-0.1068411692977,-0.033541679382324,-3.2613608837128,-0.15224538743496,0.098023183643818,0.5179608464241,3.5170679092407,-0.19217105209827,-3.3278267383575,0.22943472862244,-0.13192000985146,-0.46981590986252,0.69457793235779,-0.1051092967391,-0.23822246491909,0.19907239079475,-2.3192420005798,-1.0089936256409,0.16986574232578,0.17831619083881,0.23279114067554,-0.087126590311527,0.25872269272804,0.53037983179092,-0.94771319627762,2.3982512950897,-0.56995660066605,2.3595898151398,-2.784316778183,0.32976904511452,-0.50846272706985,0.0777742639184,-0.99156987667084,0.27656778693199,3.3557376861572,0.15050202608109,0.060132496058941,-1.2498866319656,2.5629966259003,1.2044734954834,0.15229614078999,0.93800681829453,0.49292847514153,-0.24462962150574,-2.5987739562988,-0.61953091621399,0.71952921152115,0.041538838297129,-1.6491724252701,-0.022080408409238,-0.034437492489815,-2.9150710105896,0.48430791497231,-0.193727850914,-0.084656924009323,2.0227937698364,-0.081343650817871,-0.12708628177643,0.24401934444904,-0.14515081048012,-0.34537807106972,0.18035615980625,0.34986481070518,0.092444658279419,0.91248399019241,-0.015454028733075,-0.34963846206665,0.17528226971626,0.28069469332695,0.15706253051758,0.070139013230801,-0.15693247318268,-0.31722128391266,0.14766891300678,-0.17021125555038,0.056021962314844,0.03174639493227,-2.2604005336761,0.16972668468952,-0.14675714075565,-2.4857132434845,0.28793689608574,-0.56006342172623,-0.16005828976631,3.0138669013977,-0.1743308454752,0.86168897151947,0.40440404415131,-1.5064531564713,-0.85339689254761,-0.41104725003242,-0.2016427218914,2.8752229213715,0.6287876367569
0.035444479435682,-0.55303037166595,-0.23397526144981,0.34400451183319,0.69793939590454,-0.24500468373299,-0.54559898376465,2.4405014514923,0.46602460741997,-1.826122045517,0.36115580797195,0.32072243094444,-0.25457814335823,0.072406552731991,-0.8237681388855,-0.12329443544149,-3.5759077072144,-0.097046047449112,0.095467738807201,0.060147631913424,-0.041227526962757,-0.19230110943317,0.060096584260464,-0.084431409835815,-0.2408591657877,0.26519533991814,0.3039465546608,0.039356492459774,0.56157916784286,-0.10849147289991,-0.096577875316143,-0.31908550858498,0.059950154274702,-0.045516390353441,0.018464671447873,0.33922255039215,-0.02745015360415,-0.47969564795494,0.064775474369526,0.45899373292923,3.6141316890717,-0.034189440310001,-0.66704523563385,0.23477923870087,-0.60561716556549,0.087831981480122,1.8188153505325,-0.059895597398281,-0.49621918797493,0.38523152470589,-1.0576783418655,0.4263933300972,0.043057817965746,0.19745121896267,0.20024411380291,-0.078414671123028,0.18379065394402,0.31997725367546,-0.30078354477882,-0.081755571067333,-0.67626023292542,-0.18025852739811,-1.0557986497879,0.29361987113953,-0.49069061875343,-0.038282040506601,-0.90724122524261,0.23917832970619,0.57404208183289,-3.0737888813019,2.1826200485229,-0.20654490590096,3.3078529834747,4.28307056427,0.30847868323326,-0.10779190063477,0.49580404162407,-0.19626036286354,-0.79446244239807,-0.91458302736282,0.61980181932449,0.091905899345875,-0.20920485258102,-0.0876080468297,-0.10321819782257,-2.0170810222626,0.48089483380318,0.058370277285576,-1.8644472360611,0.044556573033333,-0.090090967714787,-0.022772332653403,1.9450832605362,-0.071182154119015,-0.37881767749786,0.24481604993343,0.18906447291374,-0.059197071939707,0.53294193744659,-0.040664751082659,-0.34522193670273,0.054581511765718,0.53670924901962,-0.32846572995186,0.18756911158562,-0.025479113683105,-0.61012101173401,0.30981928110123,-0.097179718315601,-0.013197642751038,-1.511305809021,0.099155075848103,-0.49301305413246,-0.001960881287232,-4.8375406265259,0.42157673835754,-0.085334584116936,-0.60071921348572,0.1285036355257,0.38514912128448,0.17167355120182,0.22738021612167,-1.6841517686844,0.99285566806793,-0.15474939346313,-0.62356811761856,-0.10884342342615,1.0420509576797
-0.078602686524391,0.97645395994186,-0.21160380542278,0.29020535945892,0.40892395377159,-1.9881039857864,-0.097139216959476,0.49097329378128,0.091094516217709,-1.3771455287933,0.32366171479225,0.8801611661911,-0.20531775057316,-0.054597683250904,-0.71879082918167,1.5268721580505,-0.23353798687458,0.76855409145355,0.3254990875721,0.05542566627264,-0.51110309362411,2.8227434158325,0.089873060584068,3.1171445846558,-1.0269408226013,-0.9268434047699,0.31086853146553,0.040582798421383,-0.44974690675735,0.10545971244574,-0.090076074004173,-0.27364745736122,-0.033538706600666,-1.3742495775223,0.10256133973598,-0.17561854422092,-2.7621591091156,-0.13691380620003,0.097359098494053,-0.9224289059639,2.1022176742554,1.8658857345581,-4.0448541641235,0.22214059531689,-0.062241766601801,-1.4276129007339,0.77062624692917,-0.063358098268509,0.14445744454861,0.21262909471989,-1.7583900690079,-0.69657522439957,-1.0926542282104,0.040571980178356,0.11174611002207,-0.23030242323875,0.22972977161407,0.44821709394455,-0.65043151378632,0.72719651460648,-0.45365723967552,3.1686005592346,-3.6535906791687,0.46826034784317,-0.51403361558914,0.073490664362907,-0.94109731912613,0.24511520564556,3.447860956192,-0.11338599026203,0.43966221809387,-0.84151697158813,0.55858069658279,1.0429154634476,0.83370006084442,0.95599347352982,0.53193378448486,-0.015490378253162,-0.3692501783371,-0.26108694076538,0.54687017202377,0.062961153686047,-1.3172255754471,-0.060951586812735,1.0009177923203,-2.7293870449066,0.61078584194183,0.80648165941238,-1.1844425201416,1.6362187862396,-0.22357304394245,-0.089846193790436,1.7290431261063,-0.0324746966362,-0.55354958772659,0.25576356053352,0.80633854866028,0.18860319256783,0.1833683103323,0.19028775393963,-0.072370655834675,-0.18678629398346,-0.35890161991119,-0.98611485958099,0.39147892594337,-0.020417107269168,-0.27109804749489,0.62242060899734,0.030548026785254,0.1267314851284,-2.0944662094116,-1.023800611496,0.88248306512833,2.5786383152008,-4.4374661445618,0.035310052335262,-0.59460043907166,0.6298668384552,3.2179176807404,-0.38787531852722,0.88859540224075,0.32452058792114,-2.8951630592346,-0.1708017885685,-0.25817421078682,-0.96944510936737,2.408947467804,-0.44233793020248
-0.038375861942768,0.71741169691086,-0.1466851234436,-0.4622089266777,0.97662079334259,-9.0532541275024,-1.1935482025146,2.6141262054443,0.10892013460398,-4.0112915039062,0.13543355464935,1.4680023193359,-0.20469461381435,-0.065352790057659,-0.82565027475357,1.8642455339432,-3.5846879482269,-0.44987407326698,0.32518607378006,0.2115708142519,-3.7626366615295,1.9527561664581,0.32702401280403,2.9645984172821,-2.2276244163513,-1.7624100446701,0.32671889662743,0.88845086097717,-0.47485765814781,0.36095434427261,0.66132020950317,-0.91685086488724,-0.011382308788598,-2.6541526317596,0.079962767660618,-0.1263443082571,-2.198873758316,-0.35038858652115,0.092048220336437,0.34300157427788,11.792195320129,3.087605714798,-5.2287526130676,0.20250643789768,-0.11391416192055,-1.5639061927795,2.0292727947235,-0.13795414566994,0.78601282835007,0.18906868994236,-3.0418901443481,-1.5496871471405,-1.3313137292862,-1.2177882194519,-2.1402924060822,-0.099394924938679,0.182332649827,0.55805790424347,-3.6327407360077,1.8494162559509,-0.88522511720657,3.299055814743,-3.9219198226929,0.39189228415489,-0.49462807178497,0.238405585289,-0.42381569743156,0.23022812604904,3.2021307945251,-2.8378763198853,2.9198319911957,-1.4326227903366,3.9327485561371,2.9148499965668,2.4825336933136,0.92312896251678,0.33232516050339,-0.036270156502724,-2.6311202049255,-1.6396322250366,0.85906112194061,0.095646046102047,-1.9352666139603,-0.15700775384903,2.2205364704132,-6.1637849807739,0.50446999073029,2.909645318985,-5.0218367576599,2.7000048160553,-0.19914914667606,-0.064598426222801,3.1530928611755,0.56845259666443,-1.0439660549164,-0.26863619685173,0.15935742855072,0.69396215677261,2.2790904045105,1.4711258411407,-0.62731057405472,-0.27362331748009,0.37522318959236,-1.3627930879593,1.909082531929,-2.0525941848755,-0.088545292615891,2.2150070667267,0.57136082649231,0.12190771847963,-2.6012070178986,-2.3828778266907,1.5113425254822,10.68298625946,-9.895712852478,-1.2559173107147,-0.88903993368149,1.105036854744,3.8031373023987,0.75828164815903,2.2087879180908,1.0290845632553,-7.3787002563477,0.55303782224655,-0.19934040307999,-0.047466408461332,3.9282031059265,0.84116554260254
-0.12474647909403,0.80084353685379,-0.20814296603203,-0.12754559516907,0.71006572246552,-0.078032895922661,-0.098321296274662,0.32891735434532,0.1355756521225,-0.22087059915066,0.14051979780197,0.0054012374021113,-0.19389192759991,-0.17186611890793,-1.0268784761429,1.1335072517395,-0.27360191941261,0.45256689190865,0.46681180596352,0.074314400553703,-2.4398539066315,1.2113552093506,0.028754198923707,-0.088001430034637,-0.22559158504009,-0.90353643894196,0.28517630696297,-0.11373918503523,-0.45379114151001,0.30522421002388,-0.097021386027336,-0.21580873429775,-0.269591152668,-0.19271975755692,0.059746794402599,-0.12876945734024,-0.096883147954941,-0.44477331638336,0.062676906585693,-0.56835108995438,1.5422211885452,-0.17479372024536,-2.7068195343018,0.1227006688714,-0.019336404278874,-0.10056854039431,1.7134132385254,0.030083721503615,-0.29672798514366,0.13421303033829,-0.68587529659271,-1.0842930078506,-0.16518813371658,-0.071398243308067,0.18470428884029,-0.1581993997097,0.21031464636326,0.37946304678917,-1.6146179437637,-0.057198669761419,-0.37044259905815,-0.096078179776669,-3.2216854095459,0.36789599061012,-0.50847548246384,0.044255364686251,-1.0870132446289,0.25195747613907,1.9402666091919,-0.66239601373672,0.21421808004379,0.070318125188351,0.35558101534843,2.4526975154877,0.26913568377495,-0.24785655736923,0.50496387481689,-0.05923293158412,-0.85092383623123,-0.60311853885651,0.1770440787077,0.044833973050117,-0.094250656664371,-0.0047895861789584,-0.1996910572052,-1.9757070541382,0.43056762218475,-0.15463729202747,-0.1859318614006,0.14328621327877,-0.18141856789589,-0.029727030545473,1.0518689155579,-0.089067295193672,-0.33513286709785,0.013932850211859,0.51650857925415,0.13051322102547,0.23575136065483,0.019211914390326,-0.20279006659985,0.21155315637589,-0.48098221421242,0.18348306417465,0.71874672174454,0.024358926340938,-0.23262365162373,0.21728850901127,-0.19263961911201,-0.10575471073389,-0.4845489859581,0.038687862455845,-0.033494345843792,1.5634739398956,-3.2796010971069,0.19615213572979,-0.48257631063461,0.22387611865997,1.4870592355728,-0.11410130560398,0.01790926605463,0.14120955765247,-2.1888394355774,0.52965831756592,0.053451731801033,0.073841981589794,-0.072860956192017,-0.16965435445309
-0.050483748316765,-0.63179534673691,-0.22263318300247,-0.3018507361412,0.27463454008102,-1.6153229475021,0.31035071611404,0.32836866378784,0.16597165167332,-1.3525346517563,0.43172392249107,0.45961889624596,-0.13554376363754,-0.076537877321243,-0.88368713855743,1.1135047674179,-0.74011492729187,-0.68557220697403,0.15522350370884,0.038621697574854,-1.0444564819336,-0.088761478662491,0.082688927650452,2.6336884498596,-1.4814214706421,-0.12907086312771,0.31681150197983,-0.025361802428961,-0.099801048636436,-0.058061722666025,-0.1513596624136,-0.31494581699371,0.0013321392470971,-3.5695004463196,0.1064035743475,-0.078076228499413,-2.6089715957642,-0.46899065375328,0.093179315328598,-0.42711937427521,2.0356459617615,-0.054863274097443,-2.8779129981995,0.23698548972607,-0.24030417203903,-1.7059800624847,0.32868799567223,-0.10070864111185,-0.059961549937725,0.37613102793694,-1.4483987092972,-0.9631741642952,0.083580560982227,0.10107795894146,0.16653434932232,-0.12650685012341,0.20380610227585,0.49351361393929,-2.0453770160675,0.7515572309494,-0.73315840959549,2.5262014865875,-1.5053374767303,0.40059947967529,-0.51526242494583,0.024924019351602,-1.3026072978973,0.27710223197937,2.348249912262,-0.44499418139458,2.1299512386322,-1.4618110656738,1.6493282318115,1.1012536287308,0.07882721722126,-0.23605827987194,0.53876304626465,-0.10818690061569,-1.3843741416931,-0.98332577943802,0.63737064599991,0.12258071452379,-1.4686861038208,-0.095678173005581,2.1402475833893,-1.9658668041229,0.55164885520935,-0.21647112071514,-0.86058205366135,1.9731692075729,-0.11510721594095,-0.04983052611351,2.1206965446472,-0.11838333308697,-0.69291341304779,0.16471272706985,-0.40312570333481,0.050100885331631,0.34641259908676,-0.0050364788621664,-0.27232065796852,0.10706200450659,-0.37950614094734,0.21360865235329,0.23518498241901,-0.027587415650487,-0.12740512192249,0.001595891546458,-0.13983529806137,0.14268805086613,-1.7968878746033,-1.6150599718094,1.1901071071625,3.2575645446777,-2.9710223674774,0.25088050961494,-0.45054709911346,0.48809635639191,2.5116441249847,-0.3269544839859,0.43852588534355,0.18662728369236,-1.1437091827393,1.0116926431656,0.70524364709854,-0.53126412630081,1.1900752782822,-0.17206871509552
-0.024270346388221,-0.15722300112247,-0.2448745071888,0.22367410361767,0.89772486686707,-2.145001411438,-0.26890936493874,1.6156762838364,0.27609834074974,-0.78311324119568,0.52619624137878,0.52916818857193,-0.20074056088924,-0.019046273082495,-0.90082693099976,1.2240328788757,-0.22747391462326,-0.85180282592773,0.018425999209285,0.017634093761444,0.058721873909235,0.075452238321304,0.029034225270152,2.6286499500275,-1.227362036705,-1.6827195882797,0.33953222632408,0.18972705304623,-0.15486761927605,-0.09373777359724,-0.095905162394047,-0.49536556005478,0.03563455119729,-0.73009026050568,0.042523086071014,0.17608466744423,-0.80447036027908,0.72220057249069,0.060683630406857,-0.75723516941071,2.2097799777985,0.46931135654449,-1.1279926300049,0.25576400756836,-0.41512569785118,-0.49973711371422,1.7962701320648,-0.036877356469631,0.39929059147835,0.42909958958626,-0.92869406938553,0.43348330259323,-0.69233828783035,0.16054078936577,0.18065701425076,-0.039612337946892,0.14340955018997,0.46022182703018,-2.8040986061096,0.56776452064514,-0.54516118764877,2.9464948177338,0.12354572862387,0.20450951159,-0.53760170936584,-0.093533352017403,0.24338394403458,0.28165027499199,4.3594450950623,-0.026082837954164,0.084392331540585,-1.4579466581345,0.38838073611259,-0.066302597522736,0.69865047931671,0.99568068981171,0.49191969633102,-0.048774503171444,0.026175301522017,-0.8471302986145,0.27295336127281,0.16878607869148,-0.85892200469971,-0.058130882680416,1.1841601133347,-0.70093804597855,0.54572910070419,0.049849029630423,-0.71682751178741,1.2178471088409,-0.053053602576256,-0.069978877902031,-0.067302636802197,-0.10307605564594,-0.48634693026543,0.033967908471823,0.29023870825768,-0.037585489451885,0.38091838359833,0.017609661445022,-0.58608245849609,0.37048602104187,-0.4101949930191,0.18281066417694,0.21042922139168,0.036556556820869,0.92001003026962,0.27620097994804,-0.097808353602886,0.035366784781218,-1.6318579912186,-0.61864429712296,-0.029710052534938,0.71396046876907,-1.8322350978851,0.4360910654068,-0.47762230038643,-0.48250776529312,1.8523893356323,-0.042391821742058,1.5021560192108,0.20018616318703,-0.21814306080341,-0.84541493654251,-0.46342611312866,-0.61793905496597,3.08353972435,-0.36607846617699
-0.30725148320198,-0.58589923381805,-0.24729280173779,-0.15417614579201,0.78482204675674,-1.4922733306885,0.28481727838516,0.36448419094086,0.23967914283276,-2.5659599304199,0.55311053991318,0.15768420696259,-0.22696271538734,0.61621928215027,-0.99096089601517,-0.42949587106705,-0.27599385380745,-0.33510228991508,-0.012092345394194,0.089942187070847,-0.28984865546227,2.0554852485657,0.014141950756311,-0.056646149605513,-0.18772016465664,0.28392559289932,0.23856431245804,0.0024876815732569,0.073407225310802,-0.16742213070393,-0.15553131699562,-0.81521338224411,-0.28315481543541,-0.087642684578896,-0.04838714376092,0.26900720596313,-0.044838439673185,0.44284096360207,-0.018973393365741,0.24554581940174,2.9180586338043,2.1761431694031,-1.4499673843384,0.25181493163109,-0.25776907801628,-1.7002658843994,-0.063148140907288,-0.15432108938694,-0.13999880850315,0.39253801107407,-1.4888441562653,-0.2350692898035,0.042357616126537,-0.16916877031326,0.16133894026279,-0.14986501634121,0.18312963843346,0.28117507696152,-0.2575791478157,-0.0367221981287,-0.61566883325577,-0.15340372920036,-1.9495080709457,0.32561510801315,-0.54586201906204,-0.035568546503782,-1.1295959949493,0.28132978081703,0.22632628679276,0.08513505756855,-0.083190634846687,-1.5581320524216,1.5119199752808,1.8177525997162,0.042760379612446,1.2626461982727,0.49116536974907,-0.53949695825577,-0.069153323769569,-1.0053821802139,0.58730846643448,0.13895413279533,-0.098677590489388,-0.200046479702,-0.057369191199541,-3.1767156124115,0.48746907711029,0.35427916049957,-1.9506472349167,0.036173071712255,-0.093366801738739,-0.091847270727158,1.4331147670746,-0.14791198074818,-0.26481369137764,-0.15983460843563,0.000862950400915,0.32402545213699,0.54293191432953,0.2161798030138,-0.59014457464218,0.11584985256195,0.25481829047203,0.60559594631195,0.37137877941132,-0.26414862275124,-0.38348630070686,0.46641275286674,0.22691905498505,0.0054749380797148,-0.025825807824731,0.12191489338875,0.43135035037994,0.23772843182087,-3.5275163650513,0.49694249033928,-0.49166437983513,0.34899309277534,1.6601723432541,-0.15844781696796,1.2591069936752,0.39694029092789,-2.6674683094025,0.93190932273865,-0.45698207616806,0.047148510813713,-0.046129576861858,1.4966613054276
-0.094633564352989,-0.94512015581131,-0.28301456570625,0.40342617034912,0.62750977277756,-4.5500202178955,-0.41999822854996,1.723380446434,0.2198039740324,-0.81818455457687,0.0056068301200867,-0.11115196347237,-0.35455298423767,-0.20405451953411,-0.95615094900131,-0.20518523454666,-2.2802305221558,0.5960932970047,0.48166719079018,0.2408598959446,-3.5262610912323,0.13683581352234,0.30520936846733,4.5201606750488,-2.1996228694916,-1.4698169231415,0.2887127995491,-0.10001923888922,0.10999114066362,0.26523149013519,-0.20904222130775,-0.46428683400154,-0.10567633807659,-3.4431478977203,0.17296442389488,-0.26381367444992,-2.3682010173798,-0.47071728110313,0.12410420924425,-0.72399234771729,2.8166666030884,1.3133937120438,-3.3484420776367,0.083107873797417,-0.38667860627174,0.061146523803473,0.56407409906387,-0.050938084721565,-0.56741011142731,0.47339081764221,-1.8758244514465,0.78015148639679,-1.2671520709991,0.2181005179882,0.099348731338978,-0.027966013178229,0.22312559187412,0.62130612134933,-0.31786078214645,2.2769484519958,-0.73178631067276,3.1856269836426,0.04861231148243,0.46357986330986,-0.49440693855286,0.16664564609528,0.078811638057232,0.2484088987112,0.38981702923775,-2.1745347976685,3.2466988563538,0.059461802244186,0.10330387949944,2.2139298915863,1.5195833444595,0.83082860708237,0.57590574026108,-0.43818181753159,-2.633873462677,-0.7211599946022,0.53226584196091,0.00010741576988949,-2.0437481403351,-0.21698828041553,1.6170660257339,-3.0913257598877,0.4667204618454,1.192650437355,-1.4632700681686,1.8745037317276,-0.34438028931618,-0.097907274961472,1.5976781845093,0.020484436303377,-0.024661468341947,0.19283165037632,0.64220333099365,0.13098672032356,0.25461849570274,-0.0037781521677971,-0.14321231842041,0.22320710122585,0.52340739965439,-0.8870432972908,1.0235328674316,-0.24175095558167,0.71904820203781,0.96377521753311,-0.019234120845795,0.076408721506596,-2.8264944553375,-1.5352979898453,-0.66104680299759,4.7010750770569,-7.4894251823425,0.35656407475471,-0.028543328866363,-0.71343183517456,3.0908954143524,0.14853124320507,0.58172559738159,0.34262639284134,-3.395973443985,1.0527827739716,0.50133258104324,-0.31741884350777,3.2819786071777,-0.16317296028137
-0.058451652526855,0.6113515496254,-0.20728971064091,-0.10363133996725,0.72539389133453,-2.6792917251587,0.37148573994637,2.0235662460327,0.30633687973022,-1.0996172428131,0.48297113180161,1.5555002689362,-0.29069849848747,0.034064117819071,0.45227837562561,1.4258620738983,-2.3896341323853,-0.74284332990646,0.075882971286774,0.030197648331523,-0.3165862262249,0.023446867242455,0.036670465022326,3.0571949481964,-1.9933891296387,-1.1682317256927,0.31189870834351,0.21354639530182,0.51135677099228,-0.072190187871456,-0.12942750751972,-0.34601616859436,0.029533000662923,-2.6384630203247,0.05890042707324,0.13839818537235,-1.7737447023392,-0.28074198961258,0.053832657635212,0.86496144533157,3.09446144104,0.71381950378418,-2.7114772796631,0.22532017529011,-0.54924058914185,-0.30211812257767,0.86157804727554,-0.071627035737038,-0.19170655310154,0.31380951404572,-1.1489235162735,0.17528097331524,-2.3177239894867,0.182238727808,0.21485815942287,0.34887218475342,0.19315168261528,0.3788366317749,-2.240877866745,2.6502087116241,-0.50575405359268,2.5028896331787,0.11980122327805,0.23237635195255,-0.49073228240013,-0.026822242885828,0.37687796354294,0.23149207234383,3.7977063655853,-2.8550496101379,1.9863697290421,-1.1191822290421,2.3404567241669,2.8274555206299,1.1346102952957,0.28342059254646,0.5923632979393,-0.063167482614517,-0.074061147868633,-0.99232774972916,0.22448281943798,0.058683205395937,-1.1547926664352,-0.05657509341836,0.47937721014023,-1.2107467651367,0.55913901329041,0.54882001876831,-2.6767613887787,0.76322001218796,-0.034115362912416,-0.07892669737339,0.84579741954803,-0.14036774635315,-1.3814858198166,0.1298795491457,0.52985960245132,0.013824308291078,0.53984642028809,-0.033017117530107,-0.48794314265251,0.31370574235916,-0.12980346381664,0.4089812040329,0.059599410742521,0.029244570061564,0.14439384639263,0.52731609344482,-0.15799295902252,0.0040667969733477,-1.845006108284,-0.1711408495903,1.0426125526428,1.3197823762894,-2.5579259395599,0.33196672797203,-0.46245244145393,-0.53772747516632,2.0894095897675,1.0647369623184,0.98549449443817,0.22322759032249,0.26191756129265,0.99534350633621,-0.59037303924561,-0.10973414033651,3.2461409568787,1.4357932806015
-0.56029266119003,0.97346174716949,-0.32825121283531,0.00053385051432997,0.44741141796112,-2.2842078208923,0.40088039636612,1.6985263824463,-0.005726377479732,-2.8265671730042,-0.509616792202,0.51776784658432,-0.68122220039368,0.53185802698135,-0.8495826125145,1.0689891576767,-1.4546943902969,-0.67301136255264,0.62853312492371,1.4921709299088,-2.3558855056763,1.3464956283569,0.53570985794067,2.4046757221222,-2.2324357032776,-0.2527688741684,0.2322366386652,-0.03966922685504,1.0738599300385,0.52556884288788,-0.30371022224426,-0.90879309177399,-0.6639324426651,-4.8838610649109,0.14576634764671,0.21133331954479,-2.7333626747131,-0.076844081282616,0.065822616219521,0.33210971951485,6.4220151901245,0.81711000204086,-6.4697852134705,-0.46962758898735,-0.8544545173645,-1.6285501718521,1.509922504425,-1.1118143796921,0.10016240924597,1.0453171730042,-2.7157769203186,-0.97939336299896,0.078893959522247,-1.4795432090759,-0.66084158420563,0.0085870092734694,0.10970928519964,0.79108196496964,-0.094465002417564,0.53338158130646,-0.38977950811386,2.25031042099,-4.6623282432556,0.52711844444275,-0.40094345808029,0.13107305765152,-0.30017146468163,0.23130847513676,1.434378027916,-1.2537617683411,2.8370182514191,-0.54957401752472,2.0578665733337,7.1909852027893,0.2902447283268,0.58775961399078,0.60791558027267,-0.56130087375641,-2.3401300907135,-1.3848358392715,1.0903832912445,0.069404669106007,-0.51102954149246,-1.7717007398605,0.70861828327179,-2.8592450618744,0.31711700558662,0.074592053890228,-3.5104126930237,2.0189898014069,-0.46471154689789,0.57314097881317,2.5280711650848,-0.021703667938709,0.43541619181633,0.48410427570343,0.53069877624512,-0.17322359979153,2.9576449394226,0.45605060458183,-0.37690767645836,-0.047894142568111,0.36956232786179,-0.27889150381088,0.77386897802353,-1.3868472576141,-0.64430356025696,0.77056658267975,-0.6751720905304,0.04106866568327,-1.5844041109085,-2.0398254394531,-0.40080860257149,0.35032474994659,-9.3568210601807,-0.11083356291056,-0.10466932505369,0.0087353941053152,1.8783710002899,-0.11366923898458,1.3624466657639,2.7024190425873,-4.5101017951965,1.0836424827576,0.0060989740304649,-1.3106991052628,1.5289869308472,-0.42094212770462
-0.040252305567265,1.0753811597824,-0.15880364179611,0.23897017538548,0.99497878551483,-1.9388099908829,-0.41957354545593,2.0983414649963,0.2538406252861,-0.65527045726776,0.41591888666153,1.8412909507751,-0.46571925282478,-0.060345992445946,0.29811498522758,1.5768421888351,-2.5529701709747,-0.4901984333992,0.12480898946524,0.083426229655743,-0.24146205186844,0.90268778800964,0.15550015866756,0.59392291307449,-1.1723099946976,0.19283606112003,0.31128489971161,0.13522261381149,0.25495612621307,-0.04173681512475,-0.22152557969093,-0.5120142698288,0.041205838322639,-0.24120426177979,0.12364825606346,0.27089881896973,-0.26289004087448,-0.16300854086876,0.06303508579731,0.32152080535889,3.5193569660187,2.1337594985962,-1.7217135429382,0.24516832828522,-0.42385786771774,-0.79828023910522,0.64759457111359,-0.075216822326183,0.24632421135902,0.22297166287899,-1.462744474411,-0.084626063704491,-0.4550912976265,0.20472466945648,0.21789266169071,0.040864113718271,0.1941341906786,0.39412674307823,-0.02437256462872,1.1566367149353,-0.68908303976059,2.506639957428,-0.18324838578701,0.33035707473755,-0.4641153216362,-0.013603104278445,-1.4258427619934,0.18458640575409,2.8525857925415,-0.4821942448616,-0.11125596612692,-1.1181915998459,2.2021403312683,2.8603310585022,0.076441243290901,0.7668998837471,0.25169125199318,-0.28902292251587,-0.71633899211884,-0.99172693490982,0.72343343496323,-0.0062958286143839,0.2152014374733,-0.024312824010849,0.18322610855103,-3.447833776474,0.55435264110565,1.766034245491,-2.1799259185791,-0.13138560950756,-0.057214707136154,-0.019833775237203,-0.085806891322136,-0.076220259070396,-1.1275426149368,0.23106163740158,-0.83973360061646,0.058259226381779,0.57792913913727,-0.080095417797565,-0.44753068685532,0.084525115787983,-0.35559609532356,-0.47170028090477,0.19269949197769,-0.080150909721851,0.85820817947388,1.4187005758286,-0.039664957672358,0.0064370492473245,-0.52107506990433,-0.63679176568985,-0.10434820502996,-0.080652058124542,-0.73939138650894,0.080692604184151,-0.30140110850334,-0.26919183135033,1.6358894109726,-0.049548342823982,1.595539689064,0.3172373175621,-0.022934883832932,1.1134496927261,-0.20212271809578,0.52791118621826,-0.11290278285742,0.28220638632774
-0.10668683797121,0.67916023731232,-0.017381351441145,-0.96419298648834,0.84023606777191,-0.79471975564957,0.61120003461838,1.322275519371,-0.070146292448044,-2.1877825260162,0.56173050403595,0.66634619235992,-0.6771280169487,0.6237159371376,-1.0485645532608,-0.43704336881638,-3.3851542472839,-0.72540372610092,0.58914035558701,1.2587275505066,-0.24037979543209,0.040775787085295,0.42480376362801,1.7298977375031,-1.3664125204086,-0.86829310655594,0.22024105489254,-0.18842133879662,0.79903537034988,0.016566896811128,-0.045868840068579,-0.77119380235672,-0.81423145532608,-2.9659495353699,0.066850423812866,-0.076075561344624,-1.8993279933929,0.63108533620834,0.0049651260487735,0.61141449213028,5.8088126182556,0.0086730755865574,-1.856246471405,0.11799598485231,-0.51788628101349,-1.1267261505127,1.8924914598465,-0.42688179016113,-0.32840222120285,0.30331784486771,-1.0358048677444,0.73566502332687,-0.65988200902939,-1.4070439338684,-0.12619298696518,0.18008388578892,0.072364129126072,0.65125131607056,0.011605644598603,2.1770036220551,-0.85700440406799,1.1154466867447,0.033358622342348,0.25889003276825,-0.45610001683235,0.10244012624025,-0.66756641864777,0.25287920236588,2.3062913417816,-2.0470364093781,2.6944229602814,-1.3076103925705,2.907338142395,2.8583962917328,1.0197947025299,1.5495990514755,0.64532351493835,-0.52524518966675,-1.1105411052704,-0.27390491962433,0.12870544195175,-0.027550587430596,0.58805745840073,-1.6666136980057,-0.81603705883026,-1.7010488510132,0.45913273096085,-0.22259728610516,-2.3334634304047,1.6941081285477,-0.17851109802723,-0.152588352561,1.2813268899918,-0.10480422526598,-1.0420132875443,0.55601590871811,0.74275720119476,0.78508448600769,2.9458849430084,1.3098902702332,-0.49742221832275,0.48435625433922,0.14078046381474,0.32680350542068,-0.030386328697205,-0.54831075668335,-0.056434474885464,2.0803070068359,0.082816399633884,0.0020912128966302,-0.77463406324387,-1.7686856985092,-0.77151966094971,0.12229949980974,-3.9515190124512,-0.51628398895264,-0.24154411256313,-0.31080800294876,0.51060307025909,0.71081405878067,0.7301419377327,2.6074361801147,-1.6177344322205,-0.18916095793247,-0.54338836669922,0.074762508273125,0.60768753290176,-0.11396234482527
0.0081713860854506,0.94009059667587,0.67987668514252,-0.32023566961288,-0.035986054688692,-0.0039540617726743,-0.56352615356445,0.0055179204791784,0.40459927916527,-0.24444694817066,-0.27981716394424,0.32820969820023,-0.24771071970463,-0.18943017721176,0.082525447010994,-0.077977865934372,-1.0019484758377,0.41399049758911,0.14515221118927,-0.0057925097644329,-0.11354115605354,0.98711305856705,0.11626524478197,-0.083483196794987,-0.28241440653801,0.17582672834396,-0.23870937526226,0.7872371673584,0.6901159286499,-0.015851465985179,0.43552178144455,-0.050456088036299,0.032491013407707,0.023723965510726,-0.27899453043938,0.26111420989037,0.017938314005733,0.066205061972141,-0.2106589525938,-0.12426146119833,0.18921065330505,0.028151325881481,-0.038287945091724,-0.23649336397648,0.34340351819992,0.022483328357339,-0.0024673424195498,0.062969714403152,0.32379072904587,0.14816717803478,-0.69695061445236,0.099533796310425,0.016052385792136,-0.59958404302597,-0.80761337280273,0.090984731912613,-0.3147486448288,-0.081109151244164,0.037260010838509,-0.078001588582993,0.022665102034807,-0.13050445914268,-1.7217832803726,-0.052579637616873,-0.03343254327774,-0.057491444051266,0.03701639175415,-0.16454128921032,-0.048135694116354,-1.4924311637878,-0.13749092817307,-0.11716890335083,0.51410245895386,0.78234750032425,0.080047935247421,0.090235657989979,-0.014688610099256,0.1663601398468,-0.06237868219614,0.041621368378401,0.1494175940752,-0.073326162993908,0.056331232190132,0.083223327994347,0.046826831996441,-0.36314687132835,-0.082252785563469,-0.1291121840477,-1.2780653238297,0.0087992791086435,0.062028091400862,0.62554824352264,0.44355031847954,0.28224176168442,-0.10438148677349,-0.021809838712215,-0.024713451042771,-0.035646300762892,0.065707139670849,-0.1858149766922,0.15215718746185,-0.67666292190552,0.4296005666256,0.020187711343169,0.81547522544861,0.11487843841314,-0.3433156311512,0.066287338733673,0.18894843757153,-0.65701603889465,-0.056510161608458,0.076522164046764,0.25580805540085,-0.023870000615716,-0.052678748965263,0.42948591709137,-0.2686693072319,-0.30166310071945,0.15532429516315,0.42280894517899,-0.13320791721344,0.084502182900906,-0.29559105634689,1.2046188116074,-0.30847719311714,-1.0842834711075,-0.090395927429199,0.37798780202866
-0.062666639685631,0.15954211354256,0.39656519889832,0.12750090658665,0.01636965572834,-1.1316013336182,0.39687186479568,0.047626852989197,0.55692970752716,-0.096314556896687,-0.074021577835083,0.41021233797073,-1.4870352745056,0.37775531411171,-0.013354066759348,-0.4176912009716,-0.039822816848755,0.42261829972267,0.34027436375618,0.079006478190422,-0.98545640707016,0.49631983041763,0.24943704903126,2.5979061126709,-1.3752475976944,0.11226093769073,-0.12016972154379,-0.36905384063721,-0.21637737751007,-0.086944982409477,1.0002967119217,-0.033565480262041,-0.19784037768841,-1.6276047229767,-0.10265275835991,-0.10394299775362,-2.2493028640747,0.66190147399902,-0.24197746813297,-0.0090464996173978,0.0099578322842717,1.9277330636978,-0.46393200755119,-0.17310775816441,-0.098397612571716,-0.11100254952908,1.1272314786911,0.031185479834676,0.49586674571037,0.05020522326231,0.42738109827042,0.12793900072575,-1.9374281167984,-0.1552647203207,-0.61848998069763,1.0912957191467,-0.46343088150024,-0.073868185281754,0.17595618963242,2.5031585693359,-0.12239844352007,2.1878077983856,-1.7378063201904,0.10832723975182,0.19655667245388,-0.055408041924238,-0.17078104615211,-0.14378595352173,1.758472442627,-0.43349611759186,0.30302050709724,-1.0321389436722,1.0856245756149,0.19183315336704,0.21099570393562,-0.21662056446075,0.068853214383125,0.1798060387373,0.65100681781769,0.019882624968886,0.041244752705097,-0.087983012199402,-1.3553417921066,-0.011001173406839,1.6970916986465,-0.3383022248745,-0.1863831281662,1.5429012775421,-0.40637466311455,2.9674427509308,-0.061169791966677,0.20842587947845,-0.12802064418793,0.60491615533829,-0.15772823989391,-0.062992013990879,-0.24567954242229,-0.065319553017616,0.084233894944191,0.38793182373047,0.13500195741653,-1.0725982189178,0.085747539997101,-0.54781621694565,1.2301863431931,0.17047938704491,-0.12707847356796,0.29993399977684,-0.1945672929287,-0.90557259321213,-0.12998399138451,-2.1368763446808,0.4352542757988,0.016123231500387,-0.30086743831635,0.42524209618568,0.11075388640165,0.10870226472616,0.92445951700211,-0.22765974700451,1.1076190471649,0.12783117592335,-0.30531233549118,0.15257839858532,0.54939019680023,-0.58306413888931,1.2638298273087,0.059441190212965
-0.13153979182243,-0.45739889144897,0.14511528611183,0.22119225561619,-0.040678046643734,-1.0418326854706,-0.90478754043579,-0.020082036033273,0.72775673866272,-0.028641704469919,-0.098763324320316,0.41301169991493,-1.3030335903168,0.025812458246946,0.068992465734482,1.2019340991974,-0.20316971838474,0.56467682123184,0.18432755768299,0.23044039309025,-0.17639450728893,-0.1160252019763,0.4003486931324,3.2603802680969,-0.52243632078171,-0.86316782236099,-0.27248820662498,0.63677757978439,-0.34795740246773,0.09497756510973,-0.041034985333681,-0.050369098782539,-0.16103900969028,-0.046846568584442,0.77791213989258,-0.3553295135498,-0.18402580916882,0.32274448871613,-0.031213197857141,-0.24595031142235,0.014055437408388,0.82490617036819,-0.0076819094829261,-0.24942745268345,-0.34008279442787,0.034559693187475,0.00146192277316,0.063103295862675,0.4630783200264,0.083944261074066,-0.93105411529541,0.18855594098568,-0.64211946725845,-0.00044281777809374,-0.25188332796097,-0.25793254375458,-0.59631222486496,-0.082950420677662,-0.88367319107056,1.8332217931747,-0.18136510252953,2.9412457942963,0.23536440730095,0.017039090394974,0.12705013155937,-0.053367882966995,-0.40873956680298,-0.34966135025024,0.52528703212738,-1.1216220855713,-0.19858668744564,-0.049382954835892,0.99228715896606,0.12557007372379,0.017001550644636,-0.056070026010275,-0.072056643664837,-0.12337235361338,0.14649543166161,0.020089218392968,0.063767448067665,-0.0050808573141694,0.27119305729866,-0.080964937806129,1.65602850914,-0.098415829241276,-0.09479782730341,1.1777155399323,0.12305611371994,-0.01738672144711,-0.40689861774445,0.25314742326736,-0.0096396477892995,0.97569811344147,-0.19796654582024,-0.053783304989338,0.32426828145981,-0.0080077145248652,0.06218970194459,-0.001509775640443,0.12133833020926,0.34548702836037,-0.069915428757668,0.60684752464294,1.7343448400497,0.11143133044243,0.87472587823868,0.070977620780468,0.30842554569244,-0.65747892856598,-0.10230470448732,-1.5028727054596,0.71660137176514,0.83201628923416,0.060372717678547,-0.13131333887577,0.14759907126427,-0.36631971597672,1.2583626508713,0.48439908027649,1.214616894722,0.15667031705379,-0.2827350795269,-0.21949987113476,-0.4045931994915,-0.31677183508873,2.8896987438202,0.46788281202316
-0.064761273562908,0.73459678888321,-0.03097677975893,0.29946261644363,-0.002508545992896,-0.086910396814346,0.42666736245155,0.015522292815149,0.97082620859146,-0.17293772101402,-0.15941768884659,0.58613681793213,-1.4685689210892,-0.09428283572197,0.081848964095116,0.87868732213974,0.084723114967346,-0.48509669303894,-0.29899021983147,0.12133907526731,0.15335927903652,-0.12260889261961,-0.0099185649305582,1.3764194250107,-1.2423211336136,-0.51465612649918,-0.23866264522076,-0.30385807156563,-0.25717464089394,0.0093864053487778,0.56647592782974,-0.073298081755638,-0.19905757904053,-2.2259254455566,-0.81854349374771,-0.31399995088577,-2.5778098106384,-0.58464169502258,-0.79389452934265,0.43389534950256,0.052333742380142,-0.007147463504225,-1.8166893720627,-0.20094726979733,-0.55974566936493,0.052139032632113,0.027457920834422,0.040972035378218,0.49447667598724,0.1035031452775,-0.94767248630524,-0.92579263448715,-0.73928034305573,-0.60341578722,0.26131072640419,0.036894708871841,-0.63263374567032,0.40975496172905,-1.4447067975998,1.3832252025604,-0.17615799605846,1.2766768932343,0.22872251272202,-0.014168239198625,0.13532477617264,-0.072377093136311,-0.57278722524643,-0.5303555727005,0.82266443967819,0.071505390107632,-0.092285327613354,-0.26344713568687,0.80818617343903,0.16871535778046,0.046449135988951,0.010235602036119,-0.040568400174379,-0.78238117694855,-0.61983436346054,-0.070398174226284,0.020271796733141,-0.032161775976419,0.063170447945595,-0.11060858517885,1.3470757007599,-0.25068661570549,-0.14772368967533,-0.032379794865847,-0.18163032829762,2.747745513916,-0.37145718932152,0.82559406757355,-0.13699063658714,0.82316923141479,-0.18350683152676,-0.044019110500813,0.84041351079941,0.036052849143744,0.10381046682596,0.19427680969238,0.064272746443748,0.38569638133049,-0.2519770860672,-0.073228657245636,-0.20665827393532,0.11669210344553,0.021083356812596,0.11414462327957,0.63673931360245,-0.062750361859798,-0.015914887189865,-0.20767863094807,0.070331387221813,-0.11682558059692,-0.032523881644011,-0.45864686369896,0.11233430355787,0.1123021915555,1.3942873477936,0.49660840630531,0.62917006015778,0.13436663150787,-0.056045293807983,-0.062197767198086,-0.44367602467537,-1.1683470010757,2.0001692771912,0.57593059539795
-0.0098931901156902,0.2727218568325,0.50785410404205,-0.42074713110924,-0.030806414783001,0.0098285637795925,-0.73658603429794,-0.0097722243517637,0.28747236728668,-0.084025464951992,0.086064897477627,0.15612611174583,-0.18345122039318,-0.23060573637486,0.088108263909817,-0.063985675573349,0.04665907099843,0.47405397891998,0.19311551749706,0.29900360107422,-0.038556948304176,0.14437545835972,1.133971452713,-0.079316288232803,0.052228003740311,0.17043653130531,0.059136781841516,0.59118127822876,-0.014934326522052,-0.0060033244080842,0.40096661448479,-0.057549435645342,-0.50789731740952,0.067545726895332,-0.022806378081441,-0.40935757756233,0.030582118779421,0.42517951130867,-0.32371160387993,0.24635997414589,0.064140282571316,0.14700302481651,0.022774651646614,-0.2056015431881,0.35878679156303,0.025600848719478,0.036332558840513,0.017435606569052,0.61498439311981,0.74076360464096,0.20750120282173,0.086986050009727,0.039487317204475,-0.51575630903244,-0.74662154912949,0.31420975923538,0.36374095082283,-0.094563074409962,0.026464177295566,-0.087684087455273,0.14116549491882,-0.12177373468876,0.078546635806561,-0.048779435455799,-0.92900776863098,-0.064471662044525,0.054224785417318,-0.086228281259537,-0.027902722358704,0.04366759210825,-0.18347907066345,0.0052429581992328,-0.26372119784355,0.065573289990425,0.055318497121334,-0.032710019499063,-0.040821492671967,0.17359474301338,0.14149355888367,0.056798294186592,0.049746353179216,-0.16785894334316,0.098999187350273,-0.33253216743469,-0.043264094740152,0.030878154560924,-0.13623647391796,0.14319501817226,-0.40290436148643,-0.036369580775499,0.081078723073006,0.8008034825325,-0.076883420348167,0.85759472846985,-0.11133173853159,-0.030968023464084,-0.05295816808939,0.034035187214613,0.097639985382557,-0.012697388418019,0.13482700288296,-0.70574378967285,0.585125207901,-0.62446504831314,0.15979813039303,-0.34489902853966,0.40208172798157,0.30910164117813,0.75039392709732,-0.67569535970688,-0.023263785988092,0.090996026992798,-0.19867633283138,-0.020629016682506,-0.042437687516212,-0.22409179806709,0.10562571883202,0.17978630959988,-0.003772085532546,0.27489629387856,-0.02561485208571,0.32361030578613,0.0056002293713391,0.19725471735001,-0.43066728115082,-0.98176074028015,-0.097523465752602,0.29134100675583
