0.34342309832573,0.74107480049133,0.44378989934921,-0.0082244127988815,0.43010899424553,-1.6509033441544,-1.3667284250259,0.10967133194208,1.6706701517105,-0.10740078240633,-0.83504056930542,-0.87307673692703,0.72028493881226,1.1998809576035,0.9512277841568,-0.39951613545418,0.058364380151033,1.0693595409393,0.44650229811668,-0.91118723154068,0.061556026339531,1.0810114145279,0.56653743982315,0.95888990163803,1.473906993866,-0.077455967664719,1.1859420537949,2.7232758998871,0.79124140739441,1.6947169303894,1.56627202034,0.31917983293533,-0.09593915194273,-0.4336025416851,0.79485428333282,-0.49731859564781,-0.36405846476555,1.5174461603165,0.15116029977798,0.16792258620262,-1.52019739151,-0.91947668790817,0.27796718478203,0.71885472536087,1.0216916799545,0.76842713356018,-0.1028940603137,0.34297063946724,1.3008652925491,-0.15925608575344,-0.20907370746136,0.10418565571308,-0.046503413468599,-1.0651031732559,-0.48052057623863,0.72717350721359,-0.73003745079041,-0.35063564777374,-0.58133381605148,-0.37180769443512,-0.57818275690079,0.66820806264877,-0.92775619029999,0.88798975944519,0.11752624809742
-0.72910451889038,1.0172355175018,0.09355441480875,-0.082724384963512,0.067751407623291,1.1808532476425,0.66657817363739,-1.1017664670944,1.3501306772232,0.62220901250839,-0.81400233507156,-0.019656578078866,0.15573099255562,-0.19900876283646,-0.032094866037369,0.90467339754105,-0.0023072564508766,-1.2029594182968,0.14929556846619,0.84040772914886,0.75612765550613,-0.0482267588377,-0.22185724973679,-0.26593562960625,-0.14260786771774,0.030604183673859,0.73076087236404,0.40418517589569,0.26588106155396,0.66306018829346,-0.47406309843063,-0.53970509767532,-0.30589950084686,-0.033622741699219,-0.61088943481445,0.26110908389091,0.54946255683899,1.115420460701,-0.86574482917786,0.088064521551132,-0.09458252042532,0.29859310388565,-0.062153968960047,2.1191186904907,0.79678249359131,1.7448856830597,-0.094905272126198,-0.72731477022171,0.021699264645576,-0.54386389255524,-0.45041656494141,-0.015906572341919,0.79399400949478,-1.3127653598785,-0.32683944702148,-1.3435542583466,-1.1256753206253,-0.76564586162567,0.68971186876297,0.55484694242477,0.12547065317631,0.23063071072102,0.55505812168121,0.64700037240982,0.15215034782887
0.82638961076736,-0.085168063640594,0.32212734222412,-0.031002944335341,-0.043104261159897,1.7430275678635,0.83735466003418,-1.975127696991,-0.44109854102135,-0.063629969954491,-0.34389114379883,0.60382723808289,1.0930378437042,0.34648483991623,0.48731756210327,0.95077639818192,-0.34395292401314,-1.6548144817352,-0.15721900761127,-1.1787904500961,-0.012825215235353,1.1427204608917,-0.65137487649918,-0.18325136601925,-0.033621311187744,1.7470520734787,0.4534647166729,0.25389295816422,-1.0130459070206,0.020229598507285,1.0637753009796,1.321361541748,-0.047703947871923,1.8213981389999,0.64896047115326,0.019032809883356,-0.59104287624359,-1.0009970664978,0.14909894764423,1.4303512573242,0.47549372911453,1.9667028188705,-0.26393836736679,0.78449529409409,0.34094089269638,0.97152245044708,1.2386454343796,0.0043493448756635,0.3917763531208,0.1105707809329,-1.6176241636276,0.23206269741058,-0.32274004817009,0.75589293241501,-0.40085124969482,0.24177281558514,-0.92992579936981,1.0973031520844,-0.46728298068047,0.83195823431015,-0.10094518214464,-1.6942489147186,-1.7305974960327,-1.5572775602341,-0.14040084183216
0.42160549759865,-0.73200339078903,0.58479690551758,0.021784158423543,-0.10418120026588,1.8939533233643,0.58890515565872,-0.94102239608765,0.068554908037186,0.37977412343025,1.0484704971313,0.36297711730003,0.78855991363525,0.036866754293442,-0.0089672328904271,-0.39591950178146,0.24763043224812,-0.48054745793343,0.55683881044388,1.4185880422592,-0.59883135557175,-1.2669941186905,-0.88352483510971,-0.3039508163929,0.76200079917908,0.14594630897045,0.73674523830414,0.96915817260742,0.54937934875488,-0.14999756217003,0.14220815896988,0.58597141504288,0.80070221424103,0.51543349027634,0.97747510671616,-0.31249186396599,0.72332495450974,0.53287422657013,0.051524318754673,0.078404821455479,0.33660924434662,2.2452030181885,-0.99364680051804,2.1100742816925,0.31941398978233,1.400475859642,0.51023650169373,2.0026533603668,1.9137098789215,2.5069582462311,-1.4746853113174,1.0582420825958,-0.9861313700676,-0.54065585136414,-1.151470541954,1.0555366277695,0.24708122014999,1.1356647014618,0.8139973282814,1.2353699207306,1.2175829410553,-1.8171162605286,-0.68671333789825,-0.71673041582108,-0.52007138729095
-0.23222523927689,0.077344484627247,-0.18273258209229,-0.16951932013035,0.075745850801468,-0.60609638690948,0.41738370060921,0.64531141519547,0.59116208553314,-0.04607655107975,0.15684671700001,0.23107297718525,0.80124056339264,-0.066258303821087,1.3037412166595,1.076954126358,0.4646612405777,0.16375637054443,-0.91308242082596,1.341956615448,0.35792934894562,0.89454972743988,0.13939361274242,0.91090244054794,0.65494513511658,-1.3956164121628,-0.2179604023695,0.41429948806763,0.90234500169754,0.94902902841568,0.13408912718296,0.22638630867004,0.17725545167923,-1.1458232402802,0.27415597438812,1.0756924152374,0.92814582586288,0.61548584699631,-0.14460310339928,0.43759116530418,0.38577497005463,1.7344590425491,0.28944027423859,0.29721182584763,0.50083887577057,0.081676706671715,-0.66642946004868,-1.7011799812317,0.39123353362083,-0.36657136678696,-1.0630434751511,-0.47234493494034,-0.17472027242184,1.0186259746552,-0.053825490176678,1.8512803316116,-0.11778824776411,-0.93221110105515,0.15221959352493,0.61516666412354,-0.38601952791214,0.91333812475204,-0.40232115983963,-1.0186998844147,-0.71848368644714
-0.20290775597095,-0.8055619597435,-0.46776127815247,-0.22780101001263,-0.1680763810873,-1.0845433473587,-1.3211715221405,-2.0891649723053,0.92119306325912,0.14069876074791,-1.3935340642929,-0.0057472791522741,0.72971642017365,-0.63183581829071,-1.58771443367,0.70921432971954,-0.064892902970314,0.72561937570572,-0.84911906719208,-0.31290140748024,-0.74468022584915,0.30585488677025,-0.018211659044027,0.23987063765526,-0.19685088098049,0.050343558192253,1.2882535457611,-0.43736129999161,0.29412668943405,-0.55295169353485,0.21577404439449,0.18366645276546,-0.1702036857605,-0.71543651819229,0.045922014862299,0.50065863132477,0.085775896906853,0.17843464016914,1.2040374279022,-0.43834394216537,-0.4287029504776,0.87533152103424,1.335617184639,1.3718441724777,-0.061031274497509,-0.07765206694603,0.28079742193222,0.77133905887604,-0.58389699459076,-0.46261551976204,-0.96293473243713,1.0218737125397,1.7495901584625,-0.52003175020218,0.76753968000412,0.57862281799316,-0.52609151601791,-0.17733862996101,2.3445138931274,-1.4688996076584,0.95498508214951,2.5073544979095,2.413985490799,0.49070137739182,1.1314589977264
-1.1453669071198,-0.85172843933105,0.82859992980957,-0.16290763020515,0.038737308233976,-0.57590991258621,1.1745834350586,-0.7999854683876,1.0126777887344,-0.39564093947411,0.44516158103943,0.082415401935577,-0.33783304691315,-0.12130300700665,0.6261967420578,-0.69330269098282,0.80547720193863,-0.1783043295145,0.66903656721115,-0.87818348407745,0.75636798143387,0.059635866433382,1.3574042320251,-0.36281424760818,1.7612707614899,0.47279000282288,0.061206430196762,1.4884879589081,-0.97048449516296,-0.27182865142822,0.26387879252434,-1.1334677934647,0.2511237859726,0.25764033198357,0.27989587187767,-0.11178583651781,-0.01429243106395,0.15858259797096,0.18345122039318,0.87381303310394,0.2525586783886,-1.9212642908096,0.7970957159996,0.057284712791443,1.7077409029007,-1.5890028476715,-0.31699356436729,-0.28540930151939,1.8898352384567,0.83424609899521,-0.38860619068146,0.7999512553215,-1.267361998558,-0.4378570318222,1.3518126010895,-0.49037486314774,-0.33233648538589,2.5451064109802,0.4703873693943,-0.35515841841698,0.5732838511467,-0.85257059335709,0.44533240795135,1.1509689092636,0.72507554292679
-0.30524751543999,0.18732342123985,1.1373890638351,-0.18264663219452,-0.017445908859372,0.9347305893898,-0.41675892472267,0.060194049030542,0.68176597356796,-0.554891705513,0.17100051045418,-0.37400588393211,-0.12640453875065,1.0829207897186,0.31655618548393,-0.66953867673874,1.7937240600586,-0.29985523223877,-0.84244781732559,-0.49938362836838,0.65987288951874,0.66149586439133,0.45800730586052,-0.17096668481827,0.51012808084488,-0.92772698402405,0.45208761096001,-0.13842779397964,-0.67589789628983,0.44196903705597,1.2040889263153,-1.0019009113312,-0.31943497061729,0.43951088190079,-1.1095979213715,0.16359198093414,0.50940895080566,0.30252411961555,-0.14785501360893,-1.453454375267,-1.1264050006866,0.604960501194,0.023863960057497,-0.25531303882599,0.41119208931923,-0.069439396262169,-0.25696700811386,1.2969957590103,-1.3677959442139,0.74962788820267,1.0994914770126,1.741822719574,-0.86536353826523,0.49313208460808,0.14795610308647,1.6769641637802,-0.37725493311882,1.2183263301849,-0.46648585796356,1.6188024282455,1.2771216630936,-1.3328261375427,0.87418627738953,-1.1540764570236,0.39049914479256
-0.61515361070633,0.049605019390583,0.16513450443745,-0.10584846138954,0.011389184743166,-0.7984710931778,-0.059326026588678,2.6996138095856,-0.5882728099823,-0.032513469457626,-0.21683178842068,-0.41723808646202,0.068528339266777,0.23039312660694,-0.40428870916367,0.096032425761223,0.31377708911896,-0.094516508281231,-0.1305253058672,-0.07065137475729,-0.21289809048176,0.31671687960625,-0.63149946928024,1.8514912128448,-0.52959072589874,-0.67709290981293,-1.1128097772598,1.0714634656906,-1.5189179182053,-0.81685072183609,-0.18743148446083,-0.026487579569221,0.9585697054863,0.70310205221176,0.9253636598587,-0.69821870326996,-0.32598608732224,1.1647199392319,-0.64644312858582,-0.90884256362915,0.54670667648315,-0.39434325695038,1.9766017198563,-1.0213214159012,0.24660634994507,0.79327547550201,0.62486892938614,1.5536094903946,0.90928506851196,1.1723146438599,0.43480116128922,1.1077877283096,-0.81363707780838,-0.3443595468998,0.56290340423584,0.53356295824051,0.034008495509624,-0.37969508767128,-0.91734743118286,0.55714762210846,-0.99908208847046,1.1591484546661,0.066031515598297,0.49390244483948,-0.36808082461357
-0.7666500210762,-0.91525173187256,-0.46260809898376,-0.11827663332224,0.36833143234253,1.3878363370895,-0.23425927758217,-0.72849231958389,-0.105803206563,-0.28571093082428,0.35343182086945,-0.21088552474976,-0.67028826475143,-0.45714417099953,0.092853657901287,1.0557425022125,-0.93195509910583,1.4652894735336,1.1510401964188,0.90830492973328,0.52959197759628,-0.17879386246204,-0.33539906144142,-0.62946593761444,1.0797203779221,-0.10713104903698,0.38579323887825,-1.0881061553955,-0.28296491503716,0.17968225479126,-0.99974602460861,0.0856012403965,-1.5280203819275,-1.0185873508453,0.19891308248043,0.18699006736279,0.23681488633156,0.52164614200592,0.071609385311604,-0.54796504974365,1.0324465036392,-1.1013141870499,2.4826436042786,0.049674108624458,0.013791728764772,0.62469553947449,-0.4891911149025,0.71151214838028,0.75123471021652,-0.067790381610394,0.10665624588728,0.87414646148682,0.41669261455536,-0.11713211983442,-0.80387270450592,0.74690848588943,0.97578561306,0.15089623630047,-0.51052141189575,2.050586938858,0.076293669641018,-0.12775875627995,0.52953797578812,0.31684166193008,0.14511336386204
0.52842038869858,0.22984731197357,0.38066819310188,-0.19560050964355,0.0053843958303332,-0.14210584759712,-0.51749169826508,0.60624289512634,1.3081759214401,-0.37422433495522,-0.75577920675278,0.61034804582596,0.37306839227676,1.1187908649445,2.7754926681519,-0.58059549331665,-0.24099209904671,0.029133824631572,-0.40559336543083,-1.8697736263275,-0.072741292417049,0.06503714621067,-0.011862115934491,0.49967533349991,0.15944029390812,-0.22342532873154,0.19399207830429,-0.26663842797279,0.72565352916718,0.46270877122879,2.6465299129486,-1.0342781543732,-0.046020045876503,0.37070396542549,0.89176070690155,-0.16653345525265,0.61235100030899,0.35239136219025,-0.11564377695322,0.1027715280652,-1.1864559650421,0.36341339349747,-2.5089433193207,0.98514026403427,-0.060071416199207,-1.2126153707504,0.85245704650879,-0.21687984466553,0.30036336183548,0.47428616881371,0.84629434347153,0.33054760098457,0.52638405561447,0.72734153270721,0.74656969308853,0.74486738443375,-1.3592848777771,0.52488905191422,1.6315335035324,-0.080076560378075,1.8694945573807,-2.2686080932617,-2.009220123291,-0.38642507791519,0.48970764875412
-0.2080645263195,-0.83437377214432,0.29135966300964,0.030796799808741,-0.04013342782855,0.85001718997955,-0.89857965707779,2.4563710689545,-0.34192594885826,-0.3305316567421,0.48745891451836,0.67364764213562,-0.28222155570984,0.43764919042587,1.0279829502106,-1.0439307689667,-0.03382284194231,-1.0823585987091,-1.053181886673,-1.2424788475037,-0.97632801532745,2.884866476059,0.12417382001877,1.4007333517075,-0.02834172360599,1.5661518573761,0.37686276435852,0.1883991509676,-0.16672521829605,0.040765132755041,1.2133940458298,1.6341941356659,-0.21064871549606,0.38408333063126,0.36185485124588,1.2347829341888,-0.016586467623711,-1.1415004730225,-0.4125342965126,0.6808220744133,0.48213896155357,-0.10625664889812,-0.90627306699753,2.0255162715912,-0.66449642181396,0.12733902037144,-1.9247086048126,1.0322122573853,0.78718644380569,0.49772778153419,0.66591972112656,-0.20631667971611,0.6398258805275,1.6969019174576,-1.6516473293304,1.0118304491043,-0.93363046646118,0.23636716604233,-0.21657712757587,-0.51643413305283,0.50809365510941,0.9429025053978,-0.1265829205513,-1.6762517690659,-0.45919436216354
0.25744357705116,-0.0091260178014636,0.54661202430725,-0.081097103655338,-0.18223096430302,-2.5171535015106,2.232837677002,-2.1796417236328,-1.5264319181442,-0.66968274116516,1.7698209285736,3.000983953476,0.062875375151634,-0.78173261880875,0.96435612440109,1.748970746994,1.6984008550644,2.7011666297913,1.6590663194656,1.0338590145111,0.34952053427696,-0.60868746042252,1.4578601121902,-0.59667891263962,1.05990421772,-0.68340915441513,0.86722421646118,0.023123379796743,1.2396222352982,0.90175467729568,0.40090772509575,-0.60824030637741,-0.49556577205658,1.2146569490433,0.42725205421448,-0.046908501535654,0.66703903675079,-0.45294588804245,0.68458330631256,0.92895233631134,1.1768455505371,1.3756676912308,0.41293853521347,1.0546057224274,1.1764240264893,-0.43342247605324,0.70511466264725,2.3695333003998,2.0883903503418,-0.63944685459137,1.9378486871719,-1.1796547174454,-0.67340803146362,-1.456437587738,0.70595115423203,-0.58381146192551,1.5809565782547,-1.5452629327774,-0.20937861502171,-1.394890666008,0.73874622583389,0.16883052885532,-0.47872167825699,0.25031876564026,0.66784381866455
-0.53480708599091,-1.2172880172729,-0.29322829842567,0.035232786089182,0.18242081999779,-0.19838842749596,-0.30803325772285,-0.39611381292343,-0.0030625846702605,-0.25661835074425,0.29716402292252,0.34482020139694,-0.95967143774033,-0.41009032726288,-0.51832419633865,0.0086216293275356,-0.63968938589096,-0.23062431812286,0.132230296731,1.1460452079773,-1.2764461040497,0.19520744681358,0.096971593797207,0.85588353872299,0.39963191747665,0.14617243409157,0.59024626016617,-0.24205668270588,-1.3781522512436,0.17087757587433,0.097082421183586,2.8548936843872,-0.64962953329086,0.77187186479568,-0.15079167485237,0.09359734505415,0.42983189225197,-0.54518890380859,1.0240830183029,0.31038144230843,0.93594455718994,0.65536892414093,-0.16236136853695,1.3422560691833,0.17652383446693,0.5913702249527,-0.38581398129463,-0.45239347219467,-0.58327561616898,0.82917660474777,-0.13373355567455,0.34240683913231,-0.92261213064194,0.57469701766968,0.24240957200527,-0.37023544311523,-0.86404347419739,1.1674426794052,-0.70002239942551,0.77011442184448,-0.020152302458882,0.17178462445736,-0.64724433422089,0.77303051948547,-0.3333515226841
0.53308206796646,-0.35231032967567,0.83871424198151,0.044323902577162,-0.04945195838809,-0.31242144107819,-0.49821594357491,-0.94403326511383,0.60560441017151,-0.0047798329032958,-1.0096261501312,-0.20907917618752,1.0256180763245,-0.55949574708939,0.096377275884151,0.87315720319748,0.39998200535774,0.61071461439133,-0.32478851079941,0.10746191442013,0.79078233242035,0.044467266649008,0.047114551067352,-1.1756008863449,0.91606277227402,0.6013947725296,-0.30755019187927,-0.089394450187683,-0.68722474575043,1.4554896354675,1.5967618227005,1.0616869926453,-1.0119804143906,0.79408007860184,0.22260169684887,0.38775837421417,0.58358752727509,-0.38628110289574,0.65912467241287,0.58262526988983,-0.57605147361755,-0.050767950713634,-0.94814628362656,-0.2720639705658,-0.12589985132217,-0.7404996752739,0.4378177523613,-0.031157737597823,-0.74603527784348,0.20114055275917,1.3212349414825,-0.91747897863388,-0.51462000608444,-1.2353786230087,-0.59070366621017,-0.054484516382217,0.21891175210476,1.7688947916031,-0.30340698361397,0.71381694078445,-0.88409072160721,-0.006445427890867,-1.0216530561447,0.53738003969193,0.55642211437225
-1.6290673017502,1.5177308320999,1.0752316713333,-0.068150766193867,-0.10295345634222,0.5802029967308,0.50749105215073,-1.2298890352249,2.1567399501801,-1.064821600914,1.2343744039536,0.34129655361176,0.48588716983795,1.8723863363266,-0.014771745540202,1.4870430231094,0.7309136390686,-1.0143383741379,-0.044749733060598,0.71748852729797,0.98482251167297,1.2389159202576,1.2855360507965,-0.28910651803017,0.41639405488968,-0.49203631281853,0.65655493736267,-0.085829958319664,-1.3392672538757,1.1682767868042,0.16387248039246,-0.3605460524559,-0.58138263225555,0.5865296125412,-0.93114322423935,1.109600186348,-0.57257348299026,1.5996080636978,0.090443424880505,0.14141669869423,-0.56956118345261,0.096334934234619,-1.2439130544662,0.50958544015884,-0.043288640677929,-2.1428263187408,2.3976857662201,-0.39649161696434,0.33413335680962,-0.15533640980721,-0.55151134729385,-0.0015851121861488,-1.4052338600159,-0.1361300945282,-0.44358882308006,1.6221702098846,1.2966486215591,2.7301335334778,1.0225483179092,1.254830956459,0.63325840234756,-1.2312707901001,-0.36836594343185,-0.22463120520115,-1.7526962757111
-0.54110306501389,-0.76138192415237,0.65679258108139,0.024992067366838,0.040701977908611,-1.169951915741,-0.068912975490093,-1.4815979003906,1.6868319511414,0.1274836063385,0.54262083768845,0.49562671780586,1.0480670928955,0.89430683851242,1.551992893219,0.31927484273911,0.88164699077606,0.26235961914062,1.0420643091202,0.57366389036179,-0.60662430524826,-0.61865293979645,-0.15142700076103,0.39774510264397,0.76052594184875,1.037865281105,-0.045677054673433,-0.72121381759644,-0.51792985200882,-0.31211733818054,0.021653072908521,-1.0200290679932,-1.4855436086655,3.259224653244,-0.038799438625574,-1.128391623497,-1.2231192588806,0.82782751321793,0.98277902603149,2.0801103115082,-0.081620663404465,-1.3235340118408,0.63121831417084,0.65190672874451,2.0430166721344,-0.50155055522919,-0.078509524464607,0.94927841424942,1.0609080791473,1.0650697946548,1.4717117547989,4.022958278656,-2.3778944015503,-1.7130138874054,-1.2821321487427,0.49389714002609,0.2503365278244,-1.2151300907135,0.73568218946457,2.0163826942444,1.4794744253159,0.32469236850739,-1.5207504034042,1.3513786792755,0.51612669229507
0.65895652770996,-0.37076511979103,1.1883178949356,-0.0080161355435848,-0.05276620388031,1.5347187519073,-1.3637952804565,-0.34382525086403,2.1639432907104,-0.38902440667152,0.14864951372147,-1.0812050104141,0.85678458213806,1.6040338277817,0.23061273992062,-1.6578179597855,1.3613603115082,0.18321377038956,-0.49472618103027,-0.65845435857773,0.16847057640553,-0.01619547046721,0.46740621328354,0.632672727108,1.0951420068741,1.5428255796432,0.41840514540672,0.22651278972626,0.71797657012939,0.09885635226965,-0.94983625411987,-0.83557397127151,-0.29261064529419,0.60544723272324,-0.27221703529358,0.51981210708618,-0.066526643931866,0.30335029959679,0.65116256475449,0.25290185213089,0.023358765989542,-0.011193078942597,-0.89675903320312,-0.59034276008606,-1.0355356931686,1.4575024843216,-0.81806814670563,-0.82823079824448,1.1622502803802,0.32676091790199,-0.31992921233177,-2.4210140705109,0.45118725299835,0.59228593111038,0.082822822034359,0.73428589105606,0.27075695991516,0.95151031017303,-0.67542493343353,1.4353874921799,0.35851919651031,-0.00099828781094402,0.58264362812042,-0.42734244465828,-0.44477844238281
-0.051339812576771,-0.83830672502518,1.0492807626724,0.10992372781038,-0.11736365407705,-0.38908761739731,1.4370157718658,-0.46783265471458,0.13836008310318,0.10175512731075,1.8803397417068,1.3276245594025,1.3632686138153,-0.563083589077,1.1172958612442,1.0673159360886,0.89095062017441,0.23899285495281,0.3480612039566,2.5674090385437,0.51862806081772,0.083645224571228,0.15615057945251,0.06277996301651,-0.36235925555229,1.2387325763702,0.9746994972229,-0.32778611779213,-2.5984861850739,0.14679296314716,-0.93595588207245,-0.82643628120422,-0.20134444534779,2.7134003639221,0.10797166824341,-0.060742978006601,0.97597765922546,0.1970728635788,0.64592611789703,-0.95957487821579,0.17392744123936,0.82099735736847,0.21121607720852,0.021719569340348,0.70914655923843,1.6366304159164,0.62161439657211,1.4284633398056,0.79721581935883,-0.79075580835342,0.36292800307274,-0.20106437802315,0.0041648438200355,0.69894409179688,0.034069832414389,2.2434637546539,-0.86057376861572,-0.99805003404617,0.62900584936142,0.043299742043018,0.30286267399788,-0.65795159339905,0.59987366199493,-1.1154860258102,1.178081870079
-1.7659417390823,-1.0665872097015,0.44210940599442,-0.10289484262466,0.37017446756363,0.54876673221588,-1.3254235982895,0.39256072044373,-0.26747840642929,0.46179306507111,0.10988208651543,-0.31405493617058,0.2480428814888,0.55749928951263,1.3886255025864,-0.1265636831522,0.45334210991859,-0.40372431278229,0.4441145658493,0.81231701374054,1.235625743866,0.25777018070221,-0.24355906248093,1.1241134405136,0.39106073975563,1.1368242502213,0.83348786830902,0.26017832756042,-1.0757685899734,-0.3452590405941,-0.83568835258484,-0.31016197800636,0.99750620126724,0.9981187582016,0.25360953807831,-0.29069402813911,-0.10668180882931,1.0698574781418,0.86337172985077,0.36652535200119,-1.0103933811188,0.23246324062347,1.3645634651184,-0.84704297780991,1.5273514986038,0.42391958832741,0.60007870197296,0.42703294754028,1.3466558456421,1.937334895134,-2.5757622718811,1.7807003259659,-0.92187428474426,1.2507799863815,-0.3932204246521,1.0468430519104,-0.014454972930253,-1.2199939489365,0.40718013048172,0.28037360310555,1.1459884643555,-1.2229245901108,-1.2839326858521,-0.81826084852219,0.460339397192
-1.4122203588486,-0.064326927065849,1.8759309053421,0.011809132061899,-0.14442722499371,0.21765080094337,2.2177453041077,-1.6434952020645,1.6903260946274,0.21525458991528,2.3481709957123,1.7464785575867,1.4369535446167,1.0048118829727,0.8982185125351,1.072899222374,0.45395031571388,0.11666019260883,-0.22893066704273,-0.7088121175766,-0.72925025224686,-0.37203097343445,0.00520822359249,2.2496123313904,1.9687085151672,0.70822417736053,1.0849916934967,-0.6116698384285,0.83115494251251,0.16938033699989,-0.51864904165268,-1.0050814151764,-0.1538443416357,0.36363047361374,0.44049990177155,0.59522706270218,0.30297490954399,-0.10474592447281,0.018785934895277,-0.61218160390854,2.0886421203613,-0.51903158426285,-0.03449884802103,0.084330156445503,-0.019016832113266,-1.8205828666687,0.71018558740616,0.79073053598404,-3.4555244445801,0.51868456602097,2.1541082859039,1.9508689641953,-0.74522018432617,-0.9199595451355,0.46705302596092,0.25940930843353,-1.3909941911697,-0.08718428760767,-0.39489182829857,1.0581655502319,0.85279631614685,-0.36314988136292,1.4417003393173,2.6808884143829,0.033467814326286
-0.10102391988039,1.6357120275497,1.0368568897247,-0.19443875551224,-0.062146741896868,-0.98675972223282,-0.52392905950546,0.41398599743843,0.57515567541122,0.20651400089264,-1.1030447483063,-0.36927410960197,1.3078584671021,0.16067151725292,0.8387314081192,-0.28981119394302,-0.078435711562634,-0.83520752191544,0.28647762537003,-0.028431674465537,0.1710259616375,1.7757261991501,-0.94613564014435,0.9226753115654,0.95987987518311,-0.35589951276779,1.0552219152451,0.42235586047173,0.049662388861179,0.89906591176987,0.72692185640335,-0.061900727450848,0.65261280536652,-0.36324438452721,0.72884982824326,0.72239619493484,-0.77561032772064,0.23329651355743,-0.3159706890583,0.69165259599686,-1.9559067487717,-0.71929585933685,-0.78976845741272,1.0531430244446,-0.60319566726685,0.075082048773766,0.0062462189234793,1.2074588537216,0.48940116167068,1.1597068309784,-1.3097409009933,1.7772935628891,1.7735728025436,-0.38279217481613,1.3170158863068,0.56867772340775,-1.2397285699844,-1.3007626533508,1.2952297925949,1.8228060007095,2.2757451534271,-0.33285599946976,-0.14499795436859,0.86326134204865,0.57165652513504
0.25590521097183,-1.0023407936096,-0.022132586687803,0.02448689006269,0.25321117043495,0.24215798079967,-1.063024520874,0.83646148443222,1.9025446176529,0.31297051906586,-0.92480063438416,-0.118234410882,0.82504838705063,0.061269532889128,0.080612026154995,0.61430323123932,-0.10234339535236,-0.50030869245529,0.97878766059875,-0.29153937101364,0.34564664959908,-0.18756167590618,-1.6074590682983,1.1911777257919,-0.071090869605541,-0.2178603708744,0.8777340054512,-0.11535902321339,-0.45319455862045,-1.3125710487366,1.1324801445007,0.26331147551537,-0.35598534345627,0.33432713150978,0.42902287840843,-0.27152895927429,0.72418421506882,1.8386733531952,0.55231595039368,0.11096516251564,1.1804370880127,-0.2748010456562,0.90973508358002,0.7658663392067,-0.33666491508484,-0.3063560128212,0.15857663750648,-0.804663002491,2.1752970218658,-0.21970854699612,1.4015246629715,-0.36597713828087,1.1731126308441,0.20823754370213,-0.047398313879967,1.7375695705414,1.8320695161819,-2.1183726787567,0.39629900455475,-1.0569751262665,0.73846989870071,-1.8046275377274,-0.23499241471291,-1.4210833311081,-0.15842814743519
-0.78747189044952,0.60775905847549,1.004471540451,0.13270591199398,0.096784494817257,-1.6773359775543,-0.6344883441925,-0.90374153852463,1.4624304771423,0.63237810134888,0.05082032084465,-1.3492848873138,1.4869492053986,1.3935359716415,1.9124618768692,-0.39901280403137,0.24524028599262,0.046377506107092,-0.1913105994463,0.04691145196557,1.0781975984573,0.71588879823685,-0.69945150613785,0.61741673946381,-0.635946393013,0.77515095472336,-0.62569582462311,0.52551805973053,0.47476479411125,1.2530889511108,-1.0736672878265,-0.2506191432476,1.8728185892105,0.73381716012955,1.248632311821,0.7406809926033,-0.23107637465,0.030161716043949,-0.83197343349457,0.76433902978897,0.37395665049553,1.4794698953629,-0.91993993520737,0.64809828996658,-0.90161865949631,-0.3844458758831,0.051614675670862,0.30360600352287,-0.69211918115616,0.83257967233658,-0.83371579647064,0.61737430095673,0.65747976303101,-0.0730881690979,-0.95783197879791,1.2445704936981,-1.2552508115768,0.33010020852089,-0.19478133320808,-0.65807169675827,0.0070619685575366,0.88534933328629,0.63409870862961,-0.38130801916122,0.33308860659599
-0.88762801885605,1.1705740690231,1.3545042276382,-0.086398057639599,0.061950996518135,-0.061806827783585,1.1680195331573,-1.2662347555161,0.8479608297348,0.30236649513245,2.0812652111053,2.6387572288513,0.65918254852295,0.69332104921341,0.95454549789429,1.9656491279602,-0.47492945194244,0.45082610845566,0.83892673254013,-0.52463287115097,0.72639131546021,-0.010001215152442,0.21343290805817,0.22037394344807,-0.31780368089676,1.5532109737396,0.58378475904465,-0.019564619287848,-1.5277574062347,0.54363489151001,0.17131833732128,-1.3650871515274,0.23369705677032,0.94027006626129,0.78533095121384,0.5937305688858,0.30541118979454,1.5449503660202,0.7696053981781,0.25340911746025,-0.66942077875137,0.40779179334641,0.7331936955452,-0.017085859552026,-1.305468916893,-1.4800668954849,0.66589939594269,0.79039621353149,-0.9070720076561,1.2087844610214,0.22255539894104,0.26456117630005,-2.0115873813629,-1.8741782903671,0.93701595067978,1.6501194238663,-0.81979358196259,0.34907296299934,3.0043079853058,0.95500916242599,1.7961895465851,-1.0794924497604,0.54395657777786,0.53391170501709,0.26930084824562
0.37573081254959,-0.59093779325485,0.38601756095886,0.11175549030304,0.089208520948887,-1.3372497558594,-0.52193212509155,-0.84729075431824,0.39787772297859,0.83165180683136,-0.32327896356583,-0.028154412284493,0.59654438495636,-0.30937400460243,-0.88559108972549,0.57307457923889,-0.51908278465271,0.18687438964844,0.077594377100468,0.36652106046677,0.49736434221268,0.32110437750816,0.64999002218246,-0.0077335364185274,-0.41701465845108,-0.50955200195312,-0.33861309289932,-0.44548642635345,-0.3426026403904,0.51531785726547,-0.62904071807861,-0.042020175606012,-0.15713489055634,-0.051489662379026,1.2535945177078,-0.8352210521698,0.65239763259888,-2.0728180408478,0.2420791387558,-0.97238546609879,1.154589176178,-0.9299453496933,0.12683133780956,0.38010662794113,0.81418263912201,-1.7569501399994,0.31758239865303,0.86202555894852,-0.62831282615662,0.37199977040291,0.51198196411133,-0.52842557430267,0.86462467908859,0.2508325278759,0.59724354743958,-0.11844984441996,0.16816262900829,0.019225990399718,0.50483322143555,0.22006559371948,-0.36838415265083,-0.88209503889084,-0.034496769309044,0.50577926635742,0.15993666648865
-0.37919202446938,-0.79175913333893,1.8775609731674,-0.14938186109066,-0.16761599481106,0.72248613834381,-0.024921368807554,0.33061817288399,0.64714825153351,0.15325710177422,0.93574285507202,0.28909999132156,0.94640684127808,0.8398705124855,-0.56824654340744,0.42928180098534,1.1139935255051,1.5864715576172,1.5466793775558,-0.27907791733742,-1.1127688884735,-0.29677480459213,-0.31183469295502,-0.47281223535538,1.6057246923447,-0.11465018242598,0.72899562120438,-0.20682729780674,-0.59320712089539,-0.052847560495138,-0.0065790778025985,-0.43345564603806,0.55915313959122,1.5679668188095,-0.97793674468994,0.22743490338326,0.11854667961597,0.60189467668533,-0.21901148557663,0.80371499061584,-0.87702172994614,-0.14123487472534,-0.60788422822952,0.094439141452312,0.49459233880043,0.88608926534653,0.01638438180089,0.95426851511002,1.2699910402298,3.5087010860443,-2.0970931053162,1.2496191263199,-0.51429104804993,0.22873494029045,-0.67997974157333,0.35705381631851,-0.89200353622437,-0.11325735598803,1.8554803133011,-0.66012018918991,0.14398002624512,-0.5358983874321,0.45364505052567,-0.30752077698708,0.51510626077652
0.50113922357559,-1.0569701194763,0.7102056145668,-0.031196704134345,-0.028749411925673,-0.21186977624893,-0.9550586938858,-1.1798458099365,1.4043585062027,0.18804323673248,0.43091350793839,-0.50881886482239,0.73986858129501,-0.6431792974472,1.163232922554,0.75008982419968,0.39282190799713,-0.79292374849319,-1.4336031675339,-1.3073672056198,-0.74708360433578,-0.23047503829002,-1.7001945972443,-0.35195282101631,-0.62095236778259,-0.62083601951599,-0.28718259930611,0.31442299485207,-0.16465954482555,0.19476866722107,-0.35420429706573,1.913591504097,0.20787294209003,-0.45757898688316,0.47015404701233,0.29691189527512,0.4244772195816,-0.63005930185318,-0.570108294487,1.4324598312378,0.12194663286209,1.0957559347153,0.21085900068283,0.40166109800339,-0.44963648915291,0.78917908668518,-1.0835044384003,-0.57757914066315,-0.11159656196833,0.62559372186661,-1.3936766386032,1.3526850938797,-0.57174396514893,-0.289276689291,1.3672312498093,0.28552249073982,0.03759178891778,-0.51857304573059,-0.090119630098343,1.760441660881,-0.067124359309673,0.43448466062546,-0.40535217523575,-0.99790370464325,0.49016985297203
1.5571576356888,0.8683688044548,-0.14999137818813,0.1408980935812,0.28461617231369,0.24269753694534,0.30647602677345,2.8114192485809,-0.30853855609894,0.58616656064987,1.5088200569153,1.5314559936523,-1.0435446500778,-0.080439768731594,0.60047328472137,0.11002408713102,0.91799765825272,0.78987538814545,-0.060550432652235,-0.78420054912567,0.59431797266006,1.034538269043,-0.52771043777466,-0.8175927400589,-0.91915386915207,-0.268146276474,0.44738072156906,0.4617982506752,0.38444530963898,0.024203963577747,-1.4451216459274,0.31732076406479,1.8508857488632,-0.17641414701939,0.4872182905674,1.7796703577042,-0.37468135356903,0.99412870407104,-0.36501005291939,0.5722776055336,-0.13273765146732,0.0018774538766593,0.041363157331944,-0.87903982400894,-1.312600851059,-0.015455743297935,1.3951660394669,0.76884162425995,-1.546563744545,0.18094705045223,0.19162252545357,-1.1857907772064,-0.46078845858574,-0.59767264127731,-1.475454211235,-1.1721814870834,-0.45214596390724,-1.1105836629868,-0.15409795939922,-0.54591381549835,-0.82760411500931,2.1080470085144,-2.0377018451691,-0.26048839092255,1.2750505208969
0.72331893444061,0.72382003068924,-0.065492950379848,0.070434242486954,-0.33235883712769,-0.021642152220011,1.8586353063583,-0.23951396346092,-1.9081951379776,-0.023720625787973,1.4928315877914,1.4955009222031,-1.030636548996,1.2118644714355,-1.1943901777267,-0.63062882423401,0.66248226165771,-0.89314955472946,-0.1776434481144,-1.0049653053284,-0.25788164138794,0.65777570009232,0.30707433819771,-0.20487281680107,0.2985021173954,0.24111996591091,0.1398754119873,-0.031084731221199,0.12617847323418,-0.071308001875877,2.1851913928986,-0.37547826766968,0.3916662633419,0.66188353300095,0.1742784678936,1.0937705039978,-1.4161778688431,0.11765658855438,0.56840091943741,-1.2066497802734,-1.1703023910522,0.67497932910919,1.6475741863251,-0.73328983783722,0.22985780239105,-2.3296365737915,-0.11551062762737,1.0945544242859,0.37999594211578,0.33629125356674,1.1293431520462,-0.24206164479256,1.3879699707031,0.02027359418571,-1.5569860935211,0.24951761960983,0.37717455625534,-1.6904934644699,0.46183502674103,1.0652960538864,1.1135923862457,-0.098296411335468,0.59249573945999,0.73198848962784,-0.49896827340126
0.85609370470047,-0.27120992541313,-0.29499545693398,0.078494802117348,0.073118656873703,-0.18829649686813,-0.7028112411499,1.04017162323,-0.71882683038712,0.055687833577394,0.61188662052155,0.1822025179863,-1.3054769039154,0.46912240982056,1.0773224830627,1.1709390878677,0.51668673753738,-1.5225913524628,-0.81340974569321,0.26984059810638,0.13158990442753,-0.36224016547203,1.0156012773514,0.94330263137817,-0.0055339108221233,1.7613877058029,0.9421067237854,-0.44838571548462,-0.34847620129585,0.18736396729946,0.79303467273712,-0.62758040428162,-0.042861118912697,1.0591920614243,1.2774022817612,1.0022439956665,-0.12859319150448,0.98347383737564,0.93534469604492,2.109144449234,0.26701375842094,1.4093449115753,-0.85033226013184,-0.15255318582058,-0.13476164638996,0.073455639183521,1.2350356578827,2.4640805721283,1.1384074687958,-0.22090902924538,0.35696440935135,-0.95705258846283,0.26615682244301,0.62053513526917,-0.43357801437378,0.24534240365028,0.73965364694595,-1.4256590604782,-0.29838216304779,-1.3516590595245,0.94230842590332,1.4124177694321,0.24733613431454,-1.0972098112106,0.78535580635071
-1.1646465063095,0.15644034743309,-0.71930921077728,-0.10325719416142,0.41778764128685,-0.21032108366489,1.1849120855331,-1.4689319133759,-0.2107407450676,0.41811031103134,0.96727013587952,1.1667917966843,-0.60510259866714,-0.03248555585742,-0.59500086307526,-0.48237642645836,-0.61792325973511,-0.22793316841125,0.018141681328416,-0.31838491559029,0.16823624074459,-1.3391796350479,-0.49434101581573,-0.88760977983475,0.60953480005264,0.87340021133423,0.27820867300034,-1.0914721488953,-0.40283554792404,0.84036684036255,2.6517748832703,0.10565207898617,0.89203941822052,0.29775455594063,-0.15960784256458,0.24365918338299,0.78430688381195,0.076941348612309,0.42931711673737,-0.78838604688644,-0.34369987249374,-0.54687267541885,0.039981190115213,0.11029144376516,0.066030353307724,-0.91753900051117,-0.070045709609985,1.0512773990631,-0.64464426040649,-0.65115314722061,-0.37319794297218,1.0375218391418,1.5784907341003,0.50726979970932,1.7071253061295,0.15644150972366,0.13919630646706,-0.65551513433456,0.61635857820511,0.40972489118576,-1.0928199291229,-0.031965535134077,-0.69668126106262,0.96540009975433,-0.30893325805664
-1.7509548664093,-0.63484716415405,-0.36707606911659,0.0059029688127339,0.15876257419586,0.58136355876923,-0.41760730743408,0.81497699022293,-0.436907351017,-0.24927133321762,-0.06714303791523,-0.59125846624374,-0.65280264616013,0.51558095216751,-0.86899274587631,0.2098478525877,0.1641096919775,0.71017128229141,1.2922888994217,0.31383040547371,0.84530508518219,-1.0531989336014,0.52313613891602,1.0200684070587,1.1470055580139,1.9988218545914,0.5154692530632,0.64482039213181,1.5800793170929,-0.28625988960266,-0.44961658120155,-0.044372152537107,0.017635084688663,0.27317968010902,-0.01833276078105,0.70382457971573,-0.41663387417793,0.23644623160362,0.16480331122875,-0.61731362342834,0.92665994167328,0.56536948680878,0.48350331187248,0.20617917180061,-0.24985864758492,1.4415225982666,0.77171170711517,-0.11687532067299,-0.12864987552166,-0.098034560680389,-0.47539591789246,-0.067427448928356,2.6856350898743,0.31682628393173,0.027930218726397,0.91008466482162,-0.8764254450798,0.099691048264503,0.85503840446472,-0.10682449489832,0.94752675294876,-0.78320628404617,-0.94176411628723,-0.1255588978529,-0.12691685557365
-2.287458896637,-0.52339309453964,-0.56975650787354,0.099944680929184,0.20108897984028,0.31314489245415,1.3659253120422,-1.5206370353699,-0.15997330844402,-0.10048968344927,-0.35290479660034,1.2615832090378,-0.65470218658447,-1.2450861930847,0.51167178153992,-0.90965276956558,-0.17523668706417,-0.40549957752228,1.2499992847443,0.1100984364748,0.89127284288406,-0.2240983247757,-0.40563559532166,-0.081576101481915,-0.0070527419447899,0.31213948130608,-0.25576990842819,-0.38181108236313,-1.3353495597839,-0.62007355690002,-0.70183926820755,0.60920935869217,-1.4169460535049,-0.70005691051483,0.061683811247349,-0.39974081516266,-0.29355344176292,-0.56753426790237,0.13053813576698,1.4536695480347,1.4205976724625,-1.7756018638611,0.15988497436047,-1.4853996038437,1.0350027084351,0.48409307003021,-0.1048322468996,-0.068119257688522,2.9033982753754,0.94505560398102,0.5935640335083,-0.12521921098232,1.9884723424911,-0.37323489785194,1.192821264267,0.90569669008255,1.3448965549469,-0.66213005781174,-0.30325323343277,0.70028376579285,0.46090325713158,2.4322590827942,0.12436468154192,-1.936054110527,1.0693476200104
-0.4869059920311,0.044876184314489,0.088529638946056,-0.21692353487015,0.33669084310532,0.63077169656754,-0.0095908204093575,0.5141087770462,-0.37875151634216,0.49159535765648,0.054382778704166,0.64328724145889,-1.6621162891388,0.36170655488968,-0.019478376954794,-1.0603094100952,0.77814042568207,0.65271198749542,0.7773808836937,0.34832927584648,0.29917284846306,0.61113983392715,0.084854014217854,0.60532879829407,-1.5218331813812,0.2021801918745,-1.0051132440567,0.332668364048,-0.20900705456734,-0.4267395734787,0.41874679923058,-1.7963292598724,-0.03625138476491,0.89679831266403,0.040586709976196,0.0083776796236634,-0.6141055226326,-0.6763750910759,-0.38888740539551,-0.31488788127899,1.3331302404404,0.71015614271164,-0.39890640974045,0.35768941044807,1.5755093097687,-0.55777847766876,0.24436002969742,0.54882735013962,0.52757179737091,1.2217041254044,-0.66759705543518,-0.19347055256367,-0.48402008414268,0.77457743883133,-0.00013295108510647,-0.023753978312016,-0.23223167657852,0.25328955054283,-0.12978753447533,1.4877554178238,-0.16607151925564,0.054579600691795,0.11120296269655,0.39554622769356,-0.25896993279457
-0.44658046960831,-0.41217216849327,-0.226622402668,-0.31033053994179,-0.14230969548225,-0.42451927065849,-0.81922113895416,-0.3839685022831,-0.27856409549713,0.12205421924591,-1.9136576652527,0.0066923187114298,0.63585311174393,-0.5245161652565,-1.011782169342,1.2752766609192,0.8086102604866,-1.5924056768417,0.11920389533043,-1.1939927339554,-0.63139969110489,0.25094857811928,0.32800889015198,-0.44433894753456,-1.1777857542038,0.66976118087769,2.9440145492554,-0.62977695465088,-0.57908910512924,4.2726202082122e-05,-0.092793293297291,0.74844884872437,-0.11102417856455,-0.35542041063309,-0.51064097881317,1.6995825767517,-0.26347386837006,-0.27390366792679,0.3908300101757,-0.5291673541069,-1.1013374328613,-0.95563858747482,-0.38564237952232,-0.15542910993099,-0.89554768800735,3.0514721870422,0.86957007646561,1.4132046699524,-0.44424852728844,0.0060710464604199,0.63739931583405,1.3198546171188,0.030780388042331,-0.21561545133591,0.0093241073191166,-0.7424755692482,0.38524109125137,0.66203910112381,-0.71229565143585,0.22728003561497,-0.19781315326691,0.53293585777283,1.6143977642059,-1.4739133119583,0.47401884198189
-0.60667771100998,-0.56695526838303,-0.7352197766304,-0.073681637644768,-0.019070839509368,0.034632056951523,-0.021138859912753,1.1810762882233,-0.1651046872139,-0.2416628152132,-0.23249542713165,0.30034014582634,-0.066789232194424,1.3485044240952,-0.33891627192497,-0.18465320765972,1.1623973846436,-0.6673144698143,0.41792613267899,-0.1994017213583,-0.73629075288773,0.10694691538811,0.085689641535282,-0.15289060771465,0.36628830432892,-0.42446407675743,-0.52795100212097,-0.36478126049042,0.54253458976746,0.54442024230957,0.24263975024223,1.5414861440659,0.29284301400185,0.71225100755692,-0.072390854358673,1.7238193750381,0.84612792730331,0.64585304260254,0.70799005031586,-0.58676940202713,0.67938250303268,0.35907298326492,1.1855595111847,0.80587118864059,0.8611918091774,-0.32889154553413,-0.42115518450737,-1.2475436925888,1.6512042284012,-0.4105671942234,1.0747789144516,-0.77493685483932,-0.44293549656868,-0.85273468494415,0.66683411598206,1.2790709733963,0.19484381377697,0.20500376820564,0.077404171228409,1.109409570694,-0.57613843679428,0.20134630799294,-0.20461514592171,-1.0775833129883,-0.21433234214783
-0.31903281807899,-1.000902056694,-0.54454922676086,-0.0022104983218014,0.17599871754646,-0.55134493112564,-0.89940822124481,-0.04404241964221,-0.17693386971951,1.186584353447,-0.53453934192657,0.054096560925245,-1.1867711544037,0.53053510189056,0.42926836013794,0.14495697617531,1.3975070714951,1.5738857984543,1.3534858226776,1.1077415943146,-0.059367768466473,-0.68869292736053,0.64558297395706,-0.098632127046585,-0.26102989912033,0.20555150508881,-0.0027933709789068,0.63159042596817,-0.12238731235266,-0.53212863206863,-0.5057378411293,0.37941065430641,-0.2493589669466,0.091463409364223,0.61558479070663,-0.37371784448624,0.261619836092,0.48012456297874,0.40342611074448,0.70388108491898,0.5682675242424,-0.63203287124634,0.70924741029739,-0.0611921697855,2.8880372047424,-0.6005352139473,-0.37407493591309,-0.27740064263344,0.39979985356331,0.10977354645729,1.3693039417267,-1.2390382289886,1.7927550077438,-0.33112242817879,-0.86624419689178,-0.63028568029404,0.16661383211613,0.10067103803158,0.10616698861122,0.44704589247704,-0.27379974722862,-0.90394705533981,-0.38285765051842,0.65390622615814,-0.31394276022911
-0.19608472287655,-0.44014382362366,0.3999302983284,0.0081458762288094,0.16694058477879,0.49333864450455,-0.3348525762558,-0.63146829605103,0.63428205251694,-0.57170033454895,0.35221946239471,1.0842788219452,0.39599648118019,0.62620776891708,0.22441937029362,-0.28865960240364,-1.3704478740692,-0.20483303070068,-0.38962915539742,0.76099336147308,-0.10149872303009,-0.65881556272507,0.33315101265907,-1.134373664856,0.57499444484711,1.6181523799896,0.17725418508053,0.5244048833847,-0.11209915578365,-0.43058794736862,1.0521245002747,-0.66284286975861,0.60803055763245,-0.98356014490128,0.67983120679855,0.04490190371871,1.1807094812393,-0.050339173525572,0.35182467103004,0.017466282472014,0.64325511455536,1.0760763883591,-0.77646440267563,-0.22130440175533,1.3753172159195,2.2087180614471,0.19827447831631,1.2099306583405,2.7123982906342,0.78859829902649,-0.007744571659714,-0.27417439222336,-1.6839339733124,0.015361410565674,0.863077044487,1.4144151210785,1.6729725599289,-0.18245893716812,0.66599822044373,1.8287110328674,0.63246250152588,1.6013361215591,1.8453211784363,0.91811692714691,0.524862408638
-0.0067156874574721,-0.44141131639481,-0.35024708509445,0.15259909629822,-0.057072997093201,-1.3818136453629,-0.67510324716568,0.18704043328762,0.42335820198059,0.5106794834137,0.026233414188027,0.26152184605598,-0.54064148664474,0.25958487391472,1.2562139034271,-0.25253510475159,-1.2111930847168,1.3025242090225,0.59205687046051,0.51525235176086,-0.58562445640564,-0.91658794879913,0.61853384971619,0.72910445928574,0.89108383655548,-0.75714653730392,0.19336320459843,-0.81548398733139,0.84535580873489,-0.048669472336769,1.2029625177383,-2.1418075561523,0.31962531805038,-0.79264765977859,0.71497023105621,0.12637904286385,-0.76563715934753,0.06654068082571,-0.5751376748085,-0.92269665002823,0.49624279141426,-1.0181189775467,0.65132236480713,1.0592528581619,-0.89994132518768,1.1387839317322,0.14612144231796,-0.78325647115707,0.67213821411133,-0.70648109912872,0.71245956420898,2.0336995124817,-0.073217615485191,0.61448121070862,-0.5037442445755,0.036639899015427,0.20295611023903,0.28101366758347,0.15863667428493,1.3227409124374,1.6343684196472,0.049419514834881,0.390854626894,-0.0013748058117926,0.15226893126965
-1.2472689151764,0.19443011283875,0.67370307445526,0.063831754028797,0.040794413536787,-0.71680814027786,1.3902642726898,-2.4402596950531,0.039663653820753,0.39230963587761,0.65347099304199,0.56424850225449,0.81647342443466,-0.052372150123119,-0.45748022198677,0.43355116248131,0.34346866607666,0.63385403156281,0.093475602567196,0.17409592866898,0.88982194662094,-0.7319523692131,-0.49402865767479,-1.2961357831955,1.148671746254,-0.13219958543777,1.2873486280441,0.39797267317772,0.088597200810909,0.32442036271095,0.077534563839436,-0.40939384698868,0.053789183497429,0.034570503979921,0.31837242841721,0.75468474626541,-0.021190298721194,0.012653921730816,0.51989310979843,0.72612714767456,0.50990468263626,0.54000276327133,1.6774168014526,-0.6197322010994,1.2398309707642,-0.26747164130211,-0.60866272449493,-1.2429875135422,-1.1718221902847,-1.531334400177,0.49080470204353,-0.083521477878094,-0.21332950890064,-0.71439802646637,1.8806141614914,0.54550629854202,0.72315311431885,-0.83103376626968,-0.98255443572998,0.58854591846466,1.2999150753021,5.4290699958801,-1.0283443927765,0.15355433523655,-0.56753271818161
0.13264821469784,-0.21588282287121,0.048771124333143,0.070260733366013,0.15295881032944,0.16567945480347,-0.26974192261696,-0.91759341955185,-0.16334921121597,0.21941670775414,-0.15907020866871,0.023088758811355,-0.96513968706131,-0.1762780547142,-0.1017169803381,0.065158165991306,1.3218648433685,0.81511104106903,1.9721760749817,0.56319516897202,-1.2597658634186,-0.28848925232887,0.16592133045197,-0.93608212471008,0.64462906122208,-0.47701835632324,0.54375243186951,-1.1985815763474,1.3142422437668,0.24203185737133,-0.12190939486027,0.089455097913742,-0.74769240617752,-0.2531770169735,2.1336288452148,0.4522063434124,0.070255927741528,1.126161813736,0.34730818867683,0.73898887634277,-0.25590711832047,0.98107653856277,0.25692662596703,1.2459534406662,1.289528131485,0.045261703431606,-0.55099284648895,0.29962909221649,-0.075003795325756,0.55169260501862,-0.024597628042102,1.4346868991852,-1.2791268825531,-1.0048254728317,-0.6173180937767,1.6033076047897,-0.8136038184166,0.307487398386,-0.40329185128212,0.58143448829651,0.22570548951626,-0.24929022789001,1.3798891305923,0.54541105031967,1.1036651134491
1.0770879983902,-0.51578158140182,0.48822566866875,-0.081893466413021,0.15314343571663,-1.5384684801102,0.075234688818455,0.87396645545959,0.068603903055191,0.062646806240082,0.76545697450638,0.32471561431885,0.54371470212936,0.6025527715683,2.5310454368591,-1.2548770904541,0.52622783184052,-0.69617784023285,0.34790903329849,-0.23982837796211,-0.061395689845085,-0.59835124015808,-0.10393562167883,1.0917544364929,1.0013962984085,0.60189265012741,0.34247216582298,-0.03978518396616,0.80401092767715,0.44569733738899,0.504174888134,-0.98097443580627,-0.54447531700134,1.6002531051636,0.19893603026867,0.4255838394165,-0.40806326270103,-0.54142683744431,-0.28077083826065,-0.43194577097893,0.42174991965294,3.0897147655487,0.80963337421417,1.2966463565826,0.88100564479828,0.064858734607697,-0.13133871555328,2.6682193279266,1.223937869072,0.16570807993412,-0.85301518440247,2.2845771312714,0.62928742170334,-1.2174487113953,3.0743687152863,0.31799584627151,-0.2259024232626,-0.56510746479034,-1.250500202179,-0.29854860901833,1.837569475174,-0.27762717008591,-0.41246402263641,-0.80945867300034,0.42501586675644
0.68958449363708,-0.69045847654343,0.30547985434532,-0.070827998220921,-0.09856404364109,0.0018352151382715,-0.71053141355515,-0.12692612409592,0.99965918064117,-0.25091224908829,-0.5449395775795,-0.38732770085335,-0.26161709427834,0.42888510227203,0.7047603726387,-0.60906094312668,0.41118797659874,-0.85485529899597,-0.91085022687912,0.23369807004929,0.91872328519821,0.7598904967308,0.067677021026611,0.24855709075928,-0.3325974047184,0.24260595440865,0.69485849142075,0.58854842185974,0.010691951029003,0.046120941638947,1.0793945789337,0.62409347295761,0.44642007350922,2.2746992111206,0.25913527607918,-0.23946598172188,0.66450315713882,-1.4340834617615,0.7909038066864,0.49676150083542,-0.9847663640976,0.35633283853531,-0.67972987890244,0.98264509439468,0.67788773775101,-0.95864421129227,-0.40701535344124,0.82763141393661,-0.75802993774414,1.0664436817169,-2.0219881534576,-0.35586243867874,-0.86640775203705,2.1243381500244,-0.74991965293884,-0.29733747243881,0.59883505105972,-0.53623509407043,1.3430035114288,0.25852203369141,0.75248289108276,0.11259984225035,0.24022732675076,-1.016793012619,0.18298523128033
-0.30322340130806,0.85910952091217,-0.56561326980591,0.011049919761717,0.04134551808238,-0.01539150159806,-0.59522807598114,-0.66388827562332,0.57046657800674,0.12845458090305,-0.34126836061478,0.34391245245934,0.5746738910675,-0.25878670811653,0.22857648134232,-0.26343274116516,-0.2403527200222,-0.069159880280495,-1.8193911314011,-0.19972483813763,0.30146318674088,0.27722650766373,-0.42372900247574,-0.030238050967455,1.311356306076,0.6166627407074,0.48985439538956,0.057632062584162,0.090165264904499,1.1116951704025,-0.6140193939209,1.3533732891083,0.25750690698624,-0.18426282703876,0.19497710466385,0.67407876253128,-0.41838166117668,1.0420054197311,0.14406028389931,2.0576591491699,1.149845957756,2.4177567958832,1.4033637046814,-0.64167070388794,-1.8754727840424,0.3411525785923,-0.30811297893524,1.2028447389603,0.84534710645676,-1.3955625295639,0.55572772026062,-0.48250964283943,-0.1419200450182,-0.42857664823532,0.23187401890755,0.648058116436,-0.59773302078247,-0.12961176037788,-0.99327439069748,-0.17922709882259,0.0024294371251017,-1.3229699134827,1.8841429948807,0.86693102121353,-0.23347289860249
-1.0250788927078,-0.48559510707855,-0.26141127943993,0.15558843314648,-0.053152017295361,1.9548914432526,-0.76449549198151,0.42444643378258,-0.72338861227036,0.28837344050407,-0.21149757504463,-0.27979186177254,-0.55556529760361,0.50829619169235,1.864682674408,-0.64054524898529,0.36209923028946,-0.21938028931618,-0.73105025291443,0.41555801033974,0.45084771513939,0.3730491399765,-0.74960660934448,-0.51118415594101,0.74017399549484,0.41670435667038,-0.76639556884766,0.76375705003738,0.71881014108658,0.23934027552605,0.17752408981323,0.10762336105108,-0.019357645884156,-0.42961049079895,-1.1934418678284,1.5194110870361,0.12286046892405,0.28972029685974,0.64805430173874,1.4267892837524,0.28515711426735,-0.30050259828568,1.3437824249268,-0.35415202379227,-0.85335421562195,0.41219562292099,0.7457686662674,-0.63661789894104,-0.3603168129921,0.16834178566933,-0.22797709703445,-0.26931992173195,0.89087903499603,-0.15810552239418,-0.12102421373129,-0.55388349294662,-1.1542302370071,-0.14865274727345,-0.079722061753273,-1.8968269824982,0.54092943668365,1.8276458978653,0.44784727692604,1.1130120754242,-0.10425159335136
0.089516401290894,0.29371389746666,-0.92918115854263,0.10662846267223,0.031613916158676,-0.89939254522324,-0.20937432348728,-0.14458540081978,-0.77985256910324,0.0025172920431942,0.4906177520752,0.50160413980484,-0.2624274790287,-0.18715496361256,0.53266125917435,0.20572131872177,0.64715331792831,0.52396607398987,-0.51913940906525,-0.15265387296677,0.067738100886345,0.37961745262146,1.1963007450104,0.012153523974121,0.021197453141212,0.43664640188217,0.27288961410522,-2.0832214355469,-0.60062766075134,0.42659771442413,-0.57722270488739,-0.46634429693222,-0.001457987818867,0.39646527171135,0.25816884636879,0.75381684303284,0.15452964603901,1.1912916898727,0.097463205456734,0.5657804608345,1.2038172483444,0.65186429023743,-0.34342724084854,-0.073192201554775,-0.84546053409576,-0.72315245866776,-1.3929264545441,1.0113836526871,-0.28631171584129,2.3690755367279,-0.5842182636261,1.1360077857971,1.0394294261932,-0.078036829829216,-0.1338319927454,1.0551191568375,-0.22171249985695,1.6588090658188,0.32988777756691,-1.7869973182678,-1.0019038915634,-0.069823376834393,1.542532324791,0.17624473571777,0.28695625066757
-0.71954262256622,0.13680510222912,-0.54962408542633,-0.051900949329138,0.11314929276705,-1.2126966714859,-0.9645619392395,-1.8007651567459,-0.31350389122963,0.65783214569092,-0.059293676167727,-0.24628521502018,-0.99969166517258,1.1448945999146,1.6167975664139,1.994877576828,-1.4215468168259,1.0510669946671,-0.5899361371994,-0.40722876787186,0.1931619644165,-0.29393488168716,-1.1627963781357,-0.3481360077858,0.0037608952261508,-0.013937656767666,1.2031003236771,-0.76298892498016,-0.52377265691757,-0.24310527741909,-0.95821070671082,-0.38180741667747,1.2304525375366,0.34856444597244,0.33289578557014,0.72016400098801,-0.96444708108902,0.85864597558975,0.58361172676086,-1.9290820360184,1.6679885387421,1.2518848180771,-0.67000246047974,0.38566094636917,0.49503204226494,-0.91848802566528,0.45442804694176,0.16385114192963,-1.1565124988556,0.86679005622864,-0.57651650905609,-0.85553181171417,-0.45569539070129,0.22526144981384,-1.4358472824097,-2.0389981269836,-0.16330002248287,-0.11021957546473,0.37723296880722,-1.1391574144363,0.54800111055374,-1.1746962070465,-0.70384168624878,0.062859438359737,0.046812258660793
-0.37089627981186,-0.62639600038528,0.278180539608,-0.091548480093479,-0.19198127090931,-1.1075131893158,-1.3108043670654,1.3268671035767,-0.30287164449692,0.42590191960335,0.83729863166809,-1.0427021980286,0.24002522230148,1.554322719574,-0.38889247179031,0.033018708229065,0.46632617712021,-0.60331076383591,-0.08037044107914,1.4845719337463,0.18134185671806,0.22031563520432,-0.9907653927803,2.1949472427368,-0.38836005330086,0.57857942581177,-0.74570161104202,1.6253408193588,-0.35439178347588,0.36991903185844,-0.18830968439579,0.91001349687576,0.028426008298993,1.0207313299179,0.45792099833488,0.51034891605377,1.3008325099945,-0.095222502946854,-0.037462491542101,0.19146907329559,-0.24098297953606,0.88635396957397,0.1578154116869,0.054772548377514,-0.87627822160721,-1.4471065998077,-0.30966094136238,0.53925079107285,-0.66761654615402,0.74112093448639,-1.3605604171753,1.9198943376541,0.24358852207661,-0.26458391547203,-0.0085878251120448,-0.93538671731949,1.1200037002563,0.73874408006668,-0.76534593105316,-0.041675325483084,-0.17933429777622,0.80362099409103,-1.4645916223526,0.60561794042587,0.28282561898232
1.9882464408875,0.073044784367085,1.3160512447357,-0.086887195706367,0.17849381268024,0.027104999870062,-0.20090621709824,0.20528464019299,1.3510813713074,0.064546711742878,1.1387952566147,-0.099716037511826,0.65626549720764,1.5096772909164,0.68686771392822,-0.70223933458328,-0.058128420263529,-0.89477670192719,0.23671686649323,-0.95986866950989,0.36362239718437,1.0514168739319,0.21871136128902,1.11119556427,0.48056438565254,1.276086807251,-0.36739408969879,1.4915969371796,-0.96797674894333,0.97016096115112,0.36199498176575,1.1476345062256,-0.85988765954971,-0.01503471378237,-0.92693895101547,-0.059554804116488,-0.68283832073212,-0.064951121807098,0.9026682972908,-0.67193591594696,-0.55280208587646,-0.21227344870567,-0.0697281062603,-0.50759667158127,-1.820099234581,0.058824270963669,-0.87631797790527,-0.16548117995262,0.32641327381134,-0.7097110748291,1.7971765995026,1.5967342853546,-1.1985597610474,2.6134810447693,-0.36523768305779,0.70669537782669,0.2194547355175,1.452835559845,-1.0878711938858,0.96142709255219,-0.47245013713837,3.3887169361115,0.027691278606653,0.17008286714554,-0.33982330560684
1.5516386032104,-0.69354981184006,0.60998725891113,0.068331435322762,0.41917416453362,-0.19520443677902,0.048186264932156,-0.58900409936905,1.8458257913589,-0.13963896036148,0.84300202131271,0.035236097872257,0.8826190829277,-0.09121785312891,0.61337321996689,-0.66362625360489,0.79595959186554,0.29474911093712,-0.082193031907082,0.36956337094307,0.43953415751457,-0.53159791231155,-0.24644570052624,2.3145065307617,0.31105288863182,0.61484456062317,-0.063470311462879,1.0717327594757,-0.24641647934914,-0.25760674476624,2.1160616874695,-0.26277023553848,0.58173507452011,1.0976017713547,1.0993854999542,-1.2792205810547,-0.40677136182785,-0.36811146140099,0.55599105358124,1.8315589427948,0.017269698902965,1.5532058477402,-1.5468143224716,-0.3267956674099,-0.71951049566269,0.74631828069687,-0.38423281908035,-2.4477415084839,-0.15963615477085,-0.25242230296135,-1.0500922203064,0.59172695875168,1.2968235015869,-0.27405896782875,1.2310965061188,-1.0733637809753,-0.39316311478615,2.8883852958679,-3.1699392795563,0.42777618765831,2.3901724815369,-0.7172184586525,0.14001305401325,0.28827801346779,-0.50606393814087
0.76437342166901,-0.27062946557999,-0.23839910328388,0.037302047014236,-0.019307609647512,1.5923017263412,-0.2877259850502,0.26973906159401,0.40804424881935,-0.30806377530098,-0.63879698514938,-0.83990901708603,0.030941054224968,0.42200672626495,0.39287033677101,0.02870025113225,0.076075457036495,0.70995616912842,-1.0055284500122,-0.37013313174248,-0.18565665185452,-0.45019182562828,0.17686367034912,1.0757594108582,0.17724202573299,-0.40898132324219,1.464512348175,0.20352520048618,0.78583192825317,0.46461093425751,0.82564771175385,-0.090250290930271,0.60272306203842,1.1211097240448,0.164844840765,0.56665259599686,-1.0561805963516,0.25052034854889,-0.80617415904999,0.50434654951096,-0.42992731928825,-0.55749583244324,-0.47745108604431,-1.3855996131897,-1.1761908531189,3.0044779777527,-0.86272442340851,-0.34309580922127,1.6882858276367,-0.40584343671799,-0.61868631839752,1.3625640869141,-0.2188313305378,0.40141108632088,1.4113208055496,0.87479043006897,-0.84849363565445,1.9546573162079,-2.0906758308411,1.9362185001373,2.0754072666168,-0.49083766341209,0.37062180042267,0.30687448382378,2.0134909152985
0.21197657287121,0.23387497663498,-0.2567250430584,0.29483208060265,-0.21348014473915,-1.8891727924347,0.06832342594862,0.3775931596756,0.43618646264076,-0.30239522457123,1.6801205873489,0.33810290694237,0.7440881729126,-0.63505411148071,1.1387485265732,0.36222702264786,1.2831555604935,-0.11617982387543,0.45350128412247,0.43315437436104,0.84951227903366,0.13612277805805,0.23405338823795,-0.12230175733566,0.23269400000572,0.41471391916275,1.7930495738983,-0.21038961410522,0.11879859119654,-0.15596576035023,-0.15147066116333,-0.35794851183891,0.9293577671051,-0.15397052466869,-0.7520415186882,0.2179651260376,0.11021936684847,1.045507311821,0.84874075651169,1.2557417154312,1.2666263580322,0.5381338596344,0.80920714139938,-0.60028868913651,0.84502732753754,0.84369677305222,0.0015685397665948,0.24191157519817,0.66243022680283,-1.7454522848129,-0.78958940505981,0.88044500350952,0.80346620082855,-0.069952204823494,0.11191837489605,0.89018607139587,-2.3926906585693,-1.2517555952072,1.3256657123566,-1.5418425798416,-0.79145264625549,0.39722099900246,0.24923615157604,1.7473148107529,0.59001314640045
-0.89954966306686,1.57874751091,0.92471319437027,0.10544269531965,0.3921631872654,-0.38585788011551,0.77225208282471,0.71635770797729,1.5682417154312,1.914595246315,0.50495773553848,1.0800248384476,0.83340036869049,-0.70504975318909,-2.0466275215149,-1.2576644420624,0.49997368454933,0.32521256804466,-0.11138527095318,0.29063010215759,-0.98386478424072,0.94166308641434,-0.29359614849091,0.97917115688324,-0.95439386367798,-0.093910276889801,-1.0816820859909,-0.38622564077377,-0.086098417639732,0.12596198916435,0.32710587978363,0.36428725719452,-1.3138747215271,0.64991676807404,0.39452019333839,-0.73641008138657,0.96086794137955,0.5670810341835,0.63867217302322,0.084444738924503,-0.35629814863205,-1.2347786426544,-2.042117357254,-0.67097324132919,1.2675729990005,-0.27554309368134,-0.071747750043869,1.5235993862152,1.0241416692734,0.54523974657059,-1.0891981124878,-0.56057971715927,0.26357623934746,0.10796567797661,0.21589851379395,0.71660286188126,-0.56977462768555,-1.5049463510513,-0.066499620676041,0.24068073928356,0.65204781293869,0.40202045440674,1.2945564985275,1.6346862316132,0.093070335686207
-0.51737678050995,-1.5596026182175,-0.67789644002914,-0.024404322728515,0.17961364984512,0.49645632505417,-0.25467017292976,1.0653364658356,-0.99330455064774,-0.93829655647278,0.28530991077423,0.29827806353569,-0.32805919647217,0.4357448220253,1.0504914522171,-0.6759427189827,-1.4626871347427,-1.4665760993958,-0.86141431331635,0.36908310651779,-0.74501764774323,0.03039988130331,-0.096221297979355,0.87757736444473,-1.117645740509,-0.5281338095665,1.0855666399002,-0.73969352245331,0.65166467428207,0.23167598247528,0.44504424929619,-0.47136595845222,0.58739292621613,0.46891209483147,0.14002929627895,-0.97804647684097,-0.18810339272022,0.8186177611351,0.72412592172623,0.69302648305893,0.76808512210846,0.68495315313339,0.16363885998726,-0.18923485279083,-0.80797410011292,1.325675368309,0.34830975532532,1.3893288373947,-0.83905827999115,-0.078385889530182,-0.1336654573679,-1.1595416069031,-0.13135665655136,0.83483588695526,-0.061488591134548,1.8135221004486,-0.19969795644283,-0.10626422613859,0.74452978372574,-1.3395367860794,1.0949922800064,-0.48146814107895,0.55369812250137,-0.51379859447479,0.30051809549332
0.26183959841728,0.81779897212982,-0.80578517913818,0.20107950270176,-0.14651265740395,1.5437335968018,-0.98527932167053,2.3218555450439,0.24457995593548,-0.26697653532028,-1.4094537496567,0.38207966089249,-0.087927684187889,1.2129499912262,-0.91651147603989,0.29605874419212,1.1897759437561,-0.3048642873764,0.51261359453201,0.50012004375458,0.80731105804443,0.79573220014572,-0.39894074201584,-0.18017399311066,-0.26301604509354,0.27128705382347,0.1731199324131,-0.060263603925705,-0.44049978256226,0.46488311886787,0.78449577093124,1.6223236322403,-0.85911947488785,-0.24601019918919,-1.1280279159546,0.7448502779007,-0.42934104800224,0.29073801636696,0.76236039400101,-0.43576920032501,0.56611317396164,0.12417218089104,-1.4294135570526,0.34313681721687,0.25639864802361,-0.97310012578964,0.14367744326591,-0.3362722992897,1.0037621259689,-1.8680820465088,-0.64720147848129,2.3554656505585,-1.248990893364,1.6932983398438,-0.68758082389832,0.60775637626648,-1.3991436958313,-0.57239490747452,0.49155816435814,0.28492820262909,0.011900814250112,0.10051771998405,-0.17559459805489,-2.7724807262421,0.92249059677124
-0.28084063529968,-0.67195129394531,0.67474442720413,0.047130919992924,0.068304516375065,-0.81053984165192,-1.4592438936234,-0.23141945898533,1.3348423242569,0.77431339025497,0.38754740357399,-0.66895866394043,1.185987830162,0.26269608736038,0.35000836849213,1.1022762060165,-1.0319947004318,-0.94935029745102,-1.0659422874451,0.14553146064281,0.008483269251883,-1.118678689003,0.85490167140961,-0.42341250181198,1.4221239089966,0.96144640445709,0.63600444793701,1.2524394989014,0.27200877666473,0.018355824053288,-0.22094911336899,-0.58931314945221,-0.89323043823242,0.30593758821487,0.077202662825584,0.42297235131264,-0.38768568634987,1.2866533994675,0.69924372434616,-1.1732485294342,-0.41391143202782,0.49155506491661,-0.46562364697456,0.033462565392256,0.14406904578209,-0.68770062923431,0.61389636993408,2.6030449867249,0.94231933355331,-1.1979150772095,-0.13214665651321,0.97886371612549,0.27338492870331,1.5488798618317,-0.53381007909775,0.56044679880142,-0.23273387551308,0.41238969564438,-0.37652984261513,-0.38455954194069,0.66685670614243,-1.6974301338196,-1.1043945550919,-0.12768271565437,0.30692794919014
-0.55026811361313,-0.89490723609924,-0.58050590753555,0.053160540759563,0.23140148818493,-0.0098092872649431,-1.4324511289597,1.8397806882858,0.34196391701698,1.0363560914993,-0.35597115755081,-0.48621505498886,-0.10117588937283,-0.019820809364319,-0.49072942137718,-0.053168833255768,0.011604104191065,-1.0027083158493,-0.47942754626274,-0.0048612919636071,1.2255480289459,0.57184821367264,-0.38786232471466,-0.65099561214447,0.65826559066772,0.54074192047119,0.26510220766068,-0.96523624658585,-0.51927304267883,0.95469051599503,0.92964208126068,0.3449549973011,-0.05000377073884,0.52472913265228,1.5777405500412,-0.40368083119392,1.4849060773849,-0.047339323908091,0.042981933802366,0.51494109630585,0.3769111931324,-1.6405081748962,0.57613867521286,-1.0732799768448,0.26215106248856,0.18023066222668,-0.024415845051408,0.66242814064026,1.2130575180054,0.9779297709465,1.4343975782394,0.13548688590527,1.3685865402222,-1.5765519142151,-0.24238066375256,1.5302156209946,2.8982584476471,-0.10687024146318,0.70205169916153,-0.035493019968271,-0.72921693325043,-0.55905419588089,1.1778843402863,-0.909692466259,-0.10269468277693
0.38838773965836,-0.84725171327591,-0.10962419956923,0.11017704755068,0.26362451910973,0.50685197114944,-1.0652070045471,-0.0338812507689,0.44909974932671,-0.23884120583534,-0.54560381174088,-1.8403826951981,0.59150272607803,2.2480013370514,-0.0072074602358043,-0.40514242649078,0.11906266957521,-0.21808955073357,0.047649126499891,-0.05750335007906,-0.44651240110397,0.10555351525545,-0.28914725780487,-0.67265486717224,0.34956255555153,-0.3193946480751,-0.85422915220261,1.1876660585403,0.99403291940689,0.3786227107048,1.0073246955872,1.5239726305008,-0.29946118593216,1.0063270330429,-0.18275329470634,-0.19210515916348,0.86194562911987,0.17181730270386,-0.64831042289734,2.108588218689,0.31086832284927,0.95784175395966,0.50853431224823,-0.77361679077148,0.19420056045055,-1.8513686656952,0.19145242869854,0.65992343425751,1.48874604702,0.88633632659912,1.6295938491821,1.1582937240601,1.101865530014,0.50924557447433,0.033696498721838,-1.6093094348907,-1.7834156751633,-0.024415329098701,1.8517010211945,0.94173806905746,0.95183825492859,-0.91409969329834,-0.066230714321136,1.0166440010071,0.31682088971138
-0.090418934822083,0.20942182838917,0.26114389300346,-0.086269594728947,0.042068652808666,3.106498003006,-0.37862065434456,0.49922755360603,0.25850075483322,0.19703635573387,-0.064826607704163,-0.53139662742615,0.33722579479218,0.06502128392458,-0.89892768859863,-0.080211736261845,1.0595828294754,0.15009096264839,0.10295557975769,0.96247482299805,-0.968958735466,0.6468910574913,-0.76397329568863,0.37272077798843,0.29229149222374,0.42314213514328,-0.31388625502586,0.16271474957466,-0.14328679442406,0.079870358109474,-0.15881752967834,-0.78911232948303,0.45267644524574,0.69754147529602,1.0871275663376,-0.22667813301086,0.41329863667488,0.11552203446627,0.30268311500549,0.38506069779396,0.22405768930912,-2.0411524772644,-0.89611047506332,-0.8945295214653,0.27463802695274,1.5565936565399,-1.7133332490921,1.4453754425049,-0.45057132840157,0.18406111001968,-0.63675153255463,0.18960581719875,-0.0040183928795159,0.46761208772659,0.25965821743011,0.77230131626129,-1.4328992366791,-0.13663858175278,1.1877835988998,1.606656908989,-0.65013146400452,-1.7150832414627,0.54480683803558,1.4190706014633,-0.62580132484436
-0.10162633657455,0.90166574716568,0.24319440126419,-0.0024230447597802,0.14717236161232,-0.96176493167877,-1.0145326852798,-0.20062068104744,1.8752921819687,-0.23492906987667,-0.087227500975132,0.17730401456356,1.2247296571732,-1.1446033716202,-1.2471112012863,-0.013643244281411,-0.24675336480141,1.1169583797455,-0.035348813980818,0.4513378739357,1.0795818567276,-0.21744814515114,-0.56070023775101,-1.5616494417191,1.1112908124924,0.73240220546722,1.360023856163,-0.09900139272213,-0.60117143392563,-0.11723382771015,0.95142894983292,-0.68962174654007,-1.9966062307358,-0.50825238227844,0.97390860319138,-0.46731486916542,-0.51740962266922,1.6183972358704,0.38932666182518,0.42337051033974,0.23339433968067,-1.3543208837509,0.30086949467659,0.29378151893616,-0.12990498542786,0.35178363323212,0.55758601427078,-0.32832470536232,0.38876366615295,-1.8222191333771,0.60599982738495,-0.022127887234092,1.633531332016,1.3611406087875,-0.85436713695526,0.41394275426865,0.68576449155807,-1.2350989580154,-0.36696311831474,0.89392453432083,0.99870073795319,-0.16602069139481,-1.1211253404617,2.174530506134,0.55970907211304
1.4721777439117,0.55961668491364,0.74885380268097,-0.17695805430412,0.39896255731583,0.070928350090981,0.88181746006012,0.95412510633469,1.2126669883728,0.48374474048615,1.3003242015839,0.85579985380173,1.3334830999374,1.0811078548431,-1.5245152711868,-1.1619745492935,0.14169192314148,0.51570510864258,-0.94576495885849,-0.893659055233,0.28656080365181,1.2117809057236,-0.26757788658142,-0.43124291300774,0.58606177568436,-1.0442097187042,-0.14635971188545,0.090614959597588,-1.2245841026306,0.060721565037966,-1.1714347600937,0.59917163848877,1.3529312610626,-0.19957022368908,-1.6026949882507,0.20868353545666,0.17135173082352,0.8333848118782,0.24669541418552,-0.47550839185715,-1.1022173166275,-1.3991285562515,-1.3710641860962,-0.19265553355217,0.11583613604307,0.086208179593086,1.4853806495667,0.60376697778702,-0.56071907281876,-0.43992650508881,0.21419164538383,-1.5517952442169,0.4309456050396,0.1914065182209,-0.94819903373718,-0.077806115150452,-1.4773392677307,-0.652492582798,0.87005949020386,0.29128047823906,-0.33238261938095,-0.60076498985291,-0.65509259700775,0.57014435529709,-0.24671360850334
-0.38915047049522,-0.66604334115982,-0.32641845941544,0.0029651399236172,0.23712666332722,-0.30992078781128,-1.6394186019897,-0.1949138790369,-0.50789880752563,0.58235949277878,-0.67614877223969,-0.71966993808746,0.2563296854496,0.24176587164402,-0.1839873790741,-0.33466076850891,-0.31878259778023,-0.76914942264557,-0.88750672340393,-2.2562375068665,-0.34666693210602,0.47185903787613,-1.3403698205948,-0.27789729833603,-1.1413102149963,-0.1405107229948,-0.35942143201828,-0.24258998036385,0.66320079565048,0.10001779347658,0.44615077972412,1.9747730493546,0.77394586801529,1.4568172693253,1.2398419380188,-1.0331509113312,-0.74500501155853,0.69924223423004,0.42731356620789,-0.53869587182999,0.99238836765289,-1.6061794757843,1.8324218988419,-3.0826463699341,-0.02473053894937,-0.7492161989212,-0.092064395546913,0.21308225393295,-1.0228787660599,0.21181559562683,1.7836420536041,0.53658223152161,-1.0447088479996,0.42829316854477,2.0630145072937,0.46995583176613,-0.4839908182621,1.1601984500885,2.2784461975098,1.6552053689957,1.2781199216843,0.10591153800488,0.70845258235931,-1.2032401561737,1.3390867710114
-1.3193072080612,1.5056085586548,-0.47065827250481,0.11251723766327,-0.345343708992,2.1679074764252,1.431315779686,-1.8713293075562,0.4639952480793,0.035079024732113,-0.95553922653198,0.094144381582737,-0.28951501846313,0.60023403167725,-0.34852215647697,0.2412987947464,0.82939857244492,-0.29805144667625,1.5576285123825,0.76828157901764,-0.030377250164747,0.17441920936108,0.8864551782608,-1.0082457065582,0.54636031389236,0.82550638914108,0.9593557715416,-2.6155819892883,-0.79524606466293,1.1340153217316,-1.0924978256226,1.0088920593262,0.21790677309036,1.7469631433487,-1.8518068790436,-0.69664812088013,-0.62868094444275,0.32231339812279,-0.36902496218681,2.7650685310364,-1.3747619390488,-0.68112349510193,-2.0275382995605,0.08034685254097,-0.73989027738571,-1.3186538219452,0.64267402887344,-0.75228971242905,0.34342956542969,-0.48267358541489,-0.46846097707748,-0.27904304862022,-1.8727256059647,-0.065985046327114,-0.65991687774658,-0.15998388826847,-0.29262599349022,0.95774620771408,0.69621139764786,1.3004869222641,1.1229848861694,0.51905310153961,0.82246148586273,0.72422182559967,-0.22741514444351
-1.8403046131134,-0.8091756105423,-0.069092363119125,0.12244177609682,0.089638538658619,-1.3680529594421,-0.15337860584259,-0.37612473964691,1.1686813831329,-0.43893867731094,-0.10808044672012,-0.63517224788666,0.10430201143026,-0.91323608160019,0.1571799069643,0.98696768283844,1.3532780408859,0.30486696958542,1.2473748922348,-0.37276643514633,-0.38895517587662,0.16340047121048,-0.27840048074722,-0.1553718149662,1.0462762117386,-0.096158750355244,0.03377278894186,0.20376792550087,-1.0210046768188,-0.27099502086639,-0.42636653780937,0.97210252285004,0.23843877017498,-0.13227328658104,-1.3770014047623,0.042417205870152,0.48483771085739,0.69867300987244,1.2765264511108,-0.12059949338436,-0.64924973249435,2.2819886207581,-0.96159321069717,0.780726313591,-0.25939771533012,4.068835735321,1.91965508461,-1.2110600471497,1.7991129159927,1.477486371994,-3.0593862533569,1.2098084688187,-0.64304739236832,0.31748557090759,-0.33289244771004,0.7904212474823,-0.22431328892708,2.8365256786346,-0.71285939216614,-0.32679882645607,0.89162337779999,-0.93625390529633,-0.12843480706215,1.5118823051453,0.48724439740181
-1.0024557113647,-0.66299158334732,-0.93624013662338,-0.12445069849491,0.34389910101891,1.1092224121094,0.79114907979965,-2.2503733634949,-0.42715612053871,0.54313534498215,-0.019718075171113,0.2678650021553,-0.18944817781448,-0.14675223827362,0.045017920434475,0.86584383249283,0.71647214889526,0.47609376907349,0.3088476061821,-1.0111291408539,-0.14371481537819,-1.7010313272476,0.24058154225349,-0.2486158311367,-0.48648300766945,0.56456500291824,0.33233913779259,-0.81304734945297,-0.77075684070587,0.81480276584625,0.58545798063278,-0.51285296678543,1.6758955717087,1.22876060009,0.62779688835144,0.4391782283783,0.20822502672672,-0.84537369012833,-0.29579734802246,0.17938043177128,1.2052302360535,-1.0018110275269,1.5118399858475,-0.56593596935272,-0.94256216287613,1.4497977495193,1.3239814043045,1.1333256959915,0.92014545202255,0.028314474970102,-3.7969205379486,1.168949842453,-1.6505408287048,-0.94119882583618,0.98271477222443,2.3427810668945,1.3285917043686,0.3221991956234,0.73530852794647,1.8914355039597,0.0060029062442482,-0.37504824995995,-0.25488892197609,-1.1891295909882,0.040554311126471
-0.83284193277359,0.98084086179733,1.5276409387589,0.043924286961555,0.47860535979271,-1.9553232192993,2.0130562782288,-1.2255109548569,2.9455666542053,1.5075376033783,1.7734518051147,1.3672590255737,1.5714739561081,0.13098546862602,-0.17125314474106,-1.3313524723053,-0.22462567687035,0.13225758075714,-1.6664177179337,-0.71690064668655,-1.8645566701889,0.83069032430649,-0.12125942856073,-0.0049017518758774,-1.3330509662628,0.52200013399124,-1.4126425981522,0.7225604057312,0.23866724967957,-0.23843306303024,2.1723651885986,-1.5516216754913,-1.8156743049622,1.4328148365021,-0.27190861105919,-1.5716902017593,0.75913310050964,0.32510700821877,0.41474375128746,0.66770899295807,1.3950375318527,0.28763365745544,-1.2947645187378,-0.48871853947639,-0.83901435136795,0.73109877109528,-1.8355128765106,-1.3662388324738,0.34434562921524,-0.20816512405872,2.0158660411835,0.25072717666626,0.28217294812202,-1.0868189334869,0.7827200293541,1.1759656667709,-0.50944393873215,-1.5632442235947,0.012186623178422,-0.34753212332726,0.27981695532799,-1.967148065567,1.4302105903625,2.0281066894531,1.1357309818268
-0.74375039339066,0.75873792171478,0.99297386407852,0.15861636400223,0.35610917210579,0.67042708396912,2.0292761325836,-0.82757049798965,1.4812626838684,-0.68014299869537,2.0357899665833,2.065395116806,1.1317934989929,-0.053136821836233,-0.49354913830757,-0.42575258016586,-0.35907939076424,0.98164582252502,1.321685552597,-0.13887006044388,-0.71469533443451,1.7139195203781,-0.24306945502758,-0.20679280161858,0.19046646356583,-0.39045742154121,1.0477426052094,1.6026928424835,-1.2185467481613,-1.0756193399429,0.09516167640686,0.24046209454536,-0.74355834722519,1.024950504303,1.2124952077866,-0.0056342142634094,1.267804145813,-0.086267724633217,0.65242290496826,2.2614786624908,-0.938531935215,-0.051465108990669,0.4381183385849,0.25598281621933,0.77744090557098,0.071683935821056,0.09056543558836,-1.5582375526428,-0.98688799142838,-0.55055689811707,-1.1322622299194,0.12605278193951,-0.67044097185135,-1.1367317438126,-0.13875982165337,1.5130968093872,0.62884849309921,-1.9387518167496,0.14215481281281,3.2252614498138,0.81644719839096,1.0696848630905,0.19445218145847,-0.76202672719955,0.2762157022953
0.62721651792526,0.072305299341679,0.28408244252205,0.043951597064734,0.1090240702033,0.67216169834137,-1.0838642120361,1.3744889497757,-0.20122076570988,0.14457437396049,-1.0613316297531,-1.2289489507675,0.28804874420166,1.4807378053665,-0.093873240053654,-0.4173436164856,-0.70477390289307,-0.18894456326962,-1.7568076848984,-0.20774367451668,0.10392381250858,-0.36305338144302,0.75832903385162,0.59710675477982,0.92990452051163,-0.30627992749214,-0.6066085100174,2.024510383606,-0.52111798524857,0.5002024769783,-0.034428238868713,1.5975649356842,0.64566665887833,-1.1069927215576,0.97026127576828,1.2470293045044,-0.015117606148124,0.34660416841507,-0.52365750074387,-0.42759534716606,-0.31077498197556,1.2422397136688,1.255558848381,-0.44982361793518,-0.61533212661743,1.5906480550766,-0.27572378516197,-0.18983972072601,1.4235965013504,-0.46284142136574,-0.11314962804317,-0.76734274625778,-0.61933773756027,2.2012650966644,1.2864028215408,1.3552657365799,-0.022803537547588,0.0071794707328081,-1.7597385644913,-0.42983895540237,1.6412229537964,1.6091616153717,-2.0143747329712,0.57131052017212,0.87622576951981
0.32009324431419,0.50290620326996,1.1394761800766,-0.066421642899513,-0.23042476177216,-1.3899627923965,1.2161468267441,-0.27104067802429,2.2392168045044,0.61821174621582,1.8187485933304,1.5041726827621,1.3796706199646,-0.5722764134407,0.8634352684021,0.14303094148636,1.5905168056488,-0.4055073261261,0.20572397112846,-0.17221327126026,0.86560553312302,-0.52976107597351,0.6880322098732,0.73146104812622,0.99886202812195,-0.37883457541466,-0.31207403540611,-0.1525871604681,0.35998979210854,0.22473825514317,1.5677871704102,0.41298106312752,-0.5784660577774,-0.096666425466537,0.97617024183273,0.32875740528107,-0.12941367924213,1.6453869342804,0.46264335513115,-1.7870569229126,-1.5626026391983,-0.72119581699371,-0.36199724674225,-1.0045008659363,1.5368943214417,-0.30145364999771,-0.1188732162118,-0.13318887352943,-0.43879622220993,1.6197667121887,-1.3201395273209,-1.6415972709656,-0.54467910528183,0.42535021901131,0.13726380467415,0.41744354367256,1.1872178316116,0.80289900302887,0.4373237490654,0.56620132923126,1.2973375320435,-1.7447189092636,-2.2354700565338,1.5443835258484,-0.32976689934731
-1.6361410617828,-0.91513854265213,-0.173843100667,-0.036479823291302,-0.0060253194533288,-2.7899515628815,-1.4217411279678,0.36176538467407,0.37096992135048,-0.68147760629654,-0.45411908626556,-1.1517243385315,0.56196516752243,0.38346630334854,0.90359777212143,-0.83613783121109,-1.0769195556641,-1.0961964130402,-1.277158498764,2.1276738643646,0.98011434078217,1.0212513208389,-1.4625269174576,-0.94028854370117,-1.43907725811,0.66426461935043,1.1067402362823,2.3692698478699,0.43711975216866,-0.23836117982864,0.92271149158478,0.026446431875229,-0.010036905296147,1.445548415184,0.30506917834282,0.36417832970619,1.0525480508804,-0.25084543228149,-0.22675704956055,1.5735138654709,0.60637950897217,0.58367294073105,0.66879177093506,0.8957667350769,4.2762055397034,-0.27070158720016,0.077696718275547,1.1486109495163,-0.087429493665695,0.90319323539734,-1.5403994321823,0.57622051239014,-0.83829551935196,3.1594521999359,0.038892887532711,0.80666106939316,-0.646424472332,1.0708973407745,-1.3291192054749,-0.56906932592392,0.61522376537323,-0.53802794218063,0.38104984164238,-0.16937805712223,1.2637120485306
-0.66007930040359,-0.47087463736534,1.4370507001877,-0.0066444338299334,0.41565591096878,0.15555949509144,-0.15329793095589,-0.7166263461113,1.8334482908249,-0.33037695288658,1.2020634412766,-0.24900963902473,1.7849545478821,1.979679107666,0.26187899708748,-0.43387290835381,0.48559907078743,-0.093457378447056,0.22206242382526,-0.43916469812393,1.4387000799179,0.94560015201569,0.26586511731148,0.51794016361237,0.84596168994904,0.067922435700893,1.615039229393,0.44135591387749,1.3241930007935,0.26963600516319,0.76496678590775,1.1087809801102,-0.51543188095093,1.190789103508,0.14920182526112,0.48344919085503,-0.34919118881226,-0.71756929159164,0.78334099054337,-0.04315273091197,0.36662268638611,0.2488736063242,0.67708575725555,2.849324464798,-1.6788551807404,0.12304176390171,-0.94581341743469,0.42460516095161,0.32625305652618,0.1426567286253,0.557896733284,0.19265568256378,-1.3301002979279,-1.0656721591949,0.49969786405563,2.1221506595612,-1.0784187316895,-0.45074579119682,0.12615472078323,0.58693778514862,-0.62223422527313,1.5874553918839,0.09822715818882,0.18162998557091,-0.48942613601685
1.3905098438263,2.1744101047516,-0.57106912136078,0.093835942447186,-0.1381178945303,-0.19196665287018,-0.7095695734024,1.6490836143494,0.361312687397,1.0900048017502,-1.1193481683731,-0.78927326202393,-0.66543883085251,-0.2655993103981,-1.0344516038895,0.59916406869888,-0.29779723286629,-0.63660818338394,1.0986340045929,0.12331499159336,-0.23778174817562,0.9128435254097,0.68177616596222,0.31232076883316,-0.65518832206726,-0.066754899919033,-0.73913609981537,0.066866919398308,-0.53194051980972,0.52337712049484,0.22158160805702,-0.11961429566145,0.22752715647221,-0.26627385616302,-0.56593316793442,-0.20129166543484,0.8049556016922,1.2334159612656,-0.09177377820015,1.1198348999023,1.0156836509705,0.27942556142807,0.47562000155449,-0.54766166210175,0.92953020334244,-0.69393199682236,0.27292019128799,0.73528176546097,-0.56750977039337,0.93091124296188,0.29494193196297,-0.85153698921204,0.60029631853104,0.81080067157745,0.11318773776293,0.18037359416485,-1.3046214580536,-1.7604100704193,-0.49638763070107,-0.34896105527878,-0.27722552418709,0.97808444499969,0.72318732738495,-0.50729268789291,0.92452603578568
-1.2597581148148,-1.1294419765472,0.48791027069092,-0.16275537014008,0.29106798768044,1.1696343421936,1.8610024452209,-1.4412760734558,-0.11468704044819,0.10988399386406,1.8418432474136,2.0562815666199,0.55482053756714,0.94861632585526,0.46796315908432,0.080317229032516,0.91511887311935,0.35135665535927,-1.0157982110977,1.708659529686,-0.49183028936386,0.77130055427551,1.6457916498184,-0.77066713571548,-0.53644281625748,-0.28556400537491,0.90087360143661,0.85851603746414,0.65493041276932,0.97923922538757,-1.0090125799179,0.31853288412094,-0.56112480163574,1.0942125320435,-1.9424364566803,0.72886961698532,-1.0800634622574,-1.1359018087387,0.42177900671959,0.54419595003128,-0.75962203741074,-0.76682955026627,1.02756690979,-0.53438138961792,-0.38020727038383,-0.11610351502895,4.1955132484436,0.52235287427902,1.7334617376328,1.3806079626083,-0.86757290363312,-1.1975363492966,-1.8804167509079,-0.80280393362045,2.2230842113495,2.1234774589539,-1.2213860750198,1.1731853485107,0.11686370521784,0.38698902726173,1.2724876403809,1.9838688373566,-0.70369565486908,-0.80301737785339,-1.6618845462799
-0.42453688383102,-1.0024952888489,-0.7457612156868,0.21431352198124,0.083723917603493,0.3619712293148,-0.50322860479355,-0.78124284744263,0.24516636133194,0.94358944892883,0.087574608623981,0.75085270404816,-0.05392936617136,-0.030925802886486,-1.8734369277954,2.2008585929871,0.096707597374916,0.50302922725677,1.7752816677094,0.0059164511039853,-1.3061088323593,-1.2030271291733,-0.766805768013,-0.12347812950611,1.1528939008713,2.2111828327179,0.06211931630969,0.063172228634357,-0.87074166536331,0.36003622412682,-0.99743676185608,0.42035791277885,-0.9827955365181,0.11960542201996,0.13068026304245,0.2088615745306,0.53075981140137,0.055302694439888,0.46134528517723,0.25961795449257,-0.17655716836452,0.69911682605743,-0.82835358381271,-0.045191396027803,0.85267460346222,-1.0099806785583,1.0393956899643,-0.050401672720909,0.88670945167542,-1.0432448387146,1.1198636293411,-1.2030608654022,-0.37892064452171,1.1536123752594,0.23836243152618,-0.0052915378473699,-0.40613320469856,-0.2338025867939,0.33714047074318,0.8543513417244,0.43113029003143,0.69824695587158,0.54106891155243,-0.92265206575394,-0.81650674343109
-1.2101594209671,-0.76561838388443,1.2856903076172,0.0067026009783149,-0.016657596454024,0.25132519006729,1.1391022205353,-1.4781206846237,1.8056303262711,-0.18933130800724,1.6769936084747,1.0020122528076,1.5108011960983,0.86648792028427,-0.3631255030632,0.70589607954025,-1.2686482667923,-0.84051305055618,1.6334929466248,0.37220832705498,-0.010935292579234,-0.28602108359337,-0.065632112324238,1.5708764791489,1.0721175670624,0.0038686110638082,-0.85429286956787,1.0872621536255,0.67386901378632,0.30244544148445,0.79904586076736,0.71912324428558,-0.17746265232563,1.4026385545731,0.23540964722633,-0.16577823460102,-0.50068926811218,0.56114953756332,-0.32526287436485,-0.034491594880819,-0.37273654341698,0.47662940621376,-1.2119839191437,-0.56871980428696,2.3447425365448,-1.5352528095245,0.88400042057037,-0.81960642337799,1.8632880449295,0.58349740505219,1.0629504919052,-0.31383800506592,0.1349753588438,-0.45692071318626,2.3246421813965,1.9691872596741,-1.5285459756851,-1.0701242685318,1.1524664163589,0.23559175431728,1.4303206205368,0.1293193846941,-0.34213969111443,0.46877598762512,0.55834943056107
1.8202192783356,1.4641624689102,0.27176323533058,-0.058210212737322,0.14518184959888,-1.4596476554871,-0.9632043838501,1.7913573980331,0.7786318063736,1.0227311849594,-1.5043528079987,-0.83172529935837,0.61865490674973,-0.40722119808197,0.37742906808853,0.52263653278351,-0.15050595998764,1.2710686922073,-0.7681240439415,-0.322335511446,-0.52235227823257,0.0058988453820348,0.078852154314518,-0.17713557183743,0.71016329526901,-1.2646195888519,0.99345636367798,1.0811975002289,-0.098403677344322,-0.79214954376221,0.71226841211319,-0.70970398187637,-0.071736857295036,-0.62213128805161,0.059082258492708,-0.3246129155159,0.81062632799149,-1.3432315587997,0.85343885421753,-0.64651995897293,-1.1810992956161,0.11523783951998,-0.5369513630867,1.0958358049393,0.088402785360813,0.95290160179138,-0.026877772063017,-0.76964682340622,0.70779412984848,-1.6476089954376,-0.57111668586731,-0.067465305328369,0.032367348670959,0.078146249055862,0.26226767897606,1.073956489563,-0.81152611970901,-0.65712440013885,-0.25071027874947,0.81869947910309,1.0955384969711,1.1404075622559,-0.89739924669266,1.0433539152145,-0.94193631410599
-0.61599761247635,1.185729265213,0.79106867313385,-0.15119406580925,-0.39074712991714,-0.95243924856186,2.1381883621216,-1.4051200151443,1.4630143642426,-0.17554359138012,1.5959604978561,2.5941717624664,0.80292892456055,1.7787548303604,0.42713370919228,-0.85926228761673,0.79513508081436,0.32100781798363,-0.94148313999176,-1.5888478755951,-0.93266415596008,0.29766082763672,-0.58645331859589,0.9643149971962,0.5958389043808,1.1082864999771,0.068911962211132,0.0074885874055326,0.54030644893646,1.0076477527618,0.41115167737007,-0.10916978120804,-1.1761357784271,0.24005483090878,0.299536049366,1.4949169158936,1.2931696176529,-0.2952456176281,0.35482940077782,1.0767555236816,-0.075361266732216,-2.2040891647339,-0.11489675939083,0.15779535472393,-0.61473912000656,1.0560971498489,0.016219256445765,0.91579329967499,0.8306776881218,-0.36039453744888,2.8676507472992,0.061559461057186,-0.28738322854042,0.26526841521263,-1.1250373125076,0.37151670455933,-2.2120881080627,-1.1269730329514,1.244641661644,0.75404143333435,1.3105493783951,-0.47230812907219,0.6859313249588,0.25045248866081,0.21151557564735
0.8399178981781,-0.095725066959858,0.95672744512558,0.11041859537363,-0.1214916780591,1.0730551481247,1.2873201370239,-1.1567758321762,1.9189347028732,0.22495251893997,1.3840690851212,0.5816815495491,1.3837321996689,0.018607074394822,-0.64556211233139,-0.17262949049473,0.12966130673885,-0.89466720819473,0.51201742887497,0.71967762708664,0.12969081103802,-0.18038915097713,-0.23179449141026,0.12579566240311,-0.34549710154533,0.27190679311752,0.0017118301475421,-0.2137266844511,0.46148356795311,-0.4869350194931,0.25200960040092,-0.067492455244064,0.5619894862175,-1.0466202497482,-0.088584370911121,-0.27193006873131,0.28693747520447,0.82536774873734,-0.0032890317961574,0.30346217751503,0.13416753709316,1.9509663581848,0.67406612634659,-1.5865198373795,0.45259985327721,-0.867540538311,0.13639417290688,0.31154754757881,1.3665970563889,-0.25934243202209,-0.71270084381104,1.0850036144257,-0.41422426700592,2.276330947876,-0.46626970171928,0.80491900444031,0.44671982526779,0.22201724350452,-0.30212670564651,-0.97113811969757,0.67526257038116,-1.4341834783554,1.1597083806992,-1.5105774402618,-0.88522064685822
0.25719740986824,1.0899460315704,0.20959278941154,0.13360992074013,0.33467656373978,1.0299326181412,0.48425388336182,-1.5662574768066,0.92385298013687,-0.045830842107534,0.79145008325577,1.9675544500351,0.80455631017685,1.3916699886322,-0.062792360782623,-1.4589614868164,1.4558210372925,-1.4929690361023,-0.51221072673798,-0.7798016667366,-0.59535789489746,0.43864789605141,1.2006502151489,2.1799676418304,0.89668571949005,0.30639463663101,1.6228241920471,-0.40010303258896,-0.096504703164101,0.48914694786072,-0.23688162863255,0.92343026399612,0.4006207883358,0.058638989925385,-0.0030473107472062,0.57623201608658,0.1295056194067,-0.61778545379639,0.98130053281784,0.22038269042969,-2.4178221225739,-1.9329952001572,0.69456577301025,-1.1084907054901,1.4447889328003,0.64874237775803,-0.72192949056625,1.4038953781128,0.8476784825325,-1.5494251251221,-0.83121848106384,0.14475166797638,0.9589409828186,0.75725376605988,1.9961525201797,-1.4050899744034,-1.263081908226,2.6197113990784,2.4170618057251,3.1190025806427,1.4686156511307,0.92750042676926,0.67901289463043,-1.33875644207,0.29454001784325
0.52846252918243,1.3412208557129,1.2981879711151,0.10432473570108,0.33441978693008,-0.85001742839813,0.99862784147263,-0.084465637803078,1.8712853193283,0.08906964212656,1.9899744987488,1.8103460073471,1.6092662811279,0.68867272138596,0.056224163621664,0.9013152718544,0.88386464118958,1.0057250261307,-0.31389954686165,-0.17781995236874,-0.02575115300715,0.09132581949234,0.16211800277233,-0.31094992160797,0.10310979932547,0.041711561381817,0.18274998664856,-0.67241895198822,0.1665037125349,0.27758970856667,0.60465586185455,-0.32145491242409,-0.54075330495834,-1.5647877454758,0.97842252254486,-0.088975325226784,0.5466747879982,0.94636398553848,0.80084544420242,-0.44448217749596,-0.19833426177502,-0.39132770895958,-1.8192549943924,0.5564957857132,-0.31329756975174,-1.0468336343765,0.17371931672096,0.3648798763752,0.51656663417816,0.1302452236414,-0.65150237083435,-1.4467976093292,-1.8962155580521,0.018221907317638,0.050954893231392,0.86811566352844,0.37863731384277,3.3231909275055,-0.69586676359177,0.073592305183411,-0.16564993560314,0.17133942246437,0.53965306282043,-0.36153396964073,-0.40880000591278
0.44510135054588,-0.35882180929184,0.81384271383286,0.091062515974045,0.040227741003036,-0.95390033721924,0.28308302164078,0.64513564109802,1.6484104394913,-0.88897657394409,1.0854350328445,0.88050496578217,1.2722145318985,0.18829177320004,2.3638806343079,-0.18519228696823,-0.69275146722794,0.089906737208366,-1.0037437677383,-1.3174197673798,-0.389593064785,-0.12298250198364,0.96774077415466,-0.35406503081322,1.8473403453827,-0.34122279286385,-0.061573587357998,-1.946270108223,1.1158896684647,-0.17921954393387,0.16476905345917,-0.47778618335724,0.65619874000549,1.6845669746399,0.62993371486664,0.465337485075,-0.094535656273365,-0.43235486745834,-0.42192369699478,-0.064180076122284,-0.44618195295334,0.37219849228859,-0.88928294181824,0.86395514011383,-0.015286487527192,-1.4886062145233,-0.31064990162849,0.55207484960556,2.0391139984131,-0.86427360773087,0.58292835950851,1.1779445409775,-0.63334292173386,1.4038428068161,1.4735043048859,1.2049521207809,-1.020028591156,-1.4608721733093,1.3063654899597,1.8661690950394,-0.69154769182205,0.48416376113892,0.31989589333534,0.051977694034576,-0.24709424376488
-0.44378104805946,-0.27906182408333,-0.78096467256546,-0.084359645843506,0.18973322212696,0.66621899604797,0.70069909095764,0.15886795520782,-0.62536305189133,0.085518918931484,0.049681857228279,0.0046657300554216,-0.3935714662075,0.3791444003582,0.41115313768387,1.1604218482971,1.9680976867676,0.49772870540619,-0.41236385703087,1.1100071668625,0.24832402169704,-1.2055677175522,0.46869274973869,-0.10536073148251,0.28081703186035,-1.1101951599121,-0.38747200369835,0.67014002799988,-2.6565761566162,0.71201717853546,-0.26747924089432,0.71878951787949,-0.061903182417154,0.39687377214432,0.10413380712271,0.73331785202026,0.2283178716898,-0.87302136421204,0.31720903515816,0.68623924255371,-0.16617912054062,1.1539659500122,0.58604723215103,0.637515604496,1.9579516649246,0.35661068558693,-0.60619306564331,-2.4126522541046,0.15136559307575,-0.33064505457878,1.0550318956375,0.1070418804884,3.6545388698578,0.46563881635666,0.98767799139023,0.20403024554253,-0.39174449443817,-0.69955748319626,-1.493057012558,-0.44959297776222,0.23133650422096,0.48118740320206,-0.13061447441578,1.5084091424942,0.40851736068726
-1.1509293317795,-1.0513678789139,1.037292599678,0.29425895214081,-0.056782629340887,-1.8614377975464,0.50848525762558,-1.2501991987228,1.0880616903305,-0.25874429941177,2.3282024860382,0.95672827959061,1.3115457296371,2.02223777771,0.048048000782728,0.68990188837051,0.69082748889923,0.87850177288055,0.55593746900558,1.0864328145981,0.5810729265213,0.80825161933899,0.50963133573532,0.9515472650528,1.3022930622101,1.5424864292145,0.89163398742676,-0.35547012090683,-1.2146489620209,0.42273193597794,0.083652026951313,-1.1568776369095,-0.22980077564716,1.6445704698563,-0.77428776025772,-0.60177850723267,-0.054275542497635,-0.77865707874298,-0.47090017795563,1.1128395795822,-0.31621906161308,1.4611223936081,1.0052683353424,-1.223118185997,-0.034858338534832,-0.35712254047394,-0.70581537485123,0.39900007843971,-0.080224066972733,0.65706139802933,0.90367752313614,0.1716887652874,-1.3335608243942,-0.54308766126633,-0.81458961963654,-0.4060962498188,2.3985981941223,-0.72629737854004,1.4173084497452,1.8990921974182,0.4952926337719,-0.30774760246277,-0.46850064396858,-1.9516129493713,0.16076375544071
-0.67422860860825,-0.38333934545517,0.62152093648911,-0.011792127043009,0.094505734741688,1.0935024023056,1.3096840381622,-1.4692746400833,0.59025096893311,0.80685573816299,0.28985118865967,1.8767131567001,0.63886141777039,0.23525699973106,0.42829620838165,0.23010848462582,-0.32376435399055,1.9867632389069,-1.4952428340912,-0.48690029978752,0.31743901968002,1.1378498077393,0.80104899406433,-0.54022663831711,0.33906212449074,-0.058241870254278,1.0388778448105,-0.51889395713806,0.78630298376083,1.5268031358719,-0.42657488584518,1.1331913471222,-0.80240434408188,0.15634842216969,1.0882694721222,1.4491803646088,-0.93771517276764,0.2282742857933,-0.60488814115524,0.52441185712814,0.73036533594131,-1.3386458158493,-0.26540431380272,1.7987104654312,-1.8198155164719,-1.0426939725876,0.082794606685638,-1.14255464077,-0.87646263837814,-0.26461666822433,0.22663950920105,-0.7210841178894,-0.64446628093719,0.13704414665699,1.322124004364,1.3390564918518,0.23641183972359,-0.91137951612473,-0.45030382275581,0.0042292382568121,0.49202919006348,0.25400319695473,1.4551405906677,-0.6006070971489,-0.68031448125839
-1.0012247562408,-1.0446257591248,-0.42615935206413,-0.019074440002441,0.46201175451279,1.423993229866,-0.37857353687286,-0.086653418838978,-0.38945865631104,0.0035317505244166,-0.21155859529972,0.12671422958374,-0.35282617807388,1.0705537796021,1.0284767150879,-0.93695789575577,1.0132820606232,0.80662596225739,0.98896926641464,0.39291468262672,-0.48404183983803,-0.88068777322769,0.22803489863873,-0.9868580698967,0.69905716180801,0.43463695049286,0.97649496793747,-0.052947841584682,-0.6672739982605,-0.083795107901096,-1.8912637233734,-0.36231425404549,1.2152863740921,-0.89295256137848,0.64379358291626,0.29546111822128,-0.34770661592484,0.07912752777338,0.70410495996475,0.74493998289108,-1.0725114345551,0.072066031396389,0.16809423267841,-0.066605381667614,0.62307208776474,0.38274303078651,1.6978462934494,1.2387478351593,0.67910468578339,-1.1847450733185,0.29557576775551,0.67079961299896,0.65278512239456,-1.5128268003464,3.5979104042053,2.0468318462372,-0.19474504888058,-0.49611443281174,-0.083592884242535,-0.71968424320221,1.8173034191132,-0.8365096449852,0.64766198396683,0.34030571579933,-0.57702803611755
0.64847147464752,-0.37183228135109,1.2004750967026,0.10501615703106,-0.010296213440597,-0.31621783971786,1.4558556079865,0.56678366661072,0.58901101350784,0.27011767029762,1.7552807331085,2.4161677360535,0.98664522171021,0.21997836232185,0.44374284148216,0.86731863021851,0.98214513063431,0.72707641124725,-0.34417966008186,0.53407788276672,-0.6576299071312,0.30197256803513,0.88731253147125,-1.021231174469,0.049979224801064,1.014547586441,1.0483773946762,0.26082453131676,0.53699660301208,0.71719378232956,1.2314795255661,0.92794370651245,-1.4307360649109,-0.28971886634827,-0.24986065924168,-0.39663815498352,-0.328842908144,0.43495255708694,0.51554906368256,-0.50847393274307,0.754987180233,-0.051248323172331,0.12249700725079,-0.09124967455864,0.060683056712151,-1.0412998199463,0.31528234481812,0.27429920434952,-1.0257903337479,0.39483937621117,0.40851077437401,-1.6281360387802,0.75670027732849,-1.0365017652512,0.67714077234268,-0.32135459780693,0.73210525512695,-0.74329900741577,-0.7142870426178,-0.21937774121761,-0.090679869055748,0.35148057341576,0.66864967346191,0.72794407606125,0.34241598844528
1.2183291912079,-0.57440650463104,1.1413472890854,0.017037250101566,0.41287523508072,0.37210711836815,1.0732976198196,-0.29299762845039,0.98436737060547,0.059255845844746,1.3860784769058,0.22331438958645,1.2089763879776,0.72556525468826,1.5868105888367,0.35262930393219,0.63985151052475,0.34073624014854,-0.71384960412979,1.0078384876251,-0.68702805042267,-0.50525218248367,-0.40779402852058,1.0614514350891,-0.12576708197594,0.18997947871685,0.35703545808792,-0.23865185678005,-0.63930225372314,0.2540517449379,1.0793759822845,-0.066027581691742,1.0558694601059,1.2025678157806,0.85960566997528,1.2035434246063,0.67913615703583,1.0335735082626,0.2945761680603,0.3592481315136,0.089694648981094,0.35615095496178,-0.65027487277985,-0.40596470236778,-1.1134730577469,2.8314292430878,0.062293130904436,-0.83345568180084,1.9892309904099,1.7998042106628,-1.5484575033188,1.7413967847824,-0.36853128671646,0.19712893664837,1.078240275383,-0.2748529613018,-0.53648990392685,0.80854147672653,2.1776161193848,-0.21254973113537,1.1187834739685,0.12897445261478,0.85094553232193,-1.0231189727783,-0.040408410131931
-1.317817568779,-0.62804234027863,-0.99894332885742,-0.19055478274822,0.21145510673523,0.47586500644684,-0.48132705688477,0.11650919914246,-0.042657069861889,1.0223278999329,0.76878666877747,0.024468356743455,-0.37199285626411,2.2509684562683,0.4631432890892,0.13312776386738,0.93807792663574,0.88194119930267,-1.2296456098557,-0.10300590097904,-0.33893799781799,0.0596605502069,0.16553097963333,1.1002639532089,2.063268661499,0.027192398905754,0.88700312376022,0.50696301460266,0.10924935340881,0.19076952338219,-0.70714074373245,0.54586017131805,0.379967212677,-0.83953219652176,0.14734703302383,1.2379593849182,-0.99104064702988,0.70510417222977,0.097994148731232,-0.26231569051743,0.66296464204788,-0.97304707765579,-0.12308795005083,-0.082651123404503,-0.35334178805351,0.26922938227654,0.64457190036774,-0.10886793583632,1.2245995998383,0.78854668140411,-1.0378830432892,1.3139975070953,-0.0070071946829557,1.0746676921844,-0.023648058995605,-0.74861055612564,0.12548211216927,0.68166434764862,0.44926986098289,-1.3728393316269,-0.75726044178009,-1.4174066781998,0.61133486032486,-0.41340029239655,-0.72907185554504
