2.125380747020199843e-02,-1.400927603244800090e-01,-1.226905882358600014e-01,-7.739081382751500371e-01,-7.976911664009099789e-01,-2.193931303918399828e-02,-2.117954045534100049e-01,-6.999565958976700086e-01,-1.332724988460499971e-01,-3.709633946418799955e-01,-1.078071668744099987e-01,-9.711094200611100624e-02,-1.236886950209699961e-03,-3.421053662896200026e-02,-7.286620885133700265e-02,4.026794806122799796e-03,-6.505853682756400358e-02,9.018973447382500411e-03,-4.804867506027200169e-02,-3.144349902868300017e-02,-1.511382125318099998e-02,-3.153055533766700030e-02,-6.245214492082599989e-02,-9.763472713530100058e-03,-6.379222124814999673e-02,-5.841736868023900131e-02,-9.750362485647200150e-02,3.544447943568199838e-02,-7.860268652439099391e-02,-3.837586194276799978e-02,-1.247464790940299995e-01,-5.048374831676499808e-02,-2.427034638822099868e-02,-3.072514832019799802e-01,-9.463356435298900249e-02,-5.845165252685499691e-02,-5.602926611900299614e-01,-4.025230556726500097e-02,-1.066868379712099940e-01,8.171386085450600689e-03,-6.266663968563100651e-02,-1.315397918224300022e-01,-6.476127356290800607e-02,-9.893190115690200098e-03,-4.860389977693600067e-02,-1.216359212994600064e-01,-5.079984664916999994e-03,-8.048132807016400436e-02,-3.562886640429500235e-02,-1.093427911400799979e-01,-1.169346794486000041e-01,-4.194940626621199847e-02,-1.509921103715899937e-01,-4.174920544028300207e-02,-5.260526761412599728e-02,-2.335813641548200106e-02,-1.302952915430100056e-01,-1.125816628336900015e-02,-1.884381845593499985e-02,-1.822810024023099884e-01,-1.284301578998600091e-01,-4.589806124568000106e-02,-3.779182732105300091e-01,3.710692375898400064e-02,-4.724271297454800123e-01
-9.920877218246500207e-02,-2.687726020812999939e-01,4.660448729991900074e-01,4.182164669036900206e-01,4.026894569396999857e-01,-5.639785528183000052e-02,3.838828504085500248e-01,-2.495011389255500089e-01,3.476546704769100105e-01,9.962542057037400145e-01,5.005332231521599784e-01,3.496106863021899991e-01,2.595984637737300260e-01,1.872424930334100068e-01,9.535634517669699939e-01,-6.800071001052899744e-01,7.256760597228999465e-01,8.783112764358500524e-01,5.595285817980800297e-02,3.838537335395800221e-01,-2.218675762414900055e-01,-2.058422118425400071e-01,1.358058691024800035e+00,-6.563914418220500036e-01,-7.700850069522900687e-02,-3.472552597522700069e-01,1.030034303665199991e+00,-5.530303716659500379e-01,9.764539599418600169e-01,7.174116969108600417e-01,8.008435368537899501e-01,-6.317953467369099574e-01,-1.572230011224700075e-01,-5.858992338180499804e-01,-9.451201558113100365e-01,6.113515496253999482e-01,9.734617471694899660e-01,1.075381159782399898e+00,6.791602373123200032e-01,9.400905966758700272e-01,1.595421135425600101e-01,-4.573988914489700019e-01,7.345967888832100057e-01,2.727218568324999981e-01,-5.228437185287500011e-01,-5.961452722549399619e-01,-1.512590944766999956e-01,-4.854425489902500224e-01,-6.310476064682000175e-01,-3.852729126810999771e-02,8.131423592567400549e-01,8.844181895256000292e-01,-5.344420671463000205e-02,-3.097915947437300255e-01,1.112931609153700041e+00,-1.261766254901899864e-01,5.889145731925999883e-01,6.477952003478999569e-03,-4.791384339332599995e-01,-5.896522402763400006e-01,8.355895280838000483e-01,-6.428499817848200015e-01,-2.405812591314299975e-01,-4.250051379203800272e-01,-5.548010766506199926e-02
1.577975228428800045e-02,2.969532012939499754e-01,3.156006634235399844e-01,1.047358751296999957e+00,9.220691323280300056e-01,1.277730567380800037e-03,2.251969277858699992e-01,-1.641010791063300112e-01,1.812539696693399871e-01,4.816946685314200116e-01,2.451201900839799965e-03,1.575372517108900028e-01,3.532045483589200119e-01,-2.599706351757000156e-01,-2.067569196224199879e-01,-1.510410457849500065e-01,-1.749008744955100059e-01,-2.294449359178500070e-01,-2.267247587442400014e-01,-2.173975110054000015e-01,-2.412408739328399943e-01,-1.607211679220199863e-01,-1.287259161472300018e-01,-2.486595809459699880e-01,-2.256359010934800013e-01,-2.142089456319800078e-01,-2.427289187908200085e-01,-2.339752614498100125e-01,-2.116038054227800114e-01,-1.466851234435999907e-01,-2.081429660320300024e-01,-2.226331830024700087e-01,-2.448745071887999947e-01,-2.472928017377900023e-01,-2.830145657062499986e-01,-2.072897106409100076e-01,-3.282512128353100023e-01,-1.588036417961100066e-01,-1.738135144114499875e-02,6.798766851425199764e-01,3.965651988983199816e-01,1.451152861118299997e-01,-3.097677975893000160e-02,5.078541040420500030e-01,9.295350313186599711e-02,7.814803123474100000e-01,6.176772117614699464e-01,-1.330935060977899986e-01,-1.707985550165199984e-01,6.966739296913100343e-01,5.252491831779499964e-01,3.175455927848799820e-01,1.547111272811899918e-01,-1.622883975505799992e-01,3.781174868345300172e-02,1.060637533664700038e-01,9.870284236967600058e-03,4.005419611930799983e-01,9.028948843479199862e-03,-3.732904046773900114e-02,-1.545928269624700091e-01,6.101227998733500524e-01,-1.069445684552200043e-01,-1.492099016904800124e-01,1.547319442033799897e-01
-6.627678871154800422e-02,-9.908469021320299996e-02,-3.930340409278900160e-01,-7.521749734878500071e-01,-5.565362572669999564e-01,-5.133189558982800271e-01,-3.526064157486000217e-01,-1.220695674419400023e-01,-2.601508200168600182e-01,-4.472497701644900236e-01,-1.446730494499199882e-01,-2.451728731393799932e-01,-3.832739293575300188e-01,-3.889718353748299884e-01,2.449090331792800057e-01,2.561905384063700164e-01,6.851509958505599962e-02,-1.749200522899599930e-01,1.064080670476000023e-01,-1.114096567034700003e-01,-2.520458102226300068e-01,2.499103546142600052e-01,-3.556679189205200209e-01,1.292161345481900037e-01,5.118061229586599870e-02,1.171510368585600009e-01,-2.316807210445399889e-01,3.440045118331899743e-01,2.902053594589200092e-01,-4.622089266777000272e-01,-1.275455951690699918e-01,-3.018507361412000045e-01,2.236741036176700115e-01,-1.541761457920099998e-01,4.034261703491199835e-01,-1.036313399672500052e-01,5.338505143299699914e-04,2.389701753854799882e-01,-9.641929864883399537e-01,-3.202356696128800251e-01,1.275009065866500035e-01,2.211922556161899922e-01,2.994626164436299809e-01,-4.207471311092400024e-01,-8.815913796424900140e-01,5.278874039650000016e-01,-3.036867976188700191e-01,-4.565789699554400061e-01,5.105007067322699793e-02,-1.033592581748999928e+00,-5.040293931961099538e-01,-4.705273509025599821e-01,2.795319855213200255e-01,-2.439069747924799969e-01,-2.907050549983999921e-01,-5.588361248373999862e-02,3.929573297500599804e-01,2.748045027255999750e-01,2.055977433919899955e-01,-6.148837208747900407e-01,-5.680290050804600276e-03,1.715260595083200057e-01,2.390184849500699982e-01,-4.307507574558300245e-01,1.234194338321699946e-01
1.094949841499299970e+00,4.396836459636700029e-02,1.715724229812600088e+00,1.914627432823200026e+00,1.702319979667699990e+00,1.687573939561800018e-01,9.130540490150500510e-01,8.044317364692700201e-01,1.365230321884199904e+00,1.848818778991700107e+00,9.790313243866000104e-01,1.260750651359600072e+00,1.804471731185899985e+00,4.413465559482599998e-01,3.803831040859200208e-01,1.762473434209800016e-01,5.303459167480499836e-01,6.606813073158299687e-01,6.713966131210300503e-01,4.802052676677699972e-01,5.846616029739399867e-01,-1.210568174719799939e-01,5.161669850349399624e-01,7.301375865936300391e-01,3.117498755454999881e-01,3.182657659053800270e-01,7.265254259109500401e-01,6.979393959045400164e-01,4.089239537715900208e-01,9.766207933425899990e-01,7.100657224655200217e-01,2.746345400810200066e-01,8.977248668670699816e-01,7.848220467567400549e-01,6.275097727775600376e-01,7.253938913345300277e-01,4.474114179611199948e-01,9.949787855148299887e-01,8.402360677719099558e-01,-3.598605468869200269e-02,1.636965572833999974e-02,-4.067804664373399909e-02,-2.508545992895999839e-03,-3.080641478300100156e-02,-1.622266136109800153e-02,-4.226380214095099702e-02,-4.688570275902700403e-03,-1.913799904286899931e-02,7.723876833915699347e-02,4.807510972022999846e-02,-2.532206661999199943e-02,2.326770871877700125e-02,-3.594315797090499864e-02,-1.659413240849999874e-02,-3.358768299222000125e-02,-7.660253439098600042e-03,-1.210898254066699979e-02,-4.721588268876100031e-02,9.732727194204900470e-04,-1.034084800630800070e-02,-6.978785991668699784e-02,1.468617655336900037e-02,-5.846918374300000276e-02,-1.993426680564900147e-02,4.353987425565700176e-02
-1.088872179388999939e-02,-4.663061350583999794e-03,-1.569074019789699903e-02,-3.899417638778699846e+00,-4.247860908508299893e+00,-3.119972720742199973e-02,3.396947868168400005e-03,-6.831821985542800221e-03,-4.705400206148600134e-03,-4.552147865295400386e+00,-1.359369233250599940e-02,-1.769898645579799992e-02,-5.749920010566700324e-02,-3.117945194244399754e-01,-1.295935034751900083e+00,-3.988336563110399968e+00,-3.958430290222199943e+00,-3.185558915138200220e-01,-3.616762876510600133e+00,-2.295254543423699833e-02,-2.498336315154999987e+00,-3.056236505508400203e+00,-6.599748134612999806e+00,-5.227687358856200284e+00,-2.718879938125600138e+00,-9.197531342506399810e-01,2.128791809081999886e-01,-2.450046837329900029e-01,-1.988103985786400019e+00,-9.053254127502400550e+00,-7.803289592266099417e-02,-1.615322947502100037e+00,-2.145001411437999828e+00,-1.492273330688500099e+00,-4.550020217895499819e+00,-2.679291725158699844e+00,-2.284207820892299790e+00,-1.938809990882899958e+00,-7.947197556495699811e-01,-3.954061772674299577e-03,-1.131601333618200034e+00,-1.041832685470599928e+00,-8.691039681434599429e-02,9.828563779592500160e-03,-7.294884324073800386e-01,-1.076429009437599893e+00,-1.152342677116400038e+00,-2.030004002153900158e-02,-6.114911079406700090e+00,-2.188584327697800092e+00,-6.977534294128399928e-02,2.145181037485599865e-02,-5.049495771527300059e-02,-3.821356222033499977e-02,-3.113679289817800067e-01,-1.167245149612399890e+00,-4.848623275756799855e-02,-4.014473780989599727e-02,-9.414745569229100441e-01,1.001117471605499944e-02,-1.063783288001999949e+00,-1.722917705774300035e-01,-9.878945350647000412e-01,-5.795015767216699781e-02,1.152272149920500061e-01
3.691285252571099851e-01,3.443568050861400276e-01,4.044672250747700093e-01,-1.005202293396000091e+00,-1.137416839599600049e+00,1.908690333366399872e-01,3.666510283946999849e-01,2.347368448972700083e-01,3.116274476051300035e-01,-6.142062544822699532e-01,3.497704863548299903e-01,3.321831226348900268e-01,3.031958937645000129e-01,-7.550032734870899542e-01,-5.331412553787200359e-01,-3.754374757409099927e-02,1.688894480466799908e-01,-1.052956700324999995e+00,-2.852719742804799962e-03,-1.062432527542100047e+00,-1.129235863685599917e+00,-3.733852207660700029e-01,-3.913480937480899868e-01,-1.591236293315899941e-01,4.043911397457100043e-01,3.097907006740600044e-01,2.056873291730899889e-01,-5.455989837646499918e-01,-9.713921695947599910e-02,-1.193548202514600032e+00,-9.832129627466200394e-02,3.103507161140400261e-01,-2.689093649387400142e-01,2.848172783851600220e-01,-4.199982285499599954e-01,3.714857399463700194e-01,4.008803963661199954e-01,-4.195735454559300082e-01,6.112000346183800170e-01,-5.635261535644500164e-01,3.968718647956799850e-01,-9.047875404357900164e-01,4.266673624515500141e-01,-7.365860342979400066e-01,-6.670394539833099934e-01,-9.377938508987400390e-02,-8.117411732673599500e-01,-4.286374747753100012e-01,-8.064499497413599727e-01,-8.227747678756700545e-01,-6.619831323623700525e-01,5.660852193832399681e-01,-5.699521303176899867e-01,-4.802804589271499891e-01,-4.627285301685299945e-01,-4.887817800045000105e-01,5.789869427681000325e-01,4.757818877696999849e-01,3.280159235000599804e-01,-8.633996844291700334e-01,2.770741581916800200e-01,4.952858090400700242e-01,-2.601640224456799877e-01,-8.189238309860199516e-01,-6.640279889106800448e-01
6.424527615308800454e-02,-2.098707668483299968e-02,-1.574480347335300082e-02,3.003894329071000069e+00,3.567503213882400104e+00,-2.401675470173399857e-02,-2.052620239555799989e-02,7.232779264450099610e-02,-2.021367475390399918e-02,3.328140735626199831e+00,-2.558488026261300161e-02,-1.559356041252600057e-02,-2.840726450085600055e-02,4.128723442554499967e-01,5.086799263954200345e-01,2.024820089340200191e+00,2.389932155609100217e+00,1.720991611480700012e+00,2.013156175613400212e+00,4.742016494274099991e-01,6.991375684738200258e-01,2.217122554779099808e+00,2.075011730194099790e+00,2.394494295120200178e+00,4.742411673069000244e-01,2.271646857261699903e-01,3.177777230739600167e-01,2.440501451492299800e+00,4.909732937812800180e-01,2.614126205444299966e+00,3.289173543453199899e-01,3.283686637878400205e-01,1.615676283836400051e+00,3.644841909408599867e-01,1.723380446433999902e+00,2.023566246032700189e+00,1.698526382446299943e+00,2.098341464996300143e+00,1.322275519371000074e+00,5.517920479178400027e-03,4.762685298919699939e-02,-2.008203603327299996e-02,1.552229281514900042e-02,-9.772224351763699260e-03,3.653877181932300208e-03,-1.717890426516499938e-02,3.685816191136800143e-03,-5.151896271854600022e-03,2.048224024474600002e-02,-6.480403244495399652e-03,-4.406913649290800095e-03,1.507446169853200041e-02,-1.890606991946700011e-02,-1.791937509551600090e-03,-1.111011393368199936e-02,-2.953167818486699889e-02,-1.636273227631999949e-02,1.897061476483900095e-03,2.673465758562100156e-02,-2.860989421606099925e-02,-3.477640077471699787e-02,1.193739287555200049e-02,-7.326827198266999686e-02,2.546368166804300129e-02,-7.316352427005799741e-02
1.234770298004199907e+00,2.078909277916000109e-01,1.522993206977800051e+00,2.379954099655200217e+00,2.848818302154500159e+00,9.784906357526799991e-02,5.166797637939499754e-01,1.470014452934299998e+00,9.281181097030599680e-01,2.702652931213399778e+00,1.177332401275599905e+00,1.173236608505199952e+00,1.536972522735599922e+00,2.760614752769500191e-01,1.397584229707700132e-01,1.215117946267099958e-01,1.506271362304699990e-01,2.872004210948900238e-01,4.289597645401999754e-02,7.975003868341400126e-02,2.282022088766099965e-01,3.614285886287699756e-01,1.563312560319899958e-01,4.688191786408400091e-02,1.131094545126000023e-01,9.111478924751299779e-02,1.378270834684399981e-01,4.660246074199699828e-01,9.109451621770900398e-02,1.089201346039800067e-01,1.355756521225000011e-01,1.659716516733200087e-01,2.760983407497399900e-01,2.396791428327600115e-01,2.198039740324000124e-01,3.063368797302200019e-01,-5.726377479732000161e-03,2.538406252861000190e-01,-7.014629244804400365e-02,4.045992791652699982e-01,5.569297075271599784e-01,7.277567386627199486e-01,9.708262085914599604e-01,2.874723672866800195e-01,1.537755578756299923e-01,4.388928413391099959e-01,1.984929591417300132e-01,2.120939195156099910e-01,2.302489995956400026e+00,2.691199779510499823e+00,4.597310125827799854e-01,7.271149754524199871e-01,1.705888807773600080e-01,2.517891228199000131e-01,1.625859141349799974e-01,1.733318686485300075e+00,3.872207105159800045e-01,2.056403607130100064e-01,2.948743700981100169e-01,3.555034399032599990e-01,9.855607748031599558e-01,3.563693761825599826e-01,1.268175244331400053e+00,1.177093505859400091e+00,2.524727106094399876e+00
-1.648267209529900024e-01,-6.809408962726599956e-02,-4.539621248841300277e-02,-3.242328882217400121e+00,-3.274078130722000157e+00,-1.727762818336499862e-01,-4.120529815554600100e-02,-1.084674969315500004e-01,-4.557514563202900298e-02,-3.740082025527999843e+00,-2.755030803382400167e-02,-4.212722927331900152e-02,-6.509660184383400661e-02,-1.106736898422199911e+00,-1.034375071525599932e+00,-1.724684387445399869e-01,-9.567264318466199846e-01,-5.628318786621100411e-01,-2.528298199176799987e-01,-2.323050498962400123e-01,-7.032256722450299646e-01,-2.166122436523400197e+00,-1.305728435516400054e+00,-7.272215485572800509e-01,-1.728849112987499992e-01,-2.741605043411299847e-01,-2.326406002044699939e+00,-1.826122045516999970e+00,-1.377145528793300100e+00,-4.011291503906200262e+00,-2.208705991506600130e-01,-1.352534651756299944e+00,-7.831132411956800432e-01,-2.565959930419900115e+00,-8.181845545768700045e-01,-1.099617242813099915e+00,-2.826567173004200129e+00,-6.552704572677600092e-01,-2.187782526016199824e+00,-2.444469481706600111e-01,-9.631455689668699804e-02,-2.864170446991900001e-02,-1.729377210140199961e-01,-8.402546495199199328e-02,-9.209065139293699798e-02,-1.343218833208099927e-01,-5.885845050215700314e-02,-2.288036346435499968e-01,1.007913276553200066e-01,-3.927410766482399701e-02,-7.120659202337299709e-02,-1.165956445038300072e-02,-2.657626271247899852e-01,-1.674755811691300000e-01,-1.215183734893800042e-02,-1.261055320501300037e-01,-4.358134418726000020e-02,-7.453266531228999736e-02,-1.301661133766200129e-01,-8.706790953874600503e-02,-2.715713977813700164e-01,-5.216806754469899970e-02,-1.105376005172699960e+00,-3.726345896720900108e-01,-7.967637181282000158e-01
5.493144989013699631e-01,-2.278866916894899952e-01,1.790177226066599903e-01,2.947650551795999996e-01,2.802380025386799756e-01,5.038812011480300196e-02,-3.065560571849300017e-02,-6.004461087286500076e-03,-2.030453830957399952e-01,2.189867645502099891e-01,-3.059884309768700072e-01,-1.352519392967199974e-01,-8.032401092350500288e-03,5.035904645919799805e-01,3.841858804225899982e-01,4.182594418525700242e-01,2.982558310031899751e-01,-5.215835198760000041e-02,3.986991047859200221e-01,4.488322436809499827e-01,4.628184139728500068e-01,4.414502680301700122e-01,2.609484195709200205e-01,3.195083439350099863e-01,4.924723207950599813e-01,4.459721148014100245e-01,4.091198444366500042e-01,3.611558079719500158e-01,3.236617147922499771e-01,1.354335546493500020e-01,1.405197978019699923e-01,4.317239224910700002e-01,5.261962413787799608e-01,5.531105399131800437e-01,5.606830120086700280e-03,4.829711318016099986e-01,-5.096167922019999574e-01,4.159188866615299851e-01,5.617305040359500401e-01,-2.798171639442399994e-01,-7.402157783508299393e-02,-9.876332432031599551e-02,-1.594176888465899944e-01,8.606489747762699483e-02,-2.126585245132399937e-01,-5.312313884496699945e-02,-2.647660486400100002e-02,-9.187079221010199803e-02,-1.754961013793900071e-01,8.495382219552999326e-02,-5.393570289015799796e-02,-4.337703064084100224e-02,1.739779263734800019e-01,-3.017732203006699976e-01,-2.553369998931899754e-01,-6.678006798028900126e-02,-1.738998740911499863e-01,-1.458501368761100092e-01,-1.833262443542499898e-01,1.083371937274899971e-01,-2.586962580680799983e-01,-2.237972468137700011e-01,4.577545523643499759e-01,2.116681039333299930e-01,8.341550827026400494e-01
9.095491170883199805e-01,5.082804337143900092e-02,1.203153491020199972e+00,3.446851015090900194e+00,2.988604784011799964e+00,1.399740815162699992e+00,1.442305803298999933e+00,1.349256753921499907e+00,1.728333950042699962e+00,5.547153472900400395e+00,-4.551124572753900005e-02,1.990776777267500020e+00,2.016269683837899951e+00,1.545338630676300062e-01,-1.055249795317600020e-01,1.669520258903500087e+00,2.411508083343500086e+00,-1.960193552076799905e-02,4.074124395847300018e-01,2.135597020387600131e-01,3.154149453621399963e-04,2.790712937712699904e-02,1.554679512977600098e+00,2.760328650474500045e-01,1.816887855529799867e-01,2.006404399871799971e+00,-6.344006210565600323e-02,3.207224309444399735e-01,8.801611661910999640e-01,1.468002319335899974e+00,5.401237402111299692e-03,4.596188962459599736e-01,5.291681885719300427e-01,1.576842069625900011e-01,-1.111519634723699967e-01,1.555500268936200081e+00,5.177678465843199573e-01,1.841290950775100077e+00,6.663461923599199865e-01,3.282096982002299934e-01,4.102123379707299788e-01,4.130116999149299750e-01,5.861368179321300165e-01,1.561261117458299930e-01,8.528128266334500385e-01,5.251083895564100101e-02,-2.780339866876600091e-02,1.291560530662499984e-01,1.239293575286900095e+00,1.778945565223700065e+00,-3.398494720458999918e-01,1.470957875251799996e+00,-2.831423580646499905e-01,2.842067182064100250e-01,-3.087783455848699954e-01,1.873860716819800043e+00,3.689193427562699745e-01,-1.558824926614799933e-01,9.406133294105499809e-01,3.215809166431399801e-01,9.916195869445799671e-01,3.050530254840900235e-01,1.019932508468599952e+00,2.498475611209899916e-01,9.961315393447900401e-01
3.887405619025199877e-02,-5.886220932006800410e-01,-1.185261487960800109e+00,-1.243090867996200055e+00,-1.305647611618000026e+00,-3.462496101856200048e-01,-5.073356032371499902e-01,-1.522769093513500094e+00,-7.198589444160500284e-01,-2.139489799737900044e-01,-7.014721632003799723e-01,-7.651502490043600169e-01,-1.055198669433599967e+00,-2.947720289230300050e-01,-2.186348587274599964e-01,-1.649364382028599973e-01,-1.929483264684699884e-01,-2.492377460002900003e-01,-2.126570641994499911e-01,-2.698962092399599944e-01,-3.098204731941199830e-01,-3.842518031597100259e-01,-2.458385527133900017e-01,-2.634736895561199943e-01,-1.769347935914999947e-01,-1.933248341083499966e-01,-5.342337489128099470e-01,-2.545781433582299802e-01,-2.053177505731600128e-01,-2.046946138143500016e-01,-1.938919275999100023e-01,-1.355437636375400046e-01,-2.007405608892399995e-01,-2.269627153873400027e-01,-3.545529842376700103e-01,-2.906984984874699807e-01,-6.812222003936799775e-01,-4.657192528247799945e-01,-6.771280169486999512e-01,-2.477107197046299891e-01,-1.487035274505599913e+00,-1.303033590316799994e+00,-1.468568921089199897e+00,-1.834512203931799867e-01,-1.564989686012299985e-01,-1.260264635086099982e+00,-1.414926350116700038e-01,-1.161446496844300014e-01,-1.973763346672100072e+00,-1.818799734115599920e+00,-1.011742591857899942e+00,-6.464715600013699603e-01,-8.854034543037400673e-02,-1.591736972331999900e-01,-1.830421574413799990e-02,-1.714134812354999982e+00,-1.998722106218299988e-01,-5.694884061813400289e-02,-2.740527391433700277e-01,-4.827139377594000247e-01,-9.088883996009800015e-01,-3.121442198753400232e-01,-4.918423295021099872e-01,-1.478516578674299975e+00,-1.418264508247399913e+00
3.018253147602100173e-01,4.686080515384700163e-01,4.996392726898200021e-01,1.612377643585199971e+00,1.429242372512800063e+00,5.160999298095699794e-01,4.577308893203699824e-01,4.091582000255600260e-01,4.705376327037800177e-01,1.051730155944800016e+00,2.699220180511500145e-01,4.161010980606100196e-01,4.919132292270699813e-01,-1.993230171501600076e-02,-3.567449375987100102e-02,-1.357935816049599953e-01,-7.639920711517300678e-02,-1.326038092374799970e-01,7.404295727610600217e-03,-1.352709233760799878e-01,-8.663961291313200530e-02,1.300428062677400076e-01,-4.526324570179000167e-02,-6.763300299644499358e-02,3.572967648506199939e-02,-1.610511392354999904e-01,-1.283204257488300137e-01,7.240655273199099462e-02,-5.459768325090399999e-02,-6.535279005765899651e-02,-1.718661189079299934e-01,-7.653787732124299470e-02,-1.904627308249499940e-02,6.162192821502699980e-01,-2.040545195341099960e-01,3.406411781907100339e-02,5.318580269813499850e-01,-6.034599244594600342e-02,6.237159371375999850e-01,-1.894301772117600036e-01,3.777553141117099833e-01,2.581245824694599830e-02,-9.428283572196999307e-02,-2.306057363748600098e-01,5.565598011016800184e-01,2.161579132080100052e-01,-2.368667572736699867e-01,-1.487248986959499863e-01,3.468067944049800233e-01,-7.579550892114600424e-02,6.856212615966800206e-01,-3.484306037425999869e-01,5.803925395011899635e-01,-1.757460087537799920e-01,1.284982915967699917e-02,5.691542029380799450e-01,4.430417418479900005e-01,5.238338112831100180e-01,-1.493839323520700091e-01,3.990512490272499768e-01,3.590486347675300172e-01,8.015529811382300640e-02,4.408708214759800015e-01,-4.597394466400099855e-01,2.852427065372499793e-01
8.303479291498699205e-03,7.153228670358699470e-02,1.107861008495100025e-02,-1.332018136978099898e+00,-1.314012408256499898e+00,-8.343215100467199843e-03,4.156356304883999930e-02,1.876214519143100043e-02,9.193088859319699380e-02,-8.850240707397499795e-01,4.236045852303500087e-02,8.684158325195300010e-02,5.179277807474100270e-02,-8.902781009674100021e-01,1.022749021649399931e-01,-8.921477794647200144e-01,-9.722379446029699723e-01,-2.152823098003900024e-02,7.800289988517800088e-02,-7.657487392425500472e-01,4.681433439254800155e-01,-1.191478252410899996e+00,-8.234165310859700160e-01,-7.863539457321200299e-01,-1.121462941169699912e+00,-9.590065479278599980e-01,-1.011389613151600031e+00,-8.237681388855000453e-01,-7.187908291816700324e-01,-8.256502747535700015e-01,-1.026878476142899954e+00,-8.836871385574299742e-01,-9.008269309997599672e-01,-9.909608960151700119e-01,-9.561509490013100354e-01,4.522783756256100185e-01,-8.495826125144999574e-01,2.981149852275800094e-01,-1.048564553260799892e+00,8.252544701099399915e-02,-1.335406675934800065e-02,6.899246573448200581e-02,8.184896409511599469e-02,8.810826390981700562e-02,-6.311972439289099956e-02,8.248405903577800402e-02,-9.200993776321400031e-01,6.985341757535899754e-02,-4.166478663682900152e-02,4.025337472558000035e-02,7.290344685316099693e-02,4.032615199685100210e-02,1.001552343368500020e-01,7.806442677974699540e-02,-6.823204457759900199e-02,9.556443989276899864e-02,1.003525331616400007e-01,5.482733994722400334e-02,-4.426901042461400121e-02,3.612018749117899830e-02,1.352239698171600057e-01,-6.632980704307600561e-02,1.148441955447200014e-01,7.019708305597299747e-02,1.275485754013100104e-01
-2.528862841427299835e-02,-3.842912986874599812e-02,6.917387247085599912e-03,2.265027999877899934e+00,2.022494554519699950e+00,-5.078450590372100143e-02,3.294568508863399831e-02,-2.467806683853299848e-03,-5.183445289731000022e-02,1.698314189910899996e+00,-2.574118971824599852e-02,3.112976811826199952e-02,5.192069336771999721e-02,-3.501356840133699744e-01,1.783912539482100046e+00,1.656965017318700051e+00,5.670612454414399872e-01,-4.553296864032699842e-01,3.283990025520299727e-01,6.698739528656000308e-01,1.201157093048099922e+00,1.585859179496799998e+00,1.321750044822699977e+00,-4.648936390876799996e-01,1.467492938041699890e+00,-4.837678670883199805e-01,1.574129343032800055e+00,-1.232944354414900051e-01,1.526872158050500028e+00,1.864245533943200028e+00,1.133507251739499955e+00,1.113504767417899943e+00,1.224032878875700003e+00,-4.294958710670500057e-01,-2.051852345466599892e-01,1.425862073898300109e+00,1.068989157676700108e+00,1.576842188835100078e+00,-4.370433688163800068e-01,-7.797786593437200375e-02,-4.176912009716000074e-01,1.201934099197399908e+00,8.786873221397399902e-01,-6.398567557334899902e-02,1.382821649312999945e-01,1.781484842300399940e+00,1.481090903282199944e+00,-5.603338405489900059e-02,1.720233678817699952e+00,2.813987493514999993e+00,5.614158511161799758e-01,-1.155695915222200026e-01,1.184465527534499962e+00,-8.443433046340899362e-02,-3.425777554512000056e-01,1.330860972404499964e+00,1.575837373733500080e+00,6.934222579002399800e-02,1.199145317077600081e+00,4.754569754004499965e-02,1.454555392265300118e-01,1.464832901954699951e+00,3.605669736862199937e+00,-4.577416926622399768e-02,1.822479128837600104e+00
-1.394906640052800129e-01,-2.862685322761500117e-01,-2.527566440403499967e-02,-3.048492908477800079e+00,-3.539391756057700178e+00,-2.045797705650299891e-01,3.398024290800100156e-02,-5.913766622543300544e-01,4.103299602866199852e-02,-4.329505920410199771e+00,1.402504146099100013e-01,6.890595704317099834e-02,5.835128948092500184e-02,-2.871166229247999802e+00,-1.107608556747400108e+00,-2.815225362777700191e+00,-1.879217267036400019e+00,-1.764002323150599905e+00,-5.951811075210600155e-01,-1.279401540756200051e+00,-1.508589863777199946e+00,-2.903638601303100142e+00,-2.796626806259200126e+00,-2.576649665832499991e+00,-4.986701011657699856e-01,-6.303755939006799869e-02,-2.237423062324500056e-01,-3.575907707214399878e+00,-2.335379868745799947e-01,-3.584687948226899845e+00,-2.736019194126099729e-01,-7.401149272918700062e-01,-2.274739146232599984e-01,-2.759938538074500070e-01,-2.280230522155799910e+00,-2.389634132385300092e+00,-1.454694390296900064e+00,-2.552970170974699915e+00,-3.385154247283900020e+00,-1.001948475837699970e+00,-3.982281684875500077e-02,-2.031697183847399890e-01,8.472311496734599712e-02,4.665907099843000228e-02,1.481794267892800054e-01,3.979236632585499839e-02,-9.993835687637300236e-01,-8.384891748428300318e-01,-3.452811241149900123e-01,1.288892328739200122e-01,-9.516844749450700247e-01,2.095513939857500119e-01,3.025605529546699854e-02,-1.254714369773900051e+00,-1.230071391910299988e-02,-7.082111239433299676e-01,5.855785310268400018e-02,-4.829677194356900294e-02,-3.388344943523399766e-01,1.422631442546800074e-01,-4.241292178630799714e-02,-1.309399157762499988e-01,-6.097587347030599680e-01,5.256513878703100023e-02,-8.035972714424099994e-01
-4.091545641422300039e-01,-4.471216201782199917e-01,-4.600172936916400168e-01,-5.738242864608800176e-01,-6.742553114891099986e-01,-2.463539093732800001e-01,-4.716734588146199725e-01,-3.072893023490900211e-01,-4.248818159103400216e-01,1.869585365056999904e-01,-4.893426597118399890e-01,-4.319735169410700015e-01,-4.094229638576499797e-01,-2.539333999157000199e-01,5.463941097259500390e-01,-6.496487259864800468e-01,-5.747612118721000529e-01,3.931591510772700082e-01,-3.864364922046700235e-01,-6.495572328567500442e-01,-1.511045098304699963e-01,-3.773494660854300187e-01,-8.421719670295699789e-01,-4.986318051815000207e-01,5.410393476486200504e-01,-4.821943640708900025e-01,-6.472920179367099847e-01,-9.704604744911199399e-02,7.685540914535500256e-01,-4.498740732669799791e-01,4.525668919086500153e-01,-6.855722069740299851e-01,-8.518028259277300451e-01,-3.351022899150800094e-01,5.960932970047000401e-01,-7.428433299064599593e-01,-6.730113625526400467e-01,-4.901984333991999954e-01,-7.254037261009199655e-01,4.139904975891099959e-01,4.226182997226700100e-01,5.646768212318400426e-01,-4.850966930389399856e-01,4.740539789199800236e-01,5.960102677345300304e-01,5.168149992823600075e-02,-6.971455216407800304e-01,4.468739926815000207e-01,-1.346728205680799983e-01,-5.101084113121000518e-01,2.627149224281299933e-01,2.188620269298600096e-01,4.120008349418600169e-01,3.550334274768799925e-01,1.289033442735700030e-01,3.729636967182199947e-01,4.581194519996599768e-01,-5.236256718635600160e-01,2.432586401700999879e-01,3.557396829128299798e-01,4.959610104560899790e-01,1.596881449222599947e-01,5.308287143707299816e-01,4.607763588428500090e-01,2.375217378139500013e-01
-4.525357484817500026e-02,1.065653003752200026e-02,1.189474582672100045e+00,1.041696786880500047e+00,8.618565797805799455e-01,-5.176656320691099683e-02,4.383840560913099815e-01,-2.705850005149800230e-01,9.159585833549499512e-01,1.668625324964500001e-01,7.134128808975199743e-01,1.012929320335399952e+00,1.104644060134899908e+00,9.134052693843799919e-02,1.865533888339999946e-01,3.494616448879199755e-01,2.485685050487499992e-01,2.933128178119699947e-01,2.338411062955899899e-01,2.864272296428699849e-01,1.538299769163100073e-01,3.198047727346400165e-02,3.548849523067499900e-01,3.975064158439600148e-01,3.496515154838599759e-01,1.490998119115800047e-01,1.358646899461699864e-01,9.546773880720099692e-02,3.254990875720999988e-01,3.251860737800599810e-01,4.668118059635200101e-01,1.552235037088399994e-01,1.842599920928500098e-02,-1.209234539419399949e-02,4.816671907901799998e-01,7.588297128677400083e-02,6.285331249237100515e-01,1.248089894652399945e-01,5.891403555870099451e-01,1.451522111892699918e-01,3.402743637561799761e-01,1.843275576829900009e-01,-2.989902198314700055e-01,1.931155174970599908e-01,5.719486624002500033e-03,-1.930775195360200092e-01,6.729341745376600237e-01,3.865660429000900011e-01,1.407627582549999978e+00,1.989939361810700025e-01,4.566242098808300232e-01,1.126717209816000098e+00,2.065668255090699901e-01,4.768869548570399950e-04,8.138269186019899681e-01,1.405357837676999955e+00,2.722887396812400107e-01,7.934981584549000155e-01,6.886155009269699923e-01,1.110872998833700026e-01,1.971733719110499994e-01,4.864118695259099789e-01,9.598623216152199489e-02,8.368559181690199411e-02,7.681559324264499722e-01
5.531595554202800233e-03,5.577164292335500262e-01,6.106759309768700072e-01,1.331720113754299994e+00,1.262975215911900095e+00,-4.626497626304600097e-02,7.601609826088000510e-01,1.082176446914699941e+00,5.142483711242700206e-01,3.534957170486500155e-01,1.424731314182300090e-01,5.316141843795799682e-01,4.846403896808599843e-01,7.085597608238500267e-03,6.384230405092200522e-02,1.090095192193999973e-01,1.436799764633200083e-01,1.572661995887799924e-01,5.903508514165899806e-02,1.557674817740900032e-02,1.610613428056199836e-02,-3.190128132700899982e-02,2.511531114578199886e-01,1.346643418073699972e-01,1.291767060756700003e-01,6.471607834100699848e-03,-5.784735549241300061e-03,6.014763191342400311e-02,5.542566627263999929e-02,2.115708142518999968e-01,7.431440055370300279e-02,3.862169757485400118e-02,1.763409376144400159e-02,8.994218707084700171e-02,2.408598959445999999e-01,3.019764833152300057e-02,1.492170929908799959e+00,8.342622965574300609e-02,1.258727550506600013e+00,-5.792509764432900166e-03,7.900647819042200259e-02,2.304403930902499953e-01,1.213390752673099982e-01,2.990036010742200268e-01,1.494560092687599873e-01,2.632077038288099802e-01,6.381200999021499620e-02,-6.528948992490800352e-02,3.952837288379700276e-01,2.523451149463700194e-01,4.306904077529900010e-01,5.987102910876299783e-02,-2.054543048143400025e-02,7.034829352050999719e-03,3.398685157299000115e-01,4.802345931529999890e-01,6.096302866935700004e-01,9.988250583410300532e-02,-1.848233863711400138e-02,2.184470742940899934e-01,9.952802956104299381e-02,1.373932976275699970e-02,5.436647534370400159e-01,-1.868867278099100027e-01,1.214316487312299964e-01
-1.218341439962399991e-01,-1.439516693353700139e-01,-3.416326269507399815e-02,-6.140520095825199753e+00,-5.248250484466599808e+00,4.031796380877499669e-02,-1.347874850034699867e-01,-3.695953488349900118e-01,-5.339923128485699749e-02,-3.622791767120399964e+00,-1.032460704445799932e-01,-1.158121004700699980e-01,-2.466222196817400014e-01,-3.992759883403799726e-01,-1.258659958839400073e+00,-2.802794575691199830e-01,-2.305786907672900121e-01,-1.946309208869899943e-01,-1.719056367874099989e+00,-2.828937172889700036e-01,-1.521358013153099931e+00,-1.356811970472300011e-01,-2.463565587997400108e+00,-2.736001491546600217e+00,-9.572450518608099923e-01,-1.878419041633599962e+00,-9.611124396324199903e-01,-4.122752696275699957e-02,-5.111030936241099942e-01,-3.762636661529500159e+00,-2.439853906631499925e+00,-1.044456481933599967e+00,5.872187390923500061e-02,-2.898486554622700107e-01,-3.526261091232299805e+00,-3.165862262249000136e-01,-2.355885505676300173e+00,-2.414620518684399975e-01,-2.403797954320900099e-01,-1.135411560535399961e-01,-9.854564070701600231e-01,-1.763945072889299970e-01,1.533592790365199965e-01,-3.855694830417599750e-02,-3.193138837814299968e-01,8.247755467891700054e-02,-3.052387237548799814e-01,-2.269973419606699863e-02,-8.266467452049299780e-01,-8.485403656959500385e-01,-4.742870628833800173e-01,-6.099277734756499703e-01,-1.533101677894600057e+00,-4.080853983759900189e-02,-1.314842551946600047e-01,-2.126846760511399981e-01,-2.450092554092400121e+00,-3.562596440315199953e-01,-7.960874587297399330e-02,-6.766934692859599698e-02,-8.793450593948399785e-01,-4.595992267131799869e-01,-3.669657945632899931e+00,-1.008761450648300029e-01,-2.676569938659699943e+00
-1.672980375587899970e-02,-1.543165929615500018e-02,3.998774588108099937e-01,2.668030738830600157e+00,2.979090929031400048e+00,5.431447550654400214e-02,2.106376588344600065e-01,1.281134635210000039e-01,2.305495440959899889e-01,2.397435426712000162e+00,4.240680634975400043e-01,2.234815508127200034e-01,3.279897198080999887e-02,1.568873047828700074e+00,1.521879076957699972e+00,9.246326088905300056e-01,-3.311281278729399924e-02,1.727060914039600048e+00,-3.794927597045900103e-01,5.219281315803500076e-01,9.387301802635199532e-01,8.063841611146900859e-03,1.956003785133400008e+00,-3.804742395877799832e-01,9.232451915741000104e-01,1.038770914077800089e+00,1.756243467330899977e+00,-1.923011094331699977e-01,2.822743415832499991e+00,1.952756166458099907e+00,1.211355209350599926e+00,-8.876147866249099738e-02,7.545223832130400210e-02,2.055485248565700029e+00,1.368358135223400052e-01,2.344686724245500023e-02,1.346495628356900065e+00,9.026877880096400020e-01,4.077578708529500107e-02,9.871130585670500057e-01,4.963198304176300035e-01,-1.160252019762999937e-01,-1.226088926196099993e-01,1.443754583597199881e-01,6.525644063949600504e-01,-2.136379480361899896e-01,-1.585647463798499912e-01,5.197937488555900432e-01,8.655961155891399583e-01,-1.563323736190800062e-01,9.212078452110300519e-01,1.697056770324699926e+00,4.840524196624800268e-01,-1.908858567476300061e-01,1.637162089347800054e+00,2.381306439638100070e-01,4.907986521720900108e-02,7.200852632522599661e-01,-2.088088542222999930e-02,7.995834350585899752e-01,1.107577085495000002e+00,4.619575664401100179e-02,1.866020679473900046e+00,3.608717024326300177e-02,1.567482590675399967e+00
2.554065547883500181e-03,8.156860619783400101e-02,9.802444279193900378e-02,1.863687634468099930e+00,1.366639614105199962e+00,-5.158261209726300311e-02,8.975576609373099590e-02,-3.448410704731900284e-02,1.456646919250499939e-01,3.550559878349299758e-01,3.372466564178500104e-01,1.563590019941299980e-01,1.535436511039700025e-01,2.934193424880500098e-02,4.816631227731699855e-02,6.149108335375799705e-02,5.746066570281999769e-02,9.882140159606900287e-02,6.595078855752900537e-02,1.425971239805199908e-01,3.132725879550000286e-02,7.470437884330699552e-02,3.505254685878799736e-01,1.369646191597000129e-01,1.030732765793799938e-01,9.925820678472499492e-02,1.022378206253100053e-01,6.009658426046399909e-02,8.987306058406800691e-02,3.270240128040299843e-01,2.875419892370700142e-02,8.268892765045199322e-02,2.903422527015199830e-02,1.414195075631100029e-02,3.052093684673299889e-01,3.667046502232600147e-02,5.357098579406700534e-01,1.555001586675600067e-01,4.248037636280099782e-01,1.162652447819700063e-01,2.494370490312599886e-01,4.003486931324000131e-01,-9.918564930558199447e-03,1.133971452713000039e+00,2.107435017824199897e-01,8.360791206359899919e-01,2.729998230934099768e-01,-2.824098765850099890e-01,8.767759799957299816e-01,6.025422215461699871e-01,-1.201897859573400063e-01,2.860533297061900182e-01,5.195610523223900268e-01,-5.166940018534699891e-02,5.853993296623200004e-01,7.951958775520300282e-01,9.760823845863300097e-01,1.707185655832300086e-01,1.311280578374899863e-01,2.850190699100499936e-01,1.155175328254699929e+00,-3.232655301690100236e-02,1.319221138954199901e+00,2.847576737403900160e-01,8.113673329353300323e-01
3.391359567642199924e+00,1.640331387519800010e+00,2.540542840957599857e+00,3.215513229370099868e+00,3.674411296844500185e+00,9.991176128387500022e-01,1.866474151611299925e+00,2.408649682998699859e+00,2.140991210937500000e+00,8.361815452575699581e+00,1.198578625917399998e-01,2.407478332519500164e+00,3.276983261108400214e+00,-6.649202853441199546e-02,8.963581919670100540e-01,1.845915436744699933e+00,1.079930067062399912e+00,-8.959591388702399517e-02,1.368895173072800064e+00,2.605290889740000004e+00,-5.083841457963000215e-02,-2.314729243516900140e-02,2.970089912414600075e+00,8.611829876899700364e-01,-3.752846270799600065e-02,3.334215164184600066e+00,2.814601898193399787e+00,-8.443140983581499948e-02,3.117144584655799910e+00,2.964598417282100051e+00,-8.800143003463699320e-02,2.633688449859600045e+00,2.628649950027500015e+00,-5.664614960551300066e-02,4.520160675048799703e+00,3.057194948196400031e+00,2.404675722122199932e+00,5.939229130744899665e-01,1.729897737503099941e+00,-8.348319679498700241e-02,2.597906112670900214e+00,3.260380268096899847e+00,1.376419425010700026e+00,-7.931628823280299778e-02,2.285285472869900136e+00,1.920729160308799921e+00,-8.071121573448200581e-02,-5.150826647877700115e-02,4.586337566375699559e+00,1.555106759071400058e+00,2.709675393998599996e-02,3.411345481872599894e+00,1.856449961662300030e+00,-8.399037271738099553e-02,3.030355215072599862e+00,4.596524238586400024e+00,-9.207691997289700614e-02,2.279860734939600064e+00,2.741806507110600144e+00,-4.956165328621899707e-02,1.775484681129499975e+00,2.924288213253000146e-01,2.618143796920799904e+00,-2.296825312078000156e-02,2.504824399948100133e+00
-1.193432137370099982e-01,-7.392326742410700036e-02,-7.799195498228099488e-02,-2.371139526367199934e+00,-2.911602497100799880e+00,1.287550479173700003e-02,-8.108494430780399664e-02,-1.545705348253300082e-01,-6.193219870328899729e-02,-3.109948158264200124e+00,-1.582647264003800014e-01,-8.721004426479299354e-02,-6.026815250515900335e-02,-1.027550548315000062e-01,-1.828769922256499925e+00,-6.153429150581399831e-01,-1.252250194549600071e+00,-2.225344628095599908e-01,-2.418632030487100071e+00,-1.752078890800500055e+00,-2.966235876083400114e-01,-3.232985436916400168e-01,-1.987506270408599951e+00,-3.667143285274500064e-01,-2.046076506376300064e-01,-5.830784440040599481e-01,-1.712899923324600060e+00,-2.408591657877000025e-01,-1.026940822601299930e+00,-2.227624416351300152e+00,-2.255915850400899980e-01,-1.481421470642100058e+00,-1.227362036704999992e+00,-1.877201646566399873e-01,-2.199622869491599797e+00,-1.993389129638700075e+00,-2.232435703277599881e+00,-1.172309994697600111e+00,-1.366412520408599951e+00,-2.824144065380099766e-01,-1.375247597694400081e+00,-5.224363207817099841e-01,-1.242321133613599971e+00,5.222800374031100201e-02,-1.747273325920100095e+00,-1.457238435745199956e+00,-3.974853456020400327e-02,-3.136469423770899684e-02,-5.025551915168799955e-01,2.829148173332199923e-01,8.294828236103099495e-02,-8.311443328857399671e-01,-1.004719972610500056e+00,-9.204887785017500795e-03,3.433857485651999747e-02,-8.463674187660199522e-01,-7.128723710775400346e-02,-9.657978080213099406e-03,1.380585879087400068e-02,1.113463565707200065e-01,-9.376251697540299856e-01,-3.404101431369799813e-01,-1.265612721443200028e+00,-2.520646452903699819e-01,-1.459478497505199979e+00
3.394653275608999765e-02,5.352672934532200222e-02,-8.135496973991399594e-01,-1.904674887657199944e+00,-1.904387712478599948e+00,-5.197082757949800236e-01,-9.983612298965499621e-01,1.560994386673000001e-01,-8.556128740310700032e-01,-1.764793634414699941e+00,-1.007611036300700036e+00,-8.194426894187899491e-01,-9.234428405761699876e-01,1.807957887649500051e-01,-1.127451658248900035e+00,-1.322511553764299963e+00,-1.511647224426299951e+00,2.469489127397500039e-01,3.496368229389200111e-01,-5.700055956840499594e-01,-1.574280738830599935e+00,2.081669270992299869e-01,-1.776340126991299950e+00,-2.674388885497999802e+00,-1.757774949073799942e+00,4.962175339460399986e-02,3.868606090545699816e-01,2.651953399181399829e-01,-9.268434047699000145e-01,-1.762410044670100095e+00,-9.035364389419600073e-01,-1.290708631277099894e-01,-1.682719588279699918e+00,2.839255928993200118e-01,-1.469816923141499920e+00,-1.168231725692699952e+00,-2.527688741683999929e-01,1.928360611200299890e-01,-8.682931065559400530e-01,1.758267283439599871e-01,1.122609376907300061e-01,-8.631678223609899891e-01,-5.146561264991800222e-01,1.704365313053100017e-01,-1.545295238494899914e+00,4.675873219966900085e-01,-1.875681519508400008e+00,1.708031743764900079e-01,-2.098213195800799902e+00,-1.825035452842699968e+00,-1.442365050315900010e+00,4.665632918477100044e-02,-3.054644167423199996e-01,1.582815051078799995e-01,-9.282595515251199636e-01,-1.420526385307300021e+00,-9.646063297986999518e-02,-3.693013191223100122e-01,-1.298148036003099914e+00,1.657191962003700114e-01,-5.285436511039699470e-01,-6.120485067367600340e-01,-9.786909222602799829e-01,1.561433523893399899e-01,-1.023195266723599950e+00
2.756595611572300042e-01,-1.211304739117600032e-01,-3.360944390296899953e-01,2.170586585998499907e-01,3.219526112079599822e-01,6.732336431741700600e-02,-2.739658653736100069e-01,4.429506063461299825e-01,-2.583651840686799761e-01,9.000609815120699797e-02,1.650694757700000084e-02,-2.514660358429000042e-01,-2.697907686233499969e-01,3.357093632221200274e-01,2.993551492691000071e-01,2.975382208824199903e-01,2.889616787433599843e-01,3.217620253562900046e-01,3.200412988662699743e-01,2.934854924678800270e-01,3.066750466823600085e-01,2.901957035064700041e-01,2.542604207992599785e-01,3.031383752822899846e-01,3.390996456146200266e-01,3.156889677047700071e-01,3.367490172386199965e-01,3.039465546608000057e-01,3.108685314655300069e-01,3.267188966274299777e-01,2.851763069629700276e-01,3.168115019798299903e-01,3.395322263240799776e-01,2.385643124580399954e-01,2.887127995491000076e-01,3.118987083435100227e-01,2.322366386652000014e-01,3.112848997116099969e-01,2.202410548925400058e-01,-2.387093752622599929e-01,-1.201697215437900063e-01,-2.724882066249800228e-01,-2.386626452207600002e-01,5.913678184151600209e-02,-1.805277317762400136e-01,-1.794810593128199905e-01,-2.459622621536300124e-01,-2.229305058717699906e-01,-1.176222190260900052e-01,-1.790928095579099877e-01,-6.757920980453499538e-02,-2.101108729839299971e-01,4.019327834248499765e-02,-3.256622254848500209e-01,-2.397628277540199970e-01,-2.027748078107800001e-01,-1.876303926110299905e-02,-2.021165490150499955e-01,-1.848760545253800014e-01,-1.531028598547000130e-01,-2.618853189051199848e-02,-2.871150970458999918e-01,7.698220014572100256e-01,-7.685782015323600058e-02,6.011641621589699502e-01
-1.732168942689900071e-01,-1.333527266979200043e-01,2.083253711462000057e-01,5.829325914382900153e-01,7.972801923751799968e-01,3.875484764575999885e-01,1.052077785134299948e-01,2.047867774963400000e-01,3.491748869419099982e-02,2.464449256658599874e-01,-6.219034269452099889e-02,5.153696611523599785e-02,4.772005230188400282e-02,5.780532360076899856e-01,1.816416680812799889e-01,-4.783330112695700215e-02,5.199890211224599684e-02,7.545337080955499820e-01,1.685315221548099873e-01,-2.029264122247700086e-01,3.267506062984499859e-01,5.141054391860999662e-01,3.010970652103400202e-01,6.526911258697500051e-02,4.704232513904599983e-02,5.556087940931300068e-02,-5.073891580104800125e-02,3.935649245977400346e-02,4.058279842138300120e-02,8.884508609771699650e-01,-1.137391850352300060e-01,-2.536180242896100140e-02,1.897270530462299987e-01,2.487681573256900116e-03,-1.000192388892199996e-01,2.135463953018200134e-01,-3.966922685503999901e-02,1.352226138114900056e-01,-1.884213387966200137e-01,7.872371673583999918e-01,-3.690538406372099733e-01,6.367775797843899799e-01,-3.038580715656299946e-01,5.911812782287599877e-01,7.602858543396000535e-01,6.863930821418799955e-01,9.132370948791499465e-01,-3.675121963024099991e-01,6.286056637764000365e-01,-2.841459810733800162e-01,-1.014442667365099970e-01,-1.430605053901700119e-01,3.930261433124500048e-01,7.512153983116099942e-01,5.446195006370500025e-01,5.462593436241099942e-01,-2.492336779832799998e-01,7.875596880912799636e-01,-2.236370593309399968e-01,8.419464826583900052e-01,4.376755058765400275e-01,-4.112664759159099792e-01,1.127699166536299952e-01,-6.164517998695400181e-01,3.379220068454700243e-01
1.628832370042800071e-01,2.874328196048699935e-01,2.824761569500000014e-01,3.782006800174699812e-01,5.315572619438200253e-01,1.703404039144499893e-01,3.665647506713899939e-01,-3.002876043319699928e-01,2.978914380073500179e-01,-3.711271584033999926e-01,2.819099426269500164e-01,3.733628094196300151e-01,2.197983115911499863e-01,6.792913675308199783e-01,-3.184914886951399904e-01,8.130915760993999708e-01,-7.858695983886699876e-01,-4.034174382686600002e-01,-2.102837711572599910e-01,2.290729284286500134e-01,4.708993807435000317e-02,3.652902841567999825e-01,-4.572967588901499791e-01,7.561138272285500284e-01,-5.882722139358500524e-01,-4.559839367866500015e-01,-2.777434587478599948e-01,5.615791678428599942e-01,-4.497469067573500179e-01,-4.748576581478100023e-01,-4.537911415100099877e-01,-9.980104863643600444e-02,-1.548676192760500003e-01,7.340722531080200175e-02,1.099911406636199934e-01,5.113567709922800519e-01,1.073859930038500110e+00,2.549561262130700112e-01,7.990353703498800364e-01,6.901159286499000123e-01,-2.163773775100699959e-01,-3.479574024677299926e-01,-2.571746408939399875e-01,-1.493432652205200009e-02,-2.720900475978900168e-01,-2.994934916496300170e-01,1.395779848098800124e-01,3.253054022788999800e-01,1.029127091169400043e-01,-1.760166138410599879e-01,-3.993110656738300124e-01,-3.978364169597600197e-01,-2.854373157024400198e-01,5.072797536850000011e-01,-4.901188611984300114e-01,-1.970757842063899923e-01,-3.846239745616900074e-01,-2.349471896886800026e-01,5.412234067916900093e-01,-3.751087486743899801e-01,-4.380660653114299974e-01,-1.863689571618999952e-01,-3.138259425759300225e-02,-9.788329899311100368e-02,5.869975090026899878e-01
-7.438248395919799805e-02,-3.911315649747799938e-02,2.249171771109099993e-02,3.559103906154599817e-01,1.710938960313800050e-01,-4.794713575392999666e-03,-3.843610361218500332e-02,-5.690042674541499756e-02,-5.859668925404500073e-02,-2.579621598124499926e-02,-6.724409759044600032e-02,-5.370079353451699677e-02,-5.398247390985499994e-02,-1.182023361325300059e-01,-2.839584089815599954e-02,-4.747597128152800106e-02,1.457894742488899942e-01,5.405680090189000225e-02,-3.497090190648999980e-02,9.984423965215699637e-02,-1.477995235472900036e-02,-6.554934382438699914e-02,3.279450833797499798e-01,3.439389467239399867e-01,1.029165983200100026e-01,-6.365581601858100180e-02,-6.279253959655800577e-02,-1.084914728999099992e-01,1.054597124457399976e-01,3.609543442726099727e-01,3.052242100238800049e-01,-5.806172266602500215e-02,-9.373777359724000391e-02,-1.674221307039300000e-01,2.652314901351899845e-01,-7.219018787145599358e-02,5.255688428878799723e-01,-4.173681512474999855e-02,1.656689681112799920e-02,-1.585146598517899949e-02,-8.694498240947699796e-02,9.497756510973000277e-02,9.386405348777800486e-03,-6.003324408084200099e-03,2.226147204637499988e-01,2.673667371273000248e-01,3.767659962177299926e-01,1.904351413250000014e-01,-8.678721636533699713e-02,3.946960270404800131e-01,3.392826020717599755e-01,2.259085327386899933e-01,2.655508518219000247e-01,3.969721496105200198e-01,-2.923064492642899956e-02,-2.197320312261600017e-01,3.021164834499400209e-01,6.815761327743499742e-02,1.447359621524799966e-01,4.741114675998699957e-01,2.874231338500999877e-01,8.266529440879799573e-02,3.490665853023500187e-01,5.362302660942099841e-01,2.739963233470900095e-01
-1.092854142189000066e-01,2.304680272936800167e-02,1.609376519918399862e-01,1.731890439987199937e+00,1.727565407753000049e+00,6.147672235965700310e-02,3.372136950492899965e-01,7.484061121940599470e-01,2.581546008586900198e-01,3.690708279609700160e-01,8.111816644668599918e-02,3.271541297435799911e-01,4.994253814220400156e-01,-1.343330442905399935e-01,-9.608260542154299644e-02,-3.204847918823399994e-03,5.083413794636700012e-02,-4.272035509347899690e-02,-9.834304451942399439e-02,-1.077725663781199938e-01,-8.488345146179200607e-02,-7.627109438180899870e-02,2.305680662393599922e-01,2.766010463237800199e-01,-3.869996871799200218e-04,-1.596866548061399993e-01,-1.468292772769899945e-01,-9.657787531614299426e-02,-9.007607400417300125e-02,6.613202095031700534e-01,-9.702138602733599571e-02,-1.513596624135999935e-01,-9.590516239404700549e-02,-1.555313169956200059e-01,-2.090422213077499924e-01,-1.294275075197199865e-01,-3.037102222442599753e-01,-2.215255796909300079e-01,-4.586884006857899765e-02,4.355217814445500046e-01,1.000296711921700110e+00,-4.103498533368100248e-02,5.664759278297399891e-01,4.009666144847899849e-01,8.260067701339699475e-01,3.332140445709200205e-01,-2.420161664485900171e-02,-1.619737222790700037e-02,4.203859865665400264e-01,1.287234663963300108e+00,4.953692555427600119e-01,3.997322916984599739e-02,1.018263697624200104e+00,1.656541824340800051e-01,3.187712728977200038e-01,5.666296482086200514e-01,1.035652995109600072e+00,1.665321290493000095e-01,-1.967920213937799923e-01,8.034005165100099877e-01,-2.118063345551500151e-02,6.713662296533599860e-02,7.415814995765700468e-01,8.384553194046000524e-01,8.276806026697200447e-02
-5.196253061294600073e-01,-1.469148602336600024e-02,-1.032681986689600040e-01,-8.127432465553300345e-01,-8.901612162590000210e-01,-5.516948178410500253e-02,-9.481622278690300665e-02,-3.424141928553599973e-02,-2.071886658668500025e-01,-8.414547443389900350e-01,-2.038470655679699983e-01,-1.645189225673699962e-01,-1.622001826763199983e-01,-4.666565060615500138e-01,-3.180976510047899830e-01,-1.543475091457399972e-01,-4.380307495594000233e-01,-2.624652087688399971e-01,-5.888332128524800257e-01,-2.323956191539799931e-01,-3.156675696373000273e-01,-7.711657322943200193e-03,-3.109441399574299769e-01,-2.883023619651799985e-01,-3.531582355499299775e-01,-2.494872212410000067e-01,-3.099326789379099889e-01,-3.190855085849800266e-01,-2.736474573612199812e-01,-9.168508648872399913e-01,-2.158087342977499934e-01,-3.149458169937099927e-01,-4.953655600547799964e-01,-8.152133822441099964e-01,-4.642868340015400275e-01,-3.460161685943600185e-01,-9.087930917739900361e-01,-5.120142698288000505e-01,-7.711938023567199707e-01,-5.045608803629900163e-02,-3.356548026204100171e-02,-5.036909878253899991e-02,-7.329808175563799766e-02,-5.754943564534199807e-02,-6.927807629108399812e-02,-7.258836925029800435e-02,-5.494824424386000189e-02,-3.801887109875699833e-02,-6.723560392856600676e-02,-4.504293948411899895e-02,-6.215963512659099938e-02,-4.880695417523400054e-02,-4.955648258328400335e-02,-3.831253573298500081e-02,-4.936377704143499884e-02,-1.127246543765099973e-01,-4.192479327321099736e-02,-5.653558298945399879e-02,-3.744237869978000316e-02,-2.865106798708400015e-02,-4.236736893653900160e-02,-4.735314846038800318e-02,-3.957144170999499916e-02,-4.977880045771600204e-02,-1.291171554475999995e-02
6.327208131551699533e-02,-6.223808974027599666e-02,-8.200930953025800108e-01,-1.216313481330900004e+00,-1.070505142211900074e+00,1.216935440897899956e-01,-9.103516936302199491e-01,2.470114827156099924e-01,-7.345271706581100180e-01,-2.575335502624500061e-01,-9.532631635665900216e-01,-8.278660178184500396e-01,-8.022732734680200206e-01,4.251872003078500245e-02,-1.171275973320000038e-02,5.096309818327400022e-03,-7.490553893148899946e-03,-2.094139754772199880e-01,-8.846666663885099230e-03,-3.878186689689800109e-03,-5.917659495025900072e-03,2.784810401499299842e-02,-6.224598363041899951e-02,1.752673462033299892e-02,9.853566298261300007e-04,3.089503757655600105e-02,-6.859386339783699743e-03,5.995015427470200275e-02,-3.353870660066599757e-02,-1.138230878859800010e-02,-2.695911526679999892e-01,1.332139247097099922e-03,3.563455119728999726e-02,-2.831548154354099900e-01,-1.056763380765900068e-01,2.953300066292300144e-02,-6.639324426650999866e-01,4.120583832263900043e-02,-8.142314553260799892e-01,3.249101340770699925e-02,-1.978403776884100074e-01,-1.610390096902800106e-01,-1.990575790405300083e-01,-5.078973174095200438e-01,-8.142381161451299476e-02,-8.368419110774999448e-02,-1.221787407994300023e-01,1.374965757131600130e-01,-2.907736003398900260e-01,-4.819662272930099745e-01,-1.478544771671299884e-01,-1.822031917981799948e-03,-4.307889938354499959e-01,-4.710213243961299812e-01,-1.651646494865399994e-01,-4.424127042293499734e-01,-5.318819284439100237e-01,9.062236640602400108e-04,-2.030661702156099854e-02,-5.206118226051299480e-01,-7.185125946998599522e-01,4.109105095267300001e-02,-6.187599301338200242e-01,2.986473143100700223e-01,-5.405021905899000112e-01
-2.201986074447599862e+00,-1.804811358451799963e+00,-2.332058906555200206e+00,-3.572142601013200025e+00,-4.117280006408700288e+00,-1.787441849708599984e+00,-1.580062150955199973e+00,-2.727588891982999808e+00,-1.823719859123200004e+00,-9.494470596313499655e+00,-2.988216578960399827e-01,-1.675613641738900039e+00,-2.099175453186000073e+00,-5.353011935949299888e-02,-2.038991928100600148e+00,-1.481655359268200023e+00,-2.375070810317999825e+00,1.548086293041700014e-03,-2.642213344573999922e+00,-2.317807435989399867e+00,-2.019998431205700107e-01,-5.047928541898699661e-03,-3.237523794174200109e+00,-6.988654732704200345e-01,-3.757509887218499767e-01,-2.565370082855200184e+00,-3.385626792907700189e+00,-4.551639035344100248e-02,-1.374249577522300036e+00,-2.654152631759600034e+00,-1.927197575569200017e-01,-3.569500446319600062e+00,-7.300902605056800443e-01,-8.764268457889599906e-02,-3.443147897720300055e+00,-2.638463020324699926e+00,-4.883861064910900218e+00,-2.412042617797900135e-01,-2.965949535369900136e+00,2.372396551072599932e-02,-1.627604722976699891e+00,-4.684656858444199989e-02,-2.225925445556600213e+00,6.754572689533200336e-02,-3.468858957290600120e+00,-1.676426887512199926e+00,3.693064674735099806e-02,3.757041692733800037e-02,-3.819743394851700113e+00,4.548988044261900177e-01,-1.528436690568900080e-01,-4.480600953102100159e-01,-9.796986579894999547e-01,4.033059254288699769e-02,-3.677235171198799807e-02,7.472426444292100400e-02,-1.340974029153600006e-02,-1.666285037994400087e+00,-4.697924852371199861e-02,4.623630270361900330e-02,-2.068078756332400125e+00,-1.612648516893399886e-01,-2.722429513931300171e+00,-5.731408298015600034e-02,-2.986394643783599978e+00
1.077894568443300005e-01,-2.959976494312300255e-01,-5.597229003906200040e-01,-1.098595499992399915e+00,-1.046528697013900056e+00,-7.037991285324100010e-01,-6.788571476936300364e-01,-3.525003790855399943e-01,-5.564026236534099779e-01,-2.536474466323899724e-01,-1.377098262310000043e-01,-5.782306194305399938e-01,-6.093981266021699650e-01,3.614037856459600268e-02,1.260586977004999887e-01,1.237126663327200032e-01,1.423804163932800015e-01,3.354882448911700177e-02,5.474027246236799760e-02,9.425304085016300570e-02,8.041054010391200657e-02,1.388677023351199934e-02,8.389092981815300665e-02,1.487950980663300116e-01,1.610554456710799887e-01,1.331418454647100014e-01,-1.068411692977000033e-01,1.846467144787300105e-02,1.025613397359800005e-01,7.996276766061799490e-02,5.974679440259900165e-02,1.064035743475000018e-01,4.252308607101400184e-02,-4.838714376092000113e-02,1.729644238948800095e-01,5.890042707324000260e-02,1.457663476467100094e-01,1.236482560634599992e-01,6.685042381286600277e-02,-2.789945304393799952e-01,-1.026527583599100013e-01,7.779121398925800124e-01,-8.185434937477099604e-01,-2.280637808144099846e-02,-6.921559572219799783e-01,4.743405580520599907e-01,6.357580423355099764e-02,7.815966010093700067e-02,-8.843311667442299573e-01,-4.202139675617200254e-01,-4.779028892517099836e-01,2.238278090953799843e-02,-6.795387268066399589e-01,8.536440134048499384e-02,-8.619047999382000169e-01,-4.587463736534099779e-01,-2.725575268268600193e-01,-6.197571158409099779e-01,-3.345578014850599802e-01,-6.320387721061699882e-01,-6.607806086540199964e-01,1.328408271074300040e-01,-6.980003714561500150e-01,-5.967388153076199631e-01,-4.172811284661299969e-02
3.643273115158099928e-01,1.953962892293900078e-01,2.673621848225600159e-02,2.444202601909599981e-01,1.654416024684899900e-01,2.272878736257600008e-01,-9.505058079957999506e-02,-1.181135177612300025e+00,-1.674437373876599966e-01,9.582184255123099570e-02,-5.558751523494699642e-03,-4.706871882080999880e-02,-6.699486076831799586e-02,1.675175428390499877e-01,1.651467755436900053e-02,-2.069142162799799955e-01,-1.612390875816299973e-01,-2.249758690595599908e-01,-4.125171806663299919e-03,-1.212854608893400021e-01,5.698056146502499669e-02,1.936512440443000083e-01,-1.089384183287600005e-01,-1.673258543014499999e-01,-1.415548175573299872e-01,-9.710434079170200683e-02,-3.354167938232399671e-02,3.392225503921499907e-01,-1.756185442209199921e-01,-1.263443082570999965e-01,-1.287694573402400067e-01,-7.807622849941299459e-02,1.760846674442299864e-01,2.690072059631299917e-01,-2.638136744499199882e-01,1.383981853723499911e-01,2.113333195447900104e-01,2.708988189697300042e-01,-7.607556134462399589e-02,2.611142098903699860e-01,-1.039429977536199950e-01,-3.553295135498000246e-01,-3.139999508857699850e-01,-4.093575775623299884e-01,-7.572742551565199431e-02,-3.458239436149599944e-01,3.958632424473799982e-02,3.860328346490900231e-02,-1.419023610651500011e-02,-3.426986336708099934e-01,-1.475938111543700082e-01,1.185875684022899973e-01,2.666442692279800131e-01,2.511407732963599759e-01,-2.634759843349500086e-01,-2.030512988567400035e-01,-3.711524903774299777e-01,-3.075598478317300155e-01,3.564852178096800106e-01,3.555311858654000012e-01,-5.010092258453400227e-01,-8.137775957584400532e-02,-5.692230165004699693e-02,4.839749634265900213e-01,6.369691342115399446e-02
-3.306359529495200178e+00,-2.081126213073699827e+00,-2.904669761657700189e+00,-3.570386409759500168e+00,-4.345606803894000336e+00,-2.662773847580000020e+00,-1.670404672622699982e+00,-2.802705287933299871e+00,-1.982529640197800092e+00,-8.937414169311500345e+00,-1.603687405586199932e-01,-2.386836528778100153e+00,-3.044305086135899785e+00,-2.530987188220000170e-02,-8.365988731384299548e-01,-5.711921453475999888e-01,-1.779330015182500002e+00,-3.112966008484399985e-02,-2.205264091491700107e+00,-2.552748918533299882e+00,-1.925482787191900094e-02,-3.417580947279900278e-02,-2.520563125610399968e+00,-1.214530691504499965e-01,-5.047597736120199713e-02,-3.142826795577999821e+00,-3.261360883712800085e+00,-2.745015360414999883e-02,-2.762159109115600142e+00,-2.198873758316000071e+00,-9.688314795494100407e-02,-2.608971595764200124e+00,-8.044703602790800323e-01,-4.483843967318500157e-02,-2.368201017379799822e+00,-1.773744702339199897e+00,-2.733362674713100127e+00,-2.628900408744799799e-01,-1.899327993392899927e+00,1.793831400573300122e-02,-2.249302864074699926e+00,-1.840258091688199982e-01,-2.577809810638400201e+00,3.058211877942099838e-02,-2.791231155395499819e+00,-3.906919956207299816e+00,4.363552108406999752e-02,2.832653373479800119e-02,-4.301124572753900033e+00,-2.070599198341399882e-01,-6.838646531104999871e-02,-7.438575029373200032e-01,-8.357977271080000436e-01,5.029624328017200108e-02,-5.763585865497600214e-02,-1.029009580612199937e+00,3.783222287893300145e-02,-2.513580322265600131e+00,-1.437151283025699944e-01,1.698469370603599912e-02,-2.335493564605700012e+00,-1.824952811002699959e-01,-1.874325633048999906e+00,-2.424073964357400038e-02,-4.651188850402800057e+00
3.823467195033999899e-01,4.313275218009899881e-01,2.886445224285100197e-01,7.480565309524499495e-01,1.047374725341799984e+00,3.321759104728699841e-01,3.673141300678299803e-01,4.055833816528299773e-01,3.860116600990299851e-01,3.224854171276099746e-01,4.152521193027500224e-01,3.904654979705800000e-01,3.799297511577600095e-01,2.819273173809099808e-01,-3.820428550243399890e-01,-3.487470448017099822e-01,-5.919513106346100395e-01,-2.380934208631499960e-01,-1.636666953563699900e-01,-5.418707728385899758e-01,-3.329591453075400054e-01,8.155634999275199748e-01,-1.706170141696899956e-01,-5.739217996597300031e-01,-5.269158482551600242e-01,-2.751154303550700231e-01,-1.522453874349599945e-01,-4.796956479549400187e-01,-1.369138062000299916e-01,-3.503885865211500139e-01,-4.447733163833599845e-01,-4.689906537532799735e-01,7.222005724906900292e-01,4.428409636020699813e-01,-4.707172811031299919e-01,-2.807419896125800118e-01,-7.684408128261599469e-02,-1.630085408687599879e-01,6.310853362083399531e-01,6.620506197214100219e-02,6.619014739990199958e-01,3.227444887161299847e-01,-5.846416950225800102e-01,4.251795113086699884e-01,-4.448542594909700165e-01,6.928869485855100319e-01,-1.337574273347900133e-01,4.120826125145000129e-01,2.438246905803700126e-01,-6.100351810455300061e-01,-5.182223320007299794e-01,6.173958182334899902e-01,4.859692230820700232e-02,-2.521604895591699758e-01,-2.208237946033499988e-01,4.062564969062800180e-01,-2.525354325771300146e-01,5.932785272598299908e-01,-3.967826962470999974e-01,-4.994958043098399747e-01,-6.297612786292999809e-01,-4.526651203632400255e-01,5.565371513366700329e-01,5.938555002212499989e-01,2.165116518735900053e-01
4.423880949616400271e-02,-8.836439251899699809e-02,-7.543709278106699445e-01,-1.418744444847100050e+00,-1.467442154884299965e+00,2.687520720064600147e-02,-5.473459959030200217e-01,-2.674235105514500277e-01,-3.931360840797399891e-01,-1.400162279605899895e-01,-2.061238437891000086e-01,-4.626063704490699924e-01,-3.462677597999599954e-01,8.688408881425900565e-02,8.097127825021699365e-02,9.012465924024599950e-02,1.083996891975400056e-01,3.320125490426999865e-02,1.052189394831700014e-01,1.104045510292099991e-01,5.474275723099700230e-02,3.095030784606899940e-02,8.551008999347700645e-02,1.109724044799799969e-01,1.137658804655100053e-01,6.975700706243499749e-02,9.802318364381799876e-02,6.477547436952600657e-02,9.735909849405299799e-02,9.204822033643700330e-02,6.267690658569299855e-02,9.317931532859799471e-02,6.068363040685700177e-02,-1.897339336574100158e-02,1.241042092442500022e-01,5.383265763521200009e-02,6.582261621952099906e-02,6.303508579731000039e-02,4.965126048773500257e-03,-2.106589525937999918e-01,-2.419774681329699972e-01,-3.121319785714099862e-02,-7.938945293426500349e-01,-3.237116038799299766e-01,-8.395218104124099745e-02,1.828625565394799944e-03,-2.395348250865899919e-01,-4.731615185737599871e-01,-4.379529654979700259e-01,-6.420788764953599959e-01,1.064861640334100051e-01,3.179540112614599734e-02,-2.107479274272900105e-01,-5.363147258758500513e-01,-9.200417995452900288e-02,-4.195796847343399860e-01,-1.243939697742500045e-01,-9.111664891242999831e-01,-6.840273141860999662e-01,-3.474351763725300191e-01,-7.146596908569300410e-01,-5.994602441787699743e-01,-7.594629526138300113e-01,-6.593827605247499779e-01,-8.245085924863800042e-02
2.782172858715100117e-01,2.759539186954499956e-01,2.284857481718099992e-01,-7.245125621557199636e-02,-2.087914794683499997e-01,1.853940784931200070e-01,2.888824045658099915e-01,2.630950510501899875e-01,3.055706620216400160e-01,7.858879119157799464e-02,2.770508527755700112e-01,2.313074469566299973e-01,2.552387416362800199e-01,2.525120079517400029e-01,7.587470412254300189e-01,-8.451876640319799794e-01,4.083698391914399872e-01,-7.648167759180099501e-02,-9.432479739189100210e-01,-5.295456051826500365e-01,-7.409470081329300184e-01,3.025490790605499941e-02,6.530227661132800288e-01,-9.596499204635600133e-01,3.374131023883800151e-01,-5.541529059410099656e-01,5.179608464241000076e-01,4.589937329292300139e-01,-9.224289059639000365e-01,3.430015742778799726e-01,-5.683510899543799955e-01,-4.271193742752100175e-01,-7.572351694107100073e-01,2.455458194017400009e-01,-7.239923477172900412e-01,8.649614453315700446e-01,3.321097195148500214e-01,3.215208053588899939e-01,6.114144921302799851e-01,-1.242614611983299949e-01,-9.046499617397800799e-03,-2.459503114223499931e-01,4.338953495025599794e-01,2.463599741458900039e-01,-6.749276518821699655e-01,3.365471959114100242e-01,-7.305459976196300165e-01,2.475381344556799867e-01,7.626835703849800252e-01,-2.989942729473100136e-01,4.713407158851600220e-01,1.922654360532800033e-01,-6.713718771934500396e-01,2.768335640430499844e-01,-9.051296859979600373e-02,-5.337757468223599533e-01,-5.307498574256900303e-01,3.161263465881299917e-01,-7.424563765525800108e-01,-7.498685717582700416e-01,-3.329435884952500202e-01,-6.302012205123900257e-01,-3.305927813053100017e-01,3.065629005432100040e-01,5.495014041662200227e-02
4.282257333397899990e-02,4.857524484396000264e-02,4.230726882815399881e-02,6.628682136535600122e+00,7.561749458312999828e+00,3.439531847834600281e-02,5.302667617797900135e-02,-8.502021431922900108e-02,1.254524569958400011e-02,1.082951259612999984e+01,4.473435133695600335e-02,3.997545316815399874e-02,3.749308362603200051e-02,2.785809755325300063e+00,2.862254142761199827e+00,1.475232720375099893e+00,2.239708900451700124e+00,8.652995228767399460e-01,2.939096212387100060e+00,2.639573335647599883e+00,2.723645687103299906e+00,1.648472189903299912e+00,2.300508022308299871e+00,2.125584363937400134e+00,9.839193224906900292e-01,1.014142155647300036e+00,3.517067909240700008e+00,3.614131689071700126e+00,2.102217674255399960e+00,1.179219532012900018e+01,1.542221188545199961e+00,2.035645961761499922e+00,2.209779977798500106e+00,2.918058633804299973e+00,2.816666603088399778e+00,3.094461441039999983e+00,6.422015190124500172e+00,3.519356966018699850e+00,5.808812618255600135e+00,1.892106533050499917e-01,9.957832284271699724e-03,1.405543740838799925e-02,5.233374238014199681e-02,6.414028257131600130e-02,6.264828890562100516e-02,4.285645484924299753e-02,1.042827963829000004e-01,9.604083746671700228e-02,1.435818970203399936e-01,8.479325473308599315e-02,9.593327529728400485e-03,6.260320544242900520e-02,4.639545828103999736e-02,1.603434830904000019e-01,1.102509628981400078e-02,3.033568337559700012e-02,3.887767344713199957e-02,5.313763767480900180e-02,1.085916087031399968e-01,1.249027326703100044e-01,1.323032826185200073e-01,3.739413321018200120e-01,4.324962496757500108e-01,1.205990687012700041e-01,1.598467379808400091e-01
-1.220186427235600037e-02,8.972665295004799563e-03,-2.535175718367100109e-02,3.299981117248500073e+00,3.853080511093100124e+00,2.875031344592600055e-02,-2.616407722234699931e-02,3.804834932088899807e-02,-2.344422973692400144e-02,2.224662542343100124e+00,1.451487001031600069e-02,-7.087415084242799923e-03,-1.588370651006699996e-02,1.351003050804099881e-01,4.520774185657500110e-01,2.040737867355300050e+00,2.440794229507400104e+00,1.533563613891600008e+00,1.192494750022899952e+00,2.706440687179600069e+00,9.784424901008600406e-01,2.097983360290499810e+00,2.616848707199099788e+00,6.786019206047100294e-01,2.097584247589099782e+00,1.753697991371200082e+00,-1.921710520982700121e-01,-3.418944031000099859e-02,1.865885734558099918e+00,3.087605714797999834e+00,-1.747937202453599959e-01,-5.486327409744300165e-02,4.693113565444900215e-01,2.176143169403100153e+00,1.313393712043799955e+00,7.138195037841800206e-01,8.171100020408600395e-01,2.133759498596199844e+00,8.673075586557400449e-03,2.815132588148100065e-02,1.927733063697800064e+00,8.249061703681900282e-01,-7.147463504225000028e-03,1.470030248165100084e-01,1.516382694244400031e-01,6.072452664375299625e-01,2.448781579732899893e-01,1.704618185758600135e-01,3.463565587997400108e+00,3.454934835433999929e+00,-4.435651749372500341e-02,1.911280602216700042e-01,4.906195029616400305e-02,5.121184587478599948e-01,1.508274197578399978e+00,1.330088496208200022e+00,-4.334073886275299770e-02,1.462716422975099927e-02,3.811917304992700206e-01,2.205406904220600151e+00,1.990567684173599972e+00,9.480016827583299666e-01,1.267074942588799935e+00,4.804347828030600120e-02,2.425862312316899860e+00
3.479865193367000231e-02,2.561613731086299917e-02,1.480996259488200073e-03,-4.483675479888900028e+00,-5.069739341735799876e+00,3.515768796205499813e-02,1.744303479790700051e-02,-6.884167343378100323e-02,3.230132907628999878e-02,-3.837347030639600032e+00,8.092416450381299808e-03,2.973943203687700113e-02,-1.369343698024699969e-02,-5.028278231620799676e-01,-2.244330406188999927e+00,-7.146691679954499943e-01,-2.850339889526400050e+00,-2.314486265182500002e+00,-3.097182989120499830e+00,-1.464682579040500032e+00,-6.961265802383399537e-01,-4.562938213348399774e-01,-4.094334602355999664e+00,-3.588097810745200178e+00,-3.446310520172100045e+00,-2.809583663940399934e+00,-3.327826738357499980e+00,-6.670452356338499866e-01,-4.044854164123499629e+00,-5.228752613067600308e+00,-2.706819534301800001e+00,-2.877912998199500194e+00,-1.127992630004899910e+00,-1.449967384338400000e+00,-3.348442077636700098e+00,-2.711477279663100148e+00,-6.469785213470499841e+00,-1.721713542938200003e+00,-1.856246471404999987e+00,-3.828794509172400024e-02,-4.639320075511900177e-01,-7.681909482926099937e-03,-1.816689372062699981e+00,2.277465164661399838e-02,-7.966122627258299671e-01,-1.940234661102300029e+00,3.446310758590700324e-02,3.557883575558699885e-02,-3.501885890960700021e+00,-4.067128002643600193e-01,-5.454962253570599939e-01,-6.778386831283600422e-01,-1.155169010162399923e+00,8.211456239223499307e-03,6.631907075643500571e-02,-7.474172711372399913e-01,-2.030002623796499928e-01,-7.026914507150699984e-02,1.735284365713600160e-02,-4.395296424627299914e-02,-1.928107500076299941e+00,-1.285798698663699891e-01,-4.898932456970199745e+00,-7.480678707361200497e-02,-2.518232583999600038e+00
2.159827053546899966e-01,2.003999054431900018e-01,1.822674572467800069e-01,1.246930509805699999e-01,9.727240353822699803e-02,2.363840937614400117e-01,2.047997415065800075e-01,1.758385151624700105e-01,2.327398806810400123e-01,4.357255995273599802e-02,2.824478745460500262e-01,2.193092405796099875e-01,1.970954984426500078e-01,2.485355585813500134e-01,2.505639791488600276e-01,2.113623023033099901e-01,2.028282433748199998e-01,2.323125004768399893e-01,2.497601956129099909e-01,1.985630691051500085e-01,2.509988248348200002e-01,2.341401427984199923e-01,1.694761514663699897e-01,1.557827889919299880e-01,2.341669946908999933e-01,2.281506061554000042e-01,2.294347286224399929e-01,2.347792387008700021e-01,2.221405953168900105e-01,2.025064378976799973e-01,1.227006688714000066e-01,2.369854897260700033e-01,2.557640075683599856e-01,2.518149316310899777e-01,8.310787379741700620e-02,2.253201752901100030e-01,-4.696275889873500198e-01,2.451683282852200052e-01,1.179959848523099986e-01,-2.364933639764799922e-01,-1.731077581644100138e-01,-2.494274526834500127e-01,-2.009472697973299915e-01,-2.056015431881000055e-01,-1.902737021446199994e-01,-2.480123043060299959e-01,-2.507281601429000029e-01,-2.826693952083599859e-01,-2.606156468391400138e-01,-2.473803311586399989e-01,-1.368386000394800073e-01,-2.698496580123900257e-01,-1.959594935178800013e-01,-2.382467240095099970e-01,-2.393771708011599997e-01,-2.535260915756200051e-01,-2.378777712583499959e-01,-2.301710993051500065e-01,-2.065269500017199999e-01,-3.410650491714499744e-01,-2.420571446418799955e-01,-1.643664240837099944e-01,-2.109256684780100033e-01,-1.834206283092499890e-01,-2.481109648942899926e-01
-5.029496178031000325e-02,-3.911426663398699932e-01,3.489772602915799937e-02,-5.549470186233500524e-01,-4.723066985607100032e-01,-3.596562445163700161e-01,3.699161112308499977e-01,-2.756285071373000273e-01,3.354843854904199785e-01,-7.331494688987699737e-01,9.379480034112899767e-02,3.665218055248299911e-01,1.214499771594999972e-01,7.520770281553300352e-02,-1.783663779497099977e-01,-1.112133637070699954e-01,-1.186295449733699992e-01,-8.051702380180400520e-02,-9.662002325058000052e-02,4.092840012162900394e-03,-1.511116772890100102e-01,-2.433809638023400057e-01,-2.239402830600699945e-01,-1.400741338729900032e-01,-1.220024302601799976e-01,-1.258751899004000030e-01,-1.319200098514599906e-01,-6.056171655654899455e-01,-6.224176660180100185e-02,-1.139141619205499972e-01,-1.933640427887399829e-02,-2.403041720390300118e-01,-4.151256978511799756e-01,-2.577690780162800177e-01,-3.866786062717399997e-01,-5.492405891418500330e-01,-8.544545173644999547e-01,-4.238578677177399778e-01,-5.178862810134899908e-01,3.434035181999199882e-01,-9.839761257171600328e-02,-3.400827944278699833e-01,-5.597456693649299764e-01,3.587867915630300053e-01,-4.030220806598699967e-01,-7.248258590698199999e-01,3.567894399166099961e-01,3.614599704742399999e-01,-1.084118857979800010e-01,-7.057675123214699475e-01,-6.958255767822300042e-01,-6.769172549247699511e-01,-2.235006093978899877e-01,3.483036756515500154e-01,-4.627359211444900255e-01,-2.502542138099699831e-01,2.491164058446899976e-01,-4.559876322746300170e-01,-4.089652895927399778e-01,2.888151705265000202e-01,3.964061141014100231e-01,8.943132311105700394e-02,-3.000279963016500018e-01,4.117145836353299782e-01,1.577881872654000039e-01
-2.715370059013400006e-02,7.863287813961500686e-03,-2.490525133907800157e-03,-1.786533236503599964e+00,-1.879574894905100102e+00,4.656216502189600148e-02,2.112846076488500077e-02,-7.869253307580900691e-02,3.989256918430299920e-02,-1.790811777114899916e+00,4.360007122159000048e-02,3.352494165301300039e-02,3.154379874467799771e-02,-7.450838685035700015e-01,-1.417083621025100104e+00,-1.127362966537500011e+00,-1.738106608390799890e+00,-1.464552521705599908e+00,-1.336233258247399913e+00,-1.649095416068999898e+00,-1.052615880966200068e+00,-1.139582514762899956e+00,-1.598444104194600035e+00,-2.985092997550999883e-01,-1.543974995613099921e+00,-3.696712851524400212e-01,-4.698159098625199759e-01,8.783198148012200113e-02,-1.427612900733900014e+00,-1.563906192779499937e+00,-1.005685403943099993e-01,-1.705980062484699911e+00,-4.997371137142200270e-01,-1.700265884399400074e+00,6.114652380347299770e-02,-3.021181225776700119e-01,-1.628550171852100048e+00,-7.982802391052199464e-01,-1.126726150512699975e+00,2.248332835733899901e-02,-1.110025495290799941e-01,3.455969318747500324e-02,5.213903263211300265e-02,2.560084871947800045e-02,3.380311280488999814e-02,5.759002640843399745e-02,-1.218574881553599942e+00,-3.079618792980899807e-03,-2.864535450935399852e-01,1.887503638863599967e-02,3.057929687202000021e-02,7.539182901382400319e-03,5.913792178034799757e-02,2.318292483687400124e-02,-2.471841499209399828e-02,-9.785020351409899619e-02,6.533785164356199771e-02,1.071417331695600009e-02,2.199157606810299903e-04,4.254300147295000251e-02,9.436342120170600201e-02,4.397140443324999703e-02,1.405443996191000078e-01,2.819404564797900123e-02,1.134239062666899944e-01
-1.536537893116499999e-02,-4.297460895031700139e-03,1.142687164247000071e-02,2.951684474945099890e+00,3.122783899307299826e+00,1.732607930898700035e-02,1.736390776932199981e-02,9.244520962238300665e-02,-5.373228807002299913e-03,2.417321443557700178e+00,2.816750295460199865e-02,1.899971626698999938e-02,1.395637984387599999e-03,1.985837370157199910e-01,1.815147876739499955e+00,7.022929936647399896e-02,3.072604723274700161e-02,1.521138191223099900e+00,1.356501340866099969e+00,2.175689697265600131e+00,1.177407383918799955e+00,3.793739080429099908e-01,1.832860112190199953e+00,4.442939460277600117e-01,2.171960830688500099e+00,1.805685520172100045e+00,6.945779323577899733e-01,1.818815350532499986e+00,7.706262469291700334e-01,2.029272794723500084e+00,1.713413238525399951e+00,3.286879956722300045e-01,1.796270132064800018e+00,-6.314814090728800011e-02,5.640740990638699603e-01,8.615780472755399932e-01,1.509922504424999978e+00,6.475945711135899785e-01,1.892491459846499913e+00,-2.467342419549799822e-03,1.127231478691099964e+00,1.461922773160000046e-03,2.745792083442200049e-02,3.633255884051300039e-02,-7.546503841877000296e-02,2.662235796451600245e-01,-2.682047430425900120e-03,-2.228725887835000113e-02,1.027785181999200104e+00,7.416409254074100010e-01,7.366141770034999835e-03,1.122376918792699962e+00,3.207874000072499787e-01,4.627919942140600040e-02,1.411533951759299965e+00,1.432936668396000091e+00,-1.538034621626100003e-02,1.140812188386900045e-01,-1.342914998531299919e-02,4.259800314903299800e-01,7.871952056884800042e-01,4.722425937652600103e-01,9.547484666109100349e-02,1.443119943141900063e-01,9.360822439193700051e-01
-1.349202394485500056e+00,-1.514182448387100033e+00,-7.282198667526199598e-01,-2.114292621612499978e+00,-1.697541832923900040e+00,-4.683845117688199833e-02,-1.289175868034400096e+00,-6.259132642298900415e-03,-1.206254720687899962e+00,-1.446507096290599925e+00,-1.076445102691699907e+00,-1.167661070823700076e+00,-1.015257358551000078e+00,-4.019102826714499727e-02,-7.201988250017199444e-02,-7.244096696376800537e-02,-4.768065735697699786e-02,3.411565441638200052e-03,-8.341097831726100587e-02,-5.645380169153200317e-02,-7.696807384491000104e-02,1.744147203862700043e-02,-1.018469929695099974e-01,-8.187378197908400101e-02,-4.181228950619700346e-02,-6.386824697256099359e-02,-1.051092967390999944e-01,-5.989559739828100027e-02,-6.335809826850899440e-02,-1.379541456699399926e-01,3.008372150361500116e-02,-1.007086411118500030e-01,-3.687735646963100078e-02,-1.543210893869400024e-01,-5.093808472156499678e-02,-7.162703573703800564e-02,-1.111814379692100063e+00,-7.521682232618299990e-02,-4.268817901611299814e-01,6.296971440315199398e-02,3.118547983467600052e-02,6.310329586267500457e-02,4.097203537821800245e-02,1.743560656905199929e-02,5.856944993138300110e-02,2.666587568819499959e-02,2.388006635010200135e-02,5.327345430851000013e-02,-5.843082070350599788e-02,5.047262459993399897e-02,3.007064806297400205e-03,2.353472076356399878e-02,-3.000285290181600034e-02,6.280913203954699431e-02,3.822255507111500111e-02,-2.257646061479999869e-02,2.430342324078100039e-02,3.399515524506600134e-02,4.249284043908099773e-02,6.460632383823400327e-02,7.549668103456499968e-02,4.358169063925700082e-02,-1.194864884018899953e-01,8.307711780071300178e-02,-2.565993368625599791e-01
-2.419015467166900080e-01,-2.052876204252200021e-01,-7.936437427997600214e-02,5.458680987358099923e-01,6.344223618507399687e-01,-9.650982171297099732e-02,-1.874060034751899861e-01,-1.472371369600299906e-01,-2.336367815733000064e-01,1.231825947761499895e+00,-2.105464339256299944e-01,-1.834932863712299966e-01,-1.569605916738499862e-01,9.979346990585300503e-01,6.595734953880300067e-01,-1.965068578720099990e-01,2.664705812931100204e-01,6.674141883850099877e-01,-3.306336998939499727e-01,-2.129185795783999913e-01,8.696464896202099615e-01,2.464693784713699876e-01,6.808284521102899722e-01,5.109559893608099923e-01,6.353058218956000314e-01,-2.915513813495599904e-01,-2.382224649190899934e-01,-4.962191879749299761e-01,1.444574445486100089e-01,7.860128283500700253e-01,-2.967279851436600002e-01,-5.996154993772499775e-02,3.992905914783499988e-01,-1.399988085031499963e-01,-5.674101114273100155e-01,-1.917065531015400004e-01,1.001624092459700022e-01,2.463242113590199955e-01,-3.284022212028500087e-01,3.237907290458699738e-01,4.958667457103699827e-01,4.630783200263999810e-01,4.944766759872399886e-01,6.149843931198100133e-01,-2.743617594242099833e-01,3.587286174297300012e-01,-5.598940849304200329e-01,5.319345593452500243e-01,6.897094845771799543e-01,4.421626031398799839e-01,2.432384639978399932e-01,-3.038414418697399921e-01,5.955523252487200381e-01,-5.502907633781399799e-01,8.431439995765700468e-01,3.771145641803699822e-01,-9.515620023012200113e-02,2.384136319160500006e-01,6.370416283607499564e-01,-2.200437784194899937e-01,5.318735837936400257e-01,-4.403830170631399810e-01,6.166163459420199999e-02,4.387924969196300151e-01,6.378641724586500139e-01
1.688097596168500081e+00,3.319893181324000131e-01,1.412547230720500036e+00,3.340372562408400192e+00,2.213955402374299997e+00,2.669515907764399842e-01,1.690659880638099910e+00,9.895824193954499970e-01,2.008204936981199840e+00,2.137871026992800072e+00,1.383358359336900101e+00,2.126080036163299880e+00,1.875525832176200058e+00,1.633602976799000128e-01,2.856131494045299757e-01,2.960383594036100074e-01,3.243677020072899819e-01,2.100132405757899889e-01,2.509298026561699868e-01,1.908009201288199952e-01,2.860158383846300167e-01,-7.299692369997499639e-03,2.765641510486600008e-01,1.941032111644699909e-01,1.811168491840400019e-01,3.508104383945500060e-01,1.990723907947500038e-01,3.852315247058900050e-01,2.126290947198899994e-01,1.890686899423600076e-01,1.342130303382899903e-01,3.761310279369399767e-01,4.290995895862599885e-01,3.925380110740699924e-01,4.733908176422100267e-01,3.138095140457199950e-01,1.045317173004199907e+00,2.229716628789900068e-01,3.033178448677100181e-01,1.481671780347799949e-01,5.020522326231000032e-02,8.394426107406599558e-02,1.035031452774999999e-01,7.407636046409600272e-01,1.808880269527400053e-01,9.486445784568800499e-02,1.128377690911299969e-01,2.311010658741000090e-02,2.353076785802800108e-01,5.773549526929899756e-02,2.216845564544199856e-02,1.314625144004800128e-01,5.393611267209100224e-02,5.479851365089399851e-01,1.493718326091799942e-01,4.997693598270400162e-01,-2.523156628012699840e-02,4.519347846507999755e-02,1.761175841093099992e-01,2.950226366519900223e-01,4.305990934371899947e-01,8.568944782018700357e-02,5.202974081039399845e-01,-1.323474384844300009e-02,5.720052719116199835e-01
5.762002989649799706e-02,7.693485170602799850e-02,1.548323333263399992e-01,-1.953470230102499983e+00,-1.720645666122400108e+00,2.073449045419699932e-01,1.511280387639999945e-01,7.422412186860999350e-02,9.884609282016799947e-02,-3.701775789260899785e+00,9.198676794767400577e-02,1.317637711763399999e-01,1.552740633487700028e-01,3.784511387348200029e-01,-1.079823151230799999e-01,-5.882632732391399610e-01,-2.330529689788800152e+00,5.904285907745400186e-01,-1.777752757072400103e+00,4.591861367225599788e-01,5.343186259269699923e-01,6.355027556419400314e-01,-1.564251661300700036e+00,-1.228551387786900095e+00,-7.204083353281000301e-02,-1.225437402725199965e+00,-2.319242000579799790e+00,-1.057678341865500027e+00,-1.758390069007899958e+00,-3.041890144348100122e+00,-6.858752965927099599e-01,-1.448398709297199938e+00,-9.286940693855300077e-01,-1.488844156265300089e+00,-1.875824451446499896e+00,-1.148923516273500089e+00,-2.715776920318599963e+00,-1.462744474411000084e+00,-1.035804867744400060e+00,-6.969506144523599511e-01,4.273810982704199790e-01,-9.310541152954100452e-01,-9.476724863052400361e-01,2.075012028217300131e-01,-3.010853566229300046e-02,5.662053078412999929e-02,-6.413226127624499506e-01,7.039772719144800350e-02,-1.061020851135300092e+00,-3.471942842006700003e-01,5.553848743438699609e-01,-1.635273844003700128e-01,-8.004638552665700457e-01,-5.722397565841700340e-01,-4.079354703426399942e-01,-8.737853169441199830e-01,-7.140284180641199852e-01,1.999494284391399868e-01,-2.283319532871199986e-01,-3.763575851917300152e-01,-2.965157926082599982e-01,-3.194845318794299893e-01,-1.716597080230700012e+00,2.694354355335200069e-01,-9.546622037887599888e-01
1.036727149039499973e-02,1.937046647071799868e-02,3.998341783881199929e-02,-5.946506857872000396e-01,-7.531266808509800015e-01,4.046794027090100387e-03,4.847355186939199603e-03,-1.009239554405200051e-01,3.647651150822599914e-02,-1.335799932479899921e+00,4.946106672286999795e-02,2.271737903356599829e-03,7.665389776229900032e-02,2.133183777332300080e-01,-3.925450444221499913e-01,6.084381937980699595e-01,-1.248242855071999946e+00,1.912980824708900018e-01,-7.530637979507399660e-01,1.895222514867800079e-01,-1.097029522061299944e-01,3.320732116699199876e-01,-1.117986321449299991e+00,3.307599723339100239e-01,-9.563032984733600417e-01,-2.975992262363399976e-01,-1.008993625640900005e+00,4.263933300971999851e-01,-6.965752243995699811e-01,-1.549687147140500043e+00,-1.084293007850599899e+00,-9.631741642951999749e-01,4.334833025932299799e-01,-2.350692898035000034e-01,7.801514863967899949e-01,1.752809733152400073e-01,-9.793933629989599599e-01,-8.462606370449099469e-02,7.356650233268700045e-01,9.953379631042499898e-02,1.279390007257500128e-01,1.885559409856799873e-01,-9.257926344871499902e-01,8.698605000972700618e-02,3.305816650390600020e-01,-7.480746507644699950e-01,1.502250134944899951e-01,2.215442620217800140e-02,-2.589584589004499948e-01,-4.646670520305600238e-01,-1.099319815635700026e+00,1.069874688983000061e-01,-1.038851022720300055e+00,-1.179025247693099993e-01,2.828200757503500085e-01,3.704202771186799747e-01,-1.084601521491999954e+00,-1.014854088425599932e-01,1.210796907544099965e-01,-5.955917388200800133e-02,4.765695333480799989e-01,2.173382192850099870e-01,-3.554023057222400334e-02,-1.399949658662100020e-02,-1.003993302583700009e-01
-1.108898043632499997e+00,-9.032423049211500687e-02,-1.082231283187899962e+00,-1.524747848510699999e+00,-1.715952277183500074e+00,-1.620415598154099912e-01,-1.077702283859300003e+00,-4.872973561286900179e-01,-1.087282419204699924e+00,-1.868513464927699985e+00,-1.107024669647199921e+00,-1.076798677444499974e+00,-1.058815717697100034e+00,-1.040713787078900027e-01,-1.507450699806200056e+00,-1.651568531990099897e+00,-4.355146735906600258e-02,-2.055849879980100117e-02,-2.087553739547700182e+00,-8.347271084785500284e-01,-1.271348476409899897e+00,1.522774063050700080e-02,-1.297934174537699992e+00,-1.652836918830900004e+00,-3.001472912728799999e-02,-5.784519910812400134e-01,1.698657423257800003e-01,4.305781796574600223e-02,-1.092654228210399925e+00,-1.331313729286200065e+00,-1.651881337165800046e-01,8.358056098222700625e-02,-6.923382878303500076e-01,4.235761612653699687e-02,-1.267152070999099989e+00,-2.317723989486700109e+00,7.889395952224699526e-02,-4.550912976265000243e-01,-6.598820090293899820e-01,1.605238579213600150e-02,-1.937428116798399991e+00,-6.421194672584500385e-01,-7.392803430557299826e-01,3.948731720447500038e-02,-1.390475749969499963e+00,-9.190160036086999495e-01,-5.655919909477199470e-01,1.554257143288900050e-02,-2.358900785446199855e+00,-4.075530171394299850e-01,-5.899316444992999675e-02,-3.363332152366599881e-01,-6.798158865422000013e-03,-3.964354842901200021e-02,-5.669558644294699912e-01,-2.361949086189299996e-01,-1.409708429127900023e-02,-4.717487096786500134e-01,-8.327600359916700334e-01,6.748062092810899575e-03,9.065178036689799934e-02,-6.116069853305799997e-02,1.805711239576300031e-01,1.736533455550700114e-02,-2.308078050613400212e+00
1.222442016005499954e-01,6.507018208503699552e-02,-1.220163051039000086e-02,-1.143247485160800103e+00,-1.137611150741600019e+00,-5.796555802226099896e-02,6.819964200258299414e-02,9.569993615150500232e-02,3.194616362452500080e-02,-1.346622556447999997e-01,7.514704763889300254e-02,5.915807187557200336e-02,7.743518799543400166e-02,2.312849909067200005e-01,9.989789873361600014e-02,1.318369060754799871e-01,2.945915423333600111e-02,3.539183363318400277e-02,6.487311422824899865e-02,8.250898867845500584e-02,1.785953789949399906e-01,1.553237736225099863e-01,-4.277645647525800121e-01,-6.304243206977799829e-01,6.552198529243499769e-02,1.277104169130300060e-01,1.783161908388100070e-01,1.974512189626700109e-01,4.057198017835599718e-02,-1.217788219451900078e+00,-7.139824330806700259e-02,1.010779589414600027e-01,1.605407893657699869e-01,-1.691687703132599974e-01,2.181005179881999878e-01,1.822387278079999895e-01,-1.479543209075899979e+00,2.047246694564799907e-01,-1.407043933868399987e+00,-5.995840430259700149e-01,-1.552647203206999893e-01,-4.428177780937400188e-04,-6.034157872199999995e-01,-5.157563090324399635e-01,-5.722922086715700463e-01,-5.101800560951199603e-01,3.583006858825700247e-01,-2.363914698362399869e-01,-8.855050802230800544e-01,7.171931266784700165e-01,-6.986280679702799867e-01,2.597962915897399916e-01,-1.909046620130500083e-01,-3.607454895973200015e-01,1.715697646141099986e-01,-3.461171984672499757e-01,1.722884476184800007e-01,-5.052977800369300443e-01,-6.136855483055100313e-01,3.141742050647700069e-01,-8.689610362052899717e-01,-3.073399662971499913e-01,-4.956836998462699762e-01,-2.691738903522499782e-01,-3.397690057754499948e-01
1.973285675048800092e-01,1.430009752512000076e-01,1.035514995455699971e-01,-1.687384724616999954e+00,-1.710935711860700037e+00,8.965607732534400243e-02,5.814494937658300222e-02,2.482482232153400067e-02,8.319719135761299844e-02,9.831633418798399818e-03,9.739307314157499840e-02,3.923867270350499953e-02,3.625753521919299754e-02,2.053630352020300032e-01,1.723922193050400065e-01,1.267097443342199981e-01,9.256229549646399768e-02,1.290864497423200030e-01,1.535322964191400130e-01,1.904228627681699981e-01,2.108365297317499887e-01,1.867849677801100006e-01,-9.531355500221300181e-01,-1.585353016853300046e-01,8.753391355276099461e-02,2.021253257989900076e-01,2.327911406755399926e-01,2.002441138029099899e-01,1.117461100220699943e-01,-2.140292406082199950e+00,1.847042888402899985e-01,1.665343493223200022e-01,1.806570142507600008e-01,1.613389402627899982e-01,9.934873133897799413e-02,2.148581594228700098e-01,-6.608415842056299949e-01,2.178926616907100045e-01,-1.261929869651799985e-01,-8.076133728027300451e-01,-6.184899806976299486e-01,-2.518833279609700160e-01,2.613107264041900080e-01,-7.466215491294899698e-01,3.208491504192400035e-01,1.241440549492800055e-01,-5.505396723747300047e-01,-6.656548380851700086e-01,-8.347271680831900298e-01,8.204761147499099738e-02,-7.326161265373200004e-01,-9.331023097038300129e-01,-9.332536458969099558e-01,-6.905371546745300293e-01,-9.185948371887200370e-01,-6.249271035194400303e-01,-8.224087357521100428e-01,2.601768076419799791e-01,-4.595563411712599855e-01,-7.028307318687400107e-01,1.527716815471600043e-01,-1.179260239005100047e-01,-2.641774713993100265e-01,4.737211465835600155e-01,-1.001930594444299993e+00
6.556029319763200247e-01,6.168511509895300282e-01,1.830452233552899988e-01,7.784261107444799821e-01,9.171857833862300247e-01,6.448035240173299876e-01,4.131672680378000173e-01,2.926070094108599862e-01,8.744477480649899548e-02,-1.651574741117700033e-03,-6.367284804582599989e-02,1.776831001043299996e-01,3.056596517562900073e-01,-3.388603031635299689e-02,-1.304661184549300024e-01,-2.199611663818399898e-01,-1.884954422712299960e-01,-1.324260681867600042e-01,-2.275960296392399995e-01,-1.343195289373400048e-01,-8.451672270894099170e-03,8.469780907034899983e-03,-6.797011941671400603e-02,-2.117989212274599964e-01,-2.223744839429900033e-01,-1.835068315267600059e-01,-8.712659031152700240e-02,-7.841467112302799580e-02,-2.303024232387499981e-01,-9.939492493867900513e-02,-1.581993997097000115e-01,-1.265068501234100085e-01,-3.961233794689199977e-02,-1.498650163412099945e-01,-2.796601317822899890e-02,3.488721847534200227e-01,8.587009273469399517e-03,4.086411371827099875e-02,1.800838857889200118e-01,9.098473191261299831e-02,1.091295719146700094e+00,-2.579325437545800237e-01,3.689470887184100045e-02,3.142097592353800262e-01,6.391463279724100000e-01,5.413212180137599860e-01,4.013510048389399842e-01,2.372196642682000093e-03,2.934309542179099894e-01,1.234814286231999958e+00,1.898899823427200040e-01,-1.321447938680599954e-01,5.479836463928199758e-02,-2.684276178479199845e-02,2.284201830625499918e-01,-8.727302402257899883e-02,1.703431755304299910e-01,-7.824049890041399891e-02,7.630879878997800514e-01,-1.030151471495600046e-01,-2.476147711277000008e-01,8.494089841842700217e-01,4.554703831672699682e-02,-1.556330025196099864e-01,9.180017560720399317e-02
2.635152637958499966e-01,2.360482960939400132e-01,4.563561826944399769e-02,-4.106517732143399879e-01,-1.810741871595399899e-01,1.364442408084899916e-01,1.547364294529000039e-01,1.940381228923800105e-01,1.671702861785900052e-01,6.199802458286299972e-02,2.576451003551499808e-01,1.463162302970900108e-01,1.359488815069199996e-01,1.514172405004499955e-01,2.108655124902699962e-01,2.169319540262200086e-01,2.181942909956000043e-01,1.924140304327000006e-01,1.841724514961199932e-01,2.002009451389299977e-01,1.934783458709699866e-01,1.688585281372100011e-01,1.504660248756400087e-01,2.495276778936399986e-01,2.435750514268900102e-01,1.988643407821699960e-01,2.587226927280399935e-01,1.837906539440199993e-01,2.297297716140699886e-01,1.823326498270000096e-01,2.103146463632599994e-01,2.038061022758499985e-01,1.434095501899700087e-01,1.831296384334600014e-01,2.231255918741200106e-01,1.931516826152800126e-01,1.097092851996400026e-01,1.941341906785999938e-01,7.236412912607199932e-02,-3.147486448287999949e-01,-4.634308815002399773e-01,-5.963122248649600499e-01,-6.326337456703200468e-01,3.637409508228299782e-01,-9.447155892849000425e-02,-3.240236043930099785e-01,-4.757730066776300060e-01,-4.423449337482500132e-01,-1.899407804012299972e-01,-6.065431237220799687e-01,-4.451179504394500164e-01,-3.044377267360700023e-01,-4.820579886436500150e-01,1.655995696783099935e-01,-4.426403641700700220e-01,-1.599249243736300119e-01,-6.206228733062699732e-01,-5.663171410560600139e-01,-3.998373448848699940e-01,1.930723339319199983e-01,-5.521222352981599579e-01,-5.315551757812500000e-01,-7.182438373565700473e-01,-7.274695634841900072e-01,-4.965478181838999805e-01
-1.999262347817400143e-02,-1.637353599071499910e-01,5.768884420394899681e-01,3.261480629444100110e-01,1.744170635938600000e-01,-1.126146093010900046e-01,3.257243707776100172e-02,-5.092402920126900233e-03,4.217467904090900221e-01,-6.655456423759500417e-01,5.238606333732600540e-01,4.183222055435200093e-01,3.962440192699400177e-01,3.702097237110100192e-01,4.842092096805600265e-01,5.221494436264000338e-01,4.840148985385899771e-01,3.769256174564399875e-01,3.896463215351099740e-01,3.380827605724299745e-01,4.328949749469799824e-01,4.330795705318499778e-01,4.454689025878900144e-01,5.937290787696799521e-01,4.716075658798200010e-01,4.240630865096999824e-01,5.303798317909199644e-01,3.199772536754599828e-01,4.482170939445500046e-01,5.580579042434700154e-01,3.794630467891699777e-01,4.935136139392899968e-01,4.602218270301799974e-01,2.811750769615199985e-01,6.213061213493300539e-01,3.788366317749000123e-01,7.910819649696400058e-01,3.941267430782299797e-01,6.512513160705599713e-01,-8.110915124416399891e-02,-7.386818528175399801e-02,-8.295042067766200677e-02,4.097549617290500157e-01,-9.456307440996200575e-02,-1.554258763790100084e-01,4.881200846284600159e-03,-1.172824800014500013e-01,-9.208697825670200676e-02,1.054347991943400009e+00,8.633297681808500545e-01,-8.253604173660300525e-02,-3.575686737895000106e-02,-1.236642226576799980e-01,-1.166076883673699965e-01,-9.869144111871699931e-02,2.535874247550999883e-01,-1.163041219115300007e-01,-8.853632956743200111e-02,-4.319804906845099712e-02,-9.818477183580399947e-02,2.307192981243099961e-01,7.507548667490499678e-03,-1.499775052070599912e-01,-7.077017426490800345e-02,7.475595474243199590e-01
-1.523711998015600012e-02,-2.369078435003800151e-02,-3.432380259037000059e-01,-3.441798448562599866e+00,-4.208253860473599950e+00,1.379523277282700133e-01,-1.077522486448300038e-01,-4.640038907527900269e-01,-2.577429413795500057e-01,-5.103931903839099782e+00,-2.364496737718599917e-01,-3.412915766239200122e-01,-2.287921011447900110e-01,-2.750448510050799988e-02,-3.271148443222000157e+00,-2.720190286636400057e+00,-3.557958364486700109e+00,-1.876108497381200058e-01,6.764084100723299908e-01,-2.535554409027100053e+00,-1.658073782920800099e+00,2.851091511547600155e-02,-3.578626394271899880e+00,-3.045321464538599976e+00,-2.594424009323100133e+00,-3.066443920135499823e+00,-9.477131962776199625e-01,-3.007835447788200223e-01,-6.504315137863200258e-01,-3.632740736007700200e+00,-1.614617943763700048e+00,-2.045377016067499998e+00,-2.804098606109600045e+00,-2.575791478157000158e-01,-3.178607821464500272e-01,-2.240877866745000002e+00,-9.446500241756400351e-02,-2.437256462871999901e-02,1.160564459860300053e-02,3.726001083850900147e-02,1.759561896324199903e-01,-8.836731910705599713e-01,-1.444706797599800030e+00,2.646417729556600068e-02,-1.008802503347400042e-01,8.718360215425499660e-02,5.685848742723499660e-02,7.734761387109799491e-02,-2.763576269149799813e+00,-8.448244929313699636e-01,-1.225008964538599976e+00,-8.516637980937999397e-02,9.839691221714000346e-02,-1.438113115727900071e-02,3.761832714080800000e-01,-1.235379457473799958e+00,-2.031536847352999886e-01,-3.465814888477299904e-01,-1.076862454414400094e+00,-3.708922863006600124e-01,-3.808582574129099757e-02,-8.229737877845799687e-01,2.216195017099399922e-01,3.483420703560100029e-03,-1.383146643638599960e+00
1.253828883171099973e+00,2.452947139740000004e+00,1.763206839561499928e+00,2.685088396072400130e+00,1.981452226638799941e+00,1.775816440582300038e+00,1.250914812088000039e+00,2.042734146118200034e+00,1.285428524017300012e+00,2.706321716308599967e+00,-3.394361119717399875e-03,1.715087771415700013e+00,2.003347158432000175e+00,-3.539146855473500330e-02,1.578460335731499964e-01,5.966449975967399455e-01,2.808795571327200036e-01,-6.723114103078800530e-02,-1.467207521200200038e-01,2.878737211227400117e+00,-7.360211014747600200e-02,-4.024772346019699770e-02,1.779482245445300093e+00,-1.649596840143200127e-01,-1.017568930983499959e-01,5.578583478927600092e-01,2.398251295089699919e+00,-8.175557106733299939e-02,7.271965146064800489e-01,1.849416255950899979e+00,-5.719866976141899789e-02,7.515572309493999681e-01,5.677645206451400473e-01,-3.672219812869999961e-02,2.276948451995799871e+00,2.650208711624100211e+00,5.333815813064599620e-01,1.156636714935300070e+00,2.177003622055099896e+00,-7.800158858299299780e-02,2.503158569335900197e+00,1.833221793174699910e+00,1.383225202560399936e+00,-8.768408745527299375e-02,1.042783498763999894e+00,1.614312767982500008e+00,-1.016717553138700020e-01,-6.948413699865299553e-02,3.838144540786700087e+00,1.597886800766000093e+00,-8.623498491942899885e-03,3.218674898147599883e+00,8.510590791702300484e-01,-9.355096518993399890e-02,2.349488019943200001e+00,3.566573619842499987e+00,-1.149493753910099947e-01,1.940251350402800057e+00,2.395376920700099888e+00,-4.921810328960399966e-02,4.284201264381399810e-01,1.770552545785900045e-01,7.333239316940299846e-01,-4.103704169392600326e-02,2.629930496215799884e+00
