-3.567326664924599933e-01,3.912427127361299828e-01,-2.875127196312000089e-01,2.438901364803300054e-01,-2.949832081794699912e-01,-2.477266639471099874e-01,2.247493714094200012e-01,1.257338523864700019e-01,2.219902873039200086e-01,1.293599158525499948e-01,-9.599263072013900500e-01,-8.083432912826500338e-01,3.701864778995500038e-01,-2.778917551040600009e-01,-3.267928957939100210e-01,-5.936783552169799805e-01,-4.166361391544299853e-01,1.196280214935500040e-02,-1.335595101118099981e-01,-7.982935011386900481e-02,6.754819303751000148e-02,-4.456184804439500269e-01,-2.884173989295999996e-01,2.155871875584099845e-02,-3.025164306163800054e-01,4.340813755989100242e-01,-1.138334751129199907e+00,1.119317293167100047e+00,8.457402884960199541e-02,-3.105843663215600015e-01,-2.305563390254999900e-01,3.089100718498200004e-01,-7.560189962387100504e-01,2.129903882741900067e-01,4.245511889457699861e-01,4.086318314075499947e-01,8.446364849805799990e-02,2.183184921741500029e-01,2.764869630336799777e-01,-6.444177627563499877e-01,-3.132894635200499933e-01,-1.146074309945099984e-01,-1.483851694501900007e-03,8.953877687454200318e-01,6.192215085029599830e-01,-5.419121980667099825e-01,-2.558790743350999874e-01,1.283201724290800039e-01,1.720677316188800043e-01,1.753022670745800093e+00,2.911758422851599970e-02,-6.513615846633900031e-01,1.649136692285499972e-01,4.521752893924699812e-01,6.742635369300800097e-01,5.453890934586499983e-02,5.678502917289699470e-01,2.424009442329400077e-01,-4.799919128417999836e-01,2.643646597862199799e-01,6.265449523925800679e-02,-4.644013941287999936e-01,-7.859197854995699783e-01,8.787174224853500082e-01,-4.375365674495699797e-01,-5.524320527911200096e-02,-2.174534089863299977e-02,6.626799702644300405e-01,-1.356356292962999921e-01,-2.227849327027799867e-03,-2.124215960502600087e-01,-2.011878490447999990e-01,-3.514230549335500275e-01,1.082715690135999942e-01,-2.616450488567400035e-01,2.455549389123899973e-01,2.364473193883900037e-01,8.661769032478300323e-01,-4.460032880306200043e-01,-4.052146673202500216e-01,-4.562598466873200170e-02,2.792154252529099878e-01,3.999122083187099941e-01,-4.421235248446499927e-02,-1.185399219393700049e-01,6.357063651084899902e-01,8.806480765342700190e-01,-5.757364630699199903e-01,-2.963615767657799827e-02,7.804886698722800498e-01,3.334673345088999818e-01,-2.679244577884700163e-01,1.344094574451399904e-01,-9.043415188789399872e-01,-5.705760419368700181e-02,1.806766837835299955e-01,8.917664289474499517e-01,-1.550098806619600034e-01,2.954919040203100034e-01,-6.828116625547399343e-02,-5.353658199310300514e-01,8.500503748655299785e-02,-7.001844048500099893e-02,-3.070873394608500048e-02,-1.811625808477400068e-01,3.319386243820199867e-01,4.479362368583699738e-01,-2.423404455184899886e-01,1.329784989356999902e-01,-3.476828038692499900e-01,-1.246753893792599925e-02,3.922353386879000037e-01,1.382217854261399981e-01,-3.488834500312800180e-01,2.489785104989999942e-01,-1.141004920005799894e+00,1.208182126283599972e-01,-8.536182641983000030e-01,2.503256499767300136e-01,2.708703577518499772e-01,-4.316239655017899968e-01,-4.509021043777500237e-01,-3.294979333877600114e-01,-3.685528784990300261e-02,-8.607227802276600226e-01,-6.928697824478099454e-01,2.342638224363300103e-01,-8.294647186994599797e-02,-2.433955371379900035e-01,6.187647581100500505e-01,1.032605580985499968e-02,8.128126710653299503e-02,-9.248145222663900489e-01,2.596004009246800082e-01,8.962317109108000057e-01,1.770600862801099962e-02,-2.558529376983599835e-01,9.135477989911999774e-02,-1.726269721984899919e-01,-5.458050966262799619e-01,-1.535390689969099928e-02,8.938306570053099476e-01,-9.086275696754499975e-01,-2.641935348510699999e-01,1.960805952548999864e-01,-2.191495150327699981e-01,9.658463299274400171e-02,-1.761171370744699927e-01,-4.301973059773400027e-02,2.732329070568100260e-01,6.423653960227999615e-01,-9.566871076822300313e-02,-4.655469357967400024e-01,-1.678365021943999946e-01,-7.472873926162699743e-01,6.241551637649499495e-01,3.105578944087000054e-02,-1.860782951116599915e-01,5.262227058410600122e-01,2.649243175983400089e-01,1.182270795106899960e-02,-1.081135123968099930e-02,-1.566449701785999904e-01,-1.673223525285700009e-01,2.652892470359800026e-01,-6.450510025024399630e-01,1.249661222100300062e-01,-6.904321908950800113e-02,-1.291476786136599997e-01,1.172295734286299962e-01,2.127459831535799886e-02,2.703303992748299911e-01,-9.548869729042100407e-02,-2.894094288349199906e-01,6.518185883760499455e-02,6.227634549140900200e-01,-3.211205303669000255e-01,6.424006223678599969e-01,-3.283678889274599944e-01,-3.209558874368700215e-02,6.785367131233199789e-01,5.603564977645899559e-01,2.287908643484099988e-02,-1.813955456018400136e-01,-8.680172562599199892e-01,-2.420519441366200120e-01,3.594211116433099901e-02,4.306190907955200209e-01,2.282641828060200107e-01,5.744829177856399793e-01,-3.017580807208999905e-01,-9.174278937280200621e-03,-1.551284641027500001e-02,-6.282362341880799450e-01,-5.236386060714699475e-01,1.148314401507399968e-01,-1.175907552242300008e-01,-3.260650932788800027e-01,-5.387009382247900380e-01,1.434662193059899893e-01,6.454552412033099928e-01,4.159283638000499939e-01,-1.111824586987500002e-01,-4.281294047832500116e-01,-3.662827312946300151e-01,1.283923387527499960e-01,-5.218129754066499482e-01,-1.923308968543999964e-01,2.365567237138699874e-01,9.299076795577999599e-01,8.270331621169999536e-01,-4.527918100357100073e-01,-6.895110756158799592e-02,2.583418786525699951e-02,-7.661737501621200368e-03,-2.010738700628300069e-01,2.926384210586500112e-01,-1.125646755099300039e-01,-3.163409233093299883e-02,3.625508397817599898e-02,-3.492366373538999813e-01,-5.242547392845200438e-01,4.560051560401899851e-01,-6.966779232025099855e-01,9.096235036850000011e-01,8.690328001975999861e-01,4.445836246013599724e-01,-1.661045011133000003e-03,2.790891528129599841e-01,9.391965717077299658e-02,-2.708489000797300039e-01,1.874718964099900131e-01,1.534991860389700036e-01,4.814042150974299772e-01,2.213932424783700004e-01,-4.174377620220199869e-01,1.779690831899599923e-01,-8.615906536579100161e-02,4.755127131938899909e-01,3.874458670616099942e-01,-5.631494522094699917e-01,-1.675628125667600055e-01,-1.557724028825800133e-01,3.452779054641699763e-01,-1.844634674489499873e-02,1.774167269468300001e-01,-5.270181298255900426e-01,-7.520213127136200493e-01,-3.181103616952900282e-02,4.578417539596599806e-01,-2.758574187755600260e-01,-6.217141151428200452e-01,1.605859100818599894e-01,-4.535011351108599875e-01,3.501695394516000093e-01,-1.050997972488399990e+00,1.668832302093500031e-01,-6.456051468849199892e-01,3.013882339000700239e-01,-5.332492589950600381e-01,5.068986415863000472e-01,-1.281254887580900004e+00,-6.454675793647800530e-01,4.791536033153500074e-01,1.365368008613599971e+00,-2.059835642576199888e-01,-3.841390609741199835e-01,6.918279528617899965e-01,6.805509328842199723e-01,-1.084699630737299969e-01,2.134829312562900039e-01,-4.277800917625400046e-01,-6.407940387725799547e-02,-1.377080231904999896e-01,5.075832009315499604e-01,-1.339808225631700100e+00,-6.150425076484700160e-01,2.961303889751399909e-01,-1.166523456573500095e+00,9.712786078453099492e-01,3.680016100406600099e-01,2.114764302968999976e-01,-4.408167898654899997e-01,-9.285756349563599743e-01,-5.891224741935700004e-01,-9.602303504943799917e-01,-2.711960077285799908e-01,-2.691313028335600155e-01,-7.030766606330900448e-01,1.206365108490000004e+00,-2.463328093290299836e-02,9.163629412651099759e-01,1.530168652534499962e+00,2.447218745946899976e-01,5.872932076454200068e-02,3.242823183536500120e-01,-6.786667704582199923e-01,-1.314025044441200052e+00,7.048615217208900052e-01,-5.969521403312699759e-01,3.696462213993100265e-01,3.266795277595500036e-01,-5.707426071166999959e-01,2.854723669588599827e-02,-8.369603157043500330e-01,-6.037153005600000011e-01,6.316268444061300114e-02,-6.619737148284899897e-01,1.593932032585100078e+00,-1.237061977386499922e+00,-1.990116119384800042e+00,1.242018461227399895e+00,-5.329819917678799701e-01,1.936796903610199960e+00,6.652382016181900282e-01,5.310469865799000155e-01,1.457926779985400101e-01,2.025061547756200064e-01,8.842571824789000057e-02,6.842026114463799491e-01,-4.304063320159899897e-01,1.013339683413500003e-01,5.372781753540000205e-01,1.664039492607100046e-01,1.391448855400100104e+00,-1.797413080930700124e-01,-7.164139747619600040e-01,-1.020693898201000094e+00,-1.156478449702299932e-01,-1.552936434745799954e-01,1.317474991083099900e-01,-1.832478791475299906e-01,-4.576715826988200231e-01,-1.525122821331000023e-01,-2.233172580599800117e-02,-3.487206995487199812e-01,-4.222085177898399766e-01,3.822597265243499742e-01,-1.168388962745700033e+00,-8.818633556366000104e-01,5.871166661381699986e-02,5.515033379197099850e-02,2.137049436569199989e-01,-1.381715536117599896e+00,-9.610878229141199824e-01,6.083667278289800473e-01,2.992578148841900099e-01,-4.744596481323199999e-01,-7.708712816238399990e-01,-9.473668932914699470e-01,7.340485453605699595e-01,2.363851070404099919e-01,-6.039347052574199903e-01,-1.113446876406700009e-01,-2.600285410880999737e-01,-1.158478379249600065e+00,1.087904348969500057e-01,2.151521146297500076e-01,5.264480784535399693e-02,-1.101170539856000108e+00,-6.076582670211799764e-01,-1.309247016906700090e+00,-1.384599208831799877e-01,7.153978347778300328e-01,-9.157876968383800165e-01,1.205774664878799918e+00,-3.463029563426999746e-01,2.361630052328100027e-01,1.125406473874999980e-01,-3.734084069728900168e-01,-1.010516285896299937e+00,-9.658756256103500082e-01,-5.184142589569099568e-01,-1.105286836624099989e+00,8.976119756698599517e-01,-5.824283361434899886e-01,7.723945975303599942e-01,-4.477219283580800013e-01,-9.155354499816900082e-01,-1.014565452933299944e-01,3.649564981460600155e-01,-1.682010740041700037e-01,1.529953777790100111e-01,1.377261638641400054e+00,-2.984720170497899838e-01,-3.986862301826499810e-01,-6.161864995956399804e-01,-1.841985136270500034e-01,6.988546848297100267e-01,-1.930933445692100126e-01,-1.424895077943799937e-01,-5.306843668222400306e-02,4.146483540534999790e-01,-1.089457646012299968e-01,-2.038272023200999872e-01,4.524339735508000060e-01,3.332119376864299998e-04,-9.605492651462599341e-02,-6.143158674240100092e-01,1.558008193969699917e-01,-9.658323228359200208e-02,2.503110468387599874e-01,5.659921169281000308e-01,-1.615166217088699896e-01,-3.945032507181200215e-02,-3.700679540634200237e-01,-3.810177445411699892e-01,-4.587093833833899917e-03,-9.628818184137299951e-02,-1.156330183148400054e-01,-4.581093490123699929e-01,-1.075780093669899962e-01,-1.260290443897200130e-01,2.978525161743200145e-01,-8.604325354099300049e-02,3.160478919744499904e-02,-6.021034717559800020e-01,7.664867490530000160e-02,1.496722549200099894e-01,-3.345902264118200131e-01,5.464096665382399687e-01,-8.730271831154800752e-03,1.046744138002399932e-01,3.009237349033400122e-01,1.909082084894200004e-01,-2.180100381374399932e-01,1.425953805446600053e-01,2.152097411453699968e-02,4.029515385627699953e-01,-2.456127703189799893e-01,8.253932595252999604e-01,7.387065887451199631e-02,-1.538696587085700007e-01,4.877299442887299968e-02,-3.647572696208999932e-01,2.964341640472399897e-01,-2.705089747905700115e-01,-2.861819267272899814e-01,-2.330865710973699934e-01,-4.326168596744500161e-01,4.321144223213200242e-01,4.596583247184800047e-01,4.110782593488700176e-02,-4.313807189464600178e-01,6.001778841018700072e-01,-2.348086610436399962e-02,-1.261927187442800080e-01,4.900429025292400015e-02,-7.468163967132600278e-02,-2.542714402079599909e-02,1.136691570282000047e-01,4.332965612411499717e-02,-2.050004005432100040e-01,-2.792083621025099882e-01,3.535658121108999907e-01,-6.813684850931199521e-02,1.808230727910999924e-01,-2.406508028507199914e-01,7.671874947845900260e-03,-1.390296518802600079e-01,-4.159286320209499843e-01,-1.740328967571299901e-01,-3.294637799262999933e-01,2.904382348060600139e-01,3.753137541934800127e-03,4.225716590881299917e-01,4.611263871192899932e-01,-6.530699729919400287e-01,3.850489258766199852e-01,7.538405805826199624e-02,-3.698613643646200266e-01,-6.846652925014500013e-02,1.776207238435699998e-01,1.607540547847700063e-01,-4.649225771427200060e-01,-4.363739490508999896e-02,-5.549903512000999850e-01,1.776553541421899973e-01,2.691884636879000037e-01,-2.263111621141400132e-01,-2.574707567691800203e-01,-7.875651121139499722e-01,-7.543110102415100104e-02,-7.641786336898799548e-02,4.871412366628599666e-02,-3.699039220809899886e-01,1.161416992545099974e-01,-3.176651000976600248e-01,-1.175961121916799940e-01,1.386245489120500052e-01,-5.270234942436200498e-01,-5.247731134295500338e-02,4.559115506708600295e-03,-2.281424552202200029e-01,-6.134028360247600203e-02,1.631510853767400016e-01,5.495347082614900069e-02,2.099010907113599972e-02,-1.759724020957899870e-01,2.863885164260899785e-01,8.591385558247599183e-03,-2.459721416235000069e-01,1.791975796222700090e-01,-1.421979442238800045e-02,3.214738667011299844e-01,-1.590474545955699870e-01,2.630155682563800057e-01,-1.543995738029499964e-01,2.915720269083999991e-02,-1.061831414699599963e-01,7.460749894380599989e-02,3.844498693942999812e-01
1.638614237308499977e-01,4.395960271358499982e-01,-1.923703253269199998e-01,-5.903129577636699876e-01,3.242134153842899935e-01,2.219274640083299943e-01,-1.494378745555899890e-01,2.441532164812100156e-02,6.750313192606000046e-02,-2.462708018720100034e-02,1.578324139118200131e-01,4.841612875461600018e-01,-3.779596686363200231e-01,2.924954593181600115e-01,1.782704442739500017e-01,3.589016497135200101e-01,-6.262374520301799974e-01,-7.105443477630599691e-01,-4.339909255504599828e-01,-3.300035297870599904e-01,1.213045790791500017e-01,1.453026384115199965e-01,1.307452082633999924e+00,-7.860776782035799881e-02,-4.780500233173399782e-01,3.746594786644000252e-01,1.384834051132199928e-01,2.852996885776499791e-01,-5.960378050804100436e-01,-5.833329558372499779e-01,4.240181297063799759e-02,-8.502076566219300691e-02,-1.435279287397899992e-02,1.012349799275400059e-01,-3.065451607108099844e-02,7.089144587516800211e-01,-5.090057253837599882e-01,1.724877357482899887e-01,-2.758240103721599779e-01,1.726668179035200090e-01,4.720294475555399799e-02,3.267433941364299987e-01,-4.612022638320900092e-01,-6.275568902492499601e-02,-5.748441070318199841e-02,7.105218172073399785e-01,3.121131658554099908e-01,-1.378277093172100010e-01,-1.660482287406900015e-01,1.827123314142199972e-01,-3.906202614307400234e-01,-1.340536952018700045e+00,9.662448614835700278e-02,-8.125720024108900041e-01,2.684341967105899895e-01,7.737424969673200037e-01,-4.444388747215299862e-01,2.819931209087400137e-01,-4.366197288036299806e-01,-1.670736372470900122e-01,-7.817314863205000464e-01,-2.934401929378500085e-01,-3.341630697250400073e-01,-1.170544326305399951e-01,9.994818270206499988e-02,-2.574972622096500033e-02,1.690576821565600019e-01,4.912481904029800117e-01,1.040233820676799981e-01,4.489980340004000037e-01,2.507632672786699879e-01,-2.666866481304199787e-01,1.036035180091900099e+00,4.377257823944100124e-02,-2.237334698438600000e-01,1.621852517127999882e-01,-1.304620742797899968e+00,-2.586388885974900131e-01,-1.045942306518599985e+00,5.092028900980900136e-02,-9.105003438889999398e-03,2.109923660755199937e-01,1.198071464896200006e-01,-4.550847411155700128e-01,-1.800467967987099960e-01,-8.475266396999399376e-02,-6.298901140689799893e-02,-1.265054047107699864e-01,-1.664654910564400125e-01,4.513244703412099684e-02,2.799961864948299906e-01,8.309232592582700416e-01,-1.176061108708399972e-01,-9.434443712234500401e-01,-5.600272417068500319e-01,3.526901081204399796e-02,-5.492981672286999517e-01,-1.224416866898500045e-01,-1.099278926849400068e-01,3.154040277004199755e-01,-1.244735643267600028e-01,4.277568757533999899e-01,2.329231351614000078e-01,-5.246382951736500155e-01,-4.510368406772600203e-01,-7.646883130073499624e-01,3.214676305651700122e-02,-4.865906536579099884e-01,-5.164169073104899477e-01,3.854164779186199929e-01,-3.362790048122399900e-01,1.130677834153200056e-01,-3.968956470489499733e-01,-4.298255443573000267e-01,-2.736689150333400100e-01,2.225591093301799994e-01,-5.246590375900299641e-01,-1.219642043113700058e+00,-1.610489338636399981e-01,2.534525096416500034e-01,-3.011635243892700209e-01,8.912908285856199764e-02,1.895828396081900014e-01,-1.240604091435699996e-02,-6.259493231773399780e-01,7.085430622100800102e-01,-1.805912405252499964e-01,-3.030184656381600117e-02,-5.533342957496599768e-01,1.056197285652199946e+00,4.444440305233000044e-01,9.647974967956499670e-01,-6.365410089492800072e-01,-2.768545150756799855e-01,-3.890105485916099948e-01,-4.586111009120900084e-01,4.275245070457500129e-01,1.768533587455700107e-01,-3.828192874789199812e-02,-6.899185776710500262e-01,4.353957250714299981e-02,7.298566699027999594e-01,3.541657030582400223e-01,1.210542693734199954e-01,4.814658313989599731e-02,-1.384733915329000031e-01,1.120564788579899995e-01,-7.695746421814000371e-01,-3.431188166141500018e-01,1.054445356130599976e-01,-9.576677531004000599e-02,-9.613656252622600207e-02,-3.059362620115299927e-02,4.569459855556500250e-01,-3.128911554813400275e-02,-3.050022423267400029e-01,4.187445938587199823e-01,1.403879374265699920e-01,-1.206728443503399945e-01,1.828786879777899999e-01,-1.458736509084699873e-01,-3.056857585907000185e-01,6.541580557823200026e-01,4.503716528415699916e-01,5.128125846386000219e-02,4.099934995174400187e-01,-2.962505817413300102e-01,-4.057590961456299938e-01,-7.720579206943499473e-02,-5.215018987655599680e-01,-3.885204493999500075e-01,-2.997140884399400185e-01,5.468909740448000267e-01,-4.365405142307299813e-01,-1.715220361947999983e-01,-4.822314679622700107e-01,7.150359749793999686e-01,-4.872460663318600033e-02,5.832198858261099517e-01,-2.271968424320200131e-01,1.258453726768500036e-01,8.487292379140899679e-02,5.100526213645899531e-01,-5.049882531166099975e-01,-1.861166357994100129e-01,-1.929421126842499890e-01,-1.081166975200200005e-02,5.308346357196599800e-03,-6.370005607605000453e-01,4.557875171303699818e-02,-2.966251969337500016e-01,-3.291695415973699967e-01,-3.702215850353200027e-02,4.046106636524199884e-01,-7.498205304145799666e-01,2.850448191165900202e-01,-4.020541608333599859e-01,-4.181809425354000020e-01,-7.739177346229599852e-01,-4.297015666961699898e-01,-2.016975283622700066e-01,-1.772860065102600108e-02,8.001974970102300466e-02,-5.068500712513900053e-02,-7.355483621358900603e-02,4.402805268764499735e-01,-3.004125952720599901e-01,9.147908091545100540e-01,-2.171541750431099996e-02,-3.289903998374900107e-01,3.575804531574199863e-01,-6.449816226959199650e-01,4.648804962634999760e-01,8.846771717071499896e-02,-8.717781305313100637e-02,-3.380832970142400029e-01,7.289136648178099476e-01,3.916168212890600020e-01,-9.708275645971299606e-02,-2.466608136892300129e-01,-5.436724424362200381e-01,5.500614643096900513e-01,5.286323428153999471e-01,-3.063184618949900129e-01,-7.638480663299600515e-01,-5.009155273437500000e-01,-6.130741164088199940e-02,1.727331429719899947e-01,-6.284137964248700525e-01,-3.277893960475899982e-01,5.707609057426500376e-01,1.384133338928200008e+00,-9.612079709768299451e-02,3.753857016563399984e-01,-3.606258332729300187e-01,-2.971471659839200127e-02,-7.440791130065900205e-01,1.999966800212900075e-01,2.374407462775699959e-02,-3.682987019419699942e-02,8.368121981620799676e-01,-1.363030076026900128e-01,-2.337154597043999971e-01,-1.018114611506499984e-01,-1.645216494798699969e-01,-3.897700011730200198e-01,1.670382320880899885e-01,8.548504114150999866e-01,-2.523547410965000237e-01,-1.557574421167400025e-01,1.389676481485400128e-01,1.493002474308000038e-01,-2.163654267787900043e-01,3.437602221965799787e-01,-2.850875854492200268e-01,-1.078919619321799944e-01,2.523083090782199944e-01,1.488011516630599954e-02,-9.303047657012899485e-01,-3.989290297031399812e-01,3.208996355533599854e-01,2.403360791504400087e-02,-8.786561340093600181e-02,4.650973156094599659e-02,6.180498003959700171e-01,-2.303452789783499988e-01,1.038878858089399976e-01,3.426381647586799750e-01,-3.633765280246700202e-01,2.113907411694499958e-02,-7.276806831359899919e-01,-1.215978860855100041e-01,-3.481072783470199883e-01,-2.485452219843900003e-03,4.727811217308000025e-01,-7.046929560601699997e-03,6.110142469406100174e-01,-3.114934265613599762e-01,-8.519231081008900031e-01,-9.458398222923299903e-01,-4.244713485240900197e-01,7.020691782236100631e-02,1.010537222027799997e-01,2.693194150924699826e-01,3.283774554729499973e-01,2.640429735183700277e-01,7.284669876098599506e-01,2.717103660106700014e-01,-9.725898504257199373e-02,2.068616300821299880e-01,1.177385210990899989e+00,-2.414026111364399874e-01,-1.301508545875500023e+00,2.793949842453000154e-01,2.073922604322399887e-01,3.747370839119000263e-01,6.222223639488200231e-01,2.061297744512599894e-01,2.965348362922700098e-01,-5.089756846427899717e-01,3.866300582885699999e-01,1.218680217862100068e-01,-2.771812379360200085e-01,-7.689127922058099918e-01,9.111686944961500112e-01,2.323317080736199969e-01,-1.141133438795799947e-02,3.663814663887000056e-01,5.060470700264000365e-01,3.825162351131399796e-01,-1.480736881494499890e-01,2.205977737903599967e-01,8.383637666702299651e-02,2.427241504192400035e-01,-2.068845331668900112e-01,-4.141474962234499846e-01,2.555170357227299904e-01,-8.022939562797499757e-01,-3.789558410644500164e-01,2.104453742504099889e-01,3.681064248084999768e-01,9.247989207506200626e-02,4.064695537090299848e-01,4.534448385238600276e-01,-1.776534020900699951e-01,3.964442610740699924e-01,6.684268712997399886e-01,-3.147234320640600047e-01,-3.321066200733199802e-01,-3.272945582866699787e-01,3.667496740817999812e-01,4.054414927959399950e-01,-1.049361377954499963e-01,1.266696214675899990e+00,2.726873755454999881e-01,-2.319074003025899805e-03,2.707961201667800077e-01,1.697522997856099891e-01,4.719910919666300275e-01,1.655585616827000006e-01,-1.242354393005399960e+00,-2.899395227432299826e-01,-2.667091488838200242e-01,-1.734863519668599918e-01,4.974374771118200145e-01,-2.785896956920599910e-01,2.015506178140600013e-01,3.655848503112800185e-01,1.132158562540999946e-01,-3.690811693668399895e-01,2.883802950382199914e-01,-2.399263083934800034e-01,1.675505638122599950e-01,1.189387291669800062e-01,-6.582423448562599866e-01,7.907035201787900036e-02,-5.321254134178200479e-01,2.607583701610600158e-01,-7.647065520286600027e-01,2.487598210573200019e-01,-2.589835822582199909e-01,-1.008871316909800031e+00,-2.275236248970000097e-01,3.416394293308300245e-01,-2.843816578388200234e-01,6.974586844444299882e-02,-4.660889506339999794e-02,-3.961608931422200275e-02,4.125433862209300084e-01,5.268976688384999774e-01,5.092670321464499716e-01,-1.846019476652099867e-01,-4.020938277244599790e-02,-2.628084719181100204e-01,-4.667367637157400218e-01,-3.690927922725700250e-01,6.302098035812400134e-01,-3.367823660373699957e-01,-2.081127017736399964e-01,1.379215836525000016e+00,-1.403486579656600119e-01,-5.523275956511500273e-02,5.473620891571000513e-01,7.964222878217699919e-02,-1.374139636754999894e-01,-2.445582151412999949e-01,-2.882465720176699900e-02,5.844668298959700137e-02,-2.164615690708200091e-01,3.227031230926499794e-01,-7.930959016084700164e-02,-8.514940738677999332e-02,1.509609818458599872e-01,-7.367412447929400088e-01,-1.772389709949500070e-01,3.964127302169799805e-01,2.810737788677200033e-01,-2.324313670396800091e-01,2.266425937414200120e-01,1.409978270530700128e-01,-3.005904555320699778e-01,-9.786330908536899909e-02,1.377644389867800079e-01,-3.333485126495400186e-01,-7.019024342298499364e-02,5.034970641136200520e-01,-3.527320921421099875e-01,3.092608414590400021e-02,-2.500832378864299987e-01,5.061625316739099684e-02,2.538624405860899769e-01,1.086058169603300039e-01,2.273551821708700016e-01,3.557507321238499720e-02,-2.798693180084200205e-01,7.648372650146499641e-02,-1.547168940305700124e-01,1.910592913627600087e-01,2.559026181697799940e-01,2.235979735851300054e-01,1.313118636608100014e-02,5.430267006158800286e-02,1.864698827266700054e-01,1.849868595600099863e-01,8.503083884716000629e-02,2.265774756670000112e-01,1.625124365091299983e-01,2.533903121948199999e-01,-4.245424866676300035e-01,-2.155448347330100045e-01,1.323491185903500067e-01,-2.059176862239799899e-01,7.856130599975599815e-02,3.623538836836800309e-02,-1.926934719085700021e-01,-9.416670352220500584e-02,1.200380772352200032e-01,2.733899950981100169e-01,-3.454141914844500172e-01,1.042348816990899957e-01,1.402484625577899990e-01,-5.256956815719600051e-01,-7.587812095880500096e-02,3.936956524848900241e-01,-2.862102091312400121e-01,2.487405985593799940e-01,-1.615793704986600021e-01,-7.821157574653600508e-02,2.033652514219299878e-01,8.650825172662700291e-02,-6.002980470657300061e-02,8.673541247844700208e-02,1.774973720312099934e-01,-2.389897406101200092e-02,8.741136789321900524e-01,-1.036861538887000056e-01,-4.442206323146800084e-01,-7.736694067716599899e-02,-1.098280623555200064e-01,8.358265459537500552e-02,1.670079827308700027e-01,-1.853380054235500007e-01,-2.378465682268099957e-01,-2.492832094430899870e-01,-2.196267098188399991e-01,-6.169683113694200000e-02,-4.615619778633100329e-02,-1.810889318585399976e-02,6.220664083957699875e-02,-6.868745386600499936e-02,-7.699455320835099648e-02,-3.558261096477500218e-01,-1.494316607713699896e-01,1.328720897436100057e-01,-1.730583906173699948e-01,-6.329087615013100354e-01,-3.536674976348900268e-01,-2.033140882849699890e-02,2.411431819200500135e-02,1.663396954536399963e-01,-1.530944108962999928e-01,4.591000080108599835e-01,-4.049160778522499782e-01,2.009416669607199946e-01,-4.744170978665399746e-02,8.355776965618100238e-02,3.444680273532900183e-01,2.507484853267700209e-01,-9.311153739690800069e-02,-2.114828974008599871e-01,9.824226796627000269e-02,1.542780697345700058e-01,2.338612079620399908e-01,-2.579705230891700049e-02,-5.905944108963000205e-02,-1.209233887493599974e-02,2.851915359497100150e-02,3.736460208892800061e-02,-9.850313514471099874e-02,-2.601338550448399969e-02,-1.368068307638199976e-01,-9.030853956937799631e-02,2.136538363993200143e-02,-1.281582117080700134e-01,1.732359081506699983e-01,-2.971439659595500049e-01,3.454856276512099922e-01,-6.780764460563699914e-02,1.734948456287400131e-01,-2.385166287422199882e-01,3.095251917839100253e-01,-3.469555675983400089e-01
1.060412228107499993e-01,1.220837235450699942e-01,9.725340008735700037e-01,2.313018441200299924e-01,-2.771141827106500255e-01,3.632516041397999829e-02,3.975728154182400220e-01,1.009038388729100039e-01,2.041841149330100025e-01,-2.878131270408599840e-01,-2.794657945632900153e-01,2.790014445781699992e-01,-1.023082733154300067e-01,-1.270620059221999956e-02,-1.124795675277699969e-01,-6.889524869620800018e-03,-1.704654470086100146e-02,2.649180293083199800e-01,-2.786520496010800110e-02,-1.193990856409099938e-01,-3.240032792091400160e-01,-2.864530086517300123e-01,-9.447223693132400513e-02,9.947113692760500489e-03,4.241791963577299929e-01,1.499820649623899993e-01,-1.167131289839700020e-01,3.596787452697799981e-01,4.080781042575800099e-01,-3.210555315017700195e-01,9.570356011390700468e-01,-4.005375504493700056e-01,1.194430813193299995e-01,2.172767184674699939e-03,1.040602684021000091e+00,3.682459592819199989e-01,-2.084027789533100111e-02,8.643358349800099871e-01,6.351435780525199748e-01,2.810980975627899725e-01,9.985309839248700248e-02,2.156640589237200090e-01,-2.721889317035700029e-01,6.326597332954400077e-01,1.081474721431699981e-01,9.385829418897599641e-02,1.696225255727799863e-01,2.372603118419600032e-02,-6.263757348060600139e-01,4.496508836746200277e-01,1.518314480781599862e-01,6.366279721260099667e-01,-1.320612430572500051e-01,-6.480930447578400200e-01,-5.605689883232100046e-01,5.924307703971900541e-01,-3.353187143802600079e-01,-3.933216631412499997e-01,-4.767852127552000274e-01,6.220900639891600165e-02,8.660770952701599829e-03,-1.960618048906299926e-01,-1.744598150253300062e-01,8.357465267181400648e-02,-5.371466279029799562e-01,-4.328544139862099960e-01,-6.488712131977099340e-02,4.927844703197499787e-01,1.511332951486099932e-02,2.647836208343499753e-01,3.424929380416900093e-01,3.305485099554100054e-02,1.313213258981699993e-01,-9.601676836609800494e-03,-2.828151881694799807e-01,-5.508770346641499449e-01,-1.192481443285900028e-01,2.554856538772600216e-01,-6.946080923080399927e-01,-1.270434856414799918e-01,1.833809018135099944e-01,-3.299371302127799832e-01,2.708368934690999832e-02,-8.587000519037199520e-02,3.050888329744300131e-02,-1.153369024395899944e-01,1.578359305858600126e-01,-1.558117382228399982e-02,5.946006253361699884e-02,2.715606708079599911e-03,-1.391526311635999935e-01,-4.368809163570400167e-01,-4.053444862365699897e-01,-7.567943930625899984e-01,-2.423921413719699880e-02,-2.009224444627799866e-01,1.978391408920300021e-01,-6.689479202032100336e-02,-6.651085615158100484e-02,-3.135243058204699729e-01,7.249695658683800170e-01,-3.102635145187400134e-01,8.701577782630900426e-01,1.319085210561800059e-01,-3.803479969501499802e-01,3.694307506084399950e-01,2.403686195612000087e-01,-1.156349256634700007e-01,-1.200279872864500053e-02,9.938512742519399479e-02,-1.655294001102400048e-01,-3.512471020221700213e-01,3.331848680973100163e-01,-2.846627831458999891e-01,-1.538872420787799900e-01,2.486895918846100118e-01,2.639334201812699732e-01,-9.912620782852199497e-01,4.014374017715500176e-01,1.622381806373600077e-01,-5.845952033996599795e-01,-1.561283916235000069e-01,1.635046154260600126e-01,-2.633745074272200171e-01,-5.013542771339399851e-01,-2.780685722827900275e-01,-3.576508462429000001e-01,-1.214257478713999944e-01,-1.409647315740600038e-01,1.114557743072499996e+00,4.853339865803699832e-02,8.575950264930699563e-01,9.010102152824399635e-01,-1.594285294413599896e-02,6.553093791008000046e-01,3.299180790781999772e-02,2.058942802250399856e-02,6.641493737697599931e-02,-2.386225014924999929e-02,-8.175364695489399647e-03,1.399776041507700131e-01,-1.630738377571100128e-01,2.070275992155100053e-01,1.530202478170399893e-01,2.391090691089599873e-01,3.626627624034899910e-01,2.732893824577299902e-01,-4.748047590255700112e-01,-1.342838853597599913e-01,-5.783532932400699961e-02,-5.457255989313099936e-02,-1.017959788441699931e-01,4.235372543334999795e-01,-1.110411435365700056e-01,7.983763515949199308e-02,-1.700424998998600057e-01,1.555456873029499934e-02,5.402795076370200400e-01,1.072599813342099973e-01,-2.712392210960399841e-01,1.758791655301999990e-01,8.237309008836700419e-02,-4.836903810501099743e-01,3.005973696708699738e-01,-5.470155552029599966e-02,4.581061899662000059e-01,4.776455834507899872e-02,1.789404153823900001e-01,-1.089052483439399976e-01,1.371403187513400013e-01,5.435736104845999977e-02,6.085606217384299521e-01,6.428311467170699789e-01,1.884009689092600026e-01,1.466299593448600058e-01,1.051142886281000027e-01,1.807873696088800053e-01,4.780187308788300116e-01,-1.934759467840199976e-01,2.860628068447100270e-01,2.525479495525400075e-01,2.523709535598799847e-01,4.351592063903800267e-02,7.114247679710400396e-01,-2.271929681301100012e-01,2.725999951362599871e-01,-1.934906393289599902e-01,1.867524534463899932e-01,1.370517313480399957e-01,2.020455598831200072e-01,-3.289085626602200052e-01,-2.365736290812500003e-02,1.969485580921200019e-01,7.822591662406900292e-01,1.108564585447300022e-01,5.674420297145799791e-02,-5.574909970164299879e-03,-1.854142695665400020e-01,5.365230441093400415e-01,1.435247808694800065e-01,4.088085591793100271e-01,-3.792780265212099960e-02,1.469711363315600039e-01,-5.675990134477600091e-02,3.512476682662999949e-01,6.867770552635199532e-01,2.461604773998299963e-03,1.693425700068499837e-02,2.735024690628100053e-01,4.882290661334999782e-01,-4.422332346439399736e-02,2.708118557929999892e-01,5.042465403675999713e-02,-1.580910980701399904e-01,-3.671042919158900020e-01,3.726624548435200079e-01,-2.941212654113800062e-01,-8.253212273120899556e-02,-2.862558662891400152e-01,8.492169380188000494e-01,9.491667747497599672e-01,9.357400238513899349e-02,1.338659375906000037e-01,-2.610916197300000019e-01,-1.208250075578699984e-01,-1.729920059442499880e-01,5.900239106267700200e-03,4.775496572256100053e-02,2.855271995067599766e-01,-4.826853051781700155e-02,-1.213640347123099983e-01,9.732637405395500041e-01,5.780099630355800544e-01,-1.893665939569499912e-01,-8.689556121826199631e-01,8.413351140916300666e-03,-3.753983080387099935e-01,7.783999443054200329e-01,2.780666947364799843e-02,7.906699925661099526e-02,2.678319066762899908e-02,8.125805109739299426e-02,-3.912732303142499868e-01,8.908248543739299974e-01,9.152448177337600688e-02,5.654063224792500453e-01,2.893038392066999975e-01,3.045108318328900165e-01,1.962257474660900058e-01,-2.147980332374599954e-01,5.116751044988600283e-02,3.632536530494699933e-01,2.869109511375400046e-01,-5.304301902651799988e-02,-8.667926490306900045e-02,1.541716307401700126e-01,-2.226785272359800005e-01,2.327294945716900099e-01,-4.021589756012000083e-01,-3.458422124385799878e-01,-4.775771200656899751e-01,1.149512752890600037e-01,3.314075767993899801e-01,4.800559580326099751e-01,-3.229751586914100248e-01,1.280122995376599959e-01,-3.993557989597300018e-01,2.651995122432699858e-01,-1.936145871877699987e-01,7.078317403793300544e-01,-6.188449859619099547e-01,2.521624565124500061e-01,2.672906406223799977e-02,2.389073930680800026e-02,-6.617350131273300184e-02,8.935156464576700097e-01,1.334425061941099944e-01,-7.032150030136100072e-02,4.847525432705900028e-02,-7.211560755968099423e-02,-2.898518145084399977e-01,-1.261987835168799921e-01,-5.560644268989599626e-01,4.534297585487400140e-01,7.534222602844200534e-01,3.974200487136799742e-01,2.969611585140199961e-01,-3.447491303086300252e-02,7.022410035133399564e-01,5.088324546814000371e-01,1.475534290075299904e-01,6.552696824073800386e-01,7.641000151634199655e-01,3.069125115871400022e-01,-3.313475251197799953e-01,1.985148936510099937e-01,2.985128760337800169e-01,5.161175727844200534e-01,1.286775767803199910e-01,1.315869212150599932e+00,-2.517960071563700164e-01,8.098994195461299561e-02,-1.102415919303900010e-01,2.095093578100199957e-02,9.979823231697100561e-02,2.970510721206700011e-01,2.253347188234300080e-01,3.965676426887499995e-01,3.513540327549000142e-02,-1.237013116478899999e-01,9.309340119361899646e-01,-3.236588239669799805e-01,5.517342090606699445e-01,4.899306967854499817e-02,-2.925208210945099974e-01,-1.225807070732100046e-01,-3.285452723503100025e-01,1.936657428741500042e-01,5.206439495086699898e-01,-5.062236189842199696e-01,-2.289258092641799913e-01,-3.942166268825499920e-01,-3.700582683086400121e-02,-4.442526102066000071e-01,-1.896716803312299970e-01,-3.744876980781600140e-01,-5.239089131355300077e-01,-1.042480349540700013e+00,-2.337456345558200088e-01,-2.946564741432700085e-02,-2.334120869636500117e-01,1.923065185546899980e-01,1.544673144817400035e-01,3.860840201377899739e-01,3.953892886638599724e-01,6.015025451779400234e-02,1.924772113561599995e-01,1.240587159991300009e-01,5.420873165130599691e-01,3.122084438800800110e-01,-6.935871839523299887e-01,3.208684623241400136e-01,-4.548701345920599937e-01,2.289462387561800039e-01,-1.511621940880999992e-02,-7.995687425136599469e-02,-5.167487263679499954e-01,-5.534845963120500062e-02,-5.146968960761999501e-01,4.950593784451499946e-02,-2.731562852859499846e-01,-9.326832741498899959e-02,2.194593660533400090e-02,-4.115529954433400084e-01,6.028393507003799723e-01,3.009765744209300098e-01,-6.666086614131899735e-02,2.200049906969100133e-01,9.164790809154499396e-02,1.573447436094299878e-01,-2.059600055217699899e-01,-1.474365890026100023e-01,-3.520368039608000321e-02,-4.173460304737099946e-01,-1.523536890745199879e-01,3.908056020736699887e-01,-5.293571352958700293e-01,1.403513252735099914e-01,2.976477742195099974e-01,9.144775271415700457e-01,-2.679027318954499970e-01,-3.538021445274400212e-01,3.219680190086400273e-01,1.141061186790500032e-01,-3.008916079998000259e-01,4.824633300304400074e-01,1.197979152202599956e-01,2.879819869995099979e-01,4.681162834167499898e-01,4.719865918159499851e-01,7.357133179902999864e-02,1.154993101954499973e-01,-2.576669454574599949e-01,9.746021628379799573e-01,1.101516187190999946e-01,7.840294856578099722e-04,-4.395700395107299818e-01,-8.426680415868799401e-02,1.997000165283700085e-02,6.391875445842699899e-02,-1.091204490512599941e-02,-2.747719548642599957e-02,1.448615640401799964e-01,-2.551639676094100140e-01,2.878081202507000169e-01,1.163837686181100062e-01,1.679745316505399863e-02,6.609316915273699689e-02,-1.032537966966600024e-01,-2.326210588216800004e-02,-2.121733576059300075e-01,-2.497484833002099891e-01,-3.003040552139299990e-01,5.374140664935100203e-02,2.885149046778700058e-02,-4.239541664719600339e-02,-3.167020976543399868e-01,7.452233135700199462e-02,-7.887450605630899614e-02,-1.653974056243900093e-01,-1.765259802341500039e-01,2.012044750154000014e-02,-1.147722378373099983e-01,-3.880535811185800016e-02,-1.670932173728900128e-01,-3.700333833694500196e-01,3.948844075202900261e-01,2.229226753115699962e-03,1.725764758884899830e-02,-2.315521091222799976e-01,-7.583504170179400372e-02,-1.922437362372899847e-02,-3.006902039051099762e-01,1.032974645495400023e-01,3.586054220795600184e-02,1.356268227100400070e-01,-1.268030107021299868e-01,-7.917996495962099923e-02,-3.856567665934599980e-03,-1.442908495664599888e-01,2.149443700909599991e-02,1.394893378019300134e-01,1.098417490720700052e-01,-6.808934360742599501e-02,-1.838748902082399939e-01,-6.543310731649400191e-02,-1.123118847608600007e-01,1.673881337046599985e-02,-9.997558593750000000e-02,-5.614574253559100059e-02,-2.797820866107900151e-01,1.105319932103200065e-01,1.991025805473299881e-01,5.573478341102600098e-02,-1.662646681070300003e-01,4.319677650928500090e-01,-2.024067752063300057e-02,1.052171364426599948e-01,-6.094712391495699794e-02,-7.767829895019500164e-01,4.493765160441400008e-02,-2.691155374050099858e-01,2.441320717334700130e-01,-7.736154645681400654e-02,4.697792828083000027e-01,-3.698026016354599710e-02,-7.291123270988500438e-02,3.260627016425100139e-02,1.310930997133299969e-01,8.527134358882899889e-02,-1.737864501774299963e-02,-8.029381930828100034e-02,9.968531876802400049e-02,-7.535780221223800646e-02,-7.527322322130200472e-02,1.063581332564400017e-01,-2.674432694912000086e-01,1.640483736991900018e-02,1.592276804149200115e-02,1.893860101699799958e-02,-3.731059655547099702e-02,-7.540476322174100021e-02,4.751150310039500141e-02,-3.074705787003000068e-02,-2.816566228866599908e-01,-8.855725638568399602e-03,2.928317785263099826e-01,6.178715080022800094e-02,7.099364697933199797e-02,1.676091253757500121e-01,3.779402673244500188e-01,1.489250361919400023e-01,8.631429821252800672e-02,5.828705430030800549e-01,-9.001670032739600424e-02,-3.256061077117899938e-01,1.482777297496800095e-01,-1.353109776973699940e-01,1.981430053710900030e-01,1.411298848688600019e-02,1.351410746574399913e-01,2.592894621193399946e-02,3.949567303061499862e-02,-3.349646031856500228e-01,-2.311162948608400103e-01,2.156371623277699989e-01,-2.534573078155499815e-01,-6.135213375091599919e-02,-3.067177236080200209e-01,1.432404071092600040e-01,1.221381127834299946e-01,-4.456266388297099729e-02,1.356027275323899994e-01,3.921546936035200104e-01,9.766834229230900166e-02,5.628609657287599738e-02,-7.437922805547700356e-02,-4.730547964572900249e-02,-1.066160649061199950e-01,-2.186216972768300140e-02,3.070499897003199918e-01,1.780933737754800128e-01
8.473807014524900247e-03,-2.440910637378700121e-01,-4.858250543475200328e-02,-3.794986307620999977e-01,-4.025104939937599879e-01,6.372472643852199470e-01,-5.230006575584400519e-01,-1.537143532186699933e-02,9.155660122632999776e-02,1.734383106231700000e-01,-2.381846606731400084e-01,2.411905080079999875e-01,3.126472234725999853e-03,3.292721509933499990e-01,-1.501505970954900016e-01,-4.112800359725999888e-01,2.186046987772000127e-01,-1.950159817933999895e-01,-3.448233008384700149e-01,5.908699631691000098e-01,6.717153191566499482e-01,-2.733826339244799786e-01,-3.567352592945099987e-01,9.386967122554799869e-02,5.459442138671900535e-01,-1.871839910745599911e-01,3.655949234962500016e-01,2.148177474737200110e-01,-4.085467457771300159e-01,-1.609933078289000064e-01,-2.550432980060600152e-01,1.422212868928899865e-01,-7.435113191604599825e-01,4.062708839774099856e-02,1.513197422027600103e-01,-5.925058946013499889e-02,3.192261755466500039e-01,-4.192181527614600167e-01,1.812258660793300002e-01,2.064019292593000099e-01,3.718716790899600100e-03,-3.141225576400800135e-01,8.460140787064999654e-03,2.320869639515900015e-02,4.507342353463199974e-02,4.963205754756899735e-01,3.006890714168499734e-01,-3.303846418857599998e-01,-2.217869311571100122e-01,-4.935999214649199746e-02,6.072742938995400186e-01,-5.233879387378700260e-02,2.907597124576600245e-01,2.349009513854999898e-01,-5.253737568855300077e-01,2.844190457835800000e-03,5.656114816665599454e-01,-1.908899545669600073e-01,2.284121811389900059e-01,-4.681455492973299881e-01,3.214519470930100181e-02,4.947694391012200099e-02,-2.568876147270199861e-01,-1.157330535352200061e-02,-4.834615588188200253e-01,-1.835244596004499962e-01,1.191077902913099951e-01,3.552903831005099766e-01,2.305074483156200060e-01,-4.420735836029099919e-01,-5.468033999204600232e-02,-1.584476530551900131e-01,-2.998076975345599915e-01,-1.378987822681699942e-02,1.692612469196299874e-01,-6.705561280250499356e-02,6.077826619148299914e-01,-2.841034717857799860e-02,-3.559214472770699800e-01,1.652971655130399953e-01,2.630267441272700069e-01,-2.899442017078400213e-01,3.466064333915699902e-01,-3.053422272205399968e-01,1.122975721955300071e-02,3.346127271652200030e-01,-2.570736706256899762e-01,-4.882372617721599806e-01,4.691731333732599984e-01,1.025163903832399942e-01,-2.139034122228599955e-01,-5.251036286354100469e-01,5.268059670925100135e-02,1.332849740982100073e+00,1.272770017385499962e-02,8.325400203466400140e-02,3.188040256500199732e-01,3.214843571186100091e-01,2.226999029517200135e-02,-6.052903532981900314e-01,-9.126382321119300145e-02,-1.254499554634100067e-01,2.749141752719900245e-01,1.781183928251300064e-01,2.580015659332299816e-01,-2.494560331106200068e-01,2.490041218698000117e-02,-3.106342554092400010e-01,5.600955486297599650e-01,1.082529425621000074e+00,-2.788622491061699959e-02,3.420857787132299821e-01,5.861568823456800303e-02,-1.802161037921899966e-01,2.042621374130199896e-01,-1.089694648981100050e-01,2.388376556336899853e-02,-1.180843114852899944e+00,-1.848998218774799973e-01,4.189368486404400072e-01,3.682909905910500270e-02,2.209740430116700072e-01,-6.261972784996000518e-01,3.884819447994199981e-01,5.448881387710600155e-01,-3.902714550495099965e-01,2.096382528543500046e-01,1.967107802629499969e-01,-9.502854198217400294e-02,3.579931557178500090e-01,4.242169260978699841e-01,-3.039880692958800146e-01,-3.955873250961299825e-01,5.425859615206699710e-02,6.688174605369599790e-02,-2.349934279918700075e-01,-1.097621396184000064e-01,-2.568583190441100020e-02,-1.014377102255799995e-01,4.414035379886599997e-01,1.096286624670000064e-02,1.448615193366999954e-01,-1.462631523609199957e-01,8.014114946126900396e-02,-8.076194673776600219e-02,1.438553482294100128e-01,-1.214650422334700025e-01,1.305465996265399997e-01,2.349142879247700100e-01,2.335573732852899986e-01,2.478929460048699962e-01,1.001123934984199937e-01,3.525311350822399881e-01,7.440911233425100135e-02,2.811534106731399807e-01,2.112752199173000001e-01,4.918449372053099872e-02,-9.186924993991900379e-02,-4.137971997261000179e-01,-1.437397599220300026e-01,-2.449534647166699830e-02,1.052119396626900044e-02,2.235037535429000022e-01,-2.822881005704400148e-02,7.585245370864900083e-02,-1.015608012676200017e-01,5.070940032601400221e-02,-2.545570731162999922e-01,3.581050038337699887e-02,-2.922948598861699887e-01,-1.125855371356000029e-01,-7.469294220209099500e-02,3.176693916320800226e-01,-2.143694320693599956e-03,-8.206286430358900041e-01,2.155948579311399993e-01,-5.494671463966399605e-01,-2.535052895545999996e-01,-1.811684072017699931e-01,5.710767507553099476e-01,2.486314252018900078e-02,5.985044315457300340e-02,-6.247454881668099702e-01,1.091106459498400044e-01,8.771664500236500128e-01,-3.943007886409800045e-01,-1.331277936697000119e-01,-7.662072777748099583e-02,-2.665112018585200082e-01,-3.661065399646800111e-01,-1.078385785222100018e-01,-4.786651581525799837e-02,-1.991378962993599899e-01,1.079247519373899983e-01,1.005375012755399949e-01,2.840377688407900170e-01,-1.514438688754999873e-01,9.951293468475300164e-02,7.322582006454499970e-01,1.647559702396400039e-01,-1.755402982235000076e-01,9.307537227869000854e-03,-5.623299255967099952e-02,2.624444961547899857e-01,-3.504812717437699732e-01,-6.633384227752699980e-01,5.957968905568099965e-02,-9.871427714824700106e-02,-4.431964457035100224e-01,3.199026584625199732e-01,-1.957886517047900121e-01,1.743526160716999951e-01,-9.797351434826899463e-03,-1.394697837531599927e-02,-3.581448793411299847e-01,-2.641285955905899874e-01,2.486665546894100132e-01,-1.828857958316799925e-01,7.664840668439899807e-02,-2.071971893310499968e-01,6.921184808015799772e-02,-4.977915287017800061e-01,7.899574190378200189e-02,-8.280545473098800680e-02,-4.615737795829800150e-01,6.699179410934400503e-01,4.982724040746699945e-02,-7.581728696823100133e-01,-2.063994528725699926e-03,-4.967256188392599747e-01,-6.672500073909799767e-02,-4.208492934703800259e-01,-3.397167921066299723e-01,4.813084304332699848e-01,-6.059560924768399998e-02,7.199776917696000533e-02,-5.665298551321000173e-03,5.133221149444600062e-01,-1.104599423706499953e-02,4.369955882430100191e-02,3.992848098278000135e-01,2.276193499565100087e-01,-2.465196140110499992e-02,-2.751654982566800189e-01,5.748670697212200364e-01,4.830139223486199819e-03,-6.130889523774399547e-04,1.876487135887099922e-01,-2.334423065185499968e-01,2.647138945758300069e-02,-4.037525057792700212e-01,1.972952038049700096e-01,2.286418080329900016e-01,-1.110709235072099982e-01,1.985086500644699936e-01,3.552492856979400093e-01,4.547488689422600205e-01,2.656816244125400073e-01,5.359655618667600319e-01,2.999430894851699836e-02,8.909420669078800537e-02,-1.823492944240600044e-01,-3.945608437061299822e-01,-2.241464555263500136e-01,-5.600401759147599634e-01,4.852050915360500011e-02,-1.334972381591799928e-01,-5.984892249107399698e-01,-1.549706608056999890e-01,7.785679697990399717e-01,-2.542492449283599854e-01,-2.421767264604600053e-02,-7.926459312439000371e-01,-3.535077571868899815e-01,-4.622734487056699981e-01,1.510609388351399907e-01,3.598619699478100009e-01,1.395229399204299947e-01,5.255098938941999975e-01,-1.613584756851199897e-01,4.371047317981699987e-01,1.020887717604599954e-01,-1.238471195101699951e-01,-2.239240705966900058e-01,5.564643740653999471e-01,5.766100436449100169e-02,3.930222690105399930e-01,-1.064402982592600050e-01,5.538591742515599492e-01,-2.192039936780899867e-01,-1.989687830209700137e-01,3.938870131969500199e-01,-3.854054510593399874e-01,-3.055238127708400087e-01,-8.028065413236600001e-02,-4.640401303768200147e-01,-4.750080108642599774e-01,-6.031150817871100411e-01,5.768051147460899752e-01,3.459847867488899942e-01,1.360822916030899887e-01,-1.185665652155900029e-01,-6.736432313919099579e-01,2.647160291671800114e-01,3.789607882499699820e-01,-4.876769185066199830e-01,-1.395421624183700027e-01,2.212938815355300071e-01,-2.771623432636299844e-01,4.876544177532199931e-01,-9.782636761665299829e-01,7.678979039192199707e-01,-5.640712976455699579e-01,1.356540173292200002e-01,-5.255641341209400519e-01,-1.545643061399500084e-01,6.972155570983900041e-01,4.806465506553599942e-01,-1.835034191608400089e-01,-9.689261764287900036e-02,3.008997738361400276e-01,-2.193504571914700052e-01,-1.036957278847699948e-01,2.190210968256000035e-01,-2.101092040538800054e-01,-1.046080470085100078e+00,-4.004683718085300104e-02,1.213182568550100093e+00,-2.168466895818700058e-01,-5.523531436920200433e-01,-3.060485720634499862e-01,-2.653782628476599945e-02,-2.241305410862000080e-01,1.290145069360700003e-01,-2.174496054649399934e-01,1.892931573092899999e-02,-8.477777838707000191e-01,5.531145334243799949e-01,-2.325801253318799944e-01,-8.215289711952199481e-01,1.488752961158799903e-01,-2.592701315879800128e-01,-6.433377414941800210e-02,-4.329580664634700149e-01,-4.274129867553699835e-01,5.102009326219599655e-02,7.593178749084500412e-01,2.580484449863399976e-01,-9.838905185460999903e-02,-5.440692603588100085e-02,-8.338514566421499907e-01,3.078539073467300158e-01,1.107032060623200032e+00,-4.344532191753400219e-01,3.703429102897600189e-01,-1.614918112754800128e-01,1.565059572458299963e-01,2.411133646964999933e-01,-3.071738481521599784e-01,-2.740024328231799866e-01,-2.171646058559400030e-02,1.309463568031800015e-02,1.816222667694100124e-01,-2.594539821147899827e-01,6.033123731613200258e-01,-2.214109152555500115e-01,-1.829352229833600130e-01,-1.027128100395200000e-01,1.644533723592800090e-01,7.323761284351300305e-02,-1.109890699386600010e+00,-1.632310301065399982e-01,-8.609858751297000401e-01,-3.412978053092999842e-01,1.415447145700499954e-01,5.516835302114499878e-02,1.642595976591099960e-01,-1.614275872707399972e-01,-9.864588826894800377e-02,3.560748696327200036e-01,-2.173921316862099939e-01,-1.040299415588400000e+00,2.328273206949199869e-01,-5.221786499023399752e-01,6.679587811231600669e-02,1.858408190309999986e-02,1.145351901650400045e-01,-7.390171885490399717e-01,-2.783439159393300000e-01,-6.584500428289200187e-03,-7.146304100751900423e-02,4.623571932315799771e-01,2.499335855245599924e-01,2.646665275096899972e-01,-9.687698632478700111e-02,8.705119043588599448e-02,2.393313646316500010e-01,-2.071793377399399894e-01,1.635691821575200045e-01,5.968074500560800050e-02,2.581808902323199859e-02,2.214804440736800051e-01,-7.351045310497300589e-02,-1.022094115614899934e-01,-1.880508847534699893e-02,8.213002234697300286e-02,-2.228159084916099889e-02,-8.642990142107000173e-02,3.694957122206699723e-02,-7.234577089548099860e-02,-3.027563989162400104e-01,-1.518338918685900041e-01,-2.575145475566400013e-02,8.070438168942900559e-03,-2.972914576530499842e-01,6.652992218732800035e-03,7.259247452020599345e-02,7.833731919527099630e-02,4.368073493242299876e-02,-1.076900400221299930e-02,1.190038919448900001e-01,-7.191945612430600265e-02,-8.198473602533300209e-02,-1.396000087261199951e-01,-4.072070121765099943e-02,2.181780338287399867e-01,6.042153760790799910e-02,2.533333897590600015e-01,-1.128787696361499976e-01,9.308025985956200343e-02,-7.583922892808900307e-02,-1.095471382141099959e-01,1.145867332816099954e-01,5.546732619404799725e-02,8.532526344060900603e-02,1.043403595685999941e-01,-2.930915728211400118e-02,2.153905928134899894e-01,-2.111502587795300034e-01,-2.412911504507100069e-01,1.776172518730199934e-01,-4.571877419948600085e-02,-1.523421555757500101e-01,-1.770142279565299973e-02,-1.931540369987500005e-01,-1.167464349418900066e-02,-1.708847731351899879e-01,1.962211728095999974e-01,5.435553193092299701e-02,-6.498225033283200336e-02,-1.374585926532700120e-01,7.897984236478799991e-02,-1.201017722487399964e-01,2.886919975280800021e-01,-3.499069809913599727e-01,3.197553753852799829e-01,2.221058905124700111e-01,-6.358176469802899466e-02,-6.367609649896599500e-02,2.893122434616099969e-01,-3.728080987930300072e-01,-1.857009083032599983e-01,1.699412614107100039e-02,-4.123767912387800161e-01,1.127853915095300003e-01,2.201630175113699905e-01,2.910492420196499896e-01,8.483889698982199912e-02,8.547210693359399980e-02,3.807511627674100008e-01,1.059125289320899943e-01,-1.449901461601300068e-01,1.319064944982500098e-01,1.554771363735200085e-01,2.012381106615100113e-01,-1.801868081092800056e-01,1.070978567004200049e-01,-1.279872208833700009e-01,2.390550449490499996e-02,2.044213712215399992e-01,2.149711847305300072e-01,5.355817452073100005e-02,2.429130226373699963e-01,-2.535206265747499965e-02,-1.146670207381200041e-01,1.284712702035900045e-01,1.870170235633900058e-01,-1.360684186220199876e-01,2.737078070640600047e-01,9.023120999336199655e-02,1.226894631981799988e-01,7.164300978183700541e-02,-1.198047306388600082e-02,-1.063912827521600046e-02,-1.877109408378599964e-01,-3.151696920394900236e-01,1.366098523139999965e-01,-5.374072492122700107e-02,-9.164893627166699475e-02,2.030392140150099889e-01,-5.075832083821300161e-02,-6.045812740921999856e-02,-3.373765945434600150e-02,-1.527215838432300077e-01,1.108040064573300038e-01,-5.145620107650800135e-01,-1.672434993088199942e-02,1.910697668790799914e-02,-1.021351367235199953e-01,-2.132880538702000006e-01,9.702979028224900659e-02,2.310976013541200108e-02
3.793506920337699762e-01,-3.008621037006399823e-01,-6.267203092575099888e-01,1.644404232502000018e-01,-3.153950273990600017e-01,-9.644336253404600656e-02,-1.668968237936499857e-02,6.429919600486799780e-01,1.312874853610999926e-01,-7.100938260555300641e-02,-1.522206887602800020e-02,2.571435868740100106e-01,2.628585994243600177e-01,1.220536418259099941e-02,3.024840652942700214e-01,3.000653982162500011e-01,1.920041590929000008e-01,-3.165493011474599938e-01,-2.983087003230999734e-01,-3.623759746551499794e-02,-1.132518947124499936e-01,-9.671852737665199984e-02,-1.120379567146300021e-01,-1.025380380451700046e-02,-9.668529033660899774e-02,3.588865697383900044e-01,2.188971787691099957e-01,-6.224380731582600523e-01,3.769081830978400216e-01,-2.944615483283999913e-01,3.014373034238800042e-02,-1.646179147064700046e-02,2.013251632452000006e-01,1.072639152407599966e-01,1.052480265498200035e-01,1.795605570077900004e-01,-1.726475059986100069e-01,-1.445657461881600103e-01,-2.090124227106599994e-02,2.507008612155899995e-03,-3.317630290985100205e-01,3.441237211227399784e-01,-1.415283083915699902e-01,-3.399712443351700086e-01,8.004178851842899678e-02,-1.381224691867800058e-01,-2.528240084648100128e-01,-1.812159419059800047e-01,4.221875369548799828e-01,-8.215327560901600212e-02,1.569493487477300123e-02,2.719124034047100055e-02,1.783467233181000033e-01,1.513084918260599876e-01,-1.264486610889400120e-01,-5.225441604852699984e-02,4.124255776405300056e-01,-8.222988247871400314e-02,4.305970370769500177e-01,-5.327316522598299908e-01,-5.855373144149800257e-01,-1.492066979408299965e-01,-1.592137366533299958e-01,1.874132640659800092e-02,-1.086566224694300031e-01,2.434747107327000018e-02,-3.262810111045800210e-01,-3.669679462909700152e-01,-2.255770564079299934e-01,1.336275935172999973e-01,-2.955868653953100042e-02,-2.535978890955399925e-02,9.724676609039299702e-02,-6.114458665251699954e-02,1.007474586367600039e-01,6.473477464169300269e-03,-1.287415027618399876e-01,-4.294692873954800150e-01,-1.308470219373699950e-01,-7.362137436866800222e-01,2.027043849229800132e-01,-5.684672296047200285e-02,-2.240517437458000027e-01,-1.289133727550499930e-01,-2.338022589683499963e-01,9.626919776201199597e-02,-2.954088747501399936e-01,-1.362945586442899926e-01,-1.696962714195300037e-01,5.601830035448100015e-02,3.295871019363399990e-01,7.281478494405700663e-02,-1.245724633336099951e-01,-2.661213576793700075e-01,-4.597798287868499756e-01,1.280171275138899945e-01,3.720302283763899931e-01,-1.476511359214799923e-01,3.877857699990300278e-02,1.902300715446499924e-01,-6.365177631378200473e-01,8.482389152050000269e-02,-4.648715555667899957e-01,-1.026646867394400003e-01,-2.173450775444499966e-02,5.860928446054500252e-02,2.651094794273399780e-01,-3.669089078903199908e-01,-2.414950877428100051e-01,2.150483280420300014e-01,5.034628137946099702e-02,-3.594484925270099995e-02,-4.213537871837599869e-01,9.432186931371699945e-02,2.428955212235500011e-02,-1.649159491062200111e-01,-3.050006926059700141e-01,-1.804471313953399936e-01,-1.465183347463600017e-01,1.869039088487599864e-01,-6.613882258534400232e-03,2.524346113205000117e-02,-1.673494428396199996e-01,4.590932726859999757e-01,-1.628596037626300064e-01,4.399556517600999861e-01,-1.046260669827499962e-01,5.369302630424499512e-01,-9.843757003545799966e-02,3.523406088352200038e-01,1.289029717445399903e-01,4.459242820739700019e-01,-8.994909524917600319e-01,2.021333761513199878e-02,-3.551316633820499752e-02,-5.530822277069099568e-01,1.472920179367100124e-01,-7.122600823640799772e-02,-6.298124045133600413e-02,3.781957030296300148e-01,-4.092296585440600293e-02,3.715035617351499786e-01,-4.506483674049400340e-02,-6.687042713165299856e-01,3.760268092155499842e-01,-1.269489079713800039e-01,-4.882409274578100034e-01,3.203723430633499958e-01,-1.953963190317200074e-02,1.879491657018700079e-01,6.269603222608599591e-02,-7.666123658418699804e-02,3.388566374778699819e-01,8.404591679573099328e-02,4.305652379989600154e-01,2.384325712919199980e-01,-3.358066780492699813e-03,6.078523769974700230e-02,1.783207058906599862e-01,-7.399644702673000007e-02,-3.914262168109399614e-03,1.014048233628299933e-01,3.122220635414100220e-01,3.675019145011900190e-01,8.111090213060399845e-02,4.427326619625099879e-01,4.162555634975400043e-01,1.505101472139399876e-01,-9.830460697412500559e-02,-1.122873723506900012e-01,4.445426166057599854e-02,-2.033794671297100010e-01,1.234926432371099975e-01,-7.002009153366099969e-01,2.038070261478399925e-01,3.180834054946899969e-01,6.975963711738599748e-01,-1.290771178901200036e-02,-6.360402703285200632e-02,-1.033242940902699969e-01,-2.746113110333700189e-03,1.367159783840199982e-01,6.326576471328699824e-01,2.680685818195300274e-01,5.084505081176800001e-01,1.859033480286599940e-02,3.647679090499900134e-02,4.585394263267499743e-02,-5.108670592308000025e-01,9.658273309469199430e-02,1.092093214392699935e-01,-8.227372169494600040e-01,-5.956193059682800273e-02,-1.111333847045899992e+00,-6.910853981971699644e-01,6.183327436447100256e-01,5.694567225873499797e-03,-1.528709083795500023e-01,1.053375080227900024e-01,-7.017253041267399460e-01,-2.635503113269799802e-01,-1.315585672855399957e-01,4.249519482255000036e-02,-1.676728427410099920e-01,-6.261274218559299554e-01,4.360498189926100276e-01,3.062383458018300142e-02,-2.299284934997599950e-01,-2.028306275606200082e-01,-1.158278658986099940e-01,-2.574924007058099901e-02,2.729299366474199906e-01,-5.368736386299099994e-01,2.540203332900999866e-01,-4.255710914731000022e-02,-8.730402588844299316e-02,6.054055318236400279e-02,-4.265545606613200258e-01,3.708756566047700098e-01,2.609010636806500250e-01,4.140798747539499725e-01,1.124486401677100011e-01,1.299487203359599996e-01,-1.640302985906600119e-01,1.561407893896100130e-01,1.237744316458700006e-01,-1.537191569805100022e-01,2.242254912853199889e-01,-1.311873458325900008e-02,-7.503050565719600329e-02,9.061251282691999975e-01,1.572418659925499951e-01,1.342150866985299951e-01,6.202070713043199568e-01,7.825294733047499784e-01,-2.730600535869600054e-01,2.119114100933099931e-01,5.673170462250699819e-02,3.735278174281100178e-02,2.228862196206999879e-01,1.992160975933099931e-01,1.157366037368799949e-01,8.523788303136800582e-02,1.105543226003599944e-01,2.426712214946699919e-01,4.209972321987199839e-01,-1.849518865346899965e-01,2.586830556392700209e-01,7.310239970684100086e-02,2.232171148061800059e-01,6.197739019989999959e-02,3.432236313819900242e-01,2.651243209838899939e-01,5.615530610084500385e-01,2.274441719055199929e-01,1.260543912649199905e-01,9.617171436548199726e-02,1.281023472547500042e-01,1.815356165170700087e-01,4.356987774372100275e-01,1.388541907072100012e-01,2.145119905471800092e-01,-1.428174823522599945e-01,-8.523040413856499686e-01,8.835609257221199719e-02,1.015670225024200013e-01,5.058894678950300039e-02,3.078566864132899900e-02,1.297144740819899944e-01,6.262325216084699622e-03,3.599488437175800137e-01,4.841926693916300262e-01,1.718932576477499863e-02,-1.945158094167699983e-02,5.591145753860500278e-01,-6.124593615531900292e-01,1.855406016111399992e-01,1.538535207510000058e-02,3.584737330675100142e-02,2.618045210838300108e-01,-2.546046301722499836e-02,2.442463487386699883e-01,4.379022419452699988e-01,-4.819625988602600081e-02,2.331925332546199992e-01,2.062024772167199982e-01,-2.827824652195000121e-01,-2.199855148792299875e-01,1.274132281541799916e-01,2.273050248622900116e-01,1.608495265245399874e-01,-2.710561156272899841e-01,3.657188713550599823e-01,1.235110387206100058e-01,-2.508442699909200213e-01,1.625749766826599940e-01,5.456043034791899921e-02,2.898741364479099913e-01,-3.645382225513499885e-01,-4.949586093425799999e-02,-4.780726879835100335e-02,9.087989479303400231e-02,-1.348268836736699894e-01,2.842731028795199982e-02,-2.499143928289400129e-01,4.483307525515600050e-02,-3.152652978897099723e-01,3.622635602950999845e-01,-1.326558887958499966e-01,-2.579605877399400171e-01,-8.488960564136499576e-02,-1.182589828967999940e-01,3.529110550880400210e-02,-8.171169087290800284e-03,-6.281789392232900449e-02,5.543404817581200072e-01,2.335788495838600140e-02,-1.327345222234699862e-01,-1.781154237687599881e-02,-2.508796751499199965e-02,2.640386223792999809e-01,-1.717304736375800112e-01,-3.310701623559000190e-02,3.905773907899900282e-02,1.085787639021899981e-01,-4.553938806057000188e-01,4.930376410484300087e-01,4.766539931297300026e-01,1.926528960466399876e-01,1.112111881375300038e-01,-6.828569173812899518e-01,-3.116827011108400103e-01,-1.836424916982699884e-01,-2.669681310653699846e-01,-9.504883736371999570e-02,5.621479749679599847e-01,-3.623253852128999891e-02,-5.499606207013099657e-02,2.330410294234799840e-02,-1.792340725660300157e-02,1.126042529940600029e-01,1.917625591158899842e-02,-4.103398025035899788e-01,1.350408494472500054e-01,-3.383936285972600211e-01,3.052163422107699864e-01,3.160116076469399737e-01,-2.016931474208799868e-01,-1.345460265874899863e-01,1.578318327665299836e-02,2.161883264779999869e-01,1.251738071441700073e-01,3.714424967765799779e-01,2.213139273226299997e-02,-4.069425910711300248e-02,4.519668817520099968e-01,-1.273360103368799956e-01,3.947216868400599821e-01,5.618439912796000524e-01,2.031705975532500097e-01,3.326126337051399928e-01,5.585435032844500158e-01,2.948776446282900046e-02,2.486317902803399926e-01,-4.348265826702100156e-01,-1.245640665292700039e-01,-2.069597095251100027e-01,4.492888450622600227e-01,-2.381641268730199934e-01,1.408928781747799952e-01,-1.874250471591900058e-01,-6.474029738456000410e-03,4.658536911010699999e-01,1.335598677396800105e-01,-4.786349833011599997e-01,-1.076431274414099970e-01,-3.547009080648400037e-02,-1.337925065308800086e-02,2.436365485191299973e-01,-2.202408388256999784e-03,2.702575922012300236e-01,-8.355821669101699822e-02,-2.882046997547100253e-01,6.409657001495400186e-02,2.725844979286199954e-01,-3.618943691253700273e-02,1.404128596186600061e-02,1.093179732561099932e-01,3.106865286827100170e-01,1.040528342127799988e-01,-1.304307579994199995e-01,4.395697712898299914e-01,-2.681712210178400224e-01,4.582870285958100254e-03,3.154717385768899818e-01,1.721952855587000064e-01,-1.282449346035700009e-02,3.490619733929600094e-02,-4.376508295536000182e-01,4.743832051754000023e-01,-9.951559826731699171e-03,1.562673971056900007e-02,3.690792620182000161e-01,-3.237281143665299843e-01,9.721072018146499627e-02,-1.029709428548799960e-01,-1.376697123050699967e-01,1.010177657008199947e-01,-4.695075750351000027e-02,-1.167394313961300084e-02,8.106569051742600340e-01,2.620845139026600212e-01,-6.889711320400200567e-02,-8.918032050132800037e-02,1.223127450793999940e-02,4.578734561800999747e-02,8.247169107198699944e-02,6.847925484180500399e-02,-3.300001844763800207e-02,4.927590489387500064e-03,1.505050435662299950e-02,-2.386764623224699872e-02,2.053184211254099889e-01,-1.836486905813199955e-01,5.111940577626199883e-02,1.619900763034800087e-02,-4.035559296608000335e-02,1.151000484824200032e-01,-2.219510227441799932e-01,-8.926086127758000102e-03,-6.485091894864999928e-02,-1.035641804337499999e-01,1.113293096423099982e-01,6.644132137298599527e-01,-2.800453305244399727e-01,3.700392320752100145e-02,2.745066955685599927e-02,-2.272344976663600025e-01,4.934935644268999971e-02,-8.207178674638300822e-03,1.376145035028500108e-01,7.486597895622300047e-01,-4.049431532621400320e-02,-1.344163864850999868e-01,1.147067546844500047e-01,1.424134224653199887e-01,-3.337925672531100174e-02,2.104748040437700030e-01,-4.184083342552200047e-01,2.177091985940899921e-01,-3.709413111209899916e-01,2.304303050041200118e-01,-1.499832421541200111e-01,-4.573296755552300197e-02,1.727797836065299991e-02,5.050669424235799954e-03,2.624031156301500148e-03,3.744153678417200259e-02,2.479874342679999968e-02,4.679437279701200159e-01,5.916789919137999815e-02,-2.173099964857100053e-01,-2.397853583097500074e-01,-7.491602301597599656e-01,-1.624831259250600068e-01,-3.380052745342299741e-02,2.329920604825000061e-02,-6.892739981412900063e-02,4.332363978028300200e-02,3.394277766346900232e-02,8.624701201915699333e-02,3.918710649013499858e-01,-2.742814421653699819e-01,2.158737480640399997e-01,-5.956465601921100417e-01,-4.817166924476599943e-02,-1.080745533108700002e-01,-3.444936126470599796e-02,2.752896547317499887e-01,1.739751845598200009e-01,1.646322906017300136e-01,-2.093481570482300103e-01,3.325571119785299956e-01,-2.962542511522800112e-02,2.164179831743200111e-01,2.121130973100699979e-01,-1.511044055223499938e-01,-3.560828045010600105e-03,-1.964639425277699969e-01,-6.484898924827600664e-02,1.443181484937700043e-01,-8.024728298187300268e-02,3.552731275558499990e-01,2.175217121839500001e-01,2.241520211100600166e-02,7.620394229888899362e-02,-6.561516225338000219e-02,-9.774409234523799561e-02,7.264973595738399674e-03,5.483728647232100073e-02,9.342393279075600354e-02,-2.682941854000099879e-01,-1.137727126479100015e-01,-2.719260752201100098e-02,-2.697003073990299898e-02,-3.380979970097500176e-02,-2.418644577264799922e-01,2.609266638755800005e-01,-1.065030843019500045e-01,3.607886731624599941e-01,4.464437719434499741e-03,9.425777941942199700e-02
1.176655218005200065e-01,-3.201592862605999734e-01,3.811688348650899699e-02,-1.767827570438399998e-01,-2.140259295702000020e-01,3.112410604953799731e-01,1.154539212584499985e-01,7.732083797454799567e-01,7.274932265281699451e-01,1.009885873645499990e-02,-2.948447167873399777e-01,5.547828674316399589e-01,-4.068555533886000219e-01,4.309421479701999735e-01,5.540940910577799722e-02,6.284047365188599743e-01,3.344494104385399846e-01,5.083683133125299625e-01,6.742790937423700504e-01,1.787718087434800041e-01,-1.886648684740100113e-01,8.612703084945699805e-01,-2.322902828454999902e-01,6.594725698232699329e-02,3.688494563102699964e-01,-2.019321769475899975e-01,8.108299225568800506e-02,4.215849936008499999e-01,6.441730656661099740e-04,6.230324506759600256e-01,-2.985175848007199928e-01,2.477458119392400016e-01,-4.372534528374699692e-02,-2.089375853538500138e-01,1.487970054149599930e-01,-1.184459589421700022e-02,-6.142349541187300255e-02,2.678280770778699860e-01,1.542454808950400047e-01,-9.843884408474000425e-02,2.859679609537100001e-02,4.294098913669600059e-01,-3.107656836509700149e-01,2.875574827194199989e-01,3.485503047704700125e-02,-2.391088157892199972e-01,5.243453979492199712e-01,3.599204495549199884e-02,2.255317270755800019e-01,3.668579161167099811e-01,7.553939358331299928e-04,6.763830780983000335e-02,-1.187563315033900030e-01,6.768542528152500237e-01,-4.358143210411100088e-01,-6.502970457076999722e-01,1.407767385244400038e-01,3.878885507583599845e-01,-2.785479426383999924e-01,-3.613005205988899932e-02,-1.302064210176500092e-01,-4.344631731510200101e-01,7.531664371490499610e-01,-1.892953962087599862e-01,-6.217350810766199970e-02,-1.689360663294800155e-02,-2.805022597312900046e-01,-3.891198039054900026e-01,2.907137968577400101e-04,2.492039352655399942e-01,-1.030314415693300012e-01,4.302956163883199792e-01,-4.270545244216900072e-01,-7.729288935661300652e-02,2.019314914941799932e-01,-7.379839569330200189e-02,2.163420319557199933e-01,1.352059692144400027e-01,9.893718361854600407e-02,-3.654651939868899801e-01,6.531807035207699841e-02,-4.220039546489700033e-01,2.184818387031599862e-01,1.334039717912700040e-01,-3.224729299545299743e-01,4.749923571944199979e-02,-1.815995573997500057e-01,5.885475873947100256e-01,3.239545822143600207e-01,3.053119778633099912e-01,3.141509294509899908e-01,7.443576306104700280e-02,4.969012737274199898e-01,-2.293797582387900047e-01,8.558084070682500655e-02,1.144654955714900085e-02,-3.138191401958499993e-01,4.141727685928299763e-01,6.423937529325500495e-02,-1.586156636476500070e-01,2.346357256174100014e-01,-2.147204801440200095e-02,-9.928572177887000361e-02,7.130182534456300236e-02,3.526031970977799856e-02,3.020522594451899856e-01,3.688008487224599952e-01,-6.330724060535400377e-02,8.156037330627400328e-01,-4.218182563781699979e-01,-4.820717498660100075e-02,2.910428345203400213e-01,2.556094229221300140e-01,1.223754435777699989e-01,-2.703413739800500024e-02,4.233508110046400041e-01,-5.044006705284099779e-01,-5.134408473968500308e-01,-6.993724107742299578e-01,7.440093159675600365e-01,5.274795368313799776e-02,-2.193070761859399961e-02,-8.290244638919799791e-02,-5.838629603385900313e-02,-3.758093714714100253e-01,-1.479939967393900102e-01,-1.030662283301399945e-02,2.872093021869699947e-01,-5.711514502763700291e-02,-2.971279621124299775e-01,1.841604411602000002e-01,-2.697398662567099814e-01,7.259616255760199532e-01,1.898625791072799940e-01,-1.789363026618999986e-01,-3.266225755214700044e-01,-4.360672533512099935e-01,8.405999839305899890e-02,-1.013327240943899948e-01,3.068459928035700002e-01,-2.485745400190399884e-02,2.102028280496600066e-01,-2.320018224418200076e-02,5.941660404205300061e-01,-7.372055053710899752e-01,-2.848019897937800193e-01,-1.598475873470300151e-02,3.310235142707799727e-01,-7.965276390314099397e-02,2.166047543287299981e-01,-2.721395110711500014e-03,3.138792514800999717e-02,-1.285317093133900024e-01,1.989475637674300024e-01,-1.589528098702399847e-02,-1.648437529802299906e-01,1.102712005376799975e-01,-8.151999861002000303e-02,-1.026904657483100058e-01,-3.712121769785899777e-02,-1.236516013741500025e-01,-1.528960019350099897e-01,-4.489464759826700124e-01,-1.662938147783299958e-01,2.174481004476500057e-02,-1.633379012346299897e-01,6.414378881454499970e-01,-2.760570943355600271e-01,1.032375097274799980e-01,4.841292276978499676e-02,-9.271775186061899376e-02,1.795675307512299979e-01,-1.750911325216299996e-01,1.910248249769199991e-01,1.453524231910700015e-01,2.005259133875399863e-02,1.660130620002699953e-01,3.561570495367100131e-02,-2.634135782718700081e-01,-5.760187506675700231e-01,1.388048827648200034e-01,2.088921517133700001e-01,3.485432565212199796e-01,-4.891591072082500102e-01,-3.308844938874200281e-02,-2.006191387772600018e-02,1.578556597232800007e-01,7.617421150207499547e-01,1.634839624166500027e-01,1.176607683301000018e-01,5.508174002170600214e-02,-1.634043753147099987e-01,2.266256138682400112e-02,2.233779191970799882e+00,1.046833992004400082e+00,-6.283614039421100417e-01,-1.125741284340599918e-02,3.068641722202299915e-01,3.865656554698900238e-01,4.400108158588399987e-01,3.221794068813300105e-01,3.156137466430700145e-01,-6.595670431852300453e-02,1.287313103675800097e-01,-1.581347733735999905e-01,-2.247666269540800066e-01,-5.259754061698900252e-01,-4.148157313466099838e-02,4.288668930530499801e-01,-5.532503128051800001e-01,-3.734685778617899965e-01,-1.507698744535400093e-01,3.307926058769199984e-01,2.510440945625300180e-01,-1.783408820629099889e-01,-2.428193986415899952e-01,2.207292169332500109e-01,2.079682350158700010e-01,-7.404571771621699661e-01,-3.378662168979599811e-01,-1.929877847433099924e-01,-3.340097665786699865e-01,2.982747852802299926e-01,3.910875022411299806e-01,3.861143589019799816e-01,-8.625915050506599568e-01,-3.010794818401300033e-01,3.465175628662099938e-01,-7.323210835456800405e-01,3.076900541782400245e-01,-2.588793635368299983e-02,-1.459246221929800039e-02,3.355608284473399761e-01,3.998227417469000233e-01,1.428003702312699921e-02,-1.029667109250999996e-01,4.288309514522600230e-01,4.386789351701699674e-02,7.275569438934299804e-02,2.373031377792400032e-01,-1.710328459739700047e-01,-3.527290001511600159e-02,2.234995365142800061e-01,9.470598697662400145e-01,4.615356028079999756e-02,-3.903751969337500016e-01,6.712229549884800306e-02,4.525406956672700098e-01,-3.384855389594999819e-02,1.667968928813899909e-01,7.865839451551399908e-02,-2.745012640953100047e-01,-6.946577429771400025e-01,-9.064960479736300369e-02,-3.567448854446400031e-01,4.015197046101099797e-04,2.794706225395199861e-01,6.445313692092899949e-01,5.092142224311799747e-01,-5.011227726936300364e-01,-1.410570442676500058e-01,4.639985561370800204e-01,-1.520169824361800037e-01,9.242918342351899574e-02,-5.496206879615800345e-02,5.840093828737700186e-03,2.104681916534899971e-02,1.162729337811500008e-01,-2.548490166664100220e-01,5.053295195102699977e-02,-1.762177944183299927e-01,2.378017604351000125e-01,6.384085863828700691e-02,2.085062712431000054e-01,-4.379249215125999850e-01,-3.192186951637300263e-01,-1.006620451808000055e-01,-7.128469347953799717e-01,-4.196866452693899796e-01,2.939104437828100047e-01,-2.235877662897099993e-01,4.919343292713200255e-01,-4.071782901883100325e-02,3.627756536006899735e-01,-2.259301841258999910e-01,1.778395846486099940e-02,1.447301059961300096e-01,-8.882211148738899942e-02,-2.469277679920199864e-01,-3.138070702552799851e-01,-3.362955451011699903e-01,3.546008765697499787e-01,4.289203509688400279e-02,1.867973953485499994e-01,-1.601121872663499868e-01,-1.751120239496199993e-01,-2.624851763248399750e-01,5.983225107192999825e-01,5.149461701512299955e-02,-3.325686156749699807e-01,1.985914558172199862e-01,3.843426108360299964e-01,-7.955505847930900432e-01,7.162739038467399455e-01,-1.474913656711600018e-01,-1.696533411741300013e-01,2.621878683566999935e-01,-2.238607555627800116e-01,2.897281050682100068e-01,-5.721983909606900287e-01,9.862028956413300129e-01,-2.408198565244699940e-01,-3.059907257556899740e-01,-7.380820810794799791e-02,1.510268151760099931e-01,3.174616992473600074e-01,2.416801303625099873e-01,3.149806857109099800e-01,3.936083614826200172e-01,6.642303615808499428e-02,1.499464958906200074e-01,7.032447308301900679e-02,-1.690632551908499981e-01,1.986232958734000104e-02,1.918861120939300002e-01,-2.017834633588800053e-01,-7.138655185699499528e-01,1.348402500152600103e-01,-8.669196814298600617e-02,-5.548704862594600051e-01,-4.171470403671300176e-01,-3.297925293445599926e-01,3.251663744449599935e-01,-2.050584852695500060e-01,-1.770908981561699902e-01,1.267344355583200077e-01,2.657602131366699760e-01,6.173050999641399583e-01,-1.007494479417799932e-01,3.111624121666000109e-01,4.558504745364200250e-02,1.815081536769899972e-01,8.388057351112400417e-02,5.156311392784099779e-01,1.049661278724699942e+00,-9.052145481109600267e-01,-1.231147944927200033e-01,-2.883608639240299865e-01,-9.523651003837599882e-01,-1.854214060585900037e-04,4.302486777305600252e-02,5.017666518688199823e-02,-4.550893306732199939e-01,2.675076760351699848e-02,-6.146088242530799856e-02,5.877770856022800083e-02,4.008111357688899923e-01,2.322086393833200091e-01,4.189452230930300058e-01,-7.692159414291399600e-01,-3.808061182498900243e-01,1.856679469347000122e-01,-1.601667851209599980e-01,1.414682716131200058e-01,-9.929306805133800151e-02,-5.650808811187699732e-01,-6.669198721647300043e-02,4.584687650203699838e-01,2.678369879722600211e-01,-3.948793187737500293e-02,5.293262004852300473e-01,6.393334865570099446e-01,-2.449439465999599941e-01,2.140938192606000046e-01,6.927278637885999624e-01,8.634523153305100340e-01,-5.580334365367899813e-02,5.194264054298399769e-01,-1.006189703941299918e+00,-5.478240847587599882e-01,2.058179676532700120e-01,-1.000835821032499962e-01,-7.015805691480600514e-02,-7.053973525762599617e-02,3.247078880667700340e-02,9.450583159923600651e-02,1.825898140668899897e-02,-2.190071493387200086e-01,-1.476850062608699998e-01,4.280541837215399992e-02,1.036567464470899980e-01,-1.472669243812599893e-01,1.175350174307800005e-01,6.008457392454100154e-02,-2.160253077745399874e-01,-3.151570558547999723e-01,-2.754536084830800161e-02,2.869936823844899954e-02,-2.124137580394699909e-01,-8.435302972793599918e-02,-1.471965312957800032e-01,-1.260299533605599986e-01,1.282095611095399879e-01,6.381164491176599673e-02,2.717411518096899958e-01,-4.407116770744299861e-01,7.336226850748099604e-02,1.946465484798000009e-02,-8.373889327049299780e-02,3.900803858414300142e-03,-2.593715786933900036e-01,2.116721272468599924e-01,-2.731332182884200210e-01,-9.377996623516099417e-02,1.074150949716600051e-01,-1.128112599253699999e-01,-9.228362143039700594e-02,-3.916757926344899970e-02,1.564267128706000043e-01,-1.721675843000400052e-01,8.954926580190700203e-02,1.571065634489099971e-01,2.193112298846200056e-02,-5.293078720569600187e-03,-2.071300335228400125e-02,-3.976140618324299769e-01,1.286266148090400019e-01,-6.486261636018800236e-02,-1.423633657395799966e-02,2.529115974903100028e-01,-3.016340136528000149e-01,-6.806240230798700497e-02,-1.599295288324399933e-01,-1.625507026910799901e-01,4.056156873703000154e-01,-1.015350874513399997e-02,1.141673699021300004e-01,1.926541775464999939e-01,6.496758759021800667e-02,6.306193768978099468e-02,-3.146226704120599904e-01,-3.699418604373900243e-01,-3.023252077400699969e-02,-2.588646113872499765e-01,4.996746033430100181e-02,6.706804037094099558e-02,1.709923744201700124e-01,-3.562884032726300054e-01,-7.611421402543799668e-03,-1.244332990609100078e-03,2.122300267219499881e-01,-3.809200972318600026e-02,-3.505361378192899946e-01,-2.819362282753000160e-01,-4.425228014588399733e-02,2.602017819881399796e-01,2.113787531852699964e-01,-3.170893490314499741e-01,4.524344578385400273e-02,9.271727502345999961e-02,-1.249578315764700081e-03,2.150707989931099906e-01,6.097979545593299466e-01,1.752960979938499864e-01,-2.837394364178200123e-02,6.397945433855099784e-02,-1.482305973768200114e-01,-1.261944770812999939e-01,-2.311401963233900014e-01,3.370082974433900036e-01,5.629423633217799788e-02,3.777911663055399938e-01,-2.508286237716699785e-01,9.215056896209700144e-02,1.403799057006800133e-01,-1.416018456220599908e-01,-1.841042563319199993e-02,-1.375602587359000054e-04,-2.240699082612999937e-01,-3.704199492931399829e-01,1.209918782114999952e-01,2.569850385189100250e-01,-2.907181382179300222e-01,-9.155961126089100233e-02,1.740679331123800092e-02,2.992253191769099832e-02,-4.258794486522700096e-01,-2.622533142566699782e-01,-2.456096261739700026e-01,3.686872869729999891e-02,3.646391034126300057e-01,-4.208549261093100236e-01,-1.823301017284399972e-01,7.842325419187499980e-02,-1.325169950723600054e-01,4.849093034863499740e-02,6.490577012300499660e-02,-3.420142829418200137e-01,1.564493328332899891e-01,4.590634629130400240e-02,2.443409413099300043e-01,3.281509578228000157e-01,-1.117623448371899975e-01,-5.303461104631399664e-02,4.104022309184100076e-02,-1.745020747184800047e-01,-4.024967551231399890e-03,-2.530821412801699880e-02,2.305175960063899909e-01,2.864353358745599931e-02,-1.992255598306700015e-01,-1.981144249439200089e-01
7.206729650497399886e-01,-5.036405324935899763e-01,5.219706799834999619e-03,-7.416281104087799614e-01,1.860872283577899924e-02,9.081088937819000589e-03,6.029781103134199682e-01,-1.607479341328100012e-02,8.764558285474799426e-02,4.030125141143799938e-01,1.503961384296400028e-01,1.706260740756999905e-01,1.120371446013500027e-01,-2.559279799461400273e-01,2.423982024192800067e-01,-3.168186843395199848e-01,-4.015134647488600300e-02,-8.669389486312899518e-01,6.930870413780200190e-01,2.159254848957100070e-01,3.388588130474100013e-01,7.433868050575299646e-01,-4.512070715427399792e-01,7.801125943660700002e-02,-5.234279036521900519e-01,-8.629261702299100001e-02,-3.496160730719600346e-02,1.350152399390899989e-02,-3.264034688472700063e-01,1.459234505891799927e-01,-2.826311290264100218e-01,-7.121772039681699938e-03,4.352181255817400007e-01,-3.703654557466500019e-02,6.478912234306299922e-01,-5.375056862831100180e-01,3.202212452888499872e-01,2.852312028408099942e-01,-3.505385220050800110e-01,3.375351428985600144e-01,-2.219114750623699950e-01,-6.277598738670300271e-01,-3.843631446361500115e-01,4.568521082401300060e-01,-7.443366944789900352e-02,-7.156767249107399698e-01,5.235874280333500247e-02,2.690364122390699886e-01,9.637259878218200002e-03,-1.136846244335199957e-01,-4.479751586914100248e-01,4.125475585460700034e-01,1.299223154783200052e-01,2.681958675384499835e-01,-6.259872764349000418e-02,-3.684956729412099952e-01,2.374868541955900136e-01,-1.326241642236699880e-01,-2.032078653574000138e-01,-5.371268093585999936e-02,2.707042098045300271e-01,-2.977841794490799776e-01,6.700590252876299779e-02,-5.702026188373599674e-02,9.367332793772199795e-03,-1.126804724335700031e-01,-1.651979535818099976e-01,9.223698973655699573e-01,5.704445391893400025e-02,-1.232007369399100022e-01,-3.135921061039000091e-02,3.642268776893600180e-01,-8.905857205390900200e-01,2.338977158069599840e-02,1.219501569867099955e-01,-3.540175557136500117e-01,-5.231418181210799670e-03,2.690088748931899754e-01,4.509292542934399961e-01,1.454224437475200027e-01,-2.265026867389700049e-01,1.826452314853700132e-01,3.219653964042700212e-01,2.836846113204999908e-01,-2.807618081569699942e-01,4.112159907817800053e-01,-2.872108519077299915e-01,-1.193823590874699969e-01,5.112014412879900549e-01,-2.053372561931600115e-01,-5.858664512634299548e-01,-1.493559330701799970e-01,6.320043802261400279e-01,5.936949253082299816e-01,4.936330765485800326e-02,6.773661971092199696e-01,5.446261167526199598e-01,-2.117824554443399898e-01,-1.114155426621400019e-01,-1.964015215635299960e-01,-3.192112743854499946e-01,-1.049767807125999985e-01,4.598774015903499962e-02,-5.583447813987699737e-01,2.471594959497500077e-01,-2.098614573478700118e-01,4.450280964374500048e-01,2.728131115436600029e-01,5.024467706680300072e-01,4.069581329822499760e-01,8.425313234329200041e-02,3.642455935478199902e-01,-3.831441104412099952e-01,-5.882018208503699830e-01,-2.687097154557700068e-02,-7.354168891906700534e-01,-6.202829480171200283e-01,4.462521076202399795e-01,7.523790597915599454e-01,-1.143694147467600036e-01,-1.734601855277999871e-01,-9.293173253536199385e-02,-3.033113181591000074e-01,-2.982892096042599750e-01,-3.125779330730400069e-02,-3.167894780635799878e-01,-8.566022850573099326e-03,-5.855241417884800292e-02,-5.869715809822100283e-01,-6.448907852172900412e-01,1.752811521291700037e-01,-8.914924263954200345e-01,4.912367463111900340e-02,-3.145350143313400265e-02,-6.430580019950900006e-01,7.344201207160899747e-02,-7.440744340419799818e-02,6.508979201316800189e-02,-2.427055127918700123e-02,-3.185537457466099953e-01,1.462897360324899865e-01,1.357323229312900059e-01,3.092859387397799975e-01,5.703307986259500417e-01,1.135217323899300051e-01,-1.603882312774700114e-01,-1.432955861091599892e-01,-3.782094717025800135e-01,1.223619729280499974e-01,-9.935764223337199830e-02,1.300384197384099952e-02,7.495905458927200338e-02,-3.323418796062500014e-01,2.015231251716599892e-01,1.199426129460300083e-02,3.562012612819699942e-01,-2.728686332702600081e-01,5.628204345703099465e-01,2.036015838384599985e-01,-7.360470481216899695e-03,6.077149510383599712e-02,6.668909639120100541e-02,6.030933856964100226e-01,-4.715926945209499843e-01,6.377176195383099655e-02,-3.757746815681500263e-01,5.074865221977199470e-01,-8.908225297927899744e-01,3.050697222352000137e-02,1.206310540437700030e-01,-1.662322133779499944e-01,2.908379435539200086e-01,-3.779207766056100204e-01,1.719113290309899900e-01,7.614696770906399792e-02,-3.478643894195599939e-01,-1.176406368613199943e-01,-1.266493201255800005e-01,-3.114571273326899870e-01,-9.942239522934000207e-02,-4.176488816738099796e-01,-3.428667783737199826e-01,-2.979198694229099886e-01,-7.114953994750999877e-01,2.785819470882400228e-01,-2.421518713235900067e-01,2.551072239875800118e-01,3.509670123457900304e-02,-1.182545498013500007e-01,9.997417777776700099e-02,-3.574950397014600156e-01,1.759981550276299919e-02,-6.491799652576399349e-02,3.558293282985700023e-01,3.647880852222399883e-01,1.822076551616199844e-02,-3.962357640266400138e-01,3.272638320922899857e-01,-8.415616303682299515e-02,-3.328863382339499744e-01,-2.828000783920299743e-01,-5.511986091732999637e-03,1.105191558599499940e-01,-5.550413727760300509e-01,1.918923854827900011e-01,-1.702142320573300088e-02,1.938304305076599954e-01,-5.005432367324800236e-01,-4.157354235649100005e-01,3.940431177616099956e-01,-2.488232553005199910e-01,3.626521304249800265e-02,1.112453639507299946e-01,-1.358435750007599974e-01,-3.491818308830300088e-01,4.108615219592999801e-01,-5.016013607382800027e-02,2.076310962438600027e-01,-2.203804701566700053e-01,2.069440782070199880e-01,-8.519923686981200062e-01,-2.440680563449899865e-02,-7.583151012659100632e-02,4.579073190689100237e-01,-1.072130277752900013e-01,4.415910243987999917e-01,-6.731922030448900252e-01,1.599668711423899992e-01,-2.398685812950100138e-01,7.142835110425900524e-02,-4.244341552257500094e-01,-8.284630775451700124e-01,-6.021416783332800282e-01,8.294714987277999885e-02,-1.952923685312299984e-01,1.616011261939999943e-01,-1.898815929889700049e-01,-6.977581977844200534e-01,1.369829326868099995e-01,4.062159657478299768e-01,4.903019666671800114e-01,4.453565925359700278e-02,-1.804431229829799865e-01,-9.479627013206499975e-02,2.349915504455599990e-01,-2.789759933948500192e-01,-6.838444620370899563e-02,5.771026611328099465e-01,-8.240621536970099692e-02,-2.640173137187999952e-01,-2.434851974248899986e-01,3.592526912689200103e-01,-5.587632060050999883e-01,-2.865141928195999999e-01,-2.748667299747499793e-01,-3.671770989894900250e-01,-1.702380627393700052e-01,1.937342882156400103e-01,1.591014862060500024e+00,-2.835398018360100192e-01,2.544653713703199926e-01,-9.249532222747800514e-01,-3.719250559806799861e-01,-2.003882825374599941e-01,2.245403379201899863e-01,2.237062603235200064e-01,-4.280470609664899784e-01,-5.952781066298500068e-02,1.803170591592800076e-01,-7.701116055250199766e-02,-3.648359179496800109e-01,-7.390385270118700056e-01,1.808168739080399934e-02,-7.406169176101699836e-02,3.800298273563400275e-02,6.003978252410899774e-01,-1.831428520381499919e-02,4.801124632358599875e-01,4.937311708927200060e-01,4.137324094772300009e-01,-7.102588415145899559e-01,-6.957803368568400426e-01,-4.833683073520699813e-01,9.016044437885299689e-02,-2.159572690725299893e-01,2.450904995202999870e-01,-1.748831868171699944e-01,-5.993003249168400437e-01,-4.920881614088999656e-02,-4.187458157539399872e-01,-7.907524108886699876e-01,1.179388463497200029e-01,-4.714106321334800009e-01,-2.278314679861100089e-01,-6.147823333740199958e-01,-3.927240371704099897e-01,-2.119409590959500100e-01,-1.179327256977599943e-02,-5.106853842735300519e-01,-4.511725008487699751e-01,-2.287544608116099942e-01,-8.903821706771900546e-01,-3.361258804798100130e-01,-5.727926492691000071e-01,-6.329251527786300402e-01,9.409521520137799355e-02,-4.595806896686600029e-01,-6.127315759658800154e-01,1.612176299095199883e-01,-3.722199499607100059e-01,-5.458849668502799846e-01,-1.249950304627400061e-01,6.795379519462599327e-02,-4.047982990741699760e-01,1.265641897916799929e-01,5.384664535522499795e-01,-3.523236215114600167e-01,-1.558414250612299989e-01,2.899244427680999769e-01,2.117436528205899893e-01,-6.967619061469999819e-02,6.328743696212800474e-02,-1.747503727674500074e-01,-1.111843287944799946e-01,1.252374887466400022e+00,-5.955061912536600000e-01,2.412006407976199918e-01,-3.095468282699599949e-01,-4.995441734790799782e-01,7.974368520080999875e-03,-1.801719516515699893e-01,-7.347950711846400196e-03,2.345858514308899953e-02,-4.822270274162300252e-01,2.194023579359100085e-01,7.216204702854199515e-02,-1.424395442008999924e-01,2.003867775201799983e-01,-8.445484563708300155e-03,-2.955864965915699916e-01,-4.645335972309099781e-01,4.597113728523299914e-01,-6.129284948110599873e-02,-5.668289661407499569e-01,-4.470613598823500179e-01,-7.859863638877899739e-01,-5.137380361557000175e-01,6.173028945922900412e-01,6.485977172851600248e-01,-7.245129346847499485e-02,4.169228076934800020e-01,-1.499060541391399881e-01,-2.028506547212599875e-01,7.294284701347399924e-01,5.942545533180200179e-01,-2.415789291262599933e-02,-1.840327233076100022e-01,-1.177066564559900108e+00,-5.009672641754200351e-01,-1.268006116151799978e-01,-6.376282870769499345e-02,-7.762470841407799471e-02,4.041925072670000119e-01,2.431056946516000072e-01,3.852694928646099859e-01,8.427857607603099488e-02,-5.737878680229200334e-01,8.599775284528700381e-02,-1.270418167114300001e-01,-4.888641238212599882e-01,1.114421561360399993e-01,-1.547548472881299930e-01,-6.573532521724699540e-02,-1.903935223817800060e-01,5.920109152793899820e-01,-4.731289669871299730e-02,-7.424791455268899831e-01,-2.731437981128699843e-01,5.621488392353100189e-02,-1.848039329052000024e-01,-5.904361605644200539e-01,-1.094083070754999998e+00,-8.419416099786800056e-02,-5.640158057212799614e-01,-1.377200186252600100e-01,-1.894646510481800064e-02,2.812051773071300165e-01,3.413545191287999936e-01,-4.777773097157499843e-02,1.565620452165600029e-01,-5.214682221412700325e-02,8.203092962503399921e-02,3.534462302923199739e-02,6.099613904952999599e-01,-2.923381030559499827e-01,5.427587628364599626e-01,-3.793157264590300143e-02,2.074466831982100037e-02,-4.416285455226899859e-01,-2.010731846094100106e-01,4.286352917551999875e-02,-2.274493724107700121e-01,-2.986718416213999805e-01,2.008378505706799877e-01,1.569268256425900010e-01,1.235334053635600005e-01,1.923096626997000125e-01,-1.003511622548100002e-01,8.979035168886199958e-02,1.730712056160000067e-01,-7.543955743312799611e-02,-7.670642435550699412e-02,1.187407150864600025e-01,9.167619794607199946e-02,2.654130458831799877e-01,-1.209138631820699944e-01,-6.001909822225599822e-02,2.148036845028400074e-02,4.066713619977200232e-03,-7.547438144683800421e-02,1.123762875795400046e-01,-1.179869696497899967e-01,2.667222023010299981e-01,2.110594660043700055e-01,1.350562572479200030e-01,-1.305748820304900026e-01,-2.308945208787900050e-01,5.296773090958600133e-02,1.703073382377600087e-01,-2.381048947572700081e-01,-4.181453287601499813e-01,-8.094545453786800016e-02,1.578909531235700089e-02,1.443507522344600058e-01,1.190419271588299965e-01,-1.429109275341000074e-01,1.985623538494100115e-01,-1.515536606311800039e-01,1.868831068277400087e-01,6.061341762542700184e-01,-1.684685051441200121e-01,1.214247569441800068e-01,2.220747470855700123e-01,7.707224786281599571e-02,7.195936143398300178e-02,1.107513904571500035e-01,-2.025423794984800019e-01,-1.624438762664799918e-01,-6.137022748589499727e-02,1.283297967165700042e-02,8.316339552402500501e-02,-9.054979681968700067e-02,-4.588160216808300218e-01,9.068536013364800197e-02,3.682519793510399819e-01,2.055553793907199944e-01,-1.604227423667899943e-01,-2.470489963889100152e-02,-3.141704946756399691e-02,2.662562429904899997e-01,2.037654817104299909e-01,1.471613943576799977e-01,1.943038552999500068e-01,-3.879230916500099879e-01,1.008881554007499959e-01,1.101044118404399946e-01,1.587653607130100064e-01,-1.081534996628800011e-01,-1.972751766443300026e-01,-6.058898568153400083e-02,4.185661301016799923e-02,-3.596105277538300116e-01,9.532658010721199726e-02,-6.237184628844300027e-02,-4.049314558505999750e-01,-2.288678735494600047e-01,-7.112254947423900242e-02,2.677003443241099956e-01,1.277282238006600124e-01,2.892485857009899908e-01,-2.655192315578500106e-01,-2.484854608774199891e-01,9.983253479003899311e-02,-4.079875946044900226e-01,-9.515216946601899595e-02,-4.933082312345499904e-02,1.108845025301000015e-01,2.443780899047900135e-01,-8.951196074485799625e-02,-1.012597903609299965e-01,-1.173489987850200034e-01,4.547576978802699704e-02,9.763170778751399659e-02,-7.288061548024400357e-03,1.640771776437799923e-01,1.065309718251200022e-01,5.624388530850400053e-02,6.493850052356700542e-02,-5.979433283209800026e-02,-2.109906971454600100e-01,5.842025279998800391e-01,5.547142773866699933e-02,7.293450087308900320e-02,5.387775972485499970e-02,2.691482305526700092e-01,7.542815059423399471e-02,1.977714896202099892e-02,3.201169371604900005e-01,-6.116012111306200205e-02,9.236758202314400423e-02,1.867507249116900081e-01,3.064756989479099913e-01
