-0.27136120200157,0.33111310005188,-0.088675610721111,-0.26557174324989,-0.99974578619003,0.56116271018982,0.53582835197449,0.0028826852794737,0.51748740673065,-0.0069565330632031,0.72245579957962,1.1553239822388,-0.40041330456734,-0.29406616091728,-0.16793875396252,-0.31699898838997,0.40750807523727,0.22980487346649,-0.61819660663605,-0.51334857940674,0.28603169322014,-0.084068715572357,0.038467660546303,0.044182423502207,-1.0727180242538,-0.60140079259872,0.27460616827011,-0.67171764373779,-0.55686128139496,0.22052657604218,0.21427753567696,0.29818323254585,-0.019472379237413,0.26292499899864,0.77901464700699,0.14448803663254,-0.82774752378464,0.44258332252502,-0.57566952705383,1.1073614358902,0.55805295705795,0.45768076181412,0.14206500351429,-0.16879351437092,2.6061611175537,1.1703481674194,-0.76824879646301,1.5156656503677,0.11027208715677,-0.7118074297905,-0.98016399145126,1.0424810647964,0.7379714846611,0.47346645593643,0.36454576253891,-0.20535255968571,1.9839704036713,0.12706109881401,-0.23995350301266,-0.30139708518982,-0.77737730741501,0.012494787573814,-0.34367176890373,-1.215190410614,-0.85205221176147,-0.10858859866858,-1.0013018846512,0.90897697210312,0.20727421343327,-0.6306808590889,0.76512861251831,-1.0651271343231,0.57896012067795,-0.049577936530113,-0.79142552614212,-0.14514322578907,1.8827719688416,-0.53884762525558,-0.32262492179871,-0.40392050147057,-0.39420452713966,-0.17860089242458,-0.033024523407221,-0.90482431650162,-0.53182578086853,-0.10456369072199,-0.15456028282642,0.83689969778061,0.10660966485739,-0.27826967835426,-0.092757172882557,0.20796754956245,0.74161702394485,-0.87138330936432,0.082097068428993,0.020498445257545,-0.35605055093765,-0.63980108499527,0.35031822323799,-0.26042577624321,-0.55150836706161,-0.68270027637482,0.57105308771133,-0.63128876686096,0.30258640646935,0.26951524615288,-0.32565382122993,-0.038106340914965,0.22372536361217,0.059519842267036,0.036987904459238,-0.54720455408096,0.43297010660172,-0.24798659980297,-0.6987065076828,0.05040542408824,0.17678515613079,0.29457333683968,-1.3659455776215,-0.70562487840652,0.37030094861984,-0.23434765636921,0.084130458533764,-1.3031703233719,0.092641919851303,1.0553892850876,-0.22576241195202,0.53826397657394
0.27370128035545,0.41608914732933,-0.13958643376827,-0.71201866865158,-0.86584198474884,-0.35543730854988,0.44432687759399,0.46487626433372,0.0033519833814353,-0.64588093757629,0.40557572245598,0.85050094127655,0.26472061872482,-1.1004405021667,-0.74660861492157,-0.18696588277817,0.20454625785351,-0.67514282464981,-0.54619324207306,0.75118553638458,-0.012658387422562,-0.74276894330978,0.53737950325012,-0.095570959150791,0.1675298511982,-0.40097457170486,-0.26653149724007,-0.87692046165466,0.3088952600956,1.0824996232986,0.11118222028017,-0.0042630271054804,-0.3564225435257,-0.20138630270958,0.27380019426346,0.44739753007889,-0.44376793503761,1.0402525663376,-0.36786711215973,0.52967309951782,0.32957941293716,0.31918829679489,0.40955904126167,-0.059006717056036,0.85598254203796,0.15949596464634,-0.35164469480515,-0.087757512927055,0.044719070196152,-0.46020406484604,-0.019965324550867,0.29578024148941,-0.25616911053658,0.59131306409836,0.14221486449242,0.16201549768448,0.86879312992096,0.9500315785408,0.61369842290878,0.19354698061943,0.037430997937918,-0.074186764657497,0.11094711720943,0.23437012732029,0.073084615170956,0.2864944934845,-0.20453204214573,-0.18416863679886,-0.070864148437977,-0.29498788714409,-0.080980375409126,-0.19223852455616,-0.071666307747364,0.49627149105072,0.62519091367722,0.45469027757645,-0.21905380487442,-0.063136823475361,-0.51005738973618,-0.62737441062927,-0.34608274698257,0.088957168161869,-0.049176789820194,-0.27199366688728,-0.25247678160667,0.41454288363457,-0.044842358678579,0.44095882773399,0.94476628303528,0.14860199391842,0.40325337648392,0.55829334259033,0.065503492951393,0.58493554592133,-0.60286742448807,0.71044832468033,0.29612830281258,-0.61244630813599,-0.25700762867928,0.71358501911163,-0.068095520138741,0.31995895504951,0.29215326905251,-0.11680453270674,-0.10668656229973,-0.34756565093994,-0.47371473908424,-0.33166292309761,0.091548725962639,0.072586573660374,-0.33672368526459,-0.36236506700516,0.25475251674652,-0.2550148665905,0.21800754964352,-0.71867549419403,0.76983350515366,-0.17560186982155,-0.61637449264526,-0.40291795134544,0.96165478229523,0.23828448355198,0.41396743059158,0.63990437984467,0.68623512983322,0.070537351071835,-0.0060168532654643,0.16449525952339
0.11679690331221,0.50995457172394,-0.41248825192451,0.23797401785851,-0.26254364848137,0.18302094936371,1.068994641304,0.0089809596538544,0.65620470046997,-0.44443801045418,0.44303691387177,0.91859662532806,-0.089652962982655,-0.68972504138947,0.029923848807812,0.008204884827137,0.37664520740509,-0.10520873963833,-1.0480237007141,0.42279160022736,0.27080303430557,-0.058694843202829,-0.12831465899944,0.26232051849365,0.18105679750443,-0.52459090948105,0.17058473825455,0.71215271949768,-0.31433108448982,0.26987200975418,-0.043332263827324,-0.640121281147,0.29553210735321,-0.90942960977554,0.30598533153534,-0.42784452438354,0.080124013125896,-0.038984041661024,0.00097216351423413,-0.14695210754871,-0.34133604168892,0.96976345777512,0.91687041521072,-0.53851121664047,0.40608251094818,0.46323490142822,-0.30661445856094,-0.29734843969345,1.0529223680496,-0.36412611603737,-0.085639677941799,-0.55712991952896,0.91500353813171,-0.11923687905073,-0.15793396532536,-1.2119882106781,0.35176631808281,0.98089641332626,-0.6447212100029,0.19221246242523,0.54611164331436,0.23614670336246,-0.26026034355164,0.71907162666321,-0.84876441955566,0.012695224024355,-0.34943628311157,-1.3130658864975,-0.011462312191725,-1.0656694173813,-0.5178856253624,0.22201776504517,-0.17411561310291,0.25387167930603,0.57143199443817,0.73736500740051,0.81732338666916,0.44632059335709,0.50368958711624,-0.86125493049622,-0.035666555166245,0.19433319568634,-0.043575745075941,-0.43635827302933,-0.17065553367138,-0.10901230573654,-0.16810195147991,-0.21839249134064,0.039334826171398,0.36823305487633,-0.79532480239868,0.79721570014954,1.5446473360062,-0.47807562351227,0.11538743972778,0.95066231489182,-0.11417040973902,-0.4773962199688,-0.2138144671917,0.19103233516216,-0.25437277555466,-1.1810910701752,0.27869093418121,0.084054179489613,-0.32602244615555,0.22437542676926,-0.40908911824226,0.2403571754694,0.77598702907562,0.0044234697706997,-0.49098017811775,-0.49440258741379,0.090512670576572,0.17786227166653,0.56396734714508,0.43501478433609,0.43250820040703,0.30317476391792,-1.2635705471039,0.9088716506958,0.31190320849419,0.60398995876312,0.50778472423553,-0.33264073729515,-0.14219383895397,0.64307123422623,0.11624499410391,-0.34980881214142
0.045067328959703,0.48224380612373,-0.39919874072075,-0.50958782434464,-0.088783890008926,0.47896724939346,0.69781237840652,0.086615987122059,0.80991864204407,-1.4586749076843,-0.31303763389587,-0.027132598683238,0.21290630102158,-0.058098882436752,-0.23620876669884,-0.28443536162376,-0.74025231599808,0.30423468351364,0.27517479658127,0.16643463075161,-0.72292709350586,0.57293623685837,-0.22125470638275,-0.066275157034397,-0.070518381893635,-0.14889973402023,-0.18561394512653,0.34202602505684,-0.028445344418287,-0.53880620002747,-0.056835435330868,-0.91329008340836,-0.39313417673111,0.28779545426369,-0.27722585201263,0.40618476271629,0.32534903287888,0.14884707331657,-0.47734734416008,0.65012729167938,0.89190846681595,-0.013693323358893,0.15249627828598,-0.15595988929272,0.77591234445572,-0.58306151628494,0.69822204113007,-0.18634766340256,-0.2791790664196,0.45036953687668,0.14025431871414,-0.46287408471107,0.77426826953888,0.55082648992538,0.85852807760239,0.21120598912239,0.95693331956863,0.72060573101044,-0.1959412842989,-0.21843525767326,0.6235653758049,0.49921056628227,-0.17483878135681,0.83347338438034,-0.27623039484024,-0.5989043712616,0.08276592195034,0.15670755505562,0.63046836853027,-0.49236890673637,0.67258822917938,-0.18764427304268,0.8693186044693,-0.2165126055479,-0.99289232492447,-0.099057465791702,-0.71900194883347,0.26883170008659,-0.1829459965229,0.16052155196667,-0.19013118743896,-0.29354444146156,0.97180020809174,0.47440293431282,-0.3740525841713,-0.097208015620708,0.26239213347435,0.15052857995033,-0.5418074131012,0.081408455967903,0.10505986958742,0.79303193092346,0.052938833832741,-0.67360544204712,0.26842007040977,-0.23165389895439,0.5066522359848,0.12586958706379,0.089996263384819,-0.12980543076992,0.044715825468302,-0.13675539195538,-0.48383018374443,-0.10338727384806,-0.081796146929264,-0.072902955114841,0.54812318086624,-0.39553633332253,-0.13334953784943,0.55691587924957,0.24995875358582,-0.2599558532238,-0.2339755743742,0.41641861200333,-0.07612357288599,-0.32471427321434,1.1441414356232,0.53881120681763,-0.53695464134216,-0.40388479828835,0.278185993433,1.1119832992554,-0.74055969715118,0.067153677344322,0.47449073195457,0.69368588924408,0.47747713327408,-0.0065251090563834
-0.22123193740845,0.56012237071991,-0.23749110102654,0.13602177798748,-0.057396911084652,-1.1871963739395,0.19443234801292,-0.36031028628349,-0.059071864932775,-0.20906801521778,-0.13423442840576,-0.14952626824379,0.6529466509819,0.36531403660774,-0.52929908037186,0.33993670344353,-0.0088717490434647,0.45596766471863,-0.038937531411648,0.31691738963127,0.4307943880558,-0.049220193177462,0.26507812738419,0.34755980968475,-0.73173546791077,-0.12695609033108,-0.72712177038193,-0.21018551290035,-0.31493276357651,0.47181990742683,-0.16320219635963,0.021666947752237,-0.46930429339409,0.5377191901207,-0.14041659235954,0.50272643566132,0.23709408938885,-1.2709436416626,-0.067324131727219,0.28555807471275,0.26532822847366,-0.61230772733688,-0.378015011549,0.11863145232201,-0.0043350122869015,0.80381870269775,-0.63849264383316,0.82836604118347,-0.24799156188965,0.10426346957684,0.15969228744507,0.37997654080391,0.23446781933308,0.67672955989838,0.54265666007996,-0.24719516932964,0.019417064264417,-0.38347378373146,-0.30901548266411,-0.48212951421738,0.13311509788036,0.064059190452099,-0.55173075199127,-0.9056077003479,0.83465552330017,-0.1603864133358,0.4428676366806,0.73751085996628,0.38042601943016,-0.053937323391438,-0.018412293866277,0.074763551354408,0.20415343344212,-0.40652629733086,-0.4014747440815,1.1714597940445,0.2986036837101,1.118035197258,-0.71645593643188,0.38913109898567,0.5480660200119,0.64336436986923,0.076513886451721,-0.1675880253315,-0.13941806554794,-0.22698894143105,0.12872712314129,0.24526703357697,-0.17954559624195,-0.27464306354523,0.22480592131615,0.65135163068771,-0.44322708249092,0.6125653386116,-0.68285369873047,1.1121551990509,0.620072722435,-0.48598897457123,-0.39179575443268,-0.93496215343475,0.43772944808006,-0.53063666820526,0.53833848237991,-0.44385612010956,0.68864917755127,-0.57417875528336,0.6734225153923,-0.31599920988083,-0.10574557632208,-0.823666036129,-0.66280978918076,1.4203908443451,-0.14794979989529,0.48871392011642,-1.7963443994522,0.49064633250237,-0.30321696400642,-0.27110025286674,-0.26579248905182,-0.55281865596771,0.84052121639252,0.11382992565632,-0.0043414779938757,0.38741010427475,0.16714985668659,0.31704393029213,0.12997043132782,0.0038069495931268
-0.37143656611443,-0.19995518028736,0.42686200141907,-0.37984266877174,-0.48051890730858,0.30843138694763,0.23599192500114,0.36079502105713,0.27434840798378,0.26534059643745,0.35934978723526,0.29559770226479,0.015745006501675,0.33559533953667,0.15930274128914,0.1192799732089,0.099582590162754,-0.34187385439873,-0.44107490777969,-0.046809535473585,-1.2538374662399,-0.041691560298204,-0.10374701023102,0.79337823390961,-0.4616302549839,-0.55282157659531,-0.9370368719101,-0.70336902141571,0.97834074497223,-0.42670089006424,0.17846709489822,0.25063297152519,-0.1381644308567,-0.0256687104702,-0.15749175846577,-0.050953153520823,-0.0013431732077152,-0.020471988245845,0.73815226554871,0.11096819490194,0.30095133185387,0.23148672282696,-0.20529608428478,0.30100813508034,0.54333072900772,0.54558765888214,1.1206802129745,0.098693557083607,0.91752201318741,0.10407866537571,-0.22131152451038,-0.11036049574614,0.99676060676575,-0.65134018659592,-0.62517988681793,-0.24763122200966,0.92204785346985,0.19312143325806,0.22268682718277,-0.64303112030029,0.6373051404953,0.089158892631531,-0.24336282908916,0.49392309784889,-0.0013946647522971,0.16895934939384,-0.085339598357677,0.15023019909859,-0.39637339115143,0.33512419462204,0.076289363205433,-0.13534012436867,0.092093199491501,-0.63724666833878,-0.67358845472336,-0.015481555834413,0.58712542057037,-0.11937878280878,-0.20798107981682,-0.29049944877625,-0.15167094767094,0.41266596317291,-0.22577859461308,0.27934995293617,0.18097998201847,-0.36657458543777,-0.19776357710361,0.47952342033386,0.055364120751619,-0.90136015415192,-0.025975950062275,0.10958234220743,0.13844300806522,-0.93053585290909,0.43130204081535,0.34678959846497,-0.38931149244308,0.51568168401718,0.077633321285248,0.046738602221012,0.60342276096344,-0.36502090096474,-0.36659619212151,0.12119309604168,0.37574854493141,-0.074711568653584,-0.067193955183029,-0.13155826926231,0.10410344600677,-0.10530989617109,0.40877136588097,0.56197226047516,-1.2112350463867,0.012584514915943,0.15815617144108,0.7138803601265,0.27195218205452,0.86106592416763,0.28934669494629,-0.24089576303959,0.85207897424698,0.080902561545372,0.18278586864471,0.75418561697006,0.22420507669449,0.82307320833206,0.084683157503605,-0.63167691230774
0.18638928234577,0.26740539073944,-0.36894142627716,-0.56959688663483,-0.81063032150269,0.090657986700535,-0.082572400569916,-0.05379793420434,0.9319064617157,-0.031637098640203,0.28690692782402,0.17434152960777,0.63004404306412,-0.094437710940838,1.5156998634338,0.37340322136879,-0.75376838445663,0.10558926314116,0.62112754583359,-0.36567386984825,0.31085699796677,-0.35215139389038,0.095575608313084,0.006654457654804,-0.53720653057098,-0.20994251966476,-0.4548377096653,-0.25840300321579,0.21205322444439,-0.46314439177513,-0.91254830360413,0.17331679165363,0.0049982182681561,0.035288758575916,-0.1168138384819,0.026953527703881,0.36092084646225,0.34396201372147,0.027414422482252,0.72470736503601,0.70857918262482,-0.54702436923981,0.38082712888718,-0.14756800234318,0.088986128568649,-0.55325025320053,0.20210301876068,0.53328770399094,-0.09426324814558,-0.50321990251541,0.096120484173298,0.47042593359947,0.72370272874832,0.74941056966782,0.095380514860153,0.58433824777603,0.093989431858063,-0.01916940510273,0.2392383813858,0.35526305437088,-0.37681940197945,0.82057636976242,0.0013992454623803,-0.26753547787666,-0.031893011182547,-0.49097323417664,-0.086416661739349,0.85218691825867,0.69790285825729,-0.15566313266754,0.91507411003113,-0.052545551210642,0.49439665675163,0.29849487543106,-0.53454571962357,-0.83355563879013,0.35481911897659,0.079900398850441,0.3552054464817,0.050152197480202,-0.52124446630478,-0.030592612922192,0.81194514036179,-0.070801116526127,-0.24817314743996,0.32482054829597,0.77282279729843,0.13982896506786,0.040462132543325,0.79757165908813,0.27977433800697,0.18196146190166,-0.1883258074522,-0.70373183488846,0.39114347100258,-0.55024856328964,-0.067987307906151,-0.58697527647018,-0.11865997314453,0.019870845600963,0.081635273993015,-0.34350481629372,0.56310188770294,-0.25709334015846,-0.38262656331062,0.29573166370392,0.2600103020668,0.049814283847809,-0.61739361286163,0.36119276285172,0.24658706784248,-0.68239229917526,-0.47672373056412,0.86928027868271,-0.69853401184082,0.31696552038193,0.19503569602966,0.66966742277145,-0.20853178203106,-0.38875404000282,0.069299779832363,-0.2937841117382,0.22539539635181,-0.36316430568695,0.15152443945408,-0.085382826626301,0.17618790268898,-0.28941085934639
0.19707256555557,0.36871510744095,-0.35600760579109,-0.20535658299923,-0.88633942604065,-0.37179669737816,0.16301333904266,0.47669133543968,1.1316962242126,0.057497631758451,0.078488938510418,0.47920322418213,-0.08918821811676,-0.0065851439721882,0.52442234754562,0.21301747858524,0.12193215638399,0.96637547016144,-0.25100350379944,-1.1496192216873,-0.27424520254135,-0.26032745838165,-0.55742359161377,-0.57531011104584,-0.52463853359222,0.26011463999748,-0.11542854458094,-0.16565437614918,-0.83579289913177,-0.099015235900879,0.2686607837677,0.1724751740694,-0.057438310235739,0.49814206361771,0.023427587002516,-0.65357518196106,0.18639840185642,-0.69305038452148,0.18411763012409,0.14506724476814,0.3901492357254,-0.82514846324921,0.38914242386818,-0.40837377309799,0.31719362735748,-0.88974153995514,0.8852544426918,0.58920747041702,0.32257413864136,-0.18514032661915,-0.011218193918467,0.24139109253883,-0.6794770359993,0.35524609684944,-0.33912324905396,0.51431876420975,-0.53225898742676,-1.0263586044312,-0.64171707630157,0.38267201185226,0.021572593599558,-0.24664112925529,0.75128316879272,-0.28332647681236,-0.65467137098312,0.46754729747772,-0.13310566544533,-0.25839176774025,0.2180861979723,-0.7351131439209,-0.049354534596205,-0.015537305735052,0.069580100476742,0.19231061637402,-0.64861977100372,-0.80562448501587,-0.68003344535828,0.1520319879055,0.28768545389175,-0.49036577343941,-0.15750047564507,-0.21867410838604,1.0542659759521,-0.15391761064529,0.27845934033394,-0.41159930825233,-0.20081232488155,0.14312115311623,0.050253376364708,1.2633751630783,-1.9987563064205e-05,0.73852872848511,0.063605904579163,-0.97699332237244,1.3841580152512,0.19214855134487,0.37542140483856,-0.7469710111618,0.276457041502,-0.70822417736053,0.20755435526371,-1.2004107236862,-0.78259116411209,0.5248139500618,0.23381239175797,-0.097198225557804,0.46522560715675,-0.08072043210268,-0.18133170902729,-0.15195180475712,-0.19974285364151,0.58294486999512,-0.89591747522354,0.56119555234909,-0.12766672670841,0.28781440854073,0.28251165151596,0.14738215506077,-1.1207996606827,0.83628159761429,-0.0075722178444266,-0.48135834932327,0.20200341939926,0.1702147424221,0.41982117295265,-0.97389262914658,0.21252056956291,0.47134909033775
-0.16682130098343,0.21228182315826,-0.6600753068924,0.43201649188995,-0.56818342208862,0.87929826974869,-0.59606003761292,0.021790182217956,0.79465341567993,-0.075646631419659,0.47429651021957,0.24373424053192,-0.20633693039417,-0.5799446105957,0.11209165304899,-0.45418754220009,-0.1021991148591,-0.11563546210527,-0.59483933448792,1.0650788545609,-0.425876557827,-0.23660007119179,0.42952769994736,0.027216084301472,0.20396806299686,0.16158065199852,0.25768569111824,-0.73604816198349,0.11110038310289,0.16606985032558,-0.76695191860199,-0.47062581777573,0.071327596902847,0.1449698805809,0.59357440471649,0.34264528751373,0.66781067848206,-0.27905455231667,0.3653846681118,0.17341354489326,-0.20362541079521,-0.45805445313454,-0.38399568200111,0.80956184864044,0.95558458566666,-0.21528667211533,-0.46419140696526,0.48315101861954,0.39123558998108,0.081373870372772,-0.16135503351688,0.094393365085125,-0.37092787027359,-0.044258952140808,0.0083890976384282,-0.21083164215088,-0.25615382194519,0.030730877071619,0.1667028516531,-0.53608554601669,-0.59508800506592,0.19216966629028,0.10554738342762,0.80576390028,0.75505834817886,-0.32090404629707,0.21572345495224,-0.084841221570969,-0.012455363757908,-0.017967587336898,-0.51026105880737,0.60737371444702,0.23673984408379,-0.95688480138779,-0.64743834733963,-0.26238623261452,0.63137155771255,-0.15636970102787,0.14294740557671,-0.20303928852081,0.00577631033957,-0.23525011539459,0.67075854539871,-0.32191467285156,0.35548719763756,-0.082913592457771,0.084882162511349,0.44711899757385,0.008931296877563,-0.92486524581909,0.13825938105583,-0.55234521627426,0.252516746521,-0.38170915842056,-0.57758092880249,0.97152495384216,1.5941231250763,-0.0042344182729721,0.27300643920898,0.27208530902863,0.8409109711647,-0.23858976364136,-0.38949945569038,0.0021126416977495,-0.35041573643684,0.62004488706589,-0.25033140182495,0.47285163402557,0.69991737604141,-0.20514340698719,0.70909416675568,0.21011339128017,-0.078306801617146,0.63383835554123,-0.40787732601166,0.74774163961411,0.042984750121832,0.010644822381437,-0.42629265785217,-0.48716855049133,-0.29655337333679,0.45834171772003,-0.33374381065369,0.2799776494503,-0.18192587792873,-0.064345166087151,-0.60205543041229,0.67804181575775
-0.6598174571991,-0.2951694726944,-0.85091698169708,-0.28297865390778,-0.47483631968498,0.20553711056709,-0.78363859653473,-0.015495103783906,-0.41276901960373,0.61125034093857,0.087508656084538,-0.74553233385086,0.60929238796234,0.24396722018719,-0.12735366821289,-0.26426696777344,0.32596358656883,0.22178113460541,0.23110263049603,-0.1013485789299,-0.080409243702888,-0.45178443193436,0.20179811120033,0.073850624263287,-0.4666776061058,0.27260500192642,-0.20694029331207,0.090930581092834,0.72871500253677,0.3170445561409,0.37932735681534,0.78978896141052,-0.96354681253433,0.30849665403366,0.20573551952839,-0.041526962071657,-0.16336706280708,0.94581681489944,-0.80387598276138,0.65969109535217,-0.36877951025963,-1.0810474157333,0.72930306196213,-0.15570415556431,0.18066170811653,0.48864516615868,-0.03595245629549,-0.37471663951874,0.29747328162193,-0.5143529176712,-0.089481920003891,0.7706710100174,0.40283766388893,0.19399461150169,0.35973125696182,-0.44279205799103,0.61429250240326,-0.52941584587097,-0.098116531968117,-0.085595853626728,0.46415030956268,0.070710301399231,-0.26348316669464,-0.19556155800819,-0.32727438211441,0.9019895195961,-0.14888240396976,-0.1617581397295,0.69235438108444,-0.51999866962433,-0.24626451730728,0.24623088538647,0.03775118291378,0.29776445031166,0.038533836603165,0.21555329859257,0.24621491134167,-0.05477886274457,0.65517246723175,-0.14495980739594,-0.38573834300041,-0.038833297789097,-0.18847973644733,0.54071223735809,-0.14089082181454,0.21784123778343,-0.23173552751541,0.45771741867065,-0.063438668847084,0.84732562303543,0.15131421387196,-0.10728740692139,0.45875406265259,-0.998854637146,0.52386981248856,-0.109848074615,0.48591050505638,0.22879919409752,0.19693939387798,0.11421000957489,0.90047490596771,-1.1921364068985,0.090736471116543,-0.57694733142853,0.53138536214828,-0.59549921751022,0.52851366996765,-0.45429849624634,0.62486428022385,0.081040628254414,0.7870631814003,-0.083809293806553,0.24297773838043,-1.1707737445831,-0.078742735087872,0.0026343299541622,-0.74325066804886,0.16897322237492,-0.85736602544785,0.16883139312267,-0.41688394546509,0.16721118986607,-0.19468222558498,0.43257132172585,-0.058923736214638,0.075993962585926,-0.31786176562309,-0.18237432837486
-0.019832894206047,1.0949540138245,-0.34339928627014,-0.35137021541595,-0.30277666449547,-0.32080075144768,0.143460765481,-0.24170823395252,0.60929900407791,-0.38576284050941,0.57503652572632,-0.35224550962448,0.39268234372139,-0.74742937088013,0.11136730015278,0.78209346532822,0.24209603667259,-0.4655522108078,-0.60242319107056,-0.23666793107986,-0.43841248750687,-0.070202693343163,-1.7349735498428,-0.16117034852505,-0.43409132957458,-0.69211918115616,1.6302707195282,-1.0700088739395,-0.11417184770107,0.10206772387028,-0.6461940407753,0.16467605531216,0.55284160375595,0.6188936829567,-0.02040502987802,-0.97326421737671,0.49006515741348,0.31239992380142,0.069740787148476,0.97344791889191,0.086168766021729,-0.35800075531006,-0.24062785506248,0.10220220685005,-0.77739179134369,0.22972485423088,-0.95549911260605,0.9311728477478,0.021028125658631,0.82161736488342,-0.44632253050804,0.19223953783512,-0.91136163473129,-0.065097913146019,0.2467298656702,-0.4746465086937,-0.16976842284203,0.27142316102982,-0.21676908433437,0.36362618207932,0.59779763221741,-0.4481009542942,0.57485401630402,-0.038669001311064,0.73214429616928,0.73315525054932,-0.51716446876526,-0.13651774823666,0.27878922224045,-0.08250230550766,0.11150143295527,-0.7575586438179,0.51208156347275,0.67638170719147,-0.65868830680847,-0.62482136487961,-0.064099982380867,-0.93294304609299,0.21589134633541,0.30785620212555,0.52311116456985,0.12966647744179,1.8349808454514,0.28011050820351,0.1889211833477,-0.6784206032753,0.18872272968292,0.3838369846344,0.25593161582947,0.16559936106205,-0.44547683000565,0.59581702947617,0.98303961753845,-0.97065389156342,0.78973859548569,0.39718756079674,0.70875370502472,-0.5956609249115,1.2401609420776,0.14270927011967,-0.33912301063538,0.12324577569962,-0.022693065926433,-0.044257447123528,0.12175656855106,-0.085635796189308,-0.083626322448254,-1.078130364418,0.079434908926487,-0.4240645468235,-0.54182654619217,0.32318821549416,0.71002388000488,0.25783258676529,0.52515113353729,0.19060727953911,-0.35027906298637,-0.97631537914276,-0.20130863785744,1.0448083877563,-0.082356445491314,-0.85684943199158,-0.049472667276859,-0.37710815668106,-0.51604247093201,-0.34167850017548,0.3564650118351,0.34495824575424
0.34591874480247,0.50533318519592,0.010986494831741,-0.16294226050377,0.13718342781067,-0.064474731683731,0.22585260868073,-0.49738183617592,0.55476576089859,-0.32884711027145,0.18574090301991,-0.08427470177412,0.15474839508533,-0.88909983634949,-0.53866547346115,0.52338254451752,-0.13886252045631,0.45706254243851,0.29437434673309,0.16793246567249,0.13045962154865,0.16386324167252,-0.78254902362823,0.15165278315544,-0.27327266335487,-0.27799463272095,0.55488479137421,0.19246198236942,-0.49239522218704,-0.058820512145758,-1.2812345027924,0.039317306131124,0.61967545747757,0.98880255222321,0.49942052364349,-0.14914689958096,0.072334811091423,0.49457210302353,0.082555763423443,1.0003526210785,-0.15090973675251,0.0054694567807019,0.13523821532726,0.12260589748621,-0.51285350322723,0.16890971362591,-0.75977349281311,0.79928427934647,-0.047819051891565,-0.14878146350384,-0.29803171753883,0.37969833612442,-0.44987457990646,0.56624776124954,0.84474939107895,0.22842916846275,1.1130269765854,0.56694900989532,-0.47482180595398,0.69749063253403,-0.52786087989807,-1.0288605690002,0.017319224774837,-0.22723592817783,-0.47939962148666,-0.22705754637718,0.21438351273537,-0.83506494760513,0.80420160293579,-0.74590677022934,-0.68608915805817,0.50460922718048,0.2026229351759,0.15662188827991,0.23885899782181,0.44789689779282,0.63248842954636,-0.32348954677582,0.54277741909027,0.31037110090256,-0.57015770673752,-0.36586639285088,0.68502229452133,-0.54455536603928,-0.78905856609344,0.63359004259109,-0.64616078138351,0.30483019351959,0.47827935218811,1.280289888382,-0.35802599787712,0.3015783727169,0.21989016234875,-0.64891481399536,0.11898643523455,0.59847325086594,-0.13825611770153,-0.88547456264496,-0.3749392926693,-0.6292530298233,0.82339173555374,-1.1698424816132,0.42601174116135,-0.036598704755306,0.66420990228653,0.46438950300217,0.42057365179062,-0.21388852596283,0.037766739726067,-0.37169447541237,0.32717582583427,-0.20396348834038,-0.2851710319519,-0.078155361115932,-1.1461682319641,-0.52353686094284,-0.1440097540617,-0.40690591931343,-0.12849815189838,-0.90143525600433,-0.0056595159694552,-0.88827979564667,-0.32839596271515,-0.77152931690216,0.31182956695557,-0.29247894883156,0.21214060485363,0.12375210225582
0.2626593708992,0.60547119379044,0.15926046669483,0.52321285009384,-0.4501805305481,1.3553463220596,-0.87358725070953,-0.68933618068695,0.96833819150925,0.45409056544304,0.17196671664715,-0.92795568704605,0.30414772033691,0.29291576147079,0.9425847530365,0.54004144668579,-0.37695398926735,0.33941656351089,0.020851090550423,0.67939341068268,-0.4106650352478,-0.39169716835022,0.2563391327858,-0.67176216840744,-0.26464661955833,0.24521513283253,0.11770388484001,0.50623416900635,-0.051847822964191,0.29219165444374,0.33790218830109,0.74516826868057,0.56194198131561,-0.18662337958813,0.23646706342697,-0.24492445588112,-0.55491691827774,-0.86284184455872,-0.26129612326622,-0.027404746040702,-0.011745643801987,-0.01787898875773,0.69304811954498,0.082379892468452,0.72405540943146,-0.045798424631357,-0.92324560880661,0.44982129335403,0.081672832369804,-0.039342898875475,-0.024820726364851,-0.33155256509781,-0.016460387036204,0.20434340834618,0.16138017177582,-0.39126628637314,-0.25265952944756,0.30624607205391,0.32084506750107,-0.35880148410797,-0.21697010099888,0.080182120203972,0.26879447698593,-0.80003541707993,-0.065240971744061,-0.56064051389694,0.35991606116295,-0.3669838309288,-0.060483545064926,0.47652140259743,-0.0853111743927,-0.11172570288181,-0.1736448854208,-0.23818308115005,-0.40250569581985,-0.56347918510437,-0.1361702978611,-0.36664369702339,0.23108807206154,0.034543313086033,-0.19321198761463,-0.1384097635746,0.28790879249573,-0.28293576836586,-0.18835651874542,-0.022858573123813,-0.69355738162994,-0.25895735621452,0.11332665383816,0.077973008155823,-0.45377197861671,0.34201854467392,0.29000663757324,0.27593180537224,0.24793395400047,0.087756931781769,-0.1604228913784,-0.98744654655457,0.47222366929054,-0.091656595468521,-0.24732075631618,0.10482783615589,0.74117630720139,-0.20095433294773,0.19742560386658,-0.2317683249712,-0.17399081587791,-0.51205199956894,0.72223889827728,-0.10661932080984,0.17146573960781,0.070229917764664,-0.40556222200394,0.2417113929987,-0.070699788630009,-0.18940976262093,0.39501801133156,-0.041769631206989,-0.24043790996075,-0.13924667239189,0.22187115252018,-0.49621936678886,0.68721652030945,0.11584161221981,0.80599647760391,-0.15921913087368,-0.88722282648087,-0.27295958995819
-0.60978502035141,0.37858989834785,-0.17746311426163,-0.012757441960275,-0.3613061606884,0.0898147970438,0.47281500697136,0.62975800037384,0.2299208343029,-0.65542554855347,-0.1301641613245,0.16488638520241,0.34643748402596,0.20384934544563,0.551913022995,-0.021225607022643,0.12018170952797,-0.64902597665787,0.21867790818214,-0.21600911021233,-0.4908350110054,0.44067168235779,-0.080617010593414,0.078740440309048,0.63416928052902,0.34259068965912,0.10241707414389,0.20191358029842,-0.30025070905685,0.21831570565701,0.27972415089607,0.3203686773777,-0.75092142820358,0.19853754341602,-0.17334079742432,0.046735044568777,-0.19426615536213,0.89081174135208,-0.16247129440308,0.22593611478806,0.6510004401207,0.1349568516016,0.040516410022974,0.1039660051465,0.065913535654545,0.074133113026619,-0.52638620138168,0.062516674399376,-0.17337395250797,0.21442827582359,0.11954282969236,0.32002699375153,-0.60181421041489,0.024570733308792,1.1731711626053,0.016047351062298,-0.49312517046928,0.089942149817944,-0.62425529956818,-0.20445385575294,0.059717908501625,0.21405431628227,-0.28860247135162,-0.08635550737381,0.08183528482914,-0.20235741138458,0.3468544781208,-0.11862403899431,-0.18897971510887,-0.57027965784073,0.87497693300247,0.25180625915527,0.17606322467327,-0.17104326188564,0.27080807089806,-0.068399451673031,0.10949974507093,-0.25692355632782,0.13567906618118,0.41274330019951,0.14563800394535,-0.16855283081532,0.20840676128864,-0.092396877706051,0.29773703217506,0.72493839263916,0.092010878026485,0.015109112486243,-0.032210424542427,-0.086990676820278,1.0843776464462,-0.72619158029556,-0.58947986364365,-0.23050759732723,0.24968491494656,0.21192696690559,-0.2044527977705,-0.06863210350275,0.84759706258774,-0.9770285487175,-0.12589950859547,-0.57459187507629,0.76979023218155,0.62464964389801,0.67010980844498,-0.80469441413879,-0.79670780897141,0.027447111904621,-0.57617539167404,0.49856746196747,0.60686266422272,0.2478428632021,0.90395480394363,0.051676440984011,-0.60759752988815,0.52843058109283,-0.42438676953316,0.12707810103893,-0.27478337287903,-0.60249960422516,0.064437314867973,0.035086907446384,0.17980727553368,0.37953943014145,0.18882316350937,0.57563722133636,-0.00052958365995437,-0.14286413788795
-0.23443734645844,0.098223388195038,0.56025356054306,0.32803264260292,-0.14256070554256,-0.044584840536118,-0.036686260253191,0.61086374521255,-0.26602816581726,0.070078387856483,-0.39374896883965,-0.38005849719048,0.21428030729294,-0.88583463430405,-1.2939935922623,0.10091576725245,0.29676240682602,0.63404768705368,-0.58959662914276,0.084666930139065,0.1398044526577,0.24382598698139,-0.053636807948351,0.36527183651924,0.12207966297865,0.11892845481634,-0.13990470767021,0.43611285090446,0.0078280474990606,-0.50245755910873,0.12060642242432,-0.12446457892656,-0.57588863372803,0.1382999420166,0.34826174378395,0.23178236186504,-0.59304678440094,0.015507621690631,0.19340363144875,0.23060935735703,0.22888740897179,0.40592887997627,-0.7173787355423,1.1857516765594,0.37147715687752,0.23369756340981,-0.57784050703049,0.45005103945732,-0.32664296030998,0.22511574625969,-0.0034289283212274,0.49828734993935,-0.19801133871078,0.14371202886105,0.64750450849533,-0.081807993352413,-0.43967568874359,-0.3318110704422,0.053707789629698,-0.30151116847992,0.26553845405579,-0.1389429718256,0.12624154984951,0.10864589363337,0.35520970821381,1.2274115085602,0.089591510593891,-0.027802670374513,0.18562667071819,-0.26501885056496,-0.14600662887096,-0.77021878957748,-0.29696732759476,0.083419971168041,0.59219080209732,0.64382511377335,-0.32875493168831,-0.25843852758408,0.92711490392685,0.30476173758507,-0.023247079923749,0.18629893660545,-1.6825656890869,0.21771988272667,0.15879289805889,0.75186288356781,-0.3442003428936,0.9227352142334,0.13437204062939,0.075790099799633,-0.50432974100113,-0.55688697099686,0.028299747034907,0.040642946958542,0.88134729862213,-0.24812687933445,0.2945052087307,0.053685866296291,0.2204764932394,0.220066010952,0.49715739488602,-0.12748914957047,0.1940474063158,0.57201331853867,-0.21790082752705,-0.10881522297859,-0.37107253074646,-0.017683198675513,0.06066071242094,-0.35476562380791,-0.010009191930294,0.7131524682045,-0.013157658278942,0.20553892850876,-0.20627517998219,0.14732474088669,-0.27478927373886,-0.38989767432213,0.010942861437798,-0.1696587651968,0.16991636157036,0.14053420722485,-0.22540035843849,0.80201345682144,-0.06296606361866,0.11759746819735,-0.33506193757057,0.13526585698128
0.053165338933468,-0.41715115308762,-0.11880651116371,-0.20628808438778,0.51564782857895,0.60510313510895,-0.063395448029041,-0.79893761873245,-0.42062118649483,-0.21717970073223,-0.49722868204117,0.3429366350174,-0.18714213371277,-0.51219481229782,0.57149618864059,-0.1095222607255,0.1753866225481,-0.35358220338821,-0.47809630632401,-0.15042085945606,0.088390730321407,0.28892606496811,0.028326163068414,-0.0077848299406469,0.043408133089542,-0.45033979415894,0.39666286110878,1.1631108522415,0.64655345678329,-0.33652207255363,-0.43281754851341,0.45306545495987,0.090775795280933,0.2642956674099,0.90324884653091,0.86784189939499,0.017507839947939,0.33600983023643,-0.21115304529667,-0.064071387052536,-0.77338284254074,-0.46248081326485,-0.048681978136301,-0.092789188027382,0.49616307020187,0.66435271501541,-0.39150330424309,0.40265420079231,0.0078635150566697,-0.9509459733963,0.21636602282524,-0.1255742162466,0.52193111181259,-0.79751712083817,0.95268702507019,-0.15662455558777,0.53023892641068,-0.039723344147205,-0.03802564740181,-0.2265632301569,-0.58576542139053,-0.0013205690775067,0.77184498310089,-0.22187577188015,-0.32447731494904,-0.31766048073769,0.30382907390594,0.62345230579376,0.44843557476997,-0.089911974966526,0.47496452927589,-0.61998134851456,-0.41686955094337,-0.35222148895264,-0.77151173353195,-0.016475386917591,0.11542102694511,-0.039550982415676,-0.12412486970425,-0.22693885862827,0.042316239327192,0.46209475398064,0.19905009865761,-0.48618593811989,-0.22551138699055,0.13920709490776,-0.72500741481781,0.051432281732559,0.56460678577423,0.63342124223709,-0.14393620193005,0.38677510619164,0.11680319905281,0.046349946409464,0.51323270797729,-0.78763145208359,1.0958232879639,0.41319096088409,0.59370827674866,0.45797562599182,0.25441315770149,-1.0779094696045,0.39593574404716,-0.10009556263685,0.05633470416069,0.23739497363567,0.42826610803604,0.18263706564903,-0.0060225548222661,0.73999804258347,0.29458695650101,-0.37107706069946,-0.77446419000626,-0.32528230547905,0.21809649467468,-0.59938848018646,-0.026720179244876,0.99440640211105,0.11201045662165,0.80855792760849,-0.45722597837448,0.1690691113472,0.7579453587532,-0.38666278123856,0.12577541172504,0.57257974147797,0.33256840705872,-0.35160452127457
-0.029884597286582,-0.0084352819249034,-0.8346381187439,-0.32607752084732,-0.10083039849997,0.35087710618973,-1.0452300310135,-0.87514477968216,0.31433856487274,0.23204196989536,-0.18295949697495,-0.73322325944901,-0.036057408899069,0.090833000838757,0.49049392342567,0.79897958040237,-0.2676460146904,0.024583827704191,0.44823434948921,0.65766656398773,0.033881135284901,-0.67196696996689,-0.4627847969532,-0.24359892308712,-0.011155858635902,-0.062406271696091,-0.41552191972733,0.5335499048233,0.088103882968426,0.60794013738632,-0.093554377555847,0.57324260473251,-0.14917887747288,0.13964211940765,-0.24139249324799,-0.17851568758488,-0.66908556222916,-0.31416189670563,-0.70770901441574,0.098528601229191,-0.15291707217693,-0.20009151101112,-0.32529616355896,0.44842529296875,0.06240052357316,-0.3864007294178,0.45444115996361,-0.38202780485153,-0.20899178087711,-0.18283559381962,-0.50004094839096,-0.28586620092392,0.19794215261936,-0.051526829600334,0.4539832174778,-0.71388334035873,-0.24878826737404,0.32077920436859,-0.60400605201721,-0.46735399961472,0.13417866826057,-0.12431012094021,-0.1017891690135,-0.29761463403702,-0.078738927841187,-0.13238440454006,-0.15302634239197,-0.62269347906113,0.30870053172112,-0.13501538336277,0.56836587190628,-0.61586636304855,-0.10477311164141,-0.30326008796692,-0.20925000309944,-0.28244683146477,-0.063764907419682,-0.38769382238388,-0.090944223105907,-0.40219840407372,-0.24597671627998,-0.044362477958202,0.077425628900528,0.63452994823456,-0.22542509436607,-0.40128007531166,-0.428736358881,0.5822930932045,-0.51731586456299,0.26437586545944,-0.73260182142258,0.033230800181627,-0.26432791352272,-0.10899678617716,0.338707447052,0.22781719267368,-0.4021303653717,-0.60687708854675,0.019925849512219,-0.40423619747162,-0.2532913684845,-0.48490053415298,-0.0017377169569954,-0.24714076519012,0.37223920226097,0.2347069978714,-0.16848169267178,-0.5141949057579,0.004459286108613,-0.42828887701035,-0.13847374916077,0.71914345026016,-0.04448176920414,-0.090870410203934,-1.2013320922852,-0.12409105151892,0.026951702311635,-0.31386822462082,-0.65865522623062,0.56262874603271,0.18789200484753,-1.4229003190994,0.81614381074905,-0.0086543876677752,0.31016412377357,0.26232776045799,-0.72473782300949,0.51779770851135
-0.60187274217606,0.27159088850021,-0.049655716866255,-0.28816491365433,-0.91981709003448,0.55790811777115,0.67370700836182,-0.65664148330688,0.26092654466629,-0.24919012188911,-0.26517760753632,-0.40045949816704,0.74823004007339,-0.36211717128754,0.0050348290242255,0.51958853006363,-0.42837554216385,0.362244784832,0.27062693238258,-0.30892851948738,-0.28786614537239,0.41945844888687,-0.15913037955761,-0.54006677865982,-0.65588760375977,0.53546720743179,-1.2207188606262,0.96788287162781,0.47353586554527,0.18941740691662,-0.4209811091423,-1.1775480508804,-0.45170810818672,0.79354339838028,-0.52665305137634,-0.48697128891945,-0.10434474050999,0.14220444858074,-0.25417760014534,-0.22276651859283,0.26993596553802,-0.37777024507523,-0.1482155174017,0.073909975588322,0.4995813369751,-0.41445752978325,-0.24156999588013,-0.24489152431488,0.23792809247971,0.25129520893097,-0.30202171206474,-0.61615717411041,0.19926914572716,0.20501157641411,0.27703139185905,0.35804417729378,0.44433468580246,-0.11687229573727,-0.42459788918495,-0.26799294352531,-0.067660018801689,0.098993122577667,-0.63800150156021,-0.16579034924507,-0.093880392611027,-0.71659415960312,-0.24906691908836,0.288519769907,0.41668167710304,0.23377062380314,-0.89625519514084,-0.022095322608948,-0.03979929164052,0.28168985247612,-0.052350345999002,0.11468262970448,0.15134356915951,-0.088245265185833,0.37836685776711,-0.43279173970222,-0.22557908296585,0.22649665176868,0.55878955125809,0.18221201002598,0.55829429626465,0.10318474471569,0.22193305194378,-0.26085883378983,0.91448789834976,0.93222939968109,0.56818568706512,-0.53058898448944,0.90932047367096,-0.50334233045578,-0.41704416275024,-0.21469646692276,-0.13428884744644,0.24107837677002,0.3445602953434,0.63620632886887,-0.1553630977869,0.045181136578321,0.32779783010483,0.29748800396919,-0.10487964749336,0.32527154684067,-0.94795924425125,-0.108264349401,0.23020485043526,-0.55388271808624,0.54668003320694,-0.17145149409771,-0.76172280311584,1.0744619369507,0.098964959383011,-0.47162035107613,1.2762017250061,0.062954612076283,-0.55170267820358,-0.47010090947151,-0.54260945320129,0.77024453878403,0.16844318807125,-0.36778163909912,0.3884973526001,-0.2750783264637,-0.16819809377193,0.18708777427673
0.18685798346996,0.30098879337311,-0.53271836042404,-1.3768094778061,-0.67726761102676,-0.49980852007866,-0.20130464434624,-0.490234375,-0.26699703931808,-0.27574294805527,0.14904850721359,0.056626293808222,0.48509177565575,-0.21974916756153,0.69820129871368,-0.14424239099026,-0.57983934879303,0.45247042179108,0.019268721342087,0.69610625505447,0.0074232574552298,-0.0095554534345865,0.23482429981232,-0.1680116802454,0.048444677144289,-0.74595403671265,-0.77847695350647,0.087193876504898,-0.45309987664223,0.30393826961517,0.6581107378006,0.52265393733978,0.82397186756134,0.013109839521348,-1.1640304327011,0.70292812585831,-0.1284261494875,0.28963246941566,-0.46775749325752,0.28150346875191,-0.11477598547935,-0.47554978728294,0.61205571889877,-0.62688308954239,0.90709918737411,-0.010734696872532,-0.37090182304382,-0.42287135124207,-0.088806174695492,0.36890104413033,-0.28564441204071,-0.096783354878426,-0.043788354843855,-0.36875981092453,0.80888891220093,-0.068595848977566,-0.11423282325268,0.38036105036736,-0.30307796597481,-0.17729440331459,-0.15842401981354,-0.38246986269951,0.75486731529236,0.074435815215111,0.42304340004921,0.053828414529562,-0.20544248819351,0.21415439248085,-0.38892063498497,-0.22128203511238,-0.013936042785645,-0.30238950252533,-0.1156180202961,0.87006968259811,-0.49975723028183,-0.1770166605711,0.45025479793549,0.044084809720516,0.3395808339119,-0.18927718698978,-0.41890904307365,-0.28885051608086,-0.59174740314484,0.64916920661926,0.79035329818726,0.97551065683365,-1.2971192598343,-0.41709619760513,0.2978789806366,-0.85534471273422,-0.058894660323858,-0.039484281092882,0.34188437461853,0.19739896059036,0.48478364944458,0.059323094785213,0.37656053900719,-0.26936495304108,0.53281277418137,-0.082062527537346,0.24727484583855,-1.1395643949509,-0.14795790612698,0.087305076420307,0.031038152053952,0.060579925775528,0.26991066336632,0.1828079521656,0.05817986279726,-0.24098482728004,0.064661897718906,0.1895205527544,0.1572390049696,0.45764848589897,0.6894508600235,-0.18991416692734,1.240336894989,0.36396670341492,0.57691043615341,-1.2848316431046,-0.31451231241226,-0.7366646528244,0.19202011823654,-0.17284125089645,0.45677104592323,-0.42435356974602,0.034658625721931,0.47446393966675
-0.32686984539032,0.99427437782288,-0.11698006093502,-0.76844334602356,-0.28633624315262,0.00067851750645787,0.2640597820282,-0.12773337960243,0.60576999187469,-0.0022089455742389,0.1889139264822,0.44662058353424,0.40364700555801,0.66370111703873,0.26466956734657,0.21760222315788,-0.67789381742477,0.69614899158478,0.071231730282307,0.50933843851089,-0.16563630104065,0.38719367980957,-0.34279277920723,-0.74659299850464,0.1619570851326,-0.50107944011688,0.053114090114832,-0.097448199987411,-1.419731259346,0.10349803417921,0.44711625576019,0.55774700641632,0.58557176589966,0.33488509058952,-0.29555952548981,-0.027797443792224,-0.33674311637878,-0.80957502126694,-0.48884674906731,0.7940661907196,0.61133795976639,-0.39950597286224,0.88101202249527,0.018861167132854,0.51061922311783,1.7049758434296,-0.28479182720184,0.98405689001083,-0.83721798658371,-0.22009824216366,0.083270400762558,-0.18451854586601,-0.70923298597336,0.78387069702148,0.43331632018089,0.37571266293526,-1.0525814294815,0.16590683162212,-0.38999927043915,0.17749738693237,0.27893781661987,0.88795274496078,0.86363559961319,0.1348570138216,0.19246233999729,0.55331802368164,0.5163654088974,0.030716706067324,-0.2755745947361,-0.75309091806412,0.55789721012115,-0.4447920024395,0.83630222082138,0.20597372949123,-0.29368272423744,-0.8476328253746,-0.2460612654686,0.2685641348362,-0.51730757951736,-0.30584111809731,-0.49262601137161,-0.27847304940224,1.2314231395721,0.17511603236198,-0.55250519514084,-0.21935743093491,0.25756296515465,0.49620607495308,-0.18541434407234,0.64051192998886,-0.22722281515598,0.42148017883301,-0.25155305862427,-0.028761945664883,0.85874235630035,0.7811359167099,-0.33222579956055,-0.98866546154022,1.3802582025528,-1.1146532297134,0.18715405464172,-0.71841424703598,0.20165552198887,0.13860747218132,-0.13973300158978,-0.15935461223125,0.52720677852631,-0.31878730654716,-0.69566416740417,0.040087785571814,-0.16367611289024,-0.43396374583244,0.94110703468323,0.56679403781891,0.68667525053024,0.32304546236992,0.066986627876759,-0.2516151368618,-0.75235015153885,0.58288246393204,-0.18397609889507,-0.2931644320488,0.31087264418602,-0.34770065546036,0.18775846064091,-0.051421135663986,-0.38446873426437,1.0292557477951
0.21865323185921,0.60945701599121,-0.053718287497759,0.037015963345766,-0.74293619394302,0.63083744049072,-0.20266819000244,-0.38112959265709,-0.10295344144106,0.10323852300644,-0.44605612754822,0.28962531685829,-0.089536927640438,-0.63728255033493,0.022173468023539,0.27753373980522,0.39819937944412,-0.2323591709137,0.44642272591591,0.2059284299612,0.25059300661087,-0.74606513977051,1.2905020713806,0.062208477407694,-0.087228424847126,-0.56202536821365,0.32964199781418,0.38662865757942,-0.10721877962351,0.273556381464,0.065372116863728,0.13320936262608,0.37422984838486,-0.33984968066216,-0.40915358066559,0.49186804890633,-0.64356523752213,-0.84374004602432,-0.27934354543686,-0.3469620347023,0.23768554627895,-0.83395475149155,-0.16290260851383,-0.24537144601345,0.21335715055466,-0.097679182887077,0.017693670466542,0.71510243415833,-0.55369412899017,-0.35654264688492,-0.55044198036194,0.75093024969101,0.16579648852348,-0.050303135067225,-0.11539805680513,0.075196132063866,0.60440319776535,-0.14328022301197,0.11613560467958,-0.51786607503891,0.82693183422089,-0.21019691228867,0.46695148944855,-0.78930932283401,-0.20637282729149,-0.77418726682663,0.46713879704475,0.18258726596832,-0.33367058634758,-1.115739107132,0.35662162303925,0.17681279778481,0.63636416196823,0.42089203000069,-0.67539215087891,-0.77783936262131,1.9251947402954,0.12282368540764,-0.40905272960663,-0.43626993894577,0.41852587461472,0.19327625632286,0.11301046609879,-0.24007825553417,0.028401838615537,0.66508287191391,0.074683055281639,0.17580634355545,-0.75130695104599,0.79479843378067,-0.29238948225975,0.51100867986679,-0.13360367715359,-0.76803916692734,0.30251523852348,0.55351251363754,0.26658707857132,-0.89265042543411,0.29055353999138,-0.71908885240555,-0.53735738992691,0.43294087052345,0.1404682546854,-0.096962459385395,0.21728825569153,-0.22235277295113,0.41591602563858,-0.2560225725174,0.63961219787598,-0.23917363584042,1.0274056196213,-0.3686905503273,-0.42076888680458,-0.47739443182945,-0.28004834055901,-0.46248382329941,0.17668379843235,0.5051481127739,-0.46000623703003,0.69287782907486,-0.1037607267499,-0.44227981567383,0.36457377672195,0.17247159779072,0.34722453355789,-0.48472762107849,0.26481392979622,0.31130334734917
0.42371228337288,-0.11289005726576,-0.065019249916077,-0.80921506881714,-0.29706707596779,0.976538002491,0.61266362667084,-0.70664250850677,-0.14723604917526,0.043088875710964,-0.24467758834362,0.65939563512802,0.0055780629627407,-0.79405105113983,-0.28251707553864,0.34109717607498,-0.01068802177906,0.98673504590988,-0.40426367521286,0.11607550829649,0.6111918091774,-0.06543030589819,-0.36368015408516,-1.1246721744537,-0.1126581132412,-0.98944979906082,0.77230536937714,0.22094878554344,-0.33467596769333,-0.023276535794139,0.076862759888172,-0.23340150713921,0.93366134166718,1.0189499855042,0.11116762459278,-0.2020677626133,0.071713656187057,-0.04642017558217,-0.34833532571793,0.54507482051849,-0.76587569713593,-0.59804731607437,0.16274252533913,-0.41869151592255,-0.096265755593777,0.64207816123962,-0.097371712327003,-0.63189190626144,0.5043762922287,-0.096549525856972,0.67598056793213,-0.07238032668829,0.20519781112671,0.070582590997219,1.0356216430664,0.22691762447357,-0.080166175961494,-0.68316078186035,0.07479452341795,0.55604118108749,-0.841816842556,-0.6947175860405,-0.31831011176109,-0.22726048529148,0.31273901462555,-0.3220240175724,-0.049321353435516,-0.16765080392361,0.03918557241559,0.012174558825791,0.080583654344082,0.31176266074181,-0.15642563998699,0.23339360952377,-0.45782628655434,-0.33808681368828,-0.3575356900692,0.1632426828146,0.20407839119434,-0.17912593483925,0.091071598231792,0.45023304224014,0.67003238201141,-0.30567747354507,-0.3243333697319,0.60626250505447,-0.60560286045074,-0.10641787201166,-0.05296777561307,-0.13251721858978,0.077147044241428,-0.0064437701366842,-0.14615869522095,-0.60561299324036,0.99299865961075,0.056188751012087,0.59311473369598,-0.95322823524475,0.00912244617939,-1.0046761035919,-0.21250051259995,-0.51073038578033,0.12990780174732,-0.62749117612839,0.4766283929348,0.18504340946674,0.44216847419739,-0.55932134389877,-0.10307512432337,-0.51750892400742,-0.34357696771622,-0.66883021593094,0.13458254933357,0.82569926977158,-0.10495229065418,0.12702879309654,0.280119150877,1.2821120023727,-0.67202371358871,0.64510548114777,-0.079645551741123,-0.61394679546356,0.5113912820816,-0.23833386600018,0.13728383183479,-0.36551639437675,-0.29699569940567,-0.34880641102791
0.79485952854156,0.9363254904747,0.20819164812565,-0.61618322134018,-0.34318548440933,0.38468930125237,0.6600456237793,0.31686687469482,0.38529914617538,-1.2296867370605,0.65311443805695,0.69297426939011,0.38342478871346,-0.84178763628006,-0.0454564653337,0.3938315808773,-0.43991473317146,-0.69163656234741,-0.015176369808614,-0.026490913704038,0.059040281921625,0.44503703713417,-0.01031522359699,0.50982451438904,-0.98416370153427,-0.11797831952572,-0.29610851407051,0.17131853103638,0.15935871005058,0.17736838757992,-0.47149208188057,0.33827611804008,0.84725606441498,0.32293522357941,0.64965629577637,-0.15474034845829,-0.1997244656086,-0.77185988426208,0.0071502192877233,0.28417825698853,-0.61263889074326,0.12131055444479,-0.56063961982727,0.2736968100071,1.035743355751,-0.13282459974289,-0.086064651608467,1.5632954835892,0.65504717826843,0.87812489271164,0.57614505290985,-0.52864497900009,-0.071979314088821,0.15280631184578,0.84020733833313,-0.36060041189194,-0.13148629665375,-0.56146371364594,0.55803674459457,-0.40844959020615,-0.31076189875603,-0.076612122356892,0.97818571329117,-0.54032832384109,-0.34036019444466,-0.39978954195976,0.22587685286999,0.14163890480995,0.19308406114578,-0.32608467340469,-0.058638911694288,0.11449181288481,-0.060616008937359,0.44199445843697,-0.0078337825834751,-0.32239803671837,0.90677165985107,-0.00033205904765055,-0.087720133364201,-0.65681678056717,-0.83699893951416,0.22985209524632,0.0027839040849358,-0.0097146946936846,0.022525195032358,1.1084189414978,-0.033854395151138,0.23072625696659,0.98967415094376,-0.35889604687691,-0.81484949588776,0.20139326155186,0.97545212507248,0.073462054133415,0.034496460109949,0.23703369498253,1.2204545736313,-0.71040892601013,-0.20772781968117,-0.80135923624039,-0.67559808492661,0.6983939409256,1.0498237609863,-0.52780973911285,0.87299609184265,0.4493453502655,0.58648389577866,-0.19069555401802,0.029911253601313,0.4477191567421,0.015594534575939,-0.0059678847901523,0.49821373820305,0.25140783190727,-0.38361793756485,-0.027107840403914,0.82955849170685,0.55952429771423,0.32553344964981,-0.016986086964607,-0.1137173846364,0.18082849681377,0.21182754635811,0.016558706760406,0.58404165506363,-0.071068465709686,0.47097632288933,-0.079662501811981
-0.26920494437218,0.35949558019638,0.13814695179462,0.054075326770544,0.32540121674538,-0.47358584403992,-0.063539512455463,0.59153771400452,-0.57953006029129,-0.5350683927536,-0.27180746197701,0.90806370973587,-0.43818864226341,-0.24985510110855,-0.33072289824486,-0.58635431528091,-0.05944449827075,-0.26497384905815,-0.064954288303852,0.13214512169361,-0.65435856580734,0.33825305104256,-1.4294618368149,-1.066220998764,-0.6509724855423,-0.48001062870026,0.77053076028824,-0.25997564196587,-0.7314276099205,0.17276908457279,-0.41529840230942,-0.33316069841385,0.63937985897064,-0.38887825608253,0.68223804235458,-0.08588557690382,-0.034727800637484,-0.82756650447845,-0.14207316935062,-0.26224848628044,0.36684495210648,0.81634402275085,-0.23618414998055,0.07248992472887,0.06140873208642,0.44088506698608,-1.7409999370575,1.4505512714386,1.2156075239182,-0.69160217046738,-0.022838968783617,0.62172108888626,0.2093228250742,0.36804535984993,0.77910935878754,0.20069071650505,-0.43750700354576,0.58219820261002,-0.21067246794701,-0.098718471825123,-0.30084198713303,-0.76291394233704,0.60484862327576,-0.37457033991814,-0.44631683826447,-0.41697910428047,0.66540306806564,0.0016314475797117,0.54003125429153,-0.34113505482674,-0.25269845128059,-0.16611355543137,0.058638349175453,-0.79821789264679,0.0012721945531666,0.076677449047565,-0.074183464050293,-0.63876277208328,-0.69197714328766,0.049395151436329,-0.28631809353828,-0.78351134061813,0.025754503905773,0.070641413331032,-0.74251317977905,-0.2580694258213,0.53324604034424,-0.14697469770908,-0.075778491795063,0.22343578934669,0.27293252944946,-0.40958917140961,0.37874487042427,-0.11947268247604,0.48503875732422,0.26291233301163,-0.34464040398598,-0.13752676546574,0.050314869731665,-0.8050382733345,0.098293118178844,-0.16865561902523,0.13089501857758,0.050309620797634,1.0596199035645,0.5209795832634,0.94410103559494,-0.39058101177216,-0.48918175697327,-0.27888134121895,0.04449588060379,-0.084086291491985,0.79486584663391,0.066158801317215,0.26616138219833,-0.31659328937531,-0.23186688125134,-1.0137742757797,-0.090394638478756,0.17773848772049,-0.23483887314796,-0.22680144011974,1.7088177204132,-0.79586100578308,0.66990381479263,0.12252571433783,-0.61806517839432,0.69370675086975
0.54353386163712,0.15109372138977,-0.1901919990778,-0.12552583217621,-0.85893672704697,0.78060525655746,-0.2310294508934,0.5781592130661,-0.5039923787117,-0.31579646468163,-0.17522722482681,0.44394642114639,-0.044951766729355,-0.35784530639648,0.43497157096863,0.12534737586975,0.10633315891027,0.36311921477318,0.14687120914459,-0.10060801357031,-0.10034522414207,0.054103303700686,0.22326251864433,0.090557485818863,-0.405024766922,-0.13159018754959,-0.087697066366673,0.16523368656635,-0.67662662267685,-0.16888746619225,-0.26130455732346,-0.16147054731846,0.19703252613544,-0.60332441329956,0.33139291405678,0.01335574220866,0.32837542891502,0.6444074511528,-0.064711891114712,0.18053376674652,-0.13392640650272,-1.029865860939,0.061237182468176,-0.46007394790649,-0.57108122110367,0.075468696653843,-0.40242022275925,0.09787592291832,0.33626464009285,-0.7172771692276,-0.030295047909021,0.1668397039175,-0.26666221022606,-0.11428491771221,0.39178240299225,0.17961746454239,-0.25903096795082,0.097053520381451,-0.085913583636284,-0.5755723118782,0.20326708257198,-0.36821499466896,0.70131105184555,-0.5169363617897,-0.33879575133324,-0.52550703287125,0.18707282841206,0.44326049089432,-0.79089367389679,-0.14419533312321,0.25530406832695,0.28322356939316,0.047656249254942,0.34607329964638,-0.41585537791252,-0.47381049394608,0.56914693117142,0.31875029206276,-1.0341449975967,0.015816612169147,0.35767900943756,0.19219483435154,0.10394181311131,-0.61356115341187,-0.33123615384102,0.42053824663162,0.061782259494066,0.1650964319706,0.44081526994705,0.12979690730572,-0.20547117292881,0.78524279594421,-0.054152611643076,-0.1715452671051,0.78897535800934,0.76738774776459,0.27400568127632,-0.011266006156802,1.2423597574234,0.064415663480759,0.4824330508709,-0.019347738474607,0.15746037662029,-0.024943359196186,0.52228951454163,0.50150752067566,-0.40453541278839,-0.25322729349136,-0.28523260354996,-0.43862468004227,-0.86456781625748,0.35527631640434,-0.70087873935699,-0.11459905654192,-0.16629847884178,-1.1283577680588,0.020424339920282,-0.47813913226128,-0.020668908953667,1.155088186264,-0.23793038725853,-0.79658842086792,-0.11119586974382,-0.13074363768101,0.13849891722202,-0.58072793483734,0.75124806165695,0.30926552414894
-0.22371265292168,-0.40667632222176,-0.35775354504585,0.23486156761646,-0.2941917181015,0.23323003947735,-0.18454679846764,0.077127881348133,0.30819258093834,0.16408276557922,-0.30200463533401,-0.0052206851541996,-0.010443503037095,-0.21077418327332,0.56762337684631,-0.5559344291687,-0.023671427741647,-0.045908622443676,-0.22199991345406,0.50244385004044,-0.204181432724,0.046060219407082,0.62091201543808,0.0028011370450258,-0.057356081902981,0.36857217550278,-0.046307422220707,-0.015830794349313,0.18171924352646,0.10084439069033,-0.2801239490509,0.13675247132778,-0.31268414855003,0.73930650949478,0.025758530944586,-0.19656531512737,0.39098373055458,-0.039043810218573,-0.26117759943008,-0.45278272032738,0.2191696614027,-0.25868320465088,-0.55641436576843,-0.20875711739063,-0.13646623492241,-0.15951891243458,-0.39072129130363,-0.04197296872735,0.68747752904892,0.26343247294426,-0.30293369293213,0.081740885972977,0.071109354496002,0.01946565322578,1.1627203226089,0.3178845345974,0.72413408756256,-0.31885549426079,0.1093941628933,-0.48493692278862,0.076294787228107,-0.94979202747345,0.2042728215456,0.38232913613319,0.27041435241699,0.80235195159912,-0.02534306421876,0.26897856593132,-0.20588475465775,0.2732971906662,-0.27630871534348,0.27061277627945,-0.13349588215351,-0.76849126815796,-0.055155657231808,-0.28037682175636,-0.39485850930214,-0.088806733489037,0.27232277393341,-0.34531924128532,0.17526012659073,0.52313655614853,-0.61826312541962,0.53848385810852,0.57943344116211,-0.31409671902657,-0.35058379173279,0.0079761641100049,0.14648553729057,0.25794672966003,0.026067698374391,-0.52043318748474,0.44236052036285,-0.18314842879772,-0.40013113617897,0.051878865808249,0.12174470722675,-0.05744955688715,-0.23388981819153,0.27495566010475,-0.11730393767357,0.63269478082657,0.18022920191288,-0.4204980134964,0.43697506189346,-0.87197923660278,-0.082375854253769,0.28467458486557,-0.33602455258369,0.22455386817455,0.45860347151756,0.88482838869095,-0.31288361549377,-0.4825227856636,0.037858180701733,-0.2091496437788,0.40825617313385,0.57096952199936,-0.17474190890789,-0.055996276438236,0.20423798263073,-0.036223962903023,0.33986520767212,0.39299213886261,-0.20398542284966,-0.12513522803783,-0.015649711713195,-0.41942742466927
0.48719808459282,0.53398817777634,-0.6756038069725,-0.18628369271755,-0.99189496040344,0.036309085786343,0.8356004357338,0.19894321262836,-0.044396873563528,-0.58015042543411,-0.64837622642517,0.38392272591591,0.053862076252699,-0.20551756024361,-0.65281176567078,0.47218602895737,0.59774529933929,0.7325456738472,-0.57738953828812,-0.85531622171402,0.15189710259438,0.24138076603413,0.24676525592804,-0.44083428382874,-0.83799201250076,0.30491822957993,-0.15103389322758,0.23020167648792,-0.54956132173538,-0.74055677652359,-0.21589916944504,-0.23853014409542,0.22052951157093,0.60028481483459,-0.22184908390045,0.44872799515724,0.18277655541897,0.40563800930977,-0.5321940779686,0.43410828709602,1.3858044147491,-0.49467724561691,0.41898652911186,-0.62183982133865,0.64385384321213,-0.023091964423656,-0.92195004224777,0.45821124315262,-0.049703527241945,0.25334709882736,-0.6995267868042,0.63801860809326,0.41274824738503,1.081932425499,1.1774166822433,0.05088284611702,0.32454967498779,0.11587407439947,0.063055463135242,-0.10182189196348,0.66241461038589,-0.0013059375341982,0.096967346966267,0.31313428282738,-0.12415660172701,0.131039083004,-0.40276116132736,0.12310782074928,0.52110975980759,-0.57593727111816,0.36528906226158,0.30127641558647,0.27817407250404,-0.11059559136629,-0.64337694644928,-0.27685898542404,0.5235310792923,-0.11335201561451,0.42232391238213,-0.19711235165596,-0.50134879350662,-0.10520939528942,0.51779717206955,-0.3886781334877,0.4450997710228,0.66354286670685,0.82302325963974,0.43838480114937,0.70640552043915,-0.39954394102097,0.18548874557018,0.48486232757568,-0.33845695853233,0.022649273276329,0.86685848236084,-0.96301305294037,0.12897941470146,-0.88818913698196,1.268562912941,-1.2817723751068,-0.046245232224464,-0.21291123330593,0.93847149610519,-0.52531260251999,0.015141749754548,0.050684601068497,-0.13710194826126,0.048661518841982,-0.53717178106308,0.60101705789566,-0.11903186142445,0.17234088480473,0.042383711785078,0.66853529214859,-0.19114142656326,-0.64671844244003,0.4428214430809,0.7311252951622,-0.39053726196289,0.7447914481163,-0.472466558218,0.011090573854744,0.30584773421288,-0.40264374017715,0.088990308344364,0.54228347539902,0.032955918461084,1.4972796440125
0.21865290403366,0.65486305952072,-0.41298320889473,0.15995588898659,0.0032143287826329,-0.5429955124855,-0.25246343016624,0.048963706940413,0.63395220041275,0.18356876075268,0.0095436498522758,0.22262053191662,0.44378256797791,-0.017224499955773,0.27570340037346,-0.14347614347935,-0.21414305269718,-0.10348519682884,0.42312455177307,-0.29429778456688,-0.23002596199512,0.29042130708694,-0.83842223882675,0.11338908970356,-0.33623206615448,0.14033064246178,0.20584191381931,-0.61318242549896,0.11931139975786,0.30947092175484,-0.4844077527523,-0.46510916948318,-0.0075411405414343,0.3270420730114,-0.39911755919456,0.13732832670212,-0.074251368641853,0.40231880545616,-0.65953230857849,0.30480250716209,0.41009300947189,-0.39296272397041,0.022495308890939,-0.21099527180195,-0.0052421651780605,-0.57731622457504,-0.43086984753609,-0.11983218789101,-0.15707948803902,-0.30921670794487,-0.3383452296257,-0.030255189165473,1.3677011728287,0.69887340068817,-0.01898892223835,-0.0021635999437422,1.087057352066,0.62772810459137,-0.10064213722944,0.29545924067497,0.12872615456581,1.0218062400818,-0.89463329315186,0.64897310733795,-0.98151391744614,-0.091812014579773,-0.90811675786972,-0.13962192833424,0.5914506316185,-1.0120534896851,-0.066682703793049,-0.0061898441053927,0.53333896398544,-0.02234193123877,-0.32803982496262,0.066220059990883,-0.056771922856569,0.17596304416656,-0.87516790628433,-0.07040149718523,-0.57930582761765,-0.29815846681595,-0.12721239030361,-0.18075050413609,0.4277251958847,0.34186840057373,0.078320890665054,0.068230897188187,-0.46721333265305,0.93196475505829,-0.015867473557591,0.70585954189301,-0.10427726060152,-0.16915307939053,-0.64413833618164,0.57717686891556,0.46512430906296,-0.6380375623703,-0.5608417391777,-0.16070534288883,0.34163102507591,0.92303031682968,-0.76851236820221,-0.49557647109032,0.085187591612339,0.050261367112398,0.83796936273575,-0.38428315520287,-0.6317999958992,0.11900316178799,0.076629355549812,0.50633233785629,1.1691212654114,-0.23072826862335,-0.45909750461578,0.31784066557884,0.74063688516617,-0.49653574824333,-0.85817813873291,0.030130878090858,-0.34591454267502,-0.20088714361191,-0.39949050545692,-0.099606409668922,0.23238696157932,-0.22636447846889,-0.34278702735901,0.017546227201819
-0.16889269649982,-0.35102763772011,-0.18411290645599,0.016163408756256,-0.13694077730179,-0.75943773984909,0.067039005458355,0.13125088810921,-0.20274385809898,-0.36229893565178,0.54058623313904,1.5150362253189,0.74626350402832,0.1038341447711,0.83104455471039,-0.060493919998407,0.36049911379814,-0.29321876168251,0.36974930763245,0.37634885311127,0.46635508537292,0.29749125242233,-0.10022178292274,-0.43302008509636,0.24414849281311,0.39560976624489,-0.60513424873352,0.57109314203262,-0.44578787684441,0.21459643542767,0.3504036962986,-0.11262893676758,0.2070868909359,0.25705036520958,-0.66764223575592,-0.011441472917795,0.45523458719254,-0.55331271886826,0.39419919252396,-0.3763302564621,0.28230926394463,-0.0086000086739659,-0.72774636745453,-0.0046001458540559,-0.36150684952736,0.088984832167625,0.1253142952919,0.20151363313198,-0.65073788166046,-1.7170711755753,-0.4608887732029,0.051143225282431,-0.20619063079357,-0.22126159071922,-1.3134768009186,-0.25449800491333,0.7054004073143,0.29386076331139,-1.0058631896973,-1.4031757116318,0.50252723693848,1.1056509017944,-0.52296602725983,0.50779956579208,-0.65477442741394,-0.22729215025902,0.43947046995163,-0.068745955824852,0.36213448643684,-0.73085701465607,0.5644439458847,0.040284529328346,0.15096206963062,0.10743234306574,-0.79967087507248,-0.42194965481758,0.77481371164322,0.30235347151756,-0.020354235544801,-0.39148309826851,-0.0031098506879061,-0.66907215118408,0.3354919552803,0.42139422893524,-0.5745764374733,-0.50767433643341,-0.46872091293335,0.61485248804092,-0.58688968420029,0.31091955304146,1.2854195833206,1.4729489088058,0.19086587429047,0.042105082422495,0.085424914956093,1.0179719924927,0.14176814258099,0.24413558840752,0.061521157622337,0.065799348056316,0.13865871727467,-0.22458112239838,1.2235919237137,0.37361344695091,-0.65797519683838,0.85972416400909,-0.47895169258118,0.36153069138527,-0.26322230696678,0.24983787536621,0.14463493227959,-0.78455519676208,0.4368292093277,0.58691257238388,0.06811560690403,-0.12617491185665,-0.18288707733154,-0.34917971491814,0.10991805791855,-0.42084422707558,-0.48788791894913,0.21610480546951,-0.88235008716583,-0.70493012666702,0.21746185421944,0.077482007443905,0.42255935072899,0.29893437027931
-0.27757516503334,0.0053788237273693,0.11293301731348,-0.078788809478283,0.03990375623107,0.50700241327286,0.79809892177582,-0.62537878751755,0.55299013853073,-0.52080059051514,-0.068399414420128,-0.3583137691021,0.41794317960739,-0.41886451840401,0.36276456713676,0.35639625787735,-0.2082954198122,-0.28874623775482,-0.45607572793961,0.040069978684187,0.10559290647507,0.0052459058351815,-0.03844191133976,-0.14717784523964,0.042700901627541,-1.0643252134323,-0.19927188754082,0.68968999385834,0.056728672236204,-0.027552491053939,-0.31130507588387,0.87130564451218,0.23808293044567,0.4828237593174,0.17372392117977,-0.63162887096405,-0.60441815853119,-0.15679916739464,0.030427949503064,0.45526149868965,-0.50148725509644,0.20586030185223,-0.11281803995371,-0.16436873376369,-0.26172259449959,0.80528879165649,-0.4354749917984,0.12670986354351,0.73830199241638,-0.11001112312078,-0.38589000701904,-0.32515630125999,0.39507687091827,-0.076084390282631,0.75975143909454,0.66129690408707,-0.46672776341438,-0.66640597581863,-0.19062665104866,0.41297820210457,-0.35112655162811,-0.24293075501919,0.20299975574017,0.021763695403934,-0.0064854705706239,0.40878862142563,0.014652623794973,-0.16049127280712,0.42495733499527,0.58896493911743,-0.52703481912613,-0.061710849404335,-0.46095234155655,0.25899684429169,-0.17091159522533,-0.26325583457947,-0.70263659954071,-0.080457650125027,-0.17920728027821,-0.10723852366209,-0.023949544876814,-0.090247549116611,0.080439835786819,0.28789165616035,0.1084324195981,0.61280703544617,-0.096600748598576,-0.14448823034763,-0.10383250564337,-0.37354931235313,-0.60253071784973,0.99407035112381,0.29181534051895,-0.55047571659088,0.56951916217804,-0.35040706396103,-0.62367010116577,-0.18778537213802,1.1021729707718,-0.00032719250884838,-0.42272818088531,-0.074212945997715,0.2758663892746,-0.14531746506691,-0.33187076449394,0.24541069567204,0.3583422601223,0.035460282117128,1.235257267952,-0.21356149017811,-0.29768264293671,0.21445013582706,-0.11996533721685,0.83355891704559,0.37970328330994,-0.27249479293823,0.30301338434219,1.0515793561935,-0.50160771608353,0.25451716780663,-0.38070651888847,-0.042520813643932,-0.99340569972992,0.040429711341858,0.26740193367004,-0.36050483584404,0.35264518857002,-0.88316679000854
0.60497164726257,0.21479311585426,0.1118862554431,-0.6697410941124,-1.1005827188492,-0.54549688100815,0.35840794444084,0.14543910324574,1.1215226650238,0.23065453767776,-0.2938180565834,0.30665957927704,0.4072742164135,-0.45872130990028,-0.36016076803207,0.40151965618134,-0.023764362558722,-0.17794764041901,0.24807885289192,0.28114449977875,-0.86855918169022,0.58296436071396,0.30879837274551,0.85006499290466,-0.81626605987549,0.35928192734718,0.012077338062227,0.083726838231087,-0.58605581521988,0.58061629533768,-0.38085925579071,0.38919517397881,-0.71905916929245,1.0617341995239,-0.17191076278687,0.80218124389648,-0.63214546442032,-0.061169993132353,0.44389921426773,0.69908612966537,0.81643658876419,0.019808042794466,-0.07294287532568,0.38920396566391,0.37019068002701,0.061800185590982,-0.50922405719757,-0.20873114466667,0.15511479973793,-0.17232894897461,-0.64694094657898,0.17305393517017,0.37503486871719,0.93227058649063,0.39036318659782,-0.24133951961994,1.2412005662918,0.88672322034836,-0.23090676963329,0.13045790791512,0.53708106279373,-0.18903388082981,-0.037156142294407,0.082240246236324,0.40933257341385,-0.51373702287674,0.18409986793995,-0.4235765337944,-0.30786117911339,-0.31526601314545,1.0530366897583,-0.04700892791152,0.45719328522682,-0.33862802386284,-0.97200155258179,-0.32271191477776,1.0881797075272,-0.73538702726364,-0.22072622179985,0.28154391050339,0.46385043859482,0.59583377838135,0.35097497701645,-0.013724140822887,-0.64390295743942,1.1614165306091,-0.23482595384121,0.55537205934525,0.15089718997478,-0.14952929317951,0.03654470294714,0.29440864920616,0.87684148550034,-0.63261753320694,0.42125704884529,-0.27945125102997,0.0562455765903,-0.58338534832001,0.69686502218246,-0.73209148645401,-0.087393246591091,-1.2483628988266,0.21682059764862,-0.8075298666954,0.66965067386627,0.29864600300789,0.41684359312057,-0.30672946572304,-0.73216903209686,0.39453047513962,-0.26197931170464,0.36409729719162,0.47906145453453,0.394141882658,-0.58635067939758,0.13404579460621,-0.19951142370701,0.47091576457024,-0.17611402273178,0.517129778862,0.38301602005959,-0.59248721599579,-0.13411219418049,-0.20534214377403,-0.15189734101295,0.23971408605576,0.29606276750565,-0.61640208959579
0.19669061899185,0.70229512453079,0.019514782354236,-0.099312923848629,-0.11722009629011,0.20518337190151,0.34431257843971,-0.15744417905807,0.7174785733223,-0.80099844932556,0.22528183460236,0.38467147946358,-0.2959708571434,-0.15734192728996,0.71059566736221,-0.55304950475693,-0.41778099536896,0.044979009777308,0.42041665315628,0.17800717055798,-0.13044485449791,0.081900790333748,0.13839201629162,-0.14943194389343,0.19371315836906,0.14398421347141,0.073295310139656,0.1819054633379,-0.31241574883461,0.15111683309078,0.56485658884048,0.44633084535599,-0.021537020802498,0.15655043721199,0.46369761228561,0.0082769403234124,0.74150079488754,0.40162661671638,-0.19804987311363,0.36306649446487,0.080452650785446,0.36800688505173,-0.34507372975349,0.29452300071716,0.333072245121,-0.082802377641201,0.61411291360855,-0.079831123352051,-0.42313000559807,-0.038579326122999,0.35266441106796,0.1856524348259,-0.41359624266624,0.22817954421043,0.59370237588882,0.32969006896019,-0.21617239713669,-0.29152154922485,-0.37808179855347,-0.17155684530735,-0.11374589055777,-0.22347228229046,0.72675108909607,-0.15402762591839,0.1207457408309,-0.572041451931,-0.1427837908268,-0.099240824580193,0.22360749542713,-0.13782224059105,0.74941623210907,0.32214307785034,-0.19930177927017,0.1975461691618,-0.57909309864044,-0.95530414581299,0.064290165901184,0.14653208851814,0.56911325454712,-0.16814249753952,0.13955964148045,-0.27047836780548,0.46444353461266,-0.18139472603798,-1.3747725486755,0.34894070029259,-0.059125576168299,-0.6885045170784,0.20200227200985,0.33246809244156,0.45581313967705,0.32038587331772,0.10146877169609,-0.44046655297279,0.16088664531708,0.22992031276226,-0.43165409564972,-0.69386351108551,-0.225546464324,0.90182536840439,-0.5956158041954,0.19953592121601,0.1594320833683,-0.13471278548241,0.054960653185844,-0.33828097581863,0.28941577672958,-0.085168771445751,0.16038601100445,0.91641688346863,-0.31792515516281,-0.27957174181938,-0.63791954517365,0.7984277009964,0.61108613014221,0.26645362377167,0.81512087583542,1.3352203369141,-0.66679495573044,0.56061935424805,-0.43918192386627,-0.55926758050919,-0.83190840482712,0.84533673524857,0.40545284748077,0.19898191094398,-0.95078974962234,0.55745786428452
0.87309980392456,1.3444563150406,-0.40637814998627,-1.0532938241959,-0.17359711229801,0.28036725521088,0.55749922990799,-0.65895026922226,-0.37523883581161,0.18686176836491,-0.092673897743225,-0.87269294261932,0.11241009831429,-0.21554788947105,-0.39195922017097,0.56195199489594,0.41863769292831,-0.49766439199448,-0.17051181197166,-0.12095952033997,-0.75038945674896,0.36882603168488,1.0221740007401,-0.39288461208344,-0.95443689823151,-0.24938580393791,0.16775020956993,1.1983244419098,-1.3578364849091,-0.018197605386376,-0.27723449468613,-0.36399924755096,-0.41584777832031,0.41004973649979,-0.22243496775627,0.20041511952877,-0.43349602818489,-0.64304602146149,-0.068725042045116,0.37008282542229,0.16373381018639,-0.86309254169464,0.53628087043762,0.4481814801693,0.41061848402023,0.028415642678738,-0.097133979201317,0.84461885690689,-0.22297051548958,0.73791480064392,-0.24994607269764,-0.035250063985586,0.49099296331406,0.62938964366913,0.32404005527496,-0.32677891850471,-0.75376212596893,1.1867799758911,0.22125670313835,0.24120140075684,0.15811586380005,-0.47243723273277,-0.027347033843398,0.44728431105614,-0.032622143626213,-0.024272168055177,-0.17923805117607,-0.49819508194923,0.058868005871773,-0.3634546995163,0.61031633615494,0.020670251920819,0.83226132392883,-0.14496967196465,-0.24063228070736,-0.38065630197525,0.52642071247101,-0.39508241415024,0.40834113955498,0.072198979556561,-0.67621195316315,-0.25859490036964,0.47432914376259,0.16855493187904,0.29609549045563,-0.26758873462677,-0.44867074489594,0.5934876203537,-0.097605653107166,0.45026597380638,0.59692603349686,0.14606791734695,0.17675483226776,0.37471586465836,0.10277356207371,1.5865553617477,0.58663219213486,-0.15978829562664,0.38781636953354,-0.20867133140564,-0.41779416799545,-0.66542828083038,0.19783306121826,0.098136924207211,0.35567858815193,-0.46715232729912,0.32149213552475,-0.34788507223129,0.25590997934341,-0.51222115755081,1.4547053575516,-0.15255320072174,0.56656587123871,0.21815833449364,-0.21220961213112,0.82099467515945,0.58311069011688,0.49357628822327,-0.037996891885996,0.23292617499828,-0.61632525920868,-0.32530155777931,0.97130489349365,-0.77473193407059,0.45731231570244,0.4138534963131,-0.38236051797867,0.29347091913223
0.43936616182327,0.92180955410004,-0.46404603123665,-0.13592495024204,-0.39224836230278,0.52838462591171,0.59188687801361,-0.35894560813904,0.50714468955994,-0.35344198346138,0.21207913756371,-0.067871481180191,-0.032731235027313,-0.38564494252205,0.74515783786774,0.54045820236206,-0.23705087602139,-0.78209096193314,0.50590121746063,-0.077742822468281,0.0079100877046585,0.59299921989441,-0.070785902440548,0.28390043973923,-0.3506772518158,-0.028795456513762,-1.20700776577,-0.36417397856712,-0.0091970171779394,0.13440565764904,-0.49474176764488,-0.67607122659683,0.41476982831955,0.43716666102409,0.16083414852619,-0.26534205675125,0.65219098329544,-0.061966933310032,-0.41871252655983,0.056246738880873,-0.33115243911743,-0.34269109368324,-0.08543187379837,0.13583731651306,0.3964721262455,-0.019972305744886,-0.19830816984177,0.095599442720413,-0.042915891855955,-0.11049900203943,0.0017819126369432,-0.48641589283943,0.3298105597496,0.87992209196091,-0.699158847332,0.30444914102554,0.38783022761345,0.76323956251144,-0.64181607961655,0.032777734100819,0.38206362724304,-0.15921713411808,-0.40556898713112,-0.62897419929504,-0.79876798391342,-0.4660432934761,0.13597698509693,-0.63088625669479,1.2195616960526,0.38360205292702,0.15830275416374,-0.13351666927338,0.59043991565704,-0.13938201963902,-0.49026671051979,-1.013319849968,0.73207223415375,-0.27085429430008,-0.11907654255629,0.03719462826848,0.33684015274048,-0.46017852425575,1.1986684799194,0.38418209552765,1.0630805492401,0.64331698417664,-0.19667087495327,0.10432888567448,0.32319360971451,0.84183782339096,0.20357531309128,-0.18108050525188,-0.14566577970982,-0.67098748683929,-0.33226400613785,0.30239206552505,0.4077704846859,0.041122078895569,-0.20097574591637,0.57766246795654,0.18912941217422,0.59584087133408,0.086159944534302,0.3340008854866,-0.052281849086285,-0.049113497138023,0.36652499437332,0.13559192419052,-0.83045101165771,0.14383308589458,0.68301492929459,-0.29057016968727,0.26539790630341,1.5500650405884,-1.3852167129517,-0.026756770908833,0.61117416620255,-0.76924067735672,0.38946062326431,0.67100977897644,0.083702370524406,-0.80225670337677,-0.56662952899933,-0.6486884355545,0.7411196231842,0.1019237190485,0.16049379110336,-0.23174235224724
0.064866177737713,0.1931264102459,0.37551963329315,0.061410553753376,-0.15212398767471,-0.55285668373108,-0.14983905851841,-0.15868286788464,-0.29550316929817,-0.83931720256805,-0.054669722914696,-0.63635140657425,0.1122567281127,-0.076775662600994,-0.88093864917755,0.042330645024776,0.2764997780323,0.16380053758621,0.26432555913925,0.3217710852623,-0.33335953950882,-0.12594039738178,-0.20146256685257,0.66825431585312,-0.55108052492142,0.29460889101028,-0.58246552944183,-0.56308859586716,0.070784084498882,-0.037004847079515,-0.3039074242115,-0.22457078099251,-0.11181426793337,0.0080701038241386,0.3391672372818,-0.19554001092911,-0.49264186620712,0.41214609146118,0.29274350404739,0.14570681750774,-0.0090462574735284,0.64332830905914,-0.093778878450394,0.42007657885551,0.34789282083511,-0.14527221024036,0.55578726530075,0.30438429117203,0.72616314888,0.17154468595982,0.26867163181305,-0.29998159408569,-0.19237557053566,-0.22641003131866,-0.16012385487556,0.22169959545135,-0.90150815248489,0.18791653215885,-0.33397582173347,0.013234565965831,-0.05378558114171,0.063477575778961,0.072917863726616,0.42387133836746,0.55246049165726,-0.34857895970345,0.1469634026289,0.18345363438129,0.0027616848237813,0.070878446102142,0.067891016602516,-0.33399283885956,-0.077299527823925,-0.089202478528023,-0.1253574937582,0.050558630377054,-0.50976294279099,0.10330703854561,0.13051989674568,-0.15463137626648,0.21124392747879,0.39696326851845,0.10185375809669,-0.61262798309326,-0.090713404119015,0.19238628447056,0.52685207128525,-0.36304637789726,0.61797195672989,0.045016817748547,-0.8555668592453,0.1966050863266,-0.04860945045948,-0.64657270908356,-0.4484344124794,-0.033962968736887,-0.24896912276745,-0.081507615745068,-0.11490283161402,-0.37376362085342,0.66718310117722,0.72039240598679,0.64421957731247,0.29254856705666,0.035826832056046,0.017862087115645,0.25698497891426,-0.28991514444351,-0.094956666231155,0.19178582727909,-0.32872140407562,1.0348181724548,-0.1854599416256,0.11049492657185,-0.18784219026566,0.23946839570999,-0.10533850640059,-0.34783694148064,-0.24130876362324,0.16608172655106,0.35972675681114,-0.12421018630266,-0.040606692433357,0.31835332512856,0.31640213727951,-0.022405443713069,0.14259469509125,-0.29044836759567
0.59788089990616,0.34285300970078,-9.6283074526582e-05,0.072764344513416,-0.43279337882996,0.22528222203255,0.088480047881603,0.0095728300511837,-0.23525159060955,-0.41168916225433,0.70098906755447,-0.14837618172169,0.34637323021889,0.017309904098511,-0.53051912784576,0.21255098283291,-0.68732959032059,-0.27044460177422,0.21234656870365,-0.86412155628204,-0.023471288383007,0.40838453173637,-0.093343138694763,0.1722885966301,0.0087527940049767,0.5163322687149,-0.1370977461338,0.6050066947937,-0.69542616605759,0.57890570163727,0.48099321126938,0.52142041921616,-0.61856091022491,-0.74638944864273,0.0030734166502953,-0.43101480603218,0.14194515347481,0.47082796692848,-0.28021919727325,-0.14463929831982,-0.019906103610992,-0.27615329623222,-0.28179624676704,-0.13193209469318,-0.38244608044624,-0.056904930621386,0.40982803702354,0.65564984083176,-0.3127669095993,-0.69033998250961,-0.18830628693104,0.1083560064435,0.5712456703186,0.64841789007187,-0.97317427396774,0.54787886142731,-0.33270972967148,0.55748748779297,-0.24936784803867,-0.75391274690628,-0.47683250904083,0.017547357827425,-0.45896491408348,-0.7402817606926,-0.23411354422569,-0.41010731458664,-0.5257875919342,0.5465036034584,-0.5740013718605,-0.82358545064926,-0.27763757109642,-0.4409404695034,1.2185983657837,0.15089955925941,0.28536206483841,-0.39790797233582,-0.029842983931303,0.18185034394264,0.25483858585358,-0.40343999862671,-0.26295095682144,-1.1486197710037,-0.53968834877014,-0.42007958889008,-0.10629339516163,-0.099219679832458,1.0008306503296,0.80929923057556,0.93082356452942,0.28604617714882,0.2163198441267,0.95510894060135,-0.11125558614731,0.13012556731701,0.042046692222357,0.24908119440079,-0.56456452608109,-0.81271761655807,0.10488349199295,0.22028025984764,-0.3767594397068,0.34663847088814,0.32978555560112,0.050811089575291,0.24140420556068,0.25929102301598,0.66107964515686,-0.11758907884359,-0.42173337936401,1.0017488002777,0.44871705770493,-0.02905073389411,0.057815603911877,1.2109267711639,0.028151093050838,-0.18006682395935,0.37249180674553,0.15978389978409,0.24505452811718,0.73060065507889,0.05174382776022,0.16663365066051,0.54379916191101,0.23883552849293,-0.15936596691608,0.47758919000626,0.48771306872368,-0.044013820588589
-0.25591224431992,0.92532056570053,0.17001630365849,-0.24379101395607,-0.57210946083069,0.085049510002136,1.064359664917,-0.80301576852798,0.23908926546574,-0.29411390423775,-0.22951246798038,-0.099544063210487,-0.34198385477066,0.1039792522788,0.065963514149189,0.26309490203857,-0.16177697479725,0.1768995821476,-0.5996281504631,0.1958122998476,-0.51911467313766,0.14812333881855,0.98503822088242,0.16750484704971,-0.92383325099945,-0.021648537367582,-0.093945942819118,0.28946906328201,-1.2323220968246,-0.22331373393536,-0.6899334192276,-0.51679015159607,0.14627011120319,0.38715749979019,-0.51743465662003,0.17148733139038,0.22535349428654,-0.045830175280571,0.073771081864834,0.55137854814529,0.91646385192871,-0.075696460902691,0.28734523057938,-0.70931631326675,0.43124771118164,-0.024671057239175,-0.19638352096081,-1.4099326133728,-0.37120753526688,0.096101440489292,-0.0046168575063348,-0.1352965682745,-0.21176804602146,1.7018796205521,0.64047688245773,0.64276438951492,0.33186545968056,0.36718839406967,-0.45129144191742,0.090317495167255,-0.36873084306717,-0.24136438965797,0.0073404675349593,-0.53848093748093,-0.12807233631611,0.50205165147781,-1.1121997833252,0.33163374662399,-0.1649663746357,-0.047792792320251,0.42932203412056,-0.099946610629559,0.43441960215569,-0.33558666706085,-0.51094329357147,-0.64040648937225,1.0876181125641,0.051754117012024,0.43515694141388,0.42884421348572,-0.55035930871964,0.043824426829815,0.41207692027092,0.20843429863453,-0.14090937376022,-0.63334625959396,1.0353095531464,-0.35753461718559,-0.80538296699524,-0.40147039294243,-0.2797899544239,-0.24493038654327,-0.76141333580017,-0.34382143616676,0.61998212337494,0.92148643732071,0.15787023305893,0.10806059092283,-0.14084044098854,0.52084672451019,0.82840222120285,-0.95239305496216,-0.29281321167946,-0.091762386262417,0.63862174749374,0.2031034976244,-0.63123762607574,0.30574375391006,0.38660416007042,-0.71321922540665,0.75507885217667,0.07315681874752,0.33754771947861,-0.55867755413055,-0.48347765207291,0.6120770573616,0.18488147854805,0.071886919438839,0.24859948456287,-0.76732647418976,-0.30429407954216,0.25760090351105,-0.61101734638214,0.48633414506912,0.16720923781395,-0.32946142554283,-0.80162197351456,0.85886651277542
0.028411222621799,-0.22767494618893,-0.55598431825638,-0.16080188751221,-0.22266244888306,-0.50314313173294,0.0088601177558303,0.32001373171806,-0.015137311071157,-0.21832877397537,-0.45870217680931,-0.1708772778511,0.37067750096321,-0.44577038288116,-0.29921963810921,0.46210467815399,-0.056449227035046,0.2378718405962,-0.1747580319643,0.71588438749313,-0.33884271979332,0.021703787147999,0.8133659362793,1.1507520675659,-0.65654861927032,-0.20695330202579,-0.1304978877306,-1.0509730577469,-0.25083631277084,0.40297973155975,0.120501331985,0.076338082551956,-0.44797495007515,-0.32609942555428,-0.0098007321357727,0.0056907064281404,-0.42551809549332,0.36357042193413,0.16124655306339,-0.00058364431606606,0.46935439109802,-0.6254620552063,0.075040280818939,0.064119257032871,-0.31718844175339,0.15903376042843,0.47557234764099,0.10111917555332,0.10314725339413,-0.36618486046791,-0.75942748785019,0.46930837631226,-0.22937998175621,0.34093251824379,0.58134245872498,0.34679383039474,0.13477851450443,-0.33298152685165,-0.5744269490242,0.84326070547104,0.14405797421932,-0.098789229989052,0.21550488471985,-0.18564561009407,0.28725761175156,-0.37339714169502,0.089940495789051,0.062750041484833,-0.22191992402077,-0.20451141893864,0.044259771704674,0.1417164504528,0.19283528625965,0.46462261676788,-0.36075553297997,0.72023320198059,-0.17744709551334,-0.29726123809814,-0.11168479919434,-0.042888257652521,-0.33856984972954,0.25252762436867,0.53377097845078,-0.22095946967602,0.39746132493019,0.0036022281274199,0.21403679251671,-0.53472977876663,0.34810358285904,-0.48338890075684,0.55248463153839,0.58371073007584,-0.13726638257504,-0.83278024196625,-0.95086604356766,0.094880998134613,0.11769445240498,0.16864229738712,0.33564043045044,-0.1819299608469,0.30406501889229,-0.27356851100922,-0.40441599488258,0.45725187659264,-0.16231642663479,-0.53127825260162,-0.25177079439163,0.35483688116074,-0.57329392433167,-0.28473496437073,0.055863946676254,0.1730389893055,-0.016926204785705,-0.10590156912804,-0.21848432719707,-0.1691962480545,0.066936977207661,0.15879055857658,-0.64322751760483,0.10105570405722,0.59753423929214,0.57756292819977,-0.9955148100853,0.78730928897858,-0.80125391483307,-0.20230048894882,0.72223472595215,0.22391039133072
0.12682658433914,0.15912270545959,-0.36183914542198,-0.38859537243843,0.29728978872299,1.0517305135727,0.60539978742599,-0.28949445486069,-0.17657613754272,-0.85670047998428,0.30887764692307,-0.49886658787727,-0.045677598565817,-0.15807363390923,0.6123720407486,0.62351763248444,-0.22431597113609,0.15908223390579,-0.22999331355095,0.2662161886692,-0.89825612306595,-0.48919907212257,-0.18422746658325,0.70740097761154,-0.80568951368332,-0.35747796297073,0.050665631890297,0.1145703420043,0.35826912522316,0.10624916851521,-0.12430972605944,0.39392006397247,0.00011686079960782,-0.31708383560181,-0.25404474139214,0.13380470871925,0.034774985164404,0.47034406661987,0.14674526453018,1.2383856773376,0.59987777471542,-0.72343951463699,0.37423920631409,-0.11529295146465,0.047983448952436,-0.59073483943939,-0.41013234853745,-0.28088092803955,0.37850567698479,0.58887195587158,-0.29755103588104,0.11136359721422,0.9021407365799,0.53360366821289,0.90281426906586,0.29608261585236,1.1852121353149,0.10760378837585,-0.32970863580704,0.73709124326706,-0.15267343819141,0.1155891045928,-0.46435931324959,-0.01223181001842,-0.75319743156433,-0.15491619706154,0.22399489581585,-0.075770922005177,-0.27735689282417,-0.28771731257439,-0.015742238610983,-0.20800873637199,0.78194403648376,-0.27400273084641,-0.78743213415146,-0.2510752081871,-0.75913655757904,-0.31467264890671,-0.071400463581085,-0.25367519259453,0.10794734209776,0.085515096783638,0.37103095650673,-0.68399208784103,-0.94778949022293,0.73139595985413,0.19732740521431,0.57827895879745,0.66451692581177,0.70168030261993,-0.3214465379715,0.72159188985825,-0.098369337618351,-0.84150969982147,0.72495323419571,-0.29762151837349,0.51549965143204,0.11011192947626,-0.1325985789299,0.39618414640427,-0.29659181833267,0.26768699288368,-0.23857927322388,-0.48420685529709,0.23676155507565,-0.20479379594326,0.53686279058456,-0.57057398557663,0.014084704220295,0.50996452569962,0.16558182239532,-0.64705443382263,-0.25102356076241,0.2564180791378,0.40295565128326,-0.044943291693926,0.25016012787819,0.13271926343441,-0.1582645624876,0.95336991548538,0.65438067913055,0.42566704750061,-0.4567306637764,0.32731899619102,0.21712519228458,-0.67755872011185,-0.26514828205109,0.31265857815742
-0.2017967402935,0.036846004426479,-0.35751956701279,-0.48765251040459,-0.74305307865143,-0.27784666419029,-0.3394119143486,-0.31372308731079,0.3697597682476,-0.23537664115429,-0.43826967477798,-0.37000441551208,0.084895424544811,0.39919263124466,0.10587894916534,-0.14668415486813,0.31746065616608,0.84978175163269,-0.15329883992672,-0.077126413583755,0.46369609236717,0.29808148741722,-0.20240710675716,-0.26251700520515,0.41907051205635,0.19439662992954,0.43241003155708,0.41267022490501,-0.16251960396767,0.12686920166016,-0.039755750447512,-0.31144136190414,-1.1342581510544,-0.078201055526733,0.3540997505188,-0.62402004003525,0.15316015481949,0.27311488986015,0.091558583080769,0.0081594521179795,0.34809628129005,-0.10527017712593,-0.029616266489029,0.024996476247907,0.096203401684761,0.26661682128906,0.2768634557724,-0.060633037239313,0.84644341468811,-0.15400467813015,0.22495333850384,0.29336476325989,-0.32677814364433,0.61965125799179,0.020540175959468,0.12773126363754,0.74661582708359,0.14105451107025,0.13766507804394,0.71477168798447,-0.39225870370865,-0.51764398813248,0.33673438429832,0.39229986071587,0.74318259954453,0.24058635532856,0.29127356410027,-0.24297830462456,0.11179576814175,-0.45150631666183,0.54094052314758,-0.014711814932525,0.14726170897484,0.070324368774891,-0.42258927226067,0.59318774938583,-0.2643296122551,0.3071950674057,-0.29834604263306,-0.28047695755959,-0.14352639019489,0.74201947450638,0.29945996403694,0.14923778176308,0.018306201323867,0.61824864149094,0.2672011256218,-0.11535259336233,0.47657656669617,-0.2668819129467,0.77142149209976,0.40942722558975,0.7418709397316,-0.33286762237549,-0.35184529423714,0.13054978847504,0.074466682970524,0.33514228463173,0.40127608180046,0.64302951097488,0.051351644098759,-0.26813659071922,0.31440916657448,0.082028768956661,0.71343141794205,0.30646780133247,-0.76838791370392,-0.25974106788635,-0.86007034778595,-0.24082674086094,-0.550632417202,0.88271999359131,0.054847653955221,0.75398367643356,-0.26041698455811,0.1515386402607,0.82487440109253,-0.28397023677826,-0.40003725886345,-0.67274433374405,0.13619489967823,-0.32256910204887,0.1260501742363,0.065968230366707,0.26983794569969,0.4255039691925,-0.189482614398,-0.21071642637253
0.25144612789154,0.35766032338142,-0.23988252878189,0.18545977771282,-0.77863925695419,0.96855646371841,-0.18749491870403,0.26746255159378,0.19273144006729,0.17438386380672,0.65393573045731,0.7048459649086,-0.27727526426315,-0.37286269664764,-0.28314393758774,0.5657953619957,-0.43637257814407,-0.30268859863281,0.26921901106834,-0.1809157282114,-0.20420357584953,-0.04638734087348,-0.41058430075645,0.54570204019547,-0.2911382317543,-0.99788600206375,0.042077835649252,0.31861478090286,-0.36524295806885,-0.095327273011208,0.051020421087742,0.22221304476261,-0.13946534693241,-0.12759684026241,0.40515950322151,0.18372842669487,0.10426294058561,0.76666355133057,-0.21111364662647,0.19705739617348,0.10134544223547,-0.45138475298882,-0.27242961525917,0.15814483165741,-0.37615370750427,-0.039162088185549,-0.37319871783257,-0.025332992896438,0.53414863348007,-0.11656703799963,-0.53585302829742,0.0089398305863142,-0.14267940819263,-0.079048849642277,0.26211851835251,-0.80791741609573,0.26838284730911,0.53089642524719,-0.19759234786034,-0.61783939599991,-0.54288947582245,-0.41535553336143,0.13503555953503,-0.46135178208351,-0.73628735542297,-0.64176225662231,0.39363780617714,0.20606650412083,-0.60865730047226,-0.36714553833008,0.19021181762218,0.94848936796188,-0.11834993958473,0.57222783565521,0.0091370828449726,0.48720350861549,-0.094441138207912,-0.067167080938816,-0.28841012716293,-0.18740129470825,-0.20702083408833,0.77248924970627,-0.19504365324974,-0.32253095507622,-0.016008289530873,0.43974614143372,0.27395838499069,0.28140956163406,0.7047210931778,0.73253500461578,-0.38864091038704,0.24198810756207,0.063159950077534,-0.25884190201759,-0.062860615551472,-0.012134991586208,-0.10437849909067,-0.42037683725357,0.55644714832306,0.055215146392584,-0.68205964565277,-0.30117005109787,-0.10007870942354,0.48044309020042,0.25378420948982,0.6863597035408,0.59573262929916,-0.49933004379272,0.73483514785767,-0.30704167485237,-0.12064404785633,0.37744802236557,-0.38163635134697,1.0270138978958,0.080678224563599,-0.11157168447971,-0.4753232896328,0.38288733363152,-0.32830932736397,-0.20701290667057,-0.26956596970558,0.0038300883024931,0.51537942886353,-0.40134727954865,0.35069569945335,0.29495969414711,0.60394042730331,-0.070290416479111
-0.0063293040730059,0.35763585567474,0.65745651721954,-0.77981632947922,-0.89351308345795,0.20946569740772,-0.11704461276531,-0.40261885523796,0.87905544042587,0.61914426088333,-0.50702941417694,-0.14377656579018,0.1577430665493,-0.27345344424248,-0.020124211907387,0.53393971920013,-0.63900929689407,0.40797021985054,1.0197449922562,0.19439591467381,-0.2559948861599,0.17303431034088,-0.45731234550476,-0.51989936828613,-0.34017702937126,0.46728423237801,0.76558494567871,-1.0831029415131,0.26522454619408,-0.10764601826668,-0.34146174788475,-0.54588729143143,1.2164452075958,-0.5419100522995,0.5307412147522,-1.0273864269257,0.34944224357605,0.65836352109909,0.12198589742184,-0.096509426832199,0.079620569944382,-0.43062382936478,-0.10193486511707,0.52666574716568,0.40339195728302,-0.79862707853317,-0.95544791221619,0.6851595044136,0.62472927570343,-0.11057978868484,-0.63098555803299,0.27438881993294,0.5792088508606,-0.13155935704708,1.3264518976212,-0.10464812070131,0.61842173337936,0.13656015694141,0.0055907024070621,0.61678570508957,-0.78812527656555,0.23815202713013,0.075774028897285,-0.35983270406723,-0.19126719236374,0.2522394657135,-0.35626927018166,0.69149798154831,-0.64686149358749,0.5261482000351,0.28487777709961,0.302958548069,-0.25531136989594,-0.33397051692009,-0.14313293993473,0.12768772244453,-0.065400466322899,-0.75772351026535,0.55363547801971,0.46181404590607,-0.91855716705322,0.56015002727509,0.30282682180405,0.24599829316139,-0.11157586425543,1.3720908164978,0.3640259206295,0.67968392372131,1.2102092504501,1.0244061946869,-0.81146943569183,0.065863609313965,0.54799741506577,-0.846062541008,0.57264214754105,0.26744094491005,0.64231842756271,0.19644910097122,0.59136807918549,-1.0673390626907,-0.58313989639282,-0.41282820701599,0.2231308221817,-0.071346372365952,0.58585596084595,-0.13992790877819,0.10254660993814,-0.96192216873169,-0.54322129487991,0.073966011404991,0.39160251617432,-0.72175991535187,-0.42019036412239,0.80391192436218,-0.18982924520969,0.30159232020378,0.031686343252659,0.174081787467,-0.91792982816696,-0.94259339570999,0.52979040145874,-0.4638237953186,0.62222319841385,-0.32379627227783,-0.37815591692924,0.47486606240273,0.24420690536499,-0.19388788938522
0.08818406611681,0.19492393732071,0.036954678595066,0.35248896479607,-0.56812697649002,-0.36922428011894,0.55921298265457,-0.056289043277502,0.59116816520691,-0.40921920537949,0.38434076309204,-0.23050878942013,0.32346260547638,-0.070337161421776,0.8630063533783,0.012076958082616,0.39677771925926,-0.38458493351936,-0.79011791944504,0.62129426002502,0.15054860711098,-0.061959840357304,-0.25752744078636,0.18810948729515,-0.36316645145416,0.31063076853752,0.15684297680855,0.070890881121159,-0.43888941407204,0.3034625351429,-0.078166909515858,0.80814075469971,0.96764796972275,0.074000112712383,0.89778381586075,0.13796828687191,0.074992068111897,-0.70635992288589,-0.58062863349915,0.76660263538361,0.18894505500793,-0.24802674353123,-0.49659907817841,0.098073475062847,0.17534218728542,0.071988061070442,-0.21118240058422,0.82533532381058,0.39037349820137,-0.44103181362152,-0.62047559022903,-0.18707655370235,-0.036117054522038,-0.1134715154767,0.28091394901276,-0.037571892142296,0.56236916780472,-0.66451233625412,-0.15514811873436,-1.203942656517,-0.6029691696167,-0.81102186441422,-0.24716112017632,-0.53561568260193,-0.57096910476685,0.55223697423935,0.60890823602676,-0.029338583350182,0.026078788563609,0.72704297304153,0.78550547361374,-0.0088507356122136,-0.29405996203423,-0.81420719623566,0.48152181506157,-0.55995917320251,0.52623701095581,-0.15896098315716,0.05401398986578,-0.051440794020891,-0.1769845187664,1.0323643684387,-0.60374581813812,-0.015525676310062,-0.44945192337036,-0.13227590918541,-0.85631000995636,0.061352759599686,-0.38459265232086,0.56036162376404,-0.50088346004486,0.47084185481071,-0.049389984458685,0.14032387733459,0.81045722961426,0.014524916186929,0.73993629217148,-0.41647455096245,-0.45464551448822,-1.0408456325531,0.74250143766403,0.05871569365263,-1.3925868272781,-0.78405922651291,0.41177052259445,-0.048268675804138,1.0892961025238,-0.29466482996941,0.35644468665123,-0.086559355258942,-0.56479740142822,0.46668764948845,-0.08674118667841,0.7476698756218,-0.013791939243674,-0.35058659315109,0.03546854481101,1.1038326025009,-0.91637289524078,0.10447228699923,0.81742078065872,0.71268075704575,-0.063133180141449,-0.047810472548008,0.38557031750679,-0.51791310310364,-0.65642166137695,-0.082028113305569
-0.70080816745758,1.409649014473,-0.25335785746574,-0.012579605914652,0.78990530967712,-0.36153957247734,0.59619355201721,-0.44932627677917,0.057077370584011,0.066583476960659,0.29493308067322,0.19461162388325,0.25571617484093,-0.82630866765976,-0.15040652453899,0.52972906827927,-0.32424768805504,-0.036876983940601,0.49769395589828,-0.15198881924152,-0.62469911575317,-0.23950980603695,-0.098885677754879,-0.11295916140079,-0.68193703889847,-0.50864952802658,0.017200119793415,-0.93234306573868,-0.8287256360054,0.6427286863327,0.61003136634827,0.14446580410004,-0.01445256639272,0.12187891453505,0.11615438014269,0.61302977800369,-0.4283589720726,-0.42628026008606,0.0021348802838475,0.8450830578804,-0.17341689765453,-0.31365111470222,0.5074337720871,0.0023121566046029,1.7479671239853,0.80031800270081,0.18270410597324,0.54152923822403,0.10004144906998,-0.61804008483887,-0.03702487796545,0.4983004629612,0.00017642107559368,0.47625407576561,-0.0081031797453761,0.41975086927414,0.2297618240118,-0.20666496455669,-1.1778815984726,0.82507312297821,-0.20945250988007,0.24733290076256,-0.39908128976822,-1.0092451572418,-0.66089278459549,0.20413561165333,-0.19261264801025,-0.6755656003952,-0.054625928401947,0.032043054699898,-0.51200342178345,0.34591302275658,0.022017052397132,-0.16675227880478,-0.79570382833481,0.27929794788361,1.3071509599686,-0.55603569746017,-0.43494543433189,-0.034717809408903,-0.19947904348373,-0.23723551630974,0.12523183226585,-1.205020904541,0.32228189706802,-0.34277966618538,-0.43891283869743,-0.18599957227707,-0.62854510545731,0.34406334161758,-0.063366211950779,0.4200057387352,0.25658759474754,-0.40688931941986,0.046890188008547,0.39029312133789,-0.23435680568218,-1.1784090995789,0.89932572841644,-0.69458144903183,0.37264013290405,0.30862149596214,-0.42122361063957,-0.23120237886906,1.1213036775589,0.14101855456829,0.57147943973541,-0.76190882921219,-0.092937342822552,-1.034459233284,-1.2585763931274,-0.63047057390213,1.0401134490967,0.28768047690392,-0.34903457760811,-0.47207021713257,0.09926999360323,-0.53650826215744,-0.90236133337021,0.68936049938202,-0.13282106816769,-0.13334076106548,-0.21039775013924,-0.06596913933754,0.91890573501587,-0.24315260350704,0.35848039388657,0.68192023038864
