-2.713612020015699899e-01,2.737012803554499940e-01,1.167969033122100014e-01,4.506732895970300135e-02,-2.212319374084500134e-01,-3.714365661144299890e-01,1.863892823457700132e-01,1.970725655555700118e-01,-1.668213009834300098e-01,-6.598174571991000104e-01,-1.983289420604699912e-02,3.459187448024699796e-01,2.626593708991999954e-01,-6.097850203514100231e-01,-2.344373464584399991e-01,5.316533893346799683e-02,-2.988459728658200004e-02,-6.018727421760600160e-01,1.868579834699599929e-01,-3.268698453903199908e-01,2.186532318592100121e-01,4.237122833728800275e-01,7.948595285415599454e-01,-2.692049443721800106e-01,5.435338616371200304e-01,-2.237126529216799942e-01,4.871980845928199910e-01,2.186529040336600005e-01,-1.688926964998199998e-01,-2.775751650333400100e-01,6.049716472625700225e-01,1.966906189918500025e-01,8.730998039245599918e-01,4.393661618232699850e-01,6.486617773771299889e-02,5.978808999061600016e-01,-2.559122443199199903e-01,2.841122262179900104e-02,1.268265843391400138e-01,-2.017967402935000043e-01,2.514461278915400277e-01,-6.329304073005899943e-03,8.818406611680999763e-02,-7.008081674575800113e-01,-3.749653398990600017e-01,-4.397644400596599779e-01,3.713535666465799800e-01,-3.739037811756100171e-01,-2.699429690837900075e-01,-9.592932462692299600e-02,1.901612281799300030e-01,2.578398585319500169e-01,3.100387193262599955e-02,5.918475985526999716e-02,-7.511183619499199882e-01,-5.722087994217899681e-02,-4.566072225570699805e-01,-8.546652197837799614e-01,-1.010174036026000088e+00,-2.455481588840499885e-01,-4.736694395542099811e-01,1.738338619470599922e-01,6.537013649940499604e-01,-2.062941491603899891e-01,8.350829482078599986e-01,2.381258308887500008e-01,6.488206982612600149e-02,2.357226014137299985e-01,1.265853941440600039e-01,1.191983520984599976e-01,-3.339186310768100241e-01,-1.435331106185900041e-01,-9.394186735153199630e-02,1.352224349975600093e-01,1.158040985465000061e-01,-1.162104532122600065e-01,-4.778816699981700000e-01,6.222774460911800060e-02,6.269370019435900609e-02,-5.460073426365900234e-02,-3.103238940238999821e-01,4.633438885211900171e-01,-3.143692314624800255e-01,4.413355886936199957e-01,-7.238327860832199923e-01,6.666999459266700345e-01,3.451970815658599867e-01,6.530204415321400058e-01,-2.322899550199500063e-01,1.996354162693000089e-01,-4.850610792636900204e-01,6.490722298622100261e-01,3.648469597101199752e-02,-4.312677681446099864e-01,6.520456820726400204e-02,5.968077182769799816e-01,-5.504662394523599511e-01,2.346124351024599930e-01,1.222628653049499942e-01,3.819538354873699970e-01,-1.232924610376399943e-01,-2.788562774658199794e-01,-2.699505388736699873e-01,3.241113126277900269e-01,-1.423043459653899889e-01,1.052929878234899919e+00,1.103934049606299928e+00,5.886642336845400170e-01,1.028017401695300037e-01,-1.671963483095199876e-01,-8.833616040647000386e-03,-4.724183678627000282e-02,-2.598207592964200119e-01,7.550087571144099841e-02,6.485470533371000545e-01,-5.231248140335099661e-01,5.450947880744899665e-01,-3.052711188793200137e-01,1.596554964780800001e-01,-1.198089346289600010e-01,-1.498001366853700111e-01,3.271011412143700059e-01,3.009615540504499975e-01,9.377573132515000243e-01,-4.510222077369699933e-01,9.771440923214000374e-02,-9.906456619501100014e-02,4.122861623763999783e-01,1.762723773717899955e-01,-4.605535268783599867e-01,-8.419157564639999369e-02,-4.165103659033800310e-02,3.494024276733400103e-01,-6.765236854553200452e-01,2.250792086124399904e-01,-8.854647725820499748e-02,-1.852152347564700041e-01,9.714142233133299387e-02,3.780307173728900128e-01,2.954250872135200101e-01,-1.976536661386500138e-01,-4.120087325572999726e-01,2.128523439168900078e-01,1.779818162321999964e-02,1.647734344005599982e-01,-1.663205623626700103e-01,-5.543145537376400339e-02,-6.638720035552999610e-01,-3.451244533062000075e-01,-2.407705932855599973e-01,-4.151159524917599764e-01,4.557267948985099792e-02,4.382230341434499854e-01,-4.800939261913300116e-01,2.205714881420099971e-01,-8.928894251584999775e-02,-4.363304972648600066e-01,1.790360957384100060e-01,-6.381154805421800080e-02,1.576427072286600006e-01,-1.890664361417300141e-02,1.826354265212999928e-01,3.463768064975700223e-01,-5.267107486724900006e-02,-8.894284814596199740e-02,-3.451413512229900005e-01,3.108175992965699908e-01,-3.450628519058199783e-01,-5.415786504745500052e-01,4.981699883937800166e-01,6.865162402391400409e-02,3.789595514535899767e-02,2.999577438458799882e-03,7.491719126701400500e-01,1.025243401527400067e-01,-2.097063958644899972e-01,-5.251837968826299496e-01,2.598166167736100096e-01,-2.525716423988300097e-01,-5.632249116897599661e-01,1.979828178882599987e-01,3.009370267391199838e-01,4.006694555282599990e-01,2.534635737538299891e-02,1.405153125524500057e-01,5.165103077888499872e-01,-6.037783622741700329e-01,5.541554093360899769e-01,-2.146100401878399955e-01,-3.328192234039299979e-01,-5.768769234418900244e-02,1.200281009078000005e-01,2.524392902851099740e-01,-5.699414610862699737e-01,-1.801043152809100045e-01,-9.627839177846900243e-02,2.058503329753899880e-01,-1.331547945737799887e-01,-4.532832801341999951e-01,3.082742989063300132e-01,-5.984120965003999482e-01,-1.291458755731600128e-01,2.424076646566399873e-01,3.268047273158999899e-01,4.713349342346199733e-01,-1.208236739039399987e-01,-7.275727391243000386e-02,-3.786025941371899961e-01,6.312718242406800684e-02,-4.029697179794299866e-01,-2.046955190599000080e-02,-5.670579671859700133e-01,-2.202105373144100098e-01,-2.230687588453300063e-01,-7.333255410194400303e-01,-2.533446848392499895e-01,-1.368352919816999969e-01,3.976225554943100260e-01,-8.863475918769800344e-02,-6.320558190345799687e-01,1.466045230627099905e-01,-4.791800975799599960e-01,-5.902582406997699538e-01,-4.157122671604199793e-01,-6.909773945808399542e-01,7.478679716587099957e-02,-2.571292519569399748e-01,4.062625169754000010e-01,-7.056874632835400396e-01,-7.564625144004799573e-02,-6.604927778243999681e-01,-2.246216982603100043e-01,-2.708063423633599864e-01,-2.113606333732599984e-01,1.937624514102899986e-01,-2.727318108081799863e-01,-1.602689176797900128e-01,2.822038233280200203e-01,1.936122775077800118e-01,-2.107421159744299888e-01,-5.203933715820300288e-01,-1.462884098291399870e-01,1.225781291723300054e-01,-1.227678731083900049e-01,-1.069573611020999959e-01,-7.888525724410999640e-01,-5.145661830902099609e-01,1.490208953618999965e-01,-2.478600442409500115e-01,-1.822246313095099990e-01,-2.876041531562800180e-01,-1.581507548689799897e-02,-1.855125464498999857e-02,-3.766851723194100110e-01,8.254710584878900692e-02,5.814775228500399518e-01,5.547138452529899455e-01,-5.176424980163599754e-01,6.319479346275299614e-01,3.775636553764299963e-01,3.071232736110700023e-01,-3.160869181156200081e-01,-4.965695440769199998e-01,-1.689138412475600093e-01,7.685220241546600328e-02,-1.760790646076199895e-01,-6.671384721994400024e-02,-6.904363632202099588e-01,-7.569401524960999925e-03,-8.949835300445599939e-01,7.735472917556800165e-02,-2.124277204275099862e-01,5.055719614028899578e-01,-2.835438549518600193e-01,-4.569247364997899852e-01,2.947321832179999879e-01,-4.997305944561999946e-02,4.290617108345000097e-01,3.129646182060200066e-01,-1.900797188281999894e-01,4.727192819118499756e-01,1.597556620836300123e-01,2.514512538909899897e-01,2.436526864767100120e-01,-1.947516947984699875e-01,-3.442681729793499734e-01,-5.965239405632000169e-01,7.289277762174599384e-02,4.959662258624999986e-01,-1.787593811750400052e-01,4.721570909023299900e-01,-2.207363843917800050e-01,2.582975849509199992e-02,-1.622350215911899929e-01,8.412963151931800165e-02,-2.675771415233599848e-01,4.703396260738400003e-01,-2.547092437744100102e-01,9.774163961410500256e-01,6.124391555786099506e-01,-4.619592428207400236e-01,1.231992319226300064e-01,6.744057536125199759e-01,-4.223710298538199681e-02,-3.042705655097999728e-01,4.541533887386299817e-01,2.167841494083400100e-01,3.446638882160200090e-01,3.022439479827899733e-01,-1.780508160591099953e-01,-5.764676332473800402e-01,-3.636571764945999985e-01,2.408138662576700118e-01,-1.228733137249899965e-01,1.238618195056900018e-01,-7.120442111045099595e-03,-3.827501237392400002e-01,2.082983553409600008e-01,3.223901391029400099e-01,1.357608437538100066e-01,1.626678556203799975e-01,-5.362523794174199887e-01,-1.136410310864399975e-01,1.814460456371299879e-01,-2.738878130912799844e-02,-3.047259449958800159e-01,-2.644671797752399800e-01,-8.728448152542099825e-01,3.658954203128800264e-01,-5.496329665183999902e-01,-3.249264061450999885e-01,-2.315899580717100115e-01,-4.284999668598200029e-01,4.316083788871800109e-01,-4.359921216964700030e-01,-2.660108208656299933e-01,-2.183542102575299904e-01,-3.873768448829700145e-02,-5.835615992546100417e-01,3.701097965240500165e-01,-7.374244928360000617e-02,2.975308001041400141e-01,-9.285970032215100367e-02,-1.913817077875100137e-01,-4.740878641605399957e-01,4.069281741976699812e-02,3.017986938357400048e-02,-5.172644555568699926e-02,-8.525364995002699953e-01,3.051652014255499812e-01,-5.206128209829299913e-02,1.446750164031999908e-01,-6.314685940742500447e-01,-6.502068787813200523e-02,1.964304894208900032e-01,1.269736647605899993e+00,-4.888696223497399768e-02,-1.165549010038400002e-01,-3.826811909675599810e-01,7.286922335624700375e-01,3.711702302098299905e-02,5.814957022666900066e-01,-2.258157879114200128e-01,-3.492070436477699991e-01,-4.469303488731399820e-01,-2.613274753093700054e-01,-8.803274482488600283e-02,4.494625627994500161e-01,-3.648902475833900039e-01,1.781070083379699964e-01,5.988828539848299881e-01,-3.735861778259300103e-01,2.265558242797900135e-01,-2.708595097065000235e-01,4.171136766672099705e-02,3.423398733138999922e-02,-1.829189248383000094e-02,-2.481714636087400117e-01,7.804628014564499727e-01,-2.384565919637700038e-01,9.112141728401199625e-01,-8.554763197898900273e-01,6.101319789886500145e-01,8.074296116828899583e-01,-9.296893477439900355e-01,-1.063618957996400050e-01,2.311383783817299864e-01,-9.974677860736799739e-02,-1.332452744245500031e-01,-7.340250164270399613e-02,-2.226620465516999936e-01,2.344029210507899905e-02,-2.654915116727400021e-02,5.453073233366000083e-02,-1.367067098617600063e-01,-2.218160182237599864e-01,-2.364938557147999998e-01,-3.604410886764500277e-01,-1.897408254444599846e-02,-6.765130162239099687e-02,1.407240927219400028e-01,1.579601019620900104e-01,-1.462450325489000058e-01,9.750290215015400275e-02,2.244222164154099919e-01,-7.289921492338199971e-02,5.684723332524300315e-02,4.377664998173699806e-02,2.155341804027600117e-01,2.204412221908599867e-02,2.101479470729800125e-01,-1.342637985944699908e-01,-3.276835083961500139e-01,1.451794654130899864e-01,-1.022450625896499932e-01,-1.969393789768200120e-01,-6.968425959348699406e-02,-7.580801099538800325e-02,-4.040726926177700198e-03,1.760768331587300034e-02,1.036303490400299933e-02,-6.537914276122999691e-02,1.495560258626900119e-01,-1.223560273647300023e-01,-3.037338554859200235e-01,-3.977058082819000251e-02,-1.490887850522999991e-01,4.594901576638200230e-02,1.288213580846800099e-01,2.389981299638699874e-01,1.336157768964799930e-01,-2.083194553852099895e-01,-5.016802810132500040e-03,-2.121641067788000105e-03,-7.819762080907799451e-02,1.106611713767099991e-01,1.774368882179299944e-01,-2.476854771375699982e-01,1.876764446497000138e-01,2.443624585866900067e-01,-3.327083215117500326e-02,2.745410799980200212e-01,-2.266928106546400035e-01,1.552819162607199932e-01,-1.876997500658000029e-01,-5.145429074764300281e-02,1.096581574529400041e-02,7.251548767089799341e-02,2.227078825235400128e-01,-8.734612911939600155e-02,8.871031552553200472e-02,-2.347854375839200092e-01,9.011902660131500264e-02,-1.710610277950800132e-02,1.014062836766199960e-01,5.746152624487899790e-02,-2.002746462821999862e-01,5.053143575787499842e-02,-3.899070620536799758e-01,-7.004206627607299784e-02,1.624037027358999907e-01,8.201684057712599341e-02,1.510032862424899869e-01,5.424999073147800110e-02,-4.589342325925799965e-02,-1.024121195077900004e-01,-1.351968199014700056e-01,3.250673115253400192e-01,-5.200989544391599988e-03,-5.972909927368200145e-02,5.482647567987399689e-02,-7.128470391035099385e-02,-1.223901938647000039e-02,1.639574579894500020e-02,1.564598977565800075e-01,-2.078711241483700012e-01,-2.253909260034600015e-01,-6.449890881776799978e-02,1.271272078156500049e-02,2.822121977806100190e-01,1.472188979387299979e-01,5.710934847593299862e-02,-1.051879152655599975e-01,1.288992315530800015e-01,-4.152417927980400075e-02,-1.523214876651799998e-01,5.214068666100499932e-02,9.305775165557900186e-02,1.275908052921299884e-01,2.039259970188100068e-01,4.273730516433699861e-02,9.091519564390200536e-02,2.219381332397500073e-01,-9.518641233444199989e-02,4.327627643942800334e-02,-1.445161551237100078e-02,3.146808743476899872e-01,3.371666073799099994e-01,1.833782345056499952e-01,-1.776376664638500136e-01,1.146678030490899947e-01,-1.757973432540899938e-01,-1.126200780272500063e-01,-1.194706782698600062e-01,-1.006366312503799987e-01,-2.006352692842499827e-02,4.407516866922400051e-02,6.176278740167599757e-02,-5.288366228342099643e-03,-2.699136920273300169e-02,5.429523065686200217e-02,2.266122102737400112e-01
3.311131000518799938e-01,4.160891473293300002e-01,5.099545717239399867e-01,4.822438061237300233e-01,5.601223707199100010e-01,-1.999551802873600070e-01,2.674053907394399743e-01,3.687151074409499851e-01,2.122818231582599968e-01,-2.951694726944000258e-01,1.094954013824499972e+00,5.053331851959199650e-01,6.054711937904400099e-01,3.785898983478500068e-01,9.822338819503799445e-02,-4.171511530876200191e-01,-8.435281924903399731e-03,2.715908885002100148e-01,3.009887933731100196e-01,9.942743778228799734e-01,6.094570159912100493e-01,-1.128900572657599993e-01,9.363254904747000396e-01,3.594955801963800046e-01,1.510937213897700082e-01,-4.066763222217599782e-01,5.339881777763400006e-01,6.548630595207199923e-01,-3.510276377201099751e-01,5.378823727369299798e-03,2.147931158542600028e-01,7.022951245307900159e-01,1.344456315040599925e+00,9.218095541000399518e-01,1.931264102458999932e-01,3.428530097007799760e-01,9.253205657005300067e-01,-2.276749461889299997e-01,1.591227054595900081e-01,3.684600442647899959e-02,3.576603233814200089e-01,3.576358556747399886e-01,1.949239373207100057e-01,1.409649014473000062e+00,7.310382127761799742e-01,1.038167238235500056e+00,-1.571348309516900077e-01,5.531824231147800530e-01,3.006063699722300031e-01,1.011396527290300051e+00,6.184115409851099754e-01,8.101218938827500216e-01,-1.832869350910200090e-01,-2.531322836875899915e-02,-7.497789859771699650e-01,9.677160978317299600e-01,1.688216626644100105e-01,-3.558589220046999846e-01,4.199441969394699936e-01,3.712462782859800026e-01,3.181808590888999810e-01,-3.794450312852899743e-02,7.957172989845300304e-01,2.614648640155800008e-01,1.418856978416400128e-01,6.464423537254300189e-01,5.261734127998399790e-01,-1.848262846469899967e-01,7.731503844261200520e-01,-1.277951598167400005e-01,3.130658268928500076e-01,5.967225432395899531e-01,-3.502487838268300013e-01,-1.995972990989700047e-01,7.894899845123299897e-01,7.441065907478300323e-01,-1.235414892435099943e-01,4.576994180679300195e-01,4.795580506324800263e-01,5.735561251640299840e-01,1.064427733421299926e+00,-9.660813212394700478e-02,1.168498277664199891e+00,4.707318544387800174e-01,7.817175388336200514e-01,9.386318176984799477e-02,-4.002507030963899926e-01,6.092616319656399826e-01,7.184971123933800441e-02,9.530680179595899526e-01,4.970353245735200098e-01,6.849156618118299455e-01,8.636779189109800026e-01,1.057870686054200038e-01,-3.750523626804400101e-01,3.506530821323399771e-01,-7.593812942504899466e-01,-4.658378362655600236e-01,1.506759971380199903e-01,7.075571417808500518e-01,5.890547763556200356e-03,-2.738806791603599911e-02,2.987062335014299963e-01,4.629474282264700036e-01,3.445683121681200056e-01,1.695295274257699880e-01,-1.020521298050900000e-01,5.635395050048800369e-01,7.901986241340599459e-01,2.030227184295700094e-01,4.689650535583499980e-01,2.453624755144100111e-01,3.076786994934099795e-01,-1.242362022399899901e+00,1.919933408498800120e-01,-3.014292716979999898e-01,3.212769329547899844e-01,-2.089578956365600038e-01,3.895359039306600102e-01,5.140251517295799655e-01,6.367039084434500396e-01,7.868198156356800421e-01,1.298279643058799948e+00,4.751255214214299971e-01,-2.532871961593600174e-01,1.156451776623699940e-01,-1.492931991815600046e-01,1.097851395606999958e+00,2.911850810051000091e-02,-1.606040745973600081e-01,-7.182958722114599626e-01,-1.889124885201499959e-02,-7.388520836830100302e-01,-1.835023760795599923e-01,2.103146761655800001e-01,-7.868487387895599372e-02,8.635517954826399389e-02,1.113858938217199945e+00,6.307288408279400072e-01,5.873730406165099567e-03,-5.271977558732000163e-02,-1.928346455097199874e-01,-8.899825811386099517e-01,-6.151862442493399863e-02,-3.767191171646099845e-01,-2.728033252060399830e-02,-2.638966441154499964e-01,-2.422981262206999886e-01,-3.347304761409800045e-01,-6.259326338767999820e-01,-7.782254815101600220e-01,2.818028628826099724e-01,-3.582011163234700146e-01,-1.997135430574399906e-01,-3.525584936141999970e-01,1.606828570365899933e-01,-1.029511928558300093e+00,-7.422202080488199405e-02,7.009978592395800512e-02,-2.978887557983400103e-01,-4.262174963951099738e-01,-5.372229591012000344e-02,-1.052469946444000055e-02,-9.721335023641600181e-02,-4.617067873477900264e-01,1.482568383216900099e-01,-4.556633234024000112e-01,4.947847723960899780e-01,-1.408310532569899964e-01,7.362682223319999553e-01,1.167295798659299944e-01,-4.908546805381799882e-01,-4.109271764755200174e-01,4.309417307376899736e-02,2.676474861800700114e-02,-5.515728890895799791e-02,3.414348140358899886e-02,-3.667981922626499802e-01,-5.800973176956200072e-01,-8.726006746292099825e-01,5.676625967025800135e-01,-3.216551244258900044e-01,-3.733583986759200224e-01,-1.854161620140100109e-01,-5.379645228385899758e-01,-1.152999699115799942e-01,1.828757375478700098e-01,-3.357401192188300132e-01,2.552370429038999800e-01,-2.296745926141700034e-01,-5.527258515358000057e-01,2.138784714043100166e-02,4.419095441699000260e-02,-3.290239870548199996e-01,6.645537167787600452e-02,-1.100731790065799937e-01,-6.139896437525699940e-02,6.264154613017999806e-02,5.504849180579200058e-02,-2.739148437976799966e-01,8.605147898197200440e-02,2.618561685085299962e-01,6.980963349342299562e-01,-1.042984724044800027e+00,-2.747638821601899872e-01,-1.925542354583699989e-01,1.688919067382800010e-01,-3.901422023773200298e-02,1.411746591329600120e-01,-2.955426573753400232e-01,1.604233682155599972e-01,5.948367714881900303e-01,4.082383215427399792e-01,1.036801785230599959e-01,-2.171073295176000062e-02,-2.503602504730200184e-01,3.528640046715700307e-02,-2.250319123268099963e-01,-7.280652523040800350e-01,-7.207360267639200124e-01,4.576719999313400011e-01,-4.163865149021099832e-01,-2.135034352541000102e-01,1.065646648406999963e+00,2.130525186657900027e-02,3.063625991344500199e-01,-5.022632479667700212e-01,-4.835922718048100144e-01,-3.255544602870900084e-01,4.158354997634899908e-01,-1.942982226610200092e-01,-2.180028557777400067e-01,-3.421304225921599773e-01,-3.467947244644200011e-01,-5.737861394882199928e-01,-2.923090755939499949e-02,-4.365510046482100059e-01,7.722723484039299702e-02,-2.411683499813100096e-01,3.696525702253000093e-03,-2.414427548646899957e-01,7.703551650047299471e-02,-2.526674568653100028e-01,6.525059044361100624e-02,-2.560683190822600208e-01,4.030613228678699839e-02,-6.146150827407800277e-01,-5.488807559013400006e-01,-3.990781009197200135e-01,2.574574351310700004e-01,-2.542073130607599984e-01,-5.904835835099200153e-02,-1.834828406572300008e-01,-2.708653807640100109e-01,-3.316570222377799859e-01,-1.829746961593599897e-01,-6.875935196876500344e-01,-3.369409143924699812e-01,-3.370407596230499958e-02,5.990847945213300108e-01,-8.715868592262300263e-01,-5.067598819732700433e-01,4.140134155750300193e-01,1.007629036903399999e+00,1.028309345245399964e+00,-5.077195763588000510e-01,4.091684222221400047e-01,4.990490376949299756e-01,-1.786497384309800041e-01,-1.169551238417600031e-01,1.233307346701599944e-01,4.333636164665199964e-01,1.794620305299799989e-01,6.999778151512100477e-01,2.520369887351999738e-01,1.467401266098000034e+00,2.207348048687000075e-01,-1.950288414955100025e-01,4.566037356853500095e-01,5.153770446777300451e-01,-3.837281465530399949e-01,-5.355103015899700392e-01,-2.670087814331100207e-01,8.656393885612500005e-01,-4.029222428798699962e-01,6.359190940856900287e-01,-3.402552604675300185e-01,7.184894084930399938e-01,1.764508247375500050e+00,4.575862884521499918e-01,1.131325028836700081e-02,3.825562596321099851e-01,3.177667558193200126e-01,-5.155704021453899610e-01,-1.177319884300200015e-01,-1.282239109277699962e-01,-3.386859595775599807e-01,4.791974127292599750e-01,1.193223521113399993e-01,1.084322810173000029e+00,6.140941381454499970e-01,-5.049552321433999902e-01,-7.478300482034699881e-02,-1.431711018085499998e-01,2.973955273628199891e-01,9.279342293739299974e-01,5.195467472076400473e-01,1.228946566581700095e+00,6.047742366790800350e-01,6.384274959564200103e-01,-1.192507863044699912e+00,1.231637746095699953e-01,3.583926558494600068e-01,4.728031158447300319e-02,6.493985056877099593e-01,3.753579035401299890e-02,2.868025004863700156e-01,-3.966977596283000063e-01,5.900489687919600046e-01,3.821183741092700203e-01,-4.403001815080599679e-02,3.274717628955799986e-01,9.285181164741499460e-01,2.834441363811500136e-01,4.127853512763999810e-01,2.083730697631800133e-01,7.881466150283800154e-01,5.391662716865499583e-01,-1.804837286472300018e-01,-4.825758337974500045e-01,4.541026949882500108e-01,6.358155608177199491e-01,-2.966293320059799898e-02,3.426984846591900058e-01,3.876267671585100216e-01,8.626452684402500237e-01,2.178049385547599914e-01,4.109474718570699792e-01,1.210866495966899936e-01,1.687895804643599895e-01,4.456181228160899788e-01,7.597821950912500566e-02,-7.998201251030000458e-01,-2.886721193790400264e-01,-4.439105093479200209e-02,1.177186332642999982e-02,-3.906618654727900264e-01,2.788836956024199898e-01,-3.310735151171700225e-02,-2.684173583984399980e-01,3.510097786784199814e-02,-1.364717930555300052e-01,5.798993166536099697e-03,-1.087615359574600066e-02,8.018425107002300489e-01,-2.773364074528199968e-02,-1.186945661902400057e-01,1.850809901952699954e-01,4.530620872974400193e-01,2.443027496337900062e-01,3.481463491916699793e-01,1.069672852754599973e-01,6.557793915271800667e-02,4.920789301395400162e-01,5.888099670410199549e-01,9.175319671630900453e-01,-1.103537455201099998e-01,1.021206378936800052e-01,3.531391322612800199e-01,-8.844742551445999162e-03,1.182221651077300040e+00,-2.578374147415199991e-01,3.257252275943799957e-01,7.149097919464100226e-01,-8.081527799367900500e-02,-3.228104114532500124e-01,-3.689939677715299848e-01,7.618141174316399589e-01,2.942875921726200161e-01,1.784258037805599995e-01,4.834207296371499929e-01,4.880556762218499767e-01,5.169504284858700283e-01,-1.502515822649000132e-01,8.474576473236100638e-02,-7.042048573493999708e-01,-2.166402339935299959e-01,1.366126388311399986e-01,-2.954659461975099877e-01,-4.954465031623799809e-01,-4.250589385628700256e-02,2.412335276603700118e-01,4.457719158381200260e-03,8.337939530610999350e-02,3.404363989829999881e-01,1.211839728057400103e-03,3.104894161224400206e-01,-5.469699203968000217e-02,-1.938157081604000020e-01,5.360816791653599811e-02,-2.047405578196000164e-03,-9.216690063476599970e-02,2.049624621868099961e-01,5.964987911284000237e-03,-8.402252197265600020e-02,-1.513591110706299925e-01,-3.835547268390699926e-01,4.511905312538099788e-01,-1.594152487814400054e-02,-2.663501799106600121e-01,2.361955046653700097e-01,6.399910897016500289e-02,2.029417604208000048e-01,1.102166399359700011e-01,8.475908637046800087e-02,2.083792686462400123e-01,1.348264217376700103e-01,-3.276652470231099928e-02,1.054970473051100033e-01,4.921242594718899799e-02,4.239143058657599689e-02,2.063080519437799909e-01,-2.137443423271200016e-01,1.793716102838499929e-02,3.613465130329099884e-01,1.849727779626799962e-01,2.279279679060000063e-01,-2.755373716354400093e-01,-6.687186658382400506e-02,-1.904048956930599890e-02,4.506120458245300303e-02,-1.812807619571699946e-01,-5.315890908241299728e-01,-3.016531467437699732e-01,-1.550580412149399900e-01,1.160259470343600052e-01,-2.039859145879699964e-01,-1.034202706068799993e-02,-3.628858625888800038e-01,-9.369170665741000104e-02,-1.793376207351700113e-01,-2.030895054340400019e-01,2.902438044548000251e-01,2.396626025438300112e-01,-1.236558631062499997e-01,-5.824443325400399663e-02,-2.847915291786199954e-01,-8.223760873079299927e-02,3.317469358444199989e-02,-2.385767847299599953e-01,1.773205846548099873e-01,6.168586760759400128e-02,-1.542099751532099994e-02,2.014653086662299974e-01,-1.535421013832100057e-01,1.170158386230499975e-01,-1.368197705596699981e-02,-4.649097472429299799e-02,-6.061135325580799781e-03,2.254944890737499985e-01,2.382108271122000132e-01,-8.299938589334500405e-02,2.483837157487900071e-01,-4.816661775112199978e-02,-1.335178911685900027e-01,2.581274509429899999e-01,-5.502573028206800276e-02,-1.736354380845999967e-01,2.011989243328600116e-02,1.123151332139999958e-01,-3.429539799690199953e-01,-1.410110890865300115e-01,-7.518211007118200118e-02,-6.161529198288900194e-02,-5.312481895089100209e-02,-3.520626202225699691e-02,1.758889704942699916e-01,4.865962266921999846e-02,-4.526999592781100201e-02,-2.164015471935299972e-01,-9.669832140207300364e-02,1.906877160072300015e-01,-6.728056818246799797e-02,-2.028567902743800069e-02,-7.901162840425999395e-03,-2.294521778821900088e-02,2.282799780368799936e-01,-3.441096246242499879e-01,-3.763895109295799929e-02,1.432473026215999937e-02,2.671926282346200054e-02,-2.414125651121100113e-01,3.580332398414600159e-01,-1.596535295247999975e-01,-2.373705804347999992e-01,-2.720308303833000041e-01,-1.185989826917600021e-01,3.062626719474800252e-01,-1.933635920286199961e-01,1.452187150716799935e-01,9.018786996602999595e-02,-5.404183268547100294e-01,1.081228032708199949e-01,-5.206391587853399783e-02,2.453470379114200128e-01,-6.085550785064700041e-02,9.183163195848499660e-02,-7.539901882409999478e-02,-6.503460556268700343e-02,-3.166577219963099821e-01,9.723363444209100551e-03,2.011206448078199926e-01
-8.867561072111100617e-02,-1.395864337682700129e-01,-4.124882519245099965e-01,-3.991987407207500116e-01,-2.374911010265400024e-01,4.268620014190699918e-01,-3.689414262771599784e-01,-3.560076057910899761e-01,-6.600753068924000155e-01,-8.509169816970799660e-01,-3.433992862701399917e-01,1.098649483174100015e-02,1.592604666948299885e-01,-1.774631142616300006e-01,5.602535605430599697e-01,-1.188065111637099935e-01,-8.346381187439000371e-01,-4.965571686625500081e-02,-5.327183604240399717e-01,-1.169800609350200027e-01,-5.371828749775899720e-02,-6.501924991607699322e-02,2.081916481256499973e-01,1.381469517946199987e-01,-1.901919990777999891e-01,-3.577535450458499966e-01,-6.756038069724999984e-01,-4.129832088947300028e-01,-1.841129064559899886e-01,1.129330173134800025e-01,1.118862554431000050e-01,1.951478235423599952e-02,-4.063781499862699764e-01,-4.640460312366500029e-01,3.755196332931500236e-01,-9.628307452658199455e-05,1.700163036584899923e-01,-5.559843182563799502e-01,-3.618391454219799797e-01,-3.575195670127899739e-01,-2.398825287818900087e-01,6.574565172195400153e-01,3.695467859506600117e-02,-2.533578574657400218e-01,2.137673646211599859e-02,-5.979049801826500365e-01,-6.508616209030200217e-01,2.450937777757599967e-01,-1.082657873630499951e-01,-2.157939672470099990e-01,-2.672730386257199942e-01,-4.190593212842900345e-02,3.633002638816800189e-01,-3.154314160346999851e-01,1.179396986961400051e+00,3.891798555850999874e-01,3.550739884376499789e-01,-5.870686843991299725e-02,1.011014804243999948e-01,-4.781408607959700130e-01,3.286068737506899762e-01,-5.490850657224700254e-02,7.107506394386300386e-01,2.818282842636100072e-01,-6.426566839218099680e-01,-2.777817547321300151e-01,-3.976832032203699852e-01,-3.929111063480399957e-01,3.213100135326399931e-01,9.775098562240599476e-01,-1.219551086425799902e+00,-4.186187386512800201e-01,3.534415364265400261e-01,3.057519719004600164e-02,4.611671268940000235e-01,2.187983691692400035e-01,2.383425086736699894e-01,-2.512115240096999824e-01,8.134694397449500347e-02,-6.896814107894899681e-01,2.522918581962600021e-02,4.406706392765000202e-01,-3.928618505597099991e-02,2.258037626743299997e-01,-2.438879311084700130e-01,-1.005841851234400064e+00,-2.981904745101899845e-01,-5.679304003715499594e-01,-2.444989532232300089e-01,-4.155564606189700028e-01,6.089622378349299758e-01,-4.578543007373799822e-01,-1.056254267692599891e+00,-2.446801513433499997e-01,-2.935168743133499958e-01,-1.089944913983300068e-01,-7.658556103706399831e-01,2.609421610832199923e-01,9.707394987344700188e-02,5.004345178604100441e-01,5.117271542549099994e-01,4.742687940597499763e-01,-4.000508487224599952e-01,3.463085889816299723e-01,4.393892884254499975e-01,-1.869115531444499878e-01,6.788408160209700171e-01,3.001715242862700028e-02,-1.267123818397500046e-01,-2.045758962631200051e-01,-3.845628499984700133e-01,-6.489077210426299480e-01,1.849560141563399984e-01,6.769151687622100289e-01,4.876933991908999899e-01,7.652471065521200266e-01,-5.338075160980200184e-01,-7.379298210143999670e-01,2.744213491678200098e-02,2.806624472141299731e-01,-2.069271504879000023e-01,-5.961649417877199486e-01,9.467353224754300189e-01,-6.573485732078599986e-01,-2.495306879281999901e-01,6.058614328503599683e-02,-3.535761237144500191e-01,8.856026083231000046e-02,-1.007127240300200038e-01,2.308189272880599996e-01,-3.321163058280899860e-01,5.741220712661699865e-01,-1.531243603676600042e-02,5.871078372001600210e-01,4.305852651596099867e-01,3.402173817157699842e-01,4.514806717634199662e-02,-4.349783062934899913e-01,3.863570392131799869e-01,-4.884381219744699659e-02,-5.065908432006800410e-01,1.499928981065800082e-01,1.349530935287500011e+00,-1.754496246576300045e-01,-4.038846120238299975e-02,2.279885262250899991e-01,-1.050915271043799948e-01,1.028575226664499992e-01,2.986788190901299919e-02,4.539593681693099986e-02,-2.775455117225599788e-01,-6.619281768798800369e-01,1.417305972427100082e-02,8.526005595922500624e-02,5.816193819046000524e-01,-1.311340928077699974e-01,-7.921108603477500232e-01,2.137515395879699964e-01,-6.833960115909600008e-02,-2.446804493665699909e-01,-5.302240848541299734e-01,-5.595591068267800061e-01,-1.444121450185799904e-01,2.513432204723399788e-01,2.662678658962199796e-01,2.034747898578599945e-01,2.590053975582100043e-01,-1.054538637399699968e-01,2.857011854648600080e-01,3.180797696113599748e-01,-6.939329206943499473e-02,3.641824796795799929e-02,3.130458295345300151e-02,6.420641392469400577e-02,-2.960269898176199829e-02,-2.637254893779800158e-01,2.739706337451899842e-01,3.658109009265900213e-01,-1.797151565551800001e-01,-6.282508373260499435e-02,1.634348034858700005e-01,-4.523469507694199976e-02,1.449722051620500052e-01,-2.477689832448999943e-02,1.520932167768500043e-01,-3.408622443675999869e-01,-6.238775253295899548e-01,-4.628317356109600267e-01,-1.071907430887199947e-01,4.271366894245099965e-01,9.524810314178500104e-02,-1.027783989906299933e+00,-4.816260188818000110e-02,2.387565672397599925e-01,-9.360445290803899587e-02,1.563718914985700037e-01,-5.841205716133099912e-01,-3.809143304824800236e-01,-1.344935782253700064e-02,6.695610284805300072e-01,-1.254178285598800124e-01,-3.012735843658400081e-01,-4.837900698184999793e-01,-3.281137049198200040e-01,-1.261952519416799923e-01,1.267929282039399926e-02,-7.356978058815000221e-01,-2.584259510040299856e-01,4.721296578645699932e-02,-2.892520427703900165e-01,1.487721353769299870e-01,-3.864836990833300234e-01,2.286438941955599990e-01,7.853437066078200468e-01,-3.169470131397200130e-01,4.307079315185499691e-02,2.319940477609599983e-01,-2.889667451381700003e-01,-5.815083384513900500e-01,3.778653144836400246e-01,6.382139325141900077e-01,8.687111735343899799e-02,2.077222615480399937e-01,-5.167896151542700212e-01,-2.478544116020200139e-01,-2.723619341850300191e-01,-3.317978382110600144e-01,5.880574584007299821e-01,-2.060891538858400096e-01,-4.854235351085700034e-01,-2.865855954587500157e-02,4.583927989005999737e-01,1.638787239789999961e-01,1.041412353515600020e-02,1.555881053209300091e-01,-1.268261671066300000e-01,9.204319119453400200e-01,2.839670479297600192e-01,-2.520310878753699926e-02,1.596828401088699889e-01,4.846348464488999808e-01,3.441990017890900200e-01,-4.950604140758499971e-01,2.321669906377800130e-01,4.110362827777899741e-01,-1.328211426734899891e-01,-3.977967500686599989e-01,-2.416532784700400061e-01,-4.899586439132699867e-01,3.530622124671899953e-01,-4.639042913913699745e-02,8.073565959930399938e-01,2.376058995723699940e-01,2.695527970790900230e-01,-1.728316992521299889e-01,-9.518160820007299794e-01,-2.008161507546899968e-02,3.837945461273200021e-01,3.013876676559399947e-01,-2.384464740753199918e-01,-2.218502573669000125e-02,2.741648554801899840e-01,-1.115038618445400032e-01,-8.278882503509500390e-01,1.535682082176199892e-01,-3.418069779872899838e-01,-5.850631594657900170e-01,-3.793781101703599945e-01,-5.936024244874700193e-03,1.069471240043600030e-01,9.012902975082399681e-01,1.716282218694699935e-01,-3.587509393691999948e-01,-4.517391324043300016e-01,9.488783031701999993e-02,5.985518097877500221e-01,1.880462169647199866e-01,2.847642600536299806e-01,-1.777561567723799987e-02,1.556112617254299946e-01,1.334467679262200113e-01,6.078384444117500285e-02,-2.478962242603300059e-01,-1.700048893690100094e-01,-8.044321089983000328e-02,-8.954055607318900378e-02,-8.840377628803300358e-02,1.859810054302200033e-01,1.142866611480699984e-01,-2.900015413761100058e-01,-1.077719107270199983e-01,-4.685866236686699882e-01,-3.194373100996000109e-02,-8.402569293975800102e-01,-3.197602331638300099e-01,9.175246357917800077e-01,-2.605601549148600093e-01,-3.831129670143100241e-01,1.537604629993399863e-01,9.897050261497500334e-02,4.578133672475800248e-02,1.810711026191700046e-01,7.741323709487899496e-01,3.807877302169799805e-01,1.416441947221800113e-01,-2.651648521423299876e-01,-4.007825851440400267e-01,-1.240026429295500027e-01,4.271954298019399743e-01,3.529435694217700203e-01,4.937999546527899741e-01,1.306666582822799960e-01,-1.267166137695300010e-01,-7.200545817613600297e-02,4.978496134281200081e-01,5.110054016113300124e-01,-2.169377952814099952e-01,-1.826003938913300095e-01,-1.877747476100899982e-01,-2.854751348495500052e-01,-4.300406575202900261e-01,-1.311140656471299903e-01,-8.621736168861400262e-01,-5.509725213050800097e-01,4.074469506740600044e-01,4.578349590301499794e-01,-4.610753357410399822e-01,3.730702400207500102e-01,-2.298056334257100042e-01,4.522050023078900138e-01,-1.906421929597900133e-01,4.289816617965699908e-01,6.581732630729699718e-01,-3.402391672134399969e-01,-3.052442967891699777e-01,-7.881197333335899780e-01,-4.178406000137300236e-01,-4.708367958664899655e-02,-3.294485807418799928e-01,9.714996814727799856e-01,7.833220064639999369e-02,-2.509220242500300180e-01,9.626278281211900212e-02,8.126801997423199753e-02,1.484565883874900127e-01,-4.580226242542300152e-01,5.303272604942299573e-01,7.093170881271400052e-01,-4.975484907627100162e-01,4.014507234096499899e-01,-5.038576722145100550e-01,-2.591024637222300031e-01,-1.700748354196499890e-01,3.460777401924099994e-01,-1.486467104405199934e-02,1.862053126096699929e-01,8.900281786918600169e-01,2.455237954854999904e-01,1.579899340868000102e-01,1.170843005180399965e+00,-3.004295527934999765e-01,-5.879119038581800266e-02,1.551728695631000021e-01,1.909954994916900073e-01,4.657993912696800076e-01,1.674698591232300082e-01,4.917718172073399785e-01,-3.757904767990100092e-01,-6.457410752773300178e-02,-5.533418804407100322e-02,2.651341259479499946e-01,6.575497984886200520e-01,-6.224049329757700422e-01,-4.680822789669000228e-01,2.934440970420800210e-01,-4.235775470733599835e-01,1.037175655364999949e-01,-1.381632238626500087e-01,-1.755366474389999931e-01,-6.150301694869999558e-01,5.955821275711099538e-01,-7.796813249588000483e-01,3.418167829513499845e-01,-6.156212091445899537e-01,1.499156802892699925e-01,1.264374703168900070e-02,-5.095857381820699805e-01,1.082431152462999951e-01,-9.918200224638000495e-02,-1.154702380299599956e-01,5.754733830690399871e-02,3.489139974117300147e-01,-2.626250789035099740e-04,1.978573203086899934e-01,1.844338923692699916e-01,1.040161401033399963e-01,-2.918604910373699957e-01,6.743091940879799573e-01,3.522047027945499759e-02,-2.914986908435799884e-01,3.698515594005600260e-01,8.483607321977599744e-03,2.125656697899100129e-03,1.534195542335499984e-01,2.046489864587799912e-01,-1.093185320496599944e-01,3.145237267017400029e-01,6.536341458559000173e-02,-1.434984207153300051e-01,-5.222061872482299805e-01,2.421060800552400083e-01,2.421888150274800061e-02,4.286317899823199884e-02,-3.255882859229999871e-02,6.835846602916699488e-02,3.555450588464700162e-02,4.987131431698799827e-02,-1.338569670915600029e-01,5.955785512924199887e-02,1.413918938487799919e-02,1.655578464269600036e-01,-7.213491946458799875e-02,4.081090539693799785e-02,-2.778776884079000031e-01,-2.338902652263600071e-02,-1.059764027595500036e-01,1.564804464578599952e-01,-2.963033020496400050e-01,1.327885389327999877e-01,-1.447142511606200055e-01,-1.423742473125499952e-01,-1.920308768749199868e-01,-9.383688447997000012e-04,-1.278632283210799914e-01,-6.322599202394499351e-02,-1.051407959312200026e-02,2.051680386066400130e-01,5.076954141259200359e-03,3.183389902114899805e-01,-6.989212241023799732e-03,2.128259539604200057e-01,3.280880153179199787e-01,-1.401236802339599907e-01,6.770565174520000104e-03,1.138435956090699981e-02,6.055814027786299986e-02,5.882919207215300123e-02,2.076484076678800084e-02,-1.272763609886199965e-01,1.421523988246899961e-01,9.185108542442299573e-02,-1.645562946796400028e-01,-1.781231164932300104e-01,-7.273942232131999641e-02,7.006470113992699367e-02,3.276317417621599781e-01,2.544058561325099888e-01,-2.278058081865300122e-01,-3.017077967524500054e-02,7.702417671680500399e-02,2.381633669137999954e-01,1.417663097381600124e-01,-1.646661311387999926e-01,2.221748977899599964e-02,-1.262692511081699998e-01,-2.235061079263699901e-01,-2.734933223109699925e-04,2.332779020070999965e-01,-2.094855010509500126e-01,-1.769480556249599934e-01,-9.290109574794799818e-02,7.816070318222000102e-02,1.378643810749100029e-01,-1.132127046585099939e-01,-6.331551074981699445e-01,6.068947166204499699e-02,2.258808165788699918e-01,-1.800323277711899927e-01,2.423020265996499861e-02,-1.001424863934499976e-01,2.597309947013899945e-01,8.475789427757300654e-02,-9.502920508384700427e-02,-1.145588159561199970e-01,-3.217311799526200167e-01,-7.321771979331999358e-02,-1.341528296470599901e-01,1.224601641297300009e-01,-2.135722041130100057e-01,8.063760399818399593e-02,4.895759820938099804e-01,3.561579287052200060e-01,3.401345312595400183e-01,-1.143901422619799935e-01,1.780270338058499990e-01,-9.613513946533200349e-02,7.581050693988800049e-02,-2.905975282192200249e-01,-2.399406582117100117e-01,3.098604381084399950e-01,1.091347932815600053e-01,-1.341027766466099946e-01,-7.634209841489800197e-02,7.452165335416799374e-02,-2.170262038707700125e-01,-1.680308133363699885e-01,6.890133023262000334e-02,4.249836131930399830e-02,1.753240451216700121e-02,1.013349592685700018e-01,-1.829153299331700011e-01,6.411716341972399646e-02
-2.655717432498900243e-01,-7.120186686515800334e-01,2.379740178585099952e-01,-5.095878243446400058e-01,1.360217779874799970e-01,-3.798426687717399997e-01,-5.695968866348299908e-01,-2.053565829992299863e-01,4.320164918899500051e-01,-2.829786539077799867e-01,-3.513702154159499824e-01,-1.629422605037700034e-01,5.232128500938399984e-01,-1.275744196027499971e-02,3.280326426029199771e-01,-2.062880843877800130e-01,-3.260775208473200015e-01,-2.881649136543300016e-01,-1.376809477806099968e+00,-7.684433460235600144e-01,3.701596334576599812e-02,-8.092150688171400041e-01,-6.161832213401799985e-01,5.407532677054399661e-02,-1.255258321762099949e-01,2.348615676164599875e-01,-1.862836927175499924e-01,1.599558889865899947e-01,1.616340875625599943e-02,-7.878880947828299786e-02,-6.697410941124000150e-01,-9.931292384862899780e-02,-1.053293824195900008e+00,-1.359249502420399880e-01,6.141055375337600014e-02,7.276434451341599885e-02,-2.437910139560700018e-01,-1.608018875122100011e-01,-3.885953724384300090e-01,-4.876525104045900116e-01,1.854597777128199898e-01,-7.798163294792199718e-01,3.524889647960700034e-01,-1.257960591465200062e-02,9.407169818878200473e-01,-3.583769872784599991e-02,-1.814474724233200095e-02,2.475202828645700071e-01,-1.791937500238399983e-01,-1.105854272842399899e+00,-2.908538877963999791e-01,2.190989106893500016e-01,-2.668865025043499761e-01,-1.089450269937499993e-01,3.055491112172600138e-02,-4.147383868694299869e-01,-2.282863948494199841e-03,9.807464480400099327e-02,2.714848518371599795e-01,-6.356780230998999859e-02,1.782054007053399947e-01,-5.407919883727999588e-01,-5.712293982505799450e-01,-8.884770870208700266e-01,-1.225026488304099992e+00,2.064066380262400136e-01,8.977982401847800498e-02,-2.267727702856099925e-01,-2.388524860143700079e-01,-1.915212273597700077e-01,-7.675192952156100201e-01,-1.576939672231700007e-01,-9.955745190381999621e-02,1.598834991455100052e-01,-6.027577519416800200e-01,-8.047463297843899799e-01,7.818982601165800350e-01,-5.461161136627199486e-01,-5.718355998396900362e-03,-4.413111507892599761e-01,9.573379158973699399e-02,-4.969922304153400194e-01,-1.363031864166300011e-01,-2.672348916530600249e-01,7.752724885940599497e-01,-1.810473203659100083e-01,3.130799531936599989e-01,1.725178584456400072e-02,-9.726221114397000378e-02,-5.927588418126100017e-02,2.838056087493899815e-01,-1.754262596368799942e-01,-4.957590997219100126e-01,-1.405212432146099866e-01,1.287795752286899909e-01,-6.657526493072499774e-01,-1.489455848932300097e-01,5.510858297348000256e-01,3.148274496197699807e-02,-9.030295908451099751e-02,-7.474500536918600169e-01,3.785001635551499821e-01,-2.834262251853900128e-01,-6.503949165344200534e-01,8.300535678863499855e-01,1.848725080490100092e-01,-1.125787138938900034e+00,-3.931690156459800023e-01,-3.173218071460700007e-01,-5.784369111061099522e-01,-1.984385997056999917e-01,-1.470142155885700019e-01,8.004356920719099544e-02,5.109230875968899799e-01,1.015532687306399950e-01,1.545986533164999954e-01,-6.750599145889299990e-01,6.871452927589399851e-01,-1.963811963796600057e-01,-3.775620460510299703e-02,-5.343961715698199999e-01,2.007170617580399941e-01,-4.217665791511500117e-01,4.656309634447099860e-02,-5.546390637755400227e-02,-8.640811592340499891e-02,-5.591769218444799794e-01,7.832888364791900093e-01,-3.708101212978400230e-01,4.614725708961500139e-01,2.387403249740600031e-01,5.462194234132800030e-02,8.955778479576099738e-01,-1.148055717349100030e-01,4.228108525276200180e-01,7.236051559448199999e-01,-4.535446465015400275e-01,-3.544643148779900305e-02,2.548482827842199830e-02,-2.328987419605300091e-01,1.416431963443799957e-01,-2.067735195159899897e-01,4.826985001563999789e-01,6.619604229927099626e-01,4.166609048843399887e-01,2.021127790212599862e-01,9.074829220771799543e-01,4.938890933990500165e-01,4.662822484970099990e-01,3.122031390666999973e-01,-3.151190280914299979e-01,-7.834558486938499877e-01,5.947921872139000365e-01,1.921309232711800041e-01,-1.656007766723600061e-01,-1.385225951671600064e-01,4.312551915645599920e-01,1.195355281233800027e-01,4.840098023414600159e-01,3.428424298763300127e-01,-2.119652330875400059e-01,-2.373003512620900091e-01,-1.603023335337599997e-02,6.397034525871300170e-01,6.835291981697100283e-01,4.513993561267899968e-01,-8.904421329498299342e-02,4.962821900844600065e-01,2.992066144943200112e-01,-4.516434669494600040e-01,-1.725330948829700006e-01,2.041522413492199983e-01,-1.758010983467100108e-01,2.112835645675699980e-01,1.158415898680699996e-01,-2.826162278652200044e-01,2.807960212230700137e-01,-3.400321602821400058e-01,-1.489614695310599868e-01,1.734280288219499921e-01,3.148558139800999855e-01,-2.951941788196599803e-01,-2.235131710767699828e-02,-2.394590675830799986e-01,-2.392092198133499992e-01,6.442284677177699710e-03,1.061384938657299916e-02,7.273002713918699791e-02,1.985152959823600072e-01,2.282995432615300135e-01,-4.866259172558799750e-02,-1.715215742587999914e-01,-1.851209551095999994e-01,2.095966339111300092e-01,4.704050123691599916e-01,4.339236319065100100e-01,-2.502387762069699928e-01,-1.152157410979299940e-01,4.905880391597700063e-01,9.192436933517500464e-02,-3.320789337158199794e-01,-3.498780354857399660e-02,8.152753710746799554e-01,5.595315098762499995e-01,-1.525523215532300081e-01,-1.787632703781099827e-02,-3.304276466369600040e-01,1.268668472766900090e-01,-3.481124937534300079e-01,4.840216040611299841e-01,2.256135791540100077e-01,7.480025291442900237e-02,2.894392311573000254e-01,4.355061650276200180e-01,3.913484215736400262e-01,-3.409513235092199723e-01,-1.068911179900200042e-01,5.013665556907700438e-01,-2.932279109954800123e-01,-3.730423152446700197e-01,-4.482724666595500063e-01,8.094078898429899471e-01,-1.954292058944699928e-01,-4.724218249320999985e-01,5.315052270889299990e-01,-4.531531929969799810e-01,1.353797465562799895e-01,1.119445264339399976e-01,5.201132595539099956e-02,-6.508696079254200351e-01,4.478957355022399889e-01,4.219935536384599728e-01,-4.240402877330800013e-01,5.859698355197900249e-02,6.466776132583600400e-01,4.054054021835299948e-01,-2.841950058937099954e-01,-9.932899847626699974e-03,3.911469578742999831e-01,4.133779089897899640e-03,-1.486429199576400073e-02,-2.504202425479900018e-01,-3.986439108848600088e-01,4.308828711509700149e-01,2.502579689025900000e-01,-3.844936192035700029e-02,1.723116636276200014e-02,1.852290183305700111e-01,2.988665997982000166e-01,-6.076953932642899930e-02,1.784440577030199926e-01,8.551376461982700405e-01,2.414512634277299896e-01,3.362634479999500048e-01,1.860042214393599902e-01,7.167544364929200329e-01,-7.313110232353200457e-01,4.965988397598299908e-01,-1.481290161609599976e-01,-1.259144186973599977e+00,-2.803483307361600008e-01,-1.789355576038400009e-01,-4.779362678527799835e-01,-1.125740557909000045e-01,1.886555850505799992e-01,-5.117267966270400148e-01,-6.155600771307900149e-02,-3.787524104118299983e-01,4.216210171580300065e-02,6.371539235115100119e-01,6.408433616161300639e-02,3.936080634594000260e-01,-1.640646338462800058e+00,-3.674982488155399962e-01,-5.072678327560400380e-01,-4.438594579696700237e-01,-4.018071293830899893e-01,-5.343539118766800211e-01,-9.145376682281499692e-01,-2.352920919656799892e-01,3.792724013328600124e-02,-2.546547651290900216e-01,-2.066901326179499954e-01,-3.557010591030099755e-01,-1.423275321722000109e-01,-4.532679021358499982e-01,1.851981729268999954e-01,-2.859018445015000243e-01,-1.071263194084199899e+00,-4.506011605262800201e-01,-3.100361824035600122e-01,-2.935433983802799851e-01,-4.017587304115299851e-01,4.321264326572399894e-01,-1.030933976173399991e+00,9.582942724227899722e-01,2.096274644136399967e-01,-3.224826231598899862e-02,-1.158668637275700020e+00,-4.130170345306399815e-01,4.332732260227200038e-01,2.706710062921000026e-02,-2.773271799087499989e-01,6.845935434102999595e-02,1.025327295064900057e-01,1.026729345321699960e-01,-8.684661239385599307e-02,1.137727946042999955e-01,-1.516182124614700033e-01,4.179342389106799893e-01,6.051098704338100376e-01,-1.451896429061899918e-01,2.652339339256299944e-01,8.999827504158000036e-01,-2.363451123237599871e-01,6.397836655378300041e-02,2.815361320972399883e-01,-5.921152234077500243e-01,-1.251001834869400087e+00,-6.087914705276500360e-01,1.743971258401899871e-01,-1.662455685436699943e-02,-5.296106934547399891e-01,4.178099334239999962e-02,8.546002209186599752e-02,4.012996852397899827e-01,-2.520109415054300195e-01,6.269905567169199445e-01,1.891810446977600091e-02,5.978552103042600319e-01,5.411685705184899886e-01,-5.041000843048100144e-01,-9.595672786235799612e-02,-4.980342090129900035e-01,3.552003800869000250e-01,2.422863431274899920e-02,-4.874145984649699836e-01,-2.798303961753800251e-01,1.404092833399800053e-02,1.562462151050600101e-01,9.799567610025400333e-02,6.096561551094099585e-01,2.075669467449199890e-01,-2.538958936929699983e-02,-1.525541394948999874e-01,1.594292223453500079e-01,6.620759367942800067e-01,-4.543873369693799957e-01,2.036961168050800131e-01,-1.688843965530399949e-01,-5.048078298568700051e-01,-3.619346320629099889e-01,-1.833607256412499997e-01,4.826820641756100067e-02,6.913213729858399548e-01,1.402209699153899869e-01,-6.734632849693299450e-01,1.970804529264600074e-03,-3.085688054561600002e-01,1.993084549903899882e-01,2.304356694221499913e-01,1.570284962654099892e-01,2.085873484611500128e-01,2.135706506669500168e-02,-4.708040058612800172e-01,-2.548548877239200094e-01,-4.472034871578199899e-01,4.168188869953199926e-01,4.674725234508499971e-01,-9.462010860443099969e-02,-4.322357475757599987e-01,7.491846084594699917e-01,-3.194285035133400119e-01,-7.817601412534699867e-02,-6.491484642028799712e-01,-7.315735220909099779e-01,-6.833442300558099924e-02,-5.623686909675600365e-01,-1.093225002288799930e+00,-1.156691983342199997e-01,-1.050874963402699952e-01,3.003303408622700066e-01,-8.007047176361099527e-01,-1.123858019709600004e-01,3.000360168516600159e-02,1.535040698945499930e-02,-9.349869936704599538e-02,-4.894941747188599757e-01,-3.210199624300000276e-02,3.355538845062300268e-01,2.489831149578100034e-01,-1.595650911331200072e-01,-1.926178187131900033e-01,-7.754146307706799579e-02,1.287785619497300027e-01,-2.263229526579400158e-02,2.201438397169100114e-01,1.202531680464700020e-01,-4.528445005416899954e-02,4.762982204556499843e-02,1.010968685150099994e-01,-1.185728758573500047e-01,8.656001091003399928e-02,-2.051727175712599882e-01,-1.167499125003799987e-01,-5.642428621649699799e-02,-3.087026439607100034e-02,-9.245844557881400388e-03,-1.704614609479900011e-01,-3.739924430847200165e-01,-1.013477370142900069e-01,-2.894349209964299993e-02,-1.415112614631700017e-01,9.337197989225399716e-03,5.678172782063500151e-02,5.494799464940999800e-02,1.109738349914600047e-01,5.643529072403900143e-02,1.765122115612000053e-01,-7.567906379699700092e-02,-3.271208703517899941e-02,-3.494356572628000146e-01,-1.825719475746200027e-01,3.358044922351799966e-01,1.357852816581699984e-01,-1.850978136062599866e-01,9.142839908599899312e-02,-6.078686937689799924e-02,-2.253544032573699951e-01,-1.503318250179299931e-01,1.299257576465600028e-01,1.241838485002499937e-01,3.512822091579400063e-01,-5.471177026629400059e-02,3.871664404869099713e-02,-1.951334183104300049e-03,1.099003106355700005e-01,4.370723664760600008e-02,-4.333299584686800369e-03,3.040336072444900159e-02,-9.908802807331100471e-02,-1.591574959456900154e-02,-2.422000281512700151e-02,-4.851085692644099834e-02,-2.712863869965100039e-02,1.582904905080800007e-01,3.193359971046400014e-01,-1.275940090417899964e-01,-2.185598164796800080e-01,-2.233506739139599906e-01,-1.667454838752700091e-02,2.469407953321900093e-02,-1.654240638017699938e-01,1.800032705068599914e-01,3.308411240577699974e-01,3.428759053349499791e-02,1.443021595478100050e-01,-5.170177668333100079e-02,1.197026222944300028e-01,-2.291534394025800114e-01,-2.645983695983900041e-01,2.178849577903700097e-01,-6.416018307208999627e-02,-2.028475254774100012e-01,-4.999828338622999691e-02,-9.614496678113899908e-02,2.485926635563399933e-02,4.136708080768600193e-01,1.457577794790299863e-01,-4.153937473893200283e-02,-1.953311264514900059e-01,-5.708065256476400201e-02,-6.209082528948799834e-02,7.126393169164700614e-02,-1.425844579935099943e-01,1.887159347534199949e-01,-2.243583649396899832e-02,4.165197312831899756e-01,-4.842353984713600179e-02,-3.899012506008100315e-02,1.606223732233000023e-01,9.408158063888499845e-02,1.585320085287099945e-01,1.951585412025499955e-01,1.636239439249000116e-01,-1.412918120622599916e-01,-2.127657532691999975e-01,-3.103961646556899767e-01,2.228268608450899996e-02,-1.678876020014299919e-02,7.135274354368399685e-03,2.296192944049799955e-01,5.264320597052599832e-02,1.691120415925999876e-01,-1.042554229497899970e-01,-2.159022688865699924e-01,1.046769097447400043e-01,-2.420095354318599901e-01,-1.023216694593400006e-01,3.170848488807699872e-01,1.315923780202900017e-01,1.515675187110900046e-01,-5.320370197296100251e-02,2.382745742797900135e-01,-3.019634075462800105e-02,-6.669455021619799528e-02,-3.468527644872700100e-02,2.088778279721700132e-02,-2.413068898022199989e-03,2.891387557610900199e-03,-8.902738243341400126e-02,-1.949710845947300042e-01
-9.997457861900299614e-01,-8.658419847488399990e-01,-2.625436484813700178e-01,-8.878389000892600302e-02,-5.739691108465200253e-02,-4.805189073085799900e-01,-8.106303215026899878e-01,-8.863394260406499692e-01,-5.681834220886200493e-01,-4.748363196849800238e-01,-3.027766644954700270e-01,1.371834278106700000e-01,-4.501805305480999775e-01,-3.613061606883999910e-01,-1.425607055425600067e-01,5.156478285789499738e-01,-1.008303984999699976e-01,-9.198170900344799783e-01,-6.772676110267600302e-01,-2.863362431526200180e-01,-7.429361939430200179e-01,-2.970670759677899730e-01,-3.431854844093299994e-01,3.254012167453799731e-01,-8.589367270469699944e-01,-2.941917181015000216e-01,-9.918949604034400513e-01,3.214328782632900131e-03,-1.369407773017899954e-01,3.990375623107000197e-02,-1.100582718849199892e+00,-1.172200962901100013e-01,-1.735971122980100034e-01,-3.922483623027799848e-01,-1.521239876747099984e-01,-4.327933788299599960e-01,-5.721094608306900309e-01,-2.226624488830599990e-01,2.972897887229900005e-01,-7.430530786514299990e-01,-7.786392569541900066e-01,-8.935130834579499970e-01,-5.681269764900199748e-01,7.899053096771200266e-01,2.229592800140400011e-01,-5.237509012222300031e-01,1.114669144153599967e-01,-5.313632488250700225e-01,2.374651469290299868e-02,1.192624196410199955e-01,-8.038341999053999487e-01,-1.100229740142800061e+00,-7.683019638061500123e-01,-2.764870822429699726e-01,-1.210052847862199910e+00,3.087127506732900151e-01,-3.673895820975300180e-02,9.889829754829400077e-01,-8.602825403213499866e-01,-1.409883238375199931e-02,-4.487380981445299732e-01,4.072189033031500260e-01,4.954211711883499958e-01,-1.838668733835200075e-01,-2.935226857662199818e-01,-4.796989858150499941e-01,-3.948417603969600065e-01,-2.026535719633099919e-01,-4.594076871871899947e-01,-1.495370827615299936e-02,-3.809176087379499975e-01,1.269251406192800080e-01,9.431603550910899747e-02,-3.356067538261400252e-01,-2.742863297462500016e-01,-2.023960649967199987e-01,-3.625809252262099935e-01,-3.837721049785600136e-01,2.839735150337199809e-01,-2.400538623333000054e-01,-1.167269051075000008e-01,-2.728332579135899771e-01,-1.010956287383999896e+00,-5.332683920860300519e-01,-8.991525173187300268e-01,-8.220739364624000123e-01,-5.323294997215299862e-01,-5.450457334518400421e-01,7.514816522598299908e-01,1.558227241039299993e-01,-1.210298165679000032e-01,-1.196980401873599942e-01,-1.609273910522500017e+00,-2.755859196186100091e-01,-1.565017253160499999e-01,-8.460491299629200324e-01,-1.929911524057399963e-01,-8.723817467689499727e-01,1.052322313189500008e-01,-5.893616676330599713e-01,-5.422280430793799955e-01,-2.095013856887799897e-01,-2.242759913206099909e-01,-2.808229923248299897e-01,-7.544511556625399518e-01,-1.713080853223800104e-01,-8.522056043148000526e-02,3.138251304626499816e-01,-1.764886528253599984e-01,-2.310129106044800096e-01,4.554512202739700033e-01,-7.207518219947800509e-01,-2.870219945907599990e-01,-1.595089286565800069e-01,3.468204438686400271e-01,-5.810011178255099912e-02,-7.615122199058500518e-01,1.990775316953700136e-01,-7.696772813797000401e-01,-4.149795770645099968e-01,-4.156431257724800266e-01,-2.549204230308500102e-02,-8.768902420997599645e-01,4.354456663131699989e-01,-4.306168258190199993e-01,-1.985465139150600078e-01,-3.449147343635600160e-01,-7.809830307960500262e-01,-1.934969574212999921e-01,-2.143527120351799986e-01,1.659172922372799952e-01,1.041533574461900036e-01,7.106152176857000180e-02,7.023549079895000102e-02,2.214172482490500138e-01,6.108762621879599841e-01,7.365128397941600458e-01,-2.299634814262400129e-01,3.851090073585500262e-01,4.728460609912900070e-01,3.001892566680899876e-01,2.920739650726300041e-01,-7.495311647653600529e-02,-1.072123274207100047e-01,4.448450803756699989e-01,-3.403778746724100274e-02,-1.903578825294999916e-02,6.194943189621000129e-02,-1.398117281496500004e-02,8.669072389602699991e-02,-4.796273410320299746e-01,1.955601759254900138e-02,4.280949831008900031e-01,1.890697628259699892e-01,4.361918270587900048e-01,-1.853494644164999927e-01,1.231628097593799945e-02,1.891204714775100021e-02,-2.751739509403700046e-02,-1.138609200715999942e-01,-7.188559323549299773e-02,-3.263956904411299820e-01,3.986698687076600245e-01,-2.156038433313400005e-01,-5.624644756317099814e-01,1.111939027905499977e-01,1.953743956983099855e-02,1.048816815018699944e-01,4.148647785186799775e-01,2.607610523700700234e-01,-3.032512404024599942e-02,-6.540040373802199491e-01,-3.977068066596999851e-01,2.987880073487799923e-02,3.784842789173100130e-01,-1.856645643711100080e-01,-2.443053275346800113e-01,-1.114282608032200056e-01,-1.585921049118000081e-01,-6.312299966812100482e-01,4.115210473537400104e-01,-7.817267626523999313e-02,-3.974670767784099779e-01,-3.299964368343399901e-01,6.518903374671899953e-02,3.877274692058599870e-01,3.454176187515299867e-01,2.026134878397000127e-01,-2.045918107032800026e-01,-5.918311476707499574e-01,1.147779226303100031e-01,-6.531334519386300386e-01,-2.938896417617800072e-01,-4.442849159240699897e-01,-5.097213983535799908e-01,6.059400439262400129e-01,-3.080537915229800139e-01,-3.460008800029800158e-01,-6.901046633720399337e-02,2.251034826040299863e-01,-5.292098522186300391e-01,1.112798750400500053e-01,-3.048332408070600005e-02,5.310034155845599901e-01,-5.324355363845799660e-01,-1.989149749279000012e-01,-3.119836449623100139e-01,1.495879739522900098e-01,-2.779195271432400097e-02,-2.261656373739200088e-01,-4.616678953170800237e-01,4.398344159126300057e-01,1.841939538717299873e-01,-3.396212458610500251e-01,-6.764047741890000243e-01,-5.982028841972399924e-01,-1.749771274626300138e-02,-5.296075344085700021e-01,-3.183961808681500250e-01,6.514831911772499956e-03,-6.507551670074499528e-01,-2.831976413726799979e-01,-2.809125781059300109e-01,3.114914298057600006e-01,5.601609945297200133e-01,1.092972993850700014e+00,-2.528638020157800148e-02,2.729817926883699730e-01,6.540961265564000371e-01,1.219891607761399988e-01,-1.368448585271800078e-01,2.750902622938199843e-02,9.607790410518600444e-02,-1.210690941661599941e-02,2.321307212114299967e-01,-1.611863672733299946e-01,1.161740813404299986e-02,-4.134697467088700035e-02,-2.457306534051900138e-01,4.658889770507799732e-01,1.849924474954600107e-01,-6.752917170524600499e-01,1.460670977830899886e-01,-4.755455255508400092e-01,4.153006970882400228e-01,1.234559118747699941e-01,3.344103693962099944e-01,4.613931775093100263e-01,-5.299931764602699991e-01,-4.404311478137999947e-01,-1.471936851739900076e-01,-1.628134101629299946e-01,-9.930551797151600246e-02,-3.277646899223299881e-01,-6.069563031196599789e-01,-1.054251864552499945e-01,-4.478804767131799869e-01,1.597831547260299967e-01,-6.263117194175700231e-01,1.765879094600699972e-01,-2.299349457025499921e-01,2.858461439609499832e-01,-4.895482677966399646e-03,9.362942725419999557e-02,-4.416868984699199863e-01,5.914947986602799856e-01,-3.029230833053599969e-01,-7.746976017951999749e-01,-2.115419805049900126e-01,-4.877304434776300046e-01,-7.598410844802899744e-01,3.552201390266400138e-01,5.326704978942899960e-01,-4.917452931404099892e-01,-3.177446722984300087e-01,-5.331455469131499703e-01,-6.364567279815700473e-01,8.566851168870899536e-02,-5.880340337753300339e-01,-1.308068871498099917e+00,-4.951136410236400276e-01,-1.751803457737000080e-01,2.902010381221800106e-01,-2.141345292329799865e-01,1.657416298985499997e-02,2.280596792697900110e-01,-7.831990718841600474e-01,-7.501933574676500349e-01,-1.894384324550600074e-01,3.804983794689200116e-01,-6.050450801849399651e-01,-8.641747236251799968e-01,-4.592716395854899991e-01,3.835047781467399997e-01,-2.529459297657000172e-01,-2.233114093542100109e-01,-2.538787126541099948e-01,2.522703111171700208e-01,-6.412110328674299753e-01,-1.852747350931200077e-01,6.046620383858700154e-02,-3.156419694423699962e-01,-2.428113482892500091e-02,-6.180402040481599579e-01,5.172689557075500488e-01,-1.819143444299700096e-01,-1.598184466361999956e+00,-1.002148270606999958e+00,-1.079942703247100066e+00,-3.441719710826899870e-01,4.338488727808000045e-02,4.642876982688899923e-01,-1.089854761958100049e-01,3.010306321084500053e-02,2.758373320102699977e-01,1.037066429853400057e-01,-9.462151527404799589e-01,-3.228816092014299977e-01,-1.479923129081699984e-01,3.377606272697399881e-01,5.707011744380000029e-02,-9.666697978973399774e-01,1.443807482719400015e-01,-8.702839612960799887e-01,-7.411308884620699811e-01,-1.463106423616399865e-01,3.717905282974199865e-01,1.562829464674000135e-01,-2.932178676128400219e-01,3.215019702911400268e-01,-6.883270107209699812e-03,-6.083433628082299816e-01,-4.104644060134899908e-01,-5.623167753219600051e-01,-1.151746511459400102e+00,-5.393742583692099843e-03,-1.459311991929999885e-01,-9.050389379262900602e-02,-6.198434829711899630e-01,-7.673752903938300118e-01,-5.620632767677300468e-01,-3.147437572479199752e-01,-1.047257855534600018e-01,-1.210328936576799963e+00,4.368275701999699834e-01,-2.460249066352800107e-01,3.877000510692599766e-01,-2.957885563373600091e-01,-7.029258012771599784e-01,-4.690308272838599746e-01,-3.145061731338499866e-01,-1.642130315303799992e-01,-1.090316414833099934e+00,-5.594850778579699702e-01,2.759555578231799866e-01,-3.679412603378299784e-01,4.413026273250599818e-01,-3.224175870418499734e-01,-5.982591956853899884e-02,1.007810831069899937e-01,-3.696011602878599978e-01,-9.332361817359899336e-02,1.088358014821999981e-01,-1.054495871066999935e-01,-3.750234097242399756e-02,-5.433102250099199892e-01,3.487731516361199935e-01,4.789265990257299821e-01,8.486344218254100458e-01,-1.689456403255500117e-01,-3.929889202117899938e-01,-2.878604233264899781e-01,-1.086195349693299894e+00,3.088909573852999940e-02,-9.294634461402899728e-01,-1.148706078529399960e-01,2.570172548294100134e-01,-5.780734419822699532e-01,-9.581292271614100242e-01,-5.064733624458299666e-01,-7.373331189155599708e-01,-5.136265158653300356e-01,-7.610865831375099866e-01,-3.562795817851999725e-01,7.901242375373800086e-02,7.604674994945499755e-02,3.094373345375099893e-01,2.405637316405799878e-02,-5.220389962196400058e-01,9.012095630168899529e-02,1.754455268383000033e-01,2.244057208299599926e-01,1.228979229927100042e-01,-1.952918469905899901e-01,1.522172093391400138e-01,2.331630885600999986e-02,-1.815647333860400114e-01,-9.751062840223299888e-02,1.856154948472999999e-01,-7.743415981531100167e-02,1.842791438102699964e-01,3.737335503101300027e-01,-2.050396949052800122e-01,8.687212318181999904e-02,1.106631234288199955e-01,9.972991049289700594e-02,6.625014822930100182e-03,7.145984098315199921e-03,2.107466310262700038e-01,-4.479599297046700235e-01,1.568474322557399936e-01,-3.289136663079299944e-02,-2.452055513858799884e-01,-5.882391333579999743e-02,-2.284187376499199895e-01,1.819797009229700002e-01,1.169055774807900017e-01,5.253380909562099799e-02,1.264718174934399975e-01,1.384832412004499969e-01,9.773769229650500212e-02,-1.652217656373999866e-01,1.536144912242899951e-01,3.619270026683800157e-01,-3.807215690612800185e-01,-9.991476684808700548e-02,2.612390220165299870e-01,6.067377980798500242e-03,9.132429957389799624e-02,1.025844551622900024e-02,3.109380900859800012e-01,-3.404268622398399780e-01,6.531763938255600492e-04,-1.059751361608499975e-01,-5.972308292984999933e-02,1.450082361698200040e-01,2.477267980575600104e-01,-4.715942591428799735e-02,-6.598170846700700254e-02,1.111903190612800046e-01,-2.325488179922099996e-01,-3.301670774817500043e-02,3.203430399298699827e-02,1.462857723236100083e-01,2.704793214797999723e-01,2.284400463104200030e-01,-2.296363115310700032e-01,2.233430184423899900e-02,-6.828831136226699849e-02,1.569396853446999862e-01,-2.830801010131799855e-01,-4.364345073700000022e-01,-1.588097810745200122e-01,-1.105275452136999931e-01,-2.557299137115500165e-01,4.111176729202300345e-02,-3.237784653902100324e-02,3.298684954643200107e-01,-2.452054917812299950e-01,7.664274424314500289e-02,6.429868191480600514e-02,4.376171901822099863e-02,-1.485676225274800040e-02,6.946594268083600143e-02,8.368135243654299671e-02,-1.077428832650200036e-01,-8.021425455808600669e-02,1.902124434709500100e-01,-7.565175741910899754e-02,-1.187781244516400020e-01,4.016137123107900164e-01,7.947099953889799617e-02,1.350668221712099937e-01,-1.326567232608799884e-01,-1.029771119356199943e-01,9.590016305446599776e-02,-4.271436929702799867e-01,7.413190603256200606e-02,-1.074439138174100028e-01,7.634966820478400473e-02,-2.741059660911600027e-01,2.009610831737499922e-02,1.069939583539999961e-01,3.985408693551999865e-02,-3.351277112960799887e-01,7.163393497466999382e-02,7.661321759223900518e-02,3.252565562725099890e-01,2.238567024469400035e-01,4.200348854064899773e-01,1.024771132506400008e-03,1.849724054336500112e-01,-3.691386803984599702e-02,-1.569642424583400087e-01,1.379543989896800105e-01,-1.033795848488800045e-01,-3.343687057495099979e-01,2.740678489208199786e-01,3.453286830335900153e-03,1.238877326250100025e-01,1.631819605827299902e-01,-5.393395572900799850e-02,1.178192421793899936e-01,-9.454680548515200628e-05,-4.032243192195900106e-01,1.676431149244299867e-01,6.369131058454499672e-02,1.605214625597000122e-01,-3.665287420153599818e-02,1.512125432491299992e-01,-5.091075971722600069e-02,2.170470505952800111e-01
5.611627101898200021e-01,-3.554373085498799822e-01,1.830209493637099949e-01,4.789672493934600261e-01,-1.187196373939499949e+00,3.084313869476300041e-01,9.065798670053500097e-02,-3.717966973781600126e-01,8.792982697486899646e-01,2.055371105670900089e-01,-3.208007514476799993e-01,-6.447473168373099583e-02,1.355346322059600039e+00,8.981479704379999318e-02,-4.458484053611799780e-02,6.051031351089499744e-01,3.508771061897300036e-01,5.579081177711500139e-01,-4.998085200786600013e-01,6.785175064578700087e-04,6.308374404907199917e-01,9.765380024909999790e-01,3.846893012523699973e-01,-4.735858440399199898e-01,7.806052565574600477e-01,2.332300394773499930e-01,3.630908578634300249e-02,-5.429955124855000426e-01,-7.594377398490900211e-01,5.070024132728599975e-01,-5.454968810081499697e-01,2.051833719015100088e-01,2.803672552108800176e-01,5.283846259117099819e-01,-5.528566837310799897e-01,2.252822220325499947e-01,8.504951000213599455e-02,-5.031431317329400077e-01,1.051730513572699977e+00,-2.778466641902900269e-01,9.685564637184099768e-01,2.094656974077200029e-01,-3.692242801189399848e-01,-3.615395724773399766e-01,3.330663740634899894e-01,-8.364090323448200026e-01,-4.651161730289499752e-01,-3.062238097190900232e-01,-5.073589086532600545e-01,-3.359023332595800215e-01,1.985524147748899959e-01,3.373684287071200272e-01,-1.530575901269899952e-01,-4.531588554382299794e-01,-5.586264729499800241e-01,5.698012709617600313e-01,-1.308739334344899974e-01,3.476885259151499818e-01,9.398483633995099451e-01,1.116372346878099941e+00,1.429598182439799914e-01,-4.593952596187599879e-01,-5.378767251968400442e-01,6.309223771095300304e-01,7.246981859207199950e-01,-5.746951699256900303e-01,3.783411979675300185e-01,-1.686618685722399924e+00,2.863496914505999844e-02,7.766642570495599918e-01,-5.486726760864300001e-01,1.528890132904099919e-01,8.811954259872399886e-01,-7.491577863693199557e-01,3.210440874099699804e-01,2.288268133997899828e-02,5.368807911872899852e-02,-2.343150973320000108e-01,2.804839909076700111e-01,8.390239477157600545e-01,6.683351397514299963e-01,2.418158054351799979e-01,-2.914977669715900221e-01,-1.591763794422099976e-01,-1.785003989934899893e-01,6.454591155052199491e-01,1.470810850150899894e-03,8.416016697883600406e-01,-4.035046398639700049e-01,-7.642321586608900041e-01,-5.244572758674600488e-01,4.229094982147200144e-01,-2.801968157291400141e-01,-5.766597986221300154e-01,-1.949181556701700124e-01,-3.508417606353799734e-01,-3.442606925964399878e-01,-5.836777091026299491e-01,3.888090252876300057e-01,-8.527156710624700375e-02,-2.559993863105800016e-01,-8.584819436073299892e-01,7.036446034908300229e-02,-3.672422468662300266e-01,4.969515800476099754e-01,-2.828970253467599782e-01,4.798186421394299850e-01,-2.977112233638800065e-01,7.671756148338300108e-01,5.571065545082100057e-01,-6.354426145553599969e-01,3.251180052757299821e-01,-8.572850376367599501e-02,-1.435887455940199953e+00,-8.075795769691499482e-01,-6.383704543113699614e-01,-5.957175493240399744e-01,1.332746624946600011e+00,8.028469085693400453e-01,1.747074425220500049e-01,-7.444234937429400345e-02,5.131449922919299744e-02,-3.993922173976899859e-01,-1.079749941825900006e+00,6.089292168617199685e-01,-1.057866573333700044e+00,2.636917829513499845e-01,-3.564367294311500123e-01,-6.465828418731699445e-01,-7.894214391708399559e-01,5.321708917617800072e-01,-1.796845942735700030e-01,6.386780738830599713e-01,1.782151311635999935e-01,-2.556950151920299730e-01,4.719376564025900000e-01,-7.334647774696400058e-01,1.974325925111800051e-01,-3.510335385799400187e-01,-4.333014786243399863e-01,4.339877367019699950e-01,4.636742770671800074e-01,-8.991344571113599748e-01,4.119132757186900196e-01,-1.193960905075100026e-01,-3.501988351345100003e-01,-1.460189223289500016e-01,-1.338039934635200101e-01,3.666039183735800289e-02,-7.951427996158599854e-02,-1.036245942115799901e+00,-9.744777679443400453e-01,-5.952689051628099470e-01,-2.299532145261800054e-01,-9.191203862428699856e-02,-3.400538861751600112e-02,-5.449407100677500226e-01,5.548667311668400437e-01,-2.260515391826599940e-01,-2.868328690528900160e-01,-7.179756760597200138e-01,-1.022493124008200027e+00,-6.482967138290399722e-01,4.812124073505399946e-01,2.719536125659899883e-01,-1.354485750198400063e-01,-4.996888637542700184e-01,-5.416231751441999975e-01,6.899687051773100155e-01,-4.570368230342899962e-01,-1.127156093716600027e-01,2.271707653999300025e-01,1.635986119508699987e-01,-1.005568742752100064e+00,-3.844071626663200236e-01,-2.784180343151099746e-01,4.319618642330200209e-02,-3.023251891136199965e-01,-8.162068128585799887e-01,2.378355413675299901e-01,-4.135373234748800086e-02,3.704098751768500168e-03,-7.776888012885999624e-01,-7.833342999219899960e-02,-9.739879518747300569e-02,1.504315137863199980e-01,2.713734805583999932e-01,3.478000685572599920e-02,-3.142211586237000226e-02,-2.462212890386600017e-01,-3.311560153961199959e-01,-2.331042736768700052e-01,-4.158259034156799872e-01,2.736364901065799771e-01,-4.678093269467400311e-02,5.553352460265199853e-02,-3.725963532924699839e-01,-2.343337237834899889e-01,6.656792163848900268e-01,2.649858593940699891e-01,-5.300347805023200021e-01,2.852933108806600115e-01,-4.757963716983800162e-01,-3.646319508552600119e-01,-5.701537057757399829e-02,1.579245775937999918e-01,-1.367856562137599874e-01,1.084581762552299933e-01,5.512574911117600340e-01,1.387532353401199903e-01,2.838379889726599936e-02,-4.674206376075700220e-01,-3.601046651601799709e-02,-4.717307388782500110e-01,-3.385852277278900146e-01,-1.491726487875000007e-01,-7.048901170492199997e-02,6.523007899522799413e-02,2.289097756147399822e-03,8.904822915792499904e-02,-8.639063239097599656e-01,-3.133334517478900128e-01,-1.844695210456800127e-01,-3.686008453369100102e-01,-8.826397061348000284e-01,-1.527324020862599885e-01,-1.384421586990400022e-01,-8.088863492011999501e-01,7.067103683948500192e-02,6.900218874216100529e-02,3.634377717971800092e-01,-2.555125951766999970e-01,-3.626763820648200021e-01,-8.386846184730499809e-01,-1.633927822112999917e-01,-5.429658889770500041e-01,-8.076575398445100251e-02,-1.043476700782800082e+00,-5.860693454742400554e-01,3.623352944850899982e-01,-5.243588685989399867e-01,-4.521604776382400215e-01,-2.259584814310099943e-01,1.602295935154000039e-01,-3.517737090587599869e-01,2.347071319818500035e-01,-3.288674354553199897e-01,-6.291780471801800001e-01,-4.419245570898099745e-02,-2.832014560699500083e-01,3.594682514667499884e-01,-7.654848098754899466e-01,-2.741560935974100000e-01,-3.032099902629900035e-01,-1.071102261543299905e+00,-2.684617340564700028e-01,4.013505876064299982e-01,1.069036960601799979e+00,-2.484639175236200148e-02,2.792110443115199958e-01,-9.120354652404799589e-01,2.449062764644600043e-01,-1.116340681910499982e-01,7.265566382557199672e-03,-3.677095472812699772e-01,1.846127361059199945e-01,4.339318573474900131e-01,-3.310282155871400317e-02,9.741369634866700600e-03,-7.974372804164900352e-02,-6.804989576339699475e-01,-8.880971930921100280e-03,-2.689671516418499775e-01,2.507060766220099990e-01,-2.912192940712000078e-01,-1.237836122512800063e+00,-8.780913054943099982e-02,1.915270537137999940e-01,2.687091827392599774e-01,-5.797078609466600474e-01,-6.918821483850499943e-02,-1.866973489522900098e-01,7.685827612876899861e-01,-9.059877395629899466e-01,1.459040492773099884e-01,1.108667373657199917e+00,8.187014609575299362e-02,-6.494920849800099871e-01,-4.348771870136299844e-01,-3.948547244071999862e-01,-4.236544370651200153e-01,3.794273734092700190e-01,3.400072157383000060e-01,-9.912924766540499588e-01,-1.196668595075599945e-01,4.162294864654499937e-01,8.744925260543799928e-01,2.418353855609899905e-01,-3.971402347087900075e-01,-5.583718419074999995e-01,5.877719521522499768e-01,-5.608114600181599574e-01,-6.451336145400999866e-01,2.655415534973100122e-01,5.100708603858900014e-01,8.877156972885099639e-01,1.048283696174600044e+00,2.614240646362300247e-01,6.940863132476799979e-01,5.826172828674299753e-01,3.706646859645800207e-01,8.729009628295899548e-01,-4.597977995872499779e-01,5.886274576187099788e-02,9.003987908363300652e-02,-7.771810144186000469e-02,5.764195919036899651e-01,7.660809755325299619e-01,-1.455041885376000099e+00,-5.239395424723600203e-02,-3.885172307491300270e-01,9.848464727401700092e-01,-6.294447779655499842e-01,8.712829351425199764e-01,6.750522255897499768e-01,6.184802055358900041e-01,3.411710634827599953e-02,8.857702612876899861e-01,7.889184951782199917e-01,3.418909013271300146e-01,-2.069249749183700027e-01,-3.795924186706500225e-01,8.469898253679300493e-02,1.022058010101299930e+00,1.643605679273600073e-01,2.955363690853100023e-01,1.233846843242600022e-01,1.250262975692699952e+00,-2.798547446727799870e-01,-4.921192824840500135e-01,4.226921498775499941e-01,-9.653420001268399331e-02,1.770500391721699929e-01,1.407913565635700026e+00,1.480814069509500119e-01,-1.188175007700899982e-01,-4.418121278286000209e-01,7.701057195663499888e-01,6.704941391944899687e-01,-6.966506838798499635e-01,1.731718182563800057e-01,-6.063264012336699871e-01,-4.581623971462199796e-01,-6.359332203865100119e-01,9.146772325038900198e-02,-2.597192823886900204e-01,3.476267457008400119e-01,-4.807817041873900243e-01,3.768795728683499990e-01,-3.453596830367999804e-01,8.051469922065700446e-01,6.167940422892600333e-02,-2.264908514916899943e-02,2.778408490121399982e-02,4.595795869827299929e-01,8.888115882873499629e-01,-2.903179824352299931e-01,-4.586159717291599623e-03,2.853822112083400087e-01,-8.103455901145899531e-01,-6.428725123405499842e-01,1.681431174278299912e+00,-3.500356674194299855e-01,-2.435163408517800054e-01,3.132223784923600096e-01,-3.842783272266400152e-01,-1.156807094812399989e-01,5.354740619659400513e-01,-4.519090354442599766e-01,-3.575091660022700069e-01,-6.365569829940800339e-01,-5.574591755866999954e-01,6.421669125556900282e-01,4.851630330085799914e-01,3.648509271442900142e-03,2.195188850164400129e-01,3.577540814876600250e-01,-4.803254455328000161e-02,-6.017138436436700322e-02,-2.591154165566000173e-02,-3.433847799897200154e-02,1.074752360582399979e-01,2.963484823703799731e-01,2.954423129558599870e-01,-2.212357893586200039e-02,1.156625077128399931e-01,1.271016299724599952e-01,-3.089609742164600159e-01,-5.797429010271999694e-02,-3.463162779808000025e-01,3.680172190070200161e-02,-9.034641087055199360e-02,-1.132683530449900000e-01,2.148790955543500025e-01,1.612921953201300052e-01,6.786689907312400127e-02,1.766944676637600131e-01,-3.558900952339200119e-01,7.220700383186300086e-02,-1.252713846042799971e-03,1.555527150631000055e-01,-3.070362098515000068e-02,3.996952474117300147e-01,6.707500666379899966e-03,7.636144757270800498e-02,-1.101638898253400056e-01,-1.603960990905800021e-01,-1.670432090759299895e-02,-2.270331829786300104e-01,1.822169683873699902e-02,-5.798632651567500046e-02,-3.671844303607900151e-01,3.179862797260299967e-01,-4.724282920360600158e-01,-1.392242014408099915e-01,-5.024790167808500518e-01,-3.119997913017899787e-03,-1.263752132654200055e-01,-3.453428447246599808e-01,-1.729535907506900005e-01,-1.297538131475400036e-01,1.529009640216799915e-01,3.699655830860100192e-01,-7.832153886556600386e-02,-1.593788564205199931e-01,1.138856634497600051e-01,-9.153955429792400011e-02,3.143101930618300011e-02,-1.143346261233100028e-02,6.335251964628699911e-03,2.318298518657699869e-01,3.336015641689299982e-01,6.006245687603999767e-02,8.588265627622599166e-03,-1.179895401001000016e-01,1.143502742052100035e-01,-1.899077892303500104e-01,3.427157402038599754e-01,2.030916744843100190e-03,1.593893617391599904e-01,1.052726283669500051e-01,1.190676763653800013e-01,-5.590829998254800287e-02,-3.680384531617200000e-02,3.185849487781500233e-01,-1.540346741676300035e-01,1.477129608392699911e-01,4.299777448177299899e-01,-4.303025081753700416e-03,3.158985171467100072e-03,-1.193269118666600015e-01,-2.178771048784300113e-01,-2.685166597366300256e-01,9.986861050128900685e-02,7.750145345926300056e-02,5.901735648512800025e-02,1.883804351091399876e-01,2.761784754693500168e-02,-1.928140819072700074e-01,-2.682149112224599952e-01,-3.146153390407600003e-01,3.168455958366400149e-01,1.246297061443299992e-01,1.596195846795999962e-01,-1.909871771931600029e-02,1.166478544473600019e-02,4.744656085967999815e-01,2.285285592079200068e-01,2.832957208156600126e-01,3.460351526737199812e-01,1.355809420347199867e-01,1.145475655794099962e-01,-7.902779430150999596e-02,4.719831049442300280e-02,1.566874831914900068e-01,-1.718886643648100121e-01,3.472403287887599888e-01,-2.992328628897699891e-02,-3.392863571643799925e-01,-2.536225318908700080e-02,-1.639105230569800065e-01,1.975724548101399913e-01,2.184963971376399916e-01,1.391561329364800030e-02,-2.316169440746299879e-01,-2.201192677020999966e-01,2.140663564205199931e-01,-3.819498717784899910e-01,-2.660372257232699877e-01,-6.157478690147399902e-02,4.001957476139100245e-01,2.549673318862900051e-01,6.223985180258800182e-02,1.184941381216000067e-01,9.976162016391799947e-02,1.252798885106999882e-01,2.751179039478299782e-01,-7.617881894111599994e-02,-6.566879339516200169e-03,-6.225791200995400149e-02,-1.302727311849599945e-01,-2.002118900418299943e-02
5.358283519744899692e-01,4.443268775939899773e-01,1.068994641303999904e+00,6.978123784065199953e-01,1.944323480129200032e-01,2.359919250011399960e-01,-8.257240056991599353e-02,1.630133390426599937e-01,-5.960600376129200351e-01,-7.836385965347300031e-01,1.434607654810000077e-01,2.258526086807300104e-01,-8.735872507095300277e-01,4.728150069713599746e-01,-3.668626025319100120e-02,-6.339544802904099885e-02,-1.045230031013500094e+00,6.737070083618199590e-01,-2.013046443462400137e-01,2.640597820282000185e-01,-2.026681900024399907e-01,6.126636266708399559e-01,6.600456237792999836e-01,-6.353951245546299309e-02,-2.310294508933999902e-01,-1.845467984676399942e-01,8.356004357338000510e-01,-2.524634301662400104e-01,6.703900545835500546e-02,7.980989217758199805e-01,3.584079444408400095e-01,3.443125784397100264e-01,5.574992299079899460e-01,5.918868780136099517e-01,-1.498390585184100066e-01,8.848004788160300504e-02,1.064359664916999959e+00,8.860117755830300076e-03,6.053997874259899881e-01,-3.394119143486000190e-01,-1.874949187040300114e-01,-1.170446127653100021e-01,5.592129826545699789e-01,5.961935520172100267e-01,4.034109041094800091e-02,6.116980314254800294e-02,2.477805912494699947e-01,-1.154183387756299917e+00,7.123459130525600091e-02,1.013087511062600088e+00,3.338612914085399841e-01,7.860460877418500303e-01,-8.151429891586300380e-01,3.250693678855899882e-01,6.213383078575099860e-01,5.526868104934700154e-01,-5.282245278358500551e-01,-3.331297636032100329e-02,2.838848829269399743e-01,5.705380812287300096e-02,-8.814565092325199469e-02,7.795081287622500354e-02,7.935574650764500027e-02,2.676420100033299887e-02,-2.391643449664099946e-02,3.857444226741800208e-01,-4.915129542350800129e-01,7.830141186714200119e-01,-3.450782597065000235e-01,-6.062690615653999471e-01,2.136616408824900115e-01,1.262846589088399973e-01,1.662322431802699951e-01,2.652501165866900101e-01,3.698048889637000070e-01,5.531951189041099948e-01,-7.484368979930899890e-02,4.733464419841800219e-01,-4.918311536312099941e-01,1.477016210556000075e+00,7.842172980308500518e-01,3.463103175163300129e-01,-7.761644721031200067e-01,-1.056435108184800020e+00,1.920775473117800058e-01,7.637689262628599707e-02,-2.913590669632000196e-01,6.567542552948000267e-01,-7.677675038576099731e-02,6.765927188098400276e-03,-3.712452650070199867e-01,1.067650794982899942e+00,3.076500296592700190e-01,6.815906614065199431e-02,-2.053922265768099997e-01,9.151197224855399381e-02,3.424612283706700011e-01,1.565638929605500107e-01,-7.313841581344600051e-01,9.355913847684900475e-02,-2.893326282501200164e-01,8.725820183753999482e-01,6.808136105537400118e-01,-4.993962645530700128e-01,5.622575879097000406e-01,-5.547358095645899684e-02,-6.333972793072500246e-03,2.437036335468300008e-01,2.888868749141699777e-01,3.957748115062699745e-01,2.009037286043199866e-01,4.404936730861699901e-01,-3.080126941204099911e-01,-5.986236929893500314e-01,-1.204265579581299955e-01,-1.244972497224799968e-01,3.003007471561400243e-01,-5.880289673805200179e-01,3.653950095176700108e-01,5.929062366485600144e-01,1.519577950239200115e-01,6.720663513988299823e-03,6.917718648910500256e-01,3.446793854236600008e-01,2.799583077430700118e-01,2.067161798477200052e-01,6.238310933113100365e-01,1.970961838960600121e-01,4.353563785553000165e-01,3.155024349689499741e-01,-5.157834291458099907e-01,-2.307762056589099942e-01,-2.218234986066799919e-01,-8.016196638345700343e-02,-1.663887500762900040e-01,1.247989386320099980e-01,2.639881074428599983e-01,3.232285380363499744e-02,2.229891866445500026e-01,-1.858903914689999937e-01,4.828158020973200015e-02,-4.212001860141800225e-01,-3.252881765365600031e-01,-3.288853168487499978e-01,4.180859923362699737e-01,9.388494305312600555e-03,2.771189808845500036e-01,3.300608694553400224e-01,2.088281363248800093e-01,-1.635877490043599891e-01,-5.204011201858500524e-01,-2.007290124893200134e-01,3.240634873509400105e-02,1.175181493163099944e-01,1.273530721664400123e-01,-1.771946698427200040e-01,-8.923646062612500263e-02,-3.570714965462699897e-02,-1.305186599493000088e-01,5.028790235519400298e-01,-1.268368512391999936e-01,1.956149935722399924e-01,-1.351979095488800055e-02,-1.833469867706299938e-01,4.499674737453500106e-01,-1.837554015219200129e-02,-2.341630309820199873e-01,3.863063454627999743e-02,8.556359261274300299e-02,-1.405855566263199963e-01,2.588185071945199867e-01,9.205628931522399916e-02,-1.658362895250299895e-01,4.229255616664899797e-01,7.119604945182800293e-02,2.289806157350499916e-01,-2.449939772486699890e-02,1.056338399648699966e-01,-1.571121066808700006e-01,9.374123811721800370e-02,-1.330478638410599879e-01,7.129241228103599948e-01,2.298683971166599893e-01,7.203023135662099674e-02,-3.070461750030499884e-02,-3.796511888504000010e-01,-1.281110197305700138e-01,-1.412240564823200040e-01,3.139889240264899795e-01,1.910825222730599959e-01,-5.611658692359899891e-01,7.124445438384999774e-01,5.132150053977999615e-01,-2.026540637016299995e-01,8.993090987205499820e-01,-2.739015817642200257e-01,-1.646628081798600096e-01,6.555694341659500379e-01,-1.726164966821699953e-01,2.014347165822999997e-01,1.915793679654599971e-02,-5.580714344978300323e-01,-2.911010086536400254e-01,3.068915009498600077e-01,4.358213245868700070e-01,7.495001889765299900e-03,2.333588451147100007e-01,-1.915289312601100025e-01,1.159197211265599936e+00,2.629567384719799783e-01,-3.564670383930200193e-01,-1.275578886270500034e-01,6.267897486686699882e-01,1.011570729315299996e-02,-4.122410118579900029e-01,-3.330099210143099703e-02,6.821429729461699898e-01,-1.678074449300800131e-01,-2.455725669860799876e-01,4.049770236015299840e-01,-4.781935513019600070e-01,-5.787798762321499924e-01,1.246500015258800026e-01,-1.488001048564900064e-01,-4.340919554233599875e-01,-5.539786219596900541e-01,-8.317767083644900250e-02,-4.191159904003100012e-01,1.560482978820799949e-01,-5.978908017277700243e-02,-3.216961920261400265e-01,9.197973459958999620e-02,4.080731868743899815e-01,-4.220004975795699775e-01,-3.752802312374100002e-01,-9.680671244859699598e-02,3.899458646774299764e-01,5.985274910926799974e-01,-2.310355603694899951e-01,2.416708022356000019e-01,3.832679092884099803e-01,-8.075955510139499749e-01,-3.667742013931300088e-02,-4.952496588230099750e-01,-2.292211651802099903e-01,1.263315677642800061e-01,1.075339466333399968e-01,-4.204147756099699818e-01,-6.710489839315400551e-02,-1.953171938657800033e-01,-1.136376857757600001e-01,1.909713447093999983e-01,-5.723836272954899856e-02,-3.041849136352500205e-01,-3.891510367393499759e-01,4.136180877685500246e-01,9.791523218154899455e-01,5.493602249771399951e-03,-3.295212388038599727e-01,-3.937976062297799951e-01,1.780702769756299930e-01,-9.735003113746600045e-02,-6.831514835357700433e-01,-8.117137104272799386e-02,1.306078583002099891e-01,-3.858905732631700003e-01,2.260823100805300079e-01,2.259799689054499960e-01,-7.414579987525899973e-01,-3.654264509677899730e-01,2.309526950120900091e-01,-4.623082578182199920e-01,-5.850331783294699939e-01,6.325999498367299578e-01,-3.811594247817999825e-01,1.157317310571699953e-01,-5.694701671600299608e-01,7.763502597808800143e-01,6.372479200363200258e-01,-1.800770759582500102e-01,-4.415494501590699894e-01,9.295295178890200516e-02,4.754755496978799734e-01,-1.439830362796800101e-01,4.015136361122100261e-01,1.120549917221099978e+00,-4.688762128353100023e-01,-5.131334662437400107e-01,8.115191459655799466e-01,-4.471661150455499834e-01,2.443184405565299866e-01,3.307646512985200071e-01,2.844486236572300042e-01,-5.091784000396699650e-01,-8.730224967002899739e-01,-1.277906894683799865e-01,-8.758770227432299826e-01,3.110063076019299877e-01,1.083012074232100053e-01,4.539585709571800076e-01,-5.377571657300000280e-02,3.388461768627200055e-01,7.228836417198200026e-01,-7.147080898284899897e-01,1.181272715330100032e-01,1.616440862417199975e-01,8.332951068878200473e-01,1.315796732902499988e+00,-5.356417298316999975e-01,4.135518074035600122e-01,-7.273361086845400170e-01,1.142070412635799892e+00,-8.642355352640200550e-02,-2.242266833782199931e-01,-1.455436740070599998e-02,5.610508918762200370e-01,3.052219450473799833e-01,1.292652636766400062e-02,2.626232802867899951e-01,3.228359818458599872e-01,-4.060216546058699749e-01,3.127393499016799944e-02,-5.306262969970699794e-01,1.604430973529800131e-01,1.452321112155899874e-01,-2.937160432338700028e-02,-8.878497481346100395e-01,3.483671844005600260e-01,5.533674359321599789e-01,-1.866782009601599956e-01,-2.956601679325099874e-01,-3.092245943844300002e-02,2.848987877368899801e-01,3.053978085517899954e-01,-8.856078982353199347e-02,1.221130013465899999e+00,7.749300599098200015e-01,-2.109306156635299967e-01,-9.920041263103500373e-02,-1.195872426033000036e+00,2.236751019954699993e-01,-9.751491597853599895e-04,6.454844772815700182e-02,6.003797650337200364e-01,-9.752445667982100053e-02,-7.886451482772800503e-01,-3.638747334480300077e-01,3.711887598037699743e-01,1.979333162307700122e-01,2.148447036743199867e-01,-2.619422674179099908e-01,-1.291786909103399994e+00,-4.605560377240199704e-02,-5.900713801383999924e-01,-6.040995121002199486e-01,4.251565039157900183e-01,-1.090725362300900003e-01,5.389811396598800375e-01,-8.530904352664900325e-02,4.539511501789100234e-01,1.207637786865199958e+00,-2.396307736635200081e-01,4.336875677108800176e-01,2.331311404704999868e-01,1.882305145263699908e-01,-1.136372215114500074e-03,5.277861356735199516e-01,2.284979075193399878e-01,-4.906769692897799962e-01,-1.507018208503700107e-01,-1.749238669872300034e-01,3.078376650810200066e-01,3.348899185657500110e-01,-7.103598117828400227e-01,8.836055546998999866e-02,4.367401301860799889e-01,-5.947047472000099866e-01,-4.503985345363599735e-01,3.055211007595100003e-01,5.002313852310199538e-01,1.012930512428299901e+00,2.894745953381100065e-02,-5.765682086348500324e-02,4.076489508151999730e-01,-6.959363818168599891e-02,-4.330105334520299720e-02,3.487650156021099845e-01,-4.073096513748200032e-01,-8.741199970245400186e-02,2.143968194723100129e-01,-8.541046977043199595e-01,4.401077330112500297e-02,-7.695636898279199778e-02,-2.256084978580500111e-01,-1.300377547740899919e-01,1.287912130355799989e-01,-2.077299803495399888e-01,-3.287779986858400116e-01,-2.426973581314099959e-01,4.796830192208299815e-02,8.611333370208699989e-02,-1.361194998025899994e-01,7.599309086799599378e-02,-1.615761034190699857e-02,-2.110979706048999871e-01,1.960554420947999976e-01,3.403075272217399860e-03,2.859954535961199973e-01,-1.436329632997500050e-01,2.788827121257799746e-01,3.276517689228100050e-01,1.733188927173600069e-01,8.862051367759700149e-01,6.553059909492699869e-03,-9.664529561996500207e-02,1.356538683176000126e-01,-2.124770134687400114e-01,1.426934897899599930e-01,4.565336182713500279e-02,1.101323813200000001e-01,2.302392423152899992e-01,-2.195529639720900095e-01,2.948224358260599989e-02,1.461498588323600079e-01,-2.638023197650899987e-01,1.649257093668000107e-01,8.662427775561800866e-03,2.225356101989700019e-01,1.976227946579500044e-02,-4.488322138786299820e-01,-7.425217423588000194e-03,-2.996578812599199892e-01,-2.042054831981700014e-01,7.326638698577900288e-02,-1.304848045110700017e-01,2.767927050590500149e-01,3.665822744369500175e-01,-6.936176866293000676e-02,4.599064886570000121e-01,5.986776575446099702e-02,-2.667720615863800049e-01,1.201808750629400069e-01,1.352287083864200101e-01,2.969839572906500247e-01,9.846659749746300427e-02,-1.975826174020799963e-01,-8.438207954168300273e-02,-3.896931409835799887e-01,1.029378250241300002e-01,6.772601604461700453e-02,-1.483691036701199895e-01,-2.863581776619000263e-01,2.685296908020999920e-02,2.362196594476700107e-01,-3.486303091049199887e-01,-1.148925535380800056e-02,-2.806941568851499813e-01,-2.509323954582199923e-01,4.779460132121999827e-01,-2.689145207405099769e-01,1.518987715244299874e-01,-2.652089297771499932e-01,4.087559282779700265e-01,1.546784192323699958e-01,-9.329820424318299721e-02,-1.681023091077800125e-01,3.951702266931499813e-02,1.288500577211399989e-01,-1.274499017745299966e-02,-2.425908595323600092e-01,-1.429435461759600012e-01,3.018204681575300044e-02,-3.330528736114499871e-02,-2.690953947603700117e-02,1.390072256326700118e-01,-2.354572117328599945e-01,3.312416970729800125e-01,3.632775545120199845e-01,2.289324551820799969e-01,2.764841616153699833e-01,-7.450864464044600066e-02,-3.963744640350300164e-01,-2.141636162996299886e-01,-1.821970343589799923e-01,1.538243293762200092e-01,9.014180302619899388e-02,-1.060760915279399946e-01,2.469351589679699976e-01,-1.859464645385699999e-01,1.503247469663600011e-01,2.724181115627299921e-01,-6.641320884227799870e-02,-2.021343261003500161e-02,1.000402867793999950e-01,-7.592864334583300512e-02,3.571380078792599777e-01,-2.766959602013199966e-03,-4.815638363361400276e-01,-9.095133841037800204e-02,2.316924929618800061e-02,5.273227766156200064e-02,1.920790225267400009e-01,-4.540174603462199809e-01,3.955824375152600103e-01,-1.759448647499100016e-01,1.385288685560200073e-01,-7.999660074710800151e-02,8.261869102716400126e-02,-1.559042781591399862e-01,5.513405892998000067e-03,-1.367125660181000013e-01,-3.735565543174699799e-01
