-0.35673266649246,0.16386142373085,0.10604122281075,0.0084738070145249,0.37935069203377,0.11766552180052,0.72067296504974,-0.44963011145592,0.42473605275154,0.1181194037199,0.002328913891688,-0.19661167263985,-0.16579067707062,-0.15207721292973,0.038915857672691,0.25993996858597,-0.44789019227028,-0.39120727777481,-0.8271536231041,0.10668858885765,0.048647202551365,-0.026204977184534,0.16260208189487,-0.4071050286293,0.14598862826824,-0.44322842359543,-0.15383966267109,-0.43958431482315,0.69369238615036,0.25536239147186,0.068022608757019,0.14238554239273,0.19881312549114,-0.17395012080669,0.5935840010643,0.11711837351322,-0.067297026515007,0.21676133573055,-0.37034484744072,0.75261276960373,-0.13595572113991,-0.022584345191717,-0.14852672815323,-0.020593445748091,-0.084465689957142,-0.18436565995216,-0.14205266535282,-0.018772093579173,-0.11785770952702,0.21141746640205,-0.23354002833366,0.48379331827164,-0.49312403798103,0.080305397510529,0.071353599429131,0.041767071932554,0.12537463009357,0.52597057819366,-0.46192356944084,-0.34454315900803,-0.1826353520155,-0.59598845243454,0.37939712405205,-0.036847539246082,0.017720192670822,0.098467327654362,0.35639640688896,-0.54082298278809,-0.86892050504684,0.00298852333799,0.19343708455563,0.018529411405325,-0.59667158126831,0.46004888415337,0.034847285598516,0.9539720416069,0.027492947876453,0.3150617480278,-0.53064173460007,0.16008289158344,-0.14274336397648,0.21994479000568,-0.15714634954929,0.033390689641237,0.65587365627289,-0.32788863778114,0.49323710799217,-0.40908452868462,-0.022214794531465,-0.14642548561096,-0.3650795519352,0.022880448028445,-9.4078852271196e-05,-0.80365782976151,-0.11836866289377,0.012878463603556,0.59725075960159,1.2950382232666,-0.37020593881607,-0.74646925926208,0.17268578708172,1.1967434883118,0.051884286105633,0.35292971134186,-1.2062928676605,-0.0047142864204943,-0.32086810469627,0.35520687699318,0.057093273848295,-0.31224411725998,0.17709051072598,-0.010458036325872,0.55741101503372,-0.11383506655693,-0.24213983118534,0.43935999274254,-0.67736065387726,-0.20007106661797,0.19526080787182,-0.19524399936199,-0.084183238446712,0.617182970047,-0.46880912780762,0.26206105947495,0.25649839639664,0.18684497475624,-0.22908310592175,-0.44920381903648
0.39124271273613,0.43959602713585,0.12208372354507,-0.24409106373787,-0.30086210370064,-0.3201592862606,-0.50364053249359,0.018356187269092,0.14695930480957,-0.039134737104177,0.12490801513195,0.52620959281921,-0.42603716254234,-0.2278214097023,0.0077936481684446,0.40816512703896,-0.20219242572784,0.1787361651659,0.082094185054302,-0.34882453083992,-0.314063757658,0.4485644698143,0.13303659856319,-0.016503322869539,-0.024813352152705,-0.11681680381298,-0.40762782096863,-0.12120497226715,0.13296215236187,0.14845645427704,0.93741118907928,0.19431395828724,0.16230264306068,0.35567691922188,0.0088864741846919,0.64030069112778,-0.12051536887884,0.11704362928867,0.097735241055489,0.2314920425415,0.10903473198414,0.084198296070099,0.12667909264565,-0.087809041142464,0.50137400627136,-0.0071970876306295,0.043235693126917,0.0035528354346752,-0.12238422781229,-0.13663713634014,0.26199334859848,-0.33252817392349,0.5524417757988,-0.12095499038696,-0.26862072944641,-0.027141926810145,-0.72600173950195,0.23361499607563,0.118179731071,0.050678234547377,-0.6420773267746,-0.40015640854836,0.2176503688097,0.45403438806534,0.19488944113255,0.076131939888,-0.37227207422256,0.34823331236839,-0.40994477272034,0.48686644434929,0.25262066721916,-0.032851591706276,0.2911356985569,-0.6489229798317,-0.54825323820114,-0.16086448729038,0.61844730377197,-0.78059279918671,-0.88297575712204,0.00062019872711971,-0.090724170207977,0.42130741477013,-0.31297245621681,-0.25191614031792,0.15320947766304,-0.74733054637909,0.33525890111923,0.22236548364162,0.1680553406477,0.087691895663738,-0.58726137876511,-0.063138373196125,-0.03111850656569,-0.10940388590097,1.0314341783524,-0.18281556665897,0.59991145133972,-0.21816103160381,-0.21382069587708,0.41891327500343,0.0595957711339,-0.12380688637495,-0.24098873138428,-0.56258082389832,0.72349119186401,0.50098913908005,0.32558137178421,0.18176929652691,-0.35989394783974,0.65758776664734,-0.26456561684608,-0.15192992985249,-0.24070359766483,0.0015588153619319,-0.20799407362938,0.31727746129036,0.10485102981329,-0.37133818864822,-0.57788515090942,0.1687329262495,0.33743491768837,-0.21431349217892,0.25628131628036,0.82721984386444,-0.24446861445904,0.35440585017204,0.009318757802248,-1.0121384859085
-0.2875127196312,-0.19237032532692,0.97253400087357,-0.048582505434752,-0.62672030925751,0.038116883486509,0.005219706799835,-0.5254784822464,-0.90589648485184,0.95305240154266,0.25717908143997,-0.76432293653488,0.94517123699188,0.26908296346664,0.035993728786707,-0.048041768372059,0.36672672629356,-0.050397556275129,-0.31232160329819,0.43239706754684,0.1739307641983,0.023658888414502,0.64728969335556,-0.36436322331429,0.31649780273438,-0.17863826453686,1.0239530801773,0.31407034397125,-0.049151942133904,0.12290071696043,-0.56459492444992,-0.27076658606529,-0.35544610023499,0.042243294417858,-0.43261054158211,0.77918910980225,0.09577801078558,-0.79996168613434,-0.064172320067883,-0.19021368026733,0.15554714202881,0.33142173290253,0.41604664921761,0.26606607437134,-0.38687714934349,0.20349811017513,-0.4864681661129,-0.35925599932671,-0.13138291239738,-0.81346827745438,0.5495668053627,0.15914162993431,0.22792784869671,-0.24309079349041,-0.34465831518173,-0.022692248225212,-0.06707663834095,-0.87085247039795,0.31653493642807,-0.5876961350441,-0.17498557269573,-0.23978835344315,0.42225950956345,0.21456952393055,-0.30760756134987,0.022061351686716,-0.26387789845467,-0.22057589888573,-0.63232719898224,-0.43849766254425,-0.053742699325085,-0.42022201418877,-0.27043065428734,-0.47935435175896,0.54976439476013,-0.45082202553749,-0.39709636569023,0.20945566892624,0.34805476665497,-0.87745589017868,0.4814345240593,0.02239041775465,-0.72615617513657,-0.16902284324169,0.12091541290283,0.058429185301065,-0.41436380147934,0.41211572289467,0.30603465437889,-0.76624423265457,1.3378231525421,0.026608651503921,-0.305659532547,0.18069967627525,0.10714732855558,0.80294352769852,-0.12836107611656,0.1431981921196,0.33633124828339,-0.22846645116806,0.15057308971882,0.60791766643524,-0.15737627446651,-0.68197554349899,0.31447795033455,-0.16546043753624,0.052086811512709,-0.027230907231569,-0.048430677503347,0.076309807598591,-0.25640988349915,0.040051411837339,-0.038783323019743,-0.13910134136677,-0.29061681032181,0.14267630875111,-0.70400822162628,-0.78221201896667,0.040614143013954,0.2718790769577,-0.43835040926933,0.24965891242027,-0.35183063149452,0.035655379295349,0.18867972493172,0.87742429971695,-0.071148745715618,-0.65917778015137
0.24389013648033,-0.59031295776367,0.23130184412003,-0.3794986307621,0.1644404232502,-0.17678275704384,-0.74162811040878,0.051582787185907,-0.11362727731466,-0.1415061801672,-0.0066366898827255,0.22841581702232,-0.2177140712738,-0.11846602708101,0.2805643081665,-0.17731748521328,-0.059878248721361,-0.095172896981239,-0.58534336090088,-0.15641333162785,0.33118763566017,0.027209797874093,0.31996348500252,0.025516310706735,0.40614372491837,0.080620504915714,0.028497872874141,0.56891107559204,-0.052387051284313,-0.31789380311966,0.25508308410645,0.13798126578331,-0.130450502038,-0.24230994284153,0.088794656097889,0.69161587953568,0.39552682638168,0.086989045143127,-0.31330969929695,-0.41197317838669,-0.057207498699427,-0.053666409105062,0.1068362146616,0.464075922966,0.10218344628811,0.26125282049179,0.76746356487274,-0.10275422781706,0.14186112582684,-0.50173807144165,1.2256896495819,-0.027109313756227,0.24225831031799,-0.24005553126335,-0.37764462828636,-0.60707968473434,-0.58688968420029,0.62877267599106,-0.63839107751846,-0.11538837850094,-0.23697979748249,-0.10397241264582,0.28078016638756,0.47676405310631,0.30305737257004,0.13344350457191,-0.5524235367775,0.63435047864914,0.50822764635086,-0.43941834568977,0.064213648438454,-0.072360880672932,-0.52409815788269,-0.039851941168308,-0.074643678963184,-0.44063091278076,0.39101234078407,-0.165686622262,-0.3167479634285,-0.69765639305115,-0.33710277080536,-0.60901832580566,0.32419526576996,0.80242848396301,-0.41124391555786,0.19100503623486,0.373425334692,-0.75249600410461,0.19306272268295,-0.35787543654442,0.51618582010269,-0.48884081840515,-0.23111173510551,0.045277830213308,-0.26963132619858,0.71755599975586,0.56831324100494,-0.14672316610813,-0.50029343366623,0.34210729598999,-0.2686208486557,-0.63440775871277,-0.33352667093277,0.79459869861603,0.041127171367407,0.088277474045753,-0.48992106318474,0.40031912922859,-0.52655458450317,0.86851370334625,-0.48939618468285,-0.0469277985394,-0.37504988908768,0.13831667602062,-0.50811338424683,-0.058046765625477,0.29983684420586,0.55824565887451,-0.066686607897282,0.038425136357546,-0.085416361689568,-0.35453459620476,0.48386862874031,0.1299584209919,-0.33571717143059,-1.0970932245255,0.38161772489548,-0.18463376164436
-0.29498320817947,0.32421341538429,-0.27711418271065,-0.40251049399376,-0.31539502739906,-0.2140259295702,0.018608722835779,0.72186672687531,0.43337440490723,0.77401638031006,-0.13213680684566,-0.48191821575165,0.039651457220316,-0.019374668598175,-0.1186186298728,0.084737025201321,-0.44524770975113,0.35150763392448,-0.87493073940277,-0.018966626375914,0.59000265598297,-0.46020656824112,-1.0105575323105,-0.22638490796089,-0.67277580499649,0.31588226556778,-0.39377489686012,-0.3902200460434,0.44629523158073,-0.44131982326508,-0.31816637516022,-0.087221749126911,-0.42729875445366,0.49062886834145,-0.16296254098415,0.60389292240143,0.71526128053665,0.36686989665031,0.13788303732872,-0.14991438388824,0.17709299921989,0.20481151342392,0.18249228596687,-0.092508263885975,-0.217176258564,0.01732979901135,0.72545665502548,0.5680730342865,-0.23939400911331,-0.043867457658052,-0.19398999214172,-0.97886019945145,0.16233311593533,0.40814828872681,0.1737929135561,0.21808488667011,0.20517700910568,-0.74464279413223,0.40809559822083,0.29706963896751,-0.24871768057346,0.013717013411224,-0.023893883451819,-0.083520762622356,-0.21986572444439,-0.3417926132679,0.91500580310822,0.070274278521538,-0.40330028533936,0.12727127969265,-0.56749421358109,0.95662552118301,-0.16328202188015,0.24819530546665,-0.19195078313351,0.083362199366093,0.70685803890228,-0.55745285749435,-0.94796627759933,0.5370215177536,0.80145108699799,-0.082346484065056,0.31802096962929,-0.27619764208794,-0.79852670431137,0.92268544435501,-0.083907097578049,0.67619645595551,-0.8114218711853,-0.15632432699203,0.09066990762949,-0.096098393201828,0.59859138727188,-0.029363784939051,0.25699761509895,0.3717777132988,-0.21833266317844,-0.84784352779388,0.13210271298885,-0.53062444925308,-0.091025121510029,-0.04026673361659,-1.0104192495346,0.11390237510204,0.92481797933578,0.43849277496338,-0.58172571659088,-0.40206173062325,0.14505855739117,-0.23267185688019,-0.13222751021385,0.44485595822334,-0.17222020030022,-0.0084271132946014,-0.1728695333004,-0.039707705378532,0.53198605775833,-0.6238352060318,-0.29875227808952,-0.18712313473225,-0.24995128810406,0.96840190887451,0.50952559709549,-0.708516061306,-0.39988997578621,0.61059236526489,-0.49370643496513,-0.96553367376328
-0.24772666394711,0.22192746400833,0.03632516041398,0.63724726438522,-0.096443362534046,0.31124106049538,0.009081088937819,0.19628512859344,-0.1248751655221,0.32649794220924,-0.15543937683105,0.025264320895076,-0.020823325961828,-0.25181198120117,0.19005796313286,0.24641542136669,0.25919586420059,-0.1051988452673,-0.24756430089474,-0.15721383690834,0.29316973686218,-0.45825991034508,-0.53244429826736,-0.020339293405414,0.22938327491283,0.10140009969473,-0.10276921838522,-0.25620946288109,0.17764550447464,-0.31407025456429,-0.16354790329933,0.44221240282059,0.14583736658096,0.082528226077557,-0.27481359243393,0.080709867179394,0.19375640153885,0.20990838110447,0.16837380826473,0.24969287216663,-0.23018090426922,-0.13501989841461,0.43489044904709,-0.0049005462788045,0.08008499443531,0.37861800193787,-0.090454429388046,0.0044803819619119,0.20639729499817,-0.037779688835144,-0.19777396321297,0.314911454916,0.47129055857658,0.057481825351715,0.22583286464214,0.14092949032784,-0.15546101331711,0.027002243325114,0.40117511153221,0.10889613628387,0.094357773661613,-0.24295915663242,0.36709770560265,-0.015565623529255,0.14309372007847,0.14767134189606,0.12820997834206,0.062361314892769,-0.044012665748596,0.13794958591461,-0.50232470035553,0.19150593876839,0.025666566565633,-0.22539304196835,-0.13183397054672,0.35863322019577,0.043333500623703,-0.03668025508523,0.011694331653416,0.21004518866539,-0.30236521363258,-0.034423068165779,0.23417504131794,0.013885736465454,-0.28821304440498,0.17492379248142,-0.054418489336967,0.077808402478695,-0.061246018856764,-0.51956015825272,0.31722968816757,-0.035942401736975,-0.77337336540222,-0.13420781493187,0.27105835080147,0.077620327472687,0.242989346385,-0.30119982361794,-0.38331630825996,-0.34833282232285,0.057270333170891,0.036269824951887,0.030695967376232,-0.068512968719006,-0.49627789855003,0.20882172882557,0.34590634703636,-0.1269426047802,-0.17730836570263,-0.23700539767742,0.21876174211502,0.431725949049,-0.4838080406189,-0.16050234436989,0.34359446167946,-0.3166591823101,0.28875443339348,-0.16773720085621,-0.32669517397881,0.22541183233261,-0.31076872348785,-0.55397814512253,0.38074344396591,-0.21277448534966,-0.14664655923843,-0.083338022232056,-0.19716615974903,0.035671427845955
0.22474937140942,-0.14943787455559,0.39757281541824,-0.52300065755844,-0.016689682379365,0.11545392125845,0.60297811031342,-0.30895733833313,-1.7715097665787,0.10923783481121,-0.46996060013771,-0.95882469415665,0.66827577352524,0.2662595808506,-0.11464836448431,0.27294182777405,0.2573299407959,-0.054073803126812,0.42025306820869,-0.48210856318474,-0.13371543586254,0.012067371048033,0.4386126101017,0.065852425992489,0.33383882045746,0.45523688197136,0.012246638536453,0.90929013490677,0.37554129958153,-0.12211429327726,-0.56290739774704,-0.078334957361221,-0.21529410779476,0.12559241056442,0.1719029545784,-0.18429304659367,0.70429390668869,0.058189284056425,-1.065739274025,-0.39122697710991,-0.23622584342957,-0.18601454794407,-0.0033045425079763,-0.31600314378738,0.11805756390095,0.58719098567963,0.32092925906181,-0.20423360168934,-0.072140209376812,-0.99182802438736,-0.30760118365288,0.11123923957348,0.25746157765388,-0.46954530477524,0.090366050601006,-0.26492691040039,-1.1608309745789,-0.050544325262308,-0.13741318881512,-0.25541490316391,-0.063265025615692,0.36551177501678,0.03119133785367,0.083090052008629,0.20734113454819,0.0019394783303142,0.18994422256947,-0.74800968170166,0.24608089029789,-0.016789486631751,-0.066868238151073,-0.16026179492474,-0.29600554704666,-0.55187916755676,-0.1591430157423,0.21530652046204,0.99013358354568,0.99277013540268,-0.6346173286438,-0.07117061316967,0.049710463732481,-0.50671893358231,-0.25756406784058,-0.15044866502285,0.39780414104462,-0.26278522610664,0.3742133975029,-0.064907900989056,-0.76291900873184,-0.37026390433311,-0.74730610847473,-0.3203219473362,0.56512463092804,-0.13500793278217,0.026248874142766,0.35048681497574,0.10213124006987,-0.035013429820538,0.32240328192711,-0.63202059268951,-0.19154235720634,-0.16696201264858,-0.22233571112156,-0.23885372281075,-0.67389649152756,-0.66121584177017,-0.25620585680008,-0.51040118932724,-0.35878270864487,-0.045801650732756,-0.12232098728418,0.069646462798119,-0.4504411816597,-0.12241806089878,-0.13670165836811,-0.47067192196846,0.088524669408798,0.38976159691811,0.46302631497383,-0.12776383757591,0.17333729565144,-0.3786997795105,-0.475113093853,0.41166856884956,-0.76095098257065,0.45283699035645,0.24917212128639,-0.61816972494125
0.12573385238647,0.024415321648121,0.10090383887291,-0.015371435321867,0.64299196004868,0.77320837974548,-0.016074793413281,-1.15509557724,-0.5509437918663,0.32828864455223,0.54798716306686,-0.24236960709095,0.10050705075264,-0.78123211860657,-0.44547554850578,0.21172791719437,0.94106566905975,0.22954335808754,0.36395487189293,-0.15091428160667,-0.3000293970108,-0.48352089524269,-0.11421886086464,-0.46346133947372,-0.43228328227997,0.43110862374306,-0.10007387399673,-0.10801665484905,-0.028670355677605,-0.21482206881046,-0.20737838745117,-0.47485995292664,-0.17748276889324,-0.0040182862430811,-0.13758233189583,0.26665738224983,-0.094092302024364,-0.31019955873489,-0.2871336042881,-0.0062082498334348,0.12794205546379,-0.12683545053005,0.061195228248835,0.037480592727661,0.64628005027771,-0.037215087562799,0.39927294850349,-0.29168394207954,-0.10495910793543,0.41556733846664,0.32462751865387,0.051403276622295,0.31364667415619,-0.058485813438892,0.27964723110199,-0.18327113986015,0.214569196105,-0.34119462966919,-0.098677173256874,-0.10419111698866,-0.082570321857929,0.13501381874084,0.14672127366066,-0.40777707099915,-0.15910176932812,-0.060445573180914,0.090268321335316,0.079296447336674,-0.4119513630867,-0.30683460831642,1.1877913475037,0.028168639168143,-0.023958144709468,-0.20938321948051,0.20528428256512,-0.16545888781548,-0.11756327003241,0.15917806327343,0.063146457076073,0.15696789324284,0.23943641781807,-0.10429924726486,-0.10443323850632,-0.071866780519485,0.15438903868198,0.61893951892853,0.18325215578079,0.029200809076428,0.34157758951187,0.41897138953209,0.43400210142136,-0.18362820148468,-0.20093442499638,-0.17585432529449,-0.44037649035454,0.041732367128134,0.55515271425247,-0.30314308404922,-0.15321636199951,-0.19043914973736,-0.42375335097313,-0.31299385428429,0.10870124399662,-0.24567487835884,0.20313139259815,-0.086786478757858,-0.37966972589493,-0.56438511610031,0.44092133641243,0.26398289203644,0.015918953344226,-0.2093585729599,0.23898985981941,-0.13826118409634,-0.048941999673843,0.41420030593872,-0.09221401065588,-1.4318310022354,-0.59450602531433,-0.078593410551548,-0.61727714538574,-0.9023819565773,0.03765955939889,-0.39893084764481,0.64866644144058,0.19070445001125,-0.19908015429974,-0.32581380009651
0.22199028730392,0.06750313192606,0.20418411493301,0.09155660122633,0.1312874853611,0.72749322652817,0.087645582854748,-0.42081466317177,-0.19785930216312,-0.035293370485306,-0.27219960093498,-0.23852668702602,0.32785251736641,-0.074362851679325,-0.10682543367147,-0.607037961483,-0.23709970712662,0.55721682310104,0.20052425563335,-0.2945054769516,0.46770626306534,-0.10487592220306,-0.1493393778801,-1.0206542015076,0.40186229348183,0.36530888080597,-0.0020199345890433,0.01212942134589,0.27886673808098,0.45347073674202,-0.36485812067986,0.96350526809692,0.57483732700348,0.86170208454132,0.48678305745125,0.52172881364822,0.77527332305908,-0.63548219203949,0.051267888396978,0.17783284187317,-0.062797345221043,-0.97207987308502,0.78413182497025,0.051418714225292,-0.086624592542648,-0.095584914088249,0.21701835095882,0.016881834715605,-0.089195623993874,-0.59906458854675,0.35059323906898,-0.42875066399574,0.21072600781918,0.33437025547028,0.0052779875695705,-0.12844264507294,0.090863950550556,-0.39891493320465,0.098492495715618,-0.68799847364426,0.31287723779678,-0.58619809150696,-0.29247149825096,-0.099018082022667,0.31523486971855,-0.09889529645443,0.43227684497833,-0.077174633741379,-1.2604523897171,0.16546653211117,-0.13278034329414,0.34615284204483,-0.18751257658005,-0.25715234875679,-0.26715093851089,-0.073817186057568,-0.37553635239601,0.33587443828583,-0.055012218654156,-0.48306766152382,-0.72647142410278,0.67298173904419,-0.21771101653576,-0.43036785721779,-0.73876821994781,0.10813766717911,-0.026563160121441,-0.61817634105682,0.33725094795227,0.31488433480263,-0.16298078000546,-0.15267737209797,0.031736172735691,-0.27925753593445,-0.10463943332434,0.67955458164215,0.011694262735546,-0.38398763537407,0.34805923700333,-0.24516838788986,-0.32222431898117,-0.19575169682503,-0.0081781707704067,0.3000348508358,0.73828077316284,0.21756927669048,-0.15209719538689,-0.19329288601875,-0.10342313349247,0.067845150828362,0.28984192013741,0.10210543125868,-0.5377504825592,-0.20484288036823,0.32851669192314,-0.011124320328236,0.14122094213963,0.50895261764526,-0.67429852485657,-0.17912946641445,-0.2487870901823,0.58082884550095,0.013637439347804,0.16351941227913,0.12907843291759,-0.089379973709583,-0.78997057676315,-0.63808971643448
0.12935991585255,-0.024627080187201,-0.28781312704086,0.17343831062317,-0.071009382605553,0.010098858736455,0.40301251411438,0.05430993437767,-0.16469450294971,-0.5266991853714,0.043163672089577,-0.082661211490631,0.10718772560358,0.083465836942196,0.22378650307655,0.15733723342419,-0.1095834299922,-0.043786127120256,0.2971958220005,-0.21467751264572,-0.15062087774277,0.2225329130888,-0.42259231209755,-0.11793037503958,0.083162851631641,-0.28470170497894,0.093122400343418,-0.68918401002884,0.23864194750786,-0.014364774338901,-0.12836588919163,0.3265982568264,-0.094768069684505,0.040769554674625,0.093874886631966,-0.25158849358559,0.15342883765697,0.0075566535815597,-0.11834559589624,0.046915326267481,-0.12373623251915,-0.13742481172085,-0.059039790183306,0.24280865490437,-0.12823089957237,0.24813185632229,0.14676374197006,0.15774931013584,0.13931912183762,0.14520269632339,-0.061776634305716,-0.28898751735687,-0.15665866434574,-0.22251495718956,0.31017684936523,-0.48335140943527,0.16115444898605,-0.047268714755774,-0.11418350785971,-0.048953983932734,-0.33245196938515,0.01725072786212,-0.51475369930267,0.14862982928753,0.091347150504589,0.18594269454479,0.084111422300339,0.54575717449188,0.35919845104218,0.029107449576259,-0.27824401855469,-0.0089070163667202,0.2259888201952,-0.027020672336221,-0.35223922133446,0.035442374646664,0.12106972187757,-0.400116533041,0.24603809416294,0.17968659102917,-0.23743070662022,0.091007307171822,0.58575236797333,-0.066529631614685,-0.060576349496841,-0.19065034389496,-0.16251093149185,0.071742027997971,0.26491355895996,0.046231023967266,-0.11798544973135,-0.4325792491436,-0.066310361027718,-0.18322943150997,0.044300269335508,-0.5695977807045,-0.047410517930984,-0.21920004487038,0.13489654660225,-0.067634582519531,-0.03085870295763,0.15611442923546,-0.019279588013887,-0.14371998608112,-0.083481200039387,0.18148463964462,-0.014158196747303,0.28804162144661,-0.095358654856682,0.14307700097561,0.16753742098808,0.1704683303833,-0.011456453241408,0.097513370215893,-0.1331262588501,0.10269767045975,0.063997648656368,0.028354907408357,-0.17067620158195,0.11583348363638,-0.2789189517498,-0.017937909811735,-0.030564559623599,0.46697530150414,0.14846836030483,0.47117829322815,-0.153275847435,-0.11465057730675
-0.95992630720139,0.15783241391182,-0.27946579456329,-0.23818466067314,-0.015222068876028,-0.29484471678734,0.15039613842964,0.069174841046333,-0.31811141967773,2.1308240890503,0.11084637790918,-0.13767604529858,-0.19513373076916,0.12848556041718,-0.23965233564377,0.056961435824633,-0.2821649312973,-0.51649862527847,-0.078029848635197,0.45970660448074,0.23143227398396,0.14807038009167,0.33422526717186,-0.32773530483246,0.35330134630203,0.066859267652035,0.24893248081207,0.12684094905853,0.089664161205292,-0.20656271278858,0.28366008400917,1.5692847967148,-0.072571851313114,0.31374931335449,0.13254573941231,-0.04334669187665,0.21425265073776,-0.077468112111092,-0.16414259374142,0.448366522789,0.21875862777233,-0.28117772936821,-0.099809139966965,0.11015002429485,-0.58493119478226,-0.17559012770653,-0.049152951687574,-0.37224578857422,0.36419105529785,0.29069313406944,-0.23425126075745,0.25573441386223,0.63950324058533,-0.14968256652355,0.08709953725338,-0.57339298725128,-0.02480017580092,0.27483677864075,0.54082632064819,-0.45378965139389,-0.44025465846062,-0.30474525690079,-0.082587964832783,0.066361144185066,0.66426813602448,1.3291554450989,-0.019295008853078,-0.16432876884937,-0.33119577169418,0.04658842086792,0.25115498900414,-0.34093114733696,0.12974970042706,0.18215641379356,-0.51004105806351,-0.19628478586674,0.15676409006119,-0.031466815620661,0.075903259217739,-0.48418816924095,-0.27782487869263,0.076933868229389,-0.26967626810074,-0.035583883523941,-0.37914219498634,-0.44979459047318,0.002500802045688,-0.71157711744308,-0.12708188593388,-0.38254562020302,-0.28557866811752,0.032016705721617,0.17126706242561,-0.083374686539173,0.16814312338829,-0.17114681005478,0.041248846799135,0.20156075060368,0.01936306245625,-0.45685583353043,-0.42039316892624,0.41713258624077,0.25477239489555,0.34466332197189,0.19390109181404,0.23962685465813,-0.33961823582649,-0.17488211393356,-0.23708797991276,-0.26713436841965,1.4801422357559,0.064356349408627,0.45776703953743,-0.50957363843918,-0.18289643526077,0.1782617866993,-0.38290357589722,0.072213537991047,0.13685929775238,-0.28282952308655,-0.22532920539379,-0.1715645045042,-0.25059986114502,-0.12479420006275,-0.19765987992287,0.058476019650698,-0.19694316387177,0.17510980367661
-0.80834329128265,0.48416128754616,0.27900144457817,0.241190508008,0.25714358687401,0.55478286743164,0.1706260740757,-0.53791159391403,-0.40627154707909,1.3737918138504,0.1288446187973,-0.19585059583187,-0.25991314649582,0.19651201367378,0.082366704940796,0.4554583132267,-0.10185178369284,-0.11853931844234,-0.15173168480396,-0.19390197098255,0.0040198075585067,-1.1042429208755,0.63378077745438,-0.44291347265244,0.27827674150467,0.2261958271265,-0.14289294183254,-0.57063841819763,-0.039399031549692,0.078675843775272,-0.052145518362522,-0.37097275257111,-0.087179325520992,0.22890394926071,0.036528535187244,0.63277685642242,0.29492297768593,0.14998088777065,0.071477383375168,0.54805487394333,0.81147009134293,-0.21136130392551,0.036101702600718,0.042612686753273,-0.43304625153542,-0.094500087201595,-0.62649315595627,-0.17472797632217,-0.15770258009434,-0.56195324659348,-1.2595405578613,-0.65843564271927,0.40702146291733,-0.084437668323517,-0.36800733208656,0.24010163545609,-0.20298601686954,-0.16591660678387,0.30911961197853,-0.49266225099564,0.20938734710217,-0.26724871993065,0.35775339603424,-0.038351859897375,0.24642826616764,-0.13093830645084,0.81331932544708,-0.50091803073883,-0.59856432676315,-0.54938644170761,0.17223414778709,0.81096339225769,0.51577442884445,-0.28146514296532,0.21614763140678,0.31165730953217,-0.067497886717319,-0.29610168933868,0.29580557346344,0.13857083022594,-0.35653606057167,0.32264158129692,-0.15162205696106,0.13771845400333,0.17003300786018,1.467169046402,0.33891659975052,-0.85324478149414,0.81813704967499,-0.78964531421661,0.7208172082901,0.080199010670185,-0.30871084332466,0.035024046897888,1.1190984249115,0.16768619418144,0.19183957576752,0.25051411986351,0.17686483263969,-0.97082310914993,-0.35033211112022,1.000819683075,-0.39629513025284,0.76597189903259,-0.21719561517239,-0.0047577037476003,0.38733291625977,0.0044048307463527,0.1603792309761,-0.48099622130394,0.23660792410374,0.33851876854897,0.37733334302902,-0.3717797100544,0.67997688055038,-0.082951411604881,0.64523136615753,0.45171442627907,-0.25315770506859,-0.13056553900242,-0.030916141346097,0.040397416800261,-0.77880591154099,-0.54162091016769,-0.17251364886761,0.75451278686523,-0.43746739625931,-0.15420223772526
0.37018647789955,-0.37795966863632,-0.10230827331543,0.003126472234726,0.26285859942436,-0.4068555533886,0.11203714460135,-0.23189975321293,-0.51034867763519,-0.7100875377655,0.47694793343544,-0.075433298945427,-0.055925045162439,-0.10239755362272,-0.32957294583321,0.33848437666893,0.15657022595406,-0.088192492723465,0.12130867689848,-0.021716287359595,-0.53129005432129,0.39137211441994,-0.73237901926041,-0.11760877072811,-0.44907024502754,0.25256460905075,-0.059583067893982,0.028157161548734,0.14176815748215,-0.33209082484245,-0.25945630669594,0.33099183440208,0.37873595952988,-0.28791391849518,0.19735671579838,0.5444433093071,0.034103855490685,-0.11425742506981,0.15710735321045,0.041935466229916,-0.16122348606586,0.11285042762756,0.20691180229187,-0.06010327860713,0.58618724346161,0.19134198129177,0.0048720794729888,0.7298024892807,0.64975517988205,-0.34160932898521,-0.71236568689346,0.092183344066143,-0.055669758468866,0.51897293329239,-0.090551301836967,0.26361620426178,-0.23062910139561,-0.059985268861055,0.39567798376083,-0.47413581609726,0.10231288522482,0.23396810889244,-0.38496300578117,0.068247020244598,0.12686866521835,0.36172312498093,0.072911538183689,0.2475713789463,-0.17547702789307,-0.2121412307024,0.065637476742268,0.15542560815811,-0.4830025434494,-0.41959083080292,-0.47556558251381,-0.13258692622185,-0.08678437769413,0.31388846039772,-0.46199861168861,0.40787866711617,-0.083947882056236,0.030694924294949,-0.42016285657883,-0.14638087153435,-0.77283781766891,-0.34593111276627,-0.082348674535751,0.48075556755066,0.22298748791218,0.20422014594078,-0.072054840624332,0.10322441160679,0.047758888453245,-0.11957901716232,-0.14485816657543,0.23506949841976,-0.35200816392899,-0.53775399923325,-0.12970492243767,-0.009004095569253,-0.41617450118065,-0.06190163642168,-0.63952744007111,0.057026375085115,-0.149219840765,0.5059660077095,0.05360385030508,0.45611354708672,0.12593279778957,0.060550536960363,0.10551050305367,0.21989324688911,0.36845713853836,0.20714940130711,0.25793096423149,0.13363999128342,0.10293565690517,-0.091322116553783,0.63309901952744,-0.14243361353874,0.024340882897377,-0.36139157414436,-0.21301007270813,-0.24735732376575,0.07098414003849,0.065725177526474,0.034411244094372,0.096110656857491
-0.27789175510406,0.29249545931816,-0.01270620059222,0.32927215099335,0.012205364182591,0.4309421479702,-0.25592797994614,-0.1020837649703,1.2613979578018,-0.10337372124195,0.28014889359474,-0.091827780008316,-0.80611884593964,0.13584327697754,-0.29819574952126,0.012178117409348,0.1825830489397,0.019193507730961,-0.19340220093727,-1.0181560516357,0.16066806018353,0.029086235910654,-0.017681069672108,0.64298260211945,-0.024801136925817,-0.37097778916359,0.33342900872231,-0.090619556605816,-0.36084532737732,0.33877369761467,-0.36056518554688,0.38852095603943,-0.34802156686783,0.086664311587811,0.40014970302582,0.016249258071184,-0.22158218920231,-0.77325731515884,0.41401645541191,-0.28864219784737,-0.30076590180397,0.72065657377243,-0.88561588525772,0.26024961471558,0.1169530376792,0.025967858731747,0.062083810567856,0.2391592413187,-0.24942657351494,0.25930270552635,0.4223992228508,-0.44504019618034,-0.42679873108864,-0.29571881890297,0.060284897685051,0.43944081664085,0.32834315299988,0.43881663680077,-0.1809945255518,0.45945596694946,0.4942689538002,0.28685495257378,-0.10230462998152,0.038576189428568,-0.25655522942543,-0.040664043277502,0.17529529333115,-0.010899726301432,0.039707735180855,0.26869580149651,0.1668850928545,0.31538680195808,-0.47030568122864,-0.088500373065472,0.051555909216404,-0.054730717092752,-0.20330391824245,-0.63090598583221,0.052404221147299,0.043397810310125,0.045632988214493,0.38138094544411,0.58908534049988,0.093054085969925,-0.06912037730217,-0.18977573513985,0.53641718626022,0.5072603225708,-0.16833861172199,0.15635235607624,0.53075361251831,0.034796517342329,-0.30470943450928,0.60520756244659,-0.48885887861252,0.40072926878929,0.1334273070097,0.12019220739603,-0.5699245929718,0.75706493854523,-0.010730283334851,-0.47806707024574,-0.14906081557274,-1.2066113948822,-0.038608212023973,0.76054900884628,-0.25155535340309,0.018876977264881,0.09990406781435,0.31949806213379,0.0038488414138556,-0.2483443915844,0.16306620836258,-0.36372113227844,-0.10673090815544,-0.11814051866531,-0.52868264913559,-0.17474764585495,0.85753893852234,0.58090788125992,0.44602125883102,-1.0239075422287,-0.062758162617683,-0.07936479896307,0.10115683823824,1.4222770929337,0.61419022083282,-0.73464274406433
-0.32679289579391,0.17827044427395,-0.11247956752777,-0.15015059709549,0.30248406529427,0.055409409105778,0.24239820241928,-1.7012273073196,-0.55428451299667,0.51181048154831,0.3029873073101,-0.41299459338188,-0.26764127612114,-0.046945489943027,0.40030542016029,0.77448749542236,1.1792516708374,0.256212413311,-0.36431506276131,0.0039308378472924,-0.43823099136353,0.29168456792831,-0.16719962656498,-0.15525087714195,0.87540358304977,-0.11247359216213,-0.31941539049149,0.22288230061531,0.43151164054871,-0.083891719579697,-0.034292347729206,0.20109231770039,-0.39113584160805,0.68631565570831,0.30237430334091,0.69814085960388,0.17690159380436,0.39652192592621,0.033600203692913,-0.10150287300348,-0.99755489826202,-0.1132065653801,-0.06133570894599,-0.2802412211895,0.39224472641945,0.79236501455307,-0.34610345959663,0.2862773835659,0.17286764085293,-0.44376388192177,1.3245223760605,-0.095036059617996,0.70053005218506,0.37992998957634,0.56706827878952,0.19574803113937,0.22114390134811,-0.1944213360548,0.076079785823822,-0.66125828027725,-0.26040086150169,-0.27953287959099,-0.14189447462559,-0.42564561963081,0.49441656470299,0.19065964221954,0.33678448200226,-0.029324185103178,-0.637759745121,1.1514163017273,-0.79655134677887,0.53468489646912,0.095528326928616,-1.9283341169357,-0.54267674684525,0.029407151043415,-0.31337296962738,0.072310581803322,-0.089326694607735,0.25402626395226,0.48496320843697,-0.89018160104752,-0.24924968183041,0.30892336368561,-1.2521681785583,0.21812345087528,-0.141576603055,-0.017924884334207,-0.41598269343376,-1.4777380228043,0.15393300354481,0.13758510351181,0.13084743916988,-0.44239071011543,1.7122008800507,-0.54303997755051,-0.16406808793545,-0.73084628582001,-0.59879744052887,-0.33535018563271,-0.028163135051727,0.38768872618675,0.39520367980003,0.64543551206589,-1.1324381828308,0.63939881324768,-1.0389897823334,-0.41348621249199,-0.88711684942245,-0.33914372324944,1.2272045612335,0.7793465256691,-0.5565043091774,0.044837176799774,0.40368741750717,0.15722288191319,-0.62659680843353,0.066929586231709,-0.055903058499098,-0.12584283947945,-0.072384461760521,-0.58369779586792,-0.15153527259827,-0.7571759223938,-0.095323361456394,0.33170881867409,-0.4326868057251,-0.1455015540123
-0.59367835521698,0.35890164971352,-0.0068895248696208,-0.4112800359726,0.30006539821625,0.62840473651886,-0.31681868433952,0.24840968847275,0.49582600593567,0.13604827225208,-0.48973712325096,0.11871799826622,-0.83037567138672,0.48306930065155,0.085416615009308,0.63470494747162,0.68945801258087,-0.07867655903101,0.033501092344522,0.42569836974144,0.3614427447319,0.25453275442123,0.32064896821976,0.20752757787704,0.060587242245674,-0.18600106239319,0.08345290273428,-0.25726309418678,-0.055124744772911,-0.3460299372673,-0.34944155812263,0.10471317917109,-0.074535094201565,-0.010813224129379,0.055605601519346,-0.1877960562706,-0.15025728940964,0.088792115449905,-0.22460626065731,0.58007735013962,-0.094302512705326,-0.7155168056488,0.24976715445518,-0.056998938322067,-0.15163369476795,-0.44479215145111,-0.37483564019203,-0.70104151964188,0.35726088285446,-0.018953252583742,0.81685781478882,0.24105599522591,-0.012426850385964,-0.15529671311378,0.17433263361454,0.11055497825146,-0.090312346816063,0.21989922225475,0.21062107384205,0.55246776342392,-0.37748262286186,0.081664845347404,0.72263920307159,-0.070049844682217,-0.22358624637127,0.024540057405829,0.12867841124535,-0.022388668730855,-0.25357607007027,0.82173854112625,-0.68201714754105,0.36848840117455,-0.41713219881058,-0.24321290850639,-0.50164937973022,-0.56996041536331,-0.12917810678482,-0.45341172814369,0.7938015460968,-0.28300529718399,-0.27353522181511,-0.030074160546064,0.55703169107437,-0.84458839893341,0.018078316003084,1.0056256055832,0.025435028597713,-0.02397570386529,0.62313169240952,-0.35066962242126,0.084621846675873,0.29722306132317,-0.80946546792984,-0.12100980430841,0.11866347491741,0.80204260349274,0.52742600440979,0.65427231788635,-0.09278979152441,-0.51909387111664,-0.27375894784927,0.82313871383667,0.30270418524742,0.13455060124397,-0.7192018032074,0.16174785792828,-0.054539825767279,-0.98166286945343,-0.79734474420547,0.27295741438866,0.10750260204077,-0.56909412145615,0.15059071779251,-0.15444092452526,0.11416842788458,0.14258113503456,-0.40226817131042,0.15666326880455,-0.86514747142792,-0.89111465215683,0.24611219763756,-0.88537454605103,0.59841114282608,0.71076112985611,0.083166964352131,-0.34456062316895,-0.32724717259407,0.15915340185165
-0.41663613915443,-0.62623745203018,-0.017046544700861,0.2186046987772,0.1920041590929,0.33444941043854,-0.040151346474886,0.030465684831142,1.1208500862122,0.57885587215424,0.54403603076935,-0.97027230262756,-1.1434317827225,-0.69989240169525,0.184240847826,-1.0262014865875,0.40832129120827,-0.2393207103014,0.28698724508286,-1.0055483579636,-0.19082061946392,0.44721102714539,0.38859441876411,0.083797350525856,0.44759580492973,0.019796501845121,0.27082201838493,0.030665600672364,-0.049732882529497,-0.012826808728278,-0.33751058578491,0.041428830474615,0.34835731983185,0.042629636824131,0.46829229593277,0.348612844944,-0.22868505120277,-0.32270380854607,0.42949265241623,-0.26875308156013,-0.057569187134504,0.33432957530022,0.49292093515396,-0.30992987751961,-0.13139969110489,0.10659582912922,-0.038802940398455,-0.36661139130592,0.24803914129734,0.1655156314373,0.57476156949997,0.22326502203941,-0.19036847352982,0.44293248653412,-0.19295030832291,-0.14796835184097,0.071787029504776,0.038702897727489,0.46827059984207,0.10694665461779,0.1310185790062,0.61204713582993,0.64793545007706,-0.098031908273697,0.072533167898655,0.081517145037651,-0.15421812236309,0.89789086580276,-0.48189058899879,-0.50039631128311,-0.149334192276,0.056848768144846,-0.55303400754929,-0.20554381608963,0.19401375949383,0.46887937188148,-0.60060185194016,-0.58786517381668,-0.91597062349319,0.43347188830376,0.24544636905193,0.02326613292098,-0.55109667778015,-0.30365523695946,-0.29147350788116,0.38905307650566,0.25167411565781,0.1479449570179,-0.36077198386192,0.20211608707905,-0.38606932759285,-0.16600051522255,-0.47529429197311,-0.67485719919205,0.36486327648163,0.21003697812557,-0.083270937204361,0.28509598970413,0.26182714104652,-0.4222786128521,-0.27101489901543,0.30245965719223,-0.26912409067154,-0.58604884147644,0.51344150304794,-0.52448308467865,0.55386692285538,-0.27832725644112,0.5802087187767,0.56324017047882,-0.12989643216133,-0.03070505708456,-0.13521783053875,-0.29263460636139,0.51022881269455,0.051437672227621,0.12006942182779,-0.24471236765385,-0.090582646429539,0.25223079323769,-0.64717197418213,0.5491663813591,0.18426483869553,-0.36588352918625,0.35500013828278,0.07171893119812,0.0069046365097165,-0.0032920979429036
0.011962802149355,-0.71054434776306,0.26491802930832,-0.1950159817934,-0.31654930114746,0.50836831331253,-0.86693894863129,0.057545740157366,-0.1025353372097,0.3248016834259,-0.93432110548019,-1.0553344488144,0.095167875289917,-0.31542041897774,-0.04010970517993,0.82869273424149,0.12528719007969,-0.21214205026627,-0.41591560840607,-0.00038811002741568,0.051942203193903,-0.31506216526031,-0.33323013782501,-1.4308325052261,0.27047881484032,-0.17925445735455,-0.27906361222267,-0.36226713657379,0.23772843182087,0.29467394948006,-0.67259413003922,-0.24176880717278,-1.2794070243835,1.3708930015564,0.48455959558487,-0.9158331155777,1.677796125412,-0.38130596280098,-0.1533091366291,-0.71802240610123,0.083521865308285,-0.18047927320004,1.5993145704269,0.38452377915382,-0.16041603684425,0.051468219608068,-0.07509770989418,-0.027189979329705,-0.47646230459213,-0.48710876703262,-0.27555784583092,0.78573435544968,0.13922214508057,0.00061964406631887,-0.058359198272228,-0.024989845231175,0.3580467402935,-0.16092365980148,0.90458250045776,-1.0265114307404,0.50036782026291,-0.6794530749321,-0.52080291509628,0.028959423303604,-0.22228337824345,-0.004885075148195,0.44692316651344,-0.89444953203201,-1.7612994909286,0.35505354404449,-0.063591383397579,0.014367141760886,0.40853202342987,0.42550009489059,-0.038697425276041,-0.25480324029922,0.10096252709627,-0.60169011354446,-0.0016823059413582,-0.078181840479374,0.14089873433113,0.21735735237598,0.4842509329319,-0.3439162671566,-1.7109335660934,0.15110060572624,0.079568400979042,-0.48404479026794,-0.15583725273609,-1.1519578695297,-0.39483743906021,-0.33944168686867,0.24092949926853,0.26974713802338,0.26164615154266,0.40157264471054,-0.49242496490479,-0.013651694171131,-0.0040676989592612,0.095580533146858,-0.44636076688766,0.94936245679855,0.72422069311142,-0.056202061474323,-0.43559491634369,-0.64071816205978,-0.31731787323952,0.089683212339878,-0.11986473202705,0.95176517963409,0.30039340257645,-0.44503974914551,0.79292243719101,-0.43768328428268,-0.15969362854958,-0.40467476844788,-0.14103426039219,0.45500132441521,-1.8921928405762,-0.59980839490891,-0.42535218596458,-0.032262679189444,0.48128223419189,0.14839072525501,0.28167352080345,-0.34543818235397,-0.55560612678528,-0.9245628118515
-0.13355951011181,-0.43399092555046,-0.027865204960108,-0.34482330083847,-0.2983087003231,0.67427909374237,0.69308704137802,-0.73076105117798,0.16934214532375,0.53342670202255,-0.0073048952035606,0.27604973316193,0.075486212968826,0.21193565428257,-0.036194305866957,-0.00080660067033023,0.46050530672073,0.13858558237553,-0.50020480155945,-0.39251908659935,0.1049483269453,-0.23184876143932,-0.25195214152336,0.15158446133137,0.31676533818245,0.068842262029648,-0.15907296538353,0.29587832093239,0.66098272800446,-0.60107445716858,0.089375413954258,0.28933188319206,-0.3619085252285,-0.10594208538532,-0.29505258798599,0.48374724388123,-0.0817516669631,0.67051464319229,-0.10589748620987,0.70270335674286,-0.4474148452282,-0.9140123128891,-0.45811992883682,0.068037457764149,-0.28811746835709,0.21223029494286,-0.19976107776165,-0.49535354971886,-0.6689105629921,0.17814336717129,-0.34960445761681,0.47344601154327,-0.20070596039295,0.0648532807827,0.10045523941517,0.20302186906338,0.13414287567139,0.24470853805542,-0.024973994120955,0.035340670496225,0.3828067779541,-0.68850588798523,0.12485916167498,-0.3253875374794,-0.10536136478186,-0.10032270848751,0.60676389932632,-0.36457997560501,-0.58362329006195,0.094424158334732,-0.16324783861637,-0.36131504178047,-0.06230640783906,-0.14127369225025,-0.35408711433411,0.02467161603272,-0.027487840503454,0.18243524432182,-0.49234557151794,0.59659570455551,-0.034998785704374,0.49514919519424,-0.17157129943371,0.43188399076462,-0.41390508413315,0.92927861213684,0.080990590155125,-0.40350714325905,0.93449908494949,-0.46564117074013,0.54660302400589,0.27830636501312,-0.026835728436708,-0.3203527033329,0.17729714512825,0.4826432466507,0.0078697754070163,0.05333299934864,-0.10568299144506,0.051591377705336,0.18710239231586,0.12447018921375,-0.16586607694626,0.4892829656601,0.2123112231493,0.38626098632812,-0.44041520357132,-0.098940990865231,-0.011984676122665,-0.18417090177536,0.39606967568398,-0.040346745401621,0.33996149897575,-0.16231450438499,0.031441893428564,0.4996771812439,0.26988083124161,0.12901602685452,-0.080587819218636,-0.69898444414139,-0.54568135738373,0.084996342658997,0.54788166284561,-0.66559392213821,-0.52746558189392,0.56521719694138,0.063022144138813,-0.076299741864204
-0.079829350113869,-0.33000352978706,-0.11939908564091,0.5908699631691,-0.036237597465515,0.17877180874348,0.21592548489571,0.19891646504402,0.63519114255905,0.034101817756891,-0.16502507030964,0.25664439797401,0.57180851697922,0.25391227006912,-0.064506202936172,0.19193544983864,-0.13289655745029,0.33602520823479,-0.13375307619572,-0.15527993440628,0.042499031871557,-0.15880224108696,-0.59145790338516,0.057525832206011,0.016898520290852,-0.21231339871883,0.51035994291306,-0.089197628200054,0.030251193791628,-0.09056331962347,-0.47536182403564,0.45991039276123,0.95911800861359,0.53874558210373,0.51849836111069,-0.06066207587719,-0.063639782369137,0.18057586252689,-0.47131949663162,0.27526649832726,0.33057016134262,-0.070710904896259,-0.19275595247746,0.026264045387506,0.421371281147,-0.42359209060669,-0.24593219161034,0.27387362718582,-0.23600313067436,0.35178381204605,0.20413312315941,0.20792597532272,0.7695597410202,-0.50823199748993,-0.098895326256752,0.11664500832558,0.20549085736275,0.37519451975822,0.50736087560654,0.31761440634727,0.41583052277565,-0.56687885522842,0.45526784658432,-0.093867503106594,-0.39955589175224,0.26700758934021,-0.11297812312841,0.16153898835182,0.15124164521694,-0.66563451290131,-0.1797062009573,0.18627679347992,-0.063981257379055,0.074753560125828,-0.4510557949543,0.92422425746918,0.13018743693829,0.86876088380814,-0.17963092029095,-0.27309969067574,-0.21085424721241,-0.22803509235382,-0.4746128320694,0.080683529376984,-0.54225903749466,0.35247135162354,0.27579581737518,-0.26973268389702,0.36065155267715,-0.61322098970413,0.34039151668549,0.0063030803576112,0.40137857198715,-0.4336194396019,0.18089607357979,0.42612087726593,-0.43131938576698,0.11415982991457,0.57111442089081,-0.14770570397377,0.3140461742878,-0.10584308207035,0.034021079540253,-0.11131595820189,-0.60071009397507,-0.44137269258499,-0.71077305078506,0.44481083750725,-0.88391959667206,0.012947168201208,0.087318763136864,0.81997495889664,0.21329820156097,-0.37855565547943,-0.036028273403645,-0.33901557326317,0.070608131587505,-0.044897239655256,0.047774977982044,-0.20523384213448,-0.49357116222382,0.36341062188148,0.0056069334968925,0.49366310238838,-0.76074123382568,-0.36036318540573,0.048100132495165,-0.19941012561321
0.06754819303751,0.12130457907915,-0.32400327920914,0.67171531915665,-0.11325189471245,-0.18866486847401,0.33885881304741,0.092581003904343,-0.51381701231003,0.07084909081459,-0.088707536458969,-0.43797615170479,0.65764528512955,0.072785317897797,-0.071427099406719,-0.17143979668617,-0.21728232502937,0.18205511569977,-0.60638123750687,0.21447430551052,0.59523540735245,-0.16633726656437,0.2697634100914,0.21385891735554,0.2258075773716,0.49129089713097,0.040473412722349,-0.15500846505165,0.056622095406055,-0.26834911108017,-0.16524693369865,-0.2296287715435,0.33423894643784,-0.18730854988098,-0.35039800405502,-0.097680658102036,-0.077649362385273,-0.31737315654755,-0.3819951415062,0.31955933570862,-0.23613922297955,0.36768144369125,0.041122302412987,0.011810350231826,-0.18054883182049,-0.13158889114857,0.20071245729923,-0.023652670904994,0.045583378523588,-0.026810770854354,-0.22401113808155,-0.11168193072081,0.04220474883914,-0.055761285126209,0.27390047907829,-0.53985673189163,-0.22887746989727,0.13611306250095,0.17796856164932,0.16721823811531,-0.203045129776,0.33896121382713,-0.38515132665634,0.21164110302925,-0.074157059192657,0.04281684756279,0.011828567832708,-0.22960622608662,-0.23064345121384,0.035497058182955,-0.53853458166122,-0.12878340482712,0.34739139676094,0.040477950125933,0.18262955546379,-0.24678599834442,0.16611751914024,0.027692662551999,0.32581952214241,-0.0069712530821562,0.32205390930176,0.061435844749212,-0.24126851558685,-0.017561100423336,0.051281772553921,0.37084591388702,-0.3226036131382,0.11835096776485,0.0045457384549081,0.0096981693059206,0.48584249615669,0.33109191060066,-0.56022524833679,0.0075210202485323,-0.28818011283875,-0.13049826025963,0.55775201320648,-0.0071909977123141,0.11264007538557,0.064337603747845,0.03491410985589,0.38271972537041,-0.60395073890686,-0.048316892236471,-0.33382785320282,0.30331408977509,-0.16631330549717,0.24002161622047,0.032930418848991,0.60783189535141,0.15983766317368,0.021482868120074,-0.38335856795311,0.21703785657883,-0.15654058754444,0.32805675268173,-0.033474650233984,-0.0053809001110494,-0.13507653772831,0.038850415498018,0.079772740602493,0.091396391391754,-0.27688989043236,0.29048728942871,0.17365646362305,-0.13089221715927,0.23038312792778,-0.37890645861626
-0.44561848044395,0.14530263841152,-0.28645300865173,-0.27338263392448,-0.096718527376652,0.86127030849457,0.74338680505753,-0.15774738788605,-0.14418664574623,-0.33062848448753,-0.19904620945454,-0.29943865537643,0.24928675591946,0.15082648396492,0.8334065079689,-0.27029252052307,0.22572259604931,0.40156048536301,0.42103073000908,-0.71284341812134,0.24074001610279,0.63625663518906,-0.34853574633598,0.12843130528927,0.30064064264297,-0.46585553884506,-0.37199887633324,-0.82164430618286,0.61828291416168,0.28410983085632,-0.50059455633163,0.034697238355875,-0.51160138845444,-0.30661794543266,0.33669036626816,0.37498280405998,-0.20976582169533,0.19215221703053,0.0005805348046124,-0.19955644011497,-0.3274017572403,-0.82720291614532,0.011986333876848,-0.14479623734951,0.48573124408722,0.53251999616623,-0.10774277150631,-0.77677398920059,-0.12196432799101,0.4101095199585,0.83360123634338,-0.26435190439224,-0.3871051967144,0.26004892587662,-0.14434608817101,0.355394333601,0.366639316082,0.1021369099617,-0.18765139579773,-0.27337071299553,0.054346978664398,0.093448489904404,0.085602082312107,0.10347130149603,-0.24741996824741,0.17431123554707,0.64776074886322,0.25838527083397,0.0049281874671578,0.098425507545471,-0.15848028659821,0.31988242268562,-0.21190044283867,0.34331205487251,-0.21261067688465,-0.23637510836124,-0.0020386336836964,0.28162348270416,0.70684623718262,0.043051309883595,0.16861696541309,0.3970735669136,-0.017581017687917,0.021394805982709,0.61334747076035,0.14731921255589,0.22393383085728,-0.74663931131363,0.20533448457718,0.5826900601387,-0.01356665417552,-0.55414623022079,0.28665247559547,-0.23404350876808,0.43118777871132,0.052498690783978,0.80460804700851,-0.41125372052193,-0.14323757588863,0.12714993953705,-0.71973419189453,0.24767553806305,-0.19047594070435,-0.31263649463654,0.16782450675964,0.14599074423313,0.058759018778801,0.35962128639221,-0.73068940639496,0.12508028745651,0.29783636331558,-0.29957023262978,1.1404820680618,-0.61781698465347,-0.14769360423088,-0.0032345606014132,-0.53846234083176,0.46330550312996,0.53001624345779,-0.3185561299324,0.16241528093815,0.15385015308857,0.16865232586861,-0.069833509624004,0.66896229982376,-0.47141933441162,0.19538809359074,-1.1065366268158
-0.2884173989296,1.307452082634,-0.094472236931324,-0.35673525929451,-0.11203795671463,-0.2322902828455,-0.45120707154274,0.25564774870872,-0.19982181489468,0.19087740778923,-0.073435425758362,-0.55136424303055,-0.47944578528404,0.045387294143438,-0.048883493989706,0.31272047758102,-0.078086860477924,-0.21217726171017,0.12149114906788,0.05248849093914,-0.22928102314472,0.53146517276764,0.20769019424915,-0.049047961831093,-0.47792190313339,-0.17888520658016,0.26957619190216,0.15549819171429,-0.063291534781456,-0.001403770991601,-0.041959669440985,0.30167081952095,-0.14127218723297,0.48329201340675,0.91317063570023,0.3919575214386,0.25577455759048,-0.088917776942253,-0.027234580367804,-0.037971246987581,0.22487111389637,0.019985593855381,0.1035138592124,-0.064760781824589,0.31266304850578,0.24166817963123,-0.071722030639648,-0.02904467843473,-0.8980912566185,0.10121876001358,-0.56087636947632,0.28007742762566,0.75352013111115,-0.33555820584297,-0.010044402442873,0.56366157531738,-0.55967837572098,-0.013600965030491,0.13981933891773,0.098367720842361,-0.41888627409935,-0.65898239612579,0.56046050786972,-0.14717711508274,0.025218514725566,0.06282776594162,-0.018832225352526,-0.200639128685,0.11012023687363,-0.29264613986015,-0.33456674218178,-0.278480052948,0.40997949242592,-0.35847541689873,0.15299305319786,-0.19622376561165,-0.17264804244041,1.1508814096451,0.7581439614296,-0.13084948062897,-0.026397751644254,-0.79608255624771,-0.71314299106598,0.58571517467499,-0.33272624015808,-0.12298522889614,0.2159436494112,-0.15813504159451,-0.35993826389313,-0.35011866688728,0.5344677567482,-0.064710952341557,0.84747648239136,-0.21810598671436,-0.50785833597183,0.12588287889957,0.01561352238059,0.80228465795517,0.48239281773567,-0.36866649985313,0.11931501328945,-0.045618865638971,-0.11232830584049,0.29604399204254,0.07225213944912,0.55889213085175,-0.14207868278027,0.34846270084381,-0.82854211330414,-0.62606477737427,0.23580303788185,-0.24324652552605,0.5163511633873,-0.2640475332737,0.076299518346786,0.19469103217125,-0.74889498949051,0.43695065379143,-0.56086617708206,0.3179814517498,0.33791729807854,0.090006843209267,-0.23079136013985,0.33539363741875,-0.55044454336166,-0.19828572869301,0.061820581555367,-0.8275220990181
0.021558718755841,-0.078607767820358,0.0099471136927605,0.093869671225548,-0.010253803804517,0.065947256982327,0.078011259436607,-0.15998782217503,0.04493910074234,0.13088338077068,0.05964507162571,-0.10039297491312,0.086674354970455,-0.10497380793095,0.041002817451954,-0.0945975035429,0.069183990359306,-0.057386517524719,-0.11656080931425,-0.062530234456062,0.051516383886337,-0.13647210597992,-0.030779406428337,-0.094464659690857,0.031998813152313,-0.049091506749392,-0.01784354262054,-0.06155589222908,0.0039202957414091,0.012526311911643,-0.070808321237564,-0.034488897770643,0.10348859429359,0.099098585546017,0.1334617882967,-0.021172638982534,0.068261779844761,-0.05046559497714,0.039005041122437,0.033148486167192,-0.038791242986917,-0.066443510353565,0.091110043227673,-0.048583518713713,-0.031124081462622,0.0070980624295771,-0.032649528235197,-0.015051457099617,0.0063521373085678,-0.081418514251709,0.016126938164234,0.10429933667183,0.014872161671519,-0.015260743908584,0.083186164498329,0.046995189040899,0.046925127506256,-0.092139437794685,0.05068938434124,-0.044233467429876,-0.018735518679023,-0.024087263271213,0.062272645533085,-0.016209891065955,0.024437058717012,0.013607500120997,0.13903622329235,0.041548915207386,-0.085100017488003,0.11920848488808,-0.085142008960247,0.12887151539326,-0.015331701375544,-0.10802446305752,0.012695417739451,-0.039323471486568,-0.1278128772974,-0.06328123062849,0.056905925273895,0.13650193810463,-0.045062631368637,0.077050246298313,-0.01341319270432,-0.030424471944571,-0.089699700474739,0.1331075578928,-0.063003122806549,0.047078054398298,0.096728503704071,-0.12794342637062,0.0754604190588,-0.072407118976116,-0.12353975325823,-0.0050489488057792,0.053637035191059,0.020381389185786,-0.089692525565624,0.0025708025787026,-0.053381234407425,0.036693651229143,0.0083227166905999,0.061776462942362,-0.027698181569576,0.099195390939713,-0.041444774717093,0.082976065576077,-0.065242893993855,0.046675037592649,-0.06733039021492,0.059273343533278,0.085705637931824,-0.036354318261147,-0.11720061302185,-0.029481893405318,0.043205197900534,0.062584534287453,0.028969762846828,0.075269065797329,-0.059342879801989,0.029970034956932,-0.054118979722261,0.00028246955480427,0.012432206422091,-0.10190739482641,0.0034916920121759,-0.024990513920784,-0.095666222274303,-0.049381531774998
-0.30251643061638,-0.47805002331734,0.42417919635773,0.54594421386719,-0.096685290336609,0.36884945631027,-0.52342790365219,-0.21116976439953,0.32095494866371,-0.34640458226204,-0.19397069513798,-0.46845048666,-0.38896769285202,0.032057046890259,0.24255400896072,0.038328532129526,-0.1784892231226,-0.32745939493179,-0.15374110639095,-0.21419766545296,-0.19974422454834,-0.13772539794445,-0.44487991929054,-0.18756027519703,0.30222183465958,0.020814133808017,-0.12092187255621,0.57088506221771,0.10076855123043,-0.31664076447487,0.0682632625103,0.09108879417181,-0.94456404447556,-0.080528818070889,0.77445811033249,-0.049295622855425,0.24021163582802,-0.12140778452158,0.088359400629997,0.65477591753006,-0.29693815112114,0.43569484353065,0.35856658220291,0.281524091959,-0.19927132129669,0.36241599917412,0.38038036227226,0.12574438750744,0.48555809259415,0.71867233514786,0.42322024703026,0.24981610476971,-0.25080746412277,1.0672091245651,0.30377700924873,0.81466257572174,0.029197044670582,0.58597350120544,0.18561770021915,0.13214150071144,-0.86415195465088,0.22817897796631,1.0752934217453,0.22888524830341,-0.10706435143948,0.023123323917389,0.13055028021336,0.42465105652809,-0.04719927161932,-0.32273817062378,-0.11969538033009,-0.23611894249916,-0.32830691337585,-0.076761335134506,-0.22719547152519,-0.51885670423508,-0.38942816853523,-0.2864029109478,-0.0042916182428598,-0.23540312051773,-0.16952262818813,0.17909608781338,0.031259078532457,-0.015115274116397,-0.17065331339836,0.44541934132576,0.31556850671768,-0.53150147199631,0.28707286715508,-0.20264752209187,-1.0413997173309,-0.76089829206467,0.077722445130348,0.26910507678986,0.44337594509125,0.17228317260742,0.75605428218842,0.5209875702858,0.20796209573746,0.50719952583313,-0.0095799444243312,-0.15292218327522,0.63337802886963,-0.70761799812317,-0.66281551122665,-0.41900125145912,0.64595699310303,-0.11005545407534,0.16643887758255,0.36198833584785,-0.04297498613596,-0.34408321976662,-0.2682286798954,-0.20983193814754,0.029856516048312,0.52895474433899,0.45983329415321,0.10829091072083,0.038068950176239,-0.67260175943375,0.0040282872505486,0.33047342300415,-0.72680431604385,0.032556679099798,-0.0099061364308,0.64113587141037,-0.257129997015,-0.30907520651817
0.43408137559891,0.3746594786644,0.14998206496239,-0.18718399107456,0.35888656973839,-0.20193217694759,-0.086292617022991,0.066425897181034,0.16437532007694,-0.056188687682152,-0.18601939082146,-0.26994812488556,0.63467395305634,-0.133540391922,0.083006635308266,0.042244635522366,0.043436776846647,-0.2274633795023,-0.4327005147934,0.10809763520956,0.39536121487617,-0.44020217657089,-0.45148041844368,-0.061782445758581,-0.07104679942131,-0.093649193644524,0.4204166829586,-0.29605236649513,0.23386065661907,-0.28539270162582,-0.48245352506638,-0.027798993512988,-0.49177923798561,-0.3282008767128,0.61486905813217,0.24799038469791,-0.30387255549431,-0.5132617354393,-0.11715292185545,-0.23040138185024,-0.094690300524235,-0.044758081436157,0.33195161819458,-0.052700012922287,0.19484233856201,0.079922400414944,-0.24633061885834,0.28463274240494,-0.061694867908955,0.082121506333351,-0.30967420339584,0.091683216392994,-0.50947070121765,-0.010519952513278,0.014034004881978,-0.24772529304028,-0.00083283509593457,0.095443166792393,0.073064692318439,-0.12247589230537,-0.67684823274612,-0.50623315572739,0.1125503629446,0.32249554991722,-0.28463220596313,0.13146933913231,0.14806306362152,-0.065653964877129,-0.12880538403988,0.43461617827415,0.073574729263783,-0.050871897488832,0.37600493431091,-0.15607888996601,-0.16028831899166,-0.25671726465225,0.33850240707397,-0.22529351711273,0.42188572883606,0.20849214494228,-0.047114048153162,0.23200280964375,-0.18341746926308,0.40072229504585,0.13988800346851,0.33222675323486,0.21494151651859,0.13273188471794,0.24481396377087,-0.36939764022827,0.83435869216919,-0.10653287917376,0.54258078336716,0.014422704465687,0.37565383315086,0.69820338487625,-0.23290887475014,-0.021530227735639,-0.51471757888794,-0.40558531880379,0.058256477117538,0.14107218384743,0.66041922569275,-0.5174868106842,-0.10671599954367,-0.10402425378561,-0.0080484822392464,-0.16593083739281,-0.44344815611839,0.075508281588554,0.012427295558155,-0.12587606906891,0.33841100335121,0.19365482032299,0.12188034504652,0.027079405263066,0.070337608456612,-0.43184503912926,-0.5380647778511,0.40104761719704,-0.65943098068237,0.42325326800346,0.22803515195847,-0.0018253629095852,0.32314100861549,-0.83981662988663,0.14795778691769,0.31927984952927
-1.1383347511292,0.13848340511322,-0.11671312898397,0.36559492349625,0.21889717876911,0.081082992255688,-0.034961607307196,-0.20626901090145,-0.46600058674812,-0.83866274356842,0.42528423666954,-0.49662306904793,-0.097349934279919,0.42389726638794,-0.28236603736877,-0.12990705668926,0.28083860874176,-0.17886014282703,-0.72437036037445,0.45286154747009,0.50631642341614,-0.053935501724482,-0.69091910123825,-0.017973393201828,0.25295022130013,0.36681643128395,-0.57454800605774,-0.97261810302734,-0.31748270988464,-0.043546948581934,-0.321497797966,0.36521106958389,-0.15974682569504,0.11780449748039,0.14320428669453,0.86962133646011,0.148622199893,1.0041358470917,0.14164379239082,0.25526005029678,-0.28917229175568,-0.31368699669838,0.040218967944384,0.10612823069096,-0.82477819919586,0.065722741186619,-0.32845810055733,-0.067263379693031,-0.12074772268534,0.039217554032803,0.072091273963451,0.59461802244186,0.038536984473467,0.063049457967281,0.033732868731022,-0.20313623547554,0.57561826705933,-0.049830801784992,0.098523296415806,-0.1014668866992,-0.17505145072937,-0.19706302881241,-0.43821728229523,0.065934576094151,0.38551598787308,0.30975988507271,0.2107625156641,0.016057403758168,0.12216797471046,-0.0927909091115,-0.36981144547462,-0.17246928811073,-0.052140038460493,-0.43638727068901,0.070883333683014,0.28233289718628,0.45501112937927,-0.60343205928802,0.51709896326065,0.12466342747211,0.12574519217014,0.14214043319225,0.21206590533257,-0.36395195126534,-0.53255277872086,-0.14793269336224,0.40623274445534,-0.4625628888607,0.48132658004761,-0.20034109055996,-0.066998727619648,-0.15995787084103,0.28658378124237,-0.7072035074234,0.52191787958145,1.3014789819717,-0.7531510591507,0.27944400906563,-0.18952910602093,-0.071495816111565,-0.49271839857101,0.71350103616714,0.89894360303879,-0.52640211582184,-0.33693316578865,0.20464776456356,-0.42227226495743,0.07968357950449,-0.93141275644302,0.21510015428066,-0.37232714891434,0.3808513879776,-0.34642764925957,0.19967573881149,0.21576002240181,-0.10657525807619,-0.27390775084496,-0.33455201983452,0.08417733758688,-0.17097888886929,-0.057268582284451,0.19088488817215,-0.092635750770569,-0.14539293944836,0.15363672375679,0.63927412033081,-0.053101968020201,-0.18374451994896
1.1193172931671,0.28529968857765,0.35967874526978,0.21481774747372,-0.62243807315826,0.42158499360085,0.013501523993909,-0.41022968292236,0.10311588644981,0.2935882806778,-0.75411462783813,0.7294254899025,-0.9605655670166,-0.22693164646626,-0.32050508260727,0.59342336654663,0.038900680840015,-0.28935280442238,-1.5474971532822,-0.80020153522491,0.19563165307045,0.14498569071293,-0.74913501739502,0.20257176458836,0.099042996764183,-0.12977367639542,0.79770404100418,0.34319454431534,0.037605553865433,-0.072694383561611,-0.0096978889778256,0.040401332080364,0.47551748156548,0.00081500445958227,-0.025372153148055,0.54334908723831,-0.12078990787268,0.16495032608509,-0.054609943181276,0.22152055799961,-0.3929777443409,-0.72737658023834,-0.28865745663643,1.1371606588364,-0.082620486617088,0.096555702388287,-0.0011545351007953,0.49149888753891,-0.67020487785339,-0.41729193925858,0.26158282160759,-0.29254803061485,-0.50678384304047,0.16399002075195,-0.5652933716774,-0.11803048849106,-0.16317585110664,0.34519210457802,0.2646216750145,0.66571974754333,-0.0068174721673131,0.36905014514923,0.13187663257122,0.21141098439693,0.14834600687027,0.066121138632298,-0.18701142072678,0.06920150667429,0.16087205708027,0.11914718151093,-0.43212312459946,-0.66495144367218,-0.10908352583647,0.059093359857798,-0.057860102504492,-0.20917920768261,0.15472036600113,-0.2824575304985,-0.24243400990963,0.0029215554241091,0.25182193517685,0.57005035877228,0.20497344434261,-0.70386689901352,-0.24460259079933,0.71907913684845,0.21455371379852,-0.048842299729586,-0.0011196214472875,0.034807965159416,0.21274614334106,-0.19388441741467,0.35365334153175,-0.5202870965004,0.54713696241379,0.18986901640892,-0.34066519141197,0.6021980047226,0.81268364191055,-0.96990984678268,-0.23006244003773,0.1009851321578,-0.012639176100492,-0.22515213489532,-1.0096981525421,-0.58182156085968,-0.75756531953812,0.22673867642879,-0.82672131061554,0.46451154351234,-0.069829411804676,-0.15607519447803,0.18463295698166,0.41951793432236,0.36875659227371,0.22805839776993,0.020151812583208,-0.14785973727703,-0.57575815916061,0.12096984684467,-0.067301020026207,-0.33281201124191,1.0565427541733,-0.33690440654755,-0.61696809530258,1.1055742502213,0.17273032665253,-0.11039086431265
0.084574028849602,-0.59603780508041,0.40807810425758,-0.40854674577713,0.37690818309784,0.00064417306566611,-0.32640346884727,-0.26877668499947,-0.14595863223076,0.17713238298893,0.45584401488304,-0.55113220214844,-0.33855730295181,0.47617366909981,-0.043983437120914,-0.21071448922157,0.39901557564735,0.65568798780441,0.11573930084705,-0.61530810594559,0.11959949880838,-0.12344454973936,-0.032023809850216,-0.45127215981483,0.044793609529734,0.60081481933594,-0.88525599241257,-0.95390874147415,0.3949286043644,-0.6831020116806,0.091477036476135,-0.13509954512119,-0.80160921812057,0.94285327196121,0.15356633067131,0.69337278604507,0.82355159521103,0.37619951367378,-0.02063718996942,-0.7790612578392,-0.082420386373997,0.055356498807669,0.16737531125546,-0.6091440320015,0.066021643579006,0.13954398036003,0.44729900360107,0.21661227941513,-0.28103029727936,-0.88312381505966,-0.57659208774567,-0.067322380840778,0.53206926584244,-0.24720418453217,-0.076547309756279,-0.32099449634552,-0.083053968846798,-0.033427000045776,-0.24077516794205,-0.015240813605487,-0.41978380084038,-0.66676932573318,0.26889953017235,-0.065306209027767,0.26528018712997,-0.21444062888622,0.12330286204815,0.76464116573334,0.25224697589874,0.75319826602936,0.14416082203388,-0.21224638819695,-0.1118121817708,-0.3619304895401,-0.16402716934681,-0.53124493360519,0.30155643820763,-0.75403428077698,-0.50702750682831,-0.098363772034645,-0.1175893843174,-0.34932115674019,0.15953665971756,-0.13396671414375,-0.39319232106209,0.51169490814209,0.015406184829772,-0.0099663240835071,0.30236455798149,-0.040637407451868,-0.24667079746723,-0.4392149746418,0.13878104090691,-0.30025056004524,0.97960978746414,0.019295735284686,-0.29660511016846,-0.43877276778221,-0.6353697180748,-0.76101976633072,-0.40921059250832,0.13978053629398,-0.27958819270134,0.23810890316963,-0.12423735111952,0.055565781891346,0.206592425704,0.07994719594717,-0.4039351940155,-0.46814545989037,-0.0075958389788866,0.066788017749786,0.023211555555463,-0.21307073533535,-0.40847453474998,0.36666318774223,-0.57030254602432,0.45000943541527,-0.36288446187973,-0.73292112350464,0.59248501062393,-0.44535005092621,0.05730464309454,-0.043005790561438,0.30291140079498,0.74025636911392,-0.21797379851341,0.55146753787994
-0.31058436632156,-0.58333295583725,-0.32105553150177,-0.1609933078289,-0.2944615483284,0.62303245067596,0.14592345058918,-1.1547656059265,-0.0085659865289927,0.23101729154587,-0.050663724541664,-0.60325682163239,-0.38921216130257,0.068473972380161,0.81264913082123,-0.22805394232273,0.21796703338623,0.10388486087322,-0.17775078117847,0.22160881757736,1.0999715328217,-0.96635586023331,-0.35148078203201,0.46769198775291,1.0460580587387,0.70444512367249,-0.046736303716898,0.23177802562714,0.67610520124435,-0.093891642987728,-0.2013308852911,0.18854799866676,0.10438443720341,0.90801912546158,-0.3754979968071,0.4861772954464,0.77761977910995,-0.20417208969593,-0.043622430413961,-0.81259727478027,-0.10104459524155,0.28485164046288,0.18479982018471,-0.41834506392479,-0.42276948690414,0.40344032645226,-0.46053290367126,0.069977454841137,0.34875604510307,-0.42983612418175,-0.31123599410057,0.24988885223866,1.0271761417389,0.099922567605972,-0.048575542867184,-0.74594300985336,0.28260481357574,-1.0043194293976,0.62052011489868,0.84706282615662,0.35251152515411,0.14726181328297,0.58908599615097,0.15414072573185,0.0046999952755868,-0.32805052399635,0.33652141690254,0.19767488539219,-1.0548051595688,0.40422052145004,0.075796574354172,0.37424051761627,-1.1781079769135,-0.94333136081696,-0.1757902354002,0.19839064776897,-0.60696947574615,-0.20174171030521,0.22776412963867,0.15657955408096,0.23449558019638,0.8070387840271,0.37608376145363,-0.79121273756027,-0.54573732614517,0.80412024259567,-0.2867830991745,1.0966767072678,0.17068798840046,-1.274374961853,0.0099290208891034,0.13085402548313,-1.7883870601654,-0.30268478393555,1.0268503427505,-1.2226891517639,-0.49183294177055,0.46574240922928,0.0075218710117042,-0.086777158081532,-0.071158029139042,0.57897806167603,0.1445693820715,-1.1337867975235,-0.050752192735672,0.5718759894371,-0.28576388955116,-0.46986618638039,-0.16148568689823,0.54744374752045,0.040090087801218,-0.20733393728733,-0.34596261382103,-0.23756262660027,-0.0075413258746266,0.12087366729975,-0.25789600610733,-0.21279662847519,0.69793874025345,0.14072923362255,-0.19957026839256,0.25699672102928,-0.14915876090527,-0.062806248664856,0.57851189374924,-0.60261213779449,0.3735645711422,0.033443827182055
-0.2305563390255,0.042401812970638,0.95703560113907,-0.25504329800606,0.030143730342388,-0.29851758480072,-0.28263112902641,0.15549026429653,0.040924862027168,-0.21531416475773,-0.18256697058678,0.24196453392506,-0.19762970507145,0.60051691532135,-0.03372785449028,0.37179630994797,0.51071089506149,0.48061707615852,-0.64767903089523,-0.96559590101242,0.028423327952623,0.998819231987,-0.20752255618572,0.049414731562138,-0.014299102127552,-0.485421448946,-0.0084940902888775,-0.059316731989384,0.29237240552902,-0.62719237804413,-0.23198282718658,0.077296264469624,-0.14983884990215,-0.31219565868378,-0.14087335765362,1.4089107513428,-0.21539707481861,-0.16749075055122,-0.11796993017197,-0.073490828275681,0.47859877347946,0.27792119979858,-0.25885462760925,0.066209129989147,0.16511158645153,-0.086453415453434,-0.36727401614189,0.16174361109734,-0.2367946356535,0.0019575543701649,0.29813301563263,0.10186567902565,0.55698877573013,0.62279939651489,-0.72299981117249,-0.53474295139313,-0.030266292393208,0.39581683278084,0.41597437858582,0.022734789177775,0.056309226900339,0.14793945848942,0.20871809124947,0.48705759644508,0.059491585940123,-0.16782389581203,0.39486739039421,0.12674750387669,-0.17095018923283,0.4119825065136,0.15128035843372,0.2655885219574,-0.55044388771057,0.39698493480682,-0.089613974094391,0.14140045642853,0.15928833186626,-0.33829295635223,-0.43417966365814,-0.43432748317719,-0.48897066712379,0.56217765808105,0.060872089117765,-0.00096618308452889,-0.26018315553665,0.69808977842331,0.5616220831871,0.40750709176064,0.7567218542099,-0.16606429219246,0.27144640684128,0.48893883824348,-0.52786564826965,-0.041394717991352,0.43385723233223,-0.27002435922623,0.4052709043026,0.33113631606102,-0.12349703907967,-0.10567523539066,0.14750336110592,0.30295038223267,0.29339003562927,1.1125695705414,-0.20445390045643,-0.047397620975971,-0.21705162525177,0.17231886088848,-0.3010361790657,0.18398304283619,-0.0054753720760345,0.35126402974129,0.140604570508,0.42167854309082,0.21199835836887,-0.21296173334122,-0.47125205397606,-0.3678460419178,-0.42480075359344,-0.80318033695221,0.1525142043829,-0.34447222948074,0.84561318159103,-0.3420158624649,0.3728649020195,0.63150924444199,0.10015472024679,-0.52869951725006
0.30891007184982,-0.085020765662193,-0.40053755044937,0.14222128689289,-0.016461791470647,0.24774581193924,-0.0071217720396817,0.23348535597324,-0.42489355802536,-0.33549511432648,-0.28441300988197,-0.56334185600281,0.31326019763947,-0.22225198149681,0.19125486910343,-0.18372775614262,0.12925738096237,0.12305674701929,-0.77643638849258,-0.31374591588974,0.032425791025162,0.18922193348408,-0.50774252414703,0.26764672994614,-0.061956260353327,-0.23392960429192,0.16018103063107,-0.24863643944263,-0.2609181702137,-0.2478261590004,-0.17727895081043,0.51228779554367,0.028709229081869,-0.20540446043015,0.36181098222733,0.23967768251896,-0.10520423203707,0.38753092288971,0.30884203314781,-0.3609391450882,-0.17250493168831,-0.24755415320396,0.38148063421249,0.29726243019104,0.30248972773552,0.099777691066265,0.1507425904274,0.18504701554775,-0.59986859560013,-0.18377202749252,-0.081054575741291,0.069606974720955,-0.17909497022629,0.31813272833824,0.42672955989838,-0.056561283767223,0.5685607790947,-0.053009636700153,-0.39657640457153,0.037110682576895,0.66030716896057,-0.099013730883598,-0.41007697582245,-0.13025534152985,0.13563024997711,1.488358259201,-0.15945887565613,0.562031686306,0.17682163417339,0.24701254069805,-0.15799327194691,0.57786828279495,0.23084619641304,-0.36958143115044,-0.060862965881824,-0.05523057281971,0.085688091814518,-0.12160670757294,0.50369030237198,0.00053421669872478,-0.37578627467155,0.53865104913712,0.19643680751324,0.40145641565323,-0.63580769300461,-0.0220947843045,-0.64655822515488,-0.10769589245319,-0.049089919775724,0.040159601718187,0.44302839040756,-0.43252566456795,0.068930357694626,-0.46077844500542,-0.1413372606039,-0.46381932497025,-0.12172327190638,-0.99115008115768,-0.24957317113876,-0.29961696267128,-0.35332596302032,0.26316183805466,-0.12743037939072,0.33670660853386,0.23211906850338,0.26781246066093,-0.1030038446188,-0.060725726187229,0.10434051603079,0.5761913061142,-0.3614818751812,-0.50712150335312,0.36100447177887,0.033503405749798,-0.20484773814678,0.080068714916706,0.11300149559975,-0.30605688691139,0.18556234240532,-0.019296053797007,-0.099963881075382,-0.32080492377281,0.57187366485596,0.11452226340771,-0.18223474919796,0.58117014169693,0.14849166572094,-0.072125770151615
-0.75601899623871,-0.014352792873979,0.11944308131933,-0.74351131916046,0.2013251632452,-0.043725345283747,0.43521812558174,-0.76435428857803,0.133733689785,0.21755260229111,-0.1615696400404,0.74712288379669,0.99436193704605,0.23972377181053,-0.37070268392563,-0.17560137808323,0.13711006939411,0.40241742134094,0.31763201951981,-0.28752616047859,0.50995951890945,0.35129332542419,0.31029111146927,0.58086854219437,0.1484711766243,-0.37157824635506,1.0752413272858,-0.23038193583488,0.7853906750679,-0.0040325173176825,0.57631319761276,0.040684726089239,-0.12149558961391,0.023976299911737,0.45306620001793,-0.058248277753592,0.16228705644608,-0.58813321590424,0.79744613170624,-0.025732912123203,0.036340624094009,0.97447472810745,0.33567410707474,0.87001401185989,0.091793701052666,0.15328900516033,-0.86258101463318,0.040152095258236,-0.34910899400711,-0.82876884937286,0.19363602995872,-0.56602364778519,-0.39245155453682,0.055524133145809,-0.70895487070084,-0.40869891643524,0.68198645114899,-0.14753869175911,0.53001362085342,0.54369533061981,-0.288589656353,0.21537618339062,0.028846383094788,0.50193983316422,0.34737661480904,-0.055755876004696,0.43855226039886,-0.12845139205456,-0.53808665275574,-0.025999631732702,-0.61732029914856,-0.42540389299393,-1.5529133081436,-0.61519610881805,0.066943816840649,-0.26087695360184,-0.34887859225273,-0.081366837024689,0.24865865707397,-0.31419065594673,-0.22329685091972,0.51495164632797,-0.035994756966829,-1.0426003932953,0.47750180959702,0.43600872159004,0.48756143450737,0.033869456499815,0.29976904392242,-0.19973339140415,0.53928822278976,-0.25608792901039,0.44224342703819,0.73467314243317,0.68791979551315,0.28530046343803,0.52596008777618,0.047077942639589,-0.26095482707024,-1.0032298564911,0.27831956744194,0.28495052456856,0.15611580014229,-0.57477903366089,-0.018623413518071,0.21748015284538,-0.75168150663376,0.077396214008331,0.28872847557068,0.013654225505888,0.25732317566872,-0.2068697810173,-0.050965044647455,-0.36448326706886,-0.16598749160767,-1.0480870008469,-0.24309946596622,0.68486738204956,0.02838584408164,0.1597642749548,0.32114717364311,-0.074891351163387,0.74975818395615,-0.8797367811203,1.2622238397598,0.84481173753738,0.47738853096962,-1.3400028944016
0.21299038827419,0.10123497992754,0.0021727671846747,0.040627088397741,0.10726391524076,-0.20893758535385,-0.037036545574665,-0.011915327981114,-0.065859332680702,0.12919609248638,0.047877922654152,-0.062725052237511,-0.14748774468899,-0.01895191334188,0.1517346650362,-0.066579982638359,0.079918175935745,-0.030757302418351,-0.11249948292971,-0.14466194808483,0.11286211758852,-0.064721152186394,-0.31119078397751,-0.18146157264709,0.26185184717178,0.01996792294085,0.096647620201111,-0.058542519807816,0.29569846391678,0.13828593492508,-0.071496456861496,0.16305015981197,0.05019897967577,0.23128965497017,-0.10058715939522,-0.063387997448444,0.49356684088707,-0.039240654557943,0.0072110835462809,-0.064738929271698,0.12410217523575,0.058999754488468,-0.098393239080906,0.15960024297237,0.01854757219553,0.18580023944378,0.12228117138147,0.0027730604633689,0.029281487688422,-0.25542676448822,0.23605434596539,-0.0042251017875969,-0.42596459388733,0.16352513432503,0.043889306485653,0.031475279480219,-0.027894642204046,-0.089812502264977,-0.11143663525581,-0.1786205470562,0.10432320833206,-0.24769127368927,0.27558898925781,-0.047253470867872,-0.094562359154224,0.16119539737701,-0.0040648025460541,-0.085388772189617,-0.12567906081676,0.13875196874142,-0.12488301098347,0.15506957471371,-0.030943108722568,-0.090291887521744,-0.029843624681234,-0.0091695049777627,0.089667320251465,0.19243438541889,0.046334773302078,-0.0047929603606462,-0.31062206625938,-0.059328556060791,0.40785840153694,0.37883287668228,-0.097331322729588,0.08979406952858,-0.12830770015717,0.12861774861813,-0.14929842948914,-0.048604402691126,0.11667468398809,-0.001592293381691,-0.15821444988251,9.2734815552831e-05,0.17614924907684,0.075587369501591,-0.0061189085245132,-0.36060294508934,-0.19991913437843,0.016609963029623,-0.21629068255424,-0.13728378713131,-0.17113688588142,0.20377540588379,-0.16201233863831,0.055686134845018,0.21610243618488,0.10908547788858,-0.21431945264339,-0.043308570981026,-0.016835359856486,0.22859810292721,-0.1405089199543,-0.078735984861851,0.041748557239771,-0.12842617928982,0.10698719322681,-0.26149693131447,0.047264210879803,-0.049454975873232,-0.1601687669754,0.060534872114658,0.066486306488514,0.063205242156982,-0.0069886012934148,0.35939237475395,-0.13192649185658,0.018611738458276
0.42455118894577,-0.030654516071081,1.040602684021,0.15131974220276,0.10524802654982,0.14879700541496,0.64789122343063,0.18838056921959,0.65326201915741,0.21515181660652,-0.31836923956871,0.37498128414154,-0.38782426714897,-0.19516856968403,0.043476209044456,0.20316985249519,-0.022755533456802,0.4541899561882,-0.14743788540363,-1.8934980630875,-0.012526571750641,-0.55527579784393,0.066704504191875,0.12316129356623,-0.85712045431137,0.34926840662956,0.58949905633926,-0.37410658597946,0.20920224487782,-0.10835265368223,-1.0645118951797,-0.22126415371895,-0.014304663985968,-0.59241670370102,-0.070018216967583,0.090431094169617,-0.9562531709671,0.24850414693356,0.77664709091187,0.44429206848145,0.052262764424086,-0.12296718358994,-0.76978069543839,0.16584974527359,0.15189746022224,0.49114122986794,-0.0934027582407,-0.2231183797121,-0.65703082084656,-1.3413016796112,0.22185327112675,-0.74347990751266,0.17425836622715,-0.072981119155884,0.12887175381184,-0.041528955101967,-0.56817048788071,0.79803603887558,-0.13745595514774,0.2123835682869,0.040752846747637,0.16220653057098,-0.33065024018288,0.294961810112,0.12808471918106,0.19435116648674,0.2891580760479,-0.58404725790024,-0.48020792007446,-0.11664199829102,-0.43158119916916,0.3710353076458,-0.051774717867374,-0.23090459406376,0.26346319913864,0.26380664110184,0.31807938218117,0.13516004383564,0.10041079670191,0.049845974892378,0.084316231310368,0.089028403162956,0.011715663596988,0.17127469182014,0.55716747045517,0.39733216166496,0.32688593864441,0.15213297307491,0.81094694137573,-0.14554652571678,-0.11831989884377,0.21566519141197,-0.19644674658775,-0.094992004334927,-0.74445116519928,0.34671556949615,0.058879088610411,0.27557528018951,-0.0059851794503629,-0.77356231212616,0.24319760501385,0.089370705187321,0.24827170372009,-0.80479496717453,0.083160765469074,-0.30003789067268,-0.51713061332703,0.22258575260639,-0.18320807814598,0.59284281730652,0.20317304134369,-0.20440064370632,-0.021242884919047,-0.075967825949192,-0.56146556138992,-0.15437293052673,-0.54312008619308,-0.23749712109566,1.0414017438889,0.15188544988632,-0.073701195418835,-0.67836838960648,0.36203947663307,0.45682272315025,-0.26612168550491,-0.65159887075424,0.079092621803284,-0.027502674609423
0.40863183140755,0.70891445875168,0.36824595928192,-0.059250589460135,0.17956055700779,-0.011844595894217,-0.53750568628311,-0.061165276914835,-1.1534733772278,0.18068382143974,-0.2723423242569,-1.0396926403046,0.02257532812655,0.019001035019755,-0.21171668171883,-0.021915787830949,0.22052112221718,0.069252371788025,0.20288890600204,-0.55068254470825,-0.070215828716755,0.23861610889435,-0.011667097918689,-0.28770714998245,-0.061269637197256,-0.35032492876053,0.048626720905304,0.0022254646755755,-0.2774273455143,-0.055866725742817,-0.33677154779434,0.099353142082691,0.035903416574001,0.575290620327,0.80680531263351,0.59351289272308,0.39765927195549,-0.45404997467995,-0.50163847208023,-0.036174938082695,-0.51532751321793,-0.11103471368551,-0.23643180727959,-0.26903474330902,0.01229206752032,0.6510808467865,0.13013914227486,-0.21035268902779,-0.041503805667162,0.75162023305893,-0.57400733232498,0.23390220105648,0.19799926877022,-0.35168996453285,-0.039765849709511,0.0082819769158959,-0.30944183468819,0.22299972176552,0.55251187086105,-0.23276627063751,0.25501507520676,-0.61119931936264,0.17181338369846,-0.24891412258148,0.5288782119751,-0.19985073804855,0.18911947309971,-0.26667651534081,0.38400757312775,0.71468657255173,-0.13911351561546,-0.041158862411976,-0.65756088495255,-0.0077905585058033,0.030866736546159,-1.1531274318695,0.23823733627796,0.60249811410904,-0.22091789543629,-0.025933759287,0.054426047950983,0.22998087108135,0.065263196825981,-0.10007443279028,-0.51929277181625,-0.4908507168293,0.33832371234894,-0.40797838568687,-0.12219613045454,-0.4052092730999,-0.4764170050621,-0.26855006814003,-0.66523110866547,-0.25926193594933,-0.26131021976471,0.40851885080338,-0.11487228423357,0.78240394592285,0.69825422763824,-0.64329379796982,-0.3614028096199,0.10188030451536,0.0055511780083179,-0.43354752659798,0.050430227071047,-0.85930091142654,-0.21398887038231,-0.026738964021206,-0.21415109932423,-0.136505022645,-0.0067804479040205,0.082271665334702,-0.2884832918644,0.053362891077995,-0.15961171686649,0.2608650624752,0.50664395093918,0.66697007417679,-0.075773008167744,0.19448210299015,0.34491696953773,0.51304638385773,-0.5526322722435,-0.29329514503479,-0.79851633310318,-0.042069099843502,-0.27513563632965,0.02257863804698
0.084463648498058,-0.50900572538376,-0.020840277895331,0.31922617554665,-0.17264750599861,-0.061423495411873,0.32022124528885,0.048904489725828,-0.09112061560154,0.002975715091452,0.066570110619068,0.33173456788063,0.1103013753891,0.056778769940138,-0.18296214938164,0.11644072830677,0.093833684921265,-0.11547289788723,-0.094501130282879,-0.038593735545874,0.21363098919392,-0.013012609444559,-0.23496708273888,0.18472862243652,-0.16560071706772,0.037001024931669,0.054250400513411,-0.17607569694519,0.30921936035156,-0.5010170340538,-0.2732959985733,0.072069682180882,0.18268841505051,0.15859033167362,0.46077844500542,0.19050061702728,0.012285253033042,0.10115363448858,0.16596338152885,0.010436092503369,-0.11709939688444,-0.067353777587414,0.0076761282980442,0.11133970320225,-0.13491004705429,-0.047866538167,0.042581025511026,0.024404568597674,-0.29190507531166,-0.12933637201786,0.02177332341671,0.10155605524778,-0.084006495773792,0.15961885452271,0.21837820112705,0.025379683822393,-0.080302640795708,-0.11244655400515,-0.038089390844107,0.037646178156137,-0.085744448006153,0.1495408564806,-0.09893211722374,0.033373009413481,-0.20975424349308,0.084840029478073,-0.16734482347965,-0.091297835111618,0.31818848848343,-0.20330116152763,0.079608052968979,-0.2220906317234,0.49210131168365,0.21596150100231,-0.0098479883745313,-0.029981730505824,-0.037625879049301,0.31996458768845,-0.16564938426018,0.10247454047203,-0.10512609034777,-0.0093662217259407,-0.21214021742344,0.078108169138432,0.056255981326103,0.38559392094612,-0.09030082821846,-0.11691175401211,-0.046626918017864,-0.05659656971693,0.42936006188393,0.060455955564976,-0.076119028031826,-0.30564832687378,-0.19732880592346,0.036587122827768,0.36198404431343,-0.5075209736824,-0.17550094425678,0.13398790359497,-0.14883360266685,-0.18501541018486,0.387850522995,0.44275090098381,-0.41611385345459,-0.24917368590832,-0.052273873239756,0.2145944237709,-0.1367045789957,0.064276315271854,-0.15313678979874,0.018817815929651,-0.12566809356213,0.26510572433472,0.033249653875828,-0.094252027571201,0.29909315705299,-0.19205504655838,0.12155997008085,-0.26411086320877,0.63375866413116,0.034230574965477,0.15058775246143,0.10886894911528,0.032612670212984,-0.26152661442757,0.23942758142948,0.13605441153049
0.21831849217415,0.17248773574829,0.86433583498001,-0.41921815276146,-0.14456574618816,0.26782807707787,0.28523120284081,0.053568504750729,-0.029083456844091,0.052353959530592,0.79351288080215,-0.3618897497654,-0.55662631988525,-0.91504019498825,-0.070772185921669,-0.66002184152603,0.36681252717972,-0.27881747484207,0.26178789138794,-0.81711411476135,0.59509706497192,-0.43137952685356,-0.059838932007551,0.30342379212379,-0.12630747258663,0.37921664118767,0.16662515699863,-0.18335904181004,-0.024170409888029,-0.42863529920578,-0.22329424321651,0.13359476625919,-0.78837156295776,0.0075897192582488,1.3649792671204,0.701331615448,-0.5063436627388,-0.079679280519485,0.30468481779099,-0.13181795179844,-0.29273447394371,-0.52034723758698,0.39243075251579,-0.18199563026428,0.21469283103943,0.022526178508997,-0.67457991838455,0.16160510480404,-0.62249147891998,-0.17461930215359,-0.31523442268372,0.22026951611042,-0.57514894008636,0.13441856205463,0.31904208660126,0.74677401781082,0.33558195829391,0.59689754247665,-0.017275618389249,0.24170051515102,0.26377433538437,0.12444344162941,1.0154826641083,0.12648384273052,0.045734446495771,0.062419928610325,-0.015642767772079,0.38116380572319,0.27005386352539,0.49512493610382,0.32082602381706,-0.14675697684288,-0.51030510663986,0.15433239936829,-0.11265040934086,-0.16209387779236,0.62030225992203,-0.19033032655716,0.061992425471544,0.095857463777065,-0.061811365187168,-0.12493941932917,0.085859209299088,0.28872507810593,-0.19727678596973,-0.42099219560623,-0.25464949011803,-0.51805019378662,0.00082310306606814,0.24747122824192,0.1808470338583,-0.71706414222717,-0.22403383255005,0.057346288114786,-0.17005394399166,-0.17586179077625,0.5670468211174,0.0092808129265904,0.079799734055996,-0.25330579280853,0.14615434408188,-0.13768064975739,-0.098136596381664,-0.8877671957016,0.36085361242294,1.1126351356506,-0.019822495058179,0.30962556600571,-0.51487159729004,0.6381983757019,-0.19689346849918,-0.76975959539413,0.7692329287529,-0.33086267113686,0.36600637435913,0.83779954910278,-0.47030773758888,-0.24875226616859,-0.82003557682037,0.48203521966934,-0.54520058631897,-0.14593735337257,0.11782517284155,0.073233760893345,-0.32963684201241,0.40419083833694,0.27814793586731,-1.2861357927322
0.27648696303368,-0.27582401037216,0.63514357805252,0.18122586607933,-0.020901242271066,0.15424548089504,-0.35053852200508,-0.050658658146858,-0.37854301929474,-0.20887471735477,0.012651315890253,-0.89852434396744,-0.2717656493187,0.27594375610352,-0.10144048184156,0.30855241417885,-0.50693172216415,-0.55224448442459,0.38408446311951,0.6975759267807,-0.48409619927406,-0.87050050497055,-0.5068387389183,-0.027668541297317,0.4661630988121,-0.38932338356972,-0.91111528873444,-0.41259571909904,-0.32345220446587,-0.64469236135483,-0.52103048563004,0.22816342115402,-0.41253983974457,-0.13512542843819,0.3455805182457,0.24688844382763,0.27282565832138,-0.70215445756912,-0.031955651938915,-0.17205737531185,0.66193348169327,-0.36529844999313,0.095850400626659,0.17909783124924,0.081735886633396,0.2888677418232,-0.025061601772904,0.39976945519447,-1.1313426494598,0.33535301685333,-0.71671932935715,0.40095144510269,-0.087472915649414,-0.33795121312141,-0.33274784684181,-0.63700592517853,1.2881169319153,-0.50763428211212,-0.35541680455208,-0.004469997715205,0.063358791172504,-0.016030073165894,0.43067941069603,0.30411666631699,0.5349930524826,0.090799234807491,0.47563201189041,0.30699476599693,0.31814107298851,0.59606420993805,-1.0241878032684,-0.49975284934044,-0.64213049411774,0.21689219772816,0.23709972202778,-0.41251757740974,0.067185677587986,0.2685159444809,-0.34249746799469,-0.25325790047646,0.32060450315475,0.51295977830887,-0.030630886554718,-0.069145433604717,-0.18034081161022,0.53568679094315,0.35527583956718,-0.86811923980713,0.44609406590462,-0.122404769063,-0.016875993460417,-0.043087411671877,0.074260428547859,-0.27955347299576,0.037586115300655,0.56791347265244,-0.71332550048828,0.79523909091949,0.2323979139328,-1.1618419885635,-0.30464693903923,-0.54971474409103,0.67167747020721,0.93548089265823,0.7192804813385,0.35093095898628,-0.01608513854444,-0.410375893116,-0.35819777846336,0.42206427454948,-0.54911959171295,0.0075719836167991,0.551214158535,-0.47157710790634,0.85637128353119,-0.37336239218712,0.45514565706253,-0.67756700515747,-0.14236871898174,-0.31481260061264,-0.75181245803833,0.11869649589062,0.14051580429077,-0.39591386914253,-0.44075292348862,0.026511415839195,0.12562072277069,-0.30334079265594
-0.64441776275635,0.17266681790352,0.28109809756279,0.2064019292593,0.0025070086121559,-0.09843884408474,0.33753514289856,-0.15105131268501,-0.56997865438461,0.038595646619797,-0.4057722389698,-0.2448848336935,0.25782749056816,-0.17352956533432,-0.19557082653046,-0.50436782836914,0.52865678071976,0.58227694034576,-0.057569947093725,0.1590174138546,0.23221057653427,-0.15827968716621,0.53619319200516,-2.0764102935791,0.035526271909475,1.0561356544495,-0.076522618532181,-0.5209202170372,-0.38337215781212,0.29056689143181,-0.33204364776611,-0.21368019282818,-0.76285147666931,0.2444239705801,0.37946438789368,-0.043426249176264,-0.13419133424759,-0.23349946737289,0.25123465061188,-0.35955473780632,-0.32710686326027,0.49983176589012,-0.0023381204809994,0.086923621594906,-1.3160789012909,0.13979932665825,-0.15077984333038,-0.21107871830463,-0.15962292253971,-0.059964887797832,0.21064135432243,0.223209425807,1.554115653038,0.16168887913227,-0.2307562828064,0.39561718702316,0.18925233185291,0.16655319929123,0.7215850353241,-1.2635388374329,0.8589528799057,-0.77085494995117,0.026919825002551,0.059056986123323,-0.32769024372101,-0.04292530938983,0.13600112497807,-0.7960649728775,0.1866590231657,-0.34624004364014,0.29209712147713,0.25300785899162,-0.71277558803558,-0.18057529628277,0.17137280106544,0.31179228425026,-0.037135370075703,-1.0130676031113,-0.098476924002171,0.091243535280228,0.49388575553894,0.013507023453712,1.8497627973557,-0.34046134352684,-0.92249727249146,-0.60109436511993,-0.77493238449097,-0.10309173166752,0.34428253769875,0.25336462259293,-0.64061260223389,0.12637034058571,-1.2151553630829,-0.055079579353333,0.066603042185307,0.29434445500374,-0.494125187397,-0.14494444429874,0.017910925671458,0.043109498918056,-0.1969128549099,0.45401039719582,0.2776443362236,0.56267380714417,-0.0003953822015319,0.0095638697966933,0.44925719499588,-0.759869992733,0.81478196382523,0.089253835380077,-0.30226454138756,1.0513278245926,-0.074914902448654,-0.070027723908424,-0.09643430262804,0.43681192398071,0.40022927522659,-0.52234345674515,-0.37894308567047,-0.40572214126587,0.18030531704426,-0.29694902896881,0.21813026070595,-0.031577743589878,-0.3693476319313,-0.30487704277039,-1.3625000715256,0.17992900311947
-0.31328946352005,0.047202944755554,0.099853098392487,0.0037187167908996,-0.33176302909851,0.028596796095371,-0.22191147506237,-0.012198439799249,-0.077333331108093,0.0065244869329035,-0.074056819081306,-0.070444151759148,0.14720685780048,0.0048161908052862,0.0087329652160406,-0.13508303463459,0.14231373369694,0.26167130470276,-0.05267621576786,0.07101584225893,-0.019696194678545,-0.08002807945013,-0.097052469849586,0.035534404218197,-0.086379267275333,0.014696209691465,-0.094296753406525,-0.044410109519958,-0.039432849735022,0.026848385110497,0.037806782871485,-0.018387287855148,-0.15367363393307,0.0027356424834579,0.032632563263178,-0.030078683048487,-0.084101967513561,-0.14005321264267,-0.16330268979073,-0.050917223095894,-0.078157536685467,0.0028540717903525,-0.065669700503349,-0.17480544745922,-0.024165825918317,0.16522473096848,0.049328602850437,0.10258989036083,0.062811248004436,-0.071439079940319,-0.11113882064819,0.040249917656183,0.065084487199783,-0.23224981129169,-0.050065819174051,-0.07800730317831,-0.19259026646614,-0.18420810997486,-0.1188530176878,-0.050364095717669,0.20367543399334,-0.036505956202745,-0.036943484097719,-0.079871192574501,0.24272736907005,0.025638312101364,0.049976535141468,0.049984183162451,-0.03361064568162,-0.13355651497841,-0.020815167576075,0.0068324087187648,-0.11050305515528,0.0014612895902246,-0.026231057941914,-0.18322609364986,-0.013107898645103,0.03118184581399,-0.011661952361465,0.23243528604507,-0.11368607729673,-0.12346130609512,-0.061377190053463,-0.16523689031601,-0.13204051554203,0.025604059919715,-0.15305560827255,-0.087365716695786,0.084943704307079,0.034123554825783,0.042953044176102,0.063578300178051,-0.069426290690899,0.060611814260483,0.067234851419926,-0.11005185544491,-0.06723690778017,0.022227086126804,-0.18284578621387,0.042098186910152,0.25236451625824,-0.10280644893646,-0.2289454638958,0.064063623547554,0.03166539222002,0.20916606485844,-0.092356771230698,-0.038910161703825,0.19762542843819,-0.12419041246176,0.1013587936759,0.19711218774319,-0.2034130692482,0.087441056966782,0.086025670170784,0.071482807397842,0.15117256343365,-0.069303721189499,0.0090750176459551,0.16725662350655,0.04686738178134,-0.18127718567848,-0.014231347478926,0.059049300849438,-0.019875707104802,0.21288606524467,0.0080918269231915,-0.049130704253912
-0.11460743099451,0.32674339413643,0.21566405892372,-0.31412255764008,0.34412372112274,0.42940989136696,-0.62775987386703,-0.018762219697237,0.1386179625988,-0.096595123410225,0.37296321988106,0.27836915850639,-0.15253819525242,-0.14733955264091,-0.074994474649429,0.0070020384155214,-0.53251296281815,0.2784980237484,0.31201982498169,-0.20458742976189,-0.1202067732811,0.1412531286478,-0.30015480518341,-0.95662319660187,-0.22797219455242,-0.25406584143639,0.30046331882477,-0.059690047055483,-0.0055687916465104,0.11128835380077,-0.20746594667435,-0.18865329027176,0.13277579843998,0.16854023933411,0.76713687181473,0.39511239528656,0.15108548104763,0.17862468957901,0.11251930147409,0.7359853386879,-0.22204214334488,0.072517178952694,0.03285301476717,0.10038045793772,0.1541415899992,0.16903948783875,-0.037323150783777,-0.41914248466492,0.13645400106907,0.08802592009306,0.11199486255646,0.39950686693192,-0.004260822199285,0.0068762823939323,0.11310502141714,-0.54437571763992,0.4437241256237,-0.035229593515396,0.3506093621254,-0.25785237550735,0.1426247805357,-0.5017546415329,-0.17856581509113,-0.13888084888458,0.053501006215811,-0.38681668043137,0.21482534706593,-0.032945182174444,0.18535055220127,-0.16849283874035,0.33061751723289,0.036355119198561,-0.28198948502541,0.21348686516285,0.52185142040253,-0.049110051244497,-0.1919322013855,0.04722136259079,0.16679733991623,0.14062350988388,0.11944972723722,-0.14609488844872,0.22028844058514,0.0048699108883739,0.84571969509125,-0.35225996375084,0.063178986310959,0.16928505897522,-0.65834105014801,0.053990948945284,0.094659671187401,-0.19693894684315,0.43431186676025,-0.02951717749238,-0.27637684345245,0.072540819644928,0.26408442854881,-0.045254122465849,-0.049276173114777,-0.3024600148201,0.016869096085429,-0.1868888437748,0.17967338860035,0.26257845759392,0.23147028684616,0.29966661334038,-0.11553390324116,0.11938005685806,-0.093945674598217,-0.16639965772629,-0.11185113340616,0.63989293575287,0.12859615683556,-0.63665837049484,-0.45124343037605,0.054268915206194,-0.33481833338737,-0.17275561392307,-0.044122755527496,0.2041243314743,-0.3908095061779,0.22348269820213,-0.46562442183495,0.39688244462013,0.052805878221989,0.39825919270515,-0.66647785902023,0.086754940450191
-0.0014838516945019,-0.46120226383209,-0.27218893170357,0.008460140787065,-0.14152830839157,-0.31076568365097,-0.38436314463615,-0.12812732160091,-0.347985714674,0.12744480371475,0.40743508934975,0.035744488239288,0.51262599229813,0.023358317092061,-0.049926854670048,-0.2041808962822,0.38283917307854,0.37553757429123,-0.32560852169991,-0.30151858925819,0.64340096712112,-0.19736142456532,-0.26538062095642,-0.27128392457962,0.45817089080811,0.1273133456707,0.11749481409788,0.40345761179924,0.26175680756569,-0.0059839151799679,-0.26482170820236,-0.030563306063414,0.7486264705658,0.50755429267883,0.081176914274693,0.74697953462601,0.3361853659153,0.26364606618881,0.17686951160431,-0.1811388283968,-0.21736691892147,-0.14373396337032,-0.041954576969147,0.30709543824196,0.065608307719231,-0.038213584572077,-0.098671555519104,-0.088204734027386,-0.2580748796463,0.13236379623413,-0.011077377013862,0.1698060631752,0.2214127779007,0.26807072758675,-0.040126528590918,-0.34637445211411,0.46805912256241,-0.30406174063683,-0.075089186429977,0.15301856398582,0.23375031352043,-0.14224083721638,0.12983649969101,0.021031653508544,-0.10426259785891,0.040217462927103,-0.046978648751974,0.34526193141937,-0.27704113721848,-0.20850603282452,-0.013532867655158,0.20170997083187,-0.59027367830276,-0.39592638611794,0.29008454084396,0.10006555169821,-0.020929859951138,0.25794583559036,0.30218648910522,0.013963114470243,0.037933856248856,0.11350508779287,0.32099792361259,0.22603720426559,-0.61914795637131,0.021188305690885,0.0038616610690951,0.32948106527328,0.052655890583992,-0.40287739038467,0.39990389347076,-0.19180236756802,-0.50910127162933,-0.31664198637009,0.15665990114212,0.044842377305031,0.086071759462357,0.14670638740063,0.12166185677052,0.20567479729652,-0.066053293645382,-0.19941791892052,0.31614941358566,0.0076789348386228,-0.061025511473417,0.021471854299307,0.084056869149208,0.48538789153099,0.34609720110893,0.026278747245669,0.12957422435284,0.55659013986588,-0.46707105636597,0.043938368558884,0.0096351550891995,-0.08514166623354,-0.026539787650108,-0.36339911818504,0.1148598715663,-0.63964301347733,-0.36800834536552,0.13195531070232,0.032887138426304,-0.11022143810987,-0.072248309850693,0.57333171367645,-0.067129977047443,0.28422826528549
0.89538776874542,-0.062755689024925,0.63265973329544,0.023208696395159,-0.33997124433517,0.28755748271942,0.45685210824013,-0.012924283742905,-0.73597747087479,-0.14724083244801,-0.40714716911316,-0.39498409628868,1.1824327707291,-0.17981688678265,0.28651586174965,-0.042552329599857,0.19238147139549,0.3493714928627,-0.63224297761917,-0.20646964013577,0.2060190141201,0.26744091510773,-0.22406531870365,-0.96328949928284,-0.16530326008797,0.030360274016857,-0.83831918239594,-0.65661418437958,-0.17347222566605,-0.23676125705242,-0.43278855085373,-0.28024983406067,0.39019620418549,0.75337588787079,0.19078859686852,0.094726853072643,1.1748986244202,0.10465310513973,0.52400320768356,0.16309270262718,-0.22071009874344,-0.82771611213684,0.075273953378201,0.33411794900894,0.63121271133423,-0.0070122368633747,0.62638372182846,0.61822313070297,0.073454864323139,-0.7730016708374,-0.22009690105915,-0.42429515719414,1.2382675409317,-0.43672975897789,0.17386037111282,-0.37476995587349,-0.010264522396028,0.066122926771641,-0.62090939283371,-0.88688600063324,-0.14013934135437,-1.1491425037384,0.02229923196137,-0.17096151411533,0.12279435992241,0.25107201933861,-0.58686596155167,0.18449331820011,-0.19693170487881,0.31833809614182,0.074477590620518,0.013791223987937,0.078769445419312,-0.17708265781403,0.21364431083202,0.16186919808388,0.31058007478714,-0.20530767738819,-0.30389279127121,-0.21951971948147,0.58664065599442,-1.0630042552948,0.46766337752342,0.30850797891617,-0.35069510340691,0.10752724856138,-0.066190630197525,-0.66681158542633,0.24140799045563,-0.032892126590014,0.22430169582367,-0.57312774658203,0.47166240215302,-0.52898782491684,0.042891055345535,1.0637444257736,-0.23275576531887,-0.82565122842789,-0.073012679815292,-0.64534193277359,0.074718222022057,0.41650423407555,0.1802904009819,0.14720945060253,-0.2843602001667,0.43816286325455,0.060681346803904,0.023082967847586,0.21741811931133,-0.19628827273846,0.25376668572426,1.3746281862259,0.67032146453857,-0.29743984341621,-0.073936358094215,-0.36197340488434,-0.38653552532196,-0.034707188606262,-0.20563860237598,-0.15015295147896,-0.31855174899101,0.088383197784424,-0.51621621847153,0.2653971016407,-0.18964180350304,-0.18604385852814,-0.40461111068726,-0.52691453695297
