-0.36726197600365,0.94421952962875,-0.24366100132465,-0.15807856619358,-0.13265112042427,0.14655144512653,-0.49505713582039,0.25504630804062,0.67703813314438,0.54534977674484,0.063376776874065,-0.398592710495,-0.35819512605667,-0.035247717052698,-0.31168219447136,0.022333482280374,0.22913044691086,0.44111663103104,-0.11238250136375,0.65861654281616,-0.064950026571751,0.83208465576172,0.28722211718559,-0.056337893009186,0.17647631466389,0.30368638038635,0.6456064581871,-0.44662740826607,0.13202923536301,-0.36734801530838,-0.61306017637253,0.14083710312843,0.12939535081387,-0.38520479202271,0.033391404896975,0.22708451747894,0.45773541927338,0.022357055917382,-0.055887434631586,-0.17868442833424,0.44299539923668,-0.34280824661255,0.29721674323082,0.24135883152485,-0.17211143672466,-0.37261140346527,-1.0832270383835,-0.052682567387819,0.60691726207733,0.055246457457542,-0.77573519945145,0.46829640865326,0.54449504613876,0.25919836759567,0.055689424276352,-0.20889317989349,0.21114182472229,0.57272398471832,0.14055193960667,0.15923953056335,0.39938870072365,0.064064376056194,-0.53130984306335,-0.16008250415325,0.39583718776703,0.083191238343716,0.070640549063683,-0.058762017637491,-0.772012591362,-0.048211239278316,-0.022617204114795,0.19409376382828,0.45753267407417,-0.10787078738213,0.014826758764684,0.73372375965118,0.12535864114761,-0.64084649085999,-0.42912840843201,0.7108246088028,-0.057223808020353,0.59626865386963,-0.40424081683159,0.078706815838814,-0.191320925951,-0.2731252014637,0.29631897807121,0.50324600934982,-0.37262704968452,-0.62128454446793,-0.34359532594681,-0.1633230894804,0.2384636849165,0.49885234236717,-0.11448985338211,0.067598655819893,-0.026108710095286,0.02313207834959,0.88270324468613,-0.13868415355682,0.356749355793,-0.15024875104427,-0.22187633812428,0.18045724928379,0.63517534732819,-0.23015484213829,-0.2618060708046,-0.651427090168,-0.24745135009289,-0.48188591003418,0.39499092102051,0.16106615960598,-0.22551091015339,-0.17452788352966,-0.4254315495491,0.14493574202061,-0.33271577954292,-0.045137897133827,-0.073124654591084,-0.15506668388844,0.52945595979691,-0.16124971210957,0.5896013379097,0.23539724946022,-0.46589687466621,0.4311937391758,0.27375742793083,-0.15496999025345
-0.41381725668907,0.01425520889461,0.44549876451492,-0.36388525366783,-0.36559021472931,-0.2537727355957,-0.14289525151253,-0.25928226113319,-0.43823808431625,0.11006909608841,-0.29566985368729,-0.37794333696365,-0.076513573527336,0.53420358896255,0.716856777668,-0.047330632805824,-0.25503519177437,0.65101081132889,-0.4127833545208,0.34821563959122,0.16205158829689,0.12689778208733,0.21170577406883,-0.47412538528442,0.43072828650475,-0.2697092294693,0.24870465695858,-0.022167880088091,-0.040373183786869,0.13510558009148,-0.18694444000721,4.1385566873942e-05,-0.039000563323498,0.39545297622681,0.39038798213005,-0.35020706057549,-0.009006904438138,-0.055353742092848,0.367018699646,-0.27345782518387,-0.33656698465347,-0.0107975108549,0.11506376415491,0.24036331474781,-0.22210004925728,-0.24528837203979,0.3424691259861,0.12788650393486,0.2338120341301,0.9267612695694,-0.066804371774197,0.068026579916477,-0.2819659113884,-0.48585119843483,-0.28136259317398,0.67202389240265,0.23359116911888,-0.65690875053406,0.45251086354256,0.48166742920876,-0.14155980944633,-0.032111175358295,-0.05806140601635,0.28934052586555,0.59899842739105,0.4320393204689,0.6143861413002,-0.34934538602829,-0.32863280177116,0.15382684767246,-0.14337548613548,-0.25857204198837,0.042663298547268,0.26447919011116,-0.029853470623493,0.092256754636765,-0.01568965613842,0.11574294418097,-0.21016645431519,-0.016382604837418,0.13027186691761,0.37524917721748,-0.18719094991684,-0.26242426037788,-0.32221469283104,-0.0034155219327658,-0.25778272747993,0.58832269906998,0.25114604830742,-0.090276390314102,-0.03111856803298,0.067276053130627,0.0033269226551056,-0.29556778073311,-0.11932283639908,0.19417202472687,-0.77135199308395,0.19790482521057,-0.029604034498334,0.1047827899456,0.30712270736694,-0.50736546516418,0.24558687210083,-0.34835124015808,-0.10658327490091,0.075295440852642,-0.7436934709549,-0.0032395329326391,-0.083167113363743,-0.37540805339813,0.15134857594967,0.27023008465767,-0.40978565812111,0.3905662894249,0.23276489973068,0.30928638577461,0.13105830550194,0.058114483952522,-0.2200548350811,-0.53499919176102,0.24317620694637,0.034550759941339,-0.093618512153625,0.46711841225624,-0.31911528110504,0.097160384058952,0.25187012553215,0.4539036154747
-0.69913291931152,-0.20595255494118,-0.064875915646553,-0.1054440960288,-0.37345352768898,0.21487160027027,-0.55041432380676,0.23092889785767,-0.12492763996124,-0.098074711859226,-0.39933905005455,-0.2979964017868,0.19342035055161,-0.45162552595139,0.28587850928307,-0.23929843306541,-0.41948366165161,0.16564284265041,0.19152845442295,0.0095855919644237,-0.33221578598022,0.12410106509924,0.20875608921051,0.25310954451561,0.33890837430954,0.20868635177612,0.54104053974152,-0.36517813801765,-0.32163575291634,0.02580282650888,-0.1702223867178,0.046099826693535,-0.14705613255501,-0.49670520424843,0.38893699645996,-0.048539698123932,-0.084448620676994,0.085274703800678,-0.10207362473011,-0.38467624783516,0.10908730328083,-0.42282336950302,-0.032006330788136,0.20529095828533,-0.19705991446972,-0.057417966425419,-0.049489438533783,-0.21579851210117,0.15871238708496,-0.21285884082317,0.27326935529709,-0.18147405982018,0.053774755448103,0.016728917136788,-0.40374758839607,-0.14179790019989,-0.63239109516144,-0.20945854485035,0.33780407905579,0.61186325550079,-0.36099898815155,-0.12927171587944,-0.030188012868166,0.25642105937004,0.091455399990082,0.23344126343727,0.1192399635911,0.1064882799983,-0.052585408091545,0.016119075939059,-0.33296349644661,-0.26664257049561,-0.097354337573051,-0.30302709341049,-0.19857911765575,0.16190424561501,-0.16738505661488,0.21126461029053,-0.25592696666718,0.04216618090868,0.039440482854843,0.60567712783813,0.062531225383282,-0.005009647924453,-0.00051785784307867,-0.036809969693422,0.040972549468279,-0.34332635998726,0.4691147506237,-0.011257624253631,0.11764056235552,-0.3105776309967,-0.034946389496326,-0.20445808768272,-0.1331692636013,0.39577117562294,-0.20312707126141,-0.038500923663378,-0.33485069870949,0.45322439074516,-0.059264790266752,-0.51300454139709,0.11539017409086,0.52373367547989,0.002533768536523,-0.082207396626472,-0.11813054233789,0.35411915183067,0.13813672959805,-0.28502652049065,-0.28006216883659,0.2749180495739,0.25726893544197,0.17431305348873,-0.0059937885962427,0.39377838373184,-0.047395847737789,-0.17214997112751,0.11549388617277,-0.10912658274174,0.41053289175034,-0.074213907122612,0.51489299535751,0.31004133820534,-0.27853071689606,-0.36676681041718,-0.20117120444775,0.12874773144722
0.18948765099049,-0.083910070359707,0.39900833368301,-0.11667457222939,0.13226868212223,-0.12667174637318,-0.1787516027689,0.066843010485172,-0.27483510971069,0.13942177593708,-0.48993775248528,-0.079999923706055,0.42131492495537,0.15744842588902,-0.28312566876411,0.27327170968056,0.053165037184954,-0.065138310194016,-0.027448097243905,0.13516123592854,0.23395149409771,-0.073743417859077,0.169712677598,-0.32593324780464,0.94302409887314,-0.12166018784046,0.031016806140542,0.070108659565449,-0.022505328059196,-0.073070898652077,-0.069904088973999,0.15394030511379,0.06312557309866,-0.10283433645964,-0.22703540325165,-0.19468016922474,0.42114424705505,0.10584466159344,0.26402190327644,-0.26309874653816,-1.2237458229065,-0.35311010479927,-0.43237891793251,0.19501604139805,-0.3730880022049,-0.35547938942909,0.3210037946701,0.48387458920479,0.036763314157724,-0.0091365771368146,0.15330292284489,0.17265230417252,-0.25018966197968,-0.21666331589222,0.56626796722412,0.26799166202545,0.19438394904137,-0.29855999350548,0.17694759368896,0.50618863105774,-0.85125607252121,-0.55465263128281,-0.056950535625219,-0.089401662349701,-0.08751180768013,0.32319167256355,0.19705508649349,-0.47124907374382,0.54356288909912,0.13805711269379,0.14857704937458,-0.16026398539543,-0.65077871084213,0.45653513073921,-0.30735003948212,0.39377984404564,-0.17808835208416,0.13565629720688,1.237344622612,-0.09281948953867,0.77538722753525,0.1692937463522,0.39743566513062,-0.3311847448349,-0.78285729885101,-0.1356503367424,-0.25660037994385,0.18619745969772,0.4510583281517,0.0016972465673462,-0.35153043270111,0.12612691521645,1.0445468425751,-0.244643881917,0.071355827152729,-0.44818022847176,0.077621951699257,0.19385255873203,-0.51649260520935,0.12488079816103,-0.09774362295866,0.10536275804043,-0.20630867779255,-0.021796463057399,-0.35715869069099,0.054090775549412,0.09171150624752,-0.31654486060143,0.27377325296402,-0.48423784971237,0.05690274387598,0.19214776158333,-0.47064918279648,0.08644662052393,-0.069057285785675,-0.062433451414108,-0.061399158090353,-0.059576191008091,0.091545507311821,0.28801962733269,0.12198007851839,-0.24969081580639,0.085198327898979,0.091589979827404,-0.10233968496323,-0.33052963018417,0.18405200541019,0.34008902311325
-0.48859319090843,-0.13642334938049,0.65576106309891,-0.19778910279274,0.23461145162582,0.56306463479996,-0.058152928948402,-0.11590198427439,-0.42460513114929,-0.021231224760413,-0.79875218868256,-0.22605328261852,-0.62200844287872,-0.36682856082916,0.29831942915916,0.42654836177826,-0.60477501153946,0.72259700298309,-0.32921317219734,0.011929035186768,0.40842682123184,0.4352058172226,0.091788895428181,-0.64959305524826,-0.46175387501717,-0.67321670055389,0.14404027163982,0.13491928577423,0.29117769002914,-0.34975302219391,0.022771492600441,-0.70360988378525,-0.37812268733978,0.33338156342506,-0.20985569059849,-0.73523300886154,-0.14293049275875,-0.12070722132921,-0.091602519154549,0.610959649086,0.68962001800537,-0.10544382035732,-0.85216814279556,0.38514077663422,0.21245267987251,0.21416595578194,-0.23331974446774,0.24302119016647,0.15621882677078,0.0044371322728693,-0.037142470479012,-0.27925983071327,0.11172049492598,-0.018825950101018,-0.10008418560028,0.1173018887639,0.55736601352692,0.19895675778389,-0.077475555241108,0.11837290227413,-0.1693412810564,0.10607066005468,-0.075228214263916,0.0051763588562608,0.1798891723156,-0.26582410931587,-0.3242059648037,0.45967438817024,0.26475560665131,-0.073584698140621,0.36726775765419,-0.58851772546768,0.21169058978558,-0.50715774297714,0.13145823776722,0.68252974748611,-0.31902366876602,-0.92190313339233,0.42209732532501,0.12616430222988,-0.001623748568818,0.18232020735741,0.60558986663818,0.26293432712555,0.9629442691803,-0.17268347740173,-0.0051365592516959,0.17064790427685,0.56705617904663,0.22303052246571,-0.3345046043396,-0.26985809206963,-0.33561429381371,-0.33699917793274,0.54921364784241,0.14381039142609,0.11149852722883,-0.29217115044594,0.069736480712891,-0.61974209547043,0.25200560688972,-0.63371592760086,-0.27126735448837,0.71974897384644,0.3128767311573,0.23030306398869,0.50423938035965,-0.24252210557461,-0.29308366775513,0.57858806848526,0.85562258958817,0.12419708818197,0.60434621572495,0.030402988195419,0.75730276107788,0.17673707008362,0.34466195106506,0.49425598978996,0.090554267168045,-0.33597537875175,0.22203266620636,-0.59995132684708,0.13360901176929,-0.014391778968275,-0.010808626189828,0.54362738132477,-0.29303580522537,-0.16171166300774
0.26360201835632,0.20420528948307,0.19140885770321,0.36999174952507,-0.10880441218615,0.058343231678009,0.049751382321119,0.10390187054873,-0.28924709558487,-0.30637630820274,0.076655521988869,0.12570065259933,-0.042425353080034,0.056089796125889,0.25888052582741,0.061097074300051,-0.047858916223049,-0.04448789358139,0.0098220836371183,-0.20792116224766,0.013800613582134,0.084944441914558,-0.16146150231361,0.28796887397766,0.11530967056751,-0.3882083594799,-0.28221169114113,0.23807142674923,-0.042527765035629,0.021798584610224,0.02662761323154,-0.66804796457291,0.45637771487236,0.6104451417923,-0.19679287075996,-0.15828710794449,0.097501151263714,-0.16114531457424,-0.24092461168766,0.12480946630239,0.14425419270992,0.16168139874935,0.30193415284157,0.010650179348886,-0.11450551450253,0.12860012054443,0.083441913127899,-0.31606018543243,-0.1172062009573,-0.3536402285099,0.14669427275658,0.071051396429539,0.27562817931175,-0.060745790600777,0.016000639647245,-0.28091797232628,0.3019785284996,0.16927281022072,0.052329424768686,-0.085184000432491,0.17441803216934,0.26577070355415,-0.080736480653286,0.105364382267,-0.014846009202302,-0.34408810734749,-0.083859071135521,0.13005839288235,-0.37505006790161,0.32287132740021,0.093368880450726,-0.050267808139324,0.11578050255775,0.27182647585869,0.42927023768425,0.021944480016828,0.36168220639229,0.068667180836201,0.097103767096996,-0.16577208042145,0.11328833550215,0.046408586204052,-0.00081851769937202,0.1050662919879,-0.10933564603329,0.31538155674934,-0.068120010197163,0.0029215225949883,0.11202185600996,0.22897081077099,0.21964691579342,0.17681796848774,0.10272639244795,0.067506209015846,0.17670412361622,0.30773317813873,0.073683202266693,-0.03061255812645,0.23980559408665,-0.43355050683022,-0.031621512025595,-0.25090444087982,-0.095730721950531,0.033595886081457,0.26188576221466,-0.0049233180470765,0.043545175343752,-0.34052011370659,-0.32119643688202,-0.084470219910145,-0.046460684388876,-0.18312600255013,-0.11800418049097,-0.069688096642494,-0.67912220954895,-0.29084253311157,0.10329751670361,0.33873161673546,0.085048653185368,-0.049957931041718,0.27148655056953,-0.073843158781528,0.22124482691288,-0.079447947442532,0.10907084494829,-0.077097445726395,0.29436391592026,0.018244409933686
0.21628028154373,-0.10049920529127,0.1393680870533,0.031967882066965,-0.066731609404087,-0.21863202750683,0.38596212863922,-0.027454543858767,-0.15395246446133,0.06561466306448,-0.7483828663826,0.17760150134563,0.011124490760267,0.13140749931335,-0.51810866594315,-0.74824899435043,-0.045943584293127,-0.27672734856606,0.30914747714996,-0.22232976555824,0.41810891032219,-0.53164082765579,-0.53264445066452,-0.1044500246644,0.51857602596283,-0.059786103665829,-0.5197052359581,0.2260640412569,-0.12909153103828,0.44712260365486,0.61182510852814,0.18303810060024,0.15177993476391,0.1588014960289,-0.21478822827339,0.046729572117329,0.40648320317268,-0.11222653836012,-0.23248958587646,0.42523157596588,-0.29700440168381,0.13773439824581,-0.12579695880413,-0.0018194379517809,-0.11310622096062,-0.10042586922646,0.23144935071468,0.40746638178825,0.18100608885288,0.14961630105972,0.20426742732525,-0.14183548092842,-0.60548120737076,-0.38699308037758,-0.061398062855005,0.31412619352341,0.28235545754433,-0.76035904884338,-0.25225108861923,-0.19794610142708,-0.80265605449677,-1.2320586442947,-0.0050865635275841,0.10754910111427,-0.22205592691898,-0.38016676902771,0.041684623807669,-1.2032577991486,-0.10687600076199,0.64681154489517,0.076391711831093,0.24943493306637,-0.84028524160385,0.45248931646347,-0.24316017329693,-0.068607874214649,-0.2784198820591,0.046357244253159,1.31691634655,-0.28411567211151,0.75734680891037,-0.23525683581829,0.20253469049931,0.0957210958004,0.1401913613081,-0.053958866745234,-0.28214374184608,0.043531101197004,0.20701791346073,0.10576742887497,-0.095092877745628,0.45595228672028,0.19721627235413,-0.36680954694748,0.1280102878809,-0.63668864965439,-0.27956879138947,0.85287457704544,-0.40938481688499,0.12753650546074,-0.55300170183182,-0.073186844587326,0.26316219568253,-0.15095146000385,-0.60232508182526,-0.18088530004025,-0.30182027816772,0.2610051035881,-0.019983191043139,-0.38929748535156,-0.61532390117645,-0.29494899511337,-0.43995609879494,-0.14349468052387,1.2785491943359,-0.27728906273842,0.31797501444817,-0.52613615989685,-0.014152249321342,0.3254998922348,0.45704865455627,-0.19402082264423,0.11727302521467,0.059884093701839,0.16509169340134,-0.47556874155998,0.4886129796505,0.23374526202679
-0.77204447984695,-0.049193482846022,0.48067188262939,-0.019802959635854,0.14520761370659,0.25525394082069,0.17279373109341,0.47482097148895,0.16448666155338,0.032206960022449,-0.12199661880732,0.3293491601944,0.12110585719347,0.15632256865501,-0.19394633173943,-0.57340997457504,0.79953080415726,-0.17506682872772,-0.079937607049942,0.19428078830242,0.59399765729904,0.13943468034267,0.22729694843292,0.15898098051548,0.78044861555099,0.020075898617506,0.5554204583168,-0.57383227348328,-0.26114577054977,0.44438973069191,-0.13910134136677,0.35353830456734,0.75644367933273,0.044473592191935,0.41036173701286,0.37035074830055,0.25234085321426,-0.075892709195614,0.99818980693817,-0.014218035154045,-0.6003270149231,-0.19760984182358,0.10054864734411,0.39298716187477,0.16574132442474,-0.36313274502754,-0.18041296303272,0.43799179792404,-0.19747591018677,0.54028904438019,-0.3669735789299,-0.070456348359585,-0.18449446558952,-0.49893310666084,0.24746802449226,0.84563589096069,0.20692276954651,-0.03284789249301,-0.12233127653599,0.69603776931763,-0.35350146889687,-0.024067420512438,0.10856597870588,0.090220212936401,0.062079377472401,0.4449950158596,0.48437604308128,-0.38478130102158,-0.12849570810795,0.12625643610954,-0.57793974876404,0.46855568885803,-0.42998787760735,0.38386470079422,0.10464540868998,-0.36088621616364,0.29910016059875,0.33068829774857,-0.15650388598442,-0.20897309482098,-0.10942774266005,0.11987704783678,0.03487715497613,0.060405198484659,-0.86510819196701,0.47167965769768,-0.68902450799942,0.5859123468399,0.13584965467453,-0.50362986326218,0.28082865476608,-0.014713779091835,0.22412237524986,0.7243544459343,0.47449323534966,0.38087606430054,0.42954522371292,0.66201961040497,-0.61763590574265,0.017341265454888,-0.12531785666943,-0.53915560245514,0.037614602595568,0.015097482129931,0.077779553830624,0.11620189994574,-0.41346603631973,0.65703755617142,-0.30348336696625,-0.34008970856667,-0.36120092868805,-0.16115608811378,-0.056967973709106,0.093717321753502,0.05289351940155,-0.35027128458023,-0.11143457144499,-0.024045569822192,-1.0245845317841,-0.46833410859108,0.13288944959641,0.47871488332748,-0.44121390581131,-0.17288601398468,-0.43100488185883,-0.28629776835442,-0.070561200380325,0.46933633089066
0.03216453269124,0.34006151556969,-0.34971335530281,0.70717281103134,-0.051157385110855,0.44986867904663,0.019397623836994,0.2359730899334,-0.39242944121361,0.68650054931641,-0.1695307046175,0.42946544289589,0.12776145339012,-0.076513953506947,-0.024996448308229,-0.10247728228569,0.24440307915211,-0.29814764857292,-0.22532670199871,-0.28123709559441,-0.13393504917622,-0.44103848934174,0.09438981115818,0.18846417963505,-0.042972352355719,-0.5612296462059,0.10308513045311,0.23514297604561,-0.35798463225365,-0.13641659915447,-0.61429762840271,-0.13615949451923,0.58300274610519,-0.05461522564292,0.069166406989098,-0.45821857452393,-0.15533503890038,0.56127893924713,0.38847514986992,-0.23166520893574,-0.23289303481579,-0.13692145049572,0.062601812183857,-0.18998493254185,-0.02771526761353,1.0525624752045,-0.22830978035927,0.48348778486252,0.67569619417191,-0.045228812843561,-0.13452592492104,0.17879562079906,0.22200717031956,0.36892166733742,-0.049839209765196,-0.23584452271461,0.42543998360634,0.065526679158211,-0.21462108194828,0.13106144964695,-0.61112201213837,0.36644965410233,-0.49222353100777,-0.40929833054543,-0.46326982975006,0.21021439135075,0.74513298273087,-0.21632970869541,0.11142791062593,-0.0024435098748654,-0.21890902519226,-0.5815446972847,-0.069186665117741,-0.11204520612955,-0.19414311647415,-0.2469894438982,-0.0043732118792832,0.71241384744644,-0.02445942722261,-0.12948641180992,0.24648232758045,-0.188033670187,-0.3420834839344,0.12640929222107,0.038086034357548,-0.79928892850876,0.35681653022766,0.066937431693077,0.046573214232922,0.54418176412582,-0.16230072081089,0.78115922212601,-0.13475920259953,-0.27690535783768,-0.058595467358828,0.31649172306061,-0.067926228046417,-0.48090994358063,-0.30670711398125,0.28877341747284,-0.2003758251667,-0.14283695816994,0.22154439985752,-0.37772732973099,-0.34283682703972,0.28896644711494,0.49987679719925,0.69360679388046,0.14335840940475,-0.22343564033508,-0.039608426392078,-0.72670805454254,0.65654909610748,-0.53954601287842,0.37080889940262,-0.41244566440582,-0.33095988631248,0.17819653451443,0.21474853157997,0.10156221687794,-0.73106348514557,-0.42337813973427,0.63836407661438,-0.41583245992661,0.14334532618523,-0.22262932360172,-0.45053386688232,0.42193681001663
-0.21835145354271,-0.10653836280107,0.032723464071751,0.020512517541647,-0.10300291329622,0.31649729609489,0.20345383882523,-0.01829943433404,0.30327990651131,-0.064738497138023,0.26997920870781,-0.074531652033329,0.16487823426723,0.0041097574867308,-0.033804353326559,-0.17936870455742,0.084156170487404,0.038224924355745,-0.18622949719429,0.081201054155827,-0.091708935797215,-0.15693286061287,0.29799929261208,-0.14079622924328,-0.19778236746788,-0.25994876027107,-0.054494854062796,-0.033426068723202,-0.31126347184181,-0.35959181189537,-0.077424265444279,0.25205129384995,0.059399828314781,-0.17854642868042,-0.15703523159027,0.073552802205086,0.10490025579929,-0.16854928433895,0.0247483253479,-0.29043605923653,-0.077560298144817,-0.5466668009758,0.27460044622421,-0.21883805096149,0.075173452496529,0.18789057433605,-0.17632299661636,0.37203854322433,0.055981211364269,-0.00063710525864735,-0.29995504021645,0.13229663670063,0.093424394726753,0.025797853246331,0.40217819809914,0.21575208008289,-0.09795006364584,0.17308133840561,-0.2924619615078,0.2408003360033,0.18999329209328,0.053880389779806,0.029763001948595,0.11581837385893,-0.041707150638103,0.1068637445569,0.14303623139858,-0.18360185623169,-0.12303882837296,-0.30548259615898,0.36395981907845,-0.27339527010918,0.069031402468681,-0.14585641026497,0.10228710621595,-0.055846385657787,0.081476949155331,-0.21652413904667,0.001576529815793,-0.095623925328255,0.046214684844017,0.20702542364597,-0.092028148472309,-0.28254371881485,0.13333143293858,0.24624310433865,0.059015143662691,0.24235357344151,0.14019313454628,0.03035201318562,-0.049980882555246,0.34777671098709,0.21312469244003,-0.25028175115585,-0.2417835444212,0.067507475614548,-0.0064971507526934,-0.08381026238203,0.23255948722363,0.23503594100475,0.1749179661274,0.10059493780136,0.39600968360901,-0.14301973581314,-0.060027781873941,0.10676437616348,-0.25039324164391,0.10763805359602,0.084972307085991,0.11446233838797,-0.082878604531288,0.017365735024214,-0.13225226104259,-0.029295394197106,0.12974545359612,-0.075888022780418,-0.11048270016909,0.024235608056188,-0.052652049809694,-0.25349950790405,-0.4765636920929,-0.12826597690582,0.11978433281183,0.047668181359768,0.06749252974987,0.16629798710346,-0.20851244032383,0.16114349663258
-0.0055209090933204,-0.28619328141212,-0.092465214431286,0.30139443278313,-0.23818464577198,-0.65718519687653,0.45119917392731,0.21454294025898,-0.40520077943802,-0.026866624131799,0.53201431035995,-0.034974534064531,-0.048587873578072,0.21759296953678,0.40786677598953,-0.65850883722305,0.087170906364918,-0.24091871082783,-0.47776991128922,0.2525849044323,0.1881972849369,-0.067090973258018,0.15637011826038,-0.29538369178772,0.21236865222454,0.73639154434204,-0.612000644207,0.40601468086243,0.011491402983665,-0.20440247654915,0.057610467076302,-0.45277160406113,0.18828257918358,0.010647845454514,0.34988540410995,-0.38790583610535,-0.46560379862785,0.11067958176136,0.24868123233318,-0.55609476566315,-0.1421042829752,-0.63576906919479,0.025626597926021,-0.074233166873455,-0.15594008564949,0.36278140544891,0.063312366604805,-0.22646398842335,0.20931918919086,-0.12176881730556,0.36560243368149,0.023919450119138,-0.049067366868258,-0.69643402099609,0.52087557315826,-0.018291594460607,0.64051085710526,0.13937203586102,0.31730651855469,-0.63118290901184,-0.59475690126419,0.27979576587677,-0.31223857402802,0.54455798864365,0.07011479139328,-0.46446353197098,0.52587151527405,-0.35920974612236,-0.43133497238159,-0.10721809417009,0.1605478823185,-0.28452464938164,0.33648407459259,0.40960410237312,-0.11677291244268,-0.11967471987009,0.26781380176544,0.53817838430405,-0.24459035694599,-0.21560519933701,0.35370367765427,-0.64783996343613,-0.13668011128902,-0.23768083751202,0.010376740247011,0.085833728313446,0.064645886421204,-0.001558702904731,-0.17544999718666,-0.056896768510342,0.11694060266018,0.045783795416355,0.031958118081093,-0.079698577523232,0.57429772615433,0.038964919745922,0.092861689627171,-0.34731036424637,-0.031211676076055,0.24136547744274,0.22078824043274,-0.17150320112705,0.53020352125168,-0.6446590423584,-0.62706238031387,-0.20206943154335,0.3255949318409,0.77712643146515,-0.20360665023327,-0.24430665373802,0.365582883358,0.47349572181702,0.51466447114944,-0.021715421229601,-0.20707878470421,0.45518234372139,0.024062978103757,0.71268552541733,0.28069493174553,-0.0043095918372273,-0.017605170607567,-0.051264215260744,0.34441459178925,-0.71402603387833,0.80840075016022,0.18852604925632,-0.18761664628983,-0.14690390229225
0.16045443713665,0.17936879396439,-0.12539227306843,0.1686092466116,-0.45534241199493,0.12899726629257,0.11635176837444,0.038454879075289,-0.032153088599443,-0.31889808177948,-0.56759983301163,0.046221904456615,0.10759630799294,-0.18383325636387,-0.31477972865105,-0.082729734480381,-0.18473121523857,-0.092451214790344,-0.15895286202431,-0.094626352190971,0.16798663139343,0.45910048484802,0.064668670296669,0.10280800610781,-0.21277366578579,-0.07758941501379,0.16185586154461,0.19635421037674,-0.35757157206535,-0.010083831846714,0.19497449696064,0.037841115146875,-0.024742422625422,0.12780007719994,0.012484253384173,0.027784680947661,0.23973521590233,0.019665293395519,-0.083403825759888,-0.84079128503799,-0.73545509576797,-0.045611266046762,1.3478220701218,0.033750299364328,0.033589396625757,0.091491743922234,0.19501426815987,-0.21050353348255,0.13482730090618,0.12233357876539,0.019184809178114,-0.32501140236855,0.58128982782364,-0.19077698886395,0.77566784620285,0.024174597114325,-0.88868761062622,-0.27177023887634,0.39456430077553,0.044157300144434,-0.2533452808857,-0.039730180054903,0.092096865177155,0.15304043889046,-0.15289208292961,0.0017917078221217,0.21293503046036,-0.15888959169388,0.042542662471533,-0.090599745512009,0.13233786821365,-0.14798766374588,0.55249607563019,0.0082779973745346,-0.093688055872917,-0.7247708439827,0.14111192524433,0.014131344854832,1.0869972705841,0.00023426004918292,-0.10021460056305,-0.054085195064545,-0.13867039978504,0.025164037942886,0.083075977861881,-0.12741927802563,0.16802796721458,0.015504853799939,0.37428876757622,0.2749382853508,-0.56496477127075,0.097539030015469,0.49471867084503,-0.028329396620393,-0.18260583281517,0.14683945477009,-0.29265576601028,0.060670651495457,-0.59143799543381,-7.4868738010991e-05,-0.66123765707016,0.074341550469398,0.16713635623455,-0.014881324954331,0.23904514312744,-0.20795284211636,0.057331189513206,0.015120800584555,1.1086947917938,-0.22422407567501,0.51041412353516,-0.23821717500687,-0.41749432682991,0.040363363921642,0.18277227878571,0.66608291864395,0.14365650713444,-0.23959751427174,0.22933812439442,0.24444077908993,-0.81864988803864,-0.0054623614996672,0.061498109251261,-0.070291675627232,0.0054424568079412,-0.22535409033298,-0.5893132686615,-0.23561990261078
-0.1825088262558,0.39993354678154,0.072735011577606,0.47412073612213,0.06720644980669,0.60724574327469,0.32728612422943,0.14576210081577,0.14048202335835,0.22236798703671,-0.12180894613266,-0.062282204627991,-0.042225476354361,-0.60408419370651,-0.37596997618675,-0.068251200020313,-0.42609518766403,-0.12452079355717,0.52192509174347,-0.20011085271835,-0.43180465698242,-0.28728657960892,0.67381316423416,-0.092083595693111,-0.5187936425209,-0.16015027463436,-0.032781712710857,-0.061730276793242,-0.64859330654144,0.26147848367691,-0.37690457701683,0.031028047204018,0.052053149789572,0.20962555706501,0.12714037299156,-0.46915662288666,-0.2637882232666,0.32754009962082,-0.41805306077003,0.14155685901642,-0.22265872359276,-0.28535798192024,-0.58854216337204,-0.13228836655617,-0.18083022534847,0.79605489969254,0.033536024391651,0.36720797419548,0.41514554619789,0.096234582364559,-0.21396820247173,0.38395524024963,-0.47690570354462,-0.75188136100769,-0.38611122965813,0.003606278449297,-0.034494269639254,0.4527879357338,-0.065856136381626,0.6191331744194,-0.091020859777927,-0.22025199234486,-0.30649068951607,0.31498235464096,-1.016820192337,0.16130149364471,0.06015133485198,-0.045410085469484,-0.07607951015234,0.27741542458534,-0.36730533838272,0.02606450766325,-0.22687338292599,-0.048859864473343,-0.81839168071747,0.28360563516617,-0.48488292098045,-0.20472891628742,-0.52401667833328,0.028577608987689,0.35844856500626,0.16143815219402,-0.13433635234833,0.57742094993591,0.39980587363243,-0.44633084535599,0.19354788959026,-0.0833490639925,-0.47484919428825,0.22253783047199,0.06192585080862,0.55444079637527,-0.36763173341751,0.37419247627258,0.3650304377079,-0.26424756646156,0.1356243044138,-0.22145672142506,-0.43752288818359,-0.17383694648743,-0.88039803504944,-0.82901275157928,0.69247192144394,0.70591723918915,0.079207457602024,-0.013014458119869,0.25723719596863,-0.019146662205458,-0.02432731539011,0.54166340827942,0.33655300736427,-0.73607039451599,0.070252187550068,-0.64376276731491,0.58986723423004,-0.474763661623,-0.66203105449677,0.18212379515171,-0.19552871584892,0.40104055404663,0.20356960594654,-0.091571554541588,-0.057637594640255,-0.062379937618971,-0.10811156779528,0.2159031778574,-0.77198189496994,0.25240007042885
0.084528155624866,-0.027103625237942,0.050461731851101,0.0392847917974,-0.83295261859894,0.30937251448631,0.011660079471767,-0.24151845276356,-0.48849666118622,-0.12371771782637,-0.52706295251846,-0.18626536428928,0.069869950413704,0.18896234035492,-0.09249983727932,-0.0075623062439263,-0.24084351956844,-0.44846865534782,0.015955835580826,-0.052936300635338,0.038138180971146,0.13623259961605,0.3863473534584,-0.62623143196106,-0.29500764608383,0.0096065392717719,0.47736185789108,0.20580607652664,0.12364948540926,-0.21104365587234,0.27869442105293,-0.15725067257881,-0.15110465884209,0.16349029541016,-0.54210084676743,0.80961096286774,0.024868441745639,0.048921912908554,-0.070810660719872,-0.61919832229614,0.20394930243492,-0.26290822029114,-0.38153070211411,0.047150641679764,-0.1124322116375,-1.2367209196091,-0.035266894847155,-0.080848716199398,0.57370150089264,-0.27370461821556,-0.23376289010048,0.25356328487396,-0.0031581497751176,-0.056852731853724,-0.41674298048019,0.088868960738182,0.043357066810131,-0.45985674858093,0.22474783658981,0.33283093571663,0.44175389409065,-0.12061224132776,0.28732478618622,0.019718911498785,-0.14277647435665,0.037287708371878,0.42365178465843,-0.18239508569241,-0.062595531344414,-0.15501031279564,0.87728708982468,-0.083024971187115,-0.1254526078701,-0.33151081204414,0.23129466176033,0.18262475728989,-0.053841590881348,-0.098077796399593,0.12755842506886,0.21519850194454,0.29474285244942,0.17843677103519,-0.12644669413567,-0.60915333032608,-1.2617733478546,0.28045910596848,0.29277834296227,-0.087424337863922,0.21005135774612,-0.57459259033203,0.39850932359695,-0.5202374458313,1.2185297012329,-0.3981916308403,0.094237454235554,0.3408839404583,-0.30782601237297,0.1018417775631,-0.6053295135498,0.29688811302185,0.3178762793541,0.054525662213564,0.20538340508938,-0.73237746953964,0.28438866138458,-0.29325193166733,-0.49179205298424,-0.26807436347008,0.29320016503334,-0.35023626685143,-0.33059108257294,-0.17736795544624,-0.23568627238274,0.16665826737881,0.5446999669075,0.31683477759361,0.0091405045241117,0.40337160229683,0.3525662124157,-0.26760157942772,0.032218422740698,0.12546162307262,0.35990473628044,-0.33208963274956,0.1963813751936,-0.063677527010441,-0.0067243361845613,-0.03563629835844
-0.48128044605255,-0.030660100281239,0.1467492878437,0.47143346071243,-0.53765994310379,0.35313585400581,-0.37285768985748,0.31358009576797,-0.071518793702126,-0.026033258065581,-0.6451370716095,-0.10363458842039,-0.10324227064848,-0.4892629981041,0.44531044363976,-0.58740848302841,-0.22555886209011,0.11045736074448,0.42461773753166,0.47171556949615,0.045825190842152,-0.32903656363487,-0.14898806810379,-0.29158130288124,-0.44050690531731,1.2901194095612,-0.39927765727043,-0.32348757982254,0.064357623457909,0.60910993814468,0.61385363340378,-0.43608105182648,-0.26917189359665,-0.29707208275795,0.75929528474808,-0.14401383697987,0.13994930684566,-0.17972084879875,0.67125064134598,-0.24812337756157,-1.51516020298,-0.76086175441742,-0.2451835423708,0.4868765771389,-0.011562709696591,0.38278216123581,-0.92338103055954,0.00026226279442199,0.5479679107666,0.75276327133179,-0.55025720596313,-0.11327058076859,-0.16289204359055,-0.55561763048172,0.094777308404446,-0.021908935159445,-0.34776017069817,0.12342794984579,-0.016199642792344,-0.41255781054497,-0.14269851148129,0.12330248951912,-0.028941463679075,-0.0035778740420938,-0.51721584796906,-0.013530561700463,0.16059954464436,-0.32845520973206,-0.059694111347198,-0.33637982606888,0.01796998269856,0.0070073893293738,-0.11445653438568,0.39820957183838,-0.054180342704058,-0.24106526374817,0.018810523673892,0.22590859234333,-0.18129253387451,-0.15772633254528,0.12295687943697,-0.30031043291092,-0.91283959150314,-0.35003530979156,-0.36053317785263,-0.18711391091347,-1.4807962179184,0.92840880155563,1.2783536911011,-0.53041517734528,-0.039851251989603,0.11810908466578,-0.092669919133186,0.32444101572037,0.53823959827423,-0.7712813615799,-0.78291016817093,0.17687115073204,-0.27054837346077,0.41016042232513,-0.12971867620945,-0.087464965879917,0.043098334223032,0.52277499437332,0.2954149544239,0.41549399495125,0.40299162268639,0.94374620914459,-0.075532034039497,-0.23988012969494,0.97932469844818,-0.25836178660393,-0.33655932545662,-0.056477304548025,0.83503043651581,-0.15169182419777,0.48168194293976,-0.28198784589767,-0.37569266557693,0.42919793725014,0.41954424977303,-0.53323459625244,0.25838616490364,-0.04085934907198,0.28390228748322,0.16851033270359,-0.38667193055153,-0.544588804245
0.33012786507607,0.93511718511581,0.20451702177525,-0.58475410938263,0.2113431096077,-0.14644226431847,0.29524159431458,0.1092596873641,-0.15714232623577,-0.7978600859642,0.25455677509308,-0.2323906570673,-0.6955007314682,0.48278242349625,-0.082013845443726,-0.77744513750076,0.33199927210808,-0.14334490895271,0.032800570130348,-0.57038623094559,0.063688382506371,-0.43872958421707,-0.070255227386951,-0.026415020227432,0.9672132730484,0.47902342677116,-0.076212905347347,0.22023625671864,-0.28897643089294,1.1055322885513,-0.51459974050522,-0.64732706546783,0.25252497196198,-0.64100432395935,0.45292288064957,0.30897286534309,0.073692865669727,-0.34294271469116,0.30544945597649,0.4927998483181,-0.71902495622635,0.24547833204269,-0.097790971398354,0.28171116113663,-0.53016644716263,-0.008439876139164,-0.42404037714005,0.15137140452862,0.2932214140892,0.01788317784667,-0.14957045018673,0.15163287520409,0.2080169916153,-0.5691990852356,0.046614952385426,-0.038901224732399,0.15552628040314,0.51905924081802,-0.18560157716274,-0.013416195288301,-0.14888173341751,-0.5351402759552,-0.16876856982708,0.48696202039719,0.14300455152988,-0.21781045198441,0.30480450391769,-0.75353670120239,0.34858411550522,0.72501116991043,0.32959246635437,0.39190778136253,0.033217888325453,-0.13565438985825,0.15126271545887,-1.1685200929642,0.24157333374023,0.88172215223312,0.65305089950562,-0.51855766773224,0.14973951876163,-0.26492127776146,0.4061783850193,0.7942191362381,-0.58293402194977,-0.053980231285095,0.18469677865505,0.042383946478367,-0.036822393536568,-0.21766033768654,0.10034304112196,0.69395989179611,0.48535442352295,-0.37913656234741,-0.54951632022858,0.10424369573593,-0.014732658863068,-0.14047464728355,-0.081239186227322,0.31611740589142,-0.42565006017685,0.74866110086441,0.10403228551149,-0.57307469844818,-0.35472273826599,-0.19842247664928,0.14763595163822,1.0562807321548,0.55971866846085,0.3921722471714,-0.77346217632294,-0.16230307519436,-0.55101436376572,0.38981345295906,-0.57051235437393,-0.69125688076019,0.86419063806534,0.26377391815186,-0.29680553078651,0.65779966115952,-0.33747935295105,-0.19381862878799,0.044717527925968,-0.1592368632555,0.0085439262911677,-0.55051976442337,-0.22707435488701,0.45337936282158
-0.11464498192072,1.0454951524734,-0.54452472925186,0.014616769738495,-0.14049006998539,-0.31647378206253,0.33210840821266,-0.38177534937859,-0.37133741378784,0.14528039097786,1.1030713319778,0.14948676526546,0.091011539101601,-0.00048690015682951,0.093320772051811,-0.074850365519524,0.10541036725044,0.12004771083593,0.6835475564003,-0.89526128768921,0.0054612811654806,0.19903165102005,0.066911339759827,0.088380217552185,-0.48467856645584,-0.13632230460644,-0.25021487474442,0.21302554011345,-0.39011722803116,-0.043623935431242,0.10864394903183,-0.30186992883682,0.28471997380257,0.35432025790215,-0.12378150224686,0.063449487090111,0.0657963976264,-0.13641577959061,0.26293560862541,-0.27546575665474,0.18664887547493,0.25820314884186,0.48023650050163,0.0078931218013167,-0.61662405729294,0.19204957783222,-0.50117671489716,0.11420980095863,0.29962459206581,-0.33846038579941,-0.22560049593449,0.10171445459127,0.21541108191013,0.32689574360847,0.59444159269333,-0.16164857149124,0.11438892036676,0.48059213161469,0.43360376358032,-0.16612915694714,-0.45220029354095,0.47509509325027,0.51665437221527,-0.36717268824577,-0.38846230506897,0.35440453886986,-0.13403312861919,0.28822091221809,-0.87794005870819,-0.17700289189816,0.27632397413254,-0.034928482025862,0.29669719934464,0.51612961292267,0.659184217453,0.03735514357686,0.12898281216621,0.18043859302998,-0.063430853188038,0.099480502307415,-0.03502844274044,0.20767046511173,0.028763316571712,-0.24743390083313,0.14372970163822,-0.22340597212315,-0.042628552764654,0.072115041315556,-0.27658578753471,0.18529288470745,-0.30670121312141,0.0049389274790883,0.24988755583763,-0.48499622941017,0.015802685171366,0.25941190123558,-0.20091153681278,0.2857793867588,0.11697927862406,0.13312348723412,0.030568815767765,-0.46114692091942,0.54309159517288,-0.54700398445129,0.021868767216802,-0.16318018734455,-0.036845933645964,-0.31576481461525,0.34579566121101,0.051643177866936,-0.078482642769814,0.1579667031765,-0.1181351467967,0.3864541053772,-0.11274013668299,-0.16872529685497,0.077335275709629,-0.30113846063614,0.049715142697096,-0.32406276464462,0.60947668552399,0.012379230000079,-0.51073706150055,-0.48094722628593,0.24584129452705,-0.39658281207085,-0.063644357025623,0.26669663190842
0.028458643704653,0.69029533863068,0.79741430282593,-0.10175035893917,-0.12411228567362,0.13339684903622,0.61978876590729,1.1962962150574,0.15730208158493,0.037893760949373,0.21732088923454,0.23555997014046,-0.29361683130264,-0.12280013412237,0.047032199800014,-0.59602808952332,-0.2506046295166,0.030656391754746,0.53125441074371,-0.81613487005234,0.79724335670471,-0.025633219629526,-0.43876814842224,0.74969351291656,0.98901218175888,0.22550556063652,-0.062872812151909,-0.11917421966791,-0.43892958760262,-0.30056640505791,-0.042204275727272,-1.9949682950974,-0.07307343184948,0.87521928548813,0.024018485099077,-0.811243891716,-0.23519353568554,-0.35598826408386,0.12940007448196,0.27318686246872,-0.34853205084801,-0.13116233050823,-0.14886902272701,0.22969292104244,-0.81255316734314,0.38289952278137,0.17548289895058,-0.58444148302078,-0.29694506525993,-0.44682356715202,-0.10356061905622,0.26401680707932,0.11520682275295,0.46870458126068,0.51496696472168,-0.06028888002038,0.39537015557289,-0.51224464178085,-0.1339141279459,-0.36459624767303,-0.46952718496323,0.14371171593666,-0.13298250734806,0.38333159685135,0.065850079059601,0.11147394031286,0.011275888420641,0.44510298967361,0.64753592014313,0.15379072725773,0.31372964382172,-0.020655795931816,-0.20691238343716,1.1550710201263,-0.19415552914143,-0.016927286982536,0.29589650034904,0.25658577680588,-0.13891406357288,-0.57768201828003,0.42595562338829,0.092738524079323,-0.59658426046371,0.24120992422104,-0.25328257679939,-0.49134948849678,0.55615746974945,0.28468951582909,0.69477903842926,0.11881359666586,-0.54290497303009,-0.093290731310844,0.75480312108994,-0.30346024036407,-0.32085943222046,-0.038090102374554,-0.11038155853748,-0.22103349864483,-0.53701800107956,0.31808045506477,-0.4789129793644,0.57993650436401,0.88675701618195,-0.082868188619614,-0.16684205830097,-0.38880997896194,-0.29907462000847,0.38006940484047,0.029524203389883,0.09912171959877,-0.16502134501934,-0.074863091111183,0.2629103064537,0.61212199926376,0.072675183415413,-0.22793446481228,0.30359971523285,0.042208567261696,-0.077431738376617,-0.56060194969177,0.77936142683029,-0.075506255030632,-0.11093500256538,0.17927333712578,0.38724282383919,-0.36918702721596,0.17521251738071,0.44870254397392
0.077235594391823,-0.44132277369499,-0.19795282185078,0.083827517926693,0.11905772984028,-0.53536522388458,-0.43956291675568,0.36384934186935,0.26504608988762,-0.0062510096468031,0.54715955257416,0.62567031383514,-0.12187652289867,0.14437167346478,0.16558450460434,-0.39057332277298,-0.72609913349152,-0.44610580801964,-0.1418514996767,0.26363569498062,0.57047200202942,-0.13791827857494,-0.53239375352859,0.27124008536339,1.0558001995087,-0.15089404582977,0.48654621839523,0.36544233560562,-0.074054352939129,-0.064937852323055,-0.21929307281971,-0.54536271095276,0.42209190130234,-0.17598907649517,0.083283737301826,-0.15508432686329,-0.30458322167397,0.23431660234928,-0.14972461760044,-0.69679981470108,-0.66744029521942,-0.53202092647552,0.45653885602951,-0.77953141927719,-0.48271912336349,0.38386809825897,-0.94849938154221,0.66127550601959,-0.11405133455992,0.2444021999836,0.35608798265457,0.37884342670441,-0.15365101397038,-1.1786875724792,0.45357000827789,-0.23888666927814,0.0098643992096186,0.074232384562492,-0.057815976440907,-0.089894182980061,0.46572676301003,0.14284284412861,-0.2454401999712,0.11899281293154,-0.12855723500252,-0.48310339450836,0.44592398405075,-0.4350298345089,-0.62851691246033,0.27721691131592,-0.13546884059906,0.066719494760036,0.30590316653252,0.35879090428352,0.082117728888988,0.016023728996515,-0.41797208786011,0.39416831731796,-0.30080842971802,-0.11707246303558,0.082755818963051,-0.30083557963371,-0.19760769605637,-0.081284888088703,-0.70615386962891,-0.13260155916214,-0.17567683756351,0.23448841273785,0.27357137203217,0.013768193311989,-0.53651469945908,0.72361588478088,-0.02439259365201,-0.1593830883503,-0.33435758948326,0.47079330682755,-0.19855810701847,-0.6938853263855,0.23135925829411,-0.075571119785309,0.54395776987076,-0.24073888361454,-0.329655200243,-0.53162449598312,0.13835379481316,-0.086440496146679,0.60273849964142,0.37449690699577,-0.67951583862305,-0.15137283504009,-0.49447026848793,-0.21272531151772,-0.14095543324947,0.014978726394475,-0.0652174949646,-0.51830047369003,-0.017506487667561,-0.37116539478302,0.76773488521576,0.53803235292435,-0.12448917329311,0.21826808154583,0.44187438488007,-0.061306722462177,0.28908661007881,-1.005316734314,0.40294268727303,0.43973675370216
-0.2409234046936,-0.21993334591389,-0.35625326633453,-0.42382290959358,0.0068112434819341,-0.075648732483387,-0.53102505207062,-0.17687326669693,0.6395565867424,-0.13930001854897,-0.23076862096786,-0.84701991081238,0.094817921519279,0.084950469434261,-0.11015489697456,0.22263014316559,-0.047177992761135,0.5320937037468,-0.056767016649246,0.15009865164757,0.17718549072742,0.29043138027191,0.3538920879364,-0.46440994739532,0.28668442368507,0.26869803667068,0.6122499704361,0.032654896378517,-0.48599210381508,-0.61740052700043,-0.13565491139889,-0.28544020652771,-0.27682414650917,-0.17367687821388,0.62783062458038,0.098132260143757,-0.13069181144238,-0.14575463533401,-0.16058883070946,0.16914711892605,0.4542863368988,-0.61437946557999,-0.31017971038818,-0.056114576756954,0.087092414498329,-0.016140066087246,-0.47901546955109,-0.31712168455124,-0.51775801181793,0.39219570159912,0.081197649240494,-0.7158385515213,0.20344322919846,-0.018700076267123,0.15955470502377,-0.10746490210295,-0.20220503211021,-0.1221726834774,0.1798892468214,-0.23547628521919,0.36264571547508,0.29898050427437,-0.12313306331635,0.037130437791348,-0.20508646965027,0.35962808132172,-0.54931330680847,-0.29817414283752,0.08289834856987,-0.283781260252,-0.12995824217796,-0.0026782776694745,0.4984558224678,-0.29326799511909,-0.26952388882637,-0.25530818104744,0.12431162595749,-0.20144778490067,-0.21070744097233,0.22112096846104,-0.042980130761862,-0.12551631033421,-0.042534865438938,-0.26487269997597,0.28894314169884,-0.38184434175491,0.16477587819099,-0.10604679584503,0.11268263310194,0.10799860954285,0.00031196232885122,-0.65333920717239,-0.077860757708549,0.18496738374233,-0.065517373383045,0.14545400440693,0.17143733799458,-0.64805173873901,0.10508614033461,0.50636720657349,0.074703022837639,0.52663111686707,-0.21050778031349,0.11358834803104,-0.20128808915615,-0.32500424981117,-0.18681201338768,-0.012791789136827,-0.42056122422218,0.1690761744976,0.23815061151981,-0.0083769569173455,0.63628363609314,0.13076581060886,0.2856527864933,-0.047416508197784,0.44172066450119,-0.00525286141783,-0.045995350927114,0.0096861114725471,0.49737325310707,-0.50569772720337,0.21542507410049,0.086257971823215,0.14274331927299,0.17296054959297,-0.10554006695747,0.58357256650925
0.36092162132263,-0.23574064671993,-0.2585631608963,-0.041856005787849,0.37819388508797,-0.10003981739283,-0.18988485634327,0.28504398465157,-0.11319633573294,0.086664587259293,-0.011218677274883,0.1683908700943,0.38097488880157,-0.32681524753571,0.28176894783974,0.30854043364525,-0.37410429120064,-0.37498247623444,-0.13044540584087,0.13932006061077,-0.59754574298859,0.37525659799576,0.44960036873817,-0.091154761612415,-0.8166384100914,-0.28524109721184,-0.12161099165678,-0.0089943408966064,0.38390693068504,0.010790743865073,0.091004028916359,0.091298453509808,-0.2073732316494,0.20180025696754,0.23846556246281,0.060777615755796,0.29299145936966,0.069439589977264,-0.11324339359999,0.087857872247696,0.37502121925354,-0.66763132810593,0.014009480364621,0.0037608998827636,0.39417311549187,-0.062202222645283,-0.080819763243198,-0.53274089097977,-0.02779933437705,-0.13421857357025,-0.0021147639490664,-0.18936723470688,-0.13034473359585,0.13245061039925,0.28827261924744,-0.15172424912453,-0.20081530511379,-0.13082791864872,0.13815017044544,-0.19539414346218,-0.3699443936348,-0.13048079609871,0.21325641870499,-0.36642619967461,-0.064102970063686,-0.14554499089718,-0.22932007908821,0.1294192224741,-0.15489986538887,-0.16803230345249,-0.2357481867075,-0.40724810957909,0.0046891798265278,-0.38758063316345,-0.17634408175945,0.11771203577518,0.18717592954636,-0.079231306910515,0.29046759009361,0.0029094710480422,-0.33636349439621,0.26227715611458,0.053891859948635,0.045257363468409,0.070664048194885,0.35027053952217,-0.17147564888,-0.40984210371971,0.086758106946945,-0.15674002468586,0.25720435380936,0.078772269189358,0.082066476345062,0.3756320476532,0.41586652398109,-0.23320434987545,0.040311470627785,-0.1358932107687,0.0071393847465515,-0.2159141600132,-0.031695008277893,0.31406426429749,-0.10521783679724,0.22540140151978,-0.29817828536034,-0.25972780585289,0.08381537348032,-0.11891740560532,-0.023553315550089,0.008673214353621,0.33486974239349,0.04209116101265,-0.026310482993722,0.012650054879487,-0.1470412760973,-0.0036542064044625,-0.24796164035797,0.12568718194962,0.23025307059288,0.41023889183998,0.21773134171963,0.60661792755127,-0.069427497684956,0.12666745483875,0.21582098305225,0.45249393582344,-0.11151555925608,-0.044868681579828
0.26070684194565,-0.074602007865906,-0.35736620426178,-0.40332281589508,0.45805898308754,0.1770676523447,-0.67050361633301,-0.062494639307261,0.097918391227722,0.51718962192535,0.31892815232277,0.11950415372849,0.053080543875694,-0.42913171648979,-0.21454350650311,0.040439903736115,-0.84300273656845,0.32381635904312,0.12481088191271,0.3027086853981,-0.23132367432117,0.32117792963982,0.325558334589,-0.0029516650829464,0.11815282702446,-0.3905725479126,0.39890348911285,-0.22246293723583,-0.47299435734749,-0.28528791666031,-0.17364828288555,0.054313793778419,0.0475136898458,0.29339733719826,0.48572126030922,0.068425551056862,-0.015570383518934,0.21648234128952,0.26994028687477,-0.23933981359005,0.15592555701733,-0.46790483593941,-0.01976958848536,0.27636840939522,-0.407366335392,0.5587283372879,-0.35509616136551,0.3459147810936,0.17105777561665,0.016442367807031,-0.022553799673915,0.34097301959991,-0.082629211246967,-1.1745380163193,-0.44637820124626,0.27877941727638,0.55293202400208,0.36836889386177,0.56684702634811,-0.000197479777853,-0.78621917963028,-0.39964643120766,-0.3667354285717,0.10341735184193,0.2813406586647,-0.58032780885696,0.57346868515015,0.095155596733093,-0.40706688165665,0.015876354649663,-0.1234820112586,0.22646656632423,-0.088637173175812,0.36131039261818,0.31980407238007,0.30694425106049,0.55126637220383,-0.25670653581619,0.14777852594852,0.23161475360394,0.523677110672,0.05237228423357,-0.01196395419538,-0.47423708438873,-0.32085332274437,-0.23868814110756,-0.67768484354019,0.36257919669151,0.57216101884842,0.028018416836858,-0.44522541761398,0.012756592594087,-0.045502603054047,-0.2640842795372,0.72470444440842,-0.16023835539818,-0.049566991627216,-0.35298654437065,-0.26857921481133,-0.21889242529869,0.16277645528316,0.064849205315113,-0.19406114518642,-0.2729743719101,0.097794733941555,0.20388068258762,0.053303800523281,-0.32494679093361,0.027297465130687,0.11171029508114,-0.19452850520611,-0.2556284070015,-0.56695437431335,-0.22544100880623,0.0095217600464821,0.34280544519424,-0.14600846171379,-0.66578763723373,0.1086081340909,0.51034623384476,0.041545242071152,-0.55409580469131,0.32334846258163,-0.15935425460339,-0.4545613527298,-0.091457545757294,0.10387829691172,0.66488748788834
0.077937453985214,-0.0068348473869264,-0.55449157953262,-0.14187505841255,0.13307155668736,-0.22382405400276,-0.20363499224186,-0.2551164329052,0.24653010070324,0.05166332051158,0.088499635457993,0.15252378582954,-0.24804744124413,0.24048802256584,-0.16339544951916,-0.10843463987112,-0.36830392479897,0.0086533091962337,-0.40086823701859,-0.042262829840183,-0.016986262053251,-0.087218552827835,0.34819474816322,-0.5752500295639,0.34265646338463,0.34900888800621,-0.11020956933498,-0.124327942729,-0.67542290687561,0.34702569246292,-0.08696997910738,-0.61091589927673,-0.18868334591389,0.59250569343567,0.47096917033195,-0.6821077466011,0.078669637441635,0.031989172101021,0.029765842482448,-0.072387985885143,0.41319069266319,-0.56850236654282,0.27178952097893,0.3467883169651,-0.16204780340195,-0.11872041970491,-0.77976018190384,0.84378570318222,0.20738877356052,0.004481356125325,0.083853229880333,-0.067925944924355,-0.0021936094854027,-0.38443139195442,0.1195655092597,0.063884861767292,-0.22589962184429,0.1108388453722,-0.059422861784697,0.30063822865486,0.094817727804184,0.12619897723198,0.36289259791374,0.33402681350708,-0.11601117253304,-0.0057223704643548,0.28905767202377,-0.25716781616211,0.066490590572357,0.17615914344788,0.52522772550583,0.11502579599619,-0.0023722434416413,-0.15385647118092,-0.40593591332436,-0.21753671765327,0.060372699052095,0.13050515949726,0.15116275846958,-0.17307175695896,0.37321373820305,-0.33444985747337,0.47534665465355,-0.022531358525157,-0.13358417153358,-0.23818765580654,-0.041658438742161,-0.09004569798708,0.40022632479668,0.34631276130676,-0.37763610482216,-0.15684559941292,0.77845585346222,0.009386551566422,-0.32753005623817,0.2648421227932,0.093937404453754,-0.20298472046852,0.27320256829262,0.048536587506533,0.25463035702705,0.091832712292671,-0.17993921041489,-0.18942369520664,-0.25641223788261,0.014907559379935,-0.10913898050785,-0.0018141863401979,-0.51799595355988,0.46836265921593,-0.3915630877018,0.1663616001606,0.094734065234661,0.81658101081848,0.055196426808834,0.037054464221001,0.2346051633358,-0.11338717490435,0.30755010247231,-0.062059611082077,0.0082937022671103,0.036053411662579,0.35784783959389,-0.35464709997177,0.65646111965179,-0.016995560377836,0.09824426472187,0.39920583367348
-0.0074488865211606,-0.011267421767116,-0.012293294072151,0.0048246923834085,0.070098750293255,-0.010572640225291,0.07361114025116,-0.11642070859671,0.027226999402046,-0.12222028523684,-0.046587005257607,0.040737561881542,0.045586705207825,0.065414018929005,0.059430669993162,0.058814100921154,-0.013060658238828,-0.016866320744157,-0.0048168627545238,-0.1070866510272,-0.031159862875938,0.075137495994568,0.071604862809181,0.053118117153645,0.025190979242325,-0.071587927639484,-0.022263923659921,-0.066771157085896,-0.069206327199936,-0.013679863885045,-0.048590335994959,-0.0055597205646336,-0.01189711689949,0.078244514763355,0.068952083587646,0.0069574755616486,-0.022716986015439,-0.014743769541383,0.070023961365223,0.10542021691799,-0.039996810257435,-0.073513686656952,0.024798709899187,0.059760961681604,0.065512806177139,0.024407146498561,-0.06235933303833,0.15057714283466,-0.0086290203034878,-0.11176187545061,-0.097544625401497,-0.01495701353997,-0.04089891910553,-0.032691322267056,0.092878997325897,0.080860316753387,0.07283828407526,0.097607411444187,-0.088623598217964,0.12669207155704,-0.048764619976282,0.019710671156645,0.029581107199192,-0.083150789141655,-0.0077321738936007,0.036369025707245,0.12376429140568,0.024043761193752,0.017711199820042,0.030305542051792,0.056610930711031,0.057074800133705,-0.017279308289289,0.015640625730157,0.039399031549692,0.015053948387504,0.043063394725323,-0.03720073774457,-0.053231455385685,0.03421812877059,0.020886106416583,0.099474735558033,-0.0082736518234015,-0.026819473132491,0.01388203818351,0.065898858010769,-0.070243410766125,0.065271437168121,0.10649167001247,-0.09066878259182,0.01189187541604,0.086165748536587,0.086697824299335,-0.16826245188713,0.048372838646173,-0.041914965957403,-0.0065296501852572,-0.18612706661224,0.05062236264348,-0.1020592302084,0.032886441797018,0.017210198566318,0.014151214621961,0.063121452927589,0.01125615183264,-0.027026049792767,0.056187801063061,0.0048020188696682,0.059707250446081,-0.018844427540898,-0.017768388614058,-0.089584439992905,-0.067189313471317,0.081986255943775,0.013966307044029,-0.1344215720892,-0.037957813590765,0.13073144853115,-0.094792239367962,0.04167141020298,0.054385475814342,-0.089704349637032,-0.048874866217375,0.016584141179919,-0.024688638746738,-0.1074845418334,0.059748541563749,0.055278908461332
0.19726279377937,0.40129896998405,0.21657671034336,-0.42647269368172,0.0037409828510135,-0.022908620536327,-0.21267579495907,-0.15407635271549,0.58074629306793,0.046718537807465,-1.1043326854706,-0.76974505186081,-0.14003598690033,0.42776098847389,0.060715395957232,0.14755468070507,0.10038217157125,0.21046853065491,-0.29998943209648,0.027158122509718,0.075271911919117,0.085749626159668,0.34275370836258,-0.53815710544586,0.21009649336338,-0.23104101419449,0.45855858922005,-0.043661579489708,-0.87657982110977,-0.35117557644844,-0.8548236489296,-0.1713740080595,-0.098912186920643,0.036775652319193,-0.25840982794762,-0.23563493788242,-0.38031467795372,-0.12085940688848,0.52154862880707,0.28404948115349,0.41705334186554,0.079308725893497,-0.41676384210587,0.20234294235706,0.039445608854294,-0.26586350798607,0.16468821465969,-0.089871101081371,0.12469004839659,0.2980195581913,-0.65978199243546,0.28646358847618,0.24277576804161,-0.091899454593658,0.34534153342247,0.74136298894882,0.32952752709389,0.39622354507446,0.13050454854965,0.52501744031906,-0.0065262522548437,-0.11885558068752,0.4361232817173,-0.38088846206665,0.22962599992752,-0.50430542230606,-0.3826664686203,0.41684055328369,0.308529317379,-0.13519625365734,0.33999815583229,-0.48743399977684,-0.053095292299986,-0.11403556913137,-0.046510051935911,-0.60918736457825,0.069774687290192,-0.056470472365618,-0.23751854896545,0.19826494157314,0.72168701887131,0.26148915290833,0.24046596884727,0.37375396490097,-0.078024245798588,-0.037384916096926,-0.26352062821388,0.50406813621521,0.085541345179081,-0.056326285004616,-0.52763903141022,0.0095376307144761,-0.057835161685944,0.2507129907608,0.061519097536802,-0.5775311589241,0.10539285093546,-0.046362701803446,0.19294521212578,0.22615110874176,0.12684316933155,0.35130456089973,-0.35006678104401,-0.38275316357613,0.73793488740921,-0.14176946878433,-0.13776880502701,0.13291798532009,-0.017166150733829,-0.20773246884346,0.74556446075439,-0.23517157137394,-0.13133734464645,0.1975424438715,-0.63126367330551,0.59664487838745,0.051059048622847,-0.062853075563908,-0.0069160456769168,0.040248464792967,-0.80989617109299,-0.062411706894636,-0.060799542814493,-0.33994093537331,0.01402625348419,0.11913090199232,-0.05382689461112,0.3602180480957
0.37180680036545,0.18169802427292,-0.64826238155365,0.28701657056808,-0.24681909382343,-0.32784622907639,0.16872884333134,-0.60522258281708,-0.37826260924339,-0.07480400800705,0.37301540374756,0.16372641921043,-0.011296653188765,0.041345272213221,-0.15035857260227,0.014101267792284,-0.37966376543045,-0.26269376277924,0.032160855829716,0.1751676350832,-0.12058898806572,0.39327204227448,0.34488719701767,0.33654063940048,-0.3315741121769,0.23050074279308,-0.062990009784698,0.25297155976295,-0.16018706560135,0.25896653532982,0.16069878637791,0.1952957212925,-0.29871639609337,0.19576869904995,0.29246538877487,-0.053700126707554,0.16466556489468,0.33333200216293,-0.18440318107605,-0.22757537662983,-0.10376092791557,-0.41248470544815,0.12589745223522,0.31890070438385,0.4175406396389,-0.11914263665676,0.49964663386345,0.50844675302505,-0.1385378241539,0.086735501885414,0.042798772454262,-0.27078133821487,-0.26205769181252,-0.45846992731094,-0.21098290383816,-0.088304534554482,-0.081406310200691,-0.19627483189106,0.2033781260252,0.19980955123901,-0.10981822013855,0.33058288693428,-0.13035050034523,0.047429595142603,-0.65466791391373,0.24115440249443,0.10755414515734,0.2239485681057,-0.29851746559143,0.056562937796116,0.3376938700676,-0.043460812419653,0.23056368529797,-0.28227654099464,0.19091403484344,-0.27644953131676,0.34586530923843,0.27937516570091,0.13791888952255,0.2461059242487,0.21598835289478,0.16140334308147,0.429214656353,0.035056032240391,-0.20658452808857,0.80243241786957,-0.076096557080746,-0.071008302271366,0.13969199359417,0.17993946373463,0.050773181021214,0.091742992401123,0.12439193576574,-0.081150352954865,-0.21875385940075,0.26927784085274,0.16170589625835,0.065518662333488,0.47256886959076,-0.23079618811607,0.27198791503906,0.14641509950161,-0.023874828591943,-0.42879277467728,-0.00070112803950906,-0.35587021708488,-0.048272896558046,-0.25237867236137,-0.014275457710028,-0.25374901294708,0.54344016313553,-0.039554115384817,-0.18756712973118,0.20189222693443,-0.094414815306664,0.27981126308441,0.31056731939316,-0.019032191485167,0.0091499863192439,0.57186061143875,0.17516897618771,-0.19613721966743,-0.3865519464016,0.079683609306812,-0.041056636720896,0.020458944141865,0.08339300006628,0.10257761180401
0.47320768237114,-0.22610692679882,-0.2476728707552,0.43749979138374,-0.096864335238934,0.033648379147053,0.46832680702209,0.16488809883595,0.010825420729816,-0.2950611114502,0.76797556877136,0.29856204986572,-0.36289259791374,-0.037579406052828,0.35056468844414,-0.093155086040497,0.19991466403008,-0.5110342502594,0.015275465324521,0.3702358007431,0.40086004137993,-0.043196797370911,0.42111986875534,0.41739821434021,0.49962508678436,0.16087956726551,-0.18549525737762,0.28469669818878,-0.41092175245285,-0.060204848647118,0.12066198140383,-0.12128013372421,0.021877584978938,0.52776324748993,-0.058716557919979,-0.25296804308891,-0.18057088553905,0.075132273137569,0.1232807263732,0.0031760055571795,0.16097019612789,0.35168072581291,1.0497020483017,0.070425450801849,0.29054629802704,0.30697622895241,0.30735740065575,-0.33035427331924,-0.4224191904068,-0.51469188928604,0.086856693029404,0.4742089509964,0.35282519459724,0.44109597802162,0.25689694285393,-0.49202871322632,-0.097308188676834,-0.034119632095098,0.3530735373497,-0.26858660578728,0.012154961004853,0.88603943586349,-0.62230563163757,-0.59349471330643,-0.04664309695363,-0.10941360145807,0.91687774658203,-0.30895289778709,-0.42060741782188,0.11495365202427,0.029286324977875,0.19553153216839,0.20088803768158,0.63730525970459,0.18063248693943,-0.061096515506506,0.5371258854866,0.77041608095169,0.39322474598885,-0.27907049655914,0.043415751308203,-0.3520260155201,0.13986161351204,-0.20655143260956,-0.17096482217312,0.0058953138068318,-0.42498475313187,-0.28157779574394,-0.1776312738657,0.040016587823629,0.37815776467323,0.26634413003922,0.26164960861206,-0.1132824420929,0.052819062024355,-0.068581357598305,-0.25733429193497,-0.01285542268306,0.246921017766,-0.065342798829079,-0.18572011590004,-0.057631973177195,0.2064670920372,-0.51995486021042,0.13141277432442,-0.061457738280296,-0.19788466393948,0.20498442649841,0.098265111446381,-0.34153518080711,0.091028854250908,-0.37740251421928,0.15338407456875,0.32619220018387,-0.34036642313004,0.52678310871124,0.34025058150291,-0.42110553383827,0.23221185803413,0.1559272557497,-0.44044744968414,0.16888828575611,-0.21437460184097,-0.32530802488327,0.2732926607132,0.27120679616928,-0.26921799778938,0.25339791178703
-0.12090523540974,0.043636716902256,-0.18758256733418,-0.16056860983372,-0.519227206707,-0.057405337691307,0.00014669915253762,-0.59814321994781,-0.16654790937901,0.16371828317642,-0.11832139641047,-0.16553144156933,0.3846538066864,-0.27844631671906,-0.1775534003973,0.61720585823059,-0.067852847278118,0.24196244776249,-0.071252383291721,0.41248553991318,-0.13459172844887,0.1693692356348,0.19765739142895,-0.19324894249439,-0.028718007728457,0.21362133324146,0.7272897362709,0.058942545205355,-0.40833565592766,-0.45871719717979,0.12174475193024,-0.10376271605492,0.15138466656208,0.018043212592602,-0.03995418548584,0.80658745765686,-0.19679383933544,0.032006107270718,-0.10169184207916,-0.37664422392845,0.80163085460663,-0.39920112490654,0.34087914228439,-0.25412344932556,-0.21671709418297,0.3498911857605,-0.58540517091751,-0.30652943253517,-0.64504343271255,-0.14101162552834,-0.63853240013123,0.10267227143049,0.016592444851995,-0.63132297992706,0.34561389684677,-0.19659735262394,-0.13573816418648,-0.21687588095665,0.85868740081787,0.21774160861969,-0.40189278125763,0.43566352128983,-0.01701357588172,-0.19742737710476,-0.36114087700844,0.19058838486671,0.0046515064314008,0.11949527263641,-0.054092444479465,0.17512568831444,0.50555825233459,-0.072799406945705,0.47253152728081,-0.090034700930119,0.42102894186974,0.017720866948366,-0.018820667639375,-0.46287688612938,-0.012084010057151,0.33782184123993,0.047690186649561,0.45571175217628,0.10776768624783,-0.38136795163155,-0.020937282592058,-0.23385988175869,0.2999342083931,0.71114248037338,-0.30824130773544,-0.40793493390083,0.014240466989577,-0.059615660458803,-0.010971172712743,-0.070178903639317,0.15775369107723,-0.20402902364731,-0.075899593532085,-0.32685667276382,-0.10406298935413,0.03137031942606,0.024738673120737,0.11990110576153,-0.10669631510973,-0.189611941576,0.21586203575134,-0.48513680696487,-0.65133321285248,-0.31276980042458,0.45991343259811,-0.089337438344955,-0.20226104557514,-0.62802582979202,0.17364974319935,-0.16067335009575,0.58537870645523,0.26038777828217,0.30721828341484,-0.1373303681612,0.39272254705429,0.042326711118221,-0.17856253683567,-0.5585503578186,0.28272366523743,0.033002898097038,-0.035369101911783,0.21636229753494,-0.17106866836548,0.16958245635033
-0.62399983406067,-0.43314442038536,0.3840246796608,0.049283396452665,0.67204505205154,-0.25628307461739,0.068040676414967,0.61486089229584,0.071870565414429,0.45258465409279,-0.045169971883297,-0.18340203166008,0.011871863156557,0.39108628034592,0.16371248662472,-0.35441523790359,-0.47954976558685,-0.68742650747299,0.58152121305466,0.32888412475586,0.49225267767906,-0.35539108514786,-0.57526630163193,0.40206241607666,0.73564982414246,-0.29772356152534,-0.50442677736282,-0.19706344604492,-0.024655114859343,0.27277383208275,0.27880412340164,-0.069336377084255,-0.22112452983856,-0.053737342357635,-0.37750670313835,-1.2474238872528,-0.19512930512428,-0.39834433794022,-0.55164700746536,-0.26517942547798,-0.92456620931625,0.4397919178009,-1.0473996400833,-0.44407978653908,-0.26567375659943,1.2356406450272,-0.21753948926926,1.0528409481049,-0.15353673696518,0.1945046633482,0.2163512557745,-0.025989536195993,-0.2363872975111,-0.37891134619713,0.16082565486431,0.34379374980927,0.49007806181908,-0.28746622800827,-0.063615083694458,-0.12399537861347,-0.47329473495483,-1.319189786911,0.23905493319035,0.15725648403168,-0.13017953932285,-0.31426832079887,-0.059174738824368,-0.28706812858582,0.75204300880432,0.29764956235886,-0.093561716377735,-0.081478334963322,-0.22732949256897,0.097225658595562,-0.51689314842224,0.25986993312836,-0.20880369842052,0.38998985290527,1.3301964998245,-0.17306518554688,0.24145020544529,0.12803757190704,-0.42452439665794,-0.13173559308052,-0.13112606108189,-0.15103594958782,-0.39221599698067,-0.4050165116787,0.41555324196815,-0.18530744314194,-0.3858782351017,-0.063410237431526,-0.20432567596436,-0.49182012677193,0.53978371620178,-0.79028153419495,-0.52566421031952,0.84253835678101,-0.23719835281372,0.31270495057106,-0.49027276039124,-0.28539770841599,0.43142795562744,-0.12945863604546,-0.35612979531288,0.072431854903698,0.1115163937211,0.41909837722778,0.40267103910446,-0.015776112675667,0.31738677620888,0.13514383137226,-0.48816365003586,0.12274822592735,-0.14164806902409,-0.51465690135956,0.40280893445015,-0.35244804620743,-0.32480308413506,0.12948191165924,0.47076949477196,0.052411504089832,-0.05893150344491,-0.037168733775616,0.0079673388972878,-0.25333800911903,0.48200792074203,0.12688355147839
0.23201017081738,-0.29441612958908,0.27737191319466,0.37229162454605,-0.52230244874954,0.18912374973297,-0.15573091804981,1.173942565918,0.35263973474503,-0.14813880622387,0.12797999382019,0.45283386111259,-0.79598182439804,-0.24733828008175,0.36656963825226,-0.80916845798492,0.14303980767727,-0.10939884185791,0.27202725410461,-0.3594069480896,0.35263976454735,0.4224471449852,-0.52703893184662,0.90606677532196,0.99684900045395,0.35779693722725,0.104855671525,0.24028591811657,0.73833590745926,-0.35107824206352,0.24274927377701,-0.32686373591423,-0.018777303397655,0.22110553085804,0.2910181581974,-0.23797181248665,0.047930207103491,-0.53757959604263,-0.15078009665012,-0.58107250928879,-0.19516518712044,0.42291334271431,0.20697459578514,-0.214006498456,-0.2189017534256,-0.33405685424805,0.067877627909184,-0.5936336517334,0.50435799360275,-0.55855524539948,0.026750756427646,-0.15638294816017,-0.20161971449852,-0.13368451595306,-0.10674180835485,-0.76360285282135,0.0998674929142,-0.14871464669704,0.75521665811539,-0.069488771259785,0.16622090339661,-0.1515806466341,-0.059396989643574,-0.22451137006283,-0.12245379388332,0.30475726723671,0.15835469961166,-0.1475935280323,-0.90363901853561,-0.6326659321785,-0.024708887562156,1.1919617652893,0.2281686514616,0.049480400979519,0.16510318219662,-0.081133857369423,-0.54113745689392,0.39453211426735,-0.4831927716732,0.16037681698799,-0.18072380125523,0.39207962155342,-0.37183213233948,0.018884873017669,-0.83739459514618,0.17706233263016,0.45752713084221,0.09959264844656,-0.025796361267567,0.078795425593853,0.21305057406425,0.002913667820394,0.75176537036896,-0.16385023295879,0.19922214746475,0.25728213787079,0.0049302978441119,-0.11740234494209,0.19813387095928,0.096731781959534,0.075792580842972,-0.10173799097538,-0.34157291054726,0.31468322873116,0.69897121191025,0.16900424659252,0.25163280963898,-0.31107512116432,-0.46874910593033,0.35715907812119,-0.20498597621918,0.095131456851959,-0.37283995747566,0.16456083953381,-0.015191038139164,0.54303014278412,0.091107755899429,-0.72275859117508,-0.3138667345047,0.20322200655937,-0.45695728063583,-0.21540269255638,-0.27418011426926,0.40303668379784,-0.032048027962446,0.023272212594748,0.18382892012596,-0.12880879640579
-0.35824185609818,-0.10462903231382,-0.09988222271204,-0.16148103773594,-0.13334631919861,-0.16450989246368,0.32585859298706,-0.14497312903404,-0.12622752785683,0.11914429068565,0.65651404857635,-0.37799483537674,0.58131206035614,-0.2928586602211,0.32289335131645,0.043137531727552,-0.31933960318565,-0.14933609962463,0.20224577188492,-0.22551938891411,0.16377784311771,0.13999296724796,0.32638254761696,-0.46704125404358,0.74944806098938,0.23170699179173,-0.57147723436356,0.2154752612114,-0.1833324432373,0.02655391395092,-0.28796720504761,-0.20641618967056,-0.22973421216011,0.37628424167633,-0.19753265380859,-0.22539605200291,-0.11472745239735,0.35303518176079,-0.41188454627991,-0.79567342996597,-0.13615104556084,-0.5217267870903,0.17462246119976,-0.026967421174049,-0.19688554108143,-0.18493717908859,0.21676623821259,-0.12103858590126,0.22273311018944,0.075418390333652,0.025733575224876,-0.54971671104431,0.084316223859787,-0.42595472931862,-0.030451638624072,0.31130662560463,-0.42640671133995,-0.96314412355423,0.20965947210789,-0.005905432626605,-0.94930517673492,0.35288828611374,-0.027013927698135,0.40501740574837,0.39978504180908,0.12467101216316,0.20060712099075,0.23601968586445,0.7341650724411,0.1701350659132,0.073588199913502,-0.55649650096893,-0.15960541367531,0.039325430989265,-0.088890045881271,-0.28198617696762,0.10373778641224,0.15331041812897,0.19252948462963,-0.13024102151394,0.35553488135338,-0.064265161752701,0.07439124584198,-0.17473839223385,-0.093152679502964,-0.13123664259911,-0.41516748070717,0.029674172401428,0.20845617353916,-0.12919275462627,0.67490494251251,0.067585498094559,0.42235073447227,-0.20394271612167,-0.16513408720493,0.17548984289169,-0.28600597381592,-0.48254129290581,-0.42679235339165,0.044012580066919,0.12694518268108,-0.099577903747559,0.39151820540428,-0.31597250699997,-0.43080759048462,0.045254919677973,-0.53066444396973,-0.014963313005865,-0.25073403120041,0.15374468266964,0.28115949034691,-0.0024802021216601,-0.054184902459383,0.37021154165268,-0.065486744046211,-0.077721856534481,0.32701909542084,0.0046321651898324,0.10535104572773,-0.13071569800377,0.22278708219528,0.27048021554947,0.20664113759995,0.1073756441474,0.082996807992458,-0.20165480673313,-0.12477238476276,0.21192532777786
-0.058455117046833,0.065659001469612,0.017622899264097,0.018673708662391,-0.11790935695171,0.13894286751747,0.20113231241703,0.26487922668457,-0.037018440663815,0.080211102962494,0.25751760601997,0.24470767378807,-0.14694094657898,-0.03813536092639,0.30329924821854,-0.077126935124397,-0.0090650757774711,-0.24792206287384,0.06352423876524,0.067051984369755,-0.053573407232761,0.067569926381111,0.14903458952904,0.27432334423065,0.093286477029324,-0.0060641309246421,-0.23525029420853,0.0065245945006609,0.18598538637161,0.23044216632843,0.33107581734657,0.095428936183453,0.044935494661331,0.20292513072491,-0.11145852506161,0.084335684776306,-0.32641395926476,0.02808178588748,0.026770941913128,-0.22725853323936,-0.070544548332691,-0.21198831498623,-0.107580691576,0.1645772010088,-0.067509151995182,0.042496401816607,0.056913614273071,-0.05322539806366,-0.053048431873322,-0.14524886012077,0.13750547170639,0.043699860572815,-0.050897233188152,0.19221550226212,-0.044994555413723,0.0074652428738773,-0.13112212717533,-0.10066393762827,0.10818303376436,-0.30792689323425,0.31787773966789,-0.020556189119816,0.029059272259474,-0.076794721186161,-0.13766598701477,-0.175731793046,-0.16966104507446,0.11366676539183,-0.45738926529884,-0.16679739952087,0.18436606228352,0.077658727765083,0.26647973060608,0.12807737290859,-0.31042492389679,0.02207106910646,0.23341730237007,-0.099414579570293,-0.013706212863326,0.041025329381227,-0.25146147608757,-0.10265334695578,-0.079003751277924,0.16466034948826,-0.15726415812969,0.06992544233799,-0.10017731040716,-0.041822548955679,-0.22515304386616,0.15814359486103,0.026276901364326,0.30720302462578,0.12533289194107,-0.008765822276473,0.25884202122688,-0.02241119928658,0.085120320320129,-0.22133950889111,0.073279142379761,0.053892377763987,-0.016821449622512,0.015271875075996,0.036011006683111,0.1875513792038,-0.040488824248314,0.055048413574696,-0.0054545691236854,-0.16165445744991,-0.2052676230669,0.11333353817463,0.05450688675046,-0.1004695519805,0.075863130390644,-0.18743550777435,-0.10048922896385,0.1261570006609,0.068058378994465,-0.025902643799782,0.024944100528955,0.16908775269985,0.093659244477749,0.14895828068256,0.070660591125488,0.22456991672516,0.22381311655045,0.11502779275179,0.092766642570496,0.035136371850967
-0.27333799004555,-0.71452695131302,-0.10542365908623,-0.11367806792259,-0.092682085931301,0.061262916773558,-0.10473962128162,-0.34897980093956,-0.4409818649292,0.39844399690628,-0.31656587123871,-0.11906560510397,0.33544361591339,-0.21910563111305,-0.069056428968906,-0.25962677598,-0.59846091270447,0.040972907096148,-0.31543958187103,0.11598383635283,-0.54628318548203,-0.16162467002869,-0.19937144219875,0.26610139012337,0.65066421031952,-0.40216621756554,-0.029887685552239,0.4102671444416,-0.55694288015366,0.17133831977844,-0.22434768080711,-0.20059011876583,0.23748941719532,0.024038288742304,-0.82398957014084,-0.067850463092327,0.14759041368961,-0.38901033997536,-0.20761370658875,-1.0565849542618,-0.14868547022343,-0.30426529049873,-0.32940915226936,-0.1945970505476,-0.186663210392,0.8373316526413,-0.57880306243896,0.4304538667202,0.24358160793781,-0.017124392092228,0.072614707052708,-0.2883867919445,0.039810184389353,-0.31093150377274,-0.045167967677116,-0.15605854988098,-0.19773364067078,-0.0079931719228625,-0.093821674585342,-0.23248706758022,-0.47558599710464,-0.025788767263293,0.42412447929382,0.43302255868912,-0.49937683343887,-0.2533333003521,0.45752510428429,-0.21579906344414,0.56601530313492,0.080357648432255,-0.049998704344034,-0.060901537537575,-0.11990480870008,0.031548887491226,-0.23691356182098,-0.015112546272576,-0.014331600628793,0.15014660358429,-0.11119438707829,0.067590497434139,0.18947298824787,-0.17544895410538,-0.071363061666489,0.13357399404049,0.44219142198563,-0.16023859381676,0.25355336070061,-0.052504725754261,-0.034796178340912,-0.23150944709778,-0.72042936086655,0.13531701266766,0.67746216058731,0.20494708418846,-0.0028728842735291,0.57668054103851,-0.35112303495407,-0.1816990673542,0.037990771234035,0.054158788174391,-0.030352054163814,-0.28152161836624,0.21411122381687,0.073850706219673,0.20448215305805,-0.30331021547318,0.39135327935219,-0.18294931948185,0.81930738687515,-0.099997073411942,-0.24684983491898,0.28919839859009,-0.30578622221947,-0.085019022226334,0.46851488947868,0.31958556175232,-0.1135303452611,-0.40424290299416,0.3021927177906,0.14142037928104,-0.28864857554436,0.20811252295971,0.43371298909187,-0.033690974116325,0.062462337315083,-0.36838242411613,-0.10872675478458,-0.054949887096882
-0.034531123936176,-0.15690459311008,-0.28088963031769,-0.074646413326263,-0.0038311360403895,-0.19514375925064,-0.11114683747292,0.17317944765091,-0.18070271611214,0.16491107642651,0.089464791119099,0.11438569426537,-0.13622471690178,-0.055708263069391,-0.0052787796594203,-0.13673688471317,-0.081683419644833,-0.15021243691444,0.17751590907574,0.16178508102894,-0.066708624362946,-0.018435761332512,0.28061592578888,-0.19532114267349,-0.21771633625031,-0.16605669260025,-0.041289500892162,-0.013151282444596,-0.15227998793125,0.15556687116623,-0.074775651097298,0.21864520013332,0.034694030880928,-0.25657665729523,0.17935505509377,-0.063284635543823,0.20484198629856,-0.013460797257721,0.26376298069954,-0.025911802425981,-0.035945095121861,0.054845716804266,0.17577418684959,-0.11017983406782,0.3308941423893,-0.015353566035628,-0.16784426569939,0.17294098436832,0.081466533243656,-0.017624970525503,0.10287421196699,-0.10399615764618,0.027187345549464,-0.072888784110546,0.062900498509407,0.080373629927635,-0.062373615801334,0.14481435716152,0.10673522204161,0.10164585709572,-0.066716700792313,0.06637579202652,-0.1032725200057,0.053747948259115,-0.33191353082657,0.24721057713032,0.011159281246364,-0.11788196861744,-0.012837201356888,0.14230953156948,-0.1072549149394,0.13194292783737,-0.044787250459194,-0.24198561906815,-0.22003199160099,-0.14800877869129,0.040841031819582,0.10494526475668,-0.26157805323601,-0.14231307804585,-0.0091193309053779,0.26557499170303,0.098673641681671,-0.094499051570892,0.28641906380653,0.059307318180799,-0.1777980774641,0.098574973642826,0.45519813895226,0.036593221127987,0.047449588775635,0.11183824390173,0.14726440608501,-0.05848741158843,-0.0079958364367485,-0.17608596384525,-0.092620320618153,-0.23613423109055,0.097969524562359,-0.27420410513878,-0.026039032265544,-0.15491206943989,0.17941235005856,-0.17090551555157,-0.024278385564685,-0.16166161000729,0.097058303654194,0.0043156021274626,0.016649996861815,0.12102970480919,-0.073777183890343,-0.22084142267704,-0.058732055127621,-0.39697995781898,0.24875141680241,-0.014854596927762,-0.17644450068474,0.067427858710289,-0.031064035370946,-0.0069876275956631,0.065774947404861,0.050971359014511,0.0026660971343517,0.045262601226568,0.15251758694649,0.012819981202483,0.12320525199175,-0.17878901958466
0.26484861969948,-0.059723485261202,0.049715794622898,-0.52631390094757,-0.10126125067472,0.059540037065744,-0.20203475654125,0.014285874553025,0.064994372427464,0.27763405442238,0.25516870617867,-0.49331459403038,0.22503741085529,0.23890765011311,0.12665583193302,0.052717830985785,0.28520894050598,-0.090006157755852,-0.061748053878546,0.078748479485512,-0.56029492616653,0.075440041720867,0.21017836034298,0.20200632512569,-0.89963358640671,0.25965696573257,0.055243764072657,-0.14724414050579,-0.41536125540733,-0.31894850730896,-0.076406583189964,0.68573427200317,-0.34961953759193,-0.17557339370251,0.045424096286297,0.25958603620529,-0.30338937044144,0.26018545031548,0.35665929317474,-0.34145554900169,0.23461577296257,-1.1448957920074,0.1831276267767,-0.08674630522728,-0.2479992210865,-0.056988056749105,-0.34263929724693,0.40645524859428,-0.22982668876648,-0.016684867441654,-0.72398233413696,0.13418392837048,-0.13788029551506,-0.64682197570801,-0.54570668935776,0.56060689687729,0.30357775092125,-0.76983326673508,0.21493053436279,0.65344536304474,-0.6520584821701,0.26274156570435,0.40710154175758,-0.25393390655518,-0.11006557941437,-0.030336955562234,0.96131348609924,0.12773345410824,-0.2958547770977,-0.25669658184052,0.15056900680065,-0.31148961186409,0.27377986907959,-0.25014424324036,-0.58943676948547,-0.15898351371288,0.57870215177536,-0.61348795890808,0.2332256436348,0.37397825717926,0.16374316811562,0.16320231556892,-0.0060916258953512,0.22333531081676,-0.11863286793232,0.074931778013706,-0.041720047593117,0.13258093595505,0.1142523214221,-0.21309831738472,-0.039640918374062,0.037365954369307,0.79862374067307,0.025376044213772,0.47258034348488,-0.41877365112305,0.11050453037024,-0.016592994332314,0.33026826381683,0.024205924943089,-0.091614902019501,-0.47790968418121,0.35324615240097,-0.12480606138706,0.15729656815529,-1.0145672559738,-0.58531141281128,-0.073339551687241,0.22831206023693,-0.21748980879784,1.1609008312225,0.01031459402293,0.47055608034134,-0.68129241466522,-0.7364536523819,0.92806220054626,0.040658548474312,0.14560070633888,0.038108505308628,-0.17639225721359,-0.21080097556114,-0.095778822898865,0.13180863857269,0.31386294960976,-0.24229438602924,0.08227526396513,-0.027252305299044,0.3442762196064
0.10350553691387,-0.023734027519822,-0.1448322981596,0.46693602204323,-0.26322039961815,0.10722253471613,0.043732408434153,-0.067006684839725,0.074910715222359,-0.39277333021164,-0.027335600927472,0.090622991323471,0.35708260536194,0.5591254234314,0.28776490688324,-0.10171157866716,-0.22359162569046,-0.16303953528404,0.082350827753544,-0.3082971572876,0.23985493183136,-0.10673861205578,0.052123341709375,-0.70100611448288,-0.25247931480408,-0.20642067492008,-0.73647314310074,0.086711384356022,-0.25152814388275,0.21298564970493,-0.33808639645576,-0.41021609306335,0.22524552047253,0.23990555107594,-0.33526521921158,0.043455522507429,0.20519177615643,-0.34387454390526,-0.22566886246204,-0.024811303243041,-0.19651038944721,-0.2355365306139,0.15514525771141,-0.10297062247992,-0.14480359852314,0.0050547705031931,-0.27627110481262,1.330109000206,0.3769004046917,-0.26070725917816,0.14543929696083,0.23227278888226,0.25222659111023,-0.11202478408813,-0.16106131672859,-0.045772582292557,0.23137927055359,0.19042421877384,-0.081891246140003,-0.13963322341442,-0.067494831979275,-0.24286843836308,0.063854701817036,0.15115697681904,-0.42646408081055,-0.13084487617016,0.25606802105904,0.029252056032419,-0.052813678979874,0.10936983674765,-0.21714997291565,0.14113976061344,-0.013280962593853,-0.14564454555511,0.08259616792202,-0.39098837971687,0.1319872289896,0.096051014959812,0.56063348054886,-0.21143008768559,0.0065600019879639,-0.31500485539436,0.068261697888374,0.54784750938416,-0.19035738706589,0.15397968888283,-0.0099125169217587,-0.22242142260075,0.20246052742004,0.24600797891617,-0.16430300474167,0.24847441911697,0.67119354009628,-0.00084256217814982,0.075976215302944,-0.17433001101017,0.29054665565491,-0.011962464079261,-0.17008221149445,-0.266277551651,-0.11951617151499,-0.40991252660751,0.66149401664734,-0.71376889944077,-0.23758028447628,0.27056565880775,-0.20747147500515,0.17065334320068,0.067182421684265,-0.10361275821924,-0.3110126554966,-0.2705120742321,-0.20787893235683,0.29545301198959,-0.11966622620821,0.13799399137497,0.16959862411022,-0.125896692276,0.18747113645077,0.40619847178459,-0.26193064451218,-0.26294925808907,-0.050963088870049,-0.24004484713078,0.4253206551075,-0.0072945943102241,0.28236258029938,-0.0083729503676295
-0.060163784772158,-0.16420498490334,0.020827744156122,0.091089479625225,0.090705946087837,-0.25985825061798,0.2732201218605,-0.010433571413159,0.18982528150082,0.11890187114477,0.19958136975765,0.058733373880386,0.3378272652626,0.22894026339054,0.071832872927189,0.11663884669542,-0.21151983737946,-0.053004659712315,0.12105877697468,-0.055833011865616,-0.24691541492939,0.086994543671608,0.1892718821764,0.14676159620285,0.19197389483452,-0.070348262786865,0.0403300113976,0.05633095279336,-0.11829525232315,-0.088517479598522,-0.047277200967073,-0.3749041557312,0.013789081014693,0.31311476230621,0.081059895455837,0.0030586996581405,-0.057922407984734,0.21595871448517,-0.024410538375378,-0.092210844159126,0.29758289456367,-0.2902729511261,0.36538287997246,0.19396516680717,0.02993144467473,0.21690881252289,-0.26422461867332,-0.10428847372532,-0.15178892016411,-0.10653958469629,0.10861219465733,-0.048327293246984,0.47594395279884,0.13841795921326,0.021992325782776,0.096570879220963,0.2937990128994,-0.039266668260098,0.11967128515244,0.046870861202478,-0.19758221507072,-0.056226059794426,0.035115215927362,0.005371690262109,-0.29380065202713,0.13974495232105,-0.01268448587507,-0.14512640237808,-0.45465743541718,-0.34048214554787,0.27019840478897,0.041844345629215,0.18036459386349,0.46439433097839,-0.34684070944786,0.10876733064651,0.15506656467915,-0.14367021620274,0.055227059870958,-0.11015704274178,0.013738634064794,0.15646721422672,0.20669919252396,0.12244746088982,0.14304941892624,0.22560052573681,-0.16689001023769,-0.18091888725758,0.24030433595181,0.14965422451496,0.045439176261425,-0.2275879830122,0.12164252996445,0.23955096304417,-0.2446057498455,-0.39261630177498,-0.13486388325691,0.024334950372577,0.17124153673649,0.16053952276707,0.43496492505074,-0.65534436702728,0.18755295872688,-0.009949866682291,0.1477979272604,-0.21555730700493,0.11190515011549,0.13919354975224,-0.28005814552307,0.0076406854204834,0.35554474592209,0.18107077479362,0.20981614291668,0.097097061574459,-0.2921669781208,0.47004607319832,0.41875299811363,0.028064368292689,0.45822474360466,-0.12799066305161,-0.0040326039306819,-0.043981932103634,0.22555261850357,-0.013702427968383,0.2516927421093,0.14319464564323,0.01314564421773,-0.19614280760288
-0.38434991240501,0.082070827484131,0.83463889360428,-0.40976557135582,0.10190082341433,0.079535469412804,0.26257061958313,-0.28026369214058,-0.14795245230198,0.35066959261894,-0.65316891670227,0.067612312734127,-0.12464059144258,-0.074141576886177,0.1369304805994,-0.26560845971107,-0.80633318424225,-0.284159719944,0.57992792129517,0.16597387194633,0.46513110399246,-0.68058204650879,-0.27417120337486,-0.19280827045441,-0.024568945169449,0.28052780032158,0.47116595506668,-0.41702383756638,-0.36538729071617,0.2443889528513,0.018864683806896,0.092047922313213,-0.099100805819035,0.081183798611164,-0.22394075989723,-1.055596113205,-0.30031368136406,0.046167962253094,0.099031507968903,-0.52955633401871,-1.18654692173,0.12175077944994,-0.81977218389511,0.094678372144699,-0.4473665356636,0.41756144165993,-0.31977695226669,0.49215993285179,0.17834022641182,0.4480576813221,0.0028122419025749,-0.054473377764225,-0.33444479107857,-0.56056582927704,-0.53948265314102,0.54779058694839,0.30688112974167,0.49351137876511,-0.3587358891964,0.34436959028244,0.17891931533813,-0.4506893157959,0.47074839472771,0.55591684579849,0.045832317322493,0.098008908331394,-0.068397104740143,-0.72949224710464,-0.010810935869813,0.068952940404415,0.35934782028198,-0.03801379725337,-0.8511027097702,0.26464006304741,-0.21651317179203,-0.059866819530725,-0.51556551456451,0.44858720898628,0.053298439830542,-0.3971540927887,0.34783652424812,-0.11458695679903,0.16319315135479,-0.27277100086212,0.019769435748458,0.12063612043858,-0.42625084519386,0.060648217797279,0.89728081226349,0.32598885893822,-0.26980239152908,0.45680299401283,0.46356830000877,-0.21726010739803,-0.38359615206718,-0.36990350484848,-0.19889558851719,-0.019811190664768,-0.16887266933918,-0.26350435614586,0.28584933280945,-0.3447645008564,0.25555801391602,0.55882894992828,-0.60917282104492,-0.14646361768246,0.23680844902992,0.35062348842621,-0.2459384649992,0.12257770448923,-0.10739579796791,-0.1828228533268,-0.0046083964407444,-0.039555449038744,0.4243900179863,-0.49837312102318,0.22205786406994,-0.23915375769138,0.12057126313448,-0.18039397895336,-0.10328388214111,-0.27106654644012,-0.17157334089279,-0.61078524589539,-0.15137353539467,-0.28856950998306,0.24037991464138,0.26662853360176
0.4522390961647,0.18387587368488,-0.010008201003075,-0.67239165306091,-0.056106612086296,-0.21099917590618,0.19329200685024,0.20745253562927,0.42739635705948,-0.10353193432093,0.093438290059566,0.15387713909149,-0.37896028161049,0.090585589408875,0.15793479979038,-0.46482789516449,0.52248138189316,-0.015989014878869,-0.01705570705235,0.24941118061543,0.21416047215462,0.17380034923553,-0.17975625395775,0.043209131807089,-0.073491886258125,0.29908853769302,-0.13963378965855,-0.10035521537066,-1.0837078094482,0.13779716193676,0.022494126111269,-0.53538572788239,-0.3566380739212,0.52334052324295,-0.49307569861412,-0.15142469108105,-1.0095920562744,-0.11648915708065,-0.027440289035439,-0.069851063191891,-0.84724366664886,-0.063824750483036,0.03333155810833,-0.0825489833951,-0.18117015063763,0.33790516853333,0.38785099983215,0.16305510699749,-0.17841915786266,0.19959890842438,0.16421221196651,0.45989233255386,-0.068703345954418,-0.40090304613113,0.017550993710756,0.21137490868568,-0.14631979167461,-0.36109074950218,-0.12745679914951,-0.31735917925835,-0.10638524591923,-0.14264465868473,0.091107845306396,-0.0048431223258376,0.18842093646526,-0.26595589518547,0.41505402326584,-0.73445373773575,-0.14028891921043,-0.094902485609055,-0.22698540985584,0.31456172466278,-0.46719887852669,0.39115291833878,0.28209736943245,0.32696363329887,0.41756731271744,0.064265556633472,0.41274544596672,-0.11465450376272,-0.40304592251778,0.07357095181942,-0.31303423643112,0.35644853115082,-0.32838395237923,0.068324394524097,-0.73268914222717,0.039405807852745,0.21929949522018,-0.034712307155132,0.21522857248783,-0.16778063774109,0.65213376283646,-0.50331008434296,-0.14965786039829,-0.10098104178905,-0.97464102506638,0.28925997018814,-0.13132157921791,0.214954033494,0.14458726346493,-0.73389595746994,0.29068326950073,0.85241740942001,0.23972083628178,0.39361080527306,-0.7997190952301,-0.4174270927906,-0.55653667449951,-0.21591986715794,0.087247706949711,-0.074408829212189,0.24723975360394,0.51469111442566,0.36539700627327,-0.11307168006897,0.15825109183788,-0.32181173563004,0.23594109714031,-0.58250600099564,0.608334004879,0.14690278470516,-0.038376290351152,-0.34697708487511,0.25863200426102,0.13886535167694,0.24640983343124,0.13167966902256
0.31266909837723,-0.21669544279575,-0.11729746311903,0.0045587248168886,0.27325859665871,0.015730626881123,0.60887706279755,0.57971668243408,0.11671993881464,0.15628482401371,-0.88068050146103,0.22052463889122,0.12495853751898,-0.18566572666168,0.25614520907402,0.023452589288354,-0.23544876277447,-0.039114572107792,-0.13461524248123,0.048784337937832,0.45472282171249,-0.0075530149042606,0.082912251353264,0.35995063185692,0.17126257717609,0.028682084754109,0.11507652699947,-0.011377916671336,0.035259637981653,0.024816449731588,-0.18897147476673,0.082249142229557,-0.34811672568321,0.30987074971199,-0.27629509568214,0.42762270569801,0.059618279337883,0.13713075220585,0.034619010984898,-0.059157822281122,-0.061767797917128,-0.024379651993513,0.40970745682716,-0.30600592494011,0.086863800883293,0.15288552641869,0.056349635124207,-0.255166888237,-0.096250124275684,-0.1362472474575,-0.13212230801582,0.14414070546627,0.067634478211403,0.051545925438404,-0.090645283460617,0.43024477362633,0.65094846487045,-0.62922126054764,-0.36441990733147,-0.045236129313707,-0.095890544354916,-0.14724466204643,-0.12025506794453,-0.036177039146423,0.15514568984509,-0.45785066485405,0.16909211874008,-0.10848300904036,0.84694391489029,0.29577124118805,0.38317754864693,0.28716167807579,-0.21436005830765,0.007823696359992,-0.53733605146408,0.34668037295341,-0.17250762879848,0.28250449895859,0.73477989435196,-0.18469974398613,0.21262465417385,0.11590515822172,-0.091931141912937,-0.18143127858639,0.18163594603539,0.1508142799139,-0.23390647768974,0.1507053822279,0.31462153792381,-0.1099002212286,-0.19718286395073,0.1739469319582,0.15191894769669,0.059710256755352,-0.21912288665771,-0.3977687060833,-0.82174998521805,0.15951870381832,-0.47760599851608,0.025539139285684,0.24439799785614,-0.10503971576691,0.32517245411873,-0.24438951909542,-0.31532031297684,0.26816087961197,-0.45321244001389,0.12619104981422,0.16625286638737,0.15568122267723,-0.33875182271004,-0.28648382425308,-0.81457358598709,-0.05387344956398,0.15133345127106,-0.16666093468666,-0.096064411103725,0.12910707294941,0.58563482761383,-0.20436650514603,0.49635925889015,0.34119760990143,0.13737636804581,-0.44226384162903,0.38837066292763,-0.13759228587151,0.26185190677643,0.63653343915939
0.10874654352665,-0.13934962451458,0.19800941646099,-0.015552971512079,0.040332216769457,-0.031247748062015,0.078739479184151,-0.16749987006187,0.075403608381748,-0.019629836082458,0.031319659203291,-0.085709750652313,0.25717896223068,-0.11082153767347,0.096913307905197,0.13269934058189,-0.074716463685036,0.039472874253988,0.14472499489784,0.1320159137249,-0.086869284510612,0.11887646466494,0.006227829027921,-0.05851985514164,0.0056864893995225,0.067686893045902,0.037702079862356,-0.069961503148079,0.051280882209539,-0.0022907233797014,0.028531530871987,0.10703866183758,-0.024240730330348,0.15917935967445,0.25922966003418,-0.095319196581841,0.17721936106682,0.2302573621273,-0.065097309648991,0.21465082466602,-0.046218425035477,0.074765063822269,-0.081300362944603,-0.060538828372955,-0.11590592563152,0.041665952652693,-0.11500471830368,0.098980158567429,-0.086571097373962,0.090770795941353,-0.042374491691589,-0.062666796147823,-0.097166709601879,-0.17550826072693,0.20799419283867,0.13055275380611,0.06080225110054,-0.0069324756041169,-0.24014241993427,0.020569078624249,2.4590495740995e-05,-0.12555547058582,-0.074090793728828,0.011190268211067,0.025523589923978,-0.1176710575819,-0.10035616159439,0.045493584126234,0.083411693572998,-0.14780905842781,-0.019724376499653,-0.055592317134142,-0.012106501497328,-0.028747713193297,0.098340667784214,-0.12390027940273,-0.034662377089262,-0.16590361297131,0.057852305471897,-0.10706357657909,0.099175497889519,0.11103972792625,0.11051850765944,-0.10333359241486,-0.086073108017445,-0.088698387145996,0.050113040953875,-0.061710778623819,0.089809484779835,0.028299607336521,-0.09794220328331,0.0029330137185752,0.013509016484022,-0.061326824128628,0.0048341765068471,-0.083425395190716,-0.010499612428248,-0.040014151483774,-0.12743073701859,-0.018474278971553,-0.073592148721218,-0.23351120948792,0.01185255870223,-0.17261265218258,-0.023128863424063,0.1667652875185,0.10855316370726,-0.075266823172569,-0.0095596741884947,0.095483966171741,0.054784789681435,-0.02028407715261,-0.27340254187584,0.12139588594437,-0.021480673924088,-0.22887913882732,0.20387509465218,-0.036723885685205,-0.0955955311656,0.19986931979656,0.020757352933288,-0.024489594623446,-0.062476016581059,-0.053571838885546,-0.15137073397636,-0.082275383174419,0.019972855225205,-0.13443280756474
0.411347001791,0.023451609537005,-0.085216127336025,-0.47240915894508,-0.36029434204102,-0.1150374263525,0.45294269919395,-0.36381462216377,0.010145003907382,0.057650070637465,-0.083645761013031,0.26500970125198,0.092204421758652,0.25488650798798,0.17669261991978,-0.063638620078564,0.31621909141541,-0.27450373768806,0.099527820944786,0.21027991175652,-0.054575506597757,-0.17523263394833,0.8494274020195,-0.60145246982574,0.18866467475891,0.22986941039562,-0.26666638255119,0.27901723980904,-0.014589897356927,-0.25923559069633,-0.15294244885445,0.66785383224487,0.16776357591152,0.53414618968964,0.0044753733091056,-0.47656071186066,-0.075096651911736,-0.37968063354492,0.26277956366539,0.044199537485838,-0.046052500605583,-0.36720904707909,0.11910931020975,0.00089818489504978,-0.019054295495152,-0.0058449152857065,-0.33286786079407,0.40702784061432,0.19191914796829,0.17702996730804,-0.40606597065926,0.19912266731262,-0.3701713681221,-0.474643856287,0.11859638988972,0.43505477905273,0.18798671662807,-0.091733045876026,0.25557440519333,-0.31234630942345,-0.53195136785507,-0.13291892409325,0.26805663108826,0.13652884960175,-0.69908916950226,0.75408428907394,0.42369931936264,0.035755477845669,-0.028837556019425,0.36055973172188,-0.12586569786072,-0.24335908889771,-0.32957687973976,0.10359377413988,-0.31896683573723,0.0064603597857058,0.013727623969316,0.18126218020916,-0.052383832633495,-0.047321029007435,0.00064247724367306,0.15635637938976,0.21417601406574,-0.041667893528938,-0.10086595267057,0.33774733543396,-0.39312875270844,0.37307181954384,-0.013973266817629,-0.0069414731115103,0.24803914129734,-0.25371184945107,0.33984309434891,-0.096097178757191,0.011241567321122,0.26592522859573,0.32550218701363,0.21527309715748,0.3927558362484,0.029055692255497,0.60513842105865,-0.2649627327919,-0.29681292176247,-0.27819553017616,0.25905495882034,0.10860554128885,-0.22644717991352,-0.43023744225502,-0.36843308806419,0.10826306790113,0.088728614151478,0.61375933885574,0.49429133534431,0.1165954247117,-0.19918248057365,0.060077302157879,0.83175981044769,0.31479650735855,-0.27718695998192,-0.92793756723404,0.29631000757217,0.028070531785488,-0.053136594593525,-0.32919245958328,0.0041360789909959,0.35680136084557,-0.32687360048294,0.13449139893055
0.022504320368171,0.37698033452034,-0.52693217992783,0.08159439265728,-0.078278876841068,-0.062377396970987,-0.41405752301216,-0.49967110157013,-0.28831103444099,0.024340009316802,-0.15594999492168,0.037017371505499,-0.26295360922813,-0.14636722207069,-0.13610875606537,-0.16126111149788,0.33315232396126,-0.020489754155278,-0.077442914247513,0.36126300692558,0.11648969352245,0.10031121969223,-0.12247510999441,0.0034459207672626,-0.24509014189243,0.21373590826988,0.061567280441523,-0.18670172989368,-0.046196576207876,-0.073258362710476,0.16836258769035,0.40035879611969,0.35037487745285,-0.31825810670853,-0.065938703715801,0.33779489994049,0.098460979759693,-0.22501780092716,0.31060346961021,0.063578046858311,-0.14531672000885,-0.35905602574348,0.47589775919914,-0.12769186496735,-0.12119096517563,0.30631494522095,-0.10306347161531,0.35624438524246,0.30039462447166,0.26661959290504,-0.012635764665902,-0.3129910826683,0.20908664166927,-0.09144401550293,0.28690925240517,0.5020843744278,0.011085397563875,-0.09795643389225,0.49742713570595,0.2126205265522,0.057090695947409,0.0014053217601031,0.095146641135216,-0.20087242126465,0.27840310335159,-0.21869951486588,0.16999179124832,0.16263476014137,0.25104722380638,-0.0012513765832409,-0.25528582930565,-0.081219390034676,0.04902508854866,-0.088144734501839,0.0044530155137181,-0.27465423941612,-0.097397290170193,0.12787209451199,-0.23924280703068,-0.040942870080471,0.027069879695773,-0.017942035570741,0.055017646402121,0.15268900990486,0.12483835220337,-0.22497098147869,-0.12772025167942,-0.046341028064489,-0.12118585407734,0.18883487582207,0.067073449492455,0.0065329023636878,0.28541672229767,0.28611078858376,-0.025020634755492,0.26649311184883,0.15469606220722,-0.49095380306244,0.35347452759743,-0.30536243319511,-0.075156383216381,0.32540157437325,-0.093566901981831,-0.0080631542950869,0.22213380038738,0.073079094290733,0.15002283453941,-0.014000417664647,0.27482256293297,0.059904810041189,0.34424391388893,-0.91695058345795,0.41597008705139,0.035544574260712,0.23311439156532,0.10473490506411,-0.12789179384708,0.50008201599121,-0.18027816712856,0.14800648391247,-0.087277561426163,0.17317126691341,0.2762043774128,-0.011689010076225,-0.50823199748993,-0.0040306546725333,-0.16823375225067,0.11297836899757
-0.0045612091198564,-0.064440377056599,-0.34888881444931,0.48864185810089,-0.12540403008461,-0.15824136137962,-0.14238320291042,1.3026202917099,0.20966430008411,-0.09754978120327,0.68327343463898,0.72868090867996,-0.2240886837244,0.0043006199412048,-0.25196751952171,-0.17041207849979,0.62946134805679,0.31336107850075,-0.24167108535767,-0.24750535190105,0.64889252185822,0.014111541211605,-0.14385107159615,0.18877087533474,0.84631508588791,0.2322551459074,0.28932237625122,-0.081991642713547,0.5211438536644,0.022181803360581,0.071657210588455,-0.96889388561249,-0.014177046716213,-0.049128506332636,-0.29418385028839,0.39704105257988,-0.38247966766357,0.19954232871532,-0.096204720437527,0.67650216817856,-0.1493212133646,0.46577233076096,0.39471530914307,-0.39286059141159,0.032243128865957,0.24126143753529,-0.081903360784054,0.4138942360878,-0.53900671005249,-0.45027077198029,-0.067252539098263,0.75892049074173,0.052078254520893,0.4692291021347,0.34077095985413,-0.77463525533676,-0.3058522939682,-0.061185736209154,0.1953858435154,0.030991593375802,0.88383948802948,0.67641919851303,-0.12245026230812,0.18703357875347,0.60427713394165,0.144516736269,0.40666803717613,0.10999193787575,-0.028863852843642,-0.080787628889084,-0.22728605568409,0.57853603363037,0.32501849532127,0.49648347496986,-0.36183875799179,0.35831752419472,-0.15284569561481,0.26026454567909,0.44023549556732,-0.061024829745293,-0.47626653313637,-0.38333821296692,0.025099001824856,0.12780870497227,-0.81971955299377,0.1489229798317,0.14423537254333,0.2772228717804,0.025499058887362,0.26859694719315,0.66404640674591,-0.32011851668358,0.66762042045593,-0.070800244808197,0.93608450889587,0.37962204217911,-0.002878992119804,-0.23962910473347,0.4993112385273,-0.28446093201637,-0.18573129177094,0.1226904541254,0.51036489009857,0.50940132141113,0.065465956926346,-0.14027819037437,0.23764222860336,0.20076981186867,-0.45301514863968,-0.77638399600983,0.25866591930389,0.78902745246887,0.13801144063473,-0.049834068864584,-0.26202383637428,0.26388421654701,0.059335060417652,-0.19381548464298,0.040770243853331,-0.21897220611572,-0.016684437170625,-0.12413130700588,0.42340537905693,0.034121949225664,0.14905332028866,0.30703595280647,0.41510906815529,0.33511185646057
