3.434230983257299807e-01,-7.291045188903799712e-01,8.263896107673599500e-01,4.216054975986500142e-01,-2.322252392768900109e-01,-2.029077559709500100e-01,-1.145366907119800048e+00,-3.052475154399900137e-01,-6.151536107063300118e-01,-7.666500210761999501e-01,5.284203886985799903e-01,-2.080645263195000094e-01,2.574435770511599997e-01,-5.348070859909099806e-01,5.330820679664599604e-01,-1.629067301750199981e+00,-5.411030650138900500e-01,6.589565277099600493e-01,-5.133981257677099758e-02,-1.765941739082300010e+00,-1.412220358848599977e+00,-1.010239198803900007e-01,2.559052109718299994e-01,-7.874718904495200400e-01,-8.876280188560500273e-01,3.757308125495900097e-01,-3.791920244693799957e-01,5.011392235755900426e-01,1.557157635688799946e+00,7.233189344406100174e-01,8.560937047004699707e-01,-1.164646506309499951e+00,-1.750954866409299981e+00,-2.287458896637000194e+00,-4.869059920311000211e-01,-4.465804696083099934e-01,-6.066777110099800252e-01,-3.190328180789899770e-01,-1.960847228765499883e-01,-6.715687457472099831e-03,-1.247268915176400039e+00,1.326482146978399945e-01,1.077087998390199974e+00,6.895844936370799649e-01,-3.032234013080600254e-01,-1.025078892707800060e+00,8.951640129089399878e-02,-7.195426225662200359e-01,-3.708962798118600190e-01,1.988246440887500022e+00,1.551638603210399925e+00,7.643734216690100114e-01,2.119765728712099950e-01,-8.995496630668600169e-01,-5.173767805099499517e-01,2.618395984172799951e-01,-2.808406352996800082e-01,-5.502681136131299944e-01,3.883877396583599872e-01,-9.041893482208300525e-02,-1.016263365745500025e-01,1.472177743911700087e+00,-3.891504704952200022e-01,-1.319307208061200054e+00,-1.840304613113399990e+00,-1.002455711364699908e+00,-8.328419327735899769e-01,-7.437503933906599585e-01,6.272165179252600087e-01,3.200932443141900063e-01,-1.636141061782800055e+00,-6.600793004035899747e-01,1.390509843826299941e+00,-1.259758114814800045e+00,-4.245368838310200066e-01,-1.210159420967100052e+00,1.820219278335599933e+00,-6.159976124763499872e-01,8.399178981781000308e-01,2.571974098682400234e-01,5.284625291824299742e-01,4.451013505458800146e-01,-4.437810480594600038e-01,-1.150929331779499964e+00,-6.742286086082499574e-01,-1.001224756240800096e+00,6.484714746475199743e-01,1.218329191207899953e+00,-1.317817568778999915e+00,-5.661997795105000453e-01,6.323187351226799979e-01,-9.061205983161899624e-01,-5.779942870140099970e-02,-3.751155436038999813e-01,-1.160515427589400073e+00,7.433176636695899564e-01,-1.266046047210700021e+00,3.574995398521400025e-01,1.181679010391200046e+00,-1.014001294970500039e-01,-1.125173926353500109e+00,4.594274237752000306e-02,2.706452086567899887e-02,-5.095428228378300339e-01,-1.466983407735799882e-01,6.361867189407299783e-01,-3.011491894721999851e-01,-1.023022651672399919e+00,5.438815951347399924e-01,-1.243166089057899937e+00,-4.703347980976099740e-01,-1.553264141082800087e+00,3.203836381435399838e-01,9.029659628868100252e-02,1.585518360137899929e+00,1.029720231890700055e-01,4.776563942432400234e-01,-1.387962579727199941e+00,-1.265976190566999948e+00,-1.957930922508200056e-01,-2.938111424446099851e-01,-1.880164504051200058e+00,-9.397391080856299928e-01,-5.017125606536899929e-02,-1.787019968032800055e+00,8.226649761200000022e-01,1.462939739227300029e+00,-1.000757575035100100e+00,3.047249652445300008e-02,-6.430773735046400041e-01,-1.110414862632800093e+00,-8.357680439949000117e-01,-8.502717614173900262e-01,2.186382263898800082e-01,-1.992329955101000138e-01,-1.065773725509600034e+00,-7.669997811317400549e-01,-5.205215811729400066e-01,-9.057467579841600447e-01,-1.825389266014099954e-01,-2.821518480777699955e-01,-3.864397406578100047e-01,-2.760666310787199818e-01,-5.438215136527999594e-01,-1.303051561117199997e-01,5.784806609153699680e-02,7.645339518785500277e-02,-9.143244624137899512e-01,1.203554794192299993e-01,-1.222652047872500036e-01,4.329763352870900084e-01,-1.107761710882199935e-01,-5.998080968856800421e-01,-1.149848103523299914e+00,-7.423087358474700359e-01,-1.041229888796799952e-01,-6.426583528518700072e-01,-1.007376194000199954e+00,-1.983085870742800072e-01,-4.367884397506699989e-01,-5.275641679763799496e-01,-6.297265291214000360e-01,-3.344861268997200154e-01,-8.022727966308600411e-01,-1.110732913017300039e+00,-1.205519080161999934e+00,-5.434855222701999722e-01,-5.087249875068700078e-01,-1.780217587947799940e-01,-1.177483797073400007e+00,-8.312697522342199843e-03,3.531761467456799846e-03,-1.042997837066699907e+00,-9.490900635719300427e-01,-3.739422261714899776e-01,-8.003635406494099547e-01,-3.722055256366699760e-01,2.174406498670599930e-01,-2.109317183494600068e-01,-7.138184905052199491e-01,6.139988899231000330e-01,-4.525091648101799979e-01,-7.854837179183999929e-01,-1.840101361274699920e+00,-4.598071873187999925e-01,-1.006898641586299936e+00,-4.112381339073200026e-01,-1.011692523956299938e+00,-9.361917972564699486e-01,-1.559335947036700087e+00,-4.789231121540100111e-01,-7.438892126083399559e-01,1.553189158439599871e-01,-1.173263192176799974e+00,-3.887426108121899704e-02,-3.296601474285100197e-01,-6.538668274879499975e-01,-5.488693118095400170e-01,-1.469890356063799919e+00,6.060360074043299461e-01,-9.181213974952699974e-01,-6.796538829803500104e-01,3.011939227580999745e-01,-3.622004687786100074e-01,-2.621302604675300185e-01,-5.633087158203099465e-01,-6.740739345550500472e-01,-1.525365114212000051e-01,-5.698521137237499978e-01,-2.113160043954800116e-01,-7.872354388236999512e-01,2.226281762123100139e-01,-3.118689656257599974e-01,2.454484850168200116e-01,-5.720299482345599928e-01,5.680517107248300029e-02,-8.045195341110199516e-01,-6.436644196510300509e-01,-7.953179478645300282e-01,-1.699020862579299906e-01,7.016045451164200086e-01,-1.094837188720699933e-01,-3.001485764980300064e-01,-6.398287415504499975e-01,2.723411619663200223e-01,-4.379763305187199807e-01,8.469595760107000160e-02,-1.146297454833999918e+00,-1.687095910310699998e-01,-6.956523060798599500e-01,-8.135787248611500155e-01,-6.143936514854400066e-01,-1.513971835374799957e-01,-7.662050127983099923e-01,-8.831061124801600215e-01,-3.259385824203500093e-01,-1.658877372741700107e+00,6.617150455713299850e-02,-2.157727479934699877e-01,-9.564541578292800050e-01,-1.119587540626499900e+00,-8.195527195930499831e-01,-4.479101002216300254e-01,-1.595031380653399999e+00,-5.494294762611400262e-01,-4.450049996375999850e-01,-6.562131047248800364e-01,-1.938701719045599903e-01,3.497907221317300142e-01,-1.185012817382800066e+00,-2.025059908628500105e-01,-1.776106357574499972e+00,-2.501904964446999835e-01,-4.020562469959300111e-01,-3.427135646343200115e-01,-7.205668091774000139e-01,1.415037870407100051e+00,-1.559420704841600003e+00,1.012964963913000060e+00,6.242066621780399949e-01,-1.769252307712999850e-02,-2.317394971847499985e+00,-3.594361245632199942e-01,-3.290681838989300001e-01,-1.877852678298999933e+00,-1.295138239860500029e+00,1.926298260688799946e+00,7.998284101486200504e-01,6.961999833583799868e-02,-1.054804444313000023e+00,5.815292000770599934e-01,-3.178018033504499962e-01,1.169655844569199993e-01,4.830764830112500019e-01,1.274484395980799989e-01,-1.702010869979899921e+00,-6.019521355628999482e-01,6.321456432342500431e-01,4.566667973995199858e-01,-7.542518377304100463e-01,-1.598126888275100077e+00,-7.750259041786200509e-01,-1.076772332191499926e+00,1.123994708061200054e+00,-1.068081140518200023e+00,3.661434352397899827e-01,1.338246464729299978e+00,-9.100376367568999703e-01,-1.841519713401799985e+00,-9.353067278861999512e-01,-1.103846430778500087e+00,-1.092741370201099960e+00,-2.303522348403900022e+00,-1.484495103359199930e-01,1.175023198127699953e+00,-2.380533516406999894e-01,-9.939078986644700464e-02,-3.724880218505899898e-01,1.772462725639299963e+00,1.181361675262500022e+00,-6.472593545913699620e-01,-8.355115056037899501e-01,-6.917802095413200236e-01,-7.949231266975399501e-01,-1.201139807701099960e+00,6.950279474258399537e-01,1.238364815711999967e+00,1.626947671174999999e-01,8.837769031524700392e-01,-1.716110229492199934e+00,-1.096705913543700062e+00,1.902274638414399865e-01,-7.517802715301500349e-01,-1.408731460571299943e+00,1.669080406427400076e-01,-5.446180701255799450e-01,3.862306773662599890e-01,1.287849783897399902e+00,5.167657043784900164e-03,-7.130336165428200479e-01,-1.126029372215300084e+00,-1.232390880584699921e+00,-7.137426137924199887e-01,-1.468400478363000028e+00,1.270352005958599984e+00,2.996895313262900040e-01,-2.237971544265699997e+00,4.636045992374400182e-01,1.019128680229199890e+00,-8.686330318450899979e-01,-2.099864780902900019e-01,-6.261476278305100340e-01,9.714384675025899973e-01,-1.985516428947400103e+00,-2.514011263847399924e-01,-2.635780721902800106e-02,-5.936896204948399758e-01,-3.268934786319699914e-01,-1.008512735366799973e+00,-6.824280619621300170e-01,-1.410414338111900090e+00,-1.094728589057899937e+00,-4.563021659851099754e-01,4.295360147953000141e-01,-9.776566028594999569e-01,-1.062681078910800103e+00,-1.686955332756000070e+00,-3.562872707843799946e-01,7.824046611785899774e-01,-1.145110130310099894e+00,-8.346814513206499697e-01,1.141360998153700068e+00,-1.002241253852800051e+00,-3.565970063209499830e-01,3.182632923126200164e-01,-6.982508301734899891e-01,-1.428357243537899945e+00,3.585799634456600105e-01,2.179917544126500073e-01,-6.557267308235199543e-01,-1.921773105859800046e-01,-1.361555218696600011e+00,-6.083301901817299573e-01,-7.799669504165599454e-01,-5.700455904007000196e-01,-3.175960779190100114e-01,1.182018965482699996e-01,-1.805030584335300059e+00,-3.776272535324100010e-01,-1.150104165077199925e+00,6.777426600456200045e-01,7.317210733890500141e-02,-1.200111627578700046e+00,-1.289966344833400003e+00,-1.017297983169600073e+00,8.356488496065099525e-02,5.014557838439900328e-01,-1.981313586234999979e+00,-1.534408211708099934e+00,-6.315960288047800519e-01,-7.035856246948199999e-01,2.987027168273900024e+00,1.109410166740399939e+00,-1.895764827728299906e+00,6.888112425804100436e-01,5.618983507156399826e-01,-9.722167849540700457e-01,-9.083181023597699522e-01,-6.777172684669500180e-01,3.017344474792499898e-01,-8.196972310543100548e-02,6.252548098564100210e-01,-4.401399791240699910e-01,-1.997235417366000076e-01,9.179272651672399919e-01,4.106676280498500198e-01,-9.173123240470899553e-01,2.668954133987400112e-01,3.426914513111100069e-01,-6.142745614051799974e-01,4.464748501777600076e-01,-8.804314136505100308e-01,-6.673570871353099454e-01,4.846571683883699744e-01,4.446860551834099784e-01,6.548659205436699882e-01,1.332680702209499968e+00,6.434543728828400200e-01,-3.739773929119100115e-01,1.261689782142600080e+00,-1.641802340745900091e-01,7.341457605361899619e-01,-7.433252781629599848e-02,-9.249503016471900541e-01,-1.064239025116000104e+00,-4.161900877952600109e-01,-1.340427845716500033e-01,-1.626019179820999971e-01,-1.007441058754900004e-01,3.037218749523200034e-01,2.723700702190399725e-01,1.115210875868799939e-01,7.730417251586899630e-01,-7.092671096324899838e-02,-5.461468100547800519e-01,-6.395962834358199789e-01,1.544971823692300017e+00,-5.605595111846900513e-01,4.943572878837599882e-01,-2.501348555087999914e-01,-4.459545016288800068e-01,1.954921483993500020e-01,2.841149568557699845e-01,-1.177517771720899997e+00,-8.347004055976899872e-01,6.905561089515700468e-01,1.133042573928799923e+00,1.388513110578100049e-02,-2.313301861286199967e-01,-9.641606211662300252e-01,-7.984573841094999569e-01,-5.032230615615800318e-01,9.532188177108800176e-01,2.182729989290199957e-01,1.273345232009899908e+00,1.815003514289899922e+00,-6.801667809486400262e-01,-1.356675028800999883e-01,-2.946243882179300222e-01,7.799581885337799614e-01,5.261227488517800088e-01,3.165911138057699858e-01,-1.159989356994600040e+00,-1.238519430160500034e+00,-7.340031862258900031e-01,9.444916844367999831e-01,1.082227230071999946e+00,1.735199987888300099e-01,2.511147856712300230e-01,-4.267160594463299816e-02,1.340185165405300083e+00,-2.796161174774199898e-01,-1.056041121482800049e+00,7.077048420906100201e-01,-8.057891726493799922e-01,-8.175344467163100370e-01,1.983320564031600119e-01,4.285267591476399907e-01,-1.364554911851899865e-01,-5.242013335227999615e-01,1.062637805938700053e+00,1.073183774948099911e+00,6.505943834781599544e-02,-6.597127914428699835e-01,-9.939268827438400011e-01,2.484956942498699889e-02,7.361392974853500082e-01,2.699645757675199764e-01,-5.780183076858500524e-01,7.716456055641199852e-01,-3.734629452228500068e-01,-9.275662899017299567e-01,9.440219998359700160e-01,-2.072976231574999995e-01,2.229199707508099926e-01,-3.398912250995599904e-01,6.197641491890000243e-01,2.589230835437800193e-01,6.011126637458800159e-01,2.180725485086399962e-01,-7.761030793190000221e-01,-1.594918370246899975e-01,-2.159669876098599950e+00,-1.333917528390899943e-01,7.559052705764800484e-01,1.556548029184300075e-01,1.188031435012800063e+00,-1.141771435737600093e+00,-1.522696256637600110e+00,8.696098923683199811e-01,-1.197979301214199960e-01,-4.119554162025499955e-01,1.277021020650900007e-01,4.373131096363099823e-01,-1.090742588043200012e+00,4.919083118438700164e-01,-6.024052500724800252e-01,6.201875805854799584e-01,4.485089480876899848e-01,1.207915067672699960e+00,-8.300472497940100114e-01,-1.407762169837999955e-01
7.410748004913300102e-01,1.017235517501799968e+00,-8.516806364059399670e-02,-7.320033907890299840e-01,7.734448462724699547e-02,-8.055619597434999779e-01,-8.517284393310500246e-01,1.873234212398499909e-01,4.960501939058299670e-02,-9.152517318725600370e-01,2.298473119735700010e-01,-8.343737721443199584e-01,-9.126017801463600504e-03,-1.217288017272899925e+00,-3.523103296756699976e-01,1.517730832099899896e+00,-7.613819241523700487e-01,-3.707651197910299956e-01,-8.383067250251799996e-01,-1.066587209701499894e+00,-6.432692706584899889e-02,1.635712027549699910e+00,-1.002340793609600045e+00,6.077590584754900549e-01,1.170574069023099906e+00,-5.909377932548499635e-01,-7.917591333389299990e-01,-1.056970119476299930e+00,8.683688044548000251e-01,7.238200306892399460e-01,-2.712099254131299930e-01,1.564403474330899879e-01,-6.348471641540499588e-01,-5.233930945396400025e-01,4.487618431448899686e-02,-4.121721684932699858e-01,-5.669552683830300088e-01,-1.000902056693999898e+00,-4.401438236236600021e-01,-4.414113163948100160e-01,1.944301128387500022e-01,-2.158828228712099950e-01,-5.157815814018199552e-01,-6.904584765434299554e-01,8.591095209121699661e-01,-4.855951070785500256e-01,2.937138974666599900e-01,1.368051022291200125e-01,-6.263960003852799829e-01,7.304478436708500277e-02,-6.935498118400600376e-01,-2.706294655799900140e-01,2.338749766349799974e-01,1.578747510909999985e+00,-1.559602618217500014e+00,8.177989721298200010e-01,-6.719512939453099465e-01,-8.949072360992400554e-01,-8.472517132759099789e-01,2.094218283891700061e-01,9.016657471656800427e-01,5.596166849136400279e-01,-6.660433411598200015e-01,1.505608558654800033e+00,-8.091756105423000278e-01,-6.629915833473200015e-01,9.808408617973299881e-01,7.587379217147800503e-01,7.230529934167899409e-02,5.029062032699600504e-01,-9.151385426521300159e-01,-4.708746373653400208e-01,2.174410104751599793e+00,-1.129441976547199911e+00,-1.002495288848900046e+00,-7.656183838844300427e-01,1.464162468910199966e+00,1.185729265213000039e+00,-9.572506695985799618e-02,1.089946031570399931e+00,1.341220855712899951e+00,-3.588218092918399882e-01,-2.790618240833300234e-01,-1.051367878913900045e+00,-3.833393454551700108e-01,-1.044625759124800046e+00,-3.718322813510899771e-01,-5.744065046310400380e-01,-6.280423402786300402e-01,-1.263225555419899893e+00,-2.393191307783099908e-01,-1.225731611251799968e+00,2.807445824146300173e-01,-1.280285835266099959e+00,-1.793194413185099922e-01,-2.266138643026399946e-01,-1.187467098236099972e+00,6.173025965690599470e-01,1.051185846328700046e+00,-1.120906710624699931e+00,-6.940856575965900221e-01,-6.582499742507900153e-01,-1.010364294052100043e+00,-1.338450551033000036e+00,8.234075903892500436e-01,-5.217695832252500221e-01,-4.079957008361799753e-01,5.870667695999099989e-01,-2.702099978923799828e-01,-2.039070844650300085e+00,-1.672986894845999994e-01,-5.046387314796400014e-01,1.366056501865399973e-02,-1.516452908515899978e+00,8.856074213981599552e-01,5.569778680801400483e-01,-1.296480894088700042e+00,-1.066387534141499893e+00,-9.020115137100199743e-01,2.564792335033400095e-01,-6.795626878738399990e-01,-7.220119833946200272e-01,4.805902838707000191e-01,-1.766220480203599952e-01,-6.856197714805599697e-01,8.835176825523399780e-01,-8.442155122757000196e-01,-7.307217270135900333e-02,1.195450648665399990e-01,-1.163536310195899981e+00,-2.897898256778699833e-01,-5.101531147956800405e-01,-4.515926539897899827e-01,-7.672398537397399909e-02,-1.552366614341700035e-01,-3.712104856967899935e-01,-5.953859090805100340e-01,-1.186953067779499937e+00,-7.087663412094099558e-01,1.482027471065499868e-01,-4.804416596889499735e-01,-6.164896488189699486e-01,-1.083835124969499963e+00,-9.144129231572199756e-03,1.627155989408499981e-01,-1.764220356941200052e+00,-1.553716301918000031e+00,-8.218840360641499476e-01,-1.586993038654299915e-01,-8.366684317588799491e-01,-7.217120528221100395e-01,-1.365941911935799891e-01,-7.094302177429200329e-01,-5.626462101936300364e-01,-1.657599449157699967e+00,-6.749760508537300252e-01,-4.392492473125499952e-01,-5.801494717598000284e-01,-9.566880464553799701e-01,-1.190493106841999937e+00,-7.445535063743600190e-01,-3.538030683994299874e-01,-5.800066590309099768e-01,-8.279803991317700174e-01,-9.372770786285400391e-01,-1.100759863853500109e+00,-6.177209019660899747e-01,-3.576319217681899754e-01,-8.497862219810500273e-01,-4.192134141921999846e-01,-6.778930425643899804e-01,-6.626335382461500112e-01,1.239429712295500030e-01,-7.419661283492999804e-01,-7.892060279846200288e-01,-4.501741230487800172e-01,-4.314996302127799832e-01,-5.816016793250999850e-01,4.231049716472600197e-01,4.554916918277699955e-01,-3.427309170365300250e-02,-1.206661224365199958e+00,-7.139782309532199944e-01,-6.906856298446699682e-01,-3.042293190956100180e-01,4.662491679191599903e-01,-1.691579520702400086e-01,-1.005020260810900012e+00,-1.772907733917199913e+00,-4.987713694572399881e-01,-7.159348726272599661e-01,-7.357349395751999754e-01,-1.980674266815199980e-01,-1.442662030458500000e-01,8.340686559677099737e-03,-1.159416794776900073e+00,1.043428480625200050e-01,-1.289653182029699918e+00,-4.143809676170300271e-01,-9.421311616897599661e-01,-1.007551908493000026e+00,-9.967545866966199819e-01,-1.104480624198900029e+00,-5.563362240791299707e-01,-5.642868876457199923e-01,-4.124115407466900085e-01,-4.797526821494099702e-02,-8.611935973167399450e-01,-1.359007477760300064e+00,-1.386304385960100000e-02,-8.780632615089399851e-01,-9.872012138366700329e-01,-5.839415788650500483e-01,-1.970766186714200119e-01,-6.529132127761799742e-01,-6.182954907417299584e-01,-1.223477959632899958e+00,-1.118203282356299955e+00,-9.023165702819799794e-01,-9.216766953468300549e-01,-4.058574140071899983e-01,-2.543520331382799760e-01,-7.088692188262899485e-01,3.037330508232100046e-01,-4.028852283954599822e-01,1.239267066121099992e-01,1.657091081142400002e-01,-1.206175208091700091e+00,-1.201352834701499894e+00,-6.985485553741499487e-01,-2.101727962493900037e+00,-8.349103331565900232e-01,1.464907526969899954e-01,-3.158188760280600249e-01,-9.952962994575500488e-01,-4.105389714241000076e-01,-1.567400693893399977e+00,-7.774072289466900099e-01,-8.146519064903300356e-01,-5.230032801628099470e-01,-5.131464004516600452e-01,-8.370493054390000243e-01,-9.342491626739499733e-01,-8.036556839942899932e-01,-9.860391616821300165e-01,-2.376242280006400087e-01,-8.244070410728500109e-01,-1.075465202331499892e+00,-1.620110422372799952e-01,-1.103717446327199925e+00,-6.147614717483500524e-01,-1.047193765640300089e+00,-1.632116436958299943e-01,-3.529670536518100254e-01,-7.216998338699299742e-01,-1.450137615203900054e+00,3.858709633350400070e-01,6.040836572647100278e-01,-8.406352996826199631e-01,-8.480558991432199933e-01,-1.374207786284399905e-03,-1.101602554321299943e+00,-9.471356272697399881e-01,-3.424432277679400061e-01,-4.792978167533900047e-01,-1.669844508171099973e+00,1.833933740854299943e-01,8.121061325073200554e-02,-1.066008925437899935e+00,-1.377373933792100047e+00,-1.127743124961900101e+00,5.333258509635899758e-01,-6.002914905548100144e-01,-4.741844832897200157e-01,-1.921575427055399965e+00,-1.120793700218200017e+00,-2.107981145381900012e-01,1.039996981620799898e+00,-8.030525445938100360e-01,4.920498132705700134e-01,6.180691346526100138e-02,-1.112109422683700055e+00,-1.357987880706799988e+00,2.875315845012699767e-01,7.437734007835400396e-01,-1.370318681001700123e-01,7.402031123638200261e-02,-8.851777315139800484e-01,-1.443542718887300014e+00,-8.223939538001999727e-01,-1.212885260581999969e+00,-5.308780074119600068e-01,-1.274633049964899900e+00,-7.942173480987499978e-01,-1.814272880554200107e+00,3.724899590015400275e-01,-3.600163757801099762e-01,-8.062127828598000256e-01,6.332893669605299536e-02,-7.470661401748700525e-01,7.500288486480699568e-01,-1.413935780525199970e+00,-4.464776217937500014e-01,-4.169951677322399908e-01,-4.214805662632000183e-01,-1.095207691192600086e+00,-4.162223637104000007e-01,6.101673841476400184e-02,-4.827776551246599768e-01,1.531273365020799915e+00,-9.888601303100600370e-01,8.204246163368199563e-01,-1.173585653305099896e+00,-4.953335225582100043e-01,-7.839838862419099552e-01,-1.487559676170299994e-01,-6.112444996833800159e-01,-2.986202836036699892e-01,-1.712449043989200115e-01,1.480200886726400045e+00,-7.721961736679100463e-01,-8.689554929733299682e-01,7.470561265945400153e-01,5.679843425750700225e-01,5.422186851501500232e-02,2.360488027334199934e-01,-1.835359454155000014e+00,-7.368891835212699748e-01,1.579738020896900075e+00,-1.656383275985700010e+00,-1.134570121765100081e+00,-1.103433251380899982e+00,1.037543654441799967e+00,1.464597821235700037e+00,-8.124295473098800402e-01,6.814122796058700304e-01,1.657276451587700039e-01,-1.574533820152300034e+00,-8.920419812202500243e-01,-1.686486482620199956e+00,-7.668313980102500205e-01,-1.019589424133299893e+00,-1.449800014495800093e+00,-5.362104773521400025e-01,-1.313915014266999970e+00,-1.554389238357499980e+00,-1.045709133148200021e+00,-1.367601037025500066e+00,6.983936429023700487e-01,-1.538116455078099909e+00,-1.106615662574800041e+00,-3.816727697849299772e-01,-8.093976974487300247e-01,4.521100819110899782e-01,9.401121139526400494e-01,-2.263425350189200103e+00,-1.168056249618500075e+00,-9.499275684356699445e-01,-1.701024413108799926e+00,-8.464842438697800509e-01,5.843529701232900164e-01,-7.642641663551299480e-01,-1.221297621726999960e+00,-1.250101923942600057e-01,-1.051041722297699987e+00,-1.259758710861200059e+00,-3.876532614231100182e-01,-6.586590409278899605e-01,-1.412085533142100058e+00,-1.101107597351099976e+00,-4.844921231269799788e-01,-9.675937891006499703e-01,-1.272886753082300038e+00,-9.748226404190100114e-01,-1.844542145729100024e+00,-7.868884205818199584e-01,-1.227321863174400063e+00,-1.106364250183099918e+00,-2.969966530799900140e-01,-1.206292629241900061e+00,-3.827521800994900247e-01,1.892577171325700025e+00,-6.042311191558800143e-01,-2.987489461898800158e+00,6.858046650886500117e-01,1.222484707832300010e+00,-3.985408544540400277e-01,-5.177110433578500093e-01,-2.016841247677799917e-02,3.010989166796200142e-02,-1.779507845640199981e-01,-2.943484783172600205e-01,5.384677052497900407e-01,-4.549097120761900204e-01,6.147825121879599841e-01,-3.487685695290600185e-02,6.712447404861500155e-01,3.452623784542099838e-01,-4.187864661216699758e-01,1.358558177948000045e+00,-4.185886979103100036e-01,1.921716630458799868e-01,2.153697013854999898e-01,1.769767105579400090e-01,-5.987776517867999804e-01,1.571830749511700098e+00,7.503740191459700171e-01,9.128180891275400333e-02,-1.370378971099899923e+00,6.389089822769199456e-01,-4.551103413104999884e-01,1.944320201873800114e-01,-3.387919068336500139e-01,-9.130030870437599866e-01,-2.963237464427900258e-01,-6.429483890533399526e-01,-1.212255191057899986e-02,4.479374885559099795e-01,-3.003455102443700064e-01,5.378509163856499686e-01,2.523333132266999956e-01,6.411613821983299655e-01,-2.976457476615900211e-01,4.249833822250400073e-01,6.810108423233000030e-01,-8.861941099166900093e-01,7.897561192512499995e-01,-2.669246494770100009e-01,4.355845451354999898e-01,1.785781830549199867e-01,-5.836096405983000057e-01,1.242526844143899967e-01,-4.455861151218399874e-01,-2.190267443656900015e-01,-5.375096797943099691e-01,5.232000350952099588e-01,7.316511273384099789e-01,1.413949370384200099e+00,-5.209377780556700283e-02,-1.120623588561999950e+00,-4.526714384555799997e-01,5.666034221649199898e-01,5.103797912597699549e-01,-6.352435350418099702e-01,1.776633858680700007e+00,7.014698386192299573e-01,-1.255716532468799940e-01,-1.121126413345300055e+00,-2.397730052471200024e-01,-3.106803633272599979e-02,-7.064722180366499460e-01,1.403554797172499979e+00,-8.059445619583099907e-01,-1.326990485191299918e+00,-1.497658193111399971e-01,-5.090650320053099476e-01,2.095438241958599956e+00,-4.316093027591699771e-01,3.111265227198600075e-02,3.608435392379800155e-01,7.714149951934800020e-01,-1.071092963218700067e+00,-4.594275057315799771e-01,8.615654706955000464e-01,-1.033366084098799931e+00,-5.989055037498499656e-01,-1.032927110791199976e-01,-1.671806909143899993e-03,1.790944635868099988e-01,-3.276861011982000194e-01,2.738982737064399875e-01,1.149624064564700038e-01,-1.370835751295099991e-01,-5.913335084915199991e-01,2.641972005367300147e-01,-1.353846937418000107e-01,-2.152838557958600130e-01,1.584451273083700013e-02,-2.987537086009999787e-01,3.819528818130499825e-01,3.058838425204199896e-03,-7.935833334922800519e-01,8.094038367271400025e-01,-1.833941489458099927e-01,6.932266354560899790e-01,-2.402909994125400073e-01,-2.872445881366699760e-01,3.950845897197700074e-01,7.791237831115700452e-01,1.027285605668999957e-01,5.423227548599199865e-01,-1.036620020866400038e+00,-1.306808590888999921e+00,8.878348767757400506e-02,7.542257905006399810e-01,-3.591439425945299746e-01,1.050209283828700046e+00,-3.472412824630700112e-01,-1.263938546180700007e+00,9.619517326355000453e-01,-2.004148364067100119e-01,-6.380178928375199732e-01,2.427294850349399902e-01,3.664441108703599959e-01,4.491885900497399886e-01,4.436095356941199830e-01,2.881311066448699956e-02,4.428972899913800054e-01,6.184628605842600324e-01,9.653524756431599574e-01,1.590481102466599905e-01,2.491912692785299976e-01
4.437898993492099819e-01,9.355441480874999993e-02,3.221273422241199835e-01,5.847969055175800124e-01,-1.827325820922900135e-01,-4.677612781524699836e-01,8.285999298095699794e-01,1.137389063835100078e+00,1.651345044374500082e-01,-4.626080989837599855e-01,3.806681931018799925e-01,2.913596630096400020e-01,5.466120243072499774e-01,-2.932282984256699976e-01,8.387142419815100114e-01,1.075231671333300110e+00,6.567925810813900478e-01,1.188317894935599917e+00,1.049280762672399891e+00,4.421094059944200017e-01,1.875930905342100052e+00,1.036856889724699915e+00,-2.213258668780300129e-02,1.004471540451000067e+00,1.354504227638199998e+00,3.860175609588599732e-01,1.877560973167399894e+00,7.102056145667999809e-01,-1.499913781881299923e-01,-6.549295037984799450e-02,-2.949954569339799937e-01,-7.193092107772800503e-01,-3.670760691165900202e-01,-5.697565078735400412e-01,8.852963894605600514e-02,-2.266224026679999892e-01,-7.352197766303999460e-01,-5.445492267608600390e-01,3.999302983283999913e-01,-3.502470850944500169e-01,6.737030744552600092e-01,4.877112433314299833e-02,4.882256686687500014e-01,3.054798543453199899e-01,-5.656132698059099795e-01,-2.614112794399299777e-01,-9.291811585426299480e-01,-5.496240854263300113e-01,2.781805396079999881e-01,1.316051244735700010e+00,6.099872589111300369e-01,-2.383991032838800039e-01,-2.567250430583999932e-01,9.247131943702699974e-01,-6.778964400291399572e-01,-8.057851791381800410e-01,6.747444272041299707e-01,-5.805059075355499809e-01,-1.096241995692300020e-01,2.611438930034600259e-01,2.431944012641900077e-01,7.488538026809700154e-01,-3.264184594154400099e-01,-4.706582725048100158e-01,-6.909236311912500539e-02,-9.362401366233800148e-01,1.527640938758900058e+00,9.929738640785199522e-01,2.840824425220500049e-01,1.139476180076600009e+00,-1.738431006670000112e-01,1.437050700187699981e+00,-5.710691213607800298e-01,4.879102706909200227e-01,-7.457612156867999831e-01,1.285690307617199934e+00,2.717632353305799997e-01,7.910686731338499866e-01,9.567274451255799450e-01,2.095927894115399981e-01,1.298187971115100092e+00,8.138427138328599986e-01,-7.809646725654599830e-01,1.037292599678000027e+00,6.215209364891099986e-01,-4.261593520641300259e-01,1.200475096702600109e+00,1.141347289085399952e+00,-9.989433288574199876e-01,-5.117180570959999758e-02,-2.727772295474999997e-01,-9.176230430602999588e-02,5.539996922016100084e-02,-1.581990718841599919e-01,-1.153640002012299992e-01,-3.686650693416599900e-01,-5.288983508944500311e-02,-6.912105679511999501e-01,-9.430024623870799649e-01,-2.860361896455300076e-02,6.390697360038799513e-01,-1.950445026159300099e-01,-2.436027973890300125e-01,-5.861374139785799908e-01,6.390085816383399564e-01,-4.145308732986500155e-01,1.816885173320799962e-01,1.622661948203999893e+00,1.211034774780300083e+00,1.512251496314999999e+00,1.840439997613399839e-02,7.285539060831100477e-02,2.078391164541200098e-01,-2.446621358394600043e-01,-3.704851269721999851e-01,-3.851275742054000029e-01,-2.600369453430200206e-01,-3.223292529583000054e-01,9.843499660491900061e-01,-3.432462736964200095e-02,1.808917284011799964e+00,-1.192445978522300026e-01,-7.039648480713400422e-03,3.266544044017800075e-01,-4.758013039827300311e-02,-4.607618153095199842e-01,3.236907124519299850e-01,-5.585939288139299963e-01,-3.697898685932199947e-01,-1.983829289674799989e-01,-2.350043803453399915e-01,-1.744413971900899973e-01,4.524932801723500209e-01,-5.251824259758000046e-01,3.048913776874500048e-01,1.149936094880100040e-01,-5.581755638122599672e-01,-4.441272020340000237e-01,-6.487632393836999523e-01,-4.273912608623500198e-01,2.830985784530600236e-01,-7.774795293808000052e-01,3.130724132061000198e-01,-2.295734733343099965e-01,-2.459926754236199942e-01,-5.755774378776600253e-01,-9.795480370521499891e-01,-5.085441470146200293e-01,-6.197676062583900025e-01,-3.597690025344500112e-03,-4.219271838665000218e-01,-5.015214681625399518e-01,-4.464591741561900196e-01,-6.523746848106399820e-01,-4.128167033195500046e-01,-2.295369952917100109e-01,-4.385877549648299900e-01,6.289212107658399553e-01,-8.132293820381200078e-01,-5.147851705551099721e-01,-3.273652791976899845e-01,9.198180586099599654e-02,3.707941472530399962e-01,-1.347619444131900046e-01,-2.465471774339700051e-01,-5.260652899742099819e-01,-5.327631831169099552e-01,-6.690078377723700509e-01,-7.285319566726700113e-01,5.652074813842800083e-01,-1.817999184131600110e-01,-4.120874404907199917e-01,-4.874761700630200201e-01,-7.987689971923800369e-01,-5.497228354215599744e-02,1.173918619751899983e-01,-1.042751669883700050e+00,-4.744188785553000165e-01,9.987341761589100253e-01,4.376252293586699871e-01,-4.416648447513599751e-01,1.008777767419799937e-01,-3.730233311653100015e-01,1.117226406931900035e-01,-5.648797377944000248e-02,3.011015951633499999e-01,5.578442811965900194e-01,-8.741773366928099476e-01,-7.219438552856399793e-01,-1.081463456153900049e+00,-3.837314844131500258e-01,-7.844206690788300129e-01,-6.949360966682399665e-01,-2.742819190025300169e-01,-6.967981457710300530e-01,6.839904189109800026e-01,1.515063941478700105e-01,1.641650646925000012e-01,-1.896256923675500028e+00,-9.478914141655000458e-01,3.884319961070999971e-01,1.160535097122199932e+00,-1.181962266564400010e-01,3.244668841362000067e-01,-3.257569372654000039e-01,2.559963054955000095e-02,7.597178965806999917e-02,-9.355792999267600329e-01,3.790360689163200236e-01,-2.786233723163599740e-01,-1.033975720405599930e+00,3.218490183353400202e-01,-3.840062022209200232e-01,-2.410831600427600085e-01,1.522097038105100055e-03,8.974879384040800323e-01,6.905748844146699650e-01,-5.966799259185799897e-01,-3.839784562587699734e-01,-1.840660572052000010e-01,-1.057562828063999927e+00,-4.808574914932300243e-02,-4.099935293197600195e-01,-7.301099896431000325e-01,-2.150247573852499983e+00,2.561045885086100093e-01,-2.162059992551799981e-01,1.255336403846699922e-01,-6.134165525436400257e-01,-5.788627862930300072e-01,-4.903437495231600107e-01,2.077582329511599990e-01,-3.499943614005999737e-01,-7.087388038635300536e-01,-1.567514687776599969e-01,4.205848574638400006e-01,3.727444410324100010e-01,3.402849733829499956e-01,2.314161807298699969e-01,6.558053493499800268e-01,-1.708783060312299984e-01,-2.128746956586800021e-01,2.001444995403300064e-01,3.692326247692099828e-01,-8.252012133598299881e-01,-1.216961964964899945e-01,-2.826144099235500251e-01,-2.053743004798899985e-01,-2.520686089992499879e-01,-7.434193491935700004e-01,-1.605562269687700050e-01,3.361127674579599822e-01,-7.310397624969500185e-01,8.035517483949700113e-02,-1.116493821144100007e+00,2.281979322433499990e-01,-1.333179473877000032e-01,-8.381508290767700209e-02,2.665770947933199797e-01,1.688271313905700122e-01,-8.363171666860599873e-02,-7.989993095397900369e-01,7.956544160842899949e-01,3.911669552326200172e-01,-4.792461991310100200e-01,-3.931487500667599777e-01,7.537813782691999975e-01,2.201351374387700011e-01,-2.921991348266599897e-01,-8.333546519279499964e-01,3.001551926136000192e-01,8.429316282272300009e-01,1.168338775634800042e+00,1.089443445205700023e+00,6.205857396125800118e-01,1.317770719528200019e+00,1.344810128211999967e+00,7.971099615097000379e-01,-3.306674957275400062e-01,4.977185130119299861e-01,2.092607468366599888e-01,-7.172514200210600155e-01,6.854740381240800318e-01,8.147954344749499533e-01,-3.256843388080600254e-01,3.059494793415100111e-01,-8.465253710746799554e-01,-3.811134994029999890e-01,-4.255884885787999949e-01,-4.946904480457299802e-01,-4.014246761798900276e-01,-6.719279289245599918e-01,-9.816347360610999662e-01,-7.008565068244899665e-01,4.716157913208000041e-01,-7.148548960685700004e-01,1.292432665824899907e+00,-8.078487962484399987e-02,2.953589856624599941e-01,-4.418612718582199950e-01,-6.035823225974999984e-01,-1.285608887672399891e+00,-5.498457551002500221e-01,-2.733004987239799899e-01,-8.398724794387799619e-01,6.643043458461800332e-02,3.609950244426700094e-01,-8.384103178977999615e-01,-1.194511353969600065e-01,8.875331878662100493e-01,-1.209673404693599963e+00,-9.194221496582000164e-01,6.216664314269999547e-01,-2.862842082977299918e-01,-2.270475625991799917e-01,1.285254061222100008e-01,1.796469390392300136e-01,-4.390027225017499868e-01,-9.722841382026700119e-01,-6.192550659179699712e-01,3.655530139803900291e-02,-1.105326533317599891e+00,1.178881049156200067e+00,1.536272644996599990e+00,-4.527953863143899804e-01,1.938629150390599909e+00,-1.051636338233900014e+00,4.671996533870699797e-01,-8.148966357111899622e-03,2.435005456209199948e-01,-6.812232136726400489e-01,8.241872191429100436e-01,-7.119141519069699386e-02,9.033656120300299630e-01,6.601026058197000390e-01,3.523194789886500145e-01,8.815132975578300334e-01,8.841639161109899891e-01,-1.172531247138999921e+00,2.428247928619400031e-01,5.828127861022900369e-01,-1.776478141546199985e-01,1.420808315277100053e+00,1.186257958412199942e+00,-7.114648073911700177e-02,-4.262697398662599890e-01,-5.251499414443999703e-01,-3.105537891387900040e-01,-6.287786960601799979e-01,5.321184992790199964e-01,-1.659984588622999968e-01,-6.741344928741499487e-01,-1.439269304275500039e+00,-7.682066559791600469e-01,-1.040121555328400005e+00,-9.886796027421999866e-02,2.865966558456399804e-01,-6.801561713218700067e-01,-1.280848532915100091e-01,-6.355112791061400257e-01,1.275773495435700011e-01,-1.081832647323599961e+00,-9.602903723716700313e-01,3.566265106201200186e-01,5.957280397415199991e-01,1.485362052917500009e+00,-1.129896283149699920e+00,-4.641026258468600174e-02,3.991866111755400237e-02,-1.833358705043799941e-01,1.342152357101399907e-01,-2.649709284305600265e-01,-1.175622269511199941e-01,-6.268588304519699950e-01,2.311954349279400078e-01,-6.251981258392299567e-01,8.778353929519699950e-01,-5.075904726982100046e-01,-4.579413309693299711e-02,7.404735088348399774e-01,-4.667512476444199976e-01,-5.818917974829700135e-02,5.181778222322500072e-02,5.185329169035000213e-02,7.671498060226400462e-01,-5.610373616218600201e-01,-2.770569920539899811e-01,9.073083996772800530e-01,2.022067159414299986e-01,-1.742831468582199950e-01,3.515356183052100181e-01,6.667280197143600207e-01,4.349263906478900155e-01,5.442900657653799712e-01,8.509603142738300097e-01,6.865081787109400535e-01,-7.873843908309899886e-01,-1.483689248561899932e-01,9.581472277641299717e-01,-1.068774104118300095e+00,7.755652666091900072e-01,-7.370022535324100010e-01,-1.019757270813000050e+00,4.746643900871300170e-01,1.587533473968500086e+00,-9.135220050811799775e-01,6.169144511222800498e-01,1.509037137031600029e+00,1.210621595382699978e+00,7.623766660690299846e-01,-1.484606385231000081e+00,3.806037604808800157e-01,5.168351903557800303e-02,5.205294489860500251e-01,-3.003610372543299989e-01,3.913751840591400133e-01,-7.680057287216199846e-01,-4.096301794052100154e-01,6.125093102455100302e-01,3.022249042987800172e-01,-1.612444967031499976e-01,2.405960410833400120e-01,1.031783103942899960e+00,-1.643989682197599944e-01,-5.530316233634899881e-01,3.184163272380799992e-01,8.725383281707800309e-01,-3.955609798431399815e-01,-1.401574313640600034e-01,-4.002375304698900238e-01,-1.625292301177999887e-01,-7.299335300922399350e-02,-4.483670592308000025e-01,-7.530168294906599558e-01,-4.751407504081699984e-01,5.051945149898499909e-02,3.856452405452699961e-01,-1.288435459136999972e+00,-3.824032843112900020e-03,-1.352935433387799924e-01,8.373720049858099923e-01,4.584772288799299766e-01,5.458230376243600190e-01,-1.283982247114200115e-01,-8.376559019088699598e-01,1.324524164199800014e+00,-4.206216037273399766e-01,4.208373427391099986e-01,-3.429282009601600234e-01,1.431242078542699914e-01,9.506096243858299655e-01,-1.258153438568099913e+00,-6.343312263488799507e-01,1.328817367553700057e+00,-4.797778427600900009e-01,1.009311318397499990e+00,-6.134859919548000251e-01,8.553190827369699933e-01,2.748037278652200044e-01,-1.227919816970800104e+00,3.330493867397300023e-01,1.021521925926200058e+00,8.282455801963799491e-01,-4.532638788223299908e-01,1.062003374099699915e+00,-1.309477329254199907e+00,1.158303394913699942e-02,1.040687203407300032e+00,-6.125577688217199723e-01,-4.480939805507699880e-01,-1.109748005866999954e+00,8.209747672081000314e-01,2.205070853233299932e-01,-4.510045349597899822e-01,4.806950390338899926e-01,7.343392372131299917e-01,4.122712910175300172e-01,1.620524972677200026e-01,-4.144785702228500068e-01,3.219631910324100010e-01,-3.205076754093200142e-01,4.254480302333800146e-01,-3.722655177116400149e-01,6.558371782302899744e-01,-5.657767653465299862e-01,-1.133620515465700029e-01,5.190262794494600040e-01,-3.844286501407599976e-01,-8.597230911254899466e-01,4.707911908626600250e-01,5.548962354659999763e-01,1.656883716583299915e+00,1.536689043044999980e+00,-1.544803142547600094e+00,4.724164605140699913e-01,-2.570634186267899968e-01,-7.293690741062200389e-02,-5.264618992805499831e-01,-2.731107771396599770e-01,1.176604866981499908e+00,2.849398255348200015e-01,6.532075405120799649e-01,1.497199892997699955e+00,5.231112837791399572e-01,-8.208253979682900159e-01,3.825057148933400097e-01,-5.434274673461899630e-01,1.620290614664600046e-02,1.521733552217499896e-01,-6.571734547615100119e-01,-3.396137654781299919e-01,-3.972413539886500145e-01
-8.224412798881499537e-03,-8.272438496351200432e-02,-3.100294433534099905e-02,2.178415842354300067e-02,-1.695193201303500097e-01,-2.278010100126300064e-01,-1.629076302051500058e-01,-1.826466321945199867e-01,-1.058484613895400023e-01,-1.182766333222400046e-01,-1.956005096435499968e-01,3.079679980874100095e-02,-8.109710365533799592e-02,3.523278608918199717e-02,4.432390257716199711e-02,-6.815076619386699341e-02,2.499206736683800070e-02,-8.016135543584799322e-03,1.099237278103799981e-01,-1.028948426246600045e-01,1.180913206189899978e-02,-1.944387555122399913e-01,2.448689006268999976e-02,1.327059119939799914e-01,-8.639805763959899909e-02,1.117554903030399949e-01,-1.493818610906600119e-01,-3.119670413434499912e-02,1.408980935812000068e-01,7.043424248695399903e-02,7.849480211734799484e-02,-1.032571941614199990e-01,5.902968812733899902e-03,9.994468092918400159e-02,-2.169235348701500088e-01,-3.103305399417899957e-01,-7.368163764476799715e-02,-2.210498321801400174e-03,8.145876228809400058e-03,1.525990962982199939e-01,6.383175402879699700e-02,7.026073336601300345e-02,-8.189346641302100438e-02,-7.082799822092100683e-02,1.104991976171700030e-02,1.555884331464799930e-01,1.066284626722300011e-01,-5.190094932913800335e-02,-9.154848009347900384e-02,-8.688719570636699308e-02,6.833143532276199361e-02,3.730204701423599917e-02,2.948320806026499818e-01,1.054426953196500039e-01,-2.440432272851500092e-02,2.010795027017600045e-01,4.713091999292400025e-02,5.316054075956300196e-02,1.101770475506800018e-01,-8.626959472894700498e-02,-2.423044759780200192e-03,-1.769580543041200105e-01,2.965139923617199965e-03,1.125172376632700005e-01,1.224417760968199986e-01,-1.244506984949100004e-01,4.392428696155500217e-02,1.586163640022300036e-01,4.395159706473399791e-02,-6.642164289951299483e-02,-3.647982329130199791e-02,-6.644433829933399718e-03,9.383594244718600208e-02,-1.627553701400800135e-01,2.143135219812400127e-01,6.702600978314899975e-03,-5.821021273732199935e-02,-1.511940658092499890e-01,1.104185953736299963e-01,1.336099207401300060e-01,1.043247357010800014e-01,9.106251597404499409e-02,-8.435964584350599815e-02,2.942589521408099928e-01,-1.179212704300900035e-02,-1.907444000244100032e-02,1.050161570310600007e-01,1.703725010156599898e-02,-1.905547827482199919e-01,4.575897008180600072e-03,-2.682547271251699977e-02,-3.163453191518800223e-02,1.751411259174300017e-01,2.134232968092000110e-02,6.730977445840799489e-02,2.380252331495300022e-01,2.729923427104899991e-01,8.425021916627900564e-02,-2.351372875273199936e-02,8.032384514808700582e-02,-4.457374662160899781e-02,2.840777672827200090e-02,-3.598070889711400128e-02,-1.773558557033499961e-01,1.467541903257399971e-01,-1.366159319877600087e-01,2.265167832374599954e-01,-1.927514374256100033e-02,1.775852032005800080e-02,4.372109100222600075e-02,2.515037357807200016e-02,4.937547445297200271e-02,3.857968002557800313e-02,-7.704511284828199913e-02,9.513244777917899409e-02,9.567478299140899645e-02,1.053085848689099963e-01,1.228619590401599931e-01,-5.214486271142999840e-02,1.816981583833700009e-01,-9.179826080799100008e-02,1.679543405771299902e-01,8.304844051599499788e-02,-6.138693541288400141e-02,-2.890595234930500024e-02,-6.168207898736000061e-02,2.176423519849799981e-01,1.332230567932100040e-01,1.647093798965200070e-03,-1.533067375421499901e-01,1.567307263612700008e-01,3.828810527920700063e-02,2.886490523815199993e-01,2.785882651805899890e-01,1.740921288728700111e-01,-1.066287886351299959e-02,-1.735995560884500133e-01,2.950000343844300186e-03,1.412879824638400006e-01,1.622604727745100006e-01,8.758220821619000507e-02,-1.406387984752699993e-01,1.052569150924699964e-01,1.763608157634700135e-01,2.478641644120200063e-02,1.422173082828500079e-01,-1.872279196977600091e-01,6.601982563734100362e-02,1.783493324182900070e-03,9.884310513734799464e-02,1.351113021373699929e-01,1.821324825286899929e-01,7.476197183132199386e-02,-1.821725443005599993e-02,1.004357933998100000e-01,7.688304036855700407e-02,2.751114964485200098e-01,1.410960704088199957e-01,3.597614914178799694e-02,1.795895546674700083e-01,-1.119890287518500033e-01,1.331802904605899895e-01,2.585175931453699838e-01,2.541517615318300005e-01,1.297276914119699920e-01,1.076791286468500031e-01,1.466325670480700116e-01,-1.197778508067099956e-01,7.081703841686200207e-02,-7.833490520715699623e-02,-4.761897400021600224e-02,-1.976880878210099945e-01,-1.204227562993799919e-02,2.047186791896800084e-01,-1.401450205594300009e-02,-9.508372098207500123e-02,-1.934181712567799999e-02,1.739021241664900075e-01,-2.340362966060599917e-02,-1.664676144719099901e-02,-1.844446659088100071e-01,1.677886992692899926e-01,-1.024133432656500024e-02,2.384300529956799863e-01,-8.230598270893099699e-02,-5.803225561976400187e-02,-9.282457828521699372e-02,1.263390630483600119e-01,-1.439873967319700056e-02,3.087565898895299754e-01,3.354588756337800043e-03,-7.823481410741800479e-02,-1.365420073270799950e-01,1.961588673293599913e-02,4.778724536299699954e-02,-5.350267887115500026e-02,-1.715914309024799966e-01,1.274925768375400059e-01,-2.044117152690899941e-01,1.005041822791099965e-01,3.198237344622600203e-02,4.910387843847299760e-02,1.467072516679799876e-01,2.849429287016400081e-02,9.765757620334600264e-02,1.080066338181499969e-01,-4.996382072567900207e-02,1.374880224466299983e-01,2.275961339473699940e-01,1.370390653610200071e-01,8.061493933200800099e-02,-2.095369994640400024e-01,-2.459124103188500138e-02,-2.421648800373099944e-02,1.440944671630899898e-01,3.448699042200999848e-02,-1.873368746601000029e-03,-3.346831724047699685e-02,-1.102607548236800017e-01,7.491554319858599598e-02,8.013361692428599969e-02,1.633065342903100015e-01,-1.086826920509299937e-01,-1.173306182026900013e-01,-2.268842756748200018e-01,1.585041880607599984e-01,4.788951948285100069e-02,5.859557911753700277e-02,-2.811045385897200169e-02,4.745549336075800123e-02,5.833681300282499843e-02,-1.738042384386100092e-01,-9.884902834892299317e-02,1.885773688554799876e-01,-1.276329457759899921e-01,1.178155913948999989e-01,-1.487373113632199928e-01,2.515209093689900130e-02,3.772260621190100249e-02,-6.180655676871499998e-03,1.156403869390500022e-01,4.508452862501100000e-02,-8.725874125957500116e-02,-8.008117228746400307e-02,1.276680231094400042e-01,-9.430294483900099334e-02,1.343828290700899986e-01,1.737876236438800071e-01,1.017730087041899961e-01,2.371294200420399900e-01,-3.403693065047300181e-02,-6.100016087293599898e-02,3.904939070343999702e-02,-5.997910350561100334e-02,1.701918393373499927e-01,-1.937798708677299919e-01,3.926099091768300159e-02,-7.241015881300000290e-02,1.002159435302000037e-02,-6.398824043571900433e-03,5.729819647967799787e-03,1.823301315307599979e-01,5.216056481003800149e-02,-2.352948039770099975e-01,-1.370031386613800028e-01,-5.669291317462900326e-02,-1.324279792606800066e-02,1.461868733167600021e-01,3.794611617922800245e-02,-1.040871590375899991e-01,1.725908517837499989e-01,1.797975040972199859e-02,-1.363786756992300120e-01,4.633266106247899835e-02,-1.652670502662700047e-01,7.720139622688300396e-02,-1.492122560739500003e-01,-1.313808113336600025e-01,-4.642414394766100107e-03,2.717469930648799825e-01,-2.991282008588299832e-02,1.155871376395199990e-01,-1.017771288752599979e-01,4.767427593469600322e-02,1.124648898839999966e-01,1.048620045185099936e-01,-1.368171721696899990e-01,-5.854188278317500049e-02,-5.425729230046300033e-02,5.991628766059899774e-02,1.655090153217300131e-01,2.459066063165699922e-01,7.942088693380400244e-02,-1.354347541928299994e-02,-9.221794456243499749e-02,-8.363211154937699732e-02,-1.578107662498999877e-02,7.811433076858499691e-02,-1.119374483823799976e-01,-1.554734259843799926e-01,9.945341944694499614e-02,1.543653160333600116e-01,-1.432442516088499873e-01,9.153049439191800196e-02,6.602943688631099373e-02,-1.684915460646200028e-02,-7.094284147024200460e-02,8.206858485937100489e-02,3.179211616516099959e-01,1.358111351728399918e-01,5.050732940435399831e-02,2.108353078365300115e-01,1.048495694994899946e-01,-5.059268791228499831e-03,1.238086596131300066e-01,-3.395789861679100047e-02,-6.342380493879300196e-02,3.148590624332400223e-01,7.590250112116300393e-03,-2.464305981993699865e-02,2.153103053569800085e-01,-9.315989911556199488e-02,-5.729320272803300335e-02,9.709097445011100752e-03,-3.156680986285199941e-02,-1.548673063516599890e-01,-1.076617315411600023e-01,-8.184885978698699938e-02,4.121052846312499990e-02,-1.648366600274999982e-01,6.878247112035799915e-02,4.796204715967199855e-02,4.841490834951400063e-02,1.642914116382599987e-01,6.477621942758600426e-02,1.920283436775200026e-01,1.642164438962900042e-01,2.456126660108599868e-01,-1.134700477123300050e-01,2.796174585819199976e-01,1.231235824525400008e-02,1.963747441768599888e-01,8.300960808992399742e-02,-3.927595913410199951e-02,-8.758193999528900153e-02,-1.454912275075899986e-01,1.407147943973499904e-01,-1.142575815319999966e-01,1.106650233268700045e-01,7.429626584053000693e-02,-5.025941506028200334e-02,2.266004830598800091e-01,8.866240084171299329e-02,1.738179177045799939e-01,6.837753951549499498e-02,6.161938980221699780e-02,4.325921088457099911e-02,7.767497748136499569e-02,1.477166195400099989e-03,-1.995193660259199919e-01,1.834411360323399964e-02,9.599163383245500059e-02,5.441750213503800115e-02,1.091275289654699970e-01,5.127614364027999888e-02,5.660600215196599783e-02,8.381684869527800119e-02,-1.420870982110499989e-02,1.091799065470699936e-01,-9.057082980871200562e-02,2.690647728741199854e-02,-1.346097588539099943e-01,-6.964115053415299850e-02,9.749384224414800459e-02,-5.451738461852100037e-02,1.783207207918199866e-01,-6.785057019442299921e-03,2.081970274448400049e-01,3.622593730688099950e-02,-1.365932077169400016e-01,-7.916341722011599469e-02,-6.935365498065899914e-02,1.690017282962799905e-01,7.192994654178599956e-02,8.493442088365599912e-03,-2.406207844614999952e-03,-6.993791554123199652e-03,-1.351277977228199922e-01,3.188607692718499753e-01,-2.985043227672600219e-01,-1.750717014074300026e-01,-1.087669059634199936e-01,-3.413896635174799854e-02,-1.361264586448699965e-01,-1.341544240713100078e-01,-1.454838216304799869e-01,1.695686578750600082e-01,-1.376774013042399991e-01,-9.003815054893500591e-02,-9.357181936502499686e-02,-5.065668001771000267e-02,6.118308380246199885e-02,2.249151915311800032e-01,1.193445101380300050e-01,1.076590269804000022e-01,-1.558324396610299978e-01,4.913962446153200339e-03,-1.187515780329699983e-01,-8.065722882747700107e-02,-7.765379548072799676e-02,4.962907731533099803e-02,5.214838683605200337e-02,-1.846174299716900058e-01,-1.796234399080300081e-01,-1.461768709123099919e-02,1.254840344190600032e-01,-1.335954815149300035e-01,-1.431626230478300066e-01,1.777738779783200052e-01,-1.971483379602400055e-01,-8.603470027446699642e-02,9.756973385810900623e-02,1.134758517146099988e-01,-5.961815826594800069e-03,-8.236132562160500270e-02,-8.872912079095800209e-02,-1.794400960206999907e-01,7.381219416856800442e-02,-1.453115604817900065e-02,1.247644573450100020e-01,7.213784009218200677e-02,1.507706195116000070e-01,-8.751592598855500657e-03,5.287759751081499981e-02,9.374100714921999866e-02,2.752858214080300056e-02,-2.746177911758400092e-01,-1.016162484884299971e-01,6.411706656217600053e-02,2.726213634014100218e-01,3.233302384614900049e-02,-1.265721116214999983e-02,6.422041449695800423e-03,1.384516507387200113e-01,-5.106910318136199944e-02,-2.958110272884399983e-01,6.032062321901299901e-02,-1.136346161365500013e-01,-2.292570918798400026e-01,1.502248793840399999e-01,1.068123504519500055e-01,-5.493678525090200243e-02,1.727356612682300063e-01,1.037689745426200044e-01,1.437435150146499918e-01,-5.940305441617999699e-02,-1.054215729236600008e-01,-1.638739556074099990e-01,-9.267945587635000038e-02,4.657452180981599965e-02,-4.485242534428800221e-03,-1.482809036970099970e-01,6.432112306356399523e-02,1.576997041702299929e-01,2.468854039907500131e-01,2.322439849376700116e-01,1.629822552204099884e-01,-3.380587399005899885e-01,4.934993758797599772e-02,-1.632070913910900131e-02,-1.364423483610200105e-01,7.764462381601300311e-02,1.073186472058299951e-01,6.954745948314700055e-02,4.062043502926800109e-02,2.201166003942500032e-02,-1.127528399229000000e-01,-6.945764273405100053e-02,-8.230151236057299535e-02,-2.420454621314999943e-01,-2.728271186351799993e-01,1.804414987564099959e-01,-7.007846236228899850e-02,-6.595455110073099314e-02,7.519844174385099944e-02,7.938629947602700299e-03,2.168260514736200170e-02,-1.323439627885799885e-01,-8.808019012212800480e-02,6.462597101926799426e-02,-1.734298616647700075e-01,-1.111530810594599933e-01,3.099725022912000125e-02,8.993629366159400229e-02,1.671047061681699974e-01,-7.805241644382500399e-02,-1.198684498667700049e-01,-4.195166751742399752e-02,2.301050424575800113e-01,-2.003212720155700122e-01,-2.707713842392000039e-02,-1.691772043704999895e-01,2.291283458471299883e-01,-2.392392456531499956e-01,8.160976320505100579e-02,-2.554551959037800191e-01,-1.262911260127999868e-01,-1.854204535484300087e-01,-2.670139260590100039e-02,-3.441386297345200296e-02,1.376075595617299863e-01,1.420181989669800082e-01
4.301089942455300075e-01,6.775140762329100175e-02,-4.310426115989700324e-02,-1.041812002658800002e-01,7.574585080146800653e-02,-1.680763810872999975e-01,3.873730823397600331e-02,-1.744590885937200020e-02,1.138918474316599934e-02,3.683314323425300185e-01,5.384395830333199920e-03,-4.013342782854999874e-02,-1.822309643030199933e-01,1.824208199977900013e-01,-4.945195838809000183e-02,-1.029534563422200011e-01,4.070197790861099923e-02,-5.276620388031000308e-02,-1.173636540770500031e-01,3.701744675636299831e-01,-1.444272249937099961e-01,-6.214674189686800188e-02,2.532111704349500059e-01,9.678449481725699688e-02,6.195099651813500141e-02,8.920852094888699624e-02,-1.676159948110599873e-01,-2.874941192567299908e-02,2.846161723136900190e-01,-3.323588371276899878e-01,7.311865687370300293e-02,4.177876412868499756e-01,1.587625741958600123e-01,2.010889798402800133e-01,3.366908431053199924e-01,-1.423096954822500038e-01,-1.907083950936799832e-02,1.759987175464599873e-01,1.669405847787900077e-01,-5.707299709320100278e-02,4.079441353678699839e-02,1.529588103294400037e-01,1.531434357166299998e-01,-9.856404364109000449e-02,4.134551808238000337e-02,-5.315201729536100234e-02,3.161391615867600174e-02,1.131492927670500054e-01,-1.919812709093099978e-01,1.784938126802400049e-01,4.191741645336199973e-01,-1.930760964751199876e-02,-2.134801447391500018e-01,3.921631872654000039e-01,1.796136498451199881e-01,-1.465126574039500029e-01,6.830451637506500251e-02,2.314014881849300043e-01,2.636245191097300045e-01,4.206865280866600026e-02,1.471723616123200018e-01,3.989625573158300242e-01,2.371266633272199886e-01,-3.453437089920000092e-01,8.963853865861899639e-02,3.438991010189100250e-01,4.786053597927100167e-01,3.561091721057900172e-01,1.090240702033000025e-01,-2.304247617721600083e-01,-6.025319453328800180e-03,4.156559109687800180e-01,-1.381178945302999894e-01,2.910679876804400101e-01,8.372391760349300049e-02,-1.665759645402399916e-02,1.451818495988800028e-01,-3.907471299171400014e-01,-1.214916780590999945e-01,3.346765637397799975e-01,3.344197869300800097e-01,4.022774100303599942e-02,1.897332221269600050e-01,-5.678262934088700031e-02,9.450573474168799670e-02,4.620117545127899739e-01,-1.029621344059700010e-02,4.128752350807199933e-01,2.114551067352299918e-01,3.153024241328199889e-02,-7.261626422405199899e-02,-2.961085177957999918e-03,-2.328860908746699931e-01,1.490506380796400021e-01,1.038414835929900026e-01,-8.448918908834500419e-02,-7.875723391771299875e-02,-3.661149367690100243e-02,-8.801034837961199675e-02,2.006341516971600070e-01,1.133817881345700052e-01,2.976283431053200132e-02,-1.665132120251700031e-03,1.728212535381299930e-01,-1.722837686538699897e-01,-1.692554950714099948e-01,2.403193414211300116e-01,2.618961334228500082e-01,3.062465190887500022e-01,3.864257633686100091e-01,1.749095916747999968e-01,-1.091842055320700056e-01,-6.904771178960800171e-02,4.849564135074599935e-01,-2.359341531991999974e-01,-2.877222001552600106e-01,4.446377158165000232e-01,2.050602585077299922e-01,-1.936401613056699944e-02,-1.625867746770399969e-02,-2.744183540344199979e-01,-7.659716159105299516e-02,4.575318694114700047e-01,-1.717398315668099973e-01,2.509845495224000134e-01,-2.116059958934800034e-01,2.679110169410700015e-01,4.272115826606799893e-01,4.821551442146300159e-01,-7.295793294906599558e-02,-1.356649547815300116e-01,1.010685786604900022e-01,3.135648965835600155e-01,1.192594468593600049e-01,-2.962121181190000008e-02,7.504568994045300590e-02,2.143303165212300052e-03,-3.068773448467300158e-01,-9.074269793927700750e-03,-3.635361790656999742e-02,-2.690504491329199777e-01,1.098199412226699978e-01,-4.880783557891800184e-01,-1.286207288503599944e-01,-1.935046315193199862e-01,1.342355757951700090e-01,2.562171593308399872e-02,-1.830731183290499886e-01,-2.486342340707800025e-01,1.723488718271299902e-01,-2.970677316188800043e-01,1.115167289972300024e-01,-2.171138823032399967e-01,1.092109456658399980e-01,-6.331745535135299696e-02,9.451746591366800383e-04,-3.314403891563399984e-01,3.689950108528100015e-01,1.798029690980899875e-01,-4.189506173133900058e-01,-1.320231556892400016e-01,-4.009477496147200171e-01,-3.754822611808800170e-01,-2.446369640529200140e-02,5.870814621448500192e-02,-1.536171883344699951e-01,-2.514666616916699793e-01,9.704329073429099339e-02,-4.710707962512999947e-01,-1.182075403630700010e-02,-2.136237025260900035e-01,-5.595475062727899712e-02,1.297126114368399863e-01,1.027598306536700035e-01,1.001216545700999994e-01,-4.619297385215800217e-02,-2.030176818370799940e-01,2.732812464237199812e-01,4.554176330566400144e-01,1.444637775421100112e-01,1.106648370623599942e-01,-3.557344377040900230e-01,-2.067932933568999987e-01,1.215411350131000018e-01,-9.966247528791399857e-02,-2.748572230339100253e-01,5.402460098266600452e-01,-5.910808593034699854e-02,-9.408865123987200652e-02,-3.104716241359700146e-01,-7.553594559431099642e-02,5.524199008941700351e-01,-1.918158866465100032e-02,-4.756597578525499914e-01,-5.733869075775099855e-01,-2.622772455215500176e-01,2.513653934001899848e-01,-2.802646756172200160e-01,-9.292407333850899454e-02,-5.065015554428099476e-01,4.150558263063400255e-02,-3.703315854072600222e-01,-1.686213165521599847e-02,3.220024704933199811e-01,1.255887448787700034e-01,2.799128293991099969e-01,-1.030962467193600046e-01,5.181863307952899733e-01,-2.639732062816599889e-01,1.593605726957300073e-01,2.793734073638899917e-01,1.300166640430699960e-02,-8.175951242446899414e-02,-9.423140436410900461e-03,3.071602992713499958e-02,-5.718375742435499731e-02,4.054708182811699868e-01,2.249859273433700013e-01,2.292684316635099917e-01,2.618920803070100001e-01,-1.724094599485400114e-01,-7.766372710466400153e-02,-1.467269510030700108e-01,3.308227285742799950e-02,-6.506323814392099558e-02,-8.130292594432800279e-02,2.868016622960600087e-02,-2.555818557739300001e-01,2.172909229993799929e-01,-8.848774433136000206e-02,1.399535089731200055e-01,-2.850173413753500085e-01,2.699894905090299835e-01,1.167376264929800012e-01,-2.558296620845800229e-01,3.463727533817300142e-01,-7.508502900600400043e-02,-5.118538439273800228e-02,-1.922952085733400096e-01,2.071160823106799886e-01,-2.097274363040899925e-01,-5.375796556472800525e-01,4.592531919479400093e-01,2.194199115037900050e-01,-5.732641220092800083e-01,-9.682742506265600013e-02,-1.127476617693899952e-01,1.221939325332599968e-01,-3.452954888343799933e-01,1.371632367372500050e-01,-4.799566268920900103e-01,4.534996673464800065e-02,-4.100380241870900111e-01,2.650468945503199891e-01,1.606272608041799943e-01,-5.891233682632399660e-01,4.410112798213999818e-01,1.904498338699300020e-01,-8.410082757473000270e-02,6.961894780397399896e-02,7.777347415685699483e-02,-1.070557348430200076e-02,2.122110128402699900e-02,-1.205359324812900063e-01,1.808848697692200073e-03,2.729553282260899771e-01,4.373211860656699979e-01,-7.695748656988099512e-02,8.768122643232299784e-02,1.787683665752400064e-01,-7.480534911155700684e-02,3.166385367512700166e-02,-6.103574112057699730e-02,-6.913834065198899703e-02,-2.614721842110200034e-02,4.265554845333099920e-01,-3.516199886798900276e-01,-1.385305542498799919e-02,1.943297088146200002e-01,1.695079356431999917e-01,-4.096608236432099787e-02,6.864020228385900313e-02,-8.896360546350499943e-02,1.693431474268400003e-02,-2.862645983695999985e-01,2.912773191928900163e-01,1.142989173531499952e-01,4.893073439598100149e-01,1.141402274370200004e-01,-2.298782467842100108e-01,1.692125350236899917e-01,-7.201137393713000212e-02,5.604563653469100265e-02,7.949034124612799901e-02,7.257200032472599371e-02,-1.360532492399199878e-01,-3.046352267265299840e-01,1.483422368764900079e-01,2.031499445438399998e-01,6.174231320619599783e-02,6.239855289459200066e-02,-2.441637590527500137e-02,-1.013210192322699932e-01,-4.218472167849499771e-02,-2.192827463149999989e-01,2.761153578758199778e-01,4.453354477882400242e-01,1.554084718227400075e-01,-1.399326622486100069e-01,-9.953125379979600035e-03,1.352897882461500112e-01,-2.848586253821799863e-02,-2.784861624240899877e-02,-3.564068675041199841e-01,6.734130382537799608e-01,-2.086178632453100038e-03,2.259465008974100020e-01,-2.408063709735900060e-01,3.720400035381299930e-01,1.910203881561799849e-02,-1.826288104057300077e-01,3.169006705284099779e-01,2.597335278987900065e-01,4.823418799787799680e-03,1.092140674591099980e-01,-1.884248107671699923e-01,-4.685423150658599850e-02,1.596875488758099926e-01,-8.630466461181600379e-02,4.060161411762199801e-01,1.498340219259300110e-01,6.870483607053799735e-02,3.873629122972500199e-02,-1.846386119723299885e-02,3.314081951975800244e-02,5.636913776397699527e-01,7.232878357172000186e-03,6.564018875360499994e-02,3.658637106418600182e-01,1.053590178489700047e-01,1.089756563305900039e-01,3.258067369461100093e-01,3.154595568776100145e-02,5.121184587478599948e-01,1.555286496877699987e-01,4.749745503068000113e-02,-8.558228611946100406e-02,1.707820408046200125e-02,-1.268000751733799891e-01,-1.166489720344500020e-01,1.760023981332800025e-01,-7.794071733951600522e-02,-2.037268429994600061e-01,-1.472597941756200075e-02,2.630806900560899927e-02,1.802113279700300053e-02,8.322492986917499891e-02,1.217609718441999972e-01,-3.480390086770100005e-02,-4.579690843820599655e-02,2.289758324623100139e-01,1.407451331615399981e-01,1.152267754077899997e-01,4.232599437236799766e-01,3.159551024437000089e-01,4.711817800998699957e-01,3.195638954639399842e-01,7.197073847055400486e-02,-1.212886571884199960e-01,3.955635130405399935e-01,5.154777765274000112e-01,4.143342971801800001e-01,3.808626234531399812e-01,1.644545197486899923e-01,1.038067489862399967e-01,1.436601579189299982e-01,-3.319849669933300218e-01,-8.520302176475499922e-02,5.562248826026899851e-01,-2.119496017694499912e-01,3.594564273953400335e-02,1.921277120709400169e-02,1.213251426815999956e-01,4.634221196174599933e-01,4.015537798404700265e-01,-1.530156731605500087e-01,2.638340555131400006e-02,-4.424358531832699865e-02,2.653153836727100146e-01,1.262841820716900099e-01,-4.873527213931100333e-02,-1.943742632865899933e-01,6.034439802169799805e-02,3.571304082870500052e-01,9.338691597804400042e-05,1.407003961503499982e-02,-2.090960592031499976e-01,-1.328251510858499962e-01,3.366076946258499958e-01,-1.097547784447699959e-01,1.089102849364299991e-01,2.403127402067200061e-02,-5.892035737633700282e-02,3.143624365329700243e-01,3.346690833568600199e-01,2.004733979702000013e-01,2.258060276508299935e-01,1.318726539611800030e-01,9.096020460128799445e-02,1.783931106329000038e-01,2.322183251380899871e-01,-1.083065867423999989e-01,3.154408931732199939e-01,-3.083712160587300244e-01,-2.587223947048200023e-01,5.358508825302099599e-01,-1.600714325904800117e-01,-2.501124739646899964e-01,3.041960000991800195e-01,-3.749250620603600259e-02,2.085563726723200020e-02,1.705684810876799962e-01,2.131797373294800069e-01,-5.005668476223899821e-02,-5.065688490867600313e-01,-7.492153346538500680e-02,2.200286090374000136e-01,-3.152692690491699923e-02,-1.790044456720399912e-01,7.411159574985499987e-02,-9.355083853006400385e-02,-1.458715181797699996e-02,1.996217072010000038e-01,-2.444173842668500019e-01,-4.617340862750999864e-01,6.735320389270800512e-02,1.379831135272999998e-01,-3.956070840358700269e-01,-1.814462393522300043e-01,-3.719012066721900239e-02,6.724269688129400069e-02,-2.572100460529300192e-01,6.066620945930499831e-01,1.065716743469199979e-01,-3.147999942302699694e-02,-3.385668098926499781e-01,-2.336398214101799986e-01,-4.672016799449900115e-01,8.412013947963699334e-02,3.658312559127799846e-01,5.685142874717700190e-01,-3.148431181907699883e-01,-2.269057929515800043e-01,2.406428456306499986e-01,-2.396545261144600036e-01,4.877188205719000247e-01,8.376428484916699502e-02,-4.381180703640000229e-01,-1.102233454585099942e-01,-3.208605051040600009e-01,1.141109019517899947e-01,-2.712839543819399735e-01,1.060151755809800034e-01,4.897833764553100044e-01,3.196443319320699805e-01,9.905030578374900141e-02,3.145070970058400084e-01,7.314901053905499551e-02,-1.842443943023699959e-01,-6.110683679580699579e-01,2.786575816571700004e-02,4.882552921771999843e-01,-4.652302861213700180e-01,-3.162591159343700054e-01,-8.133728988468600166e-03,-5.749630182981500109e-02,1.335579305887200086e-01,2.480435967445399903e-01,-2.016129940748200011e-01,2.121273800730700057e-02,-1.401117593049999999e-01,-1.414956990629400065e-02,2.988234162330600033e-02,2.960516214370699783e-01,8.778341859579100181e-02,-1.432500481605500087e-01,-3.393412567675099800e-03,1.401893347501800002e-01,1.671468019485500001e-01,1.385687291622199890e-01,-2.851062119007100049e-01,-3.593404591083499966e-01,5.368419885635400401e-01,-2.942252457141900090e-01,3.340548276901200153e-01,-1.757232844829600127e-01,-2.550194859504700262e-01,-5.314202308654799589e-01,-4.640420377254499962e-01,2.211564332246800102e-01,-5.400940775871300170e-01,1.891457140445700069e-01,1.954923011362599827e-02,5.621931701898599809e-02,-4.525507390499100002e-01,-3.455418720841400143e-02,-5.266861319541900066e-01,-8.746967464685399818e-02,-3.316430449485799903e-01,2.530371248722099731e-01,-2.731921970844299885e-01,-6.148908734321599789e-01
-1.650903344154400099e+00,1.180853247642499992e+00,1.743027567863500105e+00,1.893953323364300001e+00,-6.060963869094799783e-01,-1.084543347358700061e+00,-5.759099125862100488e-01,9.347305893898000262e-01,-7.984710931777999621e-01,1.387836337089499938e+00,-1.421058475971199997e-01,8.500171899795500030e-01,-2.517153501510600133e+00,-1.983884274959600014e-01,-3.124214410781899764e-01,5.802029967308000025e-01,-1.169951915741000104e+00,1.534718751907300005e+00,-3.890876173973100149e-01,5.487667322158800154e-01,2.176508009433699986e-01,-9.867597222328200468e-01,2.421579807996699918e-01,-1.677335977554299973e+00,-6.180682778358499718e-02,-1.337249755859400091e+00,7.224861383438100360e-01,-2.118697762489299974e-01,2.426975369453399922e-01,-2.164215222001100031e-02,-1.882964968681299922e-01,-2.103210836648899962e-01,5.813635587692299600e-01,3.131448924541500034e-01,6.307716965675399523e-01,-4.245192706584899889e-01,3.463205695152300062e-02,-5.513449311256399810e-01,4.933386445045500057e-01,-1.381813645362899967e+00,-7.168081402778599953e-01,1.656794548034699888e-01,-1.538468480110199987e+00,1.835215138271500002e-03,-1.539150159805999923e-02,1.954891443252599892e+00,-8.993925452232399698e-01,-1.212696671485899991e+00,-1.107513189315799895e+00,2.710499987006199929e-02,-1.952044367790199964e-01,1.592301726341200041e+00,-1.889172792434699932e+00,-3.858578801155099769e-01,4.964563250541699779e-01,1.543733596801800001e+00,-8.105398416519199456e-01,-9.809287264943100312e-03,5.068519711494400282e-01,3.106498003006000097e+00,-9.617649316787699743e-01,7.092835009098100163e-02,-3.099207878112800185e-01,2.167907476425200208e+00,-1.368052959442100036e+00,1.109222412109400091e+00,-1.955323219299299975e+00,6.704270839691199857e-01,6.721616983413699620e-01,-1.389962792396499891e+00,-2.789951562881499925e+00,1.555594950914399865e-01,-1.919666528701799990e-01,1.169634342193599963e+00,3.619712293148000248e-01,2.513251900672899830e-01,-1.459647655487100071e+00,-9.524392485618600190e-01,1.073055148124699931e+00,1.029932618141200074e+00,-8.500174283981299928e-01,-9.539003372192399466e-01,6.662189960479699691e-01,-1.861437797546400041e+00,1.093502402305599919e+00,1.423993229866000076e+00,-3.162178397178599942e-01,3.721071183681500250e-01,4.758650064468399887e-01,8.418660163879400082e-01,6.162462830543500303e-01,-3.174378871917700184e-01,3.809745311737099960e-01,-2.671707570552799837e-01,1.160343766212500016e+00,1.293154507875400039e-01,-4.598286449909200213e-01,-1.359204530715899972e+00,-1.264823377132399951e-01,2.018233537673999933e+00,-1.129589155316400029e-01,1.003173232078599986e+00,-1.291467189788799930e+00,2.977782726287800052e+00,-2.672468662262000194e+00,5.292416214942899932e-01,1.230657339096099978e+00,-4.046171009540600050e-01,-2.366634607315099892e+00,2.923876047134399969e-01,9.281535148620599918e-01,5.219711661338799491e-01,-1.249816417694100013e+00,3.235874772071800076e-01,-9.368027448654200340e-01,-8.884242177009600283e-01,-1.690847426652899999e-01,6.559253334999100016e-01,1.902410537004499969e-01,-8.542160391807599451e-01,-9.511902332305900432e-01,-9.515310525894199456e-01,4.717333316803000165e-01,-6.761760115623499656e-01,1.460539460182199933e+00,-5.193420052528400221e-01,9.200896024703999476e-01,-5.732927322387699753e-01,1.357003927230800100e+00,-9.878782033920300298e-01,-4.032833278179199787e-01,-2.218197584152199919e+00,-1.633309870958299936e-01,3.737294375896499932e-01,-2.374594688415499810e+00,-1.020504474639899906e+00,-1.526594281196600011e+00,1.699310898780800105e+00,-7.908817529678300318e-01,-9.016578793525700242e-01,5.590703487396200266e-01,8.898184299468999692e-01,-7.147790193557700400e-01,-8.559474945068400453e-01,-2.673001289367700206e-01,-4.987810850143399866e-01,-9.525218009948700493e-01,-5.933924317359899891e-01,-1.878123879432699983e+00,-3.162227571010600147e-01,6.566221117973299881e-01,2.314515411853799998e-01,1.263139724731400015e+00,9.296337962150600376e-01,-1.088930606841999937e+00,1.807067394256600013e+00,1.578540921211200043e+00,1.850457310676600020e+00,-1.630546689033500085e+00,-3.132670521736100055e-01,-1.486566662788399995e+00,8.690136075019799788e-01,1.050719246268300017e-01,3.375276029109999798e-01,-2.084597110748299897e+00,-2.514034509658800154e+00,-2.633585929870600140e+00,2.250721305608699985e-01,-6.165784001350399501e-01,1.446238636970500036e+00,2.130604505538900018e+00,-5.572731494903599980e-01,-1.557469367981000052e-01,-2.000756025314299968e+00,8.131744861602799856e-01,-1.047857776284199932e-01,1.408793568611099944e+00,8.557702302932700400e-01,-1.515310853719699924e-01,1.265250742435500009e-01,1.757198691368099919e+00,1.678896248340600028e-01,-1.275744557380700028e+00,6.268195509910600149e-01,9.220145940780599680e-01,-1.700076580047600094e+00,-4.926600754261000192e-01,-1.994834303855899993e+00,9.673534035682700427e-01,2.874896764755200174e+00,-1.885044336318999925e+00,7.117152214050299630e-01,-6.463246345519999547e-01,-7.887521982192999825e-01,6.567841768264800484e-01,-6.928188353776899844e-02,8.116134256124500623e-02,-1.113741397857699988e+00,-1.571228742599499961e+00,1.155251264572100034e+00,1.468670725822400103e+00,3.606753647327399781e-01,3.037641048431399815e-01,-9.706529378891000093e-01,-1.082833647728000059e+00,3.721500337123900271e-01,2.198287397623099881e-01,1.720629036426500058e-01,6.039222329854999904e-02,4.665458202362099960e-01,3.025343120098100136e-01,1.009968161582899926e+00,8.441853523254400082e-01,-2.207061052322400130e+00,2.193192481994600040e+00,-2.440188169479399871e+00,-4.181316196918499761e-01,-1.428135037422199882e-01,-1.058883145451500057e-01,-1.104026198387100033e+00,-3.281367123126999741e-01,-1.914103150367699957e+00,-2.703835248947100034e+00,1.069546103477500010e+00,-1.567253351211499890e+00,2.422462224960300059e+00,1.002119302749600038e+00,4.883924126625099893e-01,2.903484821319600062e+00,-1.958665609359699911e+00,-1.970092177391099986e+00,-3.067514419555700034e+00,1.933300971984899919e+00,-1.932815551757800066e+00,-1.474035620689400083e+00,-1.619998693466200068e+00,1.013356328010599938e+00,-1.789239406585700021e+00,-7.581784129142800088e-01,-3.537045717239399867e-01,6.190923452377300462e-01,4.993403255939499741e-01,1.307979941368099919e+00,1.832688927650500066e+00,-2.287211656570399931e+00,1.202166080474899923e+00,-1.332435250282300032e+00,1.428577065467800056e+00,4.420581161975900009e-01,-1.140579104423500079e+00,-6.649249196052600119e-01,-1.092159986496000101e+00,-5.283831596374500172e+00,7.305930852890000216e-01,-2.292744070291500083e-02,-4.288049936294600073e-01,-4.532294273376499816e-01,3.276080191135399833e-01,-1.927033960819199976e-01,-1.035831451416000082e+00,3.442327678203599972e-01,6.879397630691499455e-01,-8.928378224372900407e-01,7.432440519332900175e-01,-5.128603801131199902e-02,1.481192588806200083e+00,2.717134356498699943e-01,-1.197139143943799944e+00,-1.292770624160799908e+00,2.369175702333500000e-01,-5.377670526504499948e-01,4.116722345352200052e-01,-6.510190367698700520e-01,1.053485274314899939e-01,-1.976168394088700042e+00,2.570618152618400210e+00,-2.359397172927899966e+00,-8.026203513145400148e-01,3.462333083152799862e-01,-2.594292640686000073e+00,3.191708326339699919e+00,2.046786993741999960e-01,1.302161067724199872e-01,-1.312945634126700123e-01,2.179258018732100066e-01,-7.777934074401899878e-01,-3.675566911697399908e-01,-1.164659624919300081e-03,-4.011610746383699744e-01,-3.207557797431899727e-01,1.277005076408399997e+00,-4.891282320022599661e-02,6.749372184276600239e-02,-1.957384049892400002e-01,2.068708181381199829e+00,-8.137837648391700318e-01,-1.059201240539600075e+00,5.792736411094699944e-01,9.957223534583999891e-01,-1.874675273895300087e+00,1.139661148190500017e-01,1.539943516254400069e-01,-3.966621309518800209e-02,-1.594642043113700058e+00,1.221852660179099992e+00,-3.983866870403299787e-01,-9.549934267997699511e-01,5.951471924781800427e-01,6.729621887207000164e-01,-1.270041584968599979e+00,8.189240694046000524e-01,-1.447577774524700100e-01,-1.578548848629000023e-01,2.676098644733400089e-01,-7.933408617973299881e-01,1.076119661331200072e+00,2.706661820411699892e-01,3.645358085632299794e+00,-2.633914232253999899e+00,7.925994396209700144e-01,-2.803915977477999810e+00,2.367115497589099782e+00,-7.151688337325999845e-01,-1.261560082435599917e+00,1.591888815164599902e-01,4.269951879978199916e-01,-2.468881160020799936e-01,-5.194242000579799567e-01,2.478639602661099950e+00,1.038269639015199974e+00,9.388453364372300047e-01,1.978482604026799985e+00,-2.688422918319699928e+00,-6.324421167373700525e-01,2.589891552925099871e-01,-1.113642930984499957e+00,3.554819822311400035e+00,-2.417200477793800175e-03,9.873427152633700299e-01,-8.796657323837300257e-01,-8.037899136543299461e-01,2.605565488338499880e-01,-3.281970974057899816e-03,2.627805471420299743e-01,-2.459575980901700099e-01,1.423740267753599964e+00,2.370152622461300096e-01,-1.483245372772199921e+00,-9.463980197906499692e-01,-1.358382105827300013e+00,-5.023350119590800356e-01,-7.414972186088599759e-01,-4.596898257732400239e-01,1.859741210937500000e+00,1.247919440269499969e+00,1.218802213668799928e+00,1.906681656837500016e+00,7.444407939910899774e-01,-2.540869951248200032e+00,6.023558974266099986e-01,-9.448981285095200411e-01,-1.267095923423799952e+00,-4.073648750782000172e-01,-1.019564390182500002e+00,-1.076174855232199912e+00,-3.916089534759499835e-01,-6.335014104843099680e-01,1.060330748558000025e+00,6.732254028320300288e-01,9.899859428405799466e-01,4.675239920616099942e-01,1.822637557983399992e+00,-1.397768378257800093e+00,1.354535579681400037e+00,-2.173785865306900045e-01,-6.462679505348200015e-01,1.123832166194899951e-01,-6.741663813591000087e-01,9.695748686790499615e-01,-4.832901656627699993e-01,2.047057628631599790e+00,-3.703321218490600031e-01,4.672808051109300087e-01,-4.825421273708300207e-01,5.392686724662799636e-01,6.094845533371000545e-01,-1.144665360450699998e+00,-3.159644007682799738e-01,-4.988981783390000202e-01,5.987178087234500401e-01,-6.580679416656499692e-01,-1.025015711784400096e+00,-1.344635486602800079e+00,-1.617428421974199892e+00,-3.493532836437199807e-01,-1.278800368308999902e-01,-1.629085779190099892e+00,-1.866461753845199967e+00,-5.604195594787599877e-01,6.584089398384099789e-01,1.861961245536799980e+00,1.173921860754499960e-02,-4.306572675704999908e-01,4.401077926158900033e-01,-2.716682665049999917e-02,3.877596259117099819e-01,5.124365687370300293e-01,-3.630460202693899796e-01,-6.534370183944699928e-01,-7.909328341484099800e-01,-1.757338643074000117e-01,3.669136464595800229e-01,-3.540218174457600009e-01,-1.052124500274699948e+00,-1.267918944358799926e+00,1.593857049941999948e+00,-3.484094738960299975e-01,-9.114549160003699857e-01,-7.241489887237499978e-01,8.325728178024299764e-01,9.049866795539900366e-01,-1.641177654266400054e+00,-9.749027341604199481e-02,4.946974217891699777e-01,-1.729711651802100070e+00,-5.195668339729300200e-01,-4.664374291896800084e-01,-9.709367156028699819e-01,-1.026503920555100091e+00,8.705171346664399845e-01,3.247098997235300238e-02,-5.089830756187400107e-01,-7.505708932876600237e-01,1.078098773956299938e+00,-1.618419885635399957e+00,-6.873651146888699603e-01,-9.126680493354799584e-01,-1.530005216598500084e+00,9.482203722000099866e-01,1.204734563827499993e+00,-7.096979022026099759e-01,-1.310672402381900081e+00,-4.152665734291099975e-01,-1.813130229711500119e-01,-4.937242865562400107e-01,-1.551000714302100070e+00,3.311312198638899917e-01,-6.548756957054100436e-01,9.212259203195599655e-02,6.449530124664299979e-01,5.382053852081299938e-01,-5.967715978622399886e-01,4.983492195606200048e-01,2.687673270702399808e-01,-1.616822123527499988e+00,-1.123519659042399921e+00,-1.171288371086099955e+00,-6.618874669074999995e-01,-2.398731559514999945e-01,-6.187465190887500022e-01,4.775089025497399886e-01,-3.522682785987900078e-01,2.584046363830600157e+00,3.799762427806899767e-01,4.824751317501099757e-01,4.110507369041400128e-01,2.246953994035700009e-01,3.183411806821800222e-02,1.076362133026099954e+00,-2.954723119735700010e+00,-1.940540075302100043e+00,1.012762188911400019e+00,-9.824347496032700411e-01,-8.032917380332900148e-01,-7.997319698333700266e-01,1.086801528930700034e+00,-7.719989418983500551e-01,1.319947719573999922e+00,-4.963361620903000149e-01,1.195722818374600038e+00,2.514991760253900144e-01,1.069643974304200107e+00,-4.547712802887000083e-01,7.643193602561999533e-01,-7.944105863571200299e-01,1.122068047523500089e+00,-6.166080236434899886e-01,-5.220485329627999604e-01,-3.678231239318799917e-01,8.346245288848900268e-01,-1.016790986061099966e+00,-4.514202475547799964e-01,-6.046693325042700184e-01,-1.672646284103399994e+00,-9.863763451576199603e-01,-3.615830540657000158e-01,6.560816168785099656e-01,5.573447346687300241e-01,1.594774365425100093e+00,-9.658979773521400025e-01,-2.816334247589099782e+00,-1.446970552206000016e-01,3.072235286235799889e-01,9.871177673339800451e-01,-1.591408729553200008e+00,7.831680178642299595e-01,-2.659163177013399992e-01,1.164514049887700048e-01,-2.488054484129000044e-01,1.078678011894200095e+00,-3.130337297916400141e-01,-5.590953230857800271e-01
-1.366728425025899973e+00,6.665781736373900257e-01,8.373546600341800206e-01,5.889051556587200364e-01,4.173837006092099844e-01,-1.321171522140500043e+00,1.174583435058599967e+00,-4.167589247226700100e-01,-5.932602658867799916e-02,-2.342592775821699946e-01,-5.174916982650800135e-01,-8.985796570777899728e-01,2.232837677002000198e+00,-3.080332577228500068e-01,-4.982159435749100029e-01,5.074910521507299821e-01,-6.891297549009299528e-02,-1.363795280456499892e+00,1.437015771865800096e+00,-1.325423598289499960e+00,2.217745304107700210e+00,-5.239290595054599819e-01,-1.063024520873999901e+00,-6.344883441924999978e-01,1.168019533157300005e+00,-5.219321250915499588e-01,-2.492136880755399866e-02,-9.550586938858000030e-01,3.064760267734499832e-01,1.858635306358300099e+00,-7.028112411499000123e-01,1.184912085533099901e+00,-4.176073074340799773e-01,1.365925312042199913e+00,-9.590820409357499188e-03,-8.192211389541600441e-01,-2.113885991275300108e-02,-8.994082212448100133e-01,-3.348525762558000052e-01,-6.751032471656800427e-01,1.390264272689800018e+00,-2.697419226169600059e-01,7.523468881845500611e-02,-7.105314135551500376e-01,-5.952280759811400257e-01,-7.644954919815100114e-01,-2.093743234872799952e-01,-9.645619392394999547e-01,-1.310804367065399934e+00,-2.009062170982399975e-01,4.818626493215599771e-02,-2.877259850501999727e-01,6.832342594861999518e-02,7.722520828247100289e-01,-2.546701729297600192e-01,-9.852793216705300061e-01,-1.459243893623400012e+00,-1.432451128959699949e+00,-1.065207004547100045e+00,-3.786206543445599926e-01,-1.014532685279800006e+00,8.818174600601199620e-01,-1.639418601989699908e+00,1.431315779686000100e+00,-1.533786058425899990e-01,7.911490797996499902e-01,2.013056278228800178e+00,2.029276132583599956e+00,-1.083864212036099950e+00,1.216146826744100018e+00,-1.421741127967800056e+00,-1.532979309558900050e-01,-7.095695734024000112e-01,1.861002445220899970e+00,-5.032286047935500273e-01,1.139102220535300081e+00,-9.632043838500999877e-01,2.138188362121599795e+00,1.287320137023900024e+00,4.842538833618200145e-01,9.986278414726299513e-01,2.830830216407799749e-01,7.006990909576400473e-01,5.084852576255799450e-01,1.309684038162199915e+00,-3.785735368728599948e-01,1.455855607986499933e+00,1.073297619819600035e+00,-4.813270568847700104e-01,4.598434269428299803e-01,7.255456447601299486e-01,1.789909124374400085e+00,-5.184977054595899526e-01,-6.087507009506200051e-01,-5.933982729911799758e-01,1.172349691391000093e+00,-5.388013124465900194e-01,-2.171331167221099978e+00,-2.264718294143699850e+00,-6.945725679397599661e-01,-1.678923845291099948e+00,-5.828917622566199830e-01,2.674420177936600029e-01,2.033204317092899949e+00,1.180870175361599994e+00,3.491358458995799663e-02,-8.038419485092199723e-01,1.332075715064999999e+00,-4.656146466732000166e-01,1.604320168495199983e+00,-5.876220464706399804e-01,-2.193921655416500027e-01,9.898205995559700154e-01,1.317497611045800099e+00,-9.609246850013699603e-01,-1.495302796363799924e+00,4.379571974277500224e-01,-2.136989355087299813e+00,6.927641481161099513e-02,-8.487033098936100362e-02,-9.681143164634700149e-01,-3.682942688465100090e-01,-1.541517972946200077e+00,5.534683465957600523e-01,-7.060936689376799968e-01,7.064210772514299963e-01,-1.604277968406699895e+00,1.009410262107800049e+00,-1.568470150232300075e-01,-1.103263497352600098e+00,-1.195973396301299951e+00,-4.176090359687800180e-01,-1.411067605018599957e+00,-1.233789443969699917e+00,-6.429493427276600226e-01,-2.050091743469200090e+00,-1.483724713325500044e+00,-9.311460256576500338e-01,-2.864565551280999767e-01,-5.555765032768199552e-01,7.214671373367299578e-01,-9.787468910217299589e-01,-1.375275969505300067e+00,-5.266973376274100005e-01,-6.172441840171799532e-01,-3.325817883014700049e-01,5.270712971687300241e-01,8.997887969016999943e-01,-9.106774926185600139e-01,1.474626362323800122e-01,-1.418332457542399894e+00,-1.094998240470899997e+00,-6.672059893608099923e-01,-5.517052412033099928e-01,-6.506721973419199445e-01,-3.717115893959999778e-02,-1.029142498969999986e+00,3.245344161987300247e-01,-1.704328209161800056e-01,2.390059381723400045e-01,-4.670225679874400182e-01,-9.181663393974299758e-01,-8.809654116630599718e-01,-8.522852659225500505e-01,5.519669651985199543e-01,-8.739255070686300364e-01,-5.739353895187400134e-01,-7.450304627418500303e-01,-2.606517262756799860e-02,7.034344226121899690e-02,-1.105017364025100007e-01,-1.387034177780199995e+00,-1.147730112075799891e+00,1.082529500126799965e-01,-7.658774852752699980e-01,-3.642925918102299931e-01,-2.909652292728400202e-01,-9.943023920059199661e-01,-3.938482999801600215e-01,-6.649304628372200154e-01,-2.591134607791900080e-01,-8.004908561706499670e-01,1.489449143409700138e-01,-4.950107336044299866e-01,-1.821370869875000020e-01,-8.451418280601500355e-01,-3.968492150306699995e-01,-8.601868152618400432e-01,1.960718482732800028e-01,-1.095132231712300008e+00,-6.355515718460099661e-01,4.284209609031700006e-01,3.791357576847099731e-01,-6.427533626556399815e-01,-5.244840979576099738e-01,-1.900950074195900119e-01,-5.678604245185899790e-01,-9.130446910858199816e-01,-6.641063094139100231e-01,-1.496199965476999960e+00,-5.676609277725199743e-01,-8.702563643455499820e-01,-4.383920431137099949e-01,7.663302421569799794e-01,-1.448866128921499907e+00,-1.060735464096099978e+00,-7.579427957534800031e-01,-1.434647440910299943e-01,-1.060511946678200035e+00,-8.031465411186200498e-01,-6.458257436752300462e-01,5.447860956191999948e-01,-2.843058109283400081e-01,1.603511869907399967e-01,-7.641615867614699464e-01,-1.369117379188500072e+00,-9.870777130126999754e-01,-1.158865809440599914e+00,-1.075382113456700095e+00,2.940882444381699989e-01,-1.405133366584800036e+00,-7.526493668556200056e-01,-3.773206174373600064e-01,-3.320946544408800299e-02,-1.645521759986900090e+00,4.452722370624500048e-01,-2.211620092392000192e+00,-9.697415828704799567e-01,-1.112054824829100008e+00,-6.828722953796400041e-01,-1.274216771125799896e+00,-1.638683199882499997e+00,-5.681719779968299466e-01,-8.653071522712699748e-01,-1.014682054519699950e+00,-7.037102580070500046e-01,-7.544022798538200236e-01,2.494573965668700141e-02,-3.978149965405500255e-02,-6.292198896408099928e-01,-2.514971196651499818e-01,-8.176853507757199380e-02,-8.795476555824299769e-01,-4.458771049976300027e-01,-8.531697392463699625e-01,6.709866523742700206e-01,-2.043753862381000042e-01,-5.364403724670400164e-01,-1.068871021270799915e+00,-7.731026411056499681e-01,-2.564513087272600189e-01,3.825734928250300315e-02,-2.236036360263800038e-01,-1.604203432798400053e-01,-5.581868290901199625e-01,6.006278991699199876e-01,-7.961232662200899979e-01,-8.701237440109299559e-01,8.555733561515800334e-01,2.019425630569499919e-01,-1.058188199996900059e+00,-1.755796074867199907e+00,3.432985842227900264e-01,-1.845014095306400093e-01,-7.663479447364800468e-01,6.895353645086299554e-02,-5.767608880996699661e-01,2.521689236164100234e-01,2.046032667159999985e+00,-3.109579682350199770e-01,2.735397219657900170e-01,4.195895493030499801e-01,1.123798847198500095e+00,-6.435543894767800088e-01,1.464503884315500049e+00,9.584385156631500258e-02,2.979931354522700193e+00,-1.775819808244699927e-01,-1.316016554832500018e+00,-1.668808698654199896e+00,2.211972951888999894e+00,-1.012981057167100074e+00,3.346243128180499682e-02,4.260826855897899973e-02,3.644468262791600299e-02,1.481107831001299946e+00,-2.973709702491800222e-01,6.607195138931299949e-01,-6.198539733886699876e-01,6.101993322372399886e-01,3.418201114982399955e-03,-7.810434699058500518e-01,-1.508523106574999995e+00,-1.442911624908399970e+00,-4.781213700771300146e-01,-7.691553235053999460e-01,2.045839309692400132e+00,-5.296546816825900006e-01,6.621168255806000325e-01,-1.536188840866099969e+00,-1.206774234771700094e+00,-1.293614506721499913e+00,-1.128684520721400020e+00,-1.171759486198399980e+00,-2.299974262714399864e-01,-7.977152466774000139e-01,-5.895022749900800108e-01,-1.279605269432100068e+00,2.366626709699599929e-01,1.453451156616200057e+00,-3.255752027034800045e-01,-3.105086684226999738e-01,-7.059089541435199511e-01,-1.495112299919099996e+00,-1.581863284111000079e+00,-1.369618415832499991e+00,-9.257438778877300489e-01,-9.286806583404499937e-01,-9.618687033653300356e-01,8.120111823082000191e-01,-5.213049650192299600e-01,6.040565371513400006e-01,8.904588818550099871e-01,3.595252275466899849e+00,-1.133323311805700007e+00,1.454518318176299951e+00,-1.080888032913200014e+00,-6.294335126876799968e-01,-9.733932614326500365e-01,2.143505811691300167e+00,-6.399879455566399589e-01,1.046116590499899912e+00,-1.702292561531099979e+00,2.501744508743299900e+00,1.115918517112699959e+00,7.401191592216499471e-01,3.612827956676499808e-01,-6.944150328636200520e-01,9.838113933801699573e-02,3.299314528703699984e-02,1.447162747383099912e+00,-9.314096570015000243e-01,1.977381348609899891e+00,3.703516125679000015e-01,-8.213381767272900369e-01,4.401814639568299992e-01,-3.982411324977899736e-02,1.120942473411600027e+00,-8.952202796935999629e-01,-6.123532727360699729e-02,-3.360418379306799874e-01,1.436377316713300101e-01,-1.058057308196999946e+00,-1.228709101676900062e+00,-1.745562076568599963e+00,-2.108852192759499977e-02,-5.806686282157900170e-01,-1.825376272201499894e+00,2.188884615898100128e-01,1.801857352256799993e+00,1.376877427101099949e+00,2.849647402763400006e-01,-1.094743967056299949e+00,1.850368857383700050e+00,-1.149439454078700074e+00,2.374056339263900028e+00,-3.729353249073000254e-01,-4.531880915164899770e-01,5.113994479179400088e-01,1.314235091209400075e+00,-1.499804615974400068e+00,-2.298912048339799785e+00,1.027128398418400007e-01,-1.069087743759199904e+00,-2.789089083671599800e-01,-1.601350903510999901e-01,-1.164747774601000013e-02,-2.594952285289799931e-01,-1.091896891593900021e+00,1.398227214813199948e-01,-8.788141608238199398e-02,6.278428435325600354e-01,-1.930084705352800079e+00,7.660759240388899383e-02,2.883177995681800165e-02,5.130797028541600469e-01,-8.399956822395300282e-01,1.022237896919300004e+00,-3.326866924762699740e-01,-2.123290151357699884e-01,6.510056853294400314e-01,2.400275617837900055e-01,1.179626137018199988e-01,-1.567668467760099937e-01,5.820789933204699729e-01,1.073432043194799956e-01,-1.851396203041099975e+00,-9.282919764518700323e-02,5.806229114532499569e-01,-1.027837872505199979e+00,2.171542197465899937e-01,-2.369261234998699950e-01,-1.311147332191499926e+00,3.360838815569899829e-02,1.947215676307699983e+00,-7.585238814353899572e-01,-1.584177166223499911e-01,5.821349620819099568e-01,1.525013089180000003e+00,-7.995363324880599976e-02,-8.605478405952500243e-01,3.950341343879700262e-01,-8.050845265388499872e-01,1.365884304046599995e+00,-4.751406610012099963e-01,-8.207933306693999675e-01,7.679468393325800113e-02,1.011302947998000024e+00,-6.634566187858600417e-01,3.650154471397399902e-01,-3.424044251441999975e-01,2.569816112518300000e-01,2.649029493331899743e-01,-3.539559245109599739e-01,-1.360666513443000047e+00,5.323007106781000308e-01,7.542341947555499804e-01,1.653053313493700049e-01,-1.660894304513899911e-01,2.051777541637400115e-01,-8.334161043167099825e-01,5.031738430261600142e-02,-3.341057151555999749e-02,1.242971345782299952e-01,-4.085792303085299948e-01,3.664278090000199772e-01,7.110034227371200277e-01,-8.335503935813900478e-01,3.918574154376999741e-01,6.634904742240900211e-01,4.153971746563900336e-02,6.960833668708800159e-01,-2.457094192504900160e-02,1.948764622211499875e-01,2.217705994844400008e-01,7.674123644828799717e-01,-1.038580983877200048e-01,1.337517499923700059e+00,-1.928305476903899862e-01,-5.160847306251500344e-01,9.030410051345799660e-01,-1.320983529090899999e+00,-5.126261115074199903e-01,1.438331127166700085e+00,5.665526390075700247e-01,1.495076417923000001e-01,5.778745934367199993e-02,1.592045903205900004e+00,6.979031562805200206e-01,-1.239406704902600076e+00,-3.107673525810200066e-01,1.998764395713799935e+00,1.519279003143300111e+00,-1.051828145980800100e+00,1.121315240860000007e+00,-4.104387462139100218e-01,2.270383834838899939e-01,1.249347925186200081e+00,-9.651860594749499533e-01,-2.683495581150099896e-01,-1.462026596069299966e+00,8.136873841285700015e-01,-4.921246469020800207e-01,-5.422329306602500232e-01,-8.715701103210400369e-01,1.143517017364499955e+00,3.735658479854500093e-03,-1.146067231893500016e-01,-3.213113248348200002e-01,7.379683852195699778e-01,-5.448557138442999825e-01,-6.880780309438699893e-02,-1.989386230707199943e-01,6.393965482711799764e-01,1.089989542961100066e-01,2.111405879259100060e-01,3.706566989421800074e-01,-1.390995383262600082e+00,-1.318786978721600001e+00,2.583344280719799824e-01,-9.799050092697100256e-01,1.268048048019400076e+00,1.336094886064499998e-01,-1.392918467521699899e+00,-3.107214570045500057e-01,-7.946860790252699425e-02,-7.811567783355699568e-01,1.277767062187199931e+00,-2.565670758485799965e-02,-1.739308387041099968e-01,2.203307896852499947e-01,7.237782329320900654e-02,-8.107082843780499815e-01,1.419939249754000044e-01,-3.236642181873299884e-01,2.622790932655300056e-01,-1.153942793607699996e-01,-8.673512935638399979e-02,3.875066637992899965e-01,-7.340143322944600035e-01,3.118148148059800007e-01,1.147278070449800014e+00
