-3.672619760036500147e-01,-4.138172566890699899e-01,-6.991329193115199958e-01,1.894876509904900030e-01,-4.885931909084300084e-01,2.636020183563200225e-01,2.162802815437299964e-01,-7.720444798469500158e-01,3.216453269123999842e-02,-2.183514535427099890e-01,-5.520909093320400078e-03,1.604544371366500022e-01,-1.825088262558000052e-01,8.452815562486599987e-02,-4.812804460525499928e-01,3.301278650760700040e-01,-1.146449819207199933e-01,2.845864370465300136e-02,7.723559439182299535e-02,-2.409234046935999907e-01,3.609216213226300041e-01,2.607068419456500252e-01,7.793745398521399748e-02,-7.448886521160599967e-03,1.972627937793700048e-01,3.718068003654499964e-01,4.732076823711400260e-01,-1.209052354097400056e-01,-6.239998340606699445e-01,2.320101708173800126e-01,-3.582418560981799893e-01,-5.845511704683299670e-02,-2.733379900455499834e-01,-3.453112393617600168e-02,2.648486196994799813e-01,1.035055369138700027e-01,-6.016378477215800213e-02,-3.843499124050099858e-01,4.522390961646999830e-01,3.126690983772300036e-01,1.087465435266500025e-01,4.113470017909999776e-01,2.250432036817099843e-02,-4.561209119856400075e-03,-3.341693803667999951e-02,2.610512673854800125e-01,-8.879506587982199939e-01,-2.681826055049900126e-01,-9.718099981546400590e-02,-6.879153661429900264e-03,8.269275538623300018e-03,1.621001660823800095e-01,-7.264191657304799876e-02,-1.045391485094999962e-01,-2.882859706878699857e-01,9.165486693382300654e-02,-3.134635984897600203e-01,1.900267452001599966e-01,2.395553886890399997e-01,4.215983450412800204e-01,-2.190722674131400094e-01,3.055949807167099852e-01,-2.690171077847499856e-02,-9.856618940830199488e-03,5.408675670623800391e-01,-1.136219799518600054e-01,8.594276756048199739e-02,6.852534413337699748e-01,-3.516584336757699880e-01,7.799931615591000622e-02,-2.072588652372399920e-01,-6.356623768806499708e-01,-3.620706200599699831e-01,-4.917953535914400265e-02,-1.995043158531200067e-01,-1.071118749678100050e-02,7.707275748252899739e-01,2.382216453552200019e-01,9.473958052694799251e-03,-7.905307412147499768e-01,1.117152199149099995e-01,8.095030784606900287e-01,-1.687979251146299875e-01,1.002852618694300008e-01,2.103304862976099893e-02,-1.803852021694200003e-01,-2.140370011329700145e-02,1.395391225814799907e-01,-3.116008341312400121e-01,5.067570209503200473e-01,-2.255084663629499941e-01,3.632273152470599786e-02,-3.914011642336800295e-03,5.274123549461400273e-01,5.640029907226600248e-01,-1.235378384590099937e-01,-3.985332325100899610e-03,-2.524015307426499821e-01,-2.066178619861600008e-01,-1.053281724453000029e-01,4.244235530495599901e-02,-3.958785235881799869e-01,1.218283995986000068e-01,-6.938517093658400081e-02,1.119825243949899907e+00,-2.379729971289600010e-02,5.617666840553300345e-01,1.394880115985900060e-01,-1.529956758022300023e-01,-3.225960731506299917e-01,-1.121237315237499921e-02,-1.241114288568500035e-01,1.012290343642199969e-01,3.911143839359300101e-01,-9.056010097265200509e-02,1.711265742778799934e-02,-5.327761769294699912e-01,-4.051855579018599773e-02,-4.846021533012400129e-01,-1.148583814501799999e-01,-1.213264837861099954e-01,1.184474229812600005e-01,1.878860294818900101e-01,-2.864536345004999873e-01,6.828567385673499635e-01,3.222382441163099825e-02,1.433759927749599927e-01,-2.273913919925699967e-01,-9.605062007904099919e-02,4.261926710605600244e-01,-2.001555077731599977e-02,2.979972958564799934e-01,-2.223847508430500108e-01,2.030935585498800100e-01,3.427212312817599915e-02,5.083866119384800042e-01,-1.696756482124300164e-02,-3.219861537218099835e-04,2.553803324699400190e-01,-1.618710160255399932e-01,1.797209233045599930e-01,-8.185868710279499416e-02,-4.640937745571099837e-01,3.789370954036699879e-01,3.912834823131600137e-01,4.088668525219000260e-01,-1.865226179361300085e-01,-4.147123396396599770e-01,1.515485793352099875e-01,-5.445223450660700015e-01,-9.078719466924700665e-02,3.008800093084600200e-03,-1.109443604946099976e-01,2.814145982265500168e-01,-1.987925320863699885e-01,-6.115456819534299537e-01,-9.660767018794999550e-02,1.995955035090399982e-02,2.794322073459600264e-01,1.757639111019700020e-03,7.393913809210100191e-03,-1.243019178509700007e-01,-2.333872169256200058e-01,6.604740768670999684e-02,1.551770865917199982e-01,-1.026966929435700004e+00,1.343302894383699951e-02,-2.457235008478199922e-01,2.339855581522000058e-02,-4.213736392557600186e-03,-9.087462723255200492e-02,1.264947503805199935e-01,2.244990915060000036e-01,-3.562990725040400264e-01,1.089746057987199951e-01,-4.879412949085200069e-01,9.980001449584999795e-01,1.421122252941099950e-01,6.053366661071799548e-01,2.948676049709300084e-01,-3.791053593158700274e-01,-2.449933737516399868e-01,3.078339695930499831e-01,-3.262784183025400075e-01,4.971798360347700063e-01,-2.247303575277299903e-01,-1.719133406877499937e-01,2.965990304946899969e-01,1.069073379039799931e-01,-2.645030915737199839e-01,-2.012054324150099882e-01,-2.929630279541000082e-01,-5.191314220428500104e-02,3.825206458568600199e-01,-4.923711121082299802e-01,-2.330630123615299865e-01,-2.403013035655000157e-02,2.282297611236600021e-02,1.847900450229600020e-02,7.520288228988599721e-01,1.379474848508799867e-01,-1.468116194009800035e-01,2.067211419343900070e-01,-6.411827355623199443e-02,1.720231920480700116e-01,1.101376023143500055e-02,1.806055754423100124e-01,-2.073100507259399983e-01,-2.405530214309699877e-01,-4.350322782993299997e-01,3.160311579704300211e-01,3.835370391607299811e-02,2.010246366262399831e-02,-1.617407649755500110e-01,-1.525616943836199946e-01,1.093631237745300022e-01,-4.122460782527900269e-01,-2.249959707260099917e-01,-1.249729841947599951e-01,4.144472777843499767e-01,-4.701433330774300312e-02,7.358258217573200588e-02,1.259247660636899913e-01,7.637016475200700261e-02,8.397036045789700587e-02,-5.316691398620599918e-01,2.245337963104200030e-01,3.358735144138300099e-01,2.386622726917299875e-01,-1.786387898027900004e-02,1.684897840022999971e-01,8.142842650413499861e-01,-2.032612115144699916e-01,3.370831012725800102e-01,-6.878047436475799581e-02,1.292878389358499969e-01,-2.467136383056600102e-01,4.569432437419900239e-01,2.672715485095999988e-01,-1.516484022140499877e-01,-3.186452388763399979e-01,2.637713551521300159e-01,1.191974501125499979e-03,-4.231068193912499997e-01,-1.980891525745399895e-01,-8.655568957328799717e-01,2.365881502628300048e-01,4.059178829193100246e-01,-2.419265955686600023e-01,1.101864129304900020e-01,2.824567258358000044e-01,3.869757056236299841e-01,-3.336264789104499973e-01,-1.422735154628800014e-01,5.940024182200399905e-02,4.012955427169799805e-01,3.897107541561100064e-01,-5.756944417953500231e-02,2.361255437135700019e-01,-5.817865580320399910e-02,8.489047735929500238e-02,1.003600307740299931e-03,-3.805090785026600253e-01,-5.261003375053400211e-01,-1.966298520564999930e-01,-5.072443485259999774e-01,3.423734903335600155e-01,-5.126479268074000117e-01,-2.269975692033799897e-01,5.861433148384099789e-01,-7.446393370628400232e-01,1.866729408502600107e-01,-1.006768584251400034e+00,-1.135805547237399987e-01,-5.276653449982400372e-03,-1.238796338438999944e-01,5.263313651084899902e-01,-1.348050683736800037e-01,4.129567146301300062e-01,-1.475393921136899933e-01,-2.786803245544399732e-01,-2.703952789306600102e-01,2.000800669193300019e-01,2.092478051781700155e-02,1.058506742119799948e-01,1.586859375238399983e-01,1.711119115352600084e-01,6.214696168899500051e-02,2.219628840684899906e-01,4.459941387176499794e-01,-3.032677173614499733e-01,-1.014324426651000005e-01,2.844512760639200111e-01,2.887651324272200171e-01,4.006729125976600248e-01,7.377535849809599422e-02,-9.818604588508600406e-01,-1.395314931869499897e-01,4.976504743099199879e-01,3.931343182921399892e-02,-5.267520621419000126e-02,-6.769687533378599964e-01,3.428106606006600110e-01,9.321525692939800489e-01,-1.145228967070600068e-01,-2.106808274984399987e-01,1.609703749418300023e-01,4.637772217392899937e-02,-1.966649293899500051e-01,2.567527890205399954e-01,-2.784281373024000139e-01,2.235885336995099837e-02,-4.319709539413499888e-01,-1.618675887584699880e-01,-7.805600166320799671e-01,4.461674690246599795e-01,3.704599142074599949e-01,1.184126362204599991e-01,-6.562721729278600535e-02,2.678282260894799816e-01,6.796902418136599455e-02,-5.849628709256599578e-03,-1.123602464795099981e-01,3.725495338439899773e-01,-5.363299250602699964e-01,-1.497329115867600091e+00,-1.238911747932400109e+00,-6.198207736015299840e-01,2.660962045192700187e-01,-5.385625958442700201e-01,-1.235525012016299939e+00,-5.130782723426799974e-01,-7.704453468322800536e-01,-3.816392272710800171e-02,-4.118750244378999864e-02,2.841186225414299993e-01,-3.431925177574199903e-01,-4.159210249781600255e-02,9.658089280128499821e-02,-3.276041448116300270e-01,-6.047778129577600081e-01,-3.261277973651899864e-01,-2.890962064266199838e-01,-5.451542139053300318e-01,-3.524547219276399912e-01,2.362118661403700137e-01,4.044681787490799763e-01,-1.971587538719200144e-02,-1.738235592842100052e+00,-3.349573537707300347e-02,-5.853190422058099918e-01,3.363876342773399752e-01,2.761763632297499771e-01,-1.813889741897599939e-01,4.343858063220999988e-01,5.118540525436400257e-01,-3.226439952850300164e-01,2.659008800983400089e-01,-1.268591135740300135e-01,-1.278491139411900068e+00,-3.522521257400499928e-01,1.588219255208999925e-01,-2.196228802204099884e-01,-5.480496883392299567e-01,5.548864603042600319e-01,1.248624250292799942e-01,-1.533905267715500065e+00,-4.477287828922300039e-01,1.744530498981499977e-01,1.103771924972500040e-01,-1.032718062400800108e+00,-1.044778004288700046e-01,-1.110150933265700024e+00,8.072207868099200156e-02,-2.437476366758299928e-01,-1.550712287425999869e-01,4.850830733776099746e-01,4.423207342624699834e-01,-6.250765919685400407e-01,-9.583038687706000314e-01,-5.413140654563900478e-01,-2.768660187721300181e-01,1.128996834158900037e-01,-5.401385426521300159e-01,9.543842077255200174e-01,-1.743107289075900013e-02,-4.228227958083199955e-02,-4.384247362613700183e-01,1.616149991750699955e-01,1.903534978628199925e-01,-2.334146499633799887e-01,2.556280791759499849e-01,-1.861100345850000004e-01,2.889035642147099736e-01,1.014881655573799946e-01,-1.610522568225900009e-01,-3.296223003417299898e-03,-5.168914794921900535e-01,-1.487870514392899968e-01,-2.208308130502699973e-01,-5.403347313404099905e-02,-2.794359624385800087e-02,-8.264025673270199504e-03,-2.382133901119199981e-01,2.301958054304099888e-01,-1.058484911918600030e-01,-2.804521322250400073e-01,-9.785777656361499717e-04,2.585963308811199957e-01,1.192481145262700021e-01,2.679846286773699959e-01,-2.197743952274300028e-01,3.268461227416999959e-01,1.754042208194699914e-01,-1.946316361427299912e-01,6.694061681628200346e-03,3.417696654796599787e-01,1.412671208381700017e-01,3.435220122337300230e-01,1.694194525480300084e-01,2.930659987032399952e-02,-3.008325397968300008e-01,6.077922135591500019e-02,9.020387381315199404e-02,5.505820736289000067e-03,3.217646181583400100e-01,-4.800378903746600062e-02,5.163236334919899667e-02,8.197689312510199984e-04,1.268827766179999872e-01,4.828877449035600122e-01,2.912557497620599928e-02,-1.460784226656000051e-01,9.718491137027700233e-02,-1.845708042383200076e-01,3.671466410160100224e-01,-3.581378236412999932e-02,2.870040573179699975e-02,2.563638426363500089e-02,8.147313445806500520e-02,-1.192824766039800033e-01,4.698796272277799835e-01,2.297143489122399906e-01,-1.797368675470399912e-01,3.487157821655299805e-02,-1.881864294409800117e-02,-8.729562908410999633e-02,2.371858060360000076e-01,-3.242902457714100239e-01,-1.214357763528799983e-01,-1.199919208884200061e-01,4.268310149200300213e-04,1.010013371706000029e-01,1.248302534222600069e-01,8.146262168884299548e-02,1.595418453216599919e-01,1.459360420703899874e-01,-9.373636543750800409e-02,1.851731389760999935e-01,-3.121627029031499943e-03,-3.182566538453100030e-02,3.339313268661500134e-01,-1.494478434324300054e-01,2.247617393732100066e-01,4.271313548088099751e-03,-1.960944980382899883e-01,-2.803233265876799857e-02,3.944611251354199766e-01,2.579130418598700111e-02,-2.270538210868799922e-01,4.037935137748699943e-01,-7.091346383094800088e-02,1.059816405177100018e-01,4.855988547205899834e-03,4.836189374327699853e-02,5.063750967383399970e-02,3.381600081920599910e-01,1.567483693361300112e-01,8.751489222049700645e-02,-9.531823918223400124e-03,2.815982401370999977e-01,1.289936155080800007e-01,-1.826494783163100100e-01,-1.526850014924999999e-01,1.159592419862700008e-01,-2.419658899307300104e-01,-1.141383349895500054e-01,-3.144811689853699854e-01,-1.485083252191500003e-01,3.004731535911600027e-01,5.501222610473600200e-02,-5.384749174117999665e-02,-3.049901127815199953e-01,2.308943681418899885e-02,2.644942514598400130e-02,2.741969823837300257e-01,-2.259581163525600095e-02,-2.332569360733000030e-01,-5.277962982654599983e-02,-2.100749686360400131e-02,9.057196229696300172e-02,-4.226019978523300191e-02,7.681349664926499787e-02,-2.083304710686199879e-02,-5.603716149926200180e-02,1.256275922060000050e-01,-4.526950418949099997e-01,5.504603385925299630e-01,2.771338522434200202e-01,1.043470501899699948e-01,-2.715323567390400261e-01,1.894525140523899975e-01
9.442195296287499984e-01,1.425520889461000078e-02,-2.059525549411800049e-01,-8.391007035970700356e-02,-1.364233493804899999e-01,2.042052894830700127e-01,-1.004992052912700023e-01,-4.919348284602199917e-02,3.400615155696899983e-01,-1.065383628010699996e-01,-2.861932814121200264e-01,1.793687939643900109e-01,3.999335467815399725e-01,-2.710362523794199868e-02,-3.066010028123900000e-02,9.351171851158099901e-01,1.045495152473399969e+00,6.902953386306800443e-01,-4.413227736949900115e-01,-2.199333459138899938e-01,-2.357406467199300026e-01,-7.460200786590599764e-02,-6.834847386926399572e-03,-1.126742176711600062e-02,4.012989699840500135e-01,1.816980242729200057e-01,-2.261069267988199960e-01,4.363671690225599809e-02,-4.331444203853599961e-01,-2.944161295890799779e-01,-1.046290323138199946e-01,6.565900146961199668e-02,-7.145269513130200201e-01,-1.569045931100800095e-01,-5.972348526120199730e-02,-2.373402751982199924e-02,-1.642049849033400122e-01,8.207082748413099815e-02,1.838758736848800091e-01,-2.166954427957500096e-01,-1.393496245145799950e-01,2.345160953700500123e-02,3.769803345203400213e-01,-6.444037705659899640e-02,2.906124591827399795e-01,-4.249090254306799874e-01,1.325237303972200131e-01,-7.187313586473499660e-02,1.702025532722500067e-01,-5.830437541008000046e-01,7.756721228361100617e-02,4.740920960903199921e-01,-1.707243472337700019e-01,1.208495795726799993e-01,-2.134174108505199896e-01,-5.832899808883700299e-01,3.472867310047100253e-01,9.415192604064900328e-01,1.282222121954000038e-01,4.342952277511399894e-03,2.144141644239400124e-01,-1.077609807252900009e-01,1.046900600194899944e-01,-3.125056028366099969e-01,3.382589221000700253e-01,-6.846687756478800346e-03,7.615766525268600207e-01,8.401273190975200311e-02,2.052294462919199980e-01,1.138056740164799935e-01,3.399956822395299727e-01,1.681845635175700099e-02,-5.024989694356900294e-02,-3.159716725349399902e-02,-1.076185405254399957e-01,-5.983418226242100124e-02,-1.544703543186199957e-01,2.756551802158400122e-01,-4.631260037422200299e-02,-4.526978135108900014e-01,1.049805730581299945e-01,-2.177983224391900063e-01,2.053054720163300095e-01,5.263653118163300407e-03,-7.597416043281599585e-01,2.419399470090899951e-01,2.126936316490199985e-01,5.537090897560099645e-01,1.373416483402299937e-01,5.052215605974200163e-02,-3.875753581523900260e-01,-4.479083232581599835e-03,-6.340909600257900181e-01,2.001287974417199911e-02,7.075500488281200040e-01,1.587199717760099937e-01,6.372062563896200293e-01,8.435504883527800146e-02,2.017294466495500038e-01,7.095356285572100574e-02,5.427023172378500071e-01,7.920972257852600118e-02,-1.089670360088299955e-01,-1.846024096012099935e-01,3.283696174621599795e-01,-1.212406344711799977e-02,-2.569998800754499935e-01,3.208425641059899913e-01,3.282075226306899740e-01,-1.259061455726599998e+00,1.087186671793500051e-02,-1.760175973177000031e-01,-1.644487679004699998e-01,8.398813009262100227e-02,2.274287939071699960e-01,2.541806735098400133e-02,-2.440935969352699964e-01,5.716609954833999918e-01,7.741846442222599656e-01,1.020119041204499977e-01,-2.682719528675099885e-01,2.361693531274799973e-01,1.275462936609999924e-02,3.288461267948199901e-02,-1.547138839960099932e-01,8.667972683906599585e-02,3.611100614070900106e-01,-3.728964030742599745e-01,-3.310472965240500165e-01,4.132821857929199760e-01,-1.527420133352299925e-01,-3.078787028789499725e-01,-5.726340413093600201e-01,-2.851041406393100067e-02,-3.526419997215299862e-01,1.252168864011800054e-01,6.904240697622300582e-02,2.632299903780199821e-03,4.582928493618999843e-02,8.250914514064799921e-02,1.035428345203399936e-01,6.268549561500500467e-01,-3.320731818675999869e-01,-3.187322020530700128e-01,6.788098216056800416e-01,8.056803345680200179e-01,-5.153444409370400159e-01,2.875899672508199778e-01,1.304035186767600052e-01,2.594290673732799757e-01,1.776131452061199909e-03,2.493035420775399982e-02,4.669367969036100074e-01,6.505460143089299985e-01,5.877958536148100155e-01,2.060522139072399894e-01,7.305335253477099333e-02,-6.297121644020100550e-01,2.598873078823100147e-01,-3.106210567057100108e-02,1.346136480569800065e-01,-2.049751281738300124e-01,1.968550086021400025e-01,-2.077054083347300018e-01,1.088262945413600025e-01,1.655260771512999940e-01,1.137575209140799931e-01,-4.934504162520199702e-03,1.578968018293399889e-01,1.204225793480900031e-01,4.931175708770800248e-01,9.742186963558199797e-02,-7.400640249252300462e-01,-1.335085779428500097e-01,-8.347798138856900307e-02,5.791422724723800375e-01,2.175371497869499904e-01,7.347576320171400610e-02,5.906147956848100122e-01,4.980646073818200126e-01,1.757072508335099925e-01,-1.883763223886500138e-01,1.425769063644100098e-03,-4.461281001567800053e-01,-9.168006479740099801e-02,-5.594555735588100376e-01,2.444353885948699970e-02,-9.534885734319699380e-02,-7.033339142799399646e-02,4.728108644485499723e-01,-1.322793681174500025e-02,8.124768733978300628e-02,4.169891402125400215e-02,-1.068908721208600004e-01,-2.909662723541299734e-01,-3.095686994493000027e-02,2.753867208957699875e-01,-2.146388143300999862e-01,9.369883686304099346e-02,-1.081117391586299964e-01,3.184852600097700104e-01,2.459649555385099925e-02,1.773559600114799906e-01,6.080253049731299680e-02,1.815442927181699917e-02,-6.223820447921799559e-01,9.414701461791999959e-01,-2.407236099243199867e-01,-1.486993879079800129e-01,6.902185827493699521e-02,-3.054131269454999908e-01,4.052157700061799761e-01,4.509912133216900099e-01,-1.863392889499700111e-01,1.782707422971699929e-01,-1.232044771313700049e-01,-7.036274671554600124e-02,3.526949286460899780e-01,2.681650221347799956e-01,2.591188438236699879e-02,2.490789890289299979e-01,1.118525415658999933e-01,-3.435078263282800165e-02,1.325304359197599924e-01,-1.322998106479600089e-01,-3.266698420047799978e-01,-1.191013753414199988e-01,-8.314677327871300427e-02,1.788130849599799954e-01,-4.700585901737199812e-01,6.134141236543699804e-02,-2.267934679985000035e-01,3.116281926631899735e-01,-2.041294276714299971e-01,-1.465385109186199963e-01,-1.436751931905700108e-01,8.417571783065800339e-01,5.396333336830100302e-01,1.895805448293700068e-01,-8.654742687940600310e-02,-3.036412410438099965e-02,3.415171205997499793e-01,-1.365897059440600025e-01,-6.324140429496799554e-01,-3.290431499481200062e-01,-1.824164539575600097e-01,-6.298255175352099333e-02,7.039933800697300015e-01,4.463771879673000265e-01,2.474205642938600014e-01,-7.250092923641200671e-02,-1.842458248138399979e-01,-6.756269335746799554e-01,9.577152729034400513e-01,6.029310822486900340e-02,-4.607529565691900059e-02,4.570913910865799790e-01,9.261485189199400794e-03,2.312507927417800091e-01,6.293724775314299968e-01,2.098231613635999915e-01,5.014325976371799554e-01,1.928918808698699972e-01,-6.377864480018600180e-01,2.893071770667999809e-01,1.007121335715100048e-02,-5.104755237698600095e-02,-8.803085982799499498e-02,-5.381825566291800061e-02,5.740610957145699800e-01,-1.557136029005100064e-01,6.470068693160999640e-01,1.953473314642899944e-02,-3.346917927265199988e-01,-2.929593920707699861e-01,-3.864987790584599736e-01,3.426391482353199902e-01,-7.340465188026400467e-01,4.914254248142200243e-01,-6.815438866615299851e-01,-6.569674611091600447e-01,-7.836655527353300621e-02,-9.294956922531100174e-02,-4.166463315486900187e-01,6.248686909675600365e-01,-1.358777731656999888e-01,-2.108703255653399944e-01,-2.252272143960000125e-02,-7.803232967853500346e-02,-3.506019711494399727e-01,8.941487222909899613e-02,6.767252683639499722e-01,-9.398273229599000134e-01,-3.276161383837500069e-03,-8.983340114355099770e-02,5.382759496569600177e-02,-3.493478596210500275e-01,1.926373541355100028e-01,-5.078392624855000426e-01,2.782900631427799865e-01,3.092435002327000027e-02,-1.295422166585900037e-01,-6.756360530853300350e-01,6.762081384658799599e-02,1.039823740720700052e-01,5.679951906204200318e-01,-2.136071771383299955e-01,-1.606932133436199950e-01,-6.499550491571400024e-02,-2.689813971519500191e-01,-2.053007036447500044e-01,-4.613511264324199890e-01,-1.254233717918399882e-01,5.393002033233600390e-01,9.359502792358399825e-02,-5.577924847602799829e-01,2.982232868671400028e-01,-8.424955606460600155e-01,-5.814703106880200201e-01,-3.016041219234499859e-01,-3.264481425285299943e-01,1.126326993107800017e-01,-3.637915551662400104e-01,-6.487308144569400303e-01,-2.143784761428799979e-01,5.471159219741800195e-01,-3.850683942437199692e-02,-1.429387275129600024e-02,2.271002978086499868e-01,-4.510020837187799989e-03,-5.137627124786400268e-01,2.155251055955899886e-01,-1.842322647571600081e-01,-4.283455312252000269e-01,-4.721001982688899923e-01,3.641127943992599758e-01,3.484951555728900141e-01,1.633220911025999866e-01,-1.956771314144099827e-02,4.941610619425799988e-02,-1.189072728157000020e-01,-6.483063101768500591e-02,3.649056851863899942e-01,2.455116659402800106e-01,3.388098254799799813e-02,-7.859957814216600447e-01,1.940122693777099894e-01,-1.640062183141700047e-01,1.914835721254299836e-02,-3.171321153640699886e-01,3.697327077388800065e-01,3.499052524566699796e-01,-2.686865031719199992e-01,-4.026646018028299800e-01,5.513685345649700364e-01,7.290317118167899402e-02,2.678448259830499834e-01,7.175284028053300345e-01,-1.503235381096599925e-02,-2.572548985481299955e-01,-6.120873689651500360e-01,-4.502489864826200172e-01,-2.617687284946400017e-01,2.578441984951499941e-02,-3.450332581996899683e-02,-5.693956613540599454e-01,-7.426994293928100566e-02,-4.217357337474800238e-01,7.996502518653900160e-02,4.928115606308000052e-01,-8.843307495117199712e-01,1.660903394222300045e-01,5.739846825599700386e-01,-3.338991403579700257e-01,-4.510606452822699813e-02,-5.001130104064900328e-01,-4.348047375679000015e-01,3.312117755413099829e-01,-6.049860268831300236e-02,-3.323297798633599864e-01,-4.148551076650600078e-02,-1.954097896814299962e-01,-6.046020388603200457e-01,-1.731317341327699988e-01,3.880722224712400137e-01,7.128893584013000495e-02,1.174804121255900030e-01,2.476608157157899892e-01,3.365089893341099980e-01,3.015900552272799962e-01,3.578745424747499793e-01,2.036253064870799934e-01,-3.278411626815799784e-01,8.463013917207699854e-02,-1.461882293224300022e-01,-3.843801841139800335e-02,-2.195422947406799885e-01,4.340836312621799802e-03,-2.170083820819899978e-01,1.411803346127299928e-02,9.168920665979400642e-02,-8.891350775957100605e-02,1.427804082632100069e-01,-6.476825475692700451e-02,-7.803370058536500398e-02,-2.943322621285900109e-02,-7.343439757823899683e-02,-2.571255899965799868e-02,-8.058603852987300531e-02,1.622353494167300125e-01,-2.179667539894599923e-02,1.352650523185700004e-01,-6.862655282020599379e-02,-7.272975146770499499e-02,-1.450967341661499876e-01,2.371096238493899944e-02,-5.320958048105200316e-02,1.936673000454899873e-02,-4.147234559059099768e-01,4.740044474601699635e-03,1.185000222176300043e-02,2.656504809856399807e-01,-1.238503381609900034e-01,-5.275940150022499775e-02,9.690843522548700517e-02,6.862340122461299541e-02,-1.158234253525699947e-01,-1.079049613326799918e-02,1.012994796037700040e-01,1.761900633573499839e-02,5.068461224436800194e-02,6.895367056131400385e-02,1.966696083545700080e-01,-3.998921215534200213e-01,-2.136677503585800164e-02,-1.793350577354400066e-01,1.076733767986299967e-01,-1.640197783708599866e-01,-1.456876248121299899e-01,1.842843890190100087e-01,-1.280248463153799976e-01,2.115173041820500033e-01,1.925870031118399883e-01,2.951093018054999906e-01,1.161546558141700047e-01,-1.708436310291299998e-01,2.614204585552200033e-01,5.988503098487899523e-01,4.643450677394900250e-02,-3.399080364033600209e-03,-4.903847575187699759e-01,-1.116588786244400028e-01,-1.581443846225700015e-02,-9.411586821079299947e-02,-1.616419702768299993e-01,1.401776522397999991e-01,2.030129283666599893e-01,-2.467366307973899858e-02,-1.050276588648599990e-02,1.426557451486600014e-01,3.533466458320599912e-01,-2.926158010959600264e-01,1.765723526477799843e-02,-3.817363455891600171e-02,6.901838630437899524e-02,-2.683242559433000052e-01,-2.045091986656200067e-01,9.209895879030199906e-02,-2.984377145767200257e-01,1.122005432844200012e-01,1.849963665008499958e-01,2.006743252277400080e-01,1.002813354134600016e-01,-2.892797887325300188e-01,-5.460439622402200183e-02,-7.253954559564600169e-02,-3.084118943661499912e-03,-1.807006895542100089e-01,4.480055868625599791e-01,-7.378922402858699436e-02,-2.681849002838099794e-01,-2.279164791107199939e-01,5.696266144514099822e-02,-3.634628653526299907e-02,9.751868993043899536e-02,3.429869189858399808e-02,-7.183410972356800428e-02,-2.375771254301100033e-01,-2.622055411338800046e-01,1.805136539042000166e-02,1.697714924812299964e-01,3.087017834186600029e-01,6.738240271806700266e-02,2.061098515987400126e-01,1.333428621292100102e-01,6.895565241575199456e-02,-1.091705337166799933e-01,2.321510463952999870e-01,1.116856038570400028e-01,2.794097661971999824e-01,7.004576176405000187e-02,-1.957086473703399943e-01,2.965155616402600017e-02,-8.069644123315800055e-02,1.194941326975799967e-01,-3.135485053062400107e-01,1.730678603053099895e-02,6.420188117772300009e-03,-4.060246050357799869e-02,1.703893393278100091e-02,-6.738948076963399703e-02,-6.621346622705499840e-02
-2.436610013246499895e-01,4.454987645149199871e-01,-6.487591564655299792e-02,3.990083336830099747e-01,6.557610630989100242e-01,1.914088577032100058e-01,1.393680870533000049e-01,4.806718826293899793e-01,-3.497133553028100028e-01,3.272346407175100169e-02,-9.246521443128599693e-02,-1.253922730684300102e-01,7.273501157760600688e-02,5.046173185110099796e-02,1.467492878437000048e-01,2.045170217752499964e-01,-5.445247292518600180e-01,7.974143028259299548e-01,-1.979528218507800030e-01,-3.562532663345300277e-01,-2.585631608962999928e-01,-3.573662042617800072e-01,-5.544915795326199603e-01,-1.229329407215100020e-02,2.165767103433600127e-01,-6.482623815536500134e-01,-2.476728707552000031e-01,-1.875825673341799948e-01,3.840246796608000057e-01,2.773719131946599803e-01,-9.988222271204000302e-02,1.762289926409699864e-02,-1.054236590862299983e-01,-2.808896303176899867e-01,4.971579462289799772e-02,-1.448322981595999981e-01,2.082774415612199947e-02,8.346388936042800077e-01,-1.000820100307499988e-02,-1.172974631190299988e-01,1.980094164609899898e-01,-8.521612733602500211e-02,-5.269321799278300356e-01,-3.488888144493100252e-01,-5.192007422447200149e-01,-1.304438859224300029e-01,2.555390596389799929e-01,-2.452960461378100032e-01,-2.614641487598399761e-01,4.640795290470099976e-01,5.696408748626700103e-01,-2.689875364303599969e-01,1.709118783473999870e-01,-3.756901025772099723e-01,5.825994610786400241e-01,5.769496783614200264e-02,1.929558254778400081e-02,-3.111032210290400057e-02,-7.145555615425099871e-01,5.055936798453299769e-02,7.060281634330699552e-01,1.245637908577899994e-01,3.974744677543600169e-01,-5.485623478889499749e-01,-2.677150666713700167e-01,1.011257544159900046e-01,5.706570744514499749e-01,-6.636071205139200124e-01,3.179251849651300033e-01,-8.841319382190700182e-02,-1.441885828971899985e-01,6.353340744972200138e-01,1.115987449884399962e-01,7.605991512536999788e-02,-2.139548063278199908e-01,3.912108540534999790e-01,-4.425336420536000182e-01,1.532952934503599984e-01,-6.604000180959700150e-02,4.250213503837599882e-01,-4.479136690497399764e-02,-1.915577799081799870e-01,6.988952755927999583e-01,2.453185766935299938e-01,1.198700070381199939e-01,1.126808449626000019e-01,-4.023446440696700210e-01,-4.459752142429400101e-01,1.731018424034100056e-01,5.085649490356399793e-01,-1.943551898002600087e-01,4.023840725421899966e-01,2.391347438097000122e-01,-7.547144293785099656e-01,2.058204710483599875e-01,-1.848671771585900028e-02,-9.530629962682700407e-02,-4.998133331537200214e-02,-2.348337024450299904e-01,-2.183805853128399921e-01,-1.604603976011300115e-01,-3.507947325706500252e-01,2.649734616279599830e-01,-1.968855261802699985e-01,-3.132451176643399893e-01,4.859439656138399982e-02,-2.861435711383800151e-01,-3.803132474422499798e-01,-3.276917934417700184e-01,-2.593550682067899960e-01,-1.674889475107199932e-01,1.710055395960800168e-02,-6.624048948288000505e-01,-3.018112480640400275e-01,-4.181171301752300250e-03,-1.561399549245799934e-01,4.275797307491299715e-02,1.963974088430399945e-01,5.046069622039799779e-02,-1.134145930409399955e-01,3.359737992286699892e-01,-3.144470974803000030e-02,-1.959005147218700060e-01,-9.411812573671299309e-02,3.939961493015299854e-01,-1.613942086696600053e-01,2.630046904087099957e-01,-3.189837336540199964e-01,1.880761384964000082e-01,1.040211558341999964e+00,3.359244465827900261e-01,2.488024160265899995e-02,5.972706079483000030e-01,1.039348840713500005e-01,-1.294935941696200021e-01,1.124993860721599931e-01,2.584538459777799835e-01,2.756813773885400201e-04,-1.747980266809500138e-01,2.358580706641100113e-03,-1.538311038166300000e-02,-9.471067786216700313e-01,4.234693050384499835e-01,-6.665443181991600463e-01,-4.289713501930200179e-01,1.922574937343599910e-01,5.407189726829499943e-01,-1.173983048647599982e-02,-2.470496147870999970e-01,1.401741504669200000e-01,-4.926280379295300271e-01,-4.274990037083600120e-02,-2.800368666648900273e-01,-5.063069611787800184e-02,-6.217644214630100308e-01,1.129518821835499981e-01,1.892141699791000109e-01,-2.280092388391500025e-01,-8.396428823471100422e-01,1.558218896388999936e-02,-3.083832561969799824e-01,-8.931650221347800511e-02,6.337030977010700561e-02,6.785640716552699958e-01,-1.230862587690400023e-01,-3.456664681434600261e-01,-2.170049399137500001e-01,1.175996661186199943e-01,1.365822255611399971e-01,-5.121704936027500210e-01,-7.610694319009800313e-02,9.069008752703699647e-03,-5.019356030970799701e-03,1.498683914542199916e-02,-3.968157768249500061e-01,1.365701109170899992e-02,-5.138401985168500330e-01,-2.157653272151900115e-01,4.269253611564600148e-01,-3.529744744300800097e-01,1.556941121816599917e-02,6.365846097469300691e-02,3.606830835342400010e-01,5.665523409843400415e-01,-6.616878509521499641e-02,3.312685713171999863e-02,2.868050932884200210e-01,-1.147824339568600041e-02,7.627991437911999517e-01,7.142646610736799739e-02,5.062921643257100035e-01,6.525503396987899496e-01,-4.782896935939799921e-01,-1.779400259256400108e-01,9.570545703172700369e-02,2.151821404695500040e-01,2.337455898523299880e-01,-7.191960215568500292e-01,2.292318940162700047e-01,-3.794463276863099810e-01,-2.600480569526599992e-03,-7.227739691734300087e-02,-1.120660156011600017e-01,2.797329612076299848e-02,-5.523554086685199538e-01,-7.866928726434699315e-02,1.586064547300299887e-01,-4.095549881458300234e-01,-1.456387490034100063e-01,-3.672198951244399767e-01,-2.162220515310800048e-02,-1.632310450077099906e-01,-1.292542517185200079e-01,-2.036866992712000057e-01,3.341885507106799880e-01,-6.241587176919000113e-02,-3.418976366519900223e-01,7.512327283620799656e-02,-3.836440742015799765e-01,5.390051752328899742e-02,-3.310903608799000142e-01,-4.515725374221800092e-01,5.349459871649699799e-02,-2.982349367812300173e-03,-6.569838523864700297e-02,-1.911468356847799976e-01,-5.202127993106799714e-02,4.194902777671800087e-01,-3.005787432193799957e-01,4.419946968555499844e-01,2.560205571353400128e-02,-2.825468778610200071e-01,2.658656239509599728e-01,-8.673772960901300622e-02,2.724674940109300114e-01,5.685480311512899898e-02,-3.012330830097200152e-01,-5.637788176536600027e-01,-7.984162122011199958e-02,4.938019905239300275e-03,9.471565485000600637e-02,-1.164067760109900040e-01,-1.077386178076300029e-02,7.672567963600199770e-01,3.438431918621099870e-01,1.733099520206499988e-01,-6.906669735908500529e-01,-2.665978670120199845e-01,1.790896356105800002e-01,3.563699722290000205e-01,-3.109444081783300229e-01,-1.318225562572500065e-01,-5.413586497306800416e-01,-5.134800821542700316e-02,-5.424039438366899668e-02,2.440891265869100102e-01,4.124507904052699958e-01,-2.907497286796599800e-01,-5.083774924278300356e-01,-1.492177546024300028e-01,-2.127096652984599989e-01,5.220912098884600283e-01,1.090589836239800048e-01,9.478730559349100027e-01,-3.116192221641500004e-01,4.537295997142800075e-01,-1.038953810930299954e-01,-1.649662852287299974e-01,-6.532599329948399758e-01,1.074933767318700051e+00,2.037190794944800099e-01,-1.971102654933900022e-01,1.404301762580900004e+00,4.285746514797200146e-01,-6.245546415448199884e-02,7.051411271095299471e-02,-1.474273502826700111e-01,-1.264806836843500037e-01,-4.399408102035500256e-01,-6.796224713325500488e-01,-3.260802105069200013e-02,4.277096390724199892e-01,-8.296952247619600040e-01,3.832687735557600006e-01,-3.813223838806200083e-01,2.039233781397300008e-02,-4.289302229881299944e-01,-3.661433584056800064e-04,-3.669373095035600163e-01,-3.015477955341299907e-02,7.819055020809199952e-02,-4.879820942878699830e-01,-4.442305862903599967e-01,-6.740623116493199563e-01,-8.805949687957800309e-01,-2.456149756908400095e-01,3.707704544067400021e-01,3.043221533298500203e-01,-8.404933810234099800e-01,-5.294482707977300473e-01,-4.736296087503399921e-02,1.164449334144600057e+00,-1.091180682182300021e+00,-1.532970070838899912e-01,6.448841691017199729e-01,-4.701589047908800167e-01,-4.674309194087999941e-01,6.406173706054699712e-01,2.141744494438199975e-01,1.278997510671600057e-01,2.704961411654899922e-02,4.188199713826200321e-02,-8.165834844112400404e-02,-4.972026050090799787e-01,5.619233101606400244e-02,-3.447254598140699899e-01,-1.874060779810000077e-01,1.570252887904599950e-02,-5.939999222755399932e-01,-3.175729140639300258e-02,3.846457004547100267e-01,1.967591047287000072e-01,5.057985335588500303e-02,-3.643277883529699723e-01,-1.509374231100099883e-01,-1.004389971494699940e-01,3.343152701854700259e-01,-5.066715478897100278e-01,4.314322024583799875e-02,3.196730911731699987e-01,3.912783563137099963e-01,-6.897582113742800614e-02,9.444100260734600294e-01,-3.833456337451899842e-01,8.390903472900400339e-02,-4.836348593234999771e-01,3.133969604969000233e-01,-4.168342351913499888e-01,1.241026297211599988e-01,2.278709113597900127e-01,2.218697667121899975e-01,-3.681531548500099893e-01,-6.183703243732500271e-02,-3.086014464497599877e-02,1.538222730159800045e-01,-7.540458440780599680e-01,-3.117260634899099991e-01,-3.713479638099699831e-01,2.281268835067699896e-01,-2.959147393703500106e-01,8.173462152481100196e-01,-2.492969930172000137e-01,3.360615074634599742e-01,1.996891647577299922e-01,-2.553455531597100259e-01,6.471715122461299541e-02,-1.902626082301099933e-02,-4.370563924312599879e-01,-3.313019275665299856e-01,3.084253966808300218e-01,-2.611874639987900037e-01,-5.156273245811500150e-01,2.352276891470000131e-01,1.565875113010400110e-01,1.293083876371400043e-01,-3.526927232742300133e-01,4.160979688167599777e-01,2.699799370020599786e-03,-7.712197899818400426e-01,-1.122498735785499996e-01,-9.355957806110400121e-02,5.062545537948599517e-01,1.302755922079099904e-01,-7.891184836626100041e-02,-6.232559084892299595e-01,3.772554397583000041e-01,2.460940480232199912e-01,-4.812602996826200186e-01,7.097487151622799972e-02,-4.101080596446999849e-01,-5.727935582399400205e-02,2.148032337427099869e-01,-2.986500859260600160e-01,7.120435237884500390e-01,-7.739106416702300484e-01,1.460209041833900045e-01,-9.687418490648300184e-02,1.551538798958100075e-02,-3.958032429218300008e-01,-1.429492980241799972e-02,1.482030600309399981e-01,-3.052432537078900165e-01,-1.291364431381200051e-01,-2.928491532802600106e-01,-2.597354352474199879e-01,4.592253640294099992e-02,-1.871707290410999924e-01,4.526954591274299777e-01,3.574840128421800101e-01,2.358608096837999935e-01,1.795865148305899883e-01,-1.795209595002199938e-03,-3.622855618596099864e-02,1.202274709939999964e-01,-2.799898684024800244e-01,1.653264015912999929e-01,-3.415629267692599919e-02,2.582524344325099960e-02,-4.181287884712199809e-01,-6.144428849220300304e-01,-5.025615096092199696e-01,-3.639915212988899945e-02,-5.568205565214200126e-02,9.863768517970999961e-02,4.737165868282299797e-01,3.809409216046300006e-02,-7.660608291625999877e-01,-3.346087336540199964e-01,-6.769942045211799764e-01,9.481135755777400642e-02,-7.299891114234899336e-02,1.319918781518900075e-01,-2.131593879312299825e-03,-2.013591729337299932e-04,-1.104278936982199949e-01,-4.592373073100999847e-01,8.664040267467500167e-02,2.139297686517200106e-02,-1.752522289752999896e-01,1.787525117397300023e-01,-5.143165215849899996e-02,-2.249617278575899992e-01,2.576351538300499996e-02,-1.047178059816400025e-01,-7.846618443727500225e-02,-8.297566324472399613e-02,-1.041077822446799944e-01,5.418041720986400273e-02,7.871807366609599732e-02,-6.466227024793599898e-02,2.885034680366500154e-02,-4.977410137653400235e-01,-2.086241692304600104e-01,3.976823985576600218e-01,-3.008472919464100226e-01,3.513627350330399968e-01,2.655161544680599908e-02,-1.997220367193200119e-01,3.894187211990399744e-01,1.043809354305299947e-01,2.831965088844299872e-01,-5.627906322479200307e-01,-2.469595372676799960e-01,4.081060588359800012e-01,-2.364271692931699947e-02,-1.537734419107399941e-01,2.484417706727999886e-01,1.510098576545700066e-02,2.791796438395999919e-02,1.427198797464399871e-01,8.093222975730900159e-02,-7.381528615951500338e-01,-1.967837810516399888e-01,-1.612498462200200045e-01,1.611289680004099889e-01,2.087449282407800033e-01,-1.077796220779399933e-01,-1.494063995778600103e-03,1.999219954013800038e-01,-1.245443969964999953e-01,-2.587009072303799728e-01,-1.564096212387099949e-01,-1.146563142538099961e-01,4.052756130695300274e-01,3.711006641387900040e-01,7.701743394136399690e-02,4.881735146045700080e-02,-4.673291146755200187e-01,-2.505564987659499865e-01,1.274683624506000035e-01,4.922654479742100131e-02,4.068525880575200177e-02,5.077125430107100046e-01,3.069455027580300088e-01,4.142225161194799943e-02,-6.231244280934299801e-02,3.090381920337699762e-01,-1.845420897006999905e-01,3.003508225083400054e-02,-2.093790024518999981e-01,-4.645899236202200022e-01,-2.155187427997599936e-01,-2.455173432827000013e-01,-9.917682036757500402e-03,-4.482897743582699851e-02,-7.403781414032000185e-01,1.797400414943700064e-01,-2.873637974262199801e-01,2.888995595276400152e-02,3.667651116848000270e-02,1.118045002222100015e-01,3.043590812012600053e-03,-1.037666201591500026e-01,9.190884232521100150e-02,-7.537218183279000006e-02,3.846368566155399654e-02,1.994663029909100049e-01,-5.072418451309199661e-01,-6.938864290714299998e-02,-4.067120328545600211e-02,4.700137674808499977e-01,3.294467031955700120e-01
-1.580785661935799891e-01,-3.638852536678299776e-01,-1.054440960288000051e-01,-1.166745722293899973e-01,-1.977891027927400069e-01,3.699917495250700239e-01,3.196788206696499907e-02,-1.980295963585399985e-02,7.071728110313399984e-01,2.051251754164699903e-02,3.013944327831299952e-01,1.686092466116000110e-01,4.741207361221300154e-01,3.928479179739999966e-02,4.714334607124299747e-01,-5.847541093826299496e-01,1.461676973849499947e-02,-1.017503589391700047e-01,8.382751792669300428e-02,-4.238229095935799884e-01,-4.185600578784900300e-02,-4.033228158950800113e-01,-1.418750584125499925e-01,4.824692383408499610e-03,-4.264726936817200276e-01,2.870165705680799983e-01,4.374997913837400110e-01,-1.605686098337200107e-01,4.928339645266500285e-02,3.722916245460500262e-01,-1.614810377359399973e-01,1.867370866239100036e-02,-1.136780679225899982e-01,-7.464641332626299752e-02,-5.263139009475700236e-01,4.669360220432299813e-01,9.108947962522499775e-02,-4.097655713558199797e-01,-6.723916530609099773e-01,4.558724816888600276e-03,-1.555297151207899950e-02,-4.724091589450800099e-01,8.159439265727999602e-02,4.886418581008900031e-01,6.899539828300500499e-01,-3.008477762341500023e-02,1.757022179663200040e-02,-2.658753991126999727e-01,2.194771915674199880e-01,-2.079810649156600133e-01,-1.162099614739399989e-01,-2.888385355472600224e-01,-8.565649390220600456e-02,-4.093414247036000209e-01,-4.986657798290299870e-01,2.631812989711799777e-01,-4.717640280723600088e-01,-6.717399358749399640e-01,-3.859509825706500252e-01,-7.495292276143999954e-02,-1.693694889545399873e-01,-2.883075475692700174e-01,-1.787993311881999892e-01,2.213473469018900075e-01,1.339795738458600116e-01,1.491541601717500005e-02,1.658120900392499875e-01,2.203845083713500130e-01,2.443638630211400140e-02,-2.518802939448500219e-04,1.178995966911299959e-01,-1.987375766038899927e-01,3.175060749054000042e-01,-6.647291779518099686e-02,-2.081789262592800144e-02,2.682515680789899770e-01,2.332345545291900080e-01,-4.673449695110300228e-02,-3.360336646437599856e-02,3.242539763450599799e-01,9.591194987297099739e-02,-1.584647446870799947e-01,-4.570355415344199979e-01,-6.545493006706200045e-01,-1.718192398548100130e-01,-6.134327501058600002e-02,-2.203629612922700098e-01,2.273425757885000065e-01,-5.258929729461699898e-01,-5.402907356619800205e-02,-1.587031967937899829e-02,1.381476074457199943e-01,1.272118985652899992e-01,2.937460243701899842e-01,4.063301086425800124e-01,-2.831650525331499968e-02,-4.130332767963399987e-01,-4.682855904102299904e-01,1.583441644906999901e-01,4.007634222507500121e-01,1.208256091922500081e-02,-1.325915455818199862e-01,2.504234313964799896e-01,2.230676859617199970e-01,1.368587166070900085e-01,-5.182737857103299900e-02,4.899315834045400164e-01,3.544703125953699852e-01,2.637591958045999996e-01,5.713756680488599748e-01,-1.254833862185500068e-02,-3.383287787437400107e-01,3.621343076229099900e-01,-2.586559951305399951e-01,-9.553398936986899626e-02,2.558154165744799813e-01,-2.005002796649900110e-01,-1.497967690229400073e-01,7.531175762414900332e-02,-7.675190269947100574e-02,8.648392558097800498e-02,-4.379902482032799749e-01,1.148340180516199960e-01,-3.744191303849200153e-02,1.999819278716999937e-01,1.934857517480899902e-01,-5.472970604896499891e-01,-7.956381142139400120e-02,-1.285934895277000001e-01,-5.538276433944699928e-01,-2.475572228431699995e-01,1.523509472608599868e-01,2.829820513725300191e-01,6.453976035118100252e-02,5.786207318305999769e-02,1.091022118925999984e-01,-5.000778436660799908e-01,2.405996248126000131e-02,3.254043757915500157e-01,1.179388165473899963e-01,1.837027519941299980e-01,6.619034707546199436e-02,2.720437645912199831e-01,3.047146797180200206e-01,1.835331022739400131e-01,2.275419682264299970e-01,2.753225266933400084e-01,2.533442154526700102e-02,2.380584031343500051e-01,6.433048099279399523e-02,-2.505232691764799902e-01,1.203483808785700028e-02,-5.766745191067499700e-03,-6.666752160526800150e-04,-9.203159809112500256e-02,-5.854054167866699909e-02,-1.935370117425899983e-01,3.709633648395500027e-01,-3.594380319118499756e-01,1.828395947813999875e-02,-2.325868606567400021e-01,6.507463753223399761e-02,-7.648273557424499491e-02,-3.388409614562999939e-01,-1.690034114290000079e-04,6.453467607498200032e-01,-3.614713624119800239e-02,7.344008088111899646e-01,-3.078456521034200200e-01,-7.640673220157599699e-02,-1.376646757125900011e-01,2.563315816223599858e-02,-5.710512772202500087e-02,5.098111033439599593e-01,-6.916982531547499757e-01,3.234477937221499899e-01,1.140448078513100066e-01,6.236703693866699899e-02,-7.565050572156900577e-02,-3.260760605335200069e-01,-1.537074744701399931e-01,5.973278880119300416e-01,-4.035497903823899724e-01,-4.685324616730200155e-03,-1.713411211967499903e-01,6.638841032981900314e-01,-1.692073345184300082e-01,4.149574339389799915e-01,3.803426399827000010e-02,-5.092015266418500330e-01,-2.586880624294299880e-01,8.371170163154599830e-01,6.564316153526300601e-02,2.009590268135099944e-01,8.742176741361600001e-02,7.447539567947399908e-01,-3.773338198661799758e-01,8.108815550804100436e-01,8.411698788404499416e-02,4.569927155971499899e-01,1.181193515658399973e-01,-2.177364975214000076e-01,8.058150112628900685e-02,-1.817912608385099937e-01,-9.493619948625600657e-02,-4.840368330478699854e-01,-5.008387565612799630e-01,-2.265746593475299886e-01,2.739615142345400156e-01,5.637453868985199679e-02,3.624381124973299895e-01,6.380187720060299938e-02,3.593059778213499866e-01,-2.942023277282699856e-01,1.411002427339599907e-01,1.420406550168999971e-01,-1.598890423774700087e-01,-1.045265272259700007e-01,2.623290754854699924e-02,-5.594968423247299871e-02,-2.092601964250200008e-03,-1.787484884262099949e-01,8.179710805416100239e-02,-6.104005500674199863e-02,8.636107295751599411e-02,8.289853930473299881e-01,3.457221090793600182e-01,-6.213368773460400396e-01,3.103549480438200225e-01,-2.472600042820000121e-01,1.030572652816799939e-01,1.369463950395599927e-01,-3.718502223491699787e-01,5.628364682197599667e-01,1.959457248449300026e-01,-1.379501074552499928e-01,-6.582563277333999992e-03,-5.981074571609500401e-01,-4.711780324578299789e-02,4.365298449993100238e-01,4.376486539840699908e-01,-3.019838631153100028e-01,-3.988940268755000046e-02,1.206592768430699986e-01,-2.014412581920599910e-01,2.777447104454000004e-01,5.277862548828099465e-01,-4.922898709774000126e-01,2.173262834548999878e-01,-4.643234312534300079e-01,-1.906419545412099958e-01,2.238846868276599955e-01,5.842913985252400355e-01,-1.811714656650999927e-02,1.668056845664999885e-02,-2.683641910553000165e-01,-4.872312545776399939e-01,3.667460680007900153e-01,3.487296402454399813e-02,-1.971212178468700060e-01,-1.226513534784299947e-01,-2.986932992935200093e-01,-4.531616866588599746e-01,2.661333419382599930e-02,2.259230241179499901e-02,4.078530967235600158e-01,-5.335820317268400448e-01,-3.699825704097700063e-01,4.434410929679900026e-01,-1.553146988153500108e-01,-1.567360013723400058e-01,-5.279454588890100109e-01,-3.799340128898600066e-01,-2.074526846408799863e-01,-6.983736157417300139e-02,-2.221611700952099908e-02,2.638062462210699968e-02,1.413128733634900103e+00,-8.794169872999199611e-02,4.631757736206100207e-01,7.575924992561300364e-01,3.813934922218299994e-01,3.604435920715299835e-01,2.358622476458499886e-02,-3.677881658077200022e-01,-1.376100629568099976e-01,1.877494603395500061e-01,1.363130658864999956e-01,-3.710016906261400238e-01,4.274463951587699762e-01,1.521092206239700040e-01,-8.469496369361899646e-01,4.436472058296199728e-01,3.563099205493899801e-01,1.508252471685400109e-01,-2.150714695453599945e-01,4.889727830886799742e-01,1.361073702573800115e-01,8.250425457954400077e-01,5.642641782760600133e-01,4.837912023067499900e-01,-1.836738437414200120e-01,1.133110165596000085e+00,-1.832419484853700098e-01,-2.328255027532599997e-01,-3.172605633735700037e-01,3.436244130134599728e-01,-4.124695062637300236e-01,3.720299303531600099e-01,7.266195118427300204e-02,8.215271681547199611e-02,-3.510831296443899796e-01,-2.176744677126399991e-02,-1.820565760135700040e-01,4.064445793628699843e-01,2.301287204027200051e-01,2.098137512803099902e-02,5.503337383270300309e-01,1.422122716903700068e+00,1.257224231958400107e-01,-3.174511790275599821e-01,2.365172505378700107e-01,-2.180722653865800054e-01,-1.445690393447900124e-01,1.192937135696400031e+00,8.288966119289399581e-02,-7.181348204612699737e-01,-2.135762572288500138e-01,-4.960592687129999900e-01,-1.922224164009100067e-01,4.206228852271999830e-01,-2.113755047321299874e-01,3.366047739982599984e-01,1.973614692687999939e-01,1.395762920379600036e+00,2.379802912473699961e-01,1.826150529086599875e-02,2.313884533941699961e-02,3.153730630874599927e-01,-7.383519411086999495e-01,-3.673898577690100087e-01,-2.607668042182900159e-01,-2.624094784259800028e-01,-2.945398986339600178e-01,2.788683474063899936e-01,7.279438972473100122e-01,4.988999664783499988e-02,-1.053484994918100007e-02,7.216689586639399856e-01,9.450959414243699508e-02,-3.899316191673299903e-01,-1.953398287296299884e-01,-3.408088386058800157e-01,2.021339982747999975e-01,-5.476547479629499948e-01,2.136939913034399952e-01,-4.076607227325400040e-01,2.747822403907799749e-01,1.797694116830799993e-01,-3.493411242961900198e-01,5.016784071922300026e-01,3.959254026412999949e-01,-3.170841932296800114e-01,-2.687220089137599965e-02,-3.801872432231899746e-01,7.127479314804100463e-01,-2.113156467676199912e-01,9.293120354414000084e-03,2.045498788356799880e-01,-4.116196930408499988e-01,5.660264492034899897e-01,-4.529381990432699845e-01,-4.271045923233000030e-01,-1.236312836408599986e-01,1.799235343933099918e-01,3.001262843608900055e-01,-4.581025540828699838e-01,-1.923353970050800110e-01,2.876685261726399934e-01,-2.864914536476099727e-01,-3.610747307539000084e-02,-1.091842874884599995e-01,5.704795122146599784e-01,2.231361716985700017e-01,-1.982547044754000010e-01,-7.426275014877300462e-01,2.176280915737200117e-01,-5.454887822270400310e-02,-2.502864897251099729e-01,1.892020255327200029e-01,3.507101163268099703e-02,4.031899198889699748e-02,1.300746649503700114e-01,9.726759046316100013e-03,-1.243622507899999965e-02,8.576207607984499826e-02,4.561681747436500123e-01,-3.868122398853299782e-01,-5.799368768930399792e-02,2.067597508430500108e-01,-1.123492866754499941e-01,-2.003815770149199871e-01,2.583399713039399859e-01,1.013204734772400056e-02,7.957499474286999774e-02,-1.983877271413800047e-01,1.076291725039500019e-01,-7.085852324962599313e-02,3.332779556512800029e-02,2.984824776649500078e-01,-6.685444712638899389e-02,-1.382520198822000113e-01,6.869643926620500052e-01,-1.206920146942099953e-01,-2.799679338932000161e-01,4.224695265293099654e-03,2.061391323804900033e-01,-4.436818137764900194e-02,7.417504191398599511e-01,4.008756950497600197e-02,-2.481970638036699872e-01,1.568217575550099885e-01,-6.777729094028500656e-02,1.967322826385500129e-02,2.331911027431499972e-01,1.620261929929300154e-02,4.045475274324399767e-02,1.283375266939400065e-02,-1.027536988258399980e-01,-1.276472806930500081e-01,-3.196916878223399761e-01,-4.152355492115000213e-01,-4.843326658010500135e-02,1.398703306913400002e-01,-1.573269814252900023e-01,4.044311344623600091e-01,-2.657627165317499873e-01,-7.743401080369899381e-02,4.507828652858700269e-01,2.354715913534199956e-01,2.759301662445100001e-01,4.024856165051499818e-02,1.522161439061200071e-02,6.931173056364099694e-02,-1.135819628834700001e-01,3.011959195137000056e-01,-1.453713029622999975e-01,-3.099316954612699737e-01,1.721638739108999894e-01,3.146012499928500100e-02,-4.278979077935200076e-02,-2.941141426563300132e-01,5.494158715009699739e-02,-3.644942641258199778e-01,1.253317389637200081e-02,1.808714270591700035e-01,-1.088161095976799969e-01,-1.810655184090100012e-02,-4.710772633552599842e-02,-1.362558156251900132e-01,-4.771553277969399764e-01,5.795153379440299846e-01,1.864226907491700058e-01,1.462865769863100074e-01,-9.317818097770200203e-03,-3.697990179061900196e-01,-2.083970792591599910e-02,-1.165815889835399993e-01,2.297878265380899898e-01,-6.647960841655700670e-02,-2.229281365871400022e-01,4.608262181282000158e-01,-1.602300107479099900e-01,-1.636846736073499856e-02,-1.301901321858199914e-02,5.951944738626500225e-02,1.242312341928499958e-01,2.716853022575400067e-01,-2.081318199634599880e-02,5.623324215412100341e-02,3.082997351884799939e-02,-1.199544500559599977e-02,6.449884176254300217e-02,-9.741304069757500406e-02,-8.958847820758800151e-02,-2.570360302925099871e-01,2.462199330329900016e-01,5.266874656081200340e-02,1.368352584540800075e-02,-4.897490143775899973e-01,2.717582583427399778e-01,-2.124247886240500025e-02,2.400968968868300024e-01,-3.647780716419199987e-01,-1.824370585381999976e-02,3.001349233090900084e-02,-2.967616729438300044e-02,-9.985222667455699586e-02,-1.210875809192699971e-02,-3.685398697853100036e-01,2.726118545979299996e-03,2.230582237243700083e-01,4.604265093803400211e-02,2.730938792228700118e-02,1.464562565088300128e-01,1.569203585386300115e-01,-2.228218913078300056e-01,3.213700652122500334e-02,-2.171966880559899893e-01,2.037056535482399955e-01,1.857720911502800110e-01,-2.071910351514799908e-01
-1.326511204242699915e-01,-3.655902147293100257e-01,-3.734535276889799915e-01,1.322686821222300024e-01,2.346114516258200056e-01,-1.088044121861500013e-01,-6.673160940408699726e-02,1.452076137065899941e-01,-5.115738511085499846e-02,-1.030029132962199945e-01,-2.381846457719800081e-01,-4.553424119949299742e-01,6.720644980668999402e-02,-8.329526185989399867e-01,-5.376599431037899501e-01,2.113431096077000027e-01,-1.404900699853899870e-01,-1.241122856736199959e-01,1.190577298402799994e-01,6.811243481934100077e-03,3.781938850879700276e-01,4.580589830875400059e-01,1.330715566873600098e-01,7.009875029325500495e-02,3.740982851013500022e-03,-2.468190938234300080e-01,-9.686433523893399344e-02,-5.192272067069999553e-01,6.720450520515399706e-01,-5.223024487495400159e-01,-1.333463191986100083e-01,-1.179093569517099954e-01,-9.268208593130100592e-02,-3.831136040389500081e-03,-1.012612506747199992e-01,-2.632203996181500250e-01,9.070594608783699719e-02,1.019008234143300023e-01,-5.610661208629599828e-02,2.732585966587099957e-01,4.033221676945700218e-02,-3.602943420410200104e-01,-7.827887684106800414e-02,-1.254040300846100131e-01,-2.649674005806399932e-02,1.065712645649899981e-01,2.817596122622499991e-02,-7.789409905672099732e-02,-7.965233325958299693e-01,3.609881997108499996e-01,7.675350457429899742e-02,5.358162894844999830e-02,-2.577522099018100254e-01,-5.452630296349499778e-02,-1.615604013204600120e-01,6.873431056737899780e-02,2.187324762344400042e-01,-8.332535624504100458e-02,-1.039894670247999975e-01,1.230088919401200048e-01,6.570590734481800421e-01,2.371397316455799986e-01,-1.139063611626599942e-01,2.828440070152299923e-01,1.313197761774100025e-01,2.880031429231200146e-02,-1.811352074146299895e-01,-7.327999472618099697e-01,-1.717996150255199916e-01,-4.237684309482599998e-01,-2.773211598396300159e-01,2.061514556407899879e-01,-2.800433039665199964e-01,-8.870600163936599725e-02,1.719829440116900088e-01,-5.101696252822900401e-01,-2.652830183505999750e-01,-1.810119599103900134e-01,-1.504004299640699926e-01,-1.633927971124600129e-02,-1.763434149324899849e-02,-6.062021851539600020e-02,-4.191270843148200281e-02,-8.226203918457000164e-01,-2.949217259883900044e-01,1.506103426218000085e-01,-3.940443992614700019e-01,-3.091834783554099908e-01,-2.941108345985399830e-01,1.726006269454999908e-01,1.334790736436800018e-01,-4.783141911029800131e-01,4.945283755660100089e-02,-1.789615303277999891e-01,4.856058657169299853e-01,-1.316906958818399864e-01,-6.100093126297000401e-01,-3.112193048000300166e-01,1.327495127916299977e-01,-1.920955926179900020e-01,-2.104941606521600062e-01,3.430472910404199771e-01,1.064707562327399937e-01,3.143423795700099888e-01,1.247746646404299942e-01,2.483385056257199908e-01,-1.024776920676200020e-01,-3.059077858924900140e-01,1.179824545979499956e-01,-3.071906864643100254e-01,-8.401042968034699854e-02,4.000774119049300276e-03,-3.922341465949999995e-01,-2.778995037078900165e-01,-9.438219666481000025e-02,1.866497546434399968e-01,6.324220299720799687e-01,-9.857699275016800211e-01,2.619804441928900163e-01,-7.567376494407700438e-01,-4.372787475585899752e-01,2.522498071193700064e-01,-2.247371971607199925e-01,1.201973180286599946e-03,-1.254224926233299953e-01,3.187619447708099907e-01,1.822781115770299998e-01,-2.671901881694799807e-01,2.372022271156299933e-01,-9.954216331243499749e-02,-9.312403202056900309e-01,-1.838644295930899897e-01,1.959713697433499990e-01,3.610760346055000292e-02,3.480097055435200093e-01,5.161793231964100226e-01,-1.384542435407599970e-01,1.727832555770900114e-01,-2.441256120801000087e-02,3.003914095461400133e-02,-5.360465645790100098e-01,-1.939648413099299973e-03,-8.076514303684199925e-02,-5.221213400363899915e-02,2.591200768947600208e-01,-5.076888203620899542e-01,2.786989212036100061e-01,9.458661079406699423e-02,-3.045095801353500109e-01,3.078622519969900218e-01,3.443089723587000051e-01,-6.504429131746300441e-02,-2.916107177734399980e-01,5.849603912793099880e-04,-1.811083853244800090e-01,1.428964436054200038e-01,-1.363484412431699988e-01,-9.661712497472800532e-02,-5.397293567657499569e-01,3.397606313228600239e-02,3.235186040401499818e-01,-1.058642286807300048e-02,-4.224294424057000175e-01,6.148315072059600261e-01,1.028420850634600009e-01,1.096358448266999963e-01,-3.657851219177200019e-01,-5.793966650962799614e-01,5.508366599679000164e-02,-1.468397229909899904e-01,-1.008366718888299984e-01,-1.833172291517299879e-01,1.529827415943099955e-01,-4.624281078576999993e-02,-5.549105629324899841e-02,6.503400802612300247e-01,-9.513546228408800154e-01,3.410322666168200123e-01,1.944865286350299927e-01,3.473251760005999778e-01,2.542286738753300052e-02,-1.381275653839099948e-01,2.008535340428399887e-02,9.055071473121599768e-01,-6.183207631111099500e-01,2.078476250171699957e-01,3.940744698047599776e-02,-3.181275725364700047e-01,-1.866238564252900023e-01,-2.924796044826499797e-01,-4.360967874526999744e-01,5.935670137405399949e-01,-3.890809044241899661e-02,2.981745302677200060e-01,-2.411219775676700094e-01,-6.425762176513699631e-02,3.951542973518399893e-01,-6.102566719055200206e-01,-6.925146281719199437e-02,6.407917290926000431e-02,1.177362650632900049e-01,-2.302839308977099875e-01,-1.410069614648800096e-01,-4.375663399696400058e-01,2.259114235639599899e-01,-1.284396946430199915e-01,7.021995633840599771e-02,1.220436841249499943e-01,-1.044811606407199944e-01,-1.560822725295999969e-01,-1.063254177570299996e-01,-2.223835438489900063e-01,-2.755602598190299846e-01,3.605953752994500161e-01,-1.788939721882299924e-02,-2.721823006868399897e-02,-5.616509318351700086e-01,-3.834076225757599987e-01,-4.385843873024000139e-01,6.514383107423800390e-02,-2.186113297939299982e-01,-4.180873334407799735e-01,3.676950335502600087e-01,2.126510590314900084e-01,-5.661650747060800043e-02,3.344585895538300102e-01,-7.471755892038299540e-02,6.557323336601299513e-01,-1.435648351907700127e-01,-3.564909473061599748e-02,-3.519338667392700182e-01,-6.218093633651700092e-01,1.932482421398199965e-02,5.764526724815399739e-01,1.395311802625699982e-01,-2.204233258962599862e-01,-5.566369369626000124e-02,-3.018826544284800018e-01,1.341768652200699963e-01,-2.710911072790600160e-02,-5.068910121917700184e-01,-4.590846300125099866e-01,-2.789396606385699875e-02,1.225279867649100018e-01,3.276949524879499975e-01,3.967079520225499922e-02,-1.085075270384600055e-02,-3.293048143386799742e-01,-4.810563623905200203e-01,-2.951745390891999943e-01,-6.997853517532299783e-01,2.067447155714000062e-01,6.316304206848100122e-02,5.055575966834999768e-01,-7.538257539272300023e-02,5.300111770629899466e-01,-2.852140665054300195e-01,2.015547305345500029e-01,5.669142678380000022e-02,-3.612747192382799732e-01,-9.331100434064899807e-02,-9.421738237142600336e-02,-6.656549870967899685e-02,3.712640404701200159e-01,2.001831233501399909e-01,-8.008728921413399426e-02,-2.400041967630399953e-01,-1.398380938917400014e-02,3.972565829753900157e-01,9.746123552322399908e-01,-1.307395696639999938e-01,-1.541902869939799914e-01,-2.224812507629400082e-01,5.138013958931000325e-01,-1.318447232246400036e+00,-2.176259309053399926e-01,7.781447172164900339e-01,-1.004317522048999933e+00,-2.603043019771599798e-01,-1.432164162397399909e-01,7.696822285652199502e-02,8.328384160995500052e-02,-9.536839723586999495e-01,-1.759739965200399908e-02,-5.588579550385500139e-02,-6.438153982162500566e-02,-1.130457744002300036e-01,2.311472147703199920e-01,-7.463818788528400194e-01,1.202362626790999950e-01,1.360486745834399991e-01,1.445584651082799932e-02,-3.900327533483499698e-02,-5.429077148437500000e-01,2.273217588663100155e-02,-4.542436599731399793e-01,-2.046268731355699866e-01,5.686033964157100051e-01,9.051460623741099942e-01,4.006634950637800174e-01,1.025165244936900033e-01,3.796046078205099761e-01,8.498836755752600114e-01,-4.108956456184399697e-02,-4.659907221794100107e-01,4.931475818157199931e-01,-6.095812916755699584e-01,2.737623155116999940e-01,8.218704909086199661e-02,-8.206071332097100365e-03,-7.536349445581400075e-02,-5.535041913390199853e-02,1.245988905429800016e-02,1.568970978260000038e-01,-4.476646482944500183e-01,-2.093388289213199971e-01,-4.237892627716099980e-01,-5.375415086746200277e-01,-2.533651888370500038e-01,-7.605277746915800607e-02,2.540121078491199835e-01,-2.850138247013099813e-01,3.742052316665600009e-01,-1.328911304473900046e+00,-3.863410949707000164e-01,3.440162632614400182e-03,5.781211256980900437e-01,2.319497317075699949e-01,-2.968635857105300091e-01,-2.647475898265799765e-01,3.152580857276899851e-01,9.081200510263399972e-02,-3.560572862625099866e-02,2.253984808921800087e-01,-2.632104456424699812e-01,7.276317477226299513e-01,5.970377326011699903e-01,1.973808556795099978e-01,-7.071077823638899362e-02,3.111705370247400126e-02,-6.244764104485499984e-02,-8.921051025390600020e-02,-3.717345595359800026e-01,6.954361796379100458e-01,-9.981477260589599609e-02,4.250015318393700059e-01,-3.797585368156399799e-01,-1.354290693998299877e-01,-4.035089910030399962e-01,-7.375613451003999455e-01,-1.875240653753300069e-01,6.517594307661099540e-02,3.901881864294400211e-03,3.985579013824500083e-01,4.201771914958999932e-01,-4.341503381729099886e-01,2.575384080409999776e-01,1.551846712827699981e-01,-1.468843519687700050e-01,-4.620578289032000185e-01,-1.812562644481700014e-01,-3.099716901779199785e-01,-1.165018007159200064e-01,8.793871998786899624e-01,-4.436220228671999832e-01,-2.925609946250899984e-01,-2.711225152015699913e-01,-3.083942830562599879e-01,7.804976105690000221e-01,-1.446102261543300016e-01,1.040805220603900016e+00,-8.835753202438400011e-01,-1.381434649229000000e-01,-2.272147983312599873e-01,-4.656148850917800064e-01,-1.155209019780199936e-01,1.639923900365800047e-01,-5.706959366798399769e-01,-1.088165044784499963e-01,1.636656373739200088e-01,1.224069073796300033e-01,-2.416746169328700122e-01,-1.826350837945900085e-01,1.419913619756699996e-01,2.695616185665100084e-01,7.672813534736599994e-02,1.634938269853599968e-01,2.143635451793700075e-01,-7.848458886146499891e-01,-8.289718627929699990e-02,3.290649056434600261e-01,-9.528397768735899498e-02,-1.133703961968400009e-01,-2.047975780442399998e-03,-3.817863762378699843e-01,7.582259923219700215e-02,-1.452793776989000085e-01,2.620782852172899857e-01,2.618936598300899976e-01,-2.854235172271700205e-01,-3.112289011478400202e-01,7.496396452188500148e-02,9.962087124586099796e-02,1.009204611182200062e-01,-3.128254711628000173e-01,-3.828939795494099713e-02,-5.263182148337400279e-02,-2.195010147988800051e-02,-7.790814153850100267e-03,-3.844147622585299962e-01,-4.756389260292099852e-01,-5.079032778739900333e-01,4.102304875850700250e-01,1.380704194307300070e-01,-2.141287326812700009e-01,-6.167726218700399915e-02,-2.300597727298699935e-01,-2.011927217245099986e-01,1.726959049701700111e-01,1.802552789449700099e-01,6.218488886952400208e-02,-1.562626846134700098e-02,-9.067051112651799971e-02,-3.194307908415799924e-02,1.075060442090000068e-01,-1.099256798625000003e-02,7.514976710081100464e-02,-1.165491044521300007e-01,-4.403238371014599889e-02,1.214272975921600051e-01,1.483261492103300078e-02,-2.612819969654099905e-01,5.567806959152200169e-02,-8.211745880544199516e-03,1.522978022694600024e-02,-2.223211573436900072e-03,-2.844364047050499944e-01,-1.500703692436199943e-01,-3.407635912299199904e-02,1.389089673757600008e-01,-4.584988057613400003e-01,-2.536196410655999767e-01,1.439873129129400076e-02,1.804773509502400064e-01,-6.126255169510799736e-02,-2.730794996023199958e-02,2.220067568123300014e-02,-2.575342655181899754e-01,1.115175932645799950e-01,1.719313440844399922e-03,4.170214384794199841e-02,1.613061130046800074e-01,-3.643934428691900096e-02,-4.813822358846699817e-02,3.334608674049400201e-01,8.995202928781499685e-02,5.872702226042700313e-02,1.988306045532199917e-01,1.695530675351599945e-02,5.778856202959999772e-02,-3.957305476069500338e-02,4.299883916974100301e-02,5.839862395077899566e-03,-1.221334096044300078e-02,-1.584318578243300024e-01,-1.583513617515600047e-02,2.611723542213399973e-01,-6.448575109243399883e-02,1.016228366643199925e-02,2.791534923017000014e-02,-1.954396814107899893e-01,-4.773314669728299930e-02,3.569996058940900219e-01,4.326138794422100253e-01,3.597994744777699982e-01,2.456682920455900004e-02,-2.057833671569800071e-01,-6.881558895111100638e-02,-3.622164949774699799e-02,-2.164257131516900134e-02,-6.409496814012499710e-02,1.889577060937900066e-01,2.432957589626300043e-01,-2.389644831418999971e-01,8.008698374033000611e-02,3.427915871143299986e-01,-6.520495563745500045e-02,4.257499873638200261e-01,4.815370142459899916e-01,3.579900413751600091e-02,-6.355804949998900000e-02,1.682601571083099934e-01,-1.619764417409899904e-01,1.973279938101800066e-02,-1.086851060390500029e-01,7.218196243047700356e-02,3.807600736617999804e-01,-2.271503210067700104e-02,-4.385039582848500317e-02,1.400849130004599985e-02,1.410910636186600009e-01,1.977273449301699890e-02,5.244921147823299740e-02,-4.774090647697400158e-02,-7.006625086069100117e-02,-1.703758537769299863e-01,-1.017165705561599992e-01,1.422500908374799977e-01,3.787185251712799766e-02,-5.401917267590800216e-03,1.158509477972999996e-01,6.856211461126800015e-03
1.465514451265300111e-01,-2.537727355957000164e-01,2.148716002702699968e-01,-1.266717463731799886e-01,5.630646347999600509e-01,5.834323167800899851e-02,-2.186320275068300012e-01,2.552539408206899729e-01,4.498686790466300267e-01,3.164972960948900238e-01,-6.571851968765299867e-01,1.289972662925699953e-01,6.072457432746900530e-01,3.093725144863099796e-01,3.531358540058099904e-01,-1.464422643184699890e-01,-3.164737820625300180e-01,1.333968490362200110e-01,-5.353652238845799660e-01,-7.564873248338699341e-02,-1.000398173928299939e-01,1.770676523447000106e-01,-2.238240540027600090e-01,-1.057264022529100060e-02,-2.290862053632700124e-02,-3.278462290763899945e-01,3.364837914705300081e-02,-5.740533769130699848e-02,-2.562830746173900276e-01,1.891237497329699979e-01,-1.645098924636800020e-01,1.389428675174700090e-01,6.126291677355800297e-02,-1.951437592506400087e-01,5.954003706574399757e-02,1.072225347161299969e-01,-2.598582506179800133e-01,7.953546941280399685e-02,-2.109991759061800032e-01,1.573062688112299851e-02,-3.124774806201499958e-02,-1.150374263524999996e-01,-6.237739697098700076e-02,-1.582413613796199992e-01,-1.744416058063499864e-01,-1.299636960029600108e-01,1.427584886550899990e-01,-7.049674540758099628e-02,-1.704507619142499875e-01,-9.818621277809099768e-01,-1.505893934518100045e-02,-4.846101999282800138e-02,-1.148323938250500054e-01,-7.345977425575299369e-02,4.134810343384699716e-02,-2.152834087610200064e-01,2.259476184845000124e-01,2.586596608161900179e-01,-1.083282381296200025e-01,2.997186779975899995e-01,-1.087043434381499973e-01,1.971247047185900048e-01,2.049072533845900101e-01,-4.590656161308300232e-01,-2.720709741115600044e-01,-2.548957057297199930e-02,-7.470585405826600522e-02,-2.252994775772100000e-01,-2.025898694992100124e-01,-2.586432397365600044e-01,-1.116236001253100019e-01,-7.441023737192199727e-02,-1.518373191356700048e-02,6.997339427471199746e-02,2.446631640195799928e-01,-1.015166267752599938e-01,-4.731279611587499989e-01,-1.295094490051300062e-01,3.100801706314100237e-01,2.754466831684099781e-01,1.990124881267499868e-01,3.502560779452300321e-02,-2.409909069538100079e-01,2.613133192062400134e-01,-3.730106949806200056e-01,-2.603692710399599930e-01,-5.508114695549000128e-01,2.168556004762600131e-01,-3.124510049819900215e-01,-2.771126627922099739e-01,-4.649802744388599751e-01,-1.066133379936199943e-01,-5.474713072180700107e-02,-2.028895169496499895e-01,-5.811107754707299788e-01,8.823788166046099557e-02,-5.692390203475999888e-01,8.773152530193299714e-02,-3.404260799288699735e-02,-3.270224109291999803e-02,-4.036662876605999761e-01,1.631782948970799882e-02,-4.071877524256699993e-02,-1.292786002159100056e-01,-1.929358989000299895e-01,-3.284949362278000162e-01,-4.762735068798100158e-01,1.143215745687500007e-01,2.049524933099700075e-01,-3.639944493770599920e-01,1.539590805768999981e-01,5.974274128675499673e-02,7.700601965188999531e-02,2.970203459262800161e-01,-1.605991870164900082e-01,1.298112422227900020e-01,3.417580574750900269e-02,2.787721455097200152e-01,5.063850283622699511e-01,6.363952159881600124e-02,-1.619221568107599984e-01,-1.868163943290699902e-01,2.805401682853699841e-01,-8.097054809331899472e-02,1.156137138605100034e-01,-2.845178246498100139e-01,1.631739139556900031e-01,2.158124148845700085e-01,9.709017723798800403e-02,-4.839321225881600130e-02,-4.141171574592599769e-01,-2.123346552252800001e-02,-4.213484525680499804e-01,2.644003033637999933e-01,7.768726348877000309e-02,-8.349666744470600477e-02,5.622054636478399786e-02,1.685951948165899938e-01,-1.006362363696099993e-01,8.334334492683399542e-01,3.730817735195199880e-01,-5.438722372055100340e-01,-2.125467360019699936e-01,-3.875953704118700188e-02,2.605528831481899732e-01,1.261110454797700064e-01,1.666731685399999996e-01,-9.972835890948800186e-03,7.575614750385299689e-02,-8.459321409463900487e-02,-1.809904724359500117e-01,-1.596000790595999974e-02,-1.211473271250699951e-01,-2.474306672811500130e-01,3.214521706104300214e-01,9.320577234029800429e-02,3.265035897493399897e-02,-2.089717686176300049e-01,-2.194043993949900129e-01,-1.212129145860700030e-01,-2.583754062652600103e-01,6.171445176005400240e-02,2.366788536310200086e-01,-1.103344261646300034e-01,-1.982987523078900138e-01,2.172441631555599995e-01,2.021874636411699899e-01,-9.202264249324799972e-02,1.503958106041000109e-01,2.393076866865199992e-01,-2.275229804217800134e-02,-3.736808598041500007e-01,-2.831880152225499936e-01,4.137084782123600091e-01,1.440054476261100058e-01,-3.501683706417700170e-03,-5.540723204612699737e-01,-3.102107942104300187e-01,-1.746080629527600042e-02,1.024164631962800054e-01,9.449052810668899516e-02,6.327909976244000534e-02,-1.612683199346099869e-02,-2.404972165822999997e-01,1.535675376653700130e-01,-1.566953808069199983e-01,-9.966981410980199629e-02,8.506351709365800318e-01,-1.483373194932899874e-01,-3.228858709335299948e-01,-2.109973430633499958e-01,-4.274987056851400208e-02,1.773739308118799929e-01,-1.034458726644500032e-01,9.650722146034200824e-03,3.140773177146899964e-01,7.676377147436100334e-02,-1.184251755476000006e-01,6.893203407525999582e-02,1.457938551902799966e-02,1.055578812956800006e-01,1.906884610652899992e-01,-1.601669788360599866e-01,-1.673494651913599862e-02,1.011446118354800000e-01,2.363423854112599864e-01,5.268636345863300097e-01,1.020710840821300036e-01,-2.472282797098200036e-01,3.287356793880499839e-01,-3.768123388290400277e-01,-8.373664319515200516e-02,2.335254251956900007e-01,-3.350896537303900136e-01,2.385270744562099920e-01,-2.804518043994900234e-01,-4.876982271671300162e-01,-2.908620536327399808e-01,-6.667283177375800118e-01,3.676168993115400130e-02,-1.888741701841399889e-01,-1.482235044241000110e-01,-1.966329291462899989e-02,-2.559992372989700060e-01,-7.318059802055399965e-01,1.599182933568999987e-01,2.933507785201100102e-02,-3.665255308151200153e-01,5.640792474150699981e-02,-6.543182730674700354e-01,8.208455890417100387e-02,-4.441771656274799696e-02,-6.454895138740499583e-01,-1.309001296758700028e-01,-6.503154337406200081e-02,-1.558537632226900116e-01,-1.154091116040899950e-02,2.376486659050000005e-01,-1.762154847383499978e-01,-6.520088762044899677e-02,-1.614796742796899970e-02,1.526147276163100086e-01,8.473172038793599925e-02,-3.061044774949599895e-02,-1.058214753866199981e-01,2.861010655760800117e-02,-1.018336042761800037e-01,9.366948157548900256e-02,8.341936022043200394e-02,7.156334468163500027e-04,2.980986833572399908e-01,7.814573645591700313e-01,8.948761969804800223e-03,2.051537185907399974e-01,-2.170120924711199939e-01,1.011909246444700067e-01,-1.098443642258599973e-01,-1.272799819707899904e-01,9.946940466761599459e-03,8.882457613944999553e-01,1.105061024427400063e-01,2.319972515106200062e-01,-1.587767452001599966e-01,6.906890273094199451e-01,-1.346380822360499982e-02,-3.321183919906600113e-01,-8.171875029802300183e-02,-3.869189620017999820e-01,1.105888113379499965e-01,5.844820141792299584e-01,-4.058230668306400148e-03,5.353555083274799675e-02,3.539200127124800255e-01,1.117077022790899932e-01,-2.079395055770900114e-01,1.117989271879200053e-01,4.563943743705700107e-01,-1.410203725099599958e-01,4.031958281993899829e-01,-1.530927270650900007e-01,-5.925969406962400265e-02,6.792646050453200468e-01,-4.188012182712599896e-01,3.910998702049299780e-01,1.720743328332899891e-01,-2.994831204414399872e-01,2.046534568071400051e-01,-8.961220830678899574e-02,-6.433561909943799964e-03,-2.082776874303799985e-01,1.217963844537700013e-01,-2.839812934398699973e-01,-7.021299004554699685e-01,-6.070196628570599662e-02,-3.129822313785600163e-01,2.621357738971700213e-01,3.025326132774400212e-01,2.144066393375400059e-01,-2.605344653129599841e-01,1.912731081247300013e-01,-1.637845933437299950e-01,-8.312953263521200009e-02,-1.434687674045599937e-01,-3.004366159439100237e-01,3.495786786079400077e-01,-2.136462181806600136e-01,-3.655333220958699725e-01,-2.534270584583300234e-01,-6.766776740551000424e-02,-9.672399610281000315e-02,3.975820168852799846e-02,-1.997114270925499924e-01,-1.432611644268000084e-01,-6.924446225166299707e-01,3.254443705081899729e-01,-4.312103241682099797e-02,8.544569462537800197e-02,-1.749631911516200122e-01,-1.525900363922099989e-01,1.805515727028299917e-03,1.378465294837999955e-01,9.182447567582099207e-03,2.295226752758000033e-01,-3.195191025733900014e-01,4.078923538327199755e-02,5.299709439277600076e-01,2.376184016466099946e-01,4.190874993801099735e-01,-3.161069154739399867e-01,-3.250170946121200277e-01,1.701795905828500099e-01,-1.252596974372900129e-01,2.351104170083999911e-01,2.910282313823699951e-01,-4.467921555042300152e-01,-1.551854461431499965e-01,2.161774635314900050e-01,-1.604728400707199909e-01,5.564355254173299903e-01,7.064850926399199871e-01,-1.993340700864799919e-01,-2.807289548218299888e-02,9.050670266151400467e-02,1.677442044019699929e-01,5.340984091162700315e-02,-4.222702085971800079e-01,3.620654046535500270e-01,2.847799062728900155e-01,1.034115672111499906e+00,-1.294517219066599889e-01,-6.958106160163900489e-01,1.024051290005400031e-02,5.037476122379300203e-02,-1.152554228901900013e-01,-7.059527188539499454e-02,-1.813325136899900103e-01,-6.357637047767600302e-02,1.588915884494800090e-01,1.165821962058499923e-02,3.931916058063499864e-01,6.077880263328599986e-01,-1.232297718524899971e-01,-3.514039814472200152e-01,-1.544900834560400116e-01,2.475479841232300082e-01,-3.099296689033499974e-01,3.249280452728299795e-01,6.406269222497899818e-02,-2.228843569755599996e-01,4.759408533573200040e-01,-6.624855846166599616e-02,3.288172781467399997e-01,1.663683801889400127e-01,-1.230145990848500043e-01,-1.870420575141900146e-02,6.627275794744499904e-02,2.240197360515600034e-02,-1.275848299264900065e-01,-6.261248141527199496e-02,-5.343661084771200026e-02,-5.015019178390499599e-01,-8.134342730045299522e-03,-1.819647401571299894e-01,-8.717157691717100643e-02,-5.261760354042099852e-01,-2.348970063030699981e-02,-1.294364333152799862e-01,-5.537278205156299926e-02,1.113764345645899961e-01,2.530848085880300080e-01,-7.717471569776500340e-02,6.214744970202400187e-02,-5.467919982038400373e-04,1.313581764697999976e-01,-1.797998249530800008e-01,7.887368090450800132e-03,-1.885813176631900012e-01,1.398431137204200064e-02,2.711468338966400160e-01,-1.321739424020100008e-02,-5.348740518093100110e-02,-2.035021223127799969e-02,-2.616302073001899875e-01,-1.791212558746299865e-01,4.940499737858800033e-02,1.823786497116099969e-01,-1.971360109746499861e-02,1.118521112948699971e-02,-5.830078944563899662e-02,-1.147386431693999953e-01,8.590557426214200099e-02,1.667561978101700093e-01,-8.779675513505899587e-02,4.617200791835800178e-02,-6.557877641171199617e-03,-4.522483795881299812e-02,-6.773924827575700247e-02,1.713973730802499928e-01,-1.061775684356700000e-01,1.908401995897300030e-01,-1.776894927024799953e-01,2.014909386634800015e-01,-1.000409945845600057e-01,-2.998720481991800149e-02,2.431089431047399885e-01,-2.415824085474000127e-01,3.247659504413599740e-01,-8.128023892641099424e-02,1.822550594806700008e-01,2.592053413391099959e-01,-2.335035651922199862e-01,-7.789793610572799676e-02,8.565735816955599713e-02,-8.797325193882000668e-03,1.831220239400900007e-01,-2.870876155793700146e-02,-6.950668524950700221e-03,-1.085323765873899976e-01,1.297638635151099947e-03,-2.417079061269800100e-01,-4.128993302583700009e-02,2.680372819304499901e-02,7.607401907444000244e-02,1.044050678610800031e-01,5.508624482899899914e-03,4.278107546269899718e-03,8.934441953897500482e-03,5.055495500564599620e-01,-1.305932402610799903e-01,2.787268720567200042e-02,1.256265025585900051e-02,-1.870248466730100034e-01,7.877072691917400005e-02,-5.191371310502300267e-03,-9.493446350097700659e-02,1.641056090593299988e-01,-5.206599086523099745e-02,-1.245387569069899975e-01,-2.926413901150200138e-03,1.710114181041700043e-01,8.942095935344700208e-02,-9.884752333164199822e-02,9.024148434400600105e-02,-1.122857332229599964e-01,-3.992112353444100120e-02,-6.564850360155100040e-02,-1.634647995233499962e-01,2.587983570992900134e-02,3.692790269851700113e-01,-2.616842091083499966e-01,5.056587457656900320e-01,-3.580322861671399876e-02,5.683490633964499716e-02,3.143133521079999881e-01,2.660569250583599832e-01,7.338178902864500586e-02,-4.623113572597500193e-02,-6.839177757501599397e-02,-1.009794548153900018e-01,4.956959560513499868e-02,3.992474079132100201e-02,-1.256712526083000048e-01,3.617583513259899908e-01,5.286398530006399671e-02,-1.217129230499300052e-01,2.999095432460300095e-02,-9.844829887151700099e-02,-8.350142277777200181e-03,-1.090236101299500021e-02,-5.830318201333299991e-03,-8.672496676445000385e-02,-8.725032210350000539e-02,1.028087958693500031e-01,1.787988655269100169e-02,-2.937274239957299998e-02,-1.403296887874599941e-01,1.143176183104499949e-01,2.370625548064700036e-02,-1.513668447732899880e-01,-4.532774910330800155e-02,-1.827009022235900060e-01,-1.922566909343000107e-03,-1.558017432689700055e-01,-6.335090845823300454e-02,6.473162770271299882e-02,4.933169856667499881e-02,2.200700789689999937e-01,-2.234247773885700006e-01,-2.861189842224100000e-01,-1.673845201730700116e-01,-6.271715462207799741e-02,8.072756975889200382e-02
-4.950571358203900152e-01,-1.428952515125299916e-01,-5.504143238067600308e-01,-1.787516027689000087e-01,-5.815292894840200233e-02,4.975138232111900316e-02,3.859621286392200257e-01,1.727937310934100079e-01,1.939762383699400114e-02,2.034538388252299934e-01,4.511991739273100155e-01,1.163517683744400011e-01,3.272861242294299866e-01,1.166007947176700074e-02,-3.728576898574800236e-01,2.952415943145800248e-01,3.321084082126600223e-01,6.197887659072900401e-01,-4.395629167556799888e-01,-5.310250520706200072e-01,-1.898848563432699865e-01,-6.705036163330100329e-01,-2.036349922418599911e-01,7.361114025116000104e-02,-2.126757949590699914e-01,1.687288433313400005e-01,4.683268070220900081e-01,1.466991525376200127e-04,6.804067641496699959e-02,-1.557309180498100132e-01,3.258585929870599918e-01,2.011323124170300014e-01,-1.047396212816199962e-01,-1.111468374729199932e-01,-2.020347565412499991e-01,4.373240843415299867e-02,2.732201218604999871e-01,2.625706195831299938e-01,1.932920068502400057e-01,6.088770627975500505e-01,7.873947918415100111e-02,4.529426991939500269e-01,-4.140575230121599781e-01,-1.423832029104200037e-01,2.574300169944799821e-01,-4.897464811801899992e-02,-3.460138738155399962e-01,8.593110740184800589e-02,-2.131079509854300058e-02,-3.952103853225700236e-01,-2.478165030479400066e-01,2.619005925953400010e-02,-1.893951594829600127e-01,1.814989149570500060e-01,5.847538709640499599e-01,8.577551692724200150e-02,-6.538236141204800678e-02,1.963137388229400093e-01,4.710087552666700206e-02,5.273256897926299480e-01,2.717097997665400277e-01,3.421981586143400030e-03,2.549058385193300053e-02,1.262567043304400061e-01,-4.628001153469100265e-02,5.713214352726900258e-02,1.391239278018500079e-02,-9.056791663169899698e-02,-5.323895718902300032e-03,-1.342553365975599974e-02,-1.650433093309399968e-01,-3.265575468540199977e-01,1.816336363554000022e-01,8.234045654535300518e-02,1.128251701593400019e-01,5.111155658960300080e-02,2.779693603515600020e-01,-1.819520741701100008e-01,5.086013674736000051e-02,-4.653834104537999949e-01,-8.442476391792300139e-02,9.258752316236500135e-02,-1.931503862142600059e-01,4.795518815517400002e-01,1.262086331844300136e-01,4.602503497153499767e-03,-4.373682290315600296e-02,2.391170263290400000e-01,-6.597377061843899826e-01,9.163607656955699565e-02,7.513239383697499774e-01,7.038408517837499434e-02,-6.484421342611300376e-02,4.102461338043200123e-01,-5.569291487336199692e-02,1.150521188974400061e-01,-3.212988078594199992e-01,2.699163183569900162e-02,1.382109671831099895e-01,-5.309982299804699712e-01,2.047775685787200095e-01,6.920280456542999836e-01,3.993993401527399789e-01,1.527010351419400003e-01,3.837310075759899908e-01,-7.369825989007899869e-02,-9.353499859571499930e-02,3.558749258518200120e-01,3.583956062793700048e-01,3.204752504825599813e-01,1.550632864236800024e-01,4.551711082458499980e-01,-2.222541570663499888e-01,1.469489932060200066e-01,1.498632133006999947e-02,1.220132634043700065e-01,-3.160194158554099908e-01,-2.153576165437700099e-02,-2.105018049478500075e-01,-4.989177733659699854e-02,4.421995580196400044e-01,-2.242789268493700083e-01,-5.385668575763700311e-02,3.102632164955099747e-01,1.932160258293199873e-01,3.560950607061399986e-02,-4.390567541122399747e-02,-2.853062152862499978e-01,9.308946877717999557e-02,-9.872933626174900112e-01,-2.506115436554000042e-01,-1.474812775850299906e-01,-1.164060235023500062e-01,1.566236913204200054e-01,1.660948395729099913e-01,2.565896511077899733e-01,2.087761610746400043e-01,2.021604180335999923e-01,-7.465329021215399985e-02,-3.355904296040500279e-02,6.099663302302400086e-02,2.110316008329400084e-01,2.867404818534899924e-01,-1.029999971389800040e+00,1.653023660183000065e-01,2.359098494052900008e-01,2.781313061714200119e-01,-1.182849183678599952e-01,1.336533110588799915e-02,2.855032086372399913e-01,-6.642177104950000022e-01,-4.272026708349600170e-04,-2.609157860279099905e-01,1.656141430139499993e-01,3.145559504628200193e-02,2.561599016189600175e-01,-2.958670854568499764e-01,-1.671788841485999932e-01,8.392784744501100014e-02,1.123867370188199981e-02,-7.879067212343200330e-03,2.174659073352800120e-01,1.627013832330700127e-01,-3.151007890701300052e-01,2.746052443981200075e-01,2.665551006794000255e-01,3.786934167146700086e-02,-1.446029245853399925e-01,-4.381641745567300267e-02,8.103731274604800139e-02,-2.480029612779600101e-01,-2.930066883563999802e-01,-5.182595551013900043e-02,5.566325187683099918e-01,-5.969952940940900232e-01,-2.197033166885400124e-01,4.792349636554700254e-01,-7.886721193790399709e-02,-3.067691111937199955e-03,2.230995595455199931e-01,8.652041852474200156e-02,1.675874739885300016e-02,-4.251965582370800245e-01,-4.342918395996099856e-01,-4.367953538894699950e-01,1.451668515801400085e-02,-2.991177737712900075e-01,8.115623891353600239e-02,5.807735025882700131e-02,9.586743265390400282e-02,-1.910542882978899862e-02,3.351492881774900123e-01,-2.396247237920799966e-01,1.383227258920700087e-01,-7.357194274663900191e-02,5.028156563639600042e-03,4.951157420873600334e-02,3.631949126720400156e-01,-2.273764275014400135e-02,-1.222150102257699988e-01,1.155536323785800040e-01,-8.669080585241299708e-02,2.064319252967800056e-01,-3.892790675163300129e-01,5.381802842021000260e-02,2.311637997627299934e-01,5.089334025978999726e-02,-3.431089222431200070e-01,6.994895637035400404e-02,9.115538746118499736e-02,-4.816727638244600040e-01,-6.797475274652200160e-03,4.892726615071300161e-02,-3.274628221988700183e-01,2.471368610858900028e-01,-1.587602943181999904e-01,2.623899839818499835e-02,5.725207328796400041e-01,4.128879606723799833e-01,1.710300147533400095e-02,2.070232108235400131e-02,1.800451129674900119e-01,-3.124457001686100077e-01,-9.721138328313799759e-02,-1.045952066779100020e-01,1.008818268775899973e+00,3.669738471508000033e-01,-1.692282110452699995e-01,-8.583894371986400262e-02,1.195287823677100070e+00,-5.406273603439299968e-01,-2.161063253879499935e-01,3.798351883888200220e-01,-2.719197273254400082e-01,-1.029478833079300049e-01,5.482311546802499935e-02,8.306207507848699378e-02,-3.950962722301499808e-01,-4.681602492928500087e-02,-8.055190443992600313e-01,4.989840462803799698e-02,-7.868713699281200055e-03,-4.731618799269200239e-03,2.953195273876200178e-01,1.480167657136899906e-01,-9.156615473330000088e-03,2.798353433608999907e-01,-6.102087497711200514e-01,4.312054440379099740e-02,-3.445746004581500266e-01,1.768908500671400041e-01,-9.981696009635899758e-01,6.590587645769099834e-02,-4.916468858718899826e-01,9.482764452695799373e-02,-7.063745260238599721e-01,-1.823796182870900118e-01,3.864408135414100220e-01,6.297797560691800189e-01,3.663677871227299931e-01,3.512599766254400069e-01,7.609728574752799846e-01,-8.787144720554400379e-02,-2.665441036224400206e-01,-3.929470777511600010e-01,-2.475086152553599983e-01,2.279777973890300125e-01,-2.411220781505099900e-02,3.381984308362000202e-02,-4.969512671232199919e-02,7.406786084175099871e-01,2.686601400375399962e+00,-1.303205490112300025e+00,-5.137178674340200230e-02,3.485251963138599751e-01,-2.096676081418999971e-01,1.193643212318399982e+00,-1.677350252866700031e-01,5.310506746172900111e-02,6.962105631828300334e-01,9.177995473146399741e-02,2.449714899063100138e+00,3.788996115326900144e-02,-2.604032158851600220e-01,-1.909670978784600015e-01,3.003736436366999940e-01,-3.248393237590799787e-01,-1.595082283020000102e-01,-2.491426616907100045e-01,-2.707989886403100108e-02,2.834303975105300077e-01,-5.062761306762699753e-01,5.776548385620100534e-01,2.999315410852399985e-02,-1.472930014133499999e-01,-1.714832633733699985e-01,-1.479682773351700120e-01,4.524250328540799782e-01,5.414896607399000139e-01,1.825197041034699874e-01,-3.927332460880300080e-01,4.894024431705499834e-01,1.521548181772200137e-01,2.819384634494799813e-01,-2.664072811603499999e-02,-2.607631385326399931e-01,4.292728900909399958e-01,3.808366656303400211e-01,2.457754313945799962e-01,2.789328992366800208e-01,-4.430761188268699663e-02,-1.793681532144499879e-01,1.147960033267700006e-02,3.006482124328599959e-01,6.624047160148599511e-01,5.324975848197900374e-01,1.863151043653500094e-01,5.852784514427199491e-01,-2.697411179542499871e-01,9.513019770383800144e-02,-7.431970834732100073e-01,2.196559906005899898e-01,1.094587668776499934e-01,1.938697099685700032e-01,1.073498606681799972e+00,-4.352296888828299792e-01,-8.714838027954100452e-01,3.353302776813499864e-01,-1.385930418968200017e+00,-5.210948586463900467e-01,8.799044787883800178e-02,5.510234087705599693e-02,2.176227420568500048e-01,2.957400083541900093e-01,4.489049687981599979e-02,-1.211177930235900063e-01,-8.051010370254499948e-01,3.183084428310399838e-01,6.390637159347499763e-01,-1.373536586761499867e-01,1.772906333208099927e-01,-1.647985428571699940e-01,2.341032326221499926e-01,1.687445789575600097e-01,-5.406120419502300489e-01,-4.835345968604100320e-02,2.921652048826199957e-02,-3.608019649982500132e-01,2.336598187685000050e-01,-1.030664071440700047e-01,-6.036241054534899897e-01,-1.884759962558699847e-02,-1.669951975345599915e-01,3.108051372691999787e-03,-6.346749067306499681e-01,2.803917825221999838e-01,1.120692342519799961e-01,4.005305171012900067e-01,-2.837096750736199935e-01,5.999689921736699877e-02,5.062564015388499872e-01,1.101325005292899950e-01,-2.948005497455600254e-01,1.040375512093300037e-02,-3.050132989883400092e-01,6.068542599677999583e-01,4.405452609062199820e-01,9.191462993621799527e-01,3.914347589016000106e-01,2.712250947952299818e+00,-1.228508129715900066e-01,4.346611797809600275e-01,8.032310754060699443e-02,-7.693430781364400672e-02,1.553454160690300068e+00,-2.532406449317899932e-01,9.130001664161699892e-01,-2.382894456386600024e-01,-1.665663421154000012e-01,-2.762022018432599979e-01,9.582745283842100670e-02,-1.677774190902699969e-01,9.896923303604100441e-01,-3.497971594333599832e-01,3.850254118442499873e-01,-5.434552207589100035e-03,-2.475428767502299912e-02,-3.106368184089700057e-01,-9.985326975583999620e-02,3.168718516826600218e-01,-2.232760488987000080e-01,2.203245908021899957e-01,7.307408750057199642e-02,-1.126361042261100065e-01,-1.152695119381000055e-01,-2.742617726325999872e-01,-1.678777635097500054e-01,-1.914118416607400036e-02,1.737906970083700001e-02,-1.825185865163799978e-02,1.432776004075999865e-01,-2.590788006782500097e-01,-1.260026544332500109e-01,4.371263552457100264e-03,7.156619429588299830e-02,3.648525848984700282e-02,1.161144226789500022e-01,-4.814183339476599960e-02,6.880852580070499769e-02,4.335350096225700223e-01,-1.763065904378899873e-01,1.202205102890700067e-02,2.106003314256700010e-01,-1.969166398048400046e-01,-1.072516590356799998e-01,5.246535688638700318e-02,2.681667208671599800e-01,7.952998578548399478e-02,-7.535363733768500605e-02,-8.514940738677999332e-02,-8.114244043827099906e-02,3.764137998223299891e-02,1.575588583946199994e-01,3.046433329582199923e-01,2.937020175159000060e-02,-6.300726532936100355e-02,-6.410515308380100585e-02,6.761081516742699360e-02,1.491239517927200053e-01,1.463350355625200050e-01,1.013062149286299979e-01,-6.594572216272399923e-02,-4.587066173553500104e-02,-2.346618324518200127e-01,1.553538348525800028e-02,4.927705526351899845e-01,2.341472357511500124e-01,-7.303660362958899754e-02,9.537301212549199880e-02,-7.086104154586800319e-02,3.288513422012300236e-01,-2.482220344245400154e-02,1.783668994903599980e-01,2.224812842905499882e-02,6.630928814411199412e-02,-2.003991231322299962e-02,-2.876820228993899956e-02,-2.886327803134899894e-01,-3.870615735650100031e-02,-3.119389526546000047e-02,-1.085473224520699942e-01,-3.281452953815500173e-01,3.544878214597699945e-02,4.964304389432099745e-04,-9.582859277725200298e-02,2.922424972057299786e-01,-1.375298798084300111e-01,2.798800766467999801e-01,1.791174560785299963e-01,5.262194573879200310e-02,1.780306249856900003e-01,-8.592397905886199269e-03,-7.104111462831499968e-02,-3.619538545608499969e-01,5.864908173680299930e-02,8.144049346447000681e-02,9.139428287744499890e-02,2.485759705305100042e-01,-7.619466632604600387e-02,-5.386564880609499839e-02,1.209108307957599965e-01,-2.785983979701999735e-01,6.079525873064999669e-02,7.725548744201700402e-02,2.740301191806799874e-01,2.261227518320099994e-01,-1.747579872608200080e-01,-1.855530887842199994e-01,1.199116930365600048e-01,9.422505274415000562e-03,-8.601693809032399940e-02,1.029129475355100021e-01,6.271347403526300601e-02,-1.599192768335299941e-01,-1.816959083080300075e-01,-1.418458968400999887e-01,5.036508440971400047e-01,-1.362887322902699982e-01,-4.860476255416900093e-01,5.225258693098999707e-02,-1.403766721487000046e-01,1.155529469251599939e-01,4.073030501604100323e-02,5.299962759017899927e-01,-3.375562652945499759e-02,2.135964110493699872e-02,-1.489915251731900037e-01,-9.923538565635700581e-02,5.000004079192900235e-03,-1.746468245983099910e-01,4.025107994675600209e-02,-6.695477366447399881e-01,1.976355016231499950e-01,1.312205195426900117e-01,1.862182468175899858e-02,-2.233792096376399916e-01,-9.306224435567900244e-02,5.414142832160000196e-02,-1.975752413272900132e-01,2.801117599010499726e-01,-4.694727659225499949e-01,1.477846223861000070e-02
